svm_type c_svc
kernel_type rbf
gamma 3.05176e-05
nr_class 2
total_sv 10281
rho 18.5446
label 1 -1
probA -2.28741
probB 0.515957
nr_sv 5124 5157
SV
32768 1:0.073426573 2:0.089160839 3:0.033216783 4:0.061188811 5:0.061188811 6:0.085664336 7:0.027972028 8:0.08041958 9:0.057692308 10:282 11:0.4921466 12:0.096153846 
32768 1:0.04587156 2:0.095412844 3:0.049541284 4:0.086238532 5:0.055045872 6:0.060550459 7:0.03853211 8:0.091743119 9:0.071559633 10:222 11:0.40659341 12:0.095412844 
32768 1:0.13559322 2:0.084745763 3:0.036319613 4:0.04842615 5:0.07748184 6:0.046004843 7:0.00968523 8:0.075060533 9:0.041162228 10:204 11:0.49275362 12:0.03874092 
32768 1:0.021671827 2:0.077399381 3:0.11145511 4:0.089783282 5:0.068111455 6:0.055727554 7:0.024767802 8:0.068111455 9:0.07120743 10:147 11:0.4537037 12:0.092879257 
32768 1:0.10362694 2:0.08462867 3:0.031088083 4:0.081174439 5:0.07253886 6:0.056994819 7:0.020725389 8:0.074265976 9:0.074265976 10:279 11:0.48103448 12:0.062176166 
32768 1:0.062953995 2:0.092009685 3:0.070217918 4:0.094430993 5:0.062953995 6:0.062953995 7:0 8:0.082324455 9:0.055690073 10:414 11:1 12:0.055690073 
32768 1:0.011600928 2:0.051044084 3:0.020881671 4:0.039443155 5:0.032482599 6:0.13225058 7:0.14617169 8:0.046403712 9:0.14617169 10:126 11:0.29166667 12:0.18329466 
32768 1:0.062992126 2:0.07480315 3:0.059055118 4:0.066929134 5:0.090551181 6:0.090551181 7:0.0078740157 8:0.059055118 9:0.05511811 10:111 11:0.43529412 12:0.066929134 
32768 1:0.033932136 2:0.081836327 3:0.031936128 4:0.075848303 5:0.071856287 6:0.10578842 7:0.035928144 8:0.041916168 9:0.10179641 10:334 11:0.66533865 12:0.11976048 
32768 1:0.043814433 2:0.06443299 3:0.015463918 4:0.06185567 5:0.082474227 6:0.15463918 7:0.077319588 8:0.054123711 9:0.11597938 10:156 11:0.40102828 12:0.10824742 
32768 1:0.075 2:0.065 3:0.06 4:0.075 5:0.09 6:0.095 7:0.02 8:0.055 9:0.055 10:177 11:0.88059701 12:0.04 
32768 1:0.10115607 2:0.083815029 3:0.060693642 4:0.089595376 5:0.057803468 6:0.037572254 7:0.0057803468 8:0.086705202 9:0.043352601 10:141 11:0.40634006 12:0.043352601 
32768 1:0.062656642 2:0.085213033 3:0.05764411 4:0.067669173 5:0.095238095 6:0.10526316 7:0.020050125 8:0.080200501 9:0.055137845 10:149 11:0.3725 12:0.050125313 
32768 1:0.063576159 2:0.072847682 3:0.059602649 4:0.092715232 5:0.078145695 6:0.072847682 7:0.026490066 8:0.070198675 9:0.062251656 10:492 11:0.65079365 12:0.084768212 
32768 1:0.132 2:0.048 3:0.104 4:0.096 5:0.084 6:0.032 7:0.008 8:0.072 9:0.024 10:75 11:0.29880478 12:0.02 
32768 1:0.13636364 2:0.090909091 3:0.063131313 4:0.068181818 5:0.063131313 6:0.060606061 7:0.0025252525 8:0.075757576 9:0.050505051 10:234 11:0.58942065 12:0.055555556 
32768 1:0.026315789 2:0.062030075 3:0.04887218 4:0.056390977 5:0.086466165 6:0.12781955 7:0.084586466 8:0.045112782 9:0.10150376 10:246 11:0.46153846 12:0.093984962 
32768 1:0.041666667 2:0.083333333 3:0.019067797 4:0.068502825 5:0.066384181 6:0.12782486 7:0.056497175 8:0.063559322 9:0.11228814 10:711 11:0.50176429 12:0.10381356 
32768 1:0.16433566 2:0.097902098 3:0.059440559 4:0.059440559 5:0.052447552 6:0.027972028 7:0.017482517 8:0.090909091 9:0.052447552 10:198 11:0.68989547 12:0.059440559 
32768 1:0.020746888 2:0.12448133 3:0.012448133 4:0.058091286 5:0.033195021 6:0.095435685 7:0.053941909 8:0.12448133 9:0.070539419 10:142 11:0.58677686 12:0.12863071 
32768 1:0.071641791 2:0.098507463 3:0.029850746 4:0.074626866 5:0.068656716 6:0.074626866 7:0.026865672 8:0.07761194 9:0.080597015 10:66 11:0.19642857 12:0.07761194 
32768 1:0.032876712 2:0.095890411 3:0.016438356 4:0.043835616 5:0.068493151 6:0.093150685 7:0.076712329 8:0.060273973 9:0.11506849 10:194 11:0.53005464 12:0.093150685 
32768 1:0.093949045 2:0.084394904 3:0.081210191 4:0.066878981 5:0.065286624 6:0.063694268 7:0.011146497 8:0.070063694 9:0.049363057 10:525 11:0.83465819 12:0.066878981 
32768 1:0.047146402 2:0.094292804 3:0.052109181 4:0.062034739 5:0.10421836 6:0.076923077 7:0.017369727 8:0.066997519 9:0.066997519 10:228 11:0.56435644 12:0.074441687 
32768 1:0.1122449 2:0.081632653 3:0.055393586 4:0.071428571 5:0.071428571 6:0.039358601 7:0.020408163 8:0.083090379 9:0.04664723 10:303 11:0.44104803 12:0.049562682 
32768 1:0.077319588 2:0.079896907 3:0.074742268 4:0.079896907 5:0.085051546 6:0.069587629 7:0.010309278 8:0.072164948 9:0.059278351 10:308 11:0.79177378 12:0.056701031 
32768 1:0.030588235 2:0.068235294 3:0.044705882 4:0.094117647 5:0.072941176 6:0.091764706 7:0.047058824 8:0.061176471 9:0.096470588 10:117 11:0.27464789 12:0.091764706 
32768 1:0.045146727 2:0.065462754 3:0.027088036 4:0.085778781 5:0.079006772 6:0.13769752 7:0.029345372 8:0.051918736 9:0.06772009 10:18 11:0.040540541 12:0.081264108 
32768 1:0.053204353 2:0.07980653 3:0.039903265 4:0.070133011 5:0.081015719 6:0.10157195 7:0.062877872 8:0.07376058 9:0.084643289 10:528 11:0.63768116 12:0.091898428 
32768 1:0.11793612 2:0.090909091 3:0.051597052 4:0.056511057 5:0.056511057 6:0.036855037 7:0.012285012 8:0.081081081 9:0.036855037 10:210 11:0.51470588 12:0.078624079 
32768 1:0.10333333 2:0.086666667 3:0.073333333 4:0.063333333 5:0.05 6:0.053333333 7:0.036666667 8:0.08 9:0.053333333 10:69 11:0.22923588 12:0.07 
32768 1:0.071641791 2:0.092537313 3:0.03880597 4:0.065671642 5:0.071641791 6:0.11044776 7:0.014925373 8:0.065671642 9:0.059701493 10:36 11:0.10714286 12:0.059701493 
32768 1:0.12286689 2:0.10580205 3:0.075085324 4:0.081911263 5:0.058020478 6:0.023890785 7:0.010238908 8:0.11262799 9:0.034129693 10:86 11:0.29251701 12:0.040955631 
32768 1:0.10084034 2:0.075630252 3:0.092436975 4:0.084033613 5:0.11344538 6:0.058823529 7:0.012605042 8:0.067226891 9:0.06302521 10:72 11:0.30125523 12:0.079831933 
32768 1:0.084269663 2:0.065543071 3:0.059925094 4:0.093632959 5:0.065543071 6:0.046816479 7:0.028089888 8:0.076779026 9:0.063670412 10:246 11:0.45981308 12:0.073033708 
32768 1:0.047619048 2:0.043650794 3:0.091269841 4:0.079365079 5:0.083333333 6:0.06547619 7:0.021825397 8:0.041666667 9:0.049603175 10:351 11:0.6950495 12:0.049603175 
32768 1:0.028017241 2:0.079741379 3:0.047413793 4:0.096982759 5:0.10344828 6:0.07112069 7:0.028017241 8:0.064655172 9:0.068965517 10:204 11:0.43870968 12:0.077586207 
32768 1:0.068965517 2:0.093306288 3:0.079107505 4:0.10547667 5:0.081135903 6:0.046653144 7:0.010141988 8:0.09127789 9:0.06693712 10:222 11:0.44939271 12:0.054766734 
32768 1:0.03902439 2:0.098780488 3:0.013414634 4:0.067073171 5:0.074390244 6:0.11829268 7:0.035365854 8:0.065853659 9:0.10731707 10:571 11:0.6954933 12:0.11341463 
32768 1:0.041852182 2:0.081032947 3:0.061442565 4:0.081032947 5:0.081032947 6:0.089047195 7:0.030276046 8:0.06411398 9:0.079252004 10:498 11:0.4430605 12:0.076580588 
32768 1:0.12096774 2:0.086021505 3:0.064516129 4:0.056451613 5:0.056451613 6:0.029569892 7:0.032258065 8:0.094086022 9:0.034946237 10:228 11:0.61126005 12:0.056451613 
32768 1:0.081927711 2:0.091566265 3:0.055421687 4:0.089156627 5:0.062650602 6:0.072289157 7:0.01686747 8:0.089156627 9:0.055421687 10:306 11:0.73557692 12:0.077108434 
32768 1:0.050772627 2:0.066225166 3:0.030905077 4:0.061810155 5:0.099337748 6:0.11037528 7:0.039735099 8:0.061810155 9:0.068432671 10:322 11:0.7092511 12:0.081677704 
32768 1:0.054054054 2:0.1018711 3:0.033264033 4:0.058212058 5:0.068607069 6:0.12681913 7:0.012474012 8:0.066528067 9:0.079002079 10:309 11:0.64107884 12:0.095634096 
32768 1:0.084536624 2:0.081911263 3:0.054082436 4:0.07876083 5:0.061958519 6:0.071672355 7:0.023103177 8:0.07403518 9:0.061170911 10:1944 11:0.51023622 12:0.061433447 
32768 1:0.0703125 2:0.0859375 3:0.046875 4:0.080729167 5:0.0625 6:0.0859375 7:0.052083333 8:0.088541667 9:0.078125 10:72 11:0.18701299 12:0.0625 
32768 1:0.043604651 2:0.081395349 3:0.075581395 4:0.093023256 5:0.075581395 6:0.075581395 7:0.040697674 8:0.072674419 9:0.081395349 10:195 11:0.56521739 12:0.066860465 
32768 1:0.07424072 2:0.083239595 3:0.046119235 4:0.07424072 5:0.061867267 6:0.062992126 7:0.032620922 8:0.075365579 9:0.065241845 10:447 11:0.50224719 12:0.086614173 
32768 1:0.071428571 2:0.069642857 3:0.016071429 4:0.060714286 5:0.058928571 6:0.11964286 7:0.078571429 8:0.069642857 9:0.089285714 10:159 11:0.28342246 12:0.1 
32768 1:0.096828047 2:0.080133556 3:0.051752922 4:0.080133556 5:0.068447412 6:0.053422371 7:0.026711185 8:0.080133556 9:0.05509182 10:600 11:1 12:0.041736227 
32768 1:0.053398058 2:0.11893204 3:0.038834951 4:0.084951456 5:0.065533981 6:0.055825243 7:0.019417476 8:0.077669903 9:0.087378641 10:123 11:0.29782082 12:0.055825243 
32768 1:0.074349442 2:0.089219331 3:0.079925651 4:0.06133829 5:0.059479554 6:0.057620818 7:0.024163569 8:0.072490706 9:0.053903346 10:282 11:0.52319109 12:0.063197026 
32768 1:0.056463596 2:0.089153046 3:0.050520059 4:0.080237741 5:0.080237741 6:0.093610698 7:0.010401189 8:0.077265973 9:0.056463596 10:342 11:0.5074184 12:0.068350669 
32768 1:0.14178755 2:0.074871315 3:0.082826392 4:0.066448292 5:0.055217595 6:0.0491343 7:0.0098268601 8:0.082358446 9:0.029012635 10:867 11:0.40551918 12:0.038371549 
32768 1:0.027809965 2:0.06373117 3:0.091541136 4:0.077636153 5:0.11123986 6:0.1193511 7:0.022016222 8:0.048667439 9:0.067207416 10:622 11:0.71990741 12:0.059096176 
32768 1:0.068796069 2:0.085995086 3:0.095823096 4:0.088452088 5:0.061425061 6:0.039312039 7:0.0073710074 8:0.081081081 9:0.034398034 10:189 11:0.46323529 12:0.027027027 
32768 1:0.071969697 2:0.083333333 3:0.037878788 4:0.083333333 5:0.064393939 6:0.068181818 7:0.053030303 8:0.087121212 9:0.079545455 10:114 11:0.43018868 12:0.087121212 
32768 1:0.10132159 2:0.066079295 3:0.068281938 4:0.085903084 5:0.061674009 6:0.061674009 7:0.030837004 8:0.079295154 9:0.063876652 10:231 11:0.50769231 12:0.050660793 
32768 1:0.01971831 2:0.067605634 3:0.016901408 4:0.090140845 5:0.070422535 6:0.090140845 7:0.087323944 8:0.05915493 9:0.092957746 10:174 11:0.48876404 12:0.10422535 
32768 1:0.10629921 2:0.082677165 3:0.059055118 4:0.039370079 5:0.066929134 6:0.078740157 7:0.023622047 8:0.059055118 9:0.043307087 10:216 11:0.84705882 12:0.051181102 
32768 1:0.08490566 2:0.072327044 3:0.075471698 4:0.081761006 5:0.091194969 6:0.06918239 7:0.012578616 8:0.062893082 9:0.056603774 10:108 11:0.33855799 12:0.050314465 
32768 1:0.097493036 2:0.086350975 3:0.064066852 4:0.072423398 5:0.064066852 6:0.04735376 7:0 8:0.077994429 9:0.04178273 10:165 11:0.45833333 12:0.036211699 
32768 1:0.099861304 2:0.085991678 3:0.066574202 4:0.083217753 5:0.067961165 6:0.042995839 7:0.013869626 8:0.092926491 9:0.048543689 10:399 11:0.55263158 12:0.07073509 
32768 1:0.062730627 2:0.084870849 3:0.0073800738 4:0.051660517 5:0.04797048 6:0.099630996 7:0.070110701 8:0.062730627 9:0.10701107 10:183 11:0.67279412 12:0.1697417 
32768 1:0.013913043 2:0.076521739 3:0.015652174 4:0.045217391 5:0.074782609 6:0.12869565 7:0.11652174 8:0.060869565 9:0.14608696 10:354 11:0.61458333 12:0.13565217 
32768 1:0.12295082 2:0.067730802 3:0.067299396 4:0.071182053 5:0.060396894 6:0.051768766 7:0.011216566 8:0.080241588 9:0.029335634 10:1045 11:0.45062527 12:0.040120794 
32768 1:0.096153846 2:0.10576923 3:0.0625 4:0.076923077 5:0.067307692 6:0.052884615 7:0.0096153846 8:0.091346154 9:0.048076923 10:78 11:0.37320574 12:0.057692308 
32768 1:0.069196429 2:0.109375 3:0.024553571 4:0.066964286 5:0.071428571 6:0.10491071 7:0.03125 8:0.075892857 9:0.082589286 10:213 11:0.47438753 12:0.078125 
32768 1:0.13687151 2:0.094972067 3:0.036312849 4:0.058659218 5:0.05027933 6:0.067039106 7:0.044692737 8:0.10055866 9:0.058659218 10:105 11:0.29247911 12:0.055865922 
32768 1:0.06561086 2:0.10633484 3:0.040723982 4:0.070135747 5:0.056561086 6:0.067873303 7:0.036199095 8:0.099547511 9:0.056561086 10:162 11:0.36568849 12:0.085972851 
32768 1:0.056 2:0.089333333 3:0.04 4:0.054666667 5:0.074666667 6:0.12133333 7:0.042666667 8:0.068 9:0.085333333 10:591 11:0.78695073 12:0.085333333 
32768 1:0.091111111 2:0.1 3:0.048888889 4:0.064444444 5:0.06 6:0.057777778 7:0.028888889 8:0.082222222 9:0.075555556 10:195 11:0.43237251 12:0.066666667 
32768 1:0.064 2:0.06 3:0.048 4:0.104 5:0.08 6:0.076 7:0.024 8:0.08 9:0.024 10:132 11:0.52589641 12:0.04 
32768 1:0.12550607 2:0.089068826 3:0.048582996 4:0.093117409 5:0.060728745 6:0.044534413 7:0.008097166 8:0.089068826 9:0.050607287 10:378 11:0.76363636 12:0.044534413 
32768 1:0.1254902 2:0.066666667 3:0.10196078 4:0.070588235 5:0.050980392 6:0.035294118 7:0.011764706 8:0.070588235 9:0.047058824 10:159 11:0.62109375 12:0.058823529 
32768 1:0.072289157 2:0.096385542 3:0.030120482 4:0.076807229 5:0.069277108 6:0.11295181 7:0.016566265 8:0.072289157 9:0.06626506 10:408 11:0.61353383 12:0.079819277 
32768 1:0.050420168 2:0.088235294 3:0.084033613 4:0.096638655 5:0.075630252 6:0.067226891 7:0 8:0.071428571 9:0.050420168 10:93 11:0.38912134 12:0.06302521 
32768 1:0.075757576 2:0.077651515 3:0.079545455 4:0.075757576 5:0.075757576 6:0.058712121 7:0.018939394 8:0.077651515 9:0.039772727 10:441 11:0.83364839 12:0.068181818 
32768 1:0.03853211 2:0.07706422 3:0.031192661 4:0.075229358 5:0.073394495 6:0.12477064 7:0.049541284 8:0.066055046 9:0.10275229 10:247 11:0.45238095 12:0.10642202 
32768 1:0.077680525 2:0.076586433 3:0.060175055 4:0.072210066 5:0.071115974 6:0.06892779 7:0.019693654 8:0.070021882 9:0.047045952 10:426 11:0.46557377 12:0.073304158 
32768 1:0.035087719 2:0.070175439 3:0.082706767 4:0.082706767 5:0.096491228 6:0.080200501 7:0.031328321 8:0.052631579 9:0.078947368 10:408 11:0.5106383 12:0.088972431 
32768 1:0.10699588 2:0.082304527 3:0.10699588 4:0.074074074 5:0.061728395 6:0.057613169 7:0.012345679 8:0.049382716 9:0.057613169 10:117 11:0.4795082 12:0.037037037 
32768 1:0.059471366 2:0.077092511 3:0.068281938 4:0.077092511 5:0.056167401 6:0.073788546 7:0.050660793 8:0.070484581 9:0.058370044 10:474 11:0.52145215 12:0.092511013 
32768 1:0.088888889 2:0.054320988 3:0.12592593 4:0.083950617 5:0.056790123 6:0.051851852 7:0.022222222 8:0.054320988 9:0.051851852 10:240 11:0.591133 12:0.041975309 
32768 1:0.059440559 2:0.11888112 3:0.020979021 4:0.059440559 5:0.048951049 6:0.062937063 7:0.041958042 8:0.097902098 9:0.094405594 10:240 11:0.83623693 12:0.1013986 
32768 1:0.10681115 2:0.074303406 3:0.069659443 4:0.075851393 5:0.07120743 6:0.043343653 7:0.0046439628 8:0.075851393 9:0.043343653 10:369 11:0.57032457 12:0.061919505 
32768 1:0.14469453 2:0.064308682 3:0.048231511 4:0.083601286 5:0.077170418 6:0.057877814 7:0.0064308682 8:0.051446945 9:0.057877814 10:176 11:0.56410256 12:0.057877814 
32768 1:0.041666667 2:0.077777778 3:0.12777778 4:0.088888889 5:0.072222222 6:0.041666667 7:0.022222222 8:0.063888889 9:0.061111111 10:156 11:0.43213296 12:0.061111111 
32768 1:0.049360146 2:0.08226691 3:0.047531993 4:0.096892139 5:0.078610603 6:0.095063985 7:0.031078611 8:0.08226691 9:0.073126143 10:407 11:0.74270073 12:0.096892139 
32768 1:0.079575597 2:0.095490716 3:0.031830239 4:0.063660477 5:0.068965517 6:0.079575597 7:0.023872679 8:0.084880637 9:0.061007958 10:156 11:0.41269841 12:0.079575597 
32768 1:0.061002179 2:0.058823529 3:0.052287582 4:0.054466231 5:0.087145969 6:0.10239651 7:0.058823529 8:0.065359477 9:0.058823529 10:180 11:0.39130435 12:0.093681917 
32768 1:0.090517241 2:0.077586207 3:0.043103448 4:0.086206897 5:0.077586207 6:0.094827586 7:0.017241379 8:0.073275862 9:0.073275862 10:111 11:0.47639485 12:0.056034483 
32768 1:0.036893204 2:0.059223301 3:0.057281553 4:0.062135922 5:0.067961165 6:0.096116505 7:0.087378641 8:0.054368932 9:0.11650485 10:483 11:0.46847721 12:0.10485437 
32768 1:0.04496788 2:0.096359743 3:0.025695931 4:0.055674518 5:0.059957173 6:0.094218415 7:0.092077088 8:0.094218415 9:0.11563169 10:320 11:0.68376068 12:0.10706638 
32768 1:0.10282776 2:0.046272494 3:0.066838046 4:0.074550129 5:0.033419023 6:0.030848329 7:0.030848329 8:0.038560411 9:0.061696658 10:247 11:0.63333333 12:0.12339332 
32768 1:0.088235294 2:0.069852941 3:0.051470588 4:0.0625 5:0.0625 6:0.080882353 7:0.036764706 8:0.051470588 9:0.066176471 10:98 11:0.35897436 12:0.077205882 
32768 1:0.090804598 2:0.092528736 3:0.047701149 4:0.077586207 5:0.060344828 6:0.057471264 7:0.018390805 8:0.082183908 9:0.051149425 10:1158 11:0.66513498 12:0.064367816 
32768 1:0.020930233 2:0.090697674 3:0.03255814 4:0.062790698 5:0.086046512 6:0.076744186 7:0.048837209 8:0.069767442 9:0.086046512 10:174 11:0.4037123 12:0.095348837 
32768 1:0.048209366 2:0.08677686 3:0.026170799 4:0.08815427 5:0.071625344 6:0.078512397 7:0.034435262 8:0.061983471 9:0.099173554 10:414 11:0.56946355 12:0.10881543 
32768 1:0.042929293 2:0.10353535 3:0.032828283 4:0.070707071 5:0.065656566 6:0.070707071 7:0.042929293 8:0.083333333 9:0.098484848 10:168 11:0.4231738 12:0.093434343 
32768 1:0.070052539 2:0.087565674 3:0.033274956 4:0.064798599 5:0.073555166 6:0.092819615 7:0.026269702 8:0.066549912 9:0.078809107 10:339 11:0.59265734 12:0.082311734 
32768 1:0.064814815 2:0.074074074 3:0.064814815 4:0.092592593 5:0.089506173 6:0.058641975 7:0.015432099 8:0.083333333 9:0.067901235 10:137 11:0.42153846 12:0.095679012 
32768 1:0.16923077 2:0.079487179 3:0.046153846 4:0.082051282 5:0.069230769 6:0.043589744 7:0.01025641 8:0.1 9:0.033333333 10:228 11:0.5831202 12:0.025641026 
32768 1:0.03362256 2:0.062906725 3:0.037960954 4:0.043383948 5:0.05856833 6:0.14316703 7:0.11062907 8:0.050976139 9:0.13015184 10:648 11:0.7020585 12:0.11388286 
32768 1:0.075794621 2:0.080684597 3:0.046454768 4:0.08801956 5:0.058679707 6:0.06601467 7:0.017114914 8:0.1002445 9:0.048899756 10:84 11:0.20487805 12:0.048899756 
32768 1:0.034324943 2:0.068649886 3:0.035469108 4:0.074370709 5:0.065217391 6:0.1590389 7:0.040045767 8:0.059496568 9:0.075514874 10:660 11:0.75428571 12:0.11899314 
32768 1:0.032090199 2:0.078057242 3:0.024284475 4:0.083261058 5:0.09366869 6:0.13356461 7:0.015611448 8:0.048568951 9:0.084128361 10:939 11:0.81369151 12:0.09019948 
32768 1:0.10779817 2:0.098623853 3:0.038990826 4:0.068807339 5:0.055045872 6:0.080275229 7:0.0068807339 8:0.084862385 9:0.059633028 10:201 11:0.45995423 12:0.032110092 
32768 1:0.125 2:0.10472973 3:0.030405405 4:0.054054054 5:0.047297297 6:0.033783784 7:0.02027027 8:0.081081081 9:0.057432432 10:111 11:0.37373737 12:0.067567568 
32768 1:0.077777778 2:0.080555556 3:0.036111111 4:0.080555556 5:0.077777778 6:0.05 7:0.011111111 8:0.066666667 9:0.052777778 10:216 11:0.59833795 12:0.061111111 
32768 1:0.083333333 2:0.07183908 3:0.068965517 4:0.086206897 5:0.08045977 6:0.048850575 7:0.020114943 8:0.074712644 9:0.074712644 10:285 11:0.81661891 12:0.07183908 
32768 1:0.17522659 2:0.063444109 3:0.054380665 4:0.078549849 5:0.063444109 6:0.024169184 7:0.0090634441 8:0.075528701 9:0.027190332 10:273 11:0.82228916 12:0.024169184 
32768 1:0.063063063 2:0.066066066 3:0.024024024 4:0.093093093 5:0.087087087 6:0.11711712 7:0.027027027 8:0.075075075 9:0.06006006 10:102 11:0.30538922 12:0.051051051 
32768 1:0.081570997 2:0.081570997 3:0.057401813 4:0.087613293 5:0.090634441 6:0.072507553 7:0.012084592 8:0.072507553 9:0.060422961 10:87 11:0.26204819 12:0.036253776 
32768 1:0.092250923 2:0.066420664 3:0.05904059 4:0.092250923 5:0.077490775 6:0.036900369 7:0 8:0.088560886 9:0.018450185 10:111 11:0.40808824 12:0.04797048 
32768 1:0.059496568 2:0.09382151 3:0.061784897 4:0.061784897 5:0.057208238 6:0.084668192 7:0.064073227 8:0.073226545 9:0.10297483 10:54 11:0.12328767 12:0.082379863 
32768 1:0.050505051 2:0.068181818 3:0.055555556 4:0.068181818 5:0.070707071 6:0.10606061 7:0.047979798 8:0.065656566 9:0.065656566 10:180 11:0.4534005 12:0.085858586 
32768 1:0.042201835 2:0.080733945 3:0.040366972 4:0.075229358 5:0.075229358 6:0.089908257 7:0.053211009 8:0.075229358 9:0.088073394 10:258 11:0.47252747 12:0.12110092 
32768 1:0.093243243 2:0.087837838 3:0.07972973 4:0.081081081 5:0.074324324 6:0.051351351 7:0.0094594595 8:0.089189189 9:0.047297297 10:366 11:0.49392713 12:0.075675676 
32768 1:0.055793991 2:0.064377682 3:0.040772532 4:0.057939914 5:0.087982833 6:0.16309013 7:0.049356223 8:0.064377682 9:0.092274678 10:150 11:0.32119914 12:0.087982833 
32768 1:0.088319088 2:0.085470085 3:0.076923077 4:0.065527066 5:0.054131054 6:0.074074074 7:0.025641026 8:0.07977208 9:0.068376068 10:111 11:0.31534091 12:0.056980057 
32768 1:0.083798883 2:0.075418994 3:0.061452514 4:0.078212291 5:0.06424581 6:0.069832402 7:0.016759777 8:0.075418994 9:0.047486034 10:183 11:0.5097493 12:0.069832402 
32768 1:0.11239193 2:0.11527378 3:0.074927954 4:0.095100865 5:0.057636888 6:0.031700288 7:0.0057636888 8:0.12391931 9:0.037463977 10:132 11:0.37931034 12:0.028818444 
32768 1:0.052810903 2:0.10732538 3:0.028960818 4:0.04770017 5:0.05451448 6:0.090289608 7:0.066439523 8:0.074957411 9:0.11073254 10:129 11:0.21938776 12:0.10221465 
32768 1:0.053140097 2:0.084541063 3:0.026570048 4:0.077294686 5:0.077294686 6:0.074879227 7:0.028985507 8:0.072463768 9:0.06763285 10:210 11:0.5060241 12:0.072463768 
32768 1:0.091503268 2:0.068627451 3:0.045751634 4:0.088235294 5:0.088235294 6:0.058823529 7:0.032679739 8:0.10130719 9:0.055555556 10:188 11:0.61237785 12:0.078431373 
32768 1:0.051162791 2:0.11627907 3:0.055813953 4:0.079069767 5:0.069767442 6:0.074418605 7:0 8:0.088372093 9:0.051162791 10:132 11:0.61111111 12:0.11162791 
32768 1:0.050847458 2:0.093220339 3:0.064971751 4:0.076271186 5:0.053672316 6:0.079096045 7:0.02259887 8:0.079096045 9:0.073446328 10:138 11:0.38873239 12:0.070621469 
32768 1:0.052910053 2:0.1287478 3:0.021164021 4:0.058201058 5:0.061728395 6:0.097001764 7:0.0335097 8:0.10229277 9:0.086419753 10:300 11:0.52816901 12:0.075837743 
32768 1:0.081545064 2:0.081545064 3:0.036480687 4:0.090128755 5:0.077253219 6:0.075107296 7:0.032188841 8:0.070815451 9:0.087982833 10:147 11:0.31477516 12:0.060085837 
32768 1:0.034591195 2:0.061320755 3:0.059748428 4:0.083333333 5:0.094339623 6:0.10849057 7:0.023584906 8:0.051886792 9:0.078616352 10:444 11:0.69701727 12:0.056603774 
32768 1:0.061349693 2:0.098159509 3:0.063394683 4:0.075664622 5:0.08793456 6:0.073619632 7:0.020449898 8:0.08997955 9:0.065439673 10:309 11:0.63061224 12:0.09406953 
32768 1:0.094262295 2:0.079918033 3:0.05942623 4:0.069672131 5:0.053278689 6:0.043032787 7:0.049180328 8:0.075819672 9:0.081967213 10:405 11:0.82822086 12:0.079918033 
32768 1:0.06 2:0.07 3:0.093333333 4:0.083333333 5:0.063333333 6:0.05 7:0.046666667 8:0.076666667 9:0.056666667 10:39 11:0.12956811 12:0.056666667 
32768 1:0.19041614 2:0.10214376 3:0.056746532 4:0.068095839 5:0.044136192 6:0.017654477 7:0.013871375 8:0.110971 9:0.022698613 10:647 11:0.81486146 12:0.026481715 
32768 1:0.047263682 2:0.072139303 3:0.042288557 4:0.1119403 5:0.094527363 6:0.092039801 7:0.017412935 8:0.077114428 9:0.072139303 10:78 11:0.19354839 12:0.069651741 
32768 1:0.056521739 2:0.082608696 3:0.045652174 4:0.07826087 5:0.065217391 6:0.1 7:0.034782609 8:0.060869565 9:0.10434783 10:201 11:0.43600868 12:0.097826087 
32768 1:0.053488372 2:0.065116279 3:0.051162791 4:0.088372093 5:0.095348837 6:0.079069767 7:0.034883721 8:0.062790698 9:0.074418605 10:150 11:0.34802784 12:0.065116279 
32768 1:0.026923077 2:0.098076923 3:0.025 4:0.088461538 5:0.082692308 6:0.076923077 7:0.034615385 8:0.090384615 9:0.073076923 10:234 11:0.44913628 12:0.13269231 
32768 1:0.065175719 2:0.079872204 3:0.047284345 4:0.063897764 5:0.069648562 6:0.07028754 7:0.060702875 8:0.060702875 9:0.092651757 10:570 11:0.36398467 12:0.095207668 
32768 1:0.065918654 2:0.078541374 3:0.033660589 4:0.067321178 5:0.074333801 6:0.096774194 7:0.028050491 8:0.072931276 9:0.060308555 10:366 11:0.51260504 12:0.093969144 
32768 1:0.071278826 2:0.077568134 3:0.054507338 4:0.07966457 5:0.073375262 6:0.075471698 7:0.01048218 8:0.062893082 9:0.054507338 10:273 11:0.57112971 12:0.071278826 
32768 1:0.097633136 2:0.071005917 3:0.1183432 4:0.073964497 5:0.065088757 6:0.023668639 7:0.0059171598 8:0.079881657 9:0.026627219 10:171 11:0.50442478 12:0.038461538 
32768 1:0.096573209 2:0.080996885 3:0.093457944 4:0.056074766 5:0.065420561 6:0.087227414 7:0.024922118 8:0.068535826 9:0.034267913 10:18 11:0.055900621 12:0.046728972 
32768 1:0.066390041 2:0.045643154 3:0.045643154 4:0.091286307 5:0.066390041 6:0.062240664 7:0.066390041 8:0.033195021 9:0.078838174 10:42 11:0.17355372 12:0.12863071 
32768 1:0.045343137 2:0.06127451 3:0.058823529 4:0.06495098 5:0.10171569 6:0.10539216 7:0.052696078 8:0.055147059 9:0.084558824 10:405 11:0.49571603 12:0.052696078 
32768 1:0.085399449 2:0.10743802 3:0.071625344 4:0.074380165 5:0.077134986 6:0.082644628 7:0.0027548209 8:0.093663912 9:0.05785124 10:174 11:0.47802198 12:0.068870523 
32768 1:0.048717949 2:0.071794872 3:0.058974359 4:0.071794872 5:0.084615385 6:0.13333333 7:0.023076923 8:0.076923077 9:0.041025641 10:207 11:0.52941176 12:0.056410256 
32768 1:0.072164948 2:0.065292096 3:0.06185567 4:0.10996564 5:0.072164948 6:0.037800687 7:0.027491409 8:0.096219931 9:0.054982818 10:30 11:0.10273973 12:0.089347079 
32768 1:0.052373159 2:0.070376432 3:0.060556465 4:0.093289689 5:0.096563011 6:0.086743044 7:0.029459902 8:0.075286416 9:0.065466448 10:452 11:0.73856209 12:0.062193126 
32768 1:0.1043771 2:0.1026936 3:0.04040404 4:0.055555556 5:0.074074074 6:0.070707071 7:0.016835017 8:0.087542088 9:0.055555556 10:327 11:0.54957983 12:0.069023569 
32768 1:0.08490566 2:0.08254717 3:0.063679245 4:0.08490566 5:0.10377358 6:0.063679245 7:0.0023584906 8:0.073113208 9:0.044811321 10:217 11:0.51058824 12:0.037735849 
32768 1:0.074766355 2:0.079439252 3:0.056074766 4:0.10747664 5:0.088785047 6:0.046728972 7:0.0046728972 8:0.060747664 9:0.056074766 10:39 11:0.18139535 12:0.051401869 
32768 1:0.074509804 2:0.050980392 3:0.074509804 4:0.10588235 5:0.11372549 6:0.058823529 7:0.011764706 8:0.058823529 9:0.047058824 10:135 11:0.52734375 12:0.050980392 
32768 1:0.073482428 2:0.10063898 3:0.012779553 4:0.054313099 5:0.051118211 6:0.086261981 7:0.04313099 8:0.079872204 9:0.083067093 10:285 11:0.45454545 12:0.099041534 
32768 1:0.044891641 2:0.057275542 3:0.03250774 4:0.068111455 5:0.092879257 6:0.10371517 7:0.066563467 8:0.058823529 9:0.09752322 10:357 11:0.55177743 12:0.078947368 
32768 1:0.082733813 2:0.068345324 3:0.079650565 4:0.1012333 5:0.052415211 6:0.047276465 7:0.015416238 8:0.076053443 9:0.042137718 10:1887 11:0.96918336 12:0.060637205 
32768 1:0.073426573 2:0.057692308 3:0.085664336 4:0.092657343 5:0.11013986 6:0.08041958 7:0.006993007 8:0.062937063 9:0.057692308 10:354 11:0.61780105 12:0.059440559 
32768 1:0.10980392 2:0.08627451 3:0.050980392 4:0.070588235 5:0.035294118 6:0.078431373 7:0.0039215686 8:0.058823529 9:0.039215686 10:184 11:0.71875 12:0.070588235 
32768 1:0.061511424 2:0.072056239 3:0.040421793 4:0.080843585 5:0.052724077 6:0.096660808 7:0.057996485 8:0.068541301 9:0.082601054 10:273 11:0.47894737 12:0.10193322 
32768 1:0.06424581 2:0.10055866 3:0.047486034 4:0.083798883 5:0.055865922 6:0.069832402 7:0.022346369 8:0.092178771 9:0.06424581 10:111 11:0.3091922 12:0.083798883 
32768 1:0.082666667 2:0.10133333 3:0.045333333 4:0.096 5:0.050666667 6:0.048 7:0.0026666667 8:0.10933333 9:0.037333333 10:195 11:0.51861702 12:0.077333333 
32768 1:0.029644269 2:0.077075099 3:0.037549407 4:0.098814229 5:0.11462451 6:0.081027668 7:0.013833992 8:0.067193676 9:0.081027668 10:261 11:0.5147929 12:0.081027668 
32768 1:0.085 2:0.075 3:0.05 4:0.085 5:0.05 6:0.0575 7:0.0225 8:0.085 9:0.045 10:96 11:0.2394015 12:0.07 
32768 1:0.056053812 2:0.094170404 3:0.024663677 4:0.058295964 5:0.067264574 6:0.10089686 7:0.060538117 8:0.089686099 9:0.087443946 10:165 11:0.36912752 12:0.10313901 
32768 1:0.085443038 2:0.066455696 3:0.063291139 4:0.10759494 5:0.094936709 6:0.053797468 7:0.022151899 8:0.079113924 9:0.047468354 10:126 11:0.39747634 12:0.056962025 
32768 1:0.080760095 2:0.064133017 3:0.083135392 4:0.090261283 5:0.10451306 6:0.040380048 7:0.0095011876 8:0.057007126 9:0.057007126 10:407 11:0.96445498 12:0.047505938 
32768 1:0.12318841 2:0.079710145 3:0.054347826 4:0.050724638 5:0.076086957 6:0.076086957 7:0.018115942 8:0.072463768 9:0.050724638 10:207 11:0.74729242 12:0.032608696 
32768 1:0.020114943 2:0.051724138 3:0.025862069 4:0.10344828 5:0.094827586 6:0.13505747 7:0.037356322 8:0.043103448 9:0.086206897 10:297 11:0.85100287 12:0.1091954 
32768 1:0.1056338 2:0.056338028 3:0.056338028 4:0.080985915 5:0.088028169 6:0.059859155 7:0.028169014 8:0.066901408 9:0.059859155 10:69 11:0.24210526 12:0.073943662 
32768 1:0.10068259 2:0.081911263 3:0.035836177 4:0.071672355 5:0.071672355 6:0.10068259 7:0.017064846 8:0.068259386 9:0.064846416 10:390 11:0.66439523 12:0.097269625 
32768 1:0.091286307 2:0.099585062 3:0.066390041 4:0.053941909 5:0.078838174 6:0.062240664 7:0.012448133 8:0.074688797 9:0.041493776 10:60 11:0.24793388 12:0.10373444 
32768 1:0.036789298 2:0.070234114 3:0.043478261 4:0.066889632 5:0.10033445 6:0.16053512 7:0.02006689 8:0.076923077 9:0.053511706 10:189 11:0.63 12:0.060200669 
32768 1:0.087248322 2:0.078299776 3:0.044742729 4:0.087248322 5:0.053691275 6:0.06935123 7:0.022371365 8:0.078299776 9:0.058165548 10:171 11:0.38169643 12:0.087248322 
32768 1:0.15959821 2:0.079241071 3:0.059151786 4:0.0859375 5:0.051339286 6:0.021205357 7:0.0055803571 8:0.091517857 9:0.034598214 10:897 11:1 12:0.030133929 
32768 1:0.1 2:0.0625 3:0.096875 4:0.084375 5:0.075 6:0.071875 7:0.009375 8:0.065625 9:0.053125 10:207 11:0.64485981 12:0.053125 
32768 1:0.040618956 2:0.077369439 3:0.036750484 4:0.075435203 5:0.085106383 6:0.11798839 7:0.065764023 8:0.058027079 9:0.11411992 10:228 11:0.44015444 12:0.061895551 
32768 1:0.06345733 2:0.11159737 3:0.052516411 4:0.080962801 5:0.06345733 6:0.065645514 7:0.019693654 8:0.10503282 9:0.067833698 10:183 11:0.39956332 12:0.076586433 
32768 1:0.094017094 2:0.1025641 3:0.038461538 4:0.064102564 5:0.038461538 6:0.072649573 7:0.02991453 8:0.1025641 9:0.051282051 10:81 11:0.34468085 12:0.081196581 
32768 1:0.032692308 2:0.078846154 3:0.023076923 4:0.051923077 5:0.059615385 6:0.14230769 7:0.086538462 8:0.075 9:0.10769231 10:405 11:0.77735125 12:0.10961538 
32768 1:0.067567568 2:0.085585586 3:0.04954955 4:0.094594595 5:0.076576577 6:0.085585586 7:0.018018018 8:0.085585586 9:0.067567568 10:66 11:0.29596413 12:0.072072072 
32768 1:0.12562814 2:0.072864322 3:0.075376884 4:0.070351759 5:0.087939698 6:0.065326633 7:0.0050251256 8:0.060301508 9:0.045226131 10:285 11:0.71428571 12:0.050251256 
32768 1:0.075471698 2:0.064690027 3:0.075471698 4:0.086253369 5:0.083557951 6:0.059299191 7:0.013477089 8:0.059299191 9:0.043126685 10:198 11:0.53225806 12:0.026954178 
32768 1:0.07518797 2:0.087719298 3:0.052631579 4:0.077694236 5:0.070175439 6:0.072681704 7:0.030075188 8:0.080200501 9:0.07518797 10:156 11:0.39 12:0.062656642 
32768 1:0.07852194 2:0.062355658 3:0.036951501 4:0.053117783 5:0.073903002 6:0.13856813 7:0.03926097 8:0.064665127 9:0.069284065 10:235 11:0.54147465 12:0.11778291 
32768 1:0.082152975 2:0.093484419 3:0.025495751 4:0.082152975 5:0.073654391 6:0.07082153 7:0.016997167 8:0.099150142 9:0.056657224 10:111 11:0.31355932 12:0.11331445 
32768 1:0.05019305 2:0.073359073 3:0.05019305 4:0.081081081 5:0.054054054 6:0.088803089 7:0.057915058 8:0.05019305 9:0.084942085 10:183 11:0.70384615 12:0.15444015 
32768 1:0.021857923 2:0.081967213 3:0.035519126 4:0.087431694 5:0.084699454 6:0.095628415 7:0.049180328 8:0.057377049 9:0.090163934 12:0.1147541 
32768 1:0.024590164 2:0.084699454 3:0.019125683 4:0.051912568 5:0.057377049 6:0.12021858 7:0.1010929 8:0.084699454 9:0.11748634 10:130 11:0.35422343 12:0.12295082 
32768 1:0.051666667 2:0.081666667 3:0.053333333 4:0.088333333 5:0.076666667 6:0.12333333 7:0.018333333 8:0.063333333 9:0.065 10:353 11:0.58735441 12:0.071666667 
32768 1:0.07875895 2:0.07398568 3:0.07875895 4:0.076372315 5:0.042959427 6:0.066825776 7:0.050119332 8:0.076372315 9:0.071599045 10:138 11:0.32857143 12:0.085918854 
32768 1:0.03253012 2:0.092771084 3:0.03253012 4:0.069879518 5:0.072289157 6:0.11927711 7:0.062650602 8:0.073493976 9:0.10120482 10:723 11:0.8700361 12:0.11686747 
32768 1:0.086792453 2:0.098113208 3:0.033962264 4:0.079245283 5:0.056603774 6:0.083018868 7:0.01509434 8:0.10188679 9:0.041509434 10:127 11:0.47744361 12:0.052830189 
32768 1:0.071661238 2:0.10423453 3:0.045602606 4:0.071661238 5:0.045602606 6:0.048859935 7:0.045602606 8:0.10423453 9:0.039087948 10:87 11:0.28246753 12:0.081433225 
32768 1:0.029821074 2:0.06361829 3:0.085487078 4:0.095427435 5:0.06361829 6:0.099403579 7:0.045725646 8:0.053677932 9:0.071570577 10:189 11:0.375 12:0.039761431 
32768 1:0.10147059 2:0.086764706 3:0.073529412 4:0.076470588 5:0.067647059 6:0.041176471 7:0.017647059 8:0.082352941 9:0.052941176 10:359 11:0.52716593 12:0.067647059 
32768 1:0.079234973 2:0.1010929 3:0.054644809 4:0.076502732 5:0.054644809 6:0.049180328 7:0.013661202 8:0.071038251 9:0.076502732 10:198 11:0.53950954 12:0.081967213 
32768 1:0.063636364 2:0.081818182 3:0.068181818 4:0.097727273 5:0.063636364 6:0.05 7:0.022727273 8:0.075 9:0.052272727 10:189 11:0.42857143 12:0.079545455 
32768 1:0.058823529 2:0.062745098 3:0.10588235 4:0.066666667 5:0.062745098 6:0.062745098 7:0.02745098 8:0.054901961 9:0.035294118 10:150 11:0.5859375 12:0.054901961 
32768 1:0.071301248 2:0.099821747 3:0.04456328 4:0.073083779 5:0.078431373 6:0.078431373 7:0.024955437 8:0.092691622 9:0.078431373 10:270 11:0.48042705 12:0.069518717 
32768 1:0.045627376 2:0.081115336 3:0.040557668 4:0.057034221 5:0.069708492 6:0.10519645 7:0.063371356 8:0.067173638 9:0.096324461 10:393 11:0.49746835 12:0.10646388 
32768 1:0.073510773 2:0.086185044 3:0.064638783 4:0.078580482 5:0.079847909 6:0.08365019 7:0.012674271 8:0.073510773 9:0.048162231 10:420 11:0.53164557 12:0.06590621 
32768 1:0.12315271 2:0.10837438 3:0.10837438 4:0.078817734 5:0.0591133 6:0.019704433 7:0.0098522167 8:0.083743842 9:0.044334975 10:87 11:0.42647059 12:0.054187192 
32768 1:0.10436893 2:0.094660194 3:0.026699029 4:0.077669903 5:0.063106796 6:0.050970874 7:0.024271845 8:0.10194175 9:0.048543689 10:171 11:0.41404358 12:0.07038835 
32768 1:0.05707196 2:0.084367246 3:0.032258065 4:0.076923077 5:0.081885856 6:0.10669975 7:0.027295285 8:0.069478908 9:0.079404467 10:123 11:0.30445545 12:0.084367246 
32768 1:0.059701493 2:0.091684435 3:0.057569296 4:0.081023454 5:0.059701493 6:0.093816631 7:0.012793177 8:0.078891258 9:0.057569296 10:249 11:0.52978723 12:0.093816631 
32768 1:0.058823529 2:0.073022312 3:0.054766734 4:0.093306288 5:0.10141988 6:0.079107505 7:0.018255578 8:0.064908722 9:0.087221095 10:345 11:0.69838057 12:0.068965517 
32768 1:0.059782609 2:0.050724638 3:0.070652174 4:0.054347826 5:0.06884058 6:0.076086957 7:0.094202899 8:0.041666667 9:0.11050725 10:235 11:0.42495479 12:0.12137681 
32768 1:0.060606061 2:0.10227273 3:0.03030303 4:0.087121212 5:0.068181818 6:0.10227273 7:0.034090909 8:0.10984848 9:0.079545455 10:27 11:0.10188679 12:0.125 
32768 1:0.054545455 2:0.084848485 3:0.063636364 4:0.081818182 5:0.087878788 6:0.054545455 7:0.036363636 8:0.072727273 9:0.078787879 10:132 11:0.39879154 12:0.072727273 
32768 1:0.079913607 2:0.090712743 3:0.066954644 4:0.069114471 5:0.075593952 6:0.066954644 7:0.030237581 8:0.066954644 9:0.049676026 10:378 11:0.81465517 12:0.066954644 
32768 1:0.085308057 2:0.087677725 3:0.033175355 4:0.061611374 5:0.047393365 6:0.071090047 7:0.073459716 8:0.090047393 9:0.10189573 10:52 11:0.12293144 12:0.099526066 
32768 1:0.10344828 2:0.077586207 3:0.086206897 4:0.081896552 5:0.058189655 6:0.023706897 7:0.0043103448 8:0.07112069 9:0.036637931 10:252 11:0.54193548 12:0.0625 
32768 1:0.091911765 2:0.069852941 3:0.080882353 4:0.088235294 5:0.069852941 6:0.073529412 7:0.014705882 8:0.080882353 9:0.033088235 10:108 11:0.3956044 12:0.051470588 
32768 1:0.081264108 2:0.088036117 3:0.047404063 4:0.079006772 5:0.060948081 6:0.085778781 7:0.015801354 8:0.090293454 9:0.045146727 10:363 11:0.81756757 12:0.10158014 
32768 1:0.097112861 2:0.091863517 3:0.049868766 4:0.070866142 5:0.06824147 6:0.052493438 7:0.015748031 8:0.083989501 9:0.05511811 10:204 11:0.53403141 12:0.06824147 
32768 1:0.095375723 2:0.075144509 3:0.040462428 4:0.083815029 5:0.11560694 6:0.049132948 7:0.0057803468 8:0.083815029 9:0.060693642 10:174 11:0.50144092 12:0.072254335 
32768 1:0.076115486 2:0.073490814 3:0.047244094 4:0.05511811 5:0.062992126 6:0.083989501 7:0.065616798 8:0.049868766 9:0.099737533 10:246 11:0.64397906 12:0.17322835 
32768 1:0.038580247 2:0.070987654 3:0.044753086 4:0.078703704 5:0.083333333 6:0.10648148 7:0.044753086 8:0.072530864 9:0.070987654 10:363 11:0.55932203 12:0.12345679 
32768 1:0.065705128 2:0.076923077 3:0.051282051 4:0.083333333 5:0.13141026 6:0.086538462 7:0.0064102564 8:0.065705128 9:0.067307692 10:501 11:0.8016 12:0.056089744 
32768 1:0.083732057 2:0.074162679 3:0.064593301 4:0.071770335 5:0.078947368 6:0.059808612 7:0.043062201 8:0.066985646 9:0.066985646 10:192 11:0.45823389 12:0.086124402 
32768 1:0.1 2:0.091304348 3:0.065217391 4:0.10869565 5:0.065217391 6:0.030434783 7:0.0043478261 8:0.1173913 9:0.043478261 10:69 11:0.2987013 12:0.047826087 
32768 1:0.028350515 2:0.072164948 3:0.036082474 4:0.10051546 5:0.069587629 6:0.090206186 7:0.046391753 8:0.069587629 9:0.06185567 10:301 11:0.77377892 12:0.12628866 
32768 1:0.13257576 2:0.13257576 3:0.045454545 4:0.071969697 5:0.03030303 6:0.022727273 7:0.011363636 8:0.14015152 9:0.03030303 10:96 11:0.36226415 12:0.045454545 
32768 1:0.065274151 2:0.078328982 3:0.062663185 4:0.07310705 5:0.07310705 6:0.070496084 7:0.0078328982 8:0.067885117 9:0.057441253 10:165 11:0.4296875 12:0.083550914 
32768 1:0.085714286 2:0.093877551 3:0.069387755 4:0.065306122 5:0.065306122 6:0.048979592 7:0.020408163 8:0.085714286 9:0.036734694 10:54 11:0.2195122 12:0.053061224 
32768 1:0.070640177 2:0.08388521 3:0.06401766 4:0.092715232 5:0.086092715 6:0.046357616 7:0.015452539 8:0.090507726 9:0.079470199 10:183 11:0.4030837 12:0.06401766 
32768 1:0.10688836 2:0.073634204 3:0.049881235 4:0.06888361 5:0.071258907 6:0.059382423 7:0.023752969 8:0.073634204 9:0.047505938 10:186 11:0.44075829 12:0.049881235 
32768 1:0.049462366 2:0.07311828 3:0.04516129 4:0.070967742 5:0.064516129 6:0.10752688 7:0.053763441 8:0.055913978 9:0.088172043 10:159 11:0.34120172 12:0.077419355 
32768 1:0.04047976 2:0.07946027 3:0.047976012 4:0.070464768 5:0.085457271 6:0.11244378 7:0.026986507 8:0.052473763 9:0.091454273 10:585 11:0.8757485 12:0.13193403 
32768 1:0.057591623 2:0.11518325 3:0.027923211 4:0.090750436 5:0.055846422 6:0.062827225 7:0.015706806 8:0.087260035 9:0.082024433 10:309 11:0.53832753 12:0.13263525 
32768 1:0.084158416 2:0.10891089 3:0.04290429 4:0.067656766 5:0.085808581 6:0.074257426 7:0.0099009901 8:0.074257426 9:0.079207921 10:357 11:0.58813839 12:0.057755776 
32768 1:0.079470199 2:0.094922737 3:0.06401766 4:0.081677704 5:0.06401766 6:0.061810155 7:0.011037528 8:0.090507726 9:0.048565121 10:234 11:0.5154185 12:0.075055188 
32768 1:0.11603499 2:0.09271137 3:0.072303207 4:0.072886297 5:0.067638484 6:0.049562682 7:0.0069970845 8:0.086297376 9:0.043731778 10:723 11:0.42132867 12:0.050728863 
32768 1:0.13691684 2:0.09127789 3:0.048681542 4:0.072008114 5:0.070993915 6:0.042596349 7:0.009127789 8:0.094320487 9:0.039553753 10:405 11:0.41033435 12:0.047667343 
32768 1:0.12254902 2:0.073529412 3:0.078431373 4:0.083333333 5:0.058823529 6:0.039215686 7:0.029411765 8:0.073529412 9:0.058823529 10:85 11:0.41463415 12:0.06372549 
32768 1:0.10300429 2:0.079399142 3:0.045064378 4:0.060085837 5:0.066523605 6:0.070815451 7:0.017167382 8:0.070815451 9:0.045064378 10:245 11:0.52462527 12:0.045064378 
32768 1:0.065217391 2:0.078595318 3:0.025083612 4:0.10033445 5:0.068561873 6:0.091973244 7:0.016722408 8:0.070234114 9:0.066889632 10:315 11:0.52587646 12:0.095317726 
32768 1:0.11702128 2:0.070212766 3:0.09787234 4:0.074468085 5:0.070212766 6:0.061702128 7:0.027659574 8:0.074468085 9:0.046808511 10:281 11:0.59660297 12:0.044680851 
32768 1:0.081743869 2:0.081743869 3:0.057220708 4:0.070844687 5:0.068119891 6:0.089918256 7:0.027247956 8:0.081743869 9:0.065395095 10:242 11:0.6576087 12:0.076294278 
32768 1:0.094405594 2:0.076923077 3:0.059440559 4:0.06993007 5:0.062937063 6:0.048951049 7:0.055944056 8:0.073426573 9:0.08041958 10:162 11:0.56445993 12:0.12937063 
32768 1:0.093023256 2:0.043604651 3:0.11627907 4:0.10755814 5:0.078488372 6:0.029069767 7:0.0058139535 8:0.052325581 9:0.043604651 10:264 11:0.76521739 12:0.040697674 
32768 1:0.087866109 2:0.092050209 3:0.054393305 4:0.079497908 5:0.071129707 6:0.066945607 7:0.012552301 8:0.066945607 9:0.079497908 10:129 11:0.5375 12:0.066945607 
32768 1:0.042183623 2:0.064516129 3:0.034739454 4:0.081885856 5:0.10669975 6:0.11414392 7:0.019851117 8:0.054590571 9:0.076923077 10:117 11:0.28960396 12:0.071960298 
32768 1:0.074850299 2:0.062874251 3:0.032934132 4:0.056886228 5:0.092814371 6:0.10179641 7:0.065868263 8:0.071856287 9:0.077844311 10:135 11:0.40298507 12:0.080838323 
32768 1:0.033138402 2:0.089668616 3:0.054580897 4:0.095516569 5:0.097465887 6:0.091617934 7:0.019493177 8:0.083820663 9:0.074074074 10:249 11:0.4844358 12:0.07797271 
32768 1:0.046052632 2:0.069078947 3:0.065789474 4:0.075657895 5:0.095394737 6:0.072368421 7:0.023026316 8:0.072368421 9:0.0625 10:40 11:0.13114754 12:0.082236842 
32768 1:0.077922078 2:0.074675325 3:0.055194805 4:0.064935065 5:0.097402597 6:0.1038961 7:0.019480519 8:0.071428571 9:0.055194805 10:27 11:0.087378641 12:0.058441558 
32768 1:0.10946746 2:0.094674556 3:0.041420118 4:0.071005917 5:0.082840237 6:0.071005917 7:0.014792899 8:0.088757396 9:0.053254438 10:234 11:0.69026549 12:0.029585799 
32768 1:0.085287846 2:0.068230277 3:0.057569296 4:0.08315565 5:0.085287846 6:0.0554371 7:0.02771855 8:0.076759062 9:0.036247335 10:338 11:0.71914894 12:0.046908316 
32768 1:0.035234899 2:0.093959732 3:0.023489933 4:0.062080537 5:0.075503356 6:0.11912752 7:0.041946309 8:0.063758389 9:0.10067114 10:332 11:0.5561139 12:0.10067114 
32768 1:0.058548009 2:0.081967213 3:0.049180328 4:0.072599532 5:0.070257611 6:0.088992974 7:0.021077283 8:0.06088993 9:0.074941452 10:228 11:0.53271028 12:0.11007026 
32768 1:0.13729128 2:0.089053803 3:0.059369202 4:0.06122449 5:0.06122449 6:0.064935065 7:0.0074211503 8:0.072356215 9:0.042671614 10:315 11:0.58333333 12:0.057513915 
32768 1:0.075088339 2:0.078621908 3:0.069787986 4:0.077738516 5:0.067137809 6:0.082155477 7:0.0070671378 8:0.068904594 9:0.040636042 10:573 11:0.50573698 12:0.075971731 
32768 1:0.01875 2:0.064583333 3:0.01875 4:0.045833333 5:0.060416667 6:0.1375 7:0.13541667 8:0.04375 9:0.16458333 10:102 11:0.21205821 12:0.12083333 
32768 1:0.054568528 2:0.081218274 3:0.050761421 4:0.073604061 5:0.067258883 6:0.10659898 7:0.039340102 8:0.069796954 9:0.083756345 10:408 11:0.51711027 12:0.07106599 
32768 1:0.079710145 2:0.076086957 3:0.065217391 4:0.097826087 5:0.09057971 6:0.054347826 7:0.010869565 8:0.072463768 9:0.054347826 10:213 11:0.76895307 12:0.050724638 
32768 1:0.057268722 2:0.081497797 3:0.046255507 4:0.083700441 5:0.083700441 6:0.079295154 7:0.026431718 8:0.088105727 9:0.066079295 10:178 11:0.39120879 12:0.068281938 
32768 1:0.12556054 2:0.10762332 3:0.049327354 4:0.049327354 5:0.062780269 6:0.067264574 7:0.013452915 8:0.10313901 9:0.040358744 10:21 11:0.09375 12:0.022421525 
32768 1:0.077283372 2:0.11943794 3:0.044496487 4:0.06088993 5:0.06088993 6:0.086651054 7:0.011709602 8:0.096018735 9:0.058548009 10:150 11:0.35046729 12:0.037470726 
32768 1:0.032391454 2:0.076498966 3:0.017918677 4:0.036526533 5:0.039972433 6:0.1337009 7:0.10337698 8:0.068917988 9:0.1130255 10:1389 11:0.95661157 12:0.13439008 
32768 1:0.10181818 2:0.10181818 3:0.065454545 4:0.050909091 5:0.08 6:0.061818182 7:0.018181818 8:0.072727273 9:0.061818182 10:233 11:0.8442029 12:0.065454545 
32768 1:0.044247788 2:0.088495575 3:0.030973451 4:0.088495575 5:0.11061947 6:0.079646018 7:0.0044247788 8:0.092920354 9:0.066371681 10:174 11:0.76651982 12:0.088495575 
32768 1:0.10196078 2:0.082352941 3:0.090196078 4:0.08627451 5:0.062745098 6:0.047058824 7:0.0078431373 8:0.098039216 9:0.043137255 10:54 11:0.2109375 12:0.066666667 
32768 1:0.061440678 2:0.088983051 3:0.059322034 4:0.084745763 5:0.078389831 6:0.055084746 7:0.0084745763 8:0.072033898 9:0.048728814 10:339 11:0.7167019 12:0.061440678 
2611.864338728456 1:0.0825 2:0.0775 3:0.0475 4:0.0775 5:0.075 6:0.06 7:0.035 8:0.09 9:0.07 10:105 11:0.26184539 12:0.08 
32768 1:0.18461538 2:0.088461538 3:0.042307692 4:0.065384615 5:0.053846154 6:0.046153846 7:0.0076923077 8:0.065384615 9:0.065384615 10:129 11:0.49425287 12:0.030769231 
32768 1:0.056994819 2:0.077720207 3:0.062176166 4:0.085492228 5:0.075129534 6:0.049222798 7:0.028497409 8:0.075129534 9:0.051813472 10:117 11:0.30232558 12:0.082901554 
32768 1:0.08 2:0.070857143 3:0.045714286 4:0.090285714 5:0.081142857 6:0.062857143 7:0.012571429 8:0.067428571 9:0.051428571 10:519 11:0.59246575 12:0.081142857 
32768 1:0.079027356 2:0.10030395 3:0.075987842 4:0.072948328 5:0.075987842 6:0.094224924 7:0.012158055 8:0.082066869 9:0.066869301 10:138 11:0.41818182 12:0.024316109 
32768 1:0.05483871 2:0.090322581 3:0.058064516 4:0.064516129 5:0.058064516 6:0.093548387 7:0.051612903 8:0.074193548 9:0.080645161 10:33 11:0.10610932 12:0.090322581 
32768 1:0.099365751 2:0.099365751 3:0.031712474 4:0.084566596 5:0.054968288 6:0.065539112 7:0.014799154 8:0.088794926 9:0.059196617 10:255 11:0.53797468 12:0.095137421 
32768 1:0.080078125 2:0.088541667 3:0.056640625 4:0.080078125 5:0.07421875 6:0.074869792 7:0.035807292 8:0.077473958 9:0.070963542 10:549 11:0.35718933 12:0.063151042 
32768 1:0.061261261 2:0.09009009 3:0.032432432 4:0.075675676 5:0.063063063 6:0.079279279 7:0.037837838 8:0.079279279 9:0.079279279 10:283 11:0.50899281 12:0.1027027 
32768 1:0.072847682 2:0.069536424 3:0.052980132 4:0.052980132 5:0.072847682 6:0.07615894 7:0.056291391 8:0.059602649 9:0.086092715 10:39 11:0.12871287 12:0.12913907 
32768 1:0.076225045 2:0.054446461 3:0.094373866 4:0.087114338 5:0.078039927 6:0.092558984 7:0.012704174 8:0.058076225 9:0.050816697 10:318 11:0.57608696 12:0.049001815 
32768 1:0.05108055 2:0.080550098 3:0.033398821 4:0.05697446 5:0.074656189 6:0.084479371 7:0.078585462 8:0.070726916 9:0.092337917 10:93 11:0.18235294 12:0.098231827 
32768 1:0.050251256 2:0.06281407 3:0.052763819 4:0.085427136 5:0.09798995 6:0.075376884 7:0.037688442 8:0.06281407 9:0.072864322 10:123 11:0.30827068 12:0.060301508 
32768 1:0.082446809 2:0.082446809 3:0.053191489 4:0.093085106 5:0.095744681 6:0.085106383 7:0.0053191489 8:0.085106383 9:0.053191489 10:21 11:0.055702918 12:0.045212766 
32768 1:0.10153846 2:0.086153846 3:0.06974359 4:0.08 5:0.072820513 6:0.056410256 7:0.015384615 8:0.085128205 9:0.057435897 10:744 11:0.76229508 12:0.067692308 
32768 1:0.094736842 2:0.11578947 3:0.063157895 4:0.084210526 5:0.087719298 6:0.052631579 7:0.014035088 8:0.09122807 9:0.098245614 10:73 11:0.25524476 12:0.045614035 
32768 1:0.071984436 2:0.097276265 3:0.071984436 4:0.06614786 5:0.058365759 6:0.070038911 7:0.0077821012 8:0.077821012 9:0.052529183 10:429 11:0.83300971 12:0.10700389 
32768 1:0.059440559 2:0.10664336 3:0.048951049 4:0.075174825 5:0.068181818 6:0.068181818 7:0.020979021 8:0.10664336 9:0.052447552 10:372 11:0.64921466 12:0.083916084 
32768 1:0.052427184 2:0.06407767 3:0.07184466 4:0.07184466 5:0.066019417 6:0.11456311 7:0.054368932 8:0.060194175 9:0.075728155 10:210 11:0.40697674 12:0.06407767 
32768 1:0.09 2:0.093333333 3:0.053333333 4:0.056666667 5:0.063333333 6:0.063333333 7:0.013333333 8:0.07 9:0.043333333 10:75 11:0.24916944 12:0.043333333 
32768 1:0.059340659 2:0.07032967 3:0.032967033 4:0.09010989 5:0.096703297 6:0.12087912 7:0.024175824 8:0.052747253 9:0.074725275 10:231 11:0.50657895 12:0.061538462 
32768 1:0.083928571 2:0.067857143 3:0.064285714 4:0.092857143 5:0.082142857 6:0.0625 7:0.016071429 8:0.0625 9:0.0625 10:375 11:0.6684492 12:0.064285714 
32768 1:0.076923077 2:0.099112426 3:0.028106509 4:0.073964497 5:0.053254438 6:0.081360947 7:0.034023669 8:0.10059172 9:0.063609467 10:327 11:0.48301329 12:0.094674556 
32768 1:0.069616838 2:0.084727469 3:0.07987048 4:0.067997841 5:0.086346465 6:0.064759849 7:0.016189962 8:0.063680518 9:0.05990286 10:660 11:0.35598706 12:0.07285483 
32768 1:0.058275058 2:0.093240093 3:0.051282051 4:0.076923077 5:0.076923077 6:0.097902098 7:0.025641026 8:0.06993007 9:0.079254079 10:144 11:0.33488372 12:0.055944056 
32768 1:0.086419753 2:0.083333333 3:0.10493827 4:0.086419753 5:0.058641975 6:0.030864198 7:0.0061728395 8:0.067901235 9:0.037037037 10:147 11:0.45230769 12:0.052469136 
32768 1:0.11078717 2:0.093294461 3:0.029154519 4:0.078717201 5:0.064139942 6:0.058309038 7:0.026239067 8:0.099125364 9:0.072886297 10:126 11:0.36627907 12:0.096209913 
32768 1:0.15918367 2:0.095918367 3:0.065306122 4:0.063265306 5:0.06122449 6:0.034693878 7:0.006122449 8:0.10816327 9:0.03877551 10:258 11:0.52545825 12:0.026530612 
32768 1:0.077922078 2:0.069264069 3:0.069264069 4:0.073593074 5:0.073593074 6:0.064935065 7:0.025974026 8:0.056277056 9:0.077922078 10:45 11:0.19396552 12:0.095238095 
32768 1:0.085299456 2:0.10163339 3:0.041742287 4:0.067150635 5:0.074410163 6:0.063520871 7:0.021778584 8:0.081669691 9:0.068965517 10:370 11:0.67028986 12:0.067150635 
32768 1:0.072769953 2:0.063380282 3:0.05399061 4:0.089201878 5:0.10798122 6:0.091549296 7:0.014084507 8:0.058685446 9:0.068075117 10:255 11:0.5971897 12:0.039906103 
32768 1:0.04745167 2:0.09314587 3:0.019332162 4:0.089630931 5:0.065026362 6:0.11599297 7:0.050966608 8:0.094903339 9:0.077328647 10:135 11:0.23684211 12:0.079086116 
32768 1:0.081433225 2:0.09771987 3:0.039087948 4:0.074918567 5:0.071661238 6:0.055374593 7:0.022801303 8:0.074918567 9:0.071661238 10:201 11:0.6525974 12:0.039087948 
32768 1:0.048275862 2:0.055172414 3:0.033497537 4:0.070935961 5:0.085714286 6:0.14285714 7:0.022660099 8:0.063054187 9:0.0591133 10:516 11:0.50787402 12:0.10344828 
32768 1:0.076470588 2:0.064705882 3:0.052941176 4:0.079411765 5:0.082352941 6:0.070588235 7:0.020588235 8:0.058823529 9:0.058823529 10:144 11:0.42228739 12:0.070588235 
32768 1:0.10204082 2:0.094387755 3:0.068877551 4:0.079081633 5:0.066326531 6:0.048469388 7:0.0051020408 8:0.081632653 9:0.051020408 10:294 11:0.7480916 12:0.071428571 
32768 1:0.042979943 2:0.071633238 3:0.048710602 4:0.10315186 5:0.077363897 6:0.077363897 7:0.0085959885 8:0.06017192 9:0.071633238 10:92 11:0.26285714 12:0.054441261 
32768 1:0.089285714 2:0.12698413 3:0.035714286 4:0.073412698 5:0.051587302 6:0.071428571 7:0.023809524 8:0.12301587 9:0.049603175 10:225 11:0.44554455 12:0.1031746 
32768 1:0.083333333 2:0.09009009 3:0.060810811 4:0.06981982 5:0.06981982 6:0.06981982 7:0.009009009 8:0.072072072 9:0.063063063 10:294 11:0.66067416 12:0.058558559 
32768 1:0.06 2:0.086666667 3:0.043333333 4:0.083333333 5:0.073333333 6:0.10666667 7:0.03 8:0.086666667 9:0.063333333 10:273 11:0.90697674 12:0.086666667 
32768 1:0.052631579 2:0.088516746 3:0.033492823 4:0.090909091 5:0.088516746 6:0.062200957 7:0.023923445 8:0.064593301 9:0.093301435 10:189 11:0.45107399 12:0.088516746 
32768 1:0.11904762 2:0.088435374 3:0.085034014 4:0.081632653 5:0.044217687 6:0.020408163 7:0.034013605 8:0.085034014 9:0.06462585 10:162 11:0.54915254 12:0.057823129 
32768 1:0.041841004 2:0.069037657 3:0.069037657 4:0.058577406 5:0.069037657 6:0.094142259 7:0.085774059 8:0.064853556 9:0.11297071 10:54 11:0.11273486 12:0.12343096 
32768 1:0.049046322 2:0.10081744 3:0.035422343 4:0.084468665 5:0.095367847 6:0.098092643 7:0.019073569 8:0.079019074 9:0.076294278 10:126 11:0.3423913 12:0.10081744 
32768 1:0.05964467 2:0.083756345 3:0.034263959 4:0.074873096 5:0.091370558 6:0.11548223 7:0.015228426 8:0.068527919 9:0.07106599 10:423 11:0.53612167 12:0.067258883 
32768 1:0.09122807 2:0.10526316 3:0.045614035 4:0.084210526 5:0.087719298 6:0.052631579 7:0.014035088 8:0.063157895 9:0.098245614 10:56 11:0.1958042 12:0.10175439 
32768 1:0.11827957 2:0.10394265 3:0.066308244 4:0.084229391 5:0.055555556 6:0.035842294 7:0.0089605735 8:0.11648746 9:0.043010753 10:514 11:0.91949911 12:0.055555556 
32768 1:0.046104928 2:0.058823529 3:0.052464229 4:0.050874404 5:0.063593005 6:0.11764706 7:0.085850556 8:0.050874404 9:0.10174881 10:342 11:0.54285714 12:0.15739269 
32768 1:0.066447908 2:0.094339623 3:0.031993437 4:0.067268253 5:0.064807219 6:0.12469237 7:0.031173093 8:0.066447908 9:0.086136177 10:507 11:0.41557377 12:0.066447908 
32768 1:0.061571125 2:0.1104034 3:0.038216561 4:0.057324841 5:0.053078556 6:0.091295117 7:0.033970276 8:0.08492569 9:0.080679406 10:159 11:0.33686441 12:0.070063694 
32768 1:0.04020979 2:0.071678322 3:0.076923077 4:0.10839161 5:0.096153846 6:0.052447552 7:0.033216783 8:0.062937063 9:0.06993007 10:300 11:0.52356021 12:0.073426573 
32768 1:0.072289157 2:0.055421687 3:0.072289157 4:0.072289157 5:0.089156627 6:0.079518072 7:0.038554217 8:0.05060241 9:0.069879518 10:189 11:0.45432692 12:0.060240964 
32768 1:0.063106796 2:0.038834951 3:0.07038835 4:0.10194175 5:0.10194175 6:0.07038835 7:0.029126214 8:0.072815534 9:0.048543689 10:159 11:0.38498789 12:0.063106796 
32768 1:0.12598425 2:0.073490814 3:0.031496063 4:0.094488189 5:0.05511811 6:0.028871391 7:0.0026246719 8:0.076115486 9:0.026246719 10:354 11:0.92670157 12:0.065616798 
32768 1:0.12015504 2:0.046511628 3:0.058139535 4:0.07751938 5:0.073643411 6:0.058139535 7:0.015503876 8:0.062015504 9:0.031007752 10:93 11:0.35907336 12:0.031007752 
32768 1:0.053619303 2:0.08310992 3:0.040214477 4:0.045576408 5:0.08310992 6:0.14209115 7:0.042895442 8:0.069705094 9:0.061662198 10:89 11:0.23796791 12:0.048257373 
32768 1:0.074303406 2:0.092879257 3:0.043343653 4:0.068111455 5:0.077399381 6:0.061919505 7:0.052631579 8:0.083591331 9:0.095975232 10:144 11:0.44444444 12:0.089783282 
32768 1:0.026047565 2:0.06795017 3:0.018120045 4:0.073612684 5:0.092865232 6:0.1211778 7:0.088335221 8:0.058890147 9:0.13250283 10:420 11:0.47511312 12:0.099660249 
32768 1:0.022964509 2:0.058455115 3:0.020876827 4:0.098121086 5:0.10647182 6:0.075156576 7:0.091858038 8:0.06263048 9:0.14196242 10:366 11:0.7625 12:0.10438413 
32768 1:0.024022346 2:0.087709497 3:0.017877095 4:0.073743017 5:0.074301676 6:0.10726257 7:0.082681564 8:0.069832402 9:0.1301676 10:762 11:0.42546064 12:0.11955307 
32768 1:0.044404973 2:0.085257549 3:0.019538188 4:0.063943162 5:0.069271758 6:0.097690941 7:0.09946714 8:0.088809947 9:0.13143872 10:123 11:0.21808511 12:0.14742451 
32768 1:0.082666667 2:0.082666667 3:0.08 4:0.090666667 5:0.08 6:0.053333333 7:0.010666667 8:0.082666667 9:0.045333333 10:285 11:0.75797872 12:0.032 
32768 1:0.06185567 2:0.051546392 3:0.10996564 4:0.092783505 5:0.096219931 6:0.065292096 7:0.017182131 8:0.048109966 9:0.068728522 10:150 11:0.51369863 12:0.037800687 
32768 1:0.063897764 2:0.060702875 3:0.060702875 4:0.095846645 5:0.073482428 6:0.073482428 7:0.047923323 8:0.067092652 9:0.083067093 10:266 11:0.84713376 12:0.11182109 
32768 1:0.049056604 2:0.077358491 3:0.018867925 4:0.090566038 5:0.090566038 6:0.12075472 7:0.043396226 8:0.077358491 9:0.077358491 10:111 11:0.20903955 12:0.069811321 
32768 1:0.035714286 2:0.091517857 3:0.049107143 4:0.10714286 5:0.071428571 6:0.091517857 7:0.0089285714 8:0.087053571 9:0.0625 10:302 11:0.67260579 12:0.12276786 
32768 1:0.031446541 2:0.075471698 3:0.06918239 4:0.077568134 5:0.071278826 6:0.10272537 7:0.05870021 8:0.056603774 9:0.085953878 10:120 11:0.25104603 12:0.06918239 
32768 1:0.061840121 2:0.063348416 3:0.078431373 4:0.1040724 5:0.1040724 6:0.057315234 7:0.028657617 8:0.070889894 9:0.078431373 10:402 11:0.60542169 12:0.081447964 
32768 1:0.039274924 2:0.12084592 3:0.027190332 4:0.075528701 5:0.057401813 6:0.096676737 7:0.036253776 8:0.072507553 9:0.10876133 10:290 11:0.87349398 12:0.10574018 
32768 1:0.098214286 2:0.089285714 3:0.047619048 4:0.0625 5:0.056547619 6:0.083333333 7:0.035714286 8:0.077380952 9:0.074404762 10:214 11:0.63501484 12:0.083333333 
32768 1:0.04483188 2:0.067247821 3:0.065379826 4:0.091531756 5:0.079078456 6:0.089041096 7:0.028019925 8:0.049190535 9:0.080323786 10:762 11:0.47417548 12:0.079701121 
32768 1:0.071197411 2:0.074433657 3:0.071197411 4:0.089536138 5:0.083063646 6:0.083063646 7:0.0053937433 8:0.071197411 9:0.049622438 10:651 11:0.70150862 12:0.050701187 
32768 1:0.051172708 2:0.091684435 3:0.049040512 4:0.074626866 5:0.07249467 6:0.08315565 7:0.010660981 8:0.061833689 9:0.087420043 10:297 11:0.63191489 12:0.051172708 
32768 1:0.067208065 2:0.057966956 3:0.033043965 4:0.071688603 5:0.059367124 6:0.044245309 7:0.052646318 8:0.080369644 9:0.06216746 10:1653 11:0.46276596 12:0.061887426 
32768 1:0.08358209 2:0.11940299 3:0.020895522 4:0.065671642 5:0.07761194 6:0.07761194 7:0.026865672 8:0.095522388 9:0.086567164 10:116 11:0.3452381 12:0.062686567 
32768 1:0.041666667 2:0.067982456 3:0.048245614 4:0.057017544 5:0.11403509 6:0.11184211 7:0.026315789 8:0.037280702 9:0.078947368 10:312 11:0.68271335 12:0.041666667 
32768 1:0.051643192 2:0.084507042 3:0.056338028 4:0.0657277 5:0.082159624 6:0.096244131 7:0.051643192 8:0.075117371 9:0.093896714 10:105 11:0.24590164 12:0.079812207 
32768 1:0.057768924 2:0.089641434 3:0.037848606 4:0.10159363 5:0.069721116 6:0.049800797 7:0.013944223 8:0.09561753 9:0.065737052 10:256 11:0.50894632 12:0.099601594 
32768 1:0.061068702 2:0.050890585 3:0.061068702 4:0.061068702 5:0.066157761 6:0.1221374 7:0.081424936 8:0.058524173 9:0.10687023 10:342 11:0.8680203 12:0.071246819 
32768 1:0.15789474 2:0.07518797 3:0.033834586 4:0.037593985 5:0.067669173 6:0.14661654 7:0.026315789 8:0.082706767 9:0.033834586 10:90 11:0.33707865 12:0.063909774 
32768 1:0.04415011 2:0.097130243 3:0.04415011 4:0.086092715 5:0.088300221 6:0.11037528 7:0.0088300221 8:0.079470199 9:0.068432671 10:369 11:0.81277533 12:0.1214128 
32768 1:0.056285178 2:0.082551595 3:0.08630394 4:0.088180113 5:0.090056285 6:0.037523452 7:0.015009381 8:0.076923077 9:0.065666041 10:273 11:0.51123596 12:0.061913696 
32768 1:0.043126685 2:0.061994609 3:0.045822102 4:0.04851752 5:0.070080863 6:0.1509434 7:0.07277628 8:0.059299191 9:0.094339623 10:189 11:0.50806452 12:0.04851752 
32768 1:0.07518797 2:0.065162907 3:0.047619048 4:0.10776942 5:0.085213033 6:0.097744361 7:0.022556391 8:0.065162907 9:0.072681704 10:133 11:0.3325 12:0.05764411 
32768 1:0.11227154 2:0.088772846 3:0.036553525 4:0.060052219 5:0.070496084 6:0.062663185 7:0.01305483 8:0.078328982 9:0.065274151 10:204 11:0.53125 12:0.070496084 
32768 1:0.076666667 2:0.09 3:0.046666667 4:0.096666667 5:0.073333333 6:0.096666667 7:0.0066666667 8:0.086666667 9:0.073333333 10:228 11:0.75747508 12:0.073333333 
32768 1:0.020338983 2:0.074576271 3:0.061016949 4:0.06779661 5:0.074576271 6:0.094915254 7:0.047457627 8:0.047457627 9:0.091525424 10:84 11:0.28378378 12:0.14237288 
32768 1:0.089285714 2:0.053571429 3:0.10357143 4:0.064285714 5:0.11428571 6:0.057142857 7:0.0071428571 8:0.05 9:0.039285714 10:174 11:0.61921708 12:0.05 
32768 1:0.035490605 2:0.10647182 3:0.037578288 4:0.064718163 5:0.064718163 6:0.10229645 7:0.027139875 8:0.081419624 9:0.064718163 10:480 11:1 12:0.098121086 
32768 1:0.037406484 2:0.094763092 3:0.024937656 4:0.06234414 5:0.074812968 6:0.074812968 7:0.074812968 8:0.077306733 9:0.11471322 10:141 11:0.35074627 12:0.10972569 
32768 1:0.10054348 2:0.078804348 3:0.086956522 4:0.070652174 5:0.081521739 6:0.048913043 7:0.0081521739 8:0.070652174 9:0.046195652 10:189 11:0.51219512 12:0.046195652 
32768 1:0.047413793 2:0.10560345 3:0.036637931 4:0.064655172 5:0.060344828 6:0.10344828 7:0.032327586 8:0.081896552 9:0.073275862 10:233 11:0.50107527 12:0.084051724 
32768 1:0.074324324 2:0.076576577 3:0.078828829 4:0.063063063 5:0.074324324 6:0.06981982 7:0.04954955 8:0.06981982 9:0.076576577 10:270 11:0.60674157 12:0.072072072 
32768 1:0.083743842 2:0.078817734 3:0.039408867 4:0.064039409 5:0.07635468 6:0.064039409 7:0.022167488 8:0.054187192 9:0.071428571 10:171 11:0.42014742 12:0.049261084 
32768 1:0.10330579 2:0.11157025 3:0.037190083 4:0.066115702 5:0.074380165 6:0.05785124 7:0.0082644628 8:0.090909091 9:0.049586777 10:190 11:0.781893 12:0.074380165 
32768 1:0.077170418 2:0.13504823 3:0.046623794 4:0.064308682 5:0.059485531 6:0.049839228 7:0.019292605 8:0.11254019 9:0.048231511 10:384 11:0.61637239 12:0.07073955 
32768 1:0.053173242 2:0.066895369 3:0.051457976 4:0.10634648 5:0.072041166 6:0.077186964 7:0.030874786 8:0.063464837 9:0.075471698 10:465 11:0.79623288 12:0.090909091 
32768 1:0.06870229 2:0.089694656 3:0.034351145 4:0.09351145 5:0.078244275 6:0.10305344 7:0.013358779 8:0.08778626 9:0.074427481 10:246 11:0.46857143 12:0.064885496 
32768 1:0.055084746 2:0.072033898 3:0.046610169 4:0.099576271 5:0.086864407 6:0.093220339 7:0.014830508 8:0.076271186 9:0.06779661 10:294 11:0.62156448 12:0.065677966 
32768 1:0.083003953 2:0.079051383 3:0.033596838 4:0.090909091 5:0.07312253 6:0.07312253 7:0.015810277 8:0.075098814 9:0.065217391 10:339 11:0.66863905 12:0.079051383 
32768 1:0.054901961 2:0.078431373 3:0.064705882 4:0.098039216 5:0.08627451 6:0.092156863 7:0.01372549 8:0.080392157 9:0.068627451 10:246 11:0.481409 12:0.066666667 
32768 1:0.088578089 2:0.079254079 3:0.034965035 4:0.093240093 5:0.072261072 6:0.074592075 7:0.013986014 8:0.072261072 9:0.06993007 10:401 11:0.93255814 12:0.076923077 
32768 1:0.038007864 2:0.10353866 3:0.04587156 4:0.072083879 5:0.069462647 6:0.082568807 7:0.024901704 8:0.096985583 9:0.066841415 10:373 11:0.4882199 12:0.073394495 
32768 1:0.073667712 2:0.0830721 3:0.067398119 4:0.078369906 5:0.065830721 6:0.068965517 7:0.023510972 8:0.07523511 9:0.065830721 10:399 11:0.62441315 12:0.068965517 
32768 1:0.048732943 2:0.090643275 3:0.071150097 4:0.083820663 5:0.06920078 6:0.064327485 7:0.040935673 8:0.078947368 9:0.074074074 10:477 11:0.46445959 12:0.080896686 
32768 1:0.091623037 2:0.070680628 3:0.065445026 4:0.04973822 5:0.086387435 6:0.10471204 7:0.018324607 8:0.054973822 9:0.04973822 10:228 11:0.59530026 12:0.060209424 
32768 1:0.10819672 2:0.072131148 3:0.032786885 4:0.072131148 5:0.095081967 6:0.042622951 7:0.016393443 8:0.075409836 9:0.042622951 10:143 11:0.46732026 12:0.042622951 
32768 1:0.055670103 2:0.057731959 3:0.043298969 4:0.057731959 5:0.096907216 6:0.11958763 7:0.039175258 8:0.037113402 9:0.074226804 10:339 11:0.69753086 12:0.092783505 
32768 1:0.051948052 2:0.064935065 3:0.049350649 4:0.083116883 5:0.090909091 6:0.093506494 7:0.025974026 8:0.05974026 9:0.05974026 10:135 11:0.34974093 12:0.093506494 
32768 1:0.056213018 2:0.076923077 3:0.085798817 4:0.10059172 5:0.088757396 6:0.062130178 7:0.01183432 8:0.088757396 9:0.044378698 10:333 11:0.98230088 12:0.035502959 
32768 1:0.089201878 2:0.079812207 3:0.070422535 4:0.11267606 5:0.079812207 6:0.0657277 7:0 8:0.079812207 9:0.046948357 10:79 11:0.36915888 12:0.070422535 
32768 1:0.1212938 2:0.091644205 3:0.04851752 4:0.075471698 5:0.061994609 6:0.04851752 7:0.013477089 8:0.086253369 9:0.043126685 10:180 11:0.48387097 12:0.056603774 
32768 1:0.054794521 2:0.063926941 3:0.082191781 4:0.10502283 5:0.091324201 6:0.0456621 7:0.01826484 8:0.059360731 9:0.063926941 10:102 11:0.46363636 12:0.068493151 
32768 1:0.093457944 2:0.060747664 3:0.11214953 4:0.098130841 5:0.093457944 6:0.037383178 7:0.018691589 8:0.074766355 9:0.046728972 10:51 11:0.2372093 12:0.060747664 
32768 1:0.039106145 2:0.078212291 3:0.055865922 4:0.092178771 5:0.10614525 6:0.086592179 7:0.016759777 8:0.094972067 9:0.06424581 10:318 11:0.88579387 12:0.075418994 
32768 1:0.075949367 2:0.042194093 3:0.097046414 4:0.063291139 5:0.080168776 6:0.071729958 7:0.025316456 8:0.063291139 9:0.046413502 10:180 11:0.75630252 12:0.063291139 
32768 1:0.048022599 2:0.059322034 3:0.050847458 4:0.09039548 5:0.10451977 6:0.096045198 7:0.019774011 8:0.042372881 9:0.079096045 10:15 11:0.042253521 12:0.056497175 
32768 1:0.08411215 2:0.07788162 3:0.028037383 4:0.07165109 5:0.093457944 6:0.052959502 7:0.024922118 8:0.08411215 9:0.049844237 10:54 11:0.16770186 12:0.068535826 
32768 1:0.081818182 2:0.081818182 3:0.059090909 4:0.063636364 5:0.088636364 6:0.068181818 7:0.018181818 8:0.05 9:0.061363636 10:381 11:0.86394558 12:0.05 
32768 1:0.07300885 2:0.07300885 3:0.077433628 4:0.081858407 5:0.077433628 6:0.068584071 7:0.017699115 8:0.064159292 9:0.064159292 10:240 11:0.52980132 12:0.042035398 
32768 1:0.055649241 2:0.086003373 3:0.018549747 4:0.075885329 5:0.077571669 6:0.087689713 7:0.042158516 8:0.080944351 9:0.089376054 10:261 11:0.43939394 12:0.091062395 
32768 1:0.090497738 2:0.092760181 3:0.056561086 4:0.092760181 5:0.058823529 6:0.058823529 7:0.013574661 8:0.1040724 9:0.054298643 10:150 11:0.33860045 12:0.052036199 
32768 1:0.058375635 2:0.096446701 3:0.060913706 4:0.081218274 5:0.078680203 6:0.030456853 7:0.040609137 8:0.10913706 9:0.068527919 10:45 11:0.11392405 12:0.088832487 
32768 1:0.034782609 2:0.090434783 3:0.031304348 4:0.059130435 5:0.08173913 6:0.13391304 7:0.07826087 8:0.067826087 9:0.11130435 10:210 11:0.36458333 12:0.08173913 
32768 1:0.067692308 2:0.055384615 3:0.076923077 4:0.10153846 5:0.095384615 6:0.070769231 7:0.012307692 8:0.04 9:0.043076923 10:139 11:0.42638037 12:0.030769231 
32768 1:0.072463768 2:0.08115942 3:0.037681159 4:0.069565217 5:0.066666667 6:0.084057971 7:0.034782609 8:0.072463768 9:0.086956522 10:126 11:0.36416185 12:0.089855072 
32768 1:0.077702703 2:0.067567568 3:0.067567568 4:0.070945946 5:0.077702703 6:0.14527027 7:0.02027027 8:0.057432432 9:0.077702703 10:177 11:0.5959596 12:0.10135135 
32768 1:0.056034483 2:0.077586207 3:0.034482759 4:0.10775862 5:0.060344828 6:0.068965517 7:0.051724138 8:0.090517241 9:0.090517241 10:210 11:0.90128755 12:0.12931034 
32768 1:0.038922156 2:0.10479042 3:0.02994012 4:0.095808383 5:0.071856287 6:0.11077844 7:0.01497006 8:0.077844311 9:0.080838323 10:96 11:0.28656716 12:0.071856287 
32768 1:0.073170732 2:0.10243902 3:0.029268293 4:0.10243902 5:0.07804878 6:0.058536585 7:0.012195122 8:0.092682927 9:0.07804878 10:138 11:0.33576642 12:0.11219512 
32768 1:0.082742317 2:0.06855792 3:0.047281324 4:0.11347518 5:0.085106383 6:0.06855792 7:0.014184397 8:0.09929078 9:0.052009456 10:96 11:0.22641509 12:0.044917258 
32768 1:0.089820359 2:0.050898204 3:0.074850299 4:0.071856287 5:0.071856287 6:0.11377246 7:0.002994012 8:0.056886228 9:0.032934132 10:153 11:0.45671642 12:0.017964072 
32768 1:0.11940299 2:0.095948827 3:0.059701493 4:0.051172708 5:0.063965885 6:0.051172708 7:0.012793177 8:0.08315565 9:0.044776119 10:300 11:0.63829787 12:0.07249467 
32768 1:0.10542169 2:0.090361446 3:0.039156627 4:0.048192771 5:0.093373494 6:0.093373494 7:0.0030120482 8:0.090361446 9:0.024096386 10:174 11:0.52252252 12:0.039156627 
32768 1:0.057534247 2:0.10958904 3:0.02739726 4:0.073972603 5:0.063013699 6:0.10684932 7:0.01369863 8:0.079452055 9:0.079452055 10:300 11:0.81967213 12:0.049315068 
32768 1:0.059496568 2:0.057208238 3:0.050343249 4:0.082379863 5:0.091533181 6:0.11441648 7:0.029748284 8:0.054919908 9:0.073226545 10:246 11:0.56164384 12:0.04805492 
32768 1:0.05 2:0.071428571 3:0.071428571 4:0.092857143 5:0.09047619 6:0.09047619 7:0.0095238095 8:0.071428571 9:0.064285714 10:183 11:0.43467933 12:0.052380952 
32768 1:0.066445183 2:0.069767442 3:0.083056478 4:0.10631229 5:0.099667774 6:0.049833887 7:0.0033222591 8:0.059800664 9:0.073089701 10:165 11:0.54635762 12:0.056478405 
32768 1:0.055555556 2:0.092592593 3:0.037037037 4:0.055555556 5:0.076719577 6:0.10582011 7:0.079365079 8:0.074074074 9:0.12169312 10:234 11:0.61741425 12:0.10582011 
32768 1:0.057581574 2:0.069097889 3:0.055662188 4:0.040307102 5:0.067178503 6:0.099808061 7:0.088291747 8:0.065259117 9:0.09596929 10:162 11:0.31034483 12:0.074856046 
32768 1:0.039583333 2:0.05625 3:0.05625 4:0.091666667 5:0.091666667 6:0.085416667 7:0.033333333 8:0.058333333 9:0.060416667 10:246 11:0.51143451 12:0.064583333 
32768 1:0.062761506 2:0.050209205 3:0.10878661 4:0.075313808 5:0.087866109 6:0.092050209 7:0.0083682008 8:0.033472803 9:0.058577406 10:36 11:0.15 12:0.020920502 
32768 1:0.12080537 2:0.070469799 3:0.060402685 4:0.080536913 5:0.090604027 6:0.05033557 7:0.010067114 8:0.073825503 9:0.030201342 10:148 11:0.49498328 12:0.067114094 
32768 1:0.064900662 2:0.080794702 3:0.067549669 4:0.079470199 5:0.086092715 6:0.087417219 7:0.021192053 8:0.058278146 9:0.070198675 10:519 11:0.68650794 12:0.087417219 
32768 1:0.083076923 2:0.08 3:0.049230769 4:0.095384615 5:0.086153846 6:0.043076923 7:0.018461538 8:0.092307692 9:0.064615385 10:63 11:0.19325153 12:0.095384615 
32768 1:0.1013986 2:0.073426573 3:0.066433566 4:0.059440559 5:0.097902098 6:0.11888112 7:0.006993007 8:0.045454545 9:0.059440559 10:6 11:0.020905923 12:0.048951049 
32768 1:0.066981132 2:0.066981132 3:0.094339623 4:0.077358491 5:0.078301887 6:0.075471698 7:0.026415094 8:0.048113208 9:0.060377358 10:465 11:0.43826579 12:0.050943396 
32768 1:0.040847201 2:0.096822995 3:0.034795764 4:0.042360061 5:0.052950076 6:0.11346445 7:0.081694402 8:0.080181543 9:0.11195159 10:381 11:0.5755287 12:0.10590015 
32768 1:0.048309179 2:0.084541063 3:0.048309179 4:0.089371981 5:0.077294686 6:0.099033816 7:0.041062802 8:0.089371981 9:0.072463768 10:147 11:0.35421687 12:0.086956522 
32768 1:0.067911715 2:0.054329372 3:0.15449915 4:0.081494058 5:0.064516129 6:0.052631579 7:0.0067911715 8:0.0475382 9:0.040747029 10:403 11:0.68305085 12:0.050933786 
32768 1:0.12621359 2:0.048543689 3:0.097087379 4:0.080906149 5:0.055016181 6:0.035598706 7:0.0064724919 8:0.051779935 9:0.038834951 10:141 11:0.45483871 12:0.025889968 
32768 1:0.046511628 2:0.096601073 3:0.023255814 4:0.041144902 5:0.066189624 6:0.093023256 7:0.096601073 8:0.085867621 9:0.11985689 10:87 11:0.15535714 12:0.10554562 
32768 1:0.03164557 2:0.073839662 3:0.018987342 4:0.042194093 5:0.040084388 6:0.14345992 7:0.11814346 8:0.046413502 9:0.16033755 10:30 11:0.063157895 12:0.10548523 
32768 1:0.018450185 2:0.10332103 3:0.044280443 4:0.081180812 5:0.088560886 6:0.11439114 7:0.029520295 8:0.084870849 9:0.081180812 10:175 11:0.64338235 12:0.11439114 
32768 1:0.14626866 2:0.080597015 3:0.062686567 4:0.059701493 5:0.059701493 6:0.059701493 7:0.017910448 8:0.071641791 9:0.03880597 10:222 11:0.66071429 12:0.032835821 
32768 1:0.0234375 2:0.078125 3:0.044270833 4:0.096354167 5:0.09375 6:0.080729167 7:0.0234375 8:0.049479167 9:0.078125 10:159 11:0.41298701 12:0.083333333 
32768 1:0.078612717 2:0.075144509 3:0.099421965 4:0.076300578 5:0.063583815 6:0.046242775 7:0.013872832 8:0.064739884 9:0.045086705 10:465 11:0.5369515 12:0.048554913 
32768 1:0.035 2:0.0725 3:0.0475 4:0.0825 5:0.0975 6:0.1125 7:0.015 8:0.055 9:0.0725 10:213 11:0.53117207 12:0.095 
32768 1:0.025951557 2:0.07266436 3:0.022491349 4:0.048442907 5:0.070934256 6:0.12110727 7:0.11937716 8:0.074394464 9:0.11764706 10:117 11:0.20207254 12:0.11418685 
32768 1:0.065088757 2:0.071005917 3:0.068047337 4:0.062130178 5:0.088757396 6:0.047337278 7:0.017751479 8:0.053254438 9:0.056213018 10:114 11:0.33628319 12:0.035502959 
32768 1:0.095541401 2:0.10509554 3:0.047770701 4:0.066878981 5:0.057324841 6:0.076433121 7:0.0095541401 8:0.10828025 9:0.038216561 10:204 11:0.64761905 12:0.085987261 
32768 1:0.099033816 2:0.079710145 3:0.072463768 4:0.070048309 5:0.084541063 6:0.06763285 7:0.0072463768 8:0.060386473 9:0.055555556 10:372 11:0.89638554 12:0.055555556 
32768 1:0.10181818 2:0.032727273 3:0.12727273 4:0.087272727 5:0.083636364 6:0.058181818 7:0.0036363636 8:0.054545455 9:0.021818182 10:123 11:0.44565217 12:0.018181818 
32768 1:0.060669456 2:0.071129707 3:0.056485356 4:0.083682008 5:0.079497908 6:0.087866109 7:0.039748954 8:0.079497908 9:0.060669456 10:242 11:0.50521921 12:0.09623431 
32768 1:0.10662824 2:0.13832853 3:0.04610951 4:0.048991354 5:0.063400576 6:0.060518732 7:0.017291066 8:0.11239193 9:0.063400576 10:159 11:0.45689655 12:0.089337176 
32768 1:0.025089606 2:0.082437276 3:0.03046595 4:0.08781362 5:0.069892473 6:0.12007168 7:0.043010753 8:0.068100358 9:0.080645161 10:422 11:0.7549195 12:0.089605735 
32768 1:0.0625 2:0.084375 3:0.10625 4:0.0625 5:0.075 6:0.06875 7:0.0125 8:0.071875 9:0.0375 10:265 11:0.82554517 12:0.028125 
32768 1:0.1042471 2:0.073359073 3:0.096525097 4:0.11196911 5:0.061776062 6:0.046332046 7:0.0038610039 8:0.081081081 9:0.034749035 10:126 11:0.48461538 12:0.027027027 
32768 1:0.056213018 2:0.056213018 3:0.050295858 4:0.050295858 5:0.088757396 6:0.10650888 7:0.044378698 8:0.068047337 9:0.056213018 10:144 11:0.42477876 12:0.10946746 
32768 1:0.03277439 2:0.087652439 3:0.033536585 4:0.092987805 5:0.097560976 6:0.1097561 7:0.021341463 8:0.06402439 9:0.10289634 10:657 11:0.50038081 12:0.099085366 
32768 1:0.056962025 2:0.079113924 3:0.079113924 4:0.094936709 5:0.082278481 6:0.082278481 7:0.0094936709 8:0.085443038 9:0.041139241 10:69 11:0.21766562 12:0.060126582 
32768 1:0.087912088 2:0.1043956 3:0.027472527 4:0.087912088 5:0.068681319 6:0.068681319 7:0.013736264 8:0.085164835 9:0.071428571 10:264 11:0.72328767 12:0.071428571 
32768 1:0.06232687 2:0.058864266 3:0.085180055 4:0.072714681 5:0.10180055 6:0.092797784 7:0.0041551247 8:0.042936288 9:0.048476454 10:522 11:0.36124567 12:0.029085873 
32768 1:0.050583658 2:0.11673152 3:0.042801556 4:0.085603113 5:0.050583658 6:0.038910506 7:0.027237354 8:0.089494163 9:0.054474708 10:45 11:0.1744186 12:0.070038911 
32768 1:0.048292108 2:0.061248528 3:0.042402827 4:0.055359246 5:0.058892815 6:0.10954064 7:0.10718492 8:0.060070671 9:0.11660777 10:420 11:0.49411765 12:0.11660777 
32768 1:0.035874439 2:0.089686099 3:0.01793722 4:0.098654709 5:0.053811659 6:0.076233184 7:0.022421525 8:0.094170404 9:0.053811659 10:169 11:0.75446429 12:0.14798206 
32768 1:0.062962963 2:0.1037037 3:0.02962963 4:0.1037037 5:0.044444444 6:0.044444444 7:0.022222222 8:0.092592593 9:0.07037037 10:156 11:0.57564576 12:0.10740741 
32768 1:0.052493438 2:0.089238845 3:0.047244094 4:0.099737533 5:0.078740157 6:0.057742782 7:0.023622047 8:0.086614173 9:0.070866142 10:156 11:0.40837696 12:0.086614173 
32768 1:0.04587156 2:0.079510703 3:0.055045872 4:0.097859327 5:0.091743119 6:0.079510703 7:0.018348624 8:0.067278287 9:0.073394495 10:233 11:0.71036585 12:0.10091743 
32768 1:0.061881188 2:0.044554455 3:0.056930693 4:0.096534653 5:0.089108911 6:0.086633663 7:0.037128713 8:0.047029703 9:0.071782178 10:186 11:0.45925926 12:0.04950495 
32768 1:0.057613169 2:0.082304527 3:0.049382716 4:0.065843621 5:0.049382716 6:0.076131687 7:0.03909465 8:0.061728395 9:0.080246914 10:291 11:0.59753593 12:0.10699588 
32768 1:0.095588235 2:0.088235294 3:0.071078431 4:0.068627451 5:0.049019608 6:0.051470588 7:0.031862745 8:0.071078431 9:0.071078431 10:168 11:0.41075795 12:0.075980392 
32768 1:0.056795132 2:0.079107505 3:0.040567951 4:0.06693712 5:0.085192698 6:0.099391481 7:0.042596349 8:0.054766734 9:0.087221095 10:406 11:0.82186235 12:0.068965517 
32768 1:0.032634033 2:0.074592075 3:0.032634033 4:0.095571096 5:0.076923077 6:0.10722611 7:0.044289044 8:0.067599068 9:0.081585082 10:293 11:0.68139535 12:0.093240093 
32768 1:0.054474708 2:0.10505837 3:0.054474708 4:0.077821012 5:0.11284047 6:0.085603113 7:0.011673152 8:0.085603113 9:0.077821012 10:117 11:0.45348837 12:0.06614786 
32768 1:0.086378738 2:0.10631229 3:0.073089701 4:0.069767442 5:0.056478405 6:0.03654485 7:0.0099667774 8:0.099667774 9:0.049833887 10:189 11:0.62582781 12:0.059800664 
32768 1:0.082969432 2:0.082969432 3:0.048034934 4:0.091703057 5:0.074235808 6:0.065502183 7:0.026200873 8:0.087336245 9:0.056768559 10:87 11:0.37826087 12:0.052401747 
32768 1:0.015665796 2:0.075718016 3:0.075718016 4:0.060052219 5:0.088772846 6:0.11749347 7:0.065274151 8:0.060052219 9:0.10704961 10:18 11:0.046875 12:0.08616188 
32768 1:0.065217391 2:0.088932806 3:0.04743083 4:0.045454545 5:0.04743083 6:0.10671937 7:0.07312253 8:0.092885375 9:0.077075099 10:207 11:0.40828402 12:0.088932806 
32768 1:0.050802139 2:0.058823529 3:0.072192513 4:0.10695187 5:0.088235294 6:0.072192513 7:0.016042781 8:0.048128342 9:0.080213904 10:240 11:0.64 12:0.056149733 
32768 1:0.054198473 2:0.060305344 3:0.055725191 4:0.047328244 5:0.054961832 6:0.10610687 7:0.081679389 8:0.05648855 9:0.091603053 10:483 11:0.36842105 12:0.098473282 
32768 1:0.099644128 2:0.10676157 3:0.021352313 4:0.085409253 5:0.060498221 6:0.060498221 7:0.021352313 8:0.096085409 9:0.071174377 10:90 11:0.31914894 12:0.046263345 
32768 1:0.092696629 2:0.08988764 3:0.056179775 4:0.070224719 5:0.050561798 6:0.064606742 7:0.016853933 8:0.073033708 9:0.061797753 10:129 11:0.36134454 12:0.058988764 
32768 1:0.05399061 2:0.089201878 3:0.075117371 4:0.089201878 5:0.08685446 6:0.079812207 7:0.018779343 8:0.072769953 9:0.072769953 10:387 11:0.90632319 12:0.058685446 
32768 1:0.058495822 2:0.080779944 3:0.066852368 4:0.10027855 5:0.097493036 6:0.061281337 7:0.011142061 8:0.08913649 9:0.050139276 10:204 11:0.56666667 12:0.04735376 
32768 1:0.077220077 2:0.092664093 3:0.073359073 4:0.081081081 5:0.081081081 6:0.077220077 7:0.011583012 8:0.069498069 9:0.065637066 10:36 11:0.13846154 12:0.038610039 
32768 1:0.094512195 2:0.079268293 3:0.027439024 4:0.073170732 5:0.054878049 6:0.097560976 7:0.048780488 8:0.082317073 9:0.076219512 10:277 11:0.84194529 12:0.079268293 
32768 1:0.11884058 2:0.072463768 3:0.086956522 4:0.060869565 5:0.072463768 6:0.037681159 7:0.014492754 8:0.043478261 9:0.046376812 10:201 11:0.58092486 12:0.063768116 
32768 1:0.042918455 2:0.083690987 3:0.049356223 4:0.075107296 5:0.083690987 6:0.081545064 7:0.040772532 8:0.092274678 9:0.055793991 10:354 11:0.75802998 12:0.060085837 
32768 1:0.04526749 2:0.059670782 3:0.026748971 4:0.074074074 5:0.074074074 6:0.12962963 7:0.067901235 8:0.065843621 9:0.086419753 10:174 11:0.35728953 12:0.090534979 
32768 1:0.041543027 2:0.086053412 3:0.023738872 4:0.080118694 5:0.091988131 6:0.115727 7:0.038575668 8:0.080118694 9:0.083086053 10:219 11:0.64792899 12:0.091988131 
32768 1:0.075907591 2:0.066006601 3:0.056105611 4:0.075907591 5:0.089108911 6:0.092409241 7:0.02310231 8:0.069306931 9:0.04290429 10:108 11:0.35526316 12:0.056105611 
32768 1:0.068 2:0.084 3:0.02 4:0.064 5:0.084 6:0.088 7:0.02 8:0.072 9:0.064 10:78 11:0.31075697 12:0.096 
32768 1:0.056367432 2:0.081419624 3:0.052192067 4:0.070981211 5:0.098121086 6:0.13361169 7:0.018789144 8:0.052192067 9:0.068893528 10:276 11:0.575 12:0.06263048 
32768 1:0.033163265 2:0.081632653 3:0.043367347 4:0.079081633 5:0.053571429 6:0.10714286 7:0.096938776 8:0.073979592 9:0.12244898 10:72 11:0.18320611 12:0.10459184 
32768 1:0.029411765 2:0.067226891 3:0.029411765 4:0.10504202 5:0.088235294 6:0.10084034 7:0.050420168 8:0.071428571 9:0.10084034 10:128 11:0.53556485 12:0.10084034 
32768 1:0.051569507 2:0.082959641 3:0.067264574 4:0.094170404 5:0.085201794 6:0.069506726 7:0.013452915 8:0.076233184 9:0.062780269 10:350 11:0.78299776 12:0.087443946 
32768 1:0.061493411 2:0.057101025 3:0.055636896 4:0.065885798 5:0.077598829 6:0.13323572 7:0.058565154 8:0.06295754 9:0.080527086 10:363 11:0.53070175 12:0.083455344 
32768 1:0.051020408 2:0.10544218 3:0.020408163 4:0.091836735 5:0.06462585 6:0.088435374 7:0.013605442 8:0.11564626 9:0.037414966 10:108 11:0.36610169 12:0.1122449 
32768 1:0.078804348 2:0.08423913 3:0.086956522 4:0.097826087 5:0.092391304 6:0.038043478 7:0.010869565 8:0.11141304 9:0.035326087 10:144 11:0.3902439 12:0.0625 
32768 1:0.092741935 2:0.080645161 3:0.058467742 4:0.098790323 5:0.054435484 6:0.032258065 7:0.010080645 8:0.088709677 9:0.052419355 10:243 11:0.4889336 12:0.064516129 
32768 1:0.10377358 2:0.10849057 3:0.047169811 4:0.068396226 5:0.056603774 6:0.070754717 7:0.021226415 8:0.10377358 9:0.049528302 10:273 11:0.64235294 12:0.080188679 
32768 1:0.0651341 2:0.084291188 3:0.084291188 4:0.030651341 5:0.0651341 6:0.08045977 7:0.068965517 8:0.061302682 9:0.088122605 10:348 11:0.66539197 12:0.11111111 
32768 1:0.052631579 2:0.063157895 3:0.028070175 4:0.09122807 5:0.080701754 6:0.098245614 7:0.028070175 8:0.077192982 9:0.063157895 10:213 11:0.74475524 12:0.09122807 
32768 1:0.048148148 2:0.07962963 3:0.042592593 4:0.059259259 5:0.10740741 6:0.10185185 7:0.022222222 8:0.055555556 9:0.074074074 10:312 11:0.5767098 12:0.053703704 
32768 1:0.09375 2:0.068181818 3:0.088068182 4:0.068181818 5:0.079545455 6:0.048295455 7:0.0056818182 8:0.053977273 9:0.042613636 10:192 11:0.54390935 12:0.065340909 
32768 1:0.092013889 2:0.083333333 3:0.038194444 4:0.074652778 5:0.076388889 6:0.086805556 7:0.038194444 8:0.086805556 9:0.074652778 10:264 11:0.45753899 12:0.074652778 
32768 1:0.092857143 2:0.09047619 3:0.054761905 4:0.057142857 5:0.071428571 6:0.042857143 7:0.035714286 8:0.092857143 9:0.057142857 10:51 11:0.12114014 12:0.05 
32768 1:0.12364425 2:0.067245119 3:0.041214751 4:0.082429501 5:0.060737527 6:0.032537961 7:0.023861171 8:0.086767896 9:0.052060738 10:198 11:0.42857143 12:0.05856833 
32768 1:0.039513678 2:0.082066869 3:0.047112462 4:0.092705167 5:0.098784195 6:0.11094225 7:0.010638298 8:0.071428571 9:0.079027356 10:372 11:0.56449165 12:0.06231003 
32768 1:0.12128713 2:0.10148515 3:0.047029703 4:0.069306931 5:0.064356436 6:0.069306931 7:0.017326733 8:0.094059406 9:0.042079208 10:309 11:0.76296296 12:0.076732673 
32768 1:0.086592179 2:0.069832402 3:0.044692737 4:0.075418994 5:0.075418994 6:0.047486034 7:0.041899441 8:0.10335196 9:0.05027933 10:75 11:0.20891365 12:0.097765363 
32768 1:0.11868687 2:0.065656566 3:0.03030303 4:0.063131313 5:0.0075757576 6:0.012626263 7:0.065656566 8:0.080808081 9:0.065656566 10:330 11:0.83123426 12:0.11363636 
32768 1:0.042513863 2:0.085027726 3:0.022181146 4:0.046210721 5:0.051756007 6:0.13863216 7:0.070240296 8:0.068391867 9:0.086876155 10:192 11:0.35424354 12:0.11460259 
32768 1:0.084070796 2:0.12389381 3:0.030973451 4:0.07079646 5:0.075221239 6:0.079646018 7:0.026548673 8:0.11061947 9:0.07079646 10:219 11:0.96475771 12:0.07079646 
32768 1:0.10035842 2:0.046594982 3:0.10394265 4:0.086021505 5:0.071684588 6:0.046594982 7:0.014336918 8:0.064516129 9:0.0035842294 10:123 11:0.43928571 12:0.025089606 
32768 1:0.088888889 2:0.074747475 3:0.048484848 4:0.080808081 5:0.056565657 6:0.068686869 7:0.050505051 8:0.082828283 9:0.078787879 10:186 11:0.375 12:0.096969697 
32768 1:0.13636364 2:0.079545455 3:0.075757576 4:0.064393939 5:0.053030303 6:0.026515152 7:0.0075757576 8:0.083333333 9:0.015151515 10:72 11:0.27169811 12:0.037878788 
32768 1:0.029354207 2:0.080234834 3:0.060665362 4:0.060665362 5:0.080234834 6:0.082191781 7:0.086105675 8:0.080234834 9:0.10176125 10:84 11:0.1640625 12:0.11350294 
32768 1:0.076190476 2:0.082142857 3:0.078571429 4:0.085714286 5:0.061904762 6:0.052380952 7:0.013095238 8:0.067857143 9:0.063095238 10:384 11:0.45659929 12:0.066666667 
32768 1:0.038834951 2:0.080906149 3:0.080906149 4:0.080906149 5:0.077669903 6:0.055016181 7:0.029126214 8:0.067961165 9:0.074433657 10:93 11:0.3 12:0.071197411 
32768 1:0.084134615 2:0.09375 3:0.021634615 4:0.079326923 5:0.072115385 6:0.057692308 7:0.052884615 8:0.088942308 9:0.088942308 10:174 11:0.41726619 12:0.09375 
32768 1:0.09039548 2:0.081920904 3:0.081920904 4:0.079096045 5:0.062146893 6:0.064971751 7:0.025423729 8:0.076271186 9:0.053672316 10:147 11:0.41408451 12:0.050847458 
32768 1:0.041214751 2:0.080260304 3:0.041214751 4:0.070498915 5:0.079175705 6:0.098698482 7:0.035791757 8:0.061822126 9:0.080260304 10:462 11:0.50054171 12:0.10737527 
32768 1:0.10952381 2:0.076190476 3:0.045238095 4:0.088095238 5:0.076190476 6:0.061904762 7:0.0047619048 8:0.064285714 9:0.057142857 10:216 11:0.51306413 12:0.078571429 
32768 1:0.070175439 2:0.063157895 3:0.080701754 4:0.077192982 5:0.080701754 6:0.063157895 7:0.014035088 8:0.059649123 9:0.045614035 10:51 11:0.17832168 12:0.056140351 
32768 1:0.046594982 2:0.075268817 3:0.044802867 4:0.14516129 5:0.039426523 6:0.035842294 7:0.016129032 8:0.066308244 9:0.077060932 10:210 11:0.37567084 12:0.071684588 
32768 1:0.090607735 2:0.068508287 3:0.033149171 4:0.045303867 5:0.049723757 6:0.097237569 7:0.093922652 8:0.045303867 9:0.13922652 10:906 11:1 12:0.12265193 
32768 1:0.052837573 2:0.088062622 3:0.033268102 4:0.095890411 5:0.066536204 6:0.072407045 7:0.04109589 8:0.084148728 9:0.064579256 10:219 11:0.42773438 12:0.10567515 
32768 1:0.088803089 2:0.061776062 3:0.081081081 4:0.088803089 5:0.077220077 6:0.065637066 7:0.0077220077 8:0.069498069 9:0.054054054 10:42 11:0.16153846 12:0.038610039 
32768 1:0.03219697 2:0.090909091 3:0.018939394 4:0.037878788 5:0.077651515 6:0.1875 7:0.060606061 8:0.056818182 9:0.10037879 10:194 11:0.36672968 12:0.083333333 
32768 1:0.055555556 2:0.093567251 3:0.070175439 4:0.064327485 5:0.064327485 6:0.078947368 7:0.055555556 8:0.081871345 9:0.076023392 10:102 11:0.29737609 12:0.090643275 
32768 1:0.11380145 2:0.062953995 3:0.055690073 4:0.082324455 5:0.10411622 6:0.046004843 7:0.021791768 8:0.06779661 9:0.050847458 10:219 11:0.52898551 12:0.024213075 
32768 1:0.063291139 2:0.04556962 3:0.1164557 4:0.063291139 5:0.11139241 6:0.065822785 7:0.012658228 8:0.04556962 9:0.032911392 10:309 11:0.78030303 12:0.035443038 
32768 1:0.088414634 2:0.088414634 3:0.024390244 4:0.088414634 5:0.054878049 6:0.091463415 7:0.015243902 8:0.079268293 9:0.06402439 10:126 11:0.38297872 12:0.054878049 
32768 1:0.034234234 2:0.097297297 3:0.0072072072 4:0.066666667 5:0.072072072 6:0.10810811 7:0.05045045 8:0.066666667 9:0.1045045 10:143 11:0.25719424 12:0.095495495 
32768 1:0.036842105 2:0.094736842 3:0.049122807 4:0.084210526 5:0.075438596 6:0.096491228 7:0.015789474 8:0.08245614 9:0.054385965 10:315 11:0.55166375 12:0.09122807 
32768 1:0.063183475 2:0.066828676 3:0.046172539 4:0.07290401 5:0.077764277 6:0.087484812 7:0.029161604 8:0.047387606 9:0.086269745 10:447 11:0.54247573 12:0.083839611 
32768 1:0.10284464 2:0.080962801 3:0.061269147 4:0.074398249 5:0.04595186 6:0.048140044 7:0.010940919 8:0.076586433 9:0.050328228 10:231 11:0.50436681 12:0.083150985 
32768 1:0.066945607 2:0.087866109 3:0.041841004 4:0.066945607 5:0.046025105 6:0.11297071 7:0.062761506 8:0.075313808 9:0.083682008 10:48 11:0.2 12:0.083682008 
32768 1:0.099616858 2:0.095785441 3:0.091954023 4:0.045977011 5:0.076628352 6:0.057471264 7:0.011494253 8:0.061302682 9:0.049808429 10:153 11:0.58396947 12:0.026819923 
32768 1:0.074074074 2:0.074074074 3:0.054131054 4:0.076923077 5:0.074074074 6:0.07977208 7:0.017094017 8:0.048433048 9:0.07977208 10:144 11:0.40909091 12:0.056980057 
32768 1:0.0330033 2:0.072607261 3:0.04620462 4:0.092409241 5:0.10231023 6:0.062706271 7:0.0099009901 8:0.075907591 9:0.052805281 10:126 11:0.41447368 12:0.075907591 
32768 1:0.056603774 2:0.075471698 3:0.044596913 4:0.060034305 5:0.066895369 6:0.092624357 7:0.060034305 8:0.061749571 9:0.092624357 10:466 11:0.79794521 12:0.097770154 
3655.452947798638 1:0.10204082 2:0.085034014 3:0.037414966 4:0.06122449 5:0.068027211 6:0.091836735 7:0.013605442 8:0.068027211 9:0.040816327 10:112 11:0.37966102 12:0.11904762 
32768 1:0.089051095 2:0.077372263 3:0.062773723 4:0.067153285 5:0.074452555 6:0.070072993 7:0.027737226 8:0.067153285 9:0.054014599 10:465 11:0.67784257 12:0.054014599 
32768 1:0.039473684 2:0.078947368 3:0.043859649 4:0.076754386 5:0.085526316 6:0.089912281 7:0.050438596 8:0.070175439 9:0.10307018 10:195 11:0.42669584 12:0.076754386 
32768 1:0.072164948 2:0.054982818 3:0.068728522 4:0.068728522 5:0.096219931 6:0.089347079 7:0.020618557 8:0.058419244 9:0.065292096 10:78 11:0.26712329 12:0.06185567 
32768 1:0.06009245 2:0.066255778 3:0.086286595 4:0.086286595 5:0.078582435 6:0.090909091 7:0.026194145 8:0.057010786 9:0.073959938 10:387 11:0.59538462 12:0.064714946 
32768 1:0.045112782 2:0.097744361 3:0.034586466 4:0.069172932 5:0.087218045 6:0.079699248 7:0.027067669 8:0.061654135 9:0.091729323 10:330 11:0.4954955 12:0.07518797 
32768 1:0.063241107 2:0.098814229 3:0.019762846 4:0.059288538 5:0.057312253 6:0.081027668 7:0.049407115 8:0.092885375 9:0.083003953 10:273 11:0.53846154 12:0.092885375 
32768 1:0.11197917 2:0.075520833 3:0.0625 4:0.072916667 5:0.083333333 6:0.052083333 7:0.0026041667 8:0.078125 9:0.036458333 10:207 11:0.53766234 12:0.03125 
32768 1:0.025171625 2:0.077803204 3:0.013729977 4:0.068649886 5:0.084668192 6:0.1395881 7:0.057208238 8:0.082379863 9:0.082379863 10:75 11:0.17123288 12:0.10755149 
32768 1:0.081730769 2:0.074519231 3:0.048076923 4:0.09375 5:0.091346154 6:0.074519231 7:0.028846154 8:0.076923077 9:0.074519231 10:186 11:0.44604317 12:0.09375 
32768 1:0.1060241 2:0.084337349 3:0.062650602 4:0.074698795 5:0.045783133 6:0.062650602 7:0.012048193 8:0.074698795 9:0.048192771 10:246 11:0.59134615 12:0.065060241 
32768 1:0.053571429 2:0.085714286 3:0.044642857 4:0.082142857 5:0.1 6:0.076785714 7:0.0089285714 8:0.058928571 9:0.067857143 10:315 11:0.56149733 12:0.0875 
32768 1:0.028346457 2:0.061417323 3:0.02992126 4:0.05511811 5:0.067716535 6:0.12598425 7:0.088188976 8:0.044094488 9:0.094488189 10:360 11:0.56603774 12:0.11181102 
32768 1:0.042335766 2:0.10364964 3:0.059854015 4:0.083211679 5:0.065693431 6:0.067153285 7:0.010218978 8:0.10072993 9:0.046715328 10:342 11:0.49854227 12:0.10364964 
32768 1:0.13235294 2:0.17279412 3:0.012867647 4:0.045955882 5:0.0036764706 6:0.016544118 7:0.016544118 8:0.14705882 9:0.047794118 10:271 11:0.49724771 12:0.15808824 
32768 1:0.04867872 2:0.07232267 3:0.040333797 4:0.080667594 5:0.086230876 6:0.10013908 7:0.026425591 8:0.069541029 9:0.063977747 10:585 11:0.8125 12:0.10431154 
32768 1:0.066361556 2:0.073226545 3:0.052631579 4:0.059496568 5:0.089244851 6:0.12585812 7:0.034324943 8:0.066361556 9:0.061784897 10:192 11:0.43835616 12:0.054919908 
32768 1:0.085227273 2:0.068181818 3:0.085227273 4:0.059659091 5:0.059659091 6:0.045454545 7:0.036931818 8:0.079545455 9:0.034090909 10:240 11:0.67988669 12:0.056818182 
32768 1:0.018324607 2:0.070680628 3:0.020942408 4:0.091623037 5:0.036649215 6:0.10471204 7:0.11518325 8:0.052356021 9:0.15706806 10:349 11:0.91122715 12:0.15706806 
32768 1:0.061788618 2:0.094308943 3:0.03902439 4:0.076422764 5:0.068292683 6:0.091056911 7:0.016260163 8:0.055284553 9:0.079674797 10:378 11:0.61363636 12:0.091056911 
32768 1:0.070323488 2:0.082981716 3:0.035161744 4:0.054852321 5:0.026722925 6:0.10970464 7:0.063291139 8:0.039381153 9:0.11392405 10:366 11:0.51404494 12:0.052039381 
32768 1:0.10330579 2:0.074380165 3:0.066115702 4:0.053719008 5:0.061983471 6:0.045454545 7:0.0082644628 8:0.053719008 9:0.045454545 10:87 11:0.35802469 12:0.045454545 
32768 1:0.090634441 2:0.063444109 3:0.081570997 4:0.087613293 5:0.057401813 6:0.072507553 7:0.012084592 8:0.081570997 9:0.054380665 10:195 11:0.5873494 12:0.069486405 
32768 1:0.076712329 2:0.095890411 3:0.065753425 4:0.098630137 5:0.063013699 6:0.02739726 7:0.0082191781 8:0.10136986 9:0.04109589 10:156 11:0.42622951 12:0.068493151 
32768 1:0.060565276 2:0.084791386 3:0.047106326 4:0.088829071 5:0.096904441 6:0.059219381 7:0.020188425 8:0.080753701 9:0.067294751 10:357 11:0.47983871 12:0.071332436 
32768 1:0.11053985 2:0.087403599 3:0.053984576 4:0.071979434 5:0.087403599 6:0.05655527 7:0.020565553 8:0.092544987 9:0.043701799 10:261 11:0.66923077 12:0.053984576 
32768 1:0.060475162 2:0.069114471 3:0.041036717 4:0.095032397 5:0.086393089 6:0.07775378 7:0.0021598272 8:0.036717063 9:0.066954644 10:309 11:0.66594828 12:0.090712743 
32768 1:0.036939314 2:0.072559367 3:0.030343008 4:0.065963061 5:0.059366755 6:0.1055409 7:0.047493404 8:0.064643799 9:0.075197889 10:357 11:0.47035573 12:0.093667546 
32768 1:0.057017544 2:0.078947368 3:0.046052632 4:0.063596491 5:0.078947368 6:0.10526316 7:0.061403509 8:0.074561404 9:0.096491228 10:93 11:0.20350109 12:0.087719298 
32768 1:0.013574661 2:0.07239819 3:0.022624434 4:0.081447964 5:0.058823529 6:0.13122172 7:0.067873303 8:0.076923077 9:0.085972851 10:216 11:0.97297297 12:0.15837104 
32768 1:0.1277533 2:0.11013216 3:0.092511013 4:0.079295154 5:0.039647577 6:0.04845815 7:0 8:0.11894273 9:0.044052863 10:105 11:0.46052632 12:0.04845815 
32768 1:0.091383812 2:0.041775457 3:0.08616188 4:0.088772846 5:0.091383812 6:0.07310705 7:0.0026109661 8:0.060052219 9:0.041775457 10:298 11:0.77604167 12:0.065274151 
32768 1:0.055160142 2:0.10320285 3:0.033807829 4:0.067615658 5:0.058718861 6:0.09430605 7:0.058718861 8:0.085409253 9:0.096085409 10:165 11:0.29307282 12:0.10676157 
32768 1:0.095367847 2:0.10354223 3:0.051771117 4:0.0626703 5:0.054495913 6:0.081743869 7:0.035422343 8:0.092643052 9:0.076294278 10:141 11:0.38315217 12:0.059945504 
32768 1:0.095323741 2:0.088129496 3:0.059352518 4:0.084532374 5:0.079136691 6:0.064748201 7:0.023381295 8:0.064748201 9:0.080935252 10:366 11:0.65709156 12:0.050359712 
32768 1:0.10425844 2:0.088105727 3:0.046989721 4:0.077826725 5:0.061674009 6:0.035242291 7:0.010279001 8:0.080763583 9:0.046989721 10:339 11:0.49706745 12:0.051395007 
32768 1:0.087837838 2:0.081081081 3:0.082432432 4:0.068918919 5:0.058108108 6:0.032432432 7:0.024324324 8:0.07972973 9:0.048648649 10:405 11:0.5465587 12:0.072972973 
32768 1:0.09610984 2:0.077803204 3:0.050343249 4:0.059496568 5:0.070938215 6:0.098398169 7:0.034324943 8:0.077803204 9:0.068649886 10:186 11:0.42465753 12:0.077803204 
32768 1:0.058823529 2:0.083823529 3:0.035294118 4:0.072058824 5:0.057352941 6:0.076470588 7:0.048529412 8:0.058823529 9:0.1 10:408 11:0.59911894 12:0.10294118 
32768 1:0.059471366 2:0.052863436 3:0.055066079 4:0.11453744 5:0.088105727 6:0.088105727 7:0.022026432 8:0.072687225 9:0.061674009 10:138 11:0.3032967 12:0.046255507 
32768 1:0.046511628 2:0.07751938 3:0.085271318 4:0.080103359 5:0.095607235 6:0.046511628 7:0.041343669 8:0.067183463 9:0.074935401 10:210 11:0.54123711 12:0.07751938 
32768 1:0.03219697 2:0.090909091 3:0.018939394 4:0.037878788 5:0.077651515 6:0.1875 7:0.060606061 8:0.056818182 9:0.10037879 10:194 11:0.36672968 12:0.083333333 
32768 1:0.11372549 2:0.074509804 3:0.082352941 4:0.070588235 5:0.070588235 6:0.062745098 7:0.011764706 8:0.066666667 9:0.039215686 10:81 11:0.31640625 12:0.058823529 
32768 1:0.046770601 2:0.08908686 3:0.048997773 4:0.093541203 5:0.097995546 6:0.10467706 7:0.028953229 8:0.082405345 9:0.080178174 10:50 11:0.11111111 12:0.066815145 
32768 1:0.013910355 2:0.071097372 3:0.032457496 4:0.075734158 5:0.12982998 6:0.14837713 7:0.035548686 8:0.029366306 9:0.11282844 10:648 11:1 12:0.083462133 
32768 1:0.048933501 2:0.077791719 3:0.048933501 4:0.071518193 5:0.071518193 6:0.091593476 7:0.048933501 8:0.075282309 9:0.081555834 10:373 11:0.46741855 12:0.067754078 
32768 1:0.099547511 2:0.095022624 3:0.063348416 4:0.067873303 5:0.07239819 6:0.049773756 7:0.022624434 8:0.090497738 9:0.049773756 10:216 11:0.48758465 12:0.06561086 
32768 1:0.11347518 2:0.074468085 3:0.12411348 4:0.078014184 5:0.074468085 6:0.035460993 7:0 8:0.046099291 9:0.031914894 10:192 11:0.67844523 12:0.056737589 
32768 1:0.093908629 2:0.068527919 3:0.060913706 4:0.073604061 5:0.081218274 6:0.076142132 7:0.0050761421 8:0.055837563 9:0.045685279 10:231 11:0.58481013 12:0.038071066 
32768 1:0.10682493 2:0.050445104 3:0.068249258 4:0.077151335 5:0.065281899 6:0.091988131 7:0.065281899 8:0.047477745 9:0.089020772 10:132 11:0.39053254 12:0.050445104 
32768 1:0.057902973 2:0.043818466 3:0.082942097 4:0.06885759 5:0.087636933 6:0.098591549 7:0.040688576 8:0.051643192 9:0.07198748 10:339 11:0.5296875 12:0.057902973 
32768 1:0.11971831 2:0.059859155 3:0.077464789 4:0.088028169 5:0.063380282 6:0.031690141 7:0.0070422535 8:0.063380282 9:0.042253521 10:111 11:0.38947368 12:0.045774648 
32768 1:0.038314176 2:0.088122605 3:0.053639847 4:0.095785441 5:0.08045977 6:0.095785441 7:0.0076628352 8:0.045977011 9:0.072796935 10:205 11:0.78244275 12:0.072796935 
32768 1:0.096666667 2:0.06 3:0.053333333 4:0.063333333 5:0.10666667 6:0.026666667 7:0.0066666667 8:0.053333333 9:0.036666667 10:144 11:0.47840532 12:0.066666667 
32768 1:0.052816901 2:0.091549296 3:0.028169014 4:0.056338028 5:0.056338028 6:0.11619718 7:0.056338028 8:0.063380282 9:0.098591549 10:42 11:0.14736842 12:0.14084507 
32768 1:0.035650624 2:0.078431373 3:0.023172906 4:0.060606061 5:0.065953654 6:0.12655971 7:0.067736185 8:0.062388592 9:0.08912656 10:41 11:0.072953737 12:0.11051693 
32768 1:0.073260073 2:0.073260073 3:0.1025641 4:0.076923077 5:0.084249084 6:0.054945055 7:0.010989011 8:0.06959707 9:0.047619048 10:150 11:0.54744526 12:0.043956044 
32768 1:0.090277778 2:0.11111111 3:0.055555556 4:0.0625 5:0.048611111 6:0.086805556 7:0.020833333 8:0.079861111 9:0.072916667 10:161 11:0.55709343 12:0.086805556 
32768 1:0.081145585 2:0.090692124 3:0.064439141 4:0.047732697 5:0.042959427 6:0.066825776 7:0.066825776 8:0.069212411 9:0.085918854 10:188 11:0.44761905 12:0.10739857 
32768 1:0.071174377 2:0.081850534 3:0.085409253 4:0.085409253 5:0.060498221 6:0.042704626 7:0.0035587189 8:0.074733096 9:0.042704626 10:126 11:0.44680851 12:0.071174377 
32768 1:0.06864564 2:0.089053803 3:0.07606679 4:0.079777365 5:0.064935065 6:0.05380334 7:0.037105751 8:0.085343228 9:0.07606679 10:276 11:0.51111111 12:0.098330241 
32768 1:0.087378641 2:0.10194175 3:0.058252427 4:0.087378641 5:0.072815534 6:0.058252427 7:0.0024271845 8:0.10194175 9:0.046116505 10:171 11:0.41404358 12:0.058252427 
32768 1:0.053435115 2:0.08778626 3:0.049618321 4:0.089694656 5:0.064885496 6:0.083969466 7:0.038167939 8:0.06870229 9:0.11068702 10:303 11:0.57714286 12:0.10496183 
32768 1:0.045996593 2:0.05451448 3:0.035775128 4:0.083475298 5:0.073253833 6:0.091993186 7:0.066439523 8:0.069846678 9:0.083475298 10:205 11:0.34863946 12:0.10221465 
32768 1:0.014044944 2:0.08988764 3:0.011235955 4:0.087078652 5:0.087078652 6:0.12921348 7:0.053370787 8:0.070224719 9:0.11516854 10:27 11:0.075630252 12:0.10955056 
32768 1:0.071428571 2:0.10084034 3:0.037815126 4:0.067226891 5:0.088235294 6:0.11344538 7:0.029411765 8:0.06302521 9:0.10084034 10:147 11:0.61506276 12:0.084033613 
32768 1:0.091633466 2:0.079681275 3:0.075697211 4:0.079681275 5:0.051792829 6:0.055776892 7:0.027888446 8:0.083665339 9:0.03187251 10:82 11:0.32539683 12:0.083665339 
32768 1:0.084210526 2:0.080701754 3:0.080701754 4:0.073684211 5:0.073684211 6:0.077192982 7:0.024561404 8:0.073684211 9:0.066666667 10:84 11:0.29370629 12:0.066666667 
32768 1:0.058823529 2:0.097186701 3:0.051150895 4:0.097186701 5:0.081841432 6:0.04859335 7:0.010230179 8:0.097186701 9:0.05370844 10:132 11:0.33673469 12:0.074168798 
32768 1:0.10082305 2:0.11316872 3:0.043209877 4:0.072016461 5:0.047325103 6:0.08436214 7:0.024691358 8:0.11316872 9:0.053497942 10:279 11:0.57289528 12:0.069958848 
32768 1:0.058119658 2:0.092307692 3:0.041025641 4:0.061538462 5:0.073504274 6:0.11623932 7:0.034188034 8:0.073504274 9:0.076923077 10:306 11:0.5221843 12:0.08034188 
32768 1:0.091254753 2:0.076045627 3:0.074144487 4:0.085551331 5:0.10836502 6:0.057034221 7:0.0057034221 8:0.058935361 9:0.038022814 10:384 11:0.72865275 12:0.032319392 
32768 1:0.087671233 2:0.073972603 3:0.065753425 4:0.063013699 5:0.073972603 6:0.046575342 7:0.046575342 8:0.087671233 9:0.052054795 10:72 11:0.19672131 12:0.049315068 
32768 1:0.05942029 2:0.063768116 3:0.028985507 4:0.07826087 5:0.079710145 6:0.098550725 7:0.066666667 8:0.063768116 9:0.094202899 10:336 11:0.48625181 12:0.076811594 
32768 1:0.093189964 2:0.10035842 3:0.05734767 4:0.078853047 5:0.086021505 6:0.0609319 7:0.010752688 8:0.11469534 9:0.025089606 10:18 11:0.064285714 12:0.053763441 
32768 1:0.14285714 2:0.078947368 3:0.045112782 4:0.071428571 5:0.067669173 6:0.067669173 7:0.011278195 8:0.082706767 9:0.041353383 10:60 11:0.2247191 12:0.04887218 
32768 1:0.040540541 2:0.063063063 3:0.013513514 4:0.063063063 5:0.076576577 6:0.15315315 7:0.067567568 8:0.067567568 9:0.1036036 10:15 11:0.067264574 12:0.085585586 
32768 1:0.065510597 2:0.06743738 3:0.026974952 4:0.069364162 5:0.094412331 6:0.1194605 7:0.048169557 8:0.065510597 9:0.094412331 10:258 11:0.49615385 12:0.057803468 
32768 1:0.061904762 2:0.055555556 3:0.047619048 4:0.047619048 5:0.068253968 6:0.14285714 7:0.11428571 8:0.058730159 9:0.12539683 10:255 11:0.40412044 12:0.068253968 
32768 1:0.080789946 2:0.077199282 3:0.062836625 4:0.057450628 5:0.041292639 6:0.11310592 7:0.068222621 8:0.059245961 9:0.096947935 10:402 11:0.72043011 12:0.087971275 
32768 1:0.032733224 2:0.063829787 3:0.050736498 4:0.072013093 5:0.085106383 6:0.11456628 7:0.01309329 8:0.044189853 9:0.062193126 10:430 11:0.70261438 12:0.055646481 
32768 1:0.085603113 2:0.097276265 3:0.077821012 4:0.073929961 5:0.070038911 6:0.042801556 7:0 8:0.081712062 9:0.042801556 10:72 11:0.27906977 12:0.06614786 
32768 1:0.072941176 2:0.04 3:0.068235294 4:0.065882353 5:0.082352941 6:0.11764706 7:0.063529412 8:0.04 9:0.087058824 10:34 11:0.079812207 12:0.075294118 
32768 1:0.079096045 2:0.11581921 3:0.031073446 4:0.06779661 5:0.076271186 6:0.076271186 7:0.028248588 8:0.09039548 9:0.087570621 10:121 11:0.34084507 12:0.059322034 
32768 1:0.11111111 2:0.075757576 3:0.070707071 4:0.078282828 5:0.075757576 6:0.053030303 7:0.0050505051 8:0.058080808 9:0.050505051 10:216 11:0.5440806 12:0.055555556 
32768 1:0.080260304 2:0.093275488 3:0.047722343 4:0.10195228 5:0.078091106 6:0.056399132 7:0.0043383948 8:0.093275488 9:0.05856833 10:299 11:0.64718615 12:0.078091106 
