svm_type c_svc
kernel_type rbf
gamma 2
nr_class 2
total_sv 2526
rho 44.6299
label 1 -1
probA -2.34751
probB 0.147602
nr_sv 1335 1191
SV
6331.223892099951 1:0.37121212 2:0.10646388 3:0.026717557 4:0.045627376 5:0.030534351 6:0.0038167939 7:0.007633588 8:0.11026616 9:0.041984733 10:0.049429658 11:0.0076335878 12:0.011450382 13:0.019083969 14:0.011450382 15:0.11406844 16:0.038167939 17:0.015267176 18:0.049618321 19:0.011450382 20:0.068441065 21:0.038167939 22:0.015267176 23:0.015209126 24:0.0076335878 25:0.053231939 26:0 27:0.003816794 28:0.015267176 29:0.079847909 30:0.007633588 31:0.019083969 32:0.087452471 33:0 34:0.045627376 35:0.0038167939 36:0.02661597 37:0.007633588 38:0.007633588 39:0.015209125 40:0 41:0.0076335878 42:0.0038167939 43:0.045627376 44:0.019083969 45:0.015267176 46:0.068441065 47:0.015267176 48:0.015267176 49:0.068441065 50:0.026717557 51:0.011450382 
6799.608686102619 1:0.80689655 2:0.085253456 3:0.027713626 4:0.073732719 5:0.036951501 6:0.0023094688 7:0.009237875 8:0.073732719 9:0.023094688 10:0.055299539 11:0.0092378753 12:0.030023095 13:0.013856813 14:0.0023094688 15:0.10138249 16:0.016166282 17:0.041570439 18:0.027713626 19:0.016166282 20:0.082949309 21:0.034642032 22:0.013856813 23:0.02764977 24:0 25:0.059907834 26:0.0069284065 27:0.013856813 28:0.025404157 29:0.078341014 30:0.011547344 31:0.023094688 32:0.052995392 33:0.0046189376 34:0.050691244 35:0.0069284065 36:0.050691244 37:0.006928406 38:0.025404157 39:0.025345622 40:0.0046189376 41:0.0046189376 42:0.0046189376 43:0.062211982 44:0.013856813 45:0.020785219 46:0.080645161 47:0.020785219 48:0.016166282 49:0.039170507 50:0.013856813 51:0.011547344 
32768 1:1 2:0.049875312 3:0.01 4:0.027431421 5:0.0075 6:0.005 7:0.005 8:0.08478803 9:0.0225 10:0.054862843 11:0.0075 12:0.0075 13:0.0225 14:0.0175 15:0.069825436 16:0.01 17:0.0075 18:0.035 19:0.0175 20:0.074812968 21:0.025 22:0.0125 23:0.0099750623 24:0.0025 25:0.099750623 26:0.0025 27:0.0325 28:0.045 29:0.079800499 30:0.0125 31:0.03 32:0.08478803 33:0.005 34:0.082294264 35:0.0175 36:0.034912718 37:0.01 38:0.0175 39:0.014962594 40:0 41:0.0025 42:0.0025 43:0.067331671 44:0.0225 45:0.0175 46:0.10723192 47:0.0225 48:0.01 49:0.057356608 50:0.0225 51:0.0125 
13618.95198719765 1:0.61386139 2:0.082781457 3:0.023255814 4:0.033112583 5:0.013289037 6:0 7:0.009966777 8:0.099337748 9:0.03654485 10:0.052980132 11:0.0099667774 12:0.009966777 13:0.013289037 14:0.019933555 15:0.062913907 16:0.026578073 17:0.009966777 18:0.016611296 19:0.009966777 20:0.056291391 21:0.013289037 22:0.013289037 23:0.016556291 24:0.0066445183 25:0.086092715 26:0.013289037 27:0.03654485 28:0.023255814 29:0.09602649 30:0.009966777 31:0.03654485 32:0.059602649 33:0.0099667774 34:0.089403974 35:0.026578073 36:0.036423841 37:0.009966777 38:0.013289037 39:0.026490066 40:0.0099667774 41:0.0066445183 42:0.0066445183 43:0.07615894 44:0.023255814 45:0.026578073 46:0.072847682 47:0.019933555 48:0.013289037 49:0.052980132 50:0.023255814 51:0.0066445183 
30471.69423624451 1:0.82692308 2:0.077170418 3:0.035483871 4:0.057877814 5:0.009677419 6:0.0032258065 7:0.032258065 8:0.048231511 9:0.009677419 10:0.073954984 11:0.019354839 12:0.012903226 13:0.019354839 14:0.022580645 15:0.073954984 16:0.029032258 17:0.012903226 18:0.006451613 19:0.025806452 20:0.083601286 21:0.029032258 22:0.019354839 23:0.012861736 24:0.0064516129 25:0.1221865 26:0.025806452 27:0.035483871 28:0.022580645 29:0.038585209 30:0.019354839 31:0.009677419 32:0.045016077 33:0 34:0.028938907 35:0.0064516129 36:0.025723473 37:0.009677419 38:0.003225806 39:0.07073955 40:0.012903226 41:0.022580645 42:0.025806452 43:0.10289389 44:0.025806452 45:0.041935484 46:0.048231511 47:0.009677419 48:0.003225806 49:0.090032154 50:0.003225806 51:0.025806452 
32768 1:0.95520581 2:0.048484848 3:0.014563107 4:0.058181818 5:0.015776699 6:0.01092233 7:0.018203883 8:0.088484848 9:0.031553398 10:0.036363636 11:0.0060679612 12:0.007281553 13:0.009708738 14:0.013349515 15:0.073939394 16:0.014563107 17:0.019417476 18:0.030339806 19:0.009708738 20:0.072727273 21:0.025485437 22:0.020631068 23:0.035151515 24:0.0084951456 25:0.072727273 26:0.0048543689 27:0.016990291 28:0.031553398 29:0.08969697 30:0.024271845 31:0.035194175 32:0.077575758 33:0.0097087379 34:0.092121212 35:0.020631068 36:0.04 37:0.003640777 38:0.02184466 39:0.019393939 40:0.0060679612 41:0.0036407767 42:0.0072815534 43:0.047272727 44:0.009708738 45:0.014563107 46:0.083636364 47:0.01092233 48:0.014563107 49:0.064242424 50:0.020631068 51:0.020631068 
32768 1:0.81392045 2:0.073968706 3:0.017094017 4:0.041251778 5:0.012820513 6:0.0071225071 7:0.005698006 8:0.089615932 9:0.022792023 10:0.062588905 11:0.012820513 12:0.017094017 13:0.017094017 14:0.015669516 15:0.078236131 16:0.025641026 17:0.00997151 18:0.031339031 19:0.011396011 20:0.075391181 21:0.027065527 22:0.017094017 23:0.032716927 24:0.0028490028 25:0.058321479 26:0.0071225071 27:0.01994302 28:0.021367521 29:0.075391181 30:0.017094017 31:0.021367521 32:0.06401138 33:0.00997151 34:0.06116643 35:0.015669516 36:0.052631579 37:0.014245014 38:0.015669516 39:0.039829303 40:0.0071225071 41:0.0071225071 42:0.017094017 43:0.06401138 44:0.021367521 45:0.014245014 46:0.06970128 47:0.01994302 48:0.008547009 49:0.06116643 50:0.015669516 51:0.01994302 
32768 1:0.90354331 2:0.08086785 3:0.0256917 4:0.037475345 5:0.011857708 6:0.0039525692 7:0.005928854 8:0.08678501 9:0.02173913 10:0.059171598 11:0.011857708 12:0.017786561 13:0.017786561 14:0.011857708 15:0.07495069 16:0.023715415 17:0.011857708 18:0.033596838 19:0.005928854 20:0.071005917 21:0.0256917 22:0.013833992 23:0.037475345 24:0.0019762846 25:0.063116371 26:0.0079051383 27:0.0256917 28:0.019762846 29:0.07495069 30:0.02173913 31:0.019762846 32:0.063116371 33:0.011857708 34:0.067061144 35:0.019762846 36:0.055226824 37:0.015810277 38:0.019762846 39:0.033530572 40:0.0039525692 41:0.0019762846 42:0.019762846 43:0.07495069 44:0.023715415 45:0.019762846 46:0.069033531 47:0.02173913 48:0.009881423 49:0.051282051 50:0.011857708 51:0.015810277 
4901.038623187635 1:0.8442029 2:0.10181818 3:0.02919708 4:0.050909091 5:0.02919708 6:0.003649635 7:0.00729927 8:0.10181818 9:0.032846715 10:0.043636364 11:0.010948905 12:0.018248175 13:0.003649635 14:0.010948905 15:0.087272727 16:0.03649635 17:0.00729927 18:0.032846715 19:0.010948905 20:0.061818182 21:0.032846715 22:0.003649635 23:0.018181818 24:0.003649635 25:0.08 26:0.0072992701 27:0.010948905 28:0.02919708 29:0.072727273 30:0.003649635 31:0.02189781 32:0.061818182 33:0.003649635 34:0.065454545 35:0.02189781 36:0.032727273 37:0.010948905 38:0.00729927 39:0.032727273 40:0.018248175 41:0 42:0.003649635 43:0.072727273 44:0.018248175 45:0.032846715 46:0.050909091 47:0.010948905 48:0.00729927 49:0.065454545 50:0.010948905 51:0.01459854 
32768 1:0.67027027 2:0.12454874 3:0.045207957 4:0.050541516 5:0.016274864 6:0 7:0.021699819 8:0.079422383 9:0.025316456 10:0.086642599 11:0.023508137 12:0.018083183 13:0.016274864 14:0.028933092 15:0.090252708 16:0.028933092 17:0.016274864 18:0.023508137 19:0.021699819 20:0.041516245 21:0.023508137 22:0.0036166365 23:0.0054151625 24:0.0018083183 25:0.064981949 26:0.014466546 27:0.012658228 28:0.019891501 29:0.063176895 30:0.005424955 31:0.012658228 32:0.041516245 33:0.0018083183 34:0.034296029 35:0.0036166365 36:0.041516245 37:0.009041591 38:0.009041591 39:0.064981949 40:0.01084991 41:0.016274864 42:0.018083183 43:0.066787004 44:0.027124774 45:0.021699819 46:0.061371841 47:0.019891501 48:0.005424955 49:0.083032491 50:0.016274864 51:0.027124774 
32768 1:0.9630485 2:0.12268519 3:0.046403712 4:0.041666667 5:0.011600928 6:0.0046403712 7:0.016241299 8:0.071759259 9:0.030162413 10:0.090277778 11:0.027842227 12:0.009280742 13:0.023201856 14:0.030162413 15:0.071759259 16:0.025522042 17:0.013921114 18:0.023201856 19:0.009280742 20:0.048611111 21:0.027842227 22:0.0023201856 23:0.0092592593 24:0.0046403712 25:0.055555556 26:0.0092807425 27:0.009280742 28:0.013921114 29:0.0625 30:0.006960557 31:0.011600928 32:0.041666667 33:0 34:0.039351852 35:0.0046403712 36:0.053240741 37:0.011600928 38:0.011600928 39:0.071759259 40:0.011600928 41:0.013921114 42:0.018561485 43:0.053240741 44:0.011600928 45:0.016241299 46:0.074074074 47:0.013921114 48:0.030162413 49:0.092592593 50:0.025522042 51:0.020881671 
32768 1:0.98118669 2:0.086956522 3:0.029027576 4:0.050724638 5:0.013062409 6:0.0043541364 7:0.023222061 8:0.062318841 9:0.020319303 10:0.069565217 11:0.015965167 12:0 13:0.026124819 14:0.027576197 15:0.062318841 16:0.014513788 17:0.015965167 18:0.018867925 19:0.013062409 20:0.050724638 21:0.017416546 22:0.01161103 23:0.011594203 24:0.0058055152 25:0.079710145 26:0.018867925 27:0.026124819 28:0.02467344 29:0.060869565 30:0.007256894 31:0.013062409 32:0.050724638 33:0.0029027576 34:0.055072464 35:0.014513788 36:0.050724638 37:0.008708273 38:0.01161103 39:0.060869565 40:0.0087082729 41:0.013062409 42:0.015965167 43:0.052173913 44:0.014513788 45:0.02467344 46:0.086956522 47:0.017416546 48:0.027576197 49:0.10869565 50:0.02467344 51:0.04934688 
5185.999567664157 1:0.94029851 2:0.03125 3:0.0027210884 4:0.025815217 5:0.005442177 6:0.0040816327 7:0.008163265 8:0.065217391 9:0.017687075 10:0.028532609 11:0.0027210884 12:0.002721088 13:0.016326531 14:0.0068027211 15:0.047554348 16:0.008163265 17:0.012244898 18:0.021768707 19:0.005442177 20:0.11277174 21:0.021768707 22:0.039455782 23:0.039402174 24:0.014965986 25:0.099184783 26:0.0095238095 27:0.05170068 28:0.02585034 29:0.051630435 30:0.006802721 31:0.021768707 32:0.074728261 33:0.016326531 34:0.1548913 35:0.10068027 36:0.047554348 37:0.016326531 38:0.017687075 39:0.020380435 40:0.0027210884 41:0.0040816327 42:0.0013605442 43:0.086956522 44:0.017687075 45:0.02585034 46:0.067934783 47:0.008163265 48:0.012244898 49:0.046195652 50:0.008163265 51:0.019047619 
22674.27161002427 1:0.91758242 2:0.07706422 3:0.020220588 4:0.04587156 5:0.011029412 6:0.0055147059 7:0.012867647 8:0.091743119 9:0.036764706 10:0.086238532 11:0.012867647 12:0.020220588 13:0.038602941 14:0.014705882 15:0.064220183 16:0.012867647 17:0.011029412 18:0.018382353 19:0.022058824 20:0.03853211 21:0.016544118 22:0.0055147059 23:0.011009174 24:0 25:0.058715596 26:0.0073529412 27:0.011029412 28:0.025735294 29:0.11009174 30:0.023897059 31:0.038602941 32:0.036697248 33:0 34:0.071559633 35:0.012867647 36:0.044036697 37:0.007352941 38:0.014705882 39:0.049541284 40:0.0036764706 41:0.0036764706 42:0.025735294 43:0.053211009 44:0.020220588 45:0.016544118 46:0.088073394 47:0.034926471 48:0.012867647 49:0.073394495 50:0.009191176 51:0.023897059 
5912.058531562089 1:0.85169492 2:0.082802548 3:0.034042553 4:0.040339703 5:0.017021277 6:0.0021276596 7:0.012765957 8:0.063694268 9:0.017021277 10:0.087048832 11:0.023404255 12:0.014893617 13:0.023404255 14:0.025531915 15:0.057324841 16:0.017021277 17:0.006382979 18:0.014893617 19:0.019148936 20:0.04670913 21:0.012765957 22:0.010638298 23:0.010615711 24:0 25:0.080679406 26:0.019148936 27:0.010638298 28:0.029787234 29:0.067940552 30:0.012765957 31:0.019148936 32:0.053078556 33:0.0021276596 34:0.072186837 35:0.014893617 36:0.042462845 37:0.004255319 38:0.008510638 39:0.067940552 40:0.0085106383 41:0.012765957 42:0.034042553 43:0.055201699 44:0.017021277 45:0.023404255 46:0.087048832 47:0.021276596 48:0.025531915 49:0.08492569 50:0.025531915 51:0.023404255 
32768 1:0.96923077 2:0.10054348 3:0.038984588 4:0.063405797 5:0.032638259 6:0.0027198549 7:0.01631913 8:0.092391304 9:0.040797824 10:0.070652174 11:0.019038985 12:0.009972801 13:0.022665458 14:0.019038985 15:0.085144928 16:0.017225748 17:0.015412511 18:0.032638259 19:0.019945603 20:0.057065217 21:0.019038985 22:0.014505893 23:0.0072463768 24:0.0009066183 25:0.063405797 26:0.0090661831 27:0.014505893 28:0.02175884 29:0.091485507 30:0.02175884 31:0.023572076 32:0.043478261 33:0.0009066183 34:0.042572464 35:0.0099728015 36:0.042572464 37:0.008159565 38:0.019945603 39:0.049818841 40:0.011786038 41:0.011786038 42:0.012692656 43:0.048913043 44:0.01631913 45:0.015412511 46:0.077898551 47:0.029918404 48:0.012692656 49:0.063405797 50:0.013599275 51:0.017225748 
32768 1:0.46302251 2:0.04516129 3:0.0064724919 4:0.05483871 5:0.01618123 6:0.0097087379 7:0.006472492 8:0.061290323 9:0.012944984 10:0.070967742 11:0.012944984 12:0.029126214 13:0.012944984 14:0.01618123 15:0.096774194 16:0.019417476 17:0.009708738 18:0.029126214 19:0.035598706 20:0.080645161 21:0.025889968 22:0.022653722 23:0.032258065 24:0.012944984 25:0.067741935 26:0.0097087379 27:0.022653722 28:0.022653722 29:0.058064516 30:0.012944984 31:0.01618123 32:0.064516129 33:0.0097087379 34:0.067741935 35:0.012944984 36:0.04516129 37:0.012944984 38:0.012944984 39:0.035483871 40:0.01618123 41:0.0064724919 42:0.012944984 43:0.077419355 44:0.022653722 45:0.022653722 46:0.070967742 47:0.012944984 48:0.012944984 49:0.070967742 50:0.022653722 51:0.029126214 
9539.199168395702 1:0.40909091 2:0.082621083 3:0.028571429 4:0.051282051 5:0.017142857 6:0.0085714286 7:0.017142857 8:0.071225071 9:0.017142857 10:0.056980057 11:0.0028571429 12:0.014285714 13:0.014285714 14:0.025714286 15:0.071225071 16:0.017142857 17:0.008571429 18:0.022857143 19:0.022857143 20:0.051282051 21:0.022857143 22:0.0085714286 23:0.025641026 24:0.011428571 25:0.07977208 26:0.0028571429 27:0.025714286 28:0.037142857 29:0.074074074 30:0.014285714 31:0.02 32:0.054131054 33:0.0057142857 34:0.085470085 35:0.031428571 36:0.045584046 37:0.005714286 38:0.02 39:0.034188034 40:0.017142857 41:0 42:0.0057142857 43:0.068376068 44:0.02 45:0.025714286 46:0.07977208 47:0.02 48:0.017142857 49:0.068376068 50:0.008571429 51:0.025714286 
32768 1:0.81075697 2:0.10778443 3:0.042 4:0.055888224 5:0.014 6:0.006 7:0.02 8:0.045908184 9:0.014 10:0.073852295 11:0.02 12:0.012 13:0.02 14:0.022 15:0.055888224 16:0.016 17:0.012 18:0.014 19:0.014 20:0.053892216 21:0.016 22:0.014 23:0.035928144 24:0.006 25:0.061876248 26:0.01 27:0.014 28:0.032 29:0.065868263 30:0.01 31:0.006 32:0.045908184 33:0.008 34:0.067864271 35:0.008 36:0.061876248 37:0.014 38:0.018 39:0.053892216 40:0.014 41:0.004 42:0.018 43:0.051896208 44:0.018 45:0.014 46:0.091816367 47:0.022 48:0.022 49:0.069860279 50:0.022 51:0.028 
4703.121178040828 1:1 2:0.06092437 3:0.014736842 4:0.042016807 5:0.014736842 6:0.014736842 7:0.008421053 8:0.15546219 9:0.096842105 10:0.029411765 11:0.0021052632 12:0.004210526 13:0.010526316 14:0.010526316 15:0.067226891 16:0.014736842 17:0.008421053 18:0.037894737 19:0.006315789 20:0.042016807 21:0.010526316 22:0.014736842 23:0.025210084 24:0.0021052632 25:0.058823529 26:0.0042105263 27:0.018947368 28:0.029473684 29:0.13655462 30:0.023157895 31:0.082105263 32:0.048319328 33:0 34:0.06302521 35:0.0021052632 36:0.067226891 37:0.025263158 38:0.023157895 39:0.021008403 40:0.0042105263 41:0.0042105263 42:0.0063157895 43:0.06092437 44:0.033684211 45:0.004210526 46:0.071428571 47:0.002105263 48:0.031578947 49:0.050420168 50:0.008421053 51:0.016842105 
32768 1:0.74137931 2:0.11239193 3:0.040462428 4:0.048991354 5:0.01734104 6:0 7:0.014450867 8:0.11527377 9:0.057803468 10:0.07204611 11:0.011560694 12:0.00867052 13:0.034682081 14:0.01734104 15:0.054755043 16:0.011560694 17:0.005780347 18:0.020231214 19:0.01734104 20:0.031700288 21:0.005780347 22:0.0028901734 23:0.0057636888 24:0.0028901734 25:0.057636888 26:0.014450867 27:0.002890173 28:0.014450867 29:0.12391931 30:0.014450867 31:0.031791908 32:0.037463977 33:0 34:0.028818444 35:0.0028901734 36:0.054755043 37:0.00867052 38:0.020231214 39:0.057636888 40:0.014450867 41:0.020231214 42:0.01734104 43:0.028818444 44:0.011560694 45:0.011560694 46:0.095100865 47:0.046242775 48:0.023121387 49:0.074927954 50:0.026011561 51:0.026011561 
7449.17348664204 1:1 2:0.063157895 3:0.018469657 4:0.042105263 5:0.01055409 6:0.015831135 7:0.01055409 8:0.14473684 9:0.08707124 10:0.034210526 11:0.0026385224 12:0.005277045 13:0.01055409 14:0.013192612 15:0.063157895 16:0.01055409 17:0.007915567 18:0.042216359 19:0.002638522 20:0.036842105 21:0.007915567 22:0.013192612 23:0.023684211 24:0.0026385224 25:0.063157895 26:0.0052770449 27:0.018469657 28:0.031662269 29:0.12894737 30:0.023746702 31:0.071240106 32:0.047368421 33:0 34:0.063157895 35:0.0026385224 36:0.068421053 37:0.023746702 38:0.026385224 39:0.026315789 40:0.0052770449 41:0.0052770449 42:0.0079155673 43:0.060526316 44:0.034300792 45:0.005277045 46:0.076315789 47:0.002638522 48:0.031662269 49:0.057894737 50:0.007915567 51:0.021108179 
9041.906275193485 1:0.60990099 2:0.15476191 3:0.065606362 4:0.055555556 5:0.023856859 6:0.0019880716 7:0.023856859 8:0.091269841 9:0.035785288 10:0.091269841 11:0.03777336 12:0.015904573 13:0.021868787 14:0.015904573 15:0.075396825 16:0.02584493 17:0.007952286 18:0.02584493 19:0.015904573 20:0.01984127 21:0.009940358 22:0 23:0.005952381 24:0.0019880716 25:0.049603175 26:0.011928429 27:0.011928429 28:0.007952286 29:0.075396825 30:0.005964215 31:0.015904573 32:0.029761905 33:0 34:0.031746032 35:0.0059642147 36:0.051587302 37:0.005964215 38:0.013916501 39:0.087301587 40:0.021868787 41:0.017892644 42:0.017892644 43:0.045634921 44:0.02584493 45:0.009940358 46:0.05952381 47:0.02584493 48:0.017892644 49:0.075396825 50:0.015904573 51:0.023856859 
32768 1:0.98579041 2:0.074733096 3:0.017825312 4:0.049822064 5:0.019607843 6:0.0035650624 7:0.01426025 8:0.080071174 9:0.035650624 10:0.065836299 11:0.0071301248 12:0.016042781 13:0.032085561 14:0.010695187 15:0.067615658 16:0.016042781 17:0.017825312 18:0.016042781 19:0.017825312 20:0.055160142 21:0.016042781 22:0.017825312 23:0.010676157 24:0 25:0.083629893 26:0.012477718 27:0.016042781 28:0.040998217 29:0.099644128 30:0.008912656 31:0.035650624 32:0.058718861 33:0.0017825312 34:0.087188612 35:0.028520499 36:0.037366548 37:0.012477718 38:0.01426025 39:0.026690391 40:0.0053475936 41:0.0071301248 42:0.012477718 43:0.055160142 44:0.008912656 45:0.028520499 46:0.10498221 47:0.026737968 48:0.010695187 49:0.042704626 50:0.017825312 51:0.012477718 
6004.105005391109 1:0.66146993 2:0.069196429 3:0.033557047 4:0.0625 5:0.022371365 6:0.0044742729 7:0.020134228 8:0.071428571 9:0.026845638 10:0.058035714 11:0.015659955 12:0.013422819 13:0.020134228 14:0.0089485459 15:0.075892857 16:0.011185682 17:0.017897092 18:0.029082774 19:0.017897092 20:0.046875 21:0.015659955 22:0.011185682 23:0.020089286 24:0.0022371365 25:0.066964286 26:0 27:0.022371365 28:0.015659955 29:0.082589286 30:0.022371365 31:0.022371365 32:0.037946429 33:0 34:0.082589286 35:0.020134228 36:0.049107143 37:0 38:0.022371365 39:0.033482143 40:0.011185682 41:0.0067114094 42:0.011185682 43:0.0625 44:0.015659955 45:0.022371365 46:0.078125 47:0.015659955 48:0.015659955 49:0.10267857 50:0.020134228 51:0.040268456 
32768 1:0.97804878 2:0.056234719 3:0.0098039216 4:0.068459658 5:0.022058824 6:0.0049019608 7:0.014705882 8:0.080684597 9:0.026960784 10:0.063569682 11:0.0073529412 12:0.014705882 13:0.022058824 14:0.019607843 15:0.090464548 16:0.022058824 17:0.022058824 18:0.024509804 19:0.022058824 20:0.078239609 21:0.031862745 22:0.0098039216 23:0.024449878 24:0.0049019608 25:0.063569682 26:0.0049019608 27:0.026960784 28:0.026960784 29:0.06601467 30:0.009803922 31:0.024509804 32:0.056234719 33:0.0049019608 34:0.06601467 35:0.014705882 36:0.053789731 37:0.00245098 38:0.022058824 39:0.053789731 40:0.017156863 41:0.014705882 42:0.012254902 43:0.053789731 44:0.019607843 45:0.007352941 46:0.073349633 47:0.009803922 48:0.019607843 49:0.051344743 50:0.00245098 51:0.017156863 
17541.27894448198 1:0.6 2:0.042735043 3:0 4:0.02991453 5:0.012875536 6:0.012875536 7:0 8:0.10683761 9:0.025751073 10:0.02991453 11:0 12:0.008583691 13:0.017167382 14:0.0042918455 15:0.072649573 16:0.021459227 17:0.008583691 18:0.021459227 19:0.021459227 20:0.068376068 21:0.017167382 22:0.012875536 23:0.081196581 24:0.021459228 25:0.05982906 26:0 27:0.030042918 28:0.021459227 29:0.085470085 30:0.008583691 31:0.051502146 32:0.13247863 33:0.042918455 34:0.13247863 35:0.042918455 36:0.02991453 37:0.004291845 38:0.021459227 39:0.008547009 40:0.008583691 41:0 42:0 43:0.047008547 44:0.004291845 45:0.012875536 46:0.05982906 47:0.012875536 48:0.012875536 49:0.012820513 50:0 51:0 
32768 1:0.99487836 2:0.043589744 3:0.0077021823 4:0.051282051 5:0.008985879 6:0.0064184852 7:0.020539153 8:0.064102564 9:0.023106547 10:0.044871795 11:0.0064184852 12:0.016688062 13:0.010269576 14:0.011553273 15:0.069230769 16:0.01283697 17:0.02182285 18:0.024390244 19:0.010269576 20:0.10769231 21:0.032092426 22:0.032092426 23:0.05 24:0.016688062 25:0.080769231 26:0.0051347882 27:0.026957638 28:0.033376123 29:0.06025641 30:0.014120668 31:0.02182285 32:0.071794872 33:0.019255456 34:0.055128205 35:0.0089858793 36:0.056410256 37:0.019255456 38:0.017971759 39:0.032051282 40:0.0089858793 41:0.0051347882 42:0.0077021823 43:0.076923077 44:0.014120668 45:0.023106547 46:0.073076923 47:0.011553273 48:0.020539153 49:0.062820513 50:0.011553273 51:0.024390244 
32768 1:0.97297297 2:0.06875 3:0.020876827 4:0.047916667 5:0.012526096 6:0.010438413 7:0.016701461 8:0.089583333 9:0.025052192 10:0.052083333 11:0.012526096 12:0.006263048 13:0.020876827 14:0.012526096 15:0.058333333 16:0.016701461 17:0.014613779 18:0.022964509 19:0.004175365 20:0.045833333 21:0.018789144 22:0.0083507307 23:0.04375 24:0.018789144 25:0.060416667 26:0.010438413 27:0.010438413 28:0.022964509 29:0.079166667 30:0.016701461 31:0.027139875 32:0.08125 33:0.020876827 34:0.066666667 35:0.0083507307 36:0.070833333 37:0.010438413 38:0.035490605 39:0.052083333 40:0.006263048 41:0.018789144 42:0.012526096 43:0.033333333 44:0.008350731 45:0.014613779 46:0.095833333 47:0.022964509 48:0.025052192 49:0.054166667 50:0.016701461 51:0.016701461 
32768 1:0.99278268 2:0.036918138 3:0.0064257028 4:0.048956661 5:0.013654618 6:0.0088353414 7:0.012048193 8:0.088282504 9:0.020883534 10:0.039325843 11:0.0048192771 12:0.01124498 13:0.015261044 14:0.0080321285 15:0.083467095 16:0.014457831 17:0.017670683 18:0.034538153 19:0.01686747 20:0.083467095 21:0.026506024 22:0.025702811 23:0.025682183 24:0.0080321285 25:0.075441413 26:0.0048192771 27:0.021686747 28:0.035341365 29:0.073033708 30:0.020883534 31:0.031325301 32:0.073033708 33:0.0088353414 34:0.1035313 35:0.028915663 36:0.053772071 37:0.015261044 38:0.024096386 39:0.020866774 40:0.0024096386 41:0.00562249 42:0.0080321285 43:0.062600321 44:0.016064257 45:0.014457831 46:0.085072231 47:0.015261044 48:0.018473896 49:0.046548957 50:0.010441767 51:0.016064257 
32768 1:0.96544503 2:0.040880503 3:0.0062959077 4:0.054507338 5:0.012591815 6:0.010493179 7:0.009443861 8:0.076519916 9:0.016789087 10:0.039832285 11:0.0041972718 12:0.011542497 13:0.013641133 14:0.010493179 15:0.082809224 16:0.007345226 17:0.026232949 18:0.037775446 19:0.011542497 20:0.12054507 21:0.029380902 22:0.0409234 23:0.072327044 24:0.03043022 25:0.05870021 26:0.0073452256 27:0.017838405 28:0.026232949 29:0.062893082 30:0.011542497 31:0.018887723 32:0.11006289 33:0.03043022 34:0.080712788 35:0.017838405 36:0.031446541 37:0.006295908 38:0.009443861 39:0.025157233 40:0.0020986359 41:0.0073452256 42:0.0094438615 43:0.049266247 44:0.015739769 45:0.010493179 46:0.055555556 47:0.015739769 48:0.007345226 49:0.038784067 50:0.006295908 51:0.012591815 
15924.61345600609 1:0.70065789 2:0.10378913 3:0.037953795 4:0.065897858 5:0.01980198 6:0.001650165 7:0.02310231 8:0.087314662 9:0.028052805 10:0.065897858 11:0.01320132 12:0.014851485 13:0.02640264 14:0.011551155 15:0.10543657 16:0.028052805 17:0.024752475 18:0.037953795 19:0.014851485 20:0.069192751 21:0.037953795 22:0.0099009901 23:0.0098846787 24:0 25:0.067545305 26:0.011551155 27:0.011551155 28:0.01980198 29:0.080724876 30:0.008250825 31:0.02970297 32:0.067545305 33:0.001650165 34:0.036243822 35:0.004950495 36:0.02306425 37:0.00990099 38:0.00330033 39:0.032948929 40:0.011551155 41:0 42:0.0099009901 43:0.05107084 44:0.021452145 45:0.00990099 46:0.074135091 47:0.03630363 48:0.004950495 49:0.059308072 50:0.024752475 51:0.01320132 
32768 1:0.9369483 2:0.10606061 3:0.032869785 4:0.073232323 5:0.037926675 6:0.0012642225 7:0.013906448 8:0.079545455 9:0.03034134 10:0.071969697 11:0.011378002 12:0.01517067 13:0.029077118 14:0.016434892 15:0.10984848 16:0.03539823 17:0.017699115 18:0.034134008 19:0.022756005 20:0.063131313 21:0.027812895 22:0.012642225 23:0.012626263 24:0.0012642225 25:0.063131313 26:0.0063211125 27:0.016434893 28:0.022756005 29:0.077020202 30:0.016434893 31:0.021491783 32:0.047979798 33:0.00505689 34:0.036616162 35:0.0088495575 36:0.035353535 37:0.01011378 38:0.01011378 39:0.037878788 40:0.011378002 41:0.0063211125 42:0.0063211125 43:0.064393939 44:0.026548673 45:0.016434893 46:0.068181818 47:0.03034134 48:0.007585335 49:0.053030303 50:0.006321113 51:0.012642225 
32768 1:0.98709677 2:0.099137931 3:0.036717063 4:0.05387931 5:0.017278618 6:0.0021598272 7:0.01511879 8:0.081896552 9:0.03887689 10:0.066810345 11:0.01511879 12:0.008639309 13:0.032397408 14:0.010799136 15:0.075431034 16:0.012958963 17:0.019438445 18:0.028077754 19:0.01511879 20:0.081896552 21:0.028077754 22:0.023758099 23:0.010775862 24:0.0021598272 25:0.064655172 26:0.010799136 27:0.012958963 28:0.017278618 29:0.075431034 30:0.006479482 31:0.023758099 32:0.049568966 33:0 34:0.05387931 35:0.0086393089 36:0.043103448 37:0.012958963 38:0.004319654 39:0.051724138 40:0.01511879 41:0.0043196544 42:0.012958963 43:0.047413793 44:0.01511879 45:0.012958963 46:0.075431034 47:0.019438445 48:0.019438445 49:0.068965517 50:0.021598272 51:0.019438445 
32768 1:0.94132653 2:0.10485933 3:0.028205128 4:0.071611253 5:0.030769231 6:0 7:0.017948718 8:0.086956522 9:0.025641026 10:0.071611253 11:0.017948718 12:0.012820513 13:0.028205128 14:0.012820513 15:0.097186701 16:0.025641026 17:0.012820513 18:0.033333333 19:0.025641026 20:0.066496164 21:0.028205128 22:0.012820513 23:0.0051150895 24:0 25:0.069053708 26:0.0076923077 27:0.015384615 28:0.035897436 29:0.099744246 30:0.020512821 31:0.017948718 32:0.05370844 33:0.0025641026 34:0.046035806 35:0.0025641026 36:0.028132992 37:0.01025641 38:0.012820513 39:0.030690537 40:0.01025641 41:0.0025641026 42:0.0076923077 43:0.046035806 44:0.015384615 45:0.01025641 46:0.089514066 47:0.038461538 48:0.020512821 49:0.033248082 50:0.012820513 51:0.0076923077 
32768 1:0.95733333 2:0.072192513 3:0.016085791 4:0.056149733 5:0.018766756 6:0.0053619303 7:0.018766756 8:0.07486631 9:0.032171582 10:0.06684492 11:0.0080428954 12:0.013404826 13:0.029490617 14:0.016085791 15:0.088235294 16:0.021447721 17:0.013404826 18:0.024128686 19:0.029490617 20:0.064171123 21:0.029490617 22:0.010723861 23:0.0053475936 24:0.0026809651 25:0.082887701 26:0.0053619303 27:0.016085791 28:0.029490617 29:0.080213904 30:0.016085791 31:0.024128686 32:0.053475936 33:0 34:0.042780749 35:0.010723861 36:0.037433155 37:0.013404826 38:0.00536193 39:0.032085561 40:0.013404826 41:0.0026809651 42:0.010723861 43:0.064171123 44:0.024128686 45:0.021447721 46:0.090909091 47:0.026809651 48:0.018766756 49:0.088235294 50:0.026809651 51:0.026809652 
2827.484127958948 1:0.66624366 2:0.024142313 3:0.0038167939 4:0.043202033 5:0.006361323 6:0.012722646 7:0.006361323 8:0.062261753 9:0.015267176 10:0.015247776 11:0.0025445293 12:0.001272265 13:0.007633588 14:0.0038167939 15:0.047013977 16:0.008905852 17:0.007633588 18:0.025445293 19:0.005089059 20:0.11308767 21:0.015267176 22:0.03562341 23:0.088945362 24:0.047073791 25:0.09656925 26:0.0050890585 27:0.036895674 28:0.048346056 29:0.059720457 30:0.024173028 31:0.025445293 32:0.1321474 33:0.044529262 34:0.10800508 35:0.025445293 36:0.040660737 37:0.010178117 38:0.020356234 39:0.015247776 40:0.0038167939 41:0.0038167939 42:0.0025445293 43:0.057179161 44:0.007633588 45:0.012722646 46:0.080050826 47:0.008905852 48:0.007633588 49:0.016518424 50:0.003816794 51:0.0025445293 
936.6782843474333 1:0.67035398 2:0.086474501 3:0.031111111 4:0.057649667 5:0.013333333 6:0.0022222222 7:0.028888889 8:0.053215078 9:0.024444444 10:0.082039911 11:0.011111111 12:0.008888889 13:0.031111111 14:0.031111111 15:0.055432373 16:0.006666667 17:0.017777778 18:0.011111111 19:0.02 20:0.042128603 21:0.02 22:0.0066666667 23:0.0088691796 24:0.0044444444 25:0.084257206 26:0.011111111 27:0.004444444 28:0.042222222 29:0.090909091 30:0.017777778 31:0.017777778 32:0.053215078 33:0.0022222222 34:0.064301552 35:0.011111111 36:0.028824834 37:0 38:0.02 39:0.046563193 40:0.013333333 41:0.0044444444 42:0.0088888889 43:0.035476718 44:0.013333333 45:0.011111111 46:0.11308204 47:0.033333333 48:0.015555556 49:0.097560976 50:0.02 51:0.035555556 
32768 1:0.98128342 2:0.09383378 3:0.032258065 4:0.058981233 5:0.024193548 6:0.002688172 7:0.01344086 8:0.09383378 9:0.040322581 10:0.067024129 11:0.01344086 12:0.016129032 13:0.024193548 14:0.01344086 15:0.085790885 16:0.018817204 17:0.010752688 18:0.029569892 19:0.02688172 20:0.058981233 21:0.024193548 22:0.018817204 23:0.0053619303 24:0 25:0.077747989 26:0.0053763441 27:0.02688172 28:0.034946237 29:0.09383378 30:0.016129032 31:0.02688172 32:0.042895442 33:0 34:0.034852547 35:0.0053763441 36:0.048257373 37:0.018817204 38:0.016129032 39:0.040214477 40:0.01344086 41:0.01344086 42:0.002688172 43:0.069705094 44:0.021505376 45:0.032258065 46:0.08310992 47:0.029569892 48:0.024193548 49:0.045576408 50:0.008064516 51:0.016129032 
3187.15553107092 1:0.38141809 2:0.044117647 3:0.012285012 4:0.049019608 5:0.022113022 6:0.0024570025 7:0.00982801 8:0.078431373 9:0.027027027 10:0.044117647 11:0.014742015 12:0.01965602 13:0.007371007 14:0.0024570025 15:0.080882353 16:0.022113022 17:0.01965602 18:0.022113022 19:0.017199017 20:0.085784314 21:0.024570025 22:0.022113022 23:0.0098039216 24:0.0049140049 25:0.12745098 26:0.0073710074 27:0.049140049 28:0.024570025 29:0.056372549 30:0.012285012 31:0.024570025 32:0.058823529 33:0.0049140049 34:0.049019608 35:0.0049140049 36:0.024509804 37:0.007371007 38:0.002457002 39:0.036764706 40:0.012285012 41:0.0098280098 42:0.0049140049 43:0.10784314 44:0.017199017 45:0.056511057 46:0.051470588 47:0.007371007 48:0.007371007 49:0.095588235 50:0.017199017 51:0.031941032 
32768 1:0.63728814 2:0.11904762 3:0.044368601 4:0.054421769 5:0.020477816 6:0.013651877 7:0.017064846 8:0.088435374 9:0.027303754 10:0.054421769 11:0.0034129693 12:0.010238908 13:0.030716724 14:0.010238908 15:0.081632653 16:0.040955631 17:0.006825939 18:0.023890785 19:0.010238908 20:0.020408163 21:0.013651877 22:0 23:0.034013605 24:0.0068259386 25:0.044217687 26:0.017064846 27:0.003412969 28:0.013651877 29:0.085034014 30:0.013651877 31:0.034129693 32:0.06462585 33:0.013651877 34:0.057823129 35:0.0068259386 36:0.054421769 37:0.006825939 38:0.017064846 39:0.034013605 40:0.010238908 41:0.010238908 42:0.0034129693 43:0.040816327 44:0.020477816 45:0.006825939 46:0.081632653 47:0.023890785 48:0.013651877 49:0.085034014 50:0.020477816 51:0.037542662 
32768 1:0.9043659 2:0.041666667 3:0.0083507307 4:0.054166667 5:0.018789144 6:0.0083507307 7:0.012526096 8:0.095833333 9:0.037578288 10:0.052083333 11:0.0020876827 12:0.014613779 13:0.033402923 14:0.0020876827 15:0.06875 16:0.004175365 17:0.014613779 18:0.039665971 19:0.010438413 20:0.054166667 21:0.016701461 22:0.012526096 23:0.025 24:0 25:0.079166667 26:0.0041753653 27:0.018789144 28:0.041753653 29:0.12083333 30:0.020876827 31:0.045929019 32:0.064583333 33:0.010438413 34:0.10208333 35:0.027139875 36:0.0375 37:0.008350731 38:0.018789144 39:0.0125 40:0.0083507307 41:0 42:0 43:0.054166667 44:0.014613779 45:0.016701461 46:0.10208333 47:0.03131524 48:0.010438413 49:0.035416667 50:0.008350731 51:0.0083507307 
32768 1:0.91496063 2:0.042586751 3:0.011058452 4:0.056782334 5:0.023696682 6:0.0078988942 7:0.012638231 8:0.097791798 9:0.031595577 10:0.045741325 11:0.0031595577 12:0.015797788 13:0.025276461 14:0.0015797788 15:0.082018927 16:0.006319115 17:0.022116904 18:0.044233807 19:0.009478673 20:0.066246057 21:0.018957346 22:0.015797788 23:0.033123028 24:0.0063191153 25:0.070977918 26:0.0047393365 27:0.017377567 28:0.036334913 29:0.10094637 30:0.015797788 31:0.04107425 32:0.075709779 33:0.009478673 34:0.10410095 35:0.030015798 36:0.039432177 37:0.009478673 38:0.018957346 39:0.015772871 40:0.009478673 41:0 42:0.0015797788 43:0.05362776 44:0.014218009 45:0.012638231 46:0.086750789 47:0.028436019 48:0.007898894 49:0.028391167 50:0.006319115 51:0.0063191153 
32768 1:0.91891892 2:0.039097744 3:0.010542169 4:0.052631579 5:0.018072289 6:0.0075301205 7:0.015060241 8:0.093233083 9:0.030120482 10:0.046616541 11:0.0030120482 12:0.016566265 13:0.022590361 14:0.0045180723 15:0.07518797 16:0.006024096 17:0.022590361 18:0.039156627 19:0.00753012 20:0.069172932 21:0.019578313 22:0.018072289 23:0.033082707 24:0.0060240964 25:0.073684211 26:0.0060240964 27:0.016566265 28:0.037650602 29:0.10225564 30:0.013554217 31:0.042168675 32:0.072180451 33:0.0090361446 34:0.11127819 35:0.034638554 36:0.039097744 37:0.010542169 38:0.021084337 39:0.013533835 40:0.0075301205 41:0.0015060241 42:0.0015060241 43:0.057142857 44:0.015060241 45:0.013554217 46:0.088721805 47:0.028614458 48:0.009036145 49:0.033082707 50:0.00753012 51:0.0075301205 
32768 1:0.95734597 2:0.047619048 3:0.009569378 4:0.028571429 5:0.004784689 6:0.004784689 7:0.004784689 8:0.057142857 9:0.014354067 10:0.066666667 11:0.014354067 12:0.023923445 13:0.019138756 14:0.009569378 15:0.057142857 16:0.014354067 17:0.009569378 18:0.014354067 19:0.019138756 20:0.057142857 21:0.009569378 22:0.019138756 23:0.038095238 24:0.009569378 25:0.066666667 26:0 27:0.004784689 28:0.038277512 29:0.066666667 30:0.009569378 31:0.028708134 32:0.057142857 33:0.004784689 34:0.076190476 35:0.023923445 36:0.09047619 37:0.019138756 38:0.038277512 39:0.023809524 40:0.009569378 41:0 42:0.014354067 43:0.076190476 44:0.019138756 45:0.019138756 46:0.11904762 47:0.019138756 48:0.043062201 49:0.071428571 50:0.023923445 51:0.014354067 
18794.92541132693 1:0.71146245 2:0.095049505 3:0.025793651 4:0.057425743 5:0.021825397 6:0.0099206349 7:0.021825397 8:0.077227723 9:0.023809524 10:0.057425743 11:0.0079365079 12:0.01984127 13:0.017857143 14:0.011904762 15:0.081188119 16:0.035714286 17:0.007936508 18:0.021825397 19:0.015873016 20:0.027722772 21:0.009920635 22:0 23:0.02970297 24:0.003968254 25:0.077227723 26:0.003968254 27:0.031746032 28:0.01984127 29:0.083168317 30:0.025793651 31:0.021825397 32:0.041584158 33:0.005952381 34:0.059405941 35:0.017857143 36:0.053465347 37:0.013888889 38:0.013888889 39:0.02970297 40:0.005952381 41:0.005952381 42:0.0079365079 43:0.087128713 44:0.031746032 45:0.033730159 46:0.071287129 47:0.021825397 48:0.015873016 49:0.071287129 50:0.01984127 51:0.021825397 
4203.876809238413 1:0.13043478 2:0.12307692 3:0.05655527 4:0.051282051 5:0.020565553 6:0.0051413882 7:0.010282776 8:0.084615385 9:0.028277635 10:0.061538462 11:0.01285347 12:0.020565553 13:0.01285347 14:0.015424165 15:0.094871795 16:0.025706941 17:0.020565553 18:0.033419023 19:0.015424165 20:0.064102564 21:0.028277635 22:0.01285347 23:0.017948718 24:0.0025706941 25:0.058974359 26:0.01285347 27:0.01285347 28:0.020565553 29:0.056410256 30:0.007712082 31:0.010282776 32:0.056410256 33:0.0051413882 34:0.056410256 35:0.010282776 36:0.056410256 37:0.020565553 38:0.017994859 39:0.048717949 40:0.0025706941 41:0.01285347 42:0.015424165 43:0.064102564 44:0.028277635 45:0.015424165 46:0.066666667 47:0.005141388 48:0.010282776 49:0.038461538 50:0.01285347 51:0.0025706941 
32768 1:0.94812165 2:0.041218638 3:0.0089766607 4:0.05734767 5:0.016157989 6:0.0089766607 7:0.012567325 8:0.086021505 9:0.032315978 10:0.035842294 11:0.0017953321 12:0.007181329 13:0.019748654 14:0.0071813285 15:0.084229391 16:0.010771993 17:0.021543986 18:0.037701975 19:0.014362657 20:0.11111111 21:0.030520646 22:0.037701975 23:0.034050179 24:0.012567325 25:0.075268817 26:0.0035906643 27:0.026929982 28:0.034111311 29:0.082437276 30:0.021543986 31:0.030520646 32:0.075268817 33:0.0089766607 34:0.109319 35:0.032315979 36:0.035842294 37:0.016157989 38:0.010771993 39:0.012544803 40:0.0035906643 41:0.0017953321 42:0.0035906643 43:0.0609319 44:0.023339318 45:0.008976661 46:0.073476703 47:0.014362657 48:0.010771993 49:0.025089606 50:0.008976661 51:0.0017953321 
32768 1:0.89318885 2:0.11007752 3:0.024844721 4:0.048062016 5:0.01552795 6:0.0046583851 7:0.020186335 8:0.11472868 9:0.055900621 10:0.066666667 11:0.01863354 12:0.017080745 13:0.01242236 14:0.01863354 15:0.088372093 16:0.032608696 17:0.013975155 18:0.01863354 19:0.023291925 20:0.041860465 21:0.023291925 22:0.0077639752 23:0.0062015504 24:0 25:0.066666667 26:0.0093167702 27:0.01552795 28:0.02173913 29:0.094573643 30:0.010869565 31:0.029503106 32:0.051162791 33:0 34:0.03875969 35:0.001552795 36:0.04496124 37:0.01552795 38:0.017080745 39:0.048062016 40:0.0077639752 41:0.017080745 42:0.0093167702 43:0.060465116 44:0.023291925 45:0.01552795 46:0.069767442 47:0.020186335 48:0.01552795 49:0.049612403 50:0.01863354 51:0.0077639752 
6181.635613997328 1:0.69863014 2:0.04587156 3:0.0046082949 4:0.091743119 5:0.036866359 6:0.0046082949 7:0.023041475 8:0.055045872 9:0.004608295 10:0.050458716 11:0 12:0.013824885 13:0.023041475 14:0.013824885 15:0.11926605 16:0.01843318 17:0.046082949 18:0.041474654 19:0.013824885 20:0.11926605 21:0.064516129 22:0.023041475 23:0.004587156 24:0 25:0.077981651 26:0.0046082949 27:0.01843318 28:0.023041475 29:0.055045872 30:0.02764977 31:0.004608295 32:0.04587156 33:0 34:0.064220183 35:0.01843318 36:0.036697248 37:0.00921659 38:0.01843318 39:0.02293578 40:0.0046082949 41:0 42:0.0092165899 43:0.068807339 44:0.013824885 45:0.01843318 46:0.073394495 47:0.023041475 48:0.013824885 49:0.068807339 50:0.00921659 51:0.013824885 
119.888809644667 1:0.7706422 2:0.16551724 3:0.066820276 4:0.066666667 5:0.01843318 6:0.0046082949 7:0.006912442 8:0.10804598 9:0.039170507 10:0.03908046 11:0.0069124424 12:0.013824885 13:0.013824885 14:0.0046082949 15:0.07816092 16:0.02764977 17:0.016129032 18:0.025345622 19:0.00921659 20:0.075862069 21:0.02764977 22:0.01843318 23:0.036781609 24:0.0023041475 25:0.04137931 26:0.016129032 27:0.00921659 28:0.013824885 29:0.10114943 30:0.020737327 31:0.023041475 32:0.04137931 33:0.011520737 34:0.057471264 35:0.011520737 36:0.045977011 37:0.016129032 38:0.016129032 39:0.034482759 40:0.0092165899 41:0.0046082949 42:0.0046082949 43:0.048275862 44:0.025345622 45:0.00921659 46:0.043678161 47:0.025345622 48:0.006912442 49:0.016091954 50:0 51:0 
32768 1:0.78354204 2:0.05734767 3:0.0071813285 4:0.053763441 5:0.023339318 6:0.0053859964 7:0.008976661 8:0.093189964 9:0.028725314 10:0.039426523 11:0.0071813285 12:0.007181329 13:0.017953321 14:0.0071813285 15:0.091397849 16:0.026929982 17:0.016157989 18:0.032315978 19:0.016157989 20:0.078853047 21:0.021543986 22:0.026929982 23:0.03046595 24:0.0035906643 25:0.066308244 26:0.0035906643 27:0.014362657 28:0.032315978 29:0.075268817 30:0.021543986 31:0.023339318 32:0.08781362 33:0.012567325 34:0.073476703 35:0.012567325 36:0.046594982 37:0.014362657 38:0.017953321 39:0.019713262 40:0.0035906643 41:0.0089766607 42:0.0053859964 43:0.046594982 44:0.019748654 45:0.010771993 46:0.08781362 47:0.012567325 48:0.012567325 49:0.051971326 50:0.019748654 51:0.019748654 
24038.12321723031 1:0.55479452 2:0.065292096 3:0.013793103 4:0.034364261 5:0.006896552 6:0.0068965517 7:0.003448276 8:0.099656357 9:0.013793103 10:0.051546392 11:0.0068965517 12:0.017241379 13:0.017241379 14:0.010344828 15:0.082474227 16:0.017241379 17:0.013793103 18:0.044827586 19:0.006896552 20:0.079037801 21:0.017241379 22:0.027586207 23:0.034364261 24:0.0034482759 25:0.041237113 26:0.0034482759 27:0.013793103 28:0.017241379 29:0.072164948 30:0.003448276 31:0.031034483 32:0.065292096 33:0.0068965517 34:0.092783505 35:0.024137931 36:0.075601375 37:0.020689655 38:0.027586207 39:0.030927835 40:0.0068965517 41:0.0068965517 42:0.010344828 43:0.06185567 44:0.024137931 45:0.010344828 46:0.075601375 47:0.017241379 48:0.024137931 49:0.037800687 50:0.013793103 51:0.0034482759 
32768 1:0.99208861 2:0.14104596 3:0.087301587 4:0.049128368 5:0.019047619 6:0 7:0.014285714 8:0.080824089 9:0.022222222 10:0.06022187 11:0.011111111 12:0.012698413 13:0.019047619 14:0.017460317 15:0.077654517 16:0.026984127 17:0.014285714 18:0.022222222 19:0.014285714 20:0.045958796 21:0.019047619 22:0.0063492063 23:0.030110935 24:0.011111111 25:0.049128368 26:0.0095238095 27:0.014285714 28:0.014285714 29:0.064976228 30:0.007936508 31:0.031746032 32:0.049128368 33:0.012698413 34:0.06022187 35:0.0063492063 36:0.061806656 37:0.019047619 38:0.019047619 39:0.047543582 40:0.0063492063 41:0.012698413 42:0.015873016 43:0.058637084 44:0.022222222 45:0.019047619 46:0.066561014 47:0.015873016 48:0.015873016 49:0.057052298 50:0.014285714 51:0.017460317 
631.3620082259774 1:0.441331 2:0.014035088 3:0.0017574692 4:0.028070175 5:0.007029877 6:0.0052724077 7:0.008787346 8:0.078947368 9:0.021089631 10:0.010526316 11:0 12:0.003514938 13:0.003514938 14:0.0035149385 15:0.045614035 16:0 17:0.014059754 18:0.028119508 19:0.003514938 20:0.17017544 21:0.019332162 22:0.065026362 23:0.11929825 24:0.065026362 25:0.071929825 26:0.007029877 27:0.021089631 28:0.031634446 29:0.057894737 30:0.005272408 31:0.035149385 32:0.15964912 33:0.043936731 34:0.09122807 35:0.024604569 36:0.028070175 37:0.015817223 38:0.008787346 39:0.014035088 40:0.0035149385 41:0.0087873462 42:0.0017574692 43:0.049122807 44:0.007029877 45:0.005272408 46:0.045614035 47:0.005272408 48:0.003514938 49:0.015789474 50:0.001757469 51:0 
15804.44432025233 1:0.72232305 2:0.06 3:0.010928962 4:0.049090909 5:0.023679417 6:0.0054644809 7:0.014571949 8:0.11818182 9:0.032786885 10:0.038181818 11:0 12:0.005464481 13:0.018214936 14:0.012750455 15:0.083636364 16:0.014571949 17:0.014571949 18:0.045537341 19:0.009107468 20:0.067272727 21:0.02003643 22:0.023679417 23:0.02 24:0.0072859745 25:0.072727273 26:0.0054644809 27:0.02003643 28:0.030965392 29:0.10363636 30:0.023679417 31:0.030965392 32:0.072727273 33:0.0018214936 34:0.063636364 35:0.0072859745 36:0.049090909 37:0.016393443 38:0.021857923 39:0.018181818 40:0.0018214936 41:0.010928962 42:0.0036429872 43:0.052727273 44:0.010928962 45:0.021857923 46:0.087272727 47:0.029143898 48:0.02003643 49:0.043636364 50:0.016393443 51:0.012750455 
32768 1:0.97029703 2:0.087603306 3:0.021523179 4:0.042975207 5:0.013245033 6:0.0049668874 7:0.018211921 8:0.080991736 9:0.026490066 10:0.05785124 11:0.0066225166 12:0.011589404 13:0.024834437 14:0.014900662 15:0.076033058 16:0.011589404 17:0.021523179 18:0.026490066 19:0.016556291 20:0.052892562 21:0.018211921 22:0.013245033 23:0.0099173554 24:0.0033112583 25:0.082644628 26:0.0066225166 27:0.013245033 28:0.041390728 29:0.069421488 30:0.009933775 31:0.014900662 32:0.076033058 33:0 34:0.059504132 35:0.0099337748 36:0.051239669 37:0.006622517 38:0.01986755 39:0.036363636 40:0.0033112583 41:0.0066225166 42:0.011589404 43:0.049586777 44:0.014900662 45:0.01986755 46:0.10413223 47:0.016556291 48:0.01986755 49:0.062809917 50:0.018211921 51:0.013245033 
32768 1:0.99664992 2:0.083892617 3:0.033613445 4:0.033557047 5:0.011764706 6:0 7:0.01512605 8:0.07885906 9:0.03697479 10:0.070469799 11:0.0050420168 12:0.023529412 13:0.028571429 14:0.013445378 15:0.068791946 16:0.01512605 17:0.011764706 18:0.020168067 19:0.021848739 20:0.041946309 21:0.011764706 22:0.010084034 23:0.0083892617 24:0 25:0.08557047 26:0.0084033613 27:0.020168067 28:0.031932773 29:0.07885906 30:0.013445378 31:0.023529412 32:0.062080537 33:0.0016806723 34:0.062080537 35:0.020168067 36:0.046979866 37:0.003361345 38:0.026890756 39:0.035234899 40:0.0050420168 41:0.0050420168 42:0.016806723 43:0.067114094 44:0.025210084 45:0.026890756 46:0.10067114 47:0.026890756 48:0.021848739 49:0.075503356 50:0.013445378 51:0.026890756 
1192.583302633653 1:0.65284974 2:0.058365759 3:0.014285714 4:0.058365759 5:0.007792208 6:0.015584416 7:0.011688312 8:0.095979248 9:0.027272727 10:0.037613489 11:0.0090909091 12:0.009090909 13:0.012987013 14:0.0064935065 15:0.072632944 16:0.01038961 17:0.019480519 18:0.036363636 19:0.006493506 20:0.09079118 21:0.02987013 22:0.023376623 23:0.057068742 24:0.012987013 25:0.060959792 26:0.0051948052 27:0.016883117 28:0.024675325 29:0.099870298 30:0.023376623 31:0.028571429 32:0.073929961 33:0.015584416 34:0.068741894 35:0.0064935065 36:0.04150454 37:0.011688312 38:0.011688312 39:0.019455253 40:0.0051948052 41:0.0064935065 42:0.0051948052 43:0.057068742 44:0.01038961 45:0.012987013 46:0.063553826 47:0.024675325 48:0.01038961 49:0.044098573 50:0.014285714 51:0.01038961 
7318.708826315977 1:0.76837416 2:0.13392857 3:0.058165548 4:0.049107143 5:0.011185682 6:0.0022371365 7:0.026845638 8:0.080357143 9:0.029082774 10:0.084821429 11:0.017897092 12:0.024608501 13:0.024608501 14:0.017897092 15:0.060267857 16:0.013422819 17:0.011185682 18:0.015659955 19:0.020134228 20:0.037946429 21:0.008948546 22:0.0067114094 23:0.0044642857 24:0.0022371365 25:0.075892857 26:0.022371365 27:0.006711409 28:0.017897092 29:0.066964286 30:0.004474273 31:0.006711409 32:0.042410714 33:0 34:0.026785714 35:0.0067114094 36:0.049107143 37:0.008948546 38:0.008948546 39:0.084821429 40:0.020134228 41:0.017897092 42:0.017897092 43:0.049107143 44:0.015659955 45:0.017897092 46:0.073660714 47:0.024608501 48:0.017897092 49:0.080357143 50:0.022371365 51:0.020134228 
32768 1:0.972167 2:0.14940239 3:0.041916168 4:0.061752988 5:0.027944112 6:0.003992016 7:0.013972056 8:0.10358566 9:0.053892216 10:0.067729084 11:0.017964072 12:0.015968064 13:0.017964072 14:0.013972056 15:0.079681275 16:0.037924152 17:0.00998004 18:0.01996008 19:0.011976048 20:0.047808765 21:0.017964072 22:0.013972056 23:0.013944223 24:0.001996008 25:0.051792829 26:0.015968064 27:0.00998004 28:0.013972056 29:0.099601594 30:0.00998004 31:0.02994012 32:0.041832669 33:0 34:0.047808765 35:0.011976048 36:0.03187251 37:0.001996008 38:0.007984032 39:0.053784861 40:0.0079840319 41:0.0099800399 42:0.0079840319 43:0.039840637 44:0.013972056 45:0.011976048 46:0.055776892 47:0.023952096 48:0.005988024 49:0.053784861 50:0.015968064 51:0.017964072 
11422.44251289896 1:0.38947368 2:0.070422535 3:0.021201413 4:0.070422535 5:0.014134276 6:0.010600707 7:0.010600707 8:0.088028169 9:0.028268551 10:0.049295775 11:0.0070671378 12:0.017667845 13:0.010600707 14:0.014134276 15:0.077464789 16:0.014134276 17:0.042402827 18:0.010600707 19:0.010600707 20:0.063380282 21:0.028268551 22:0.0035335689 23:0.031690141 24:0.0070671378 25:0.056338028 26:0.014134276 27:0.007067138 28:0.03180212 29:0.1056338 30:0.014134276 31:0.038869258 32:0.045774648 33:0.0070671378 34:0.10211268 35:0.028268551 36:0.031690141 37:0.003533569 38:0.010600707 39:0.024647887 40:0.0070671378 41:0.0070671378 42:0.010600707 43:0.049295775 44:0.028268551 45:0.007067138 46:0.063380282 47:0.028268551 48:0.007067138 49:0.070422535 50:0.010600707 51:0.038869258 
10642.96029103721 1:0.70982143 2:0.094170404 3:0.022522522 4:0.053811659 5:0.027027027 6:0 7:0.018018018 8:0.080717489 9:0.031531532 10:0.094170404 11:0.013513513 12:0.013513514 13:0.036036036 14:0.031531532 15:0.089686099 16:0.022522523 17:0.009009009 18:0.040540541 19:0.018018018 20:0.035874439 21:0.027027027 22:0.0045045045 23:0 24:0 25:0.067264574 26:0.018018018 27:0.009009009 28:0.027027027 29:0.076233184 30:0.013513514 31:0.022522523 32:0.053811659 33:0 34:0.02690583 35:0.0045045045 36:0.040358744 37:0.004504505 38:0.009009009 39:0.067264574 40:0.022522522 41:0 42:0.013513513 43:0.044843049 44:0.013513514 45:0.013513514 46:0.089686099 47:0.036036036 48:0.013513514 49:0.085201794 50:0.018018018 51:0.027027027 
32768 1:0.9679803 2:0.17262639 3:0.069135802 4:0.067817509 5:0.032098765 6:0.0012345679 7:0.018518519 8:0.094944513 9:0.050617284 10:0.077681874 11:0.024691358 12:0.019753086 13:0.016049383 14:0.017283951 15:0.092478422 16:0.041975309 17:0.017283951 18:0.019753086 19:0.013580247 20:0.038224414 21:0.020987654 22:0.0074074074 23:0.0061652281 24:0.0012345679 25:0.050554871 26:0.014814815 27:0.013580247 28:0.012345679 29:0.086313194 30:0.012345679 31:0.020987654 32:0.035758323 33:0.0012345679 34:0.041923551 35:0.012345679 36:0.028360049 37:0.001234568 38:0.007407407 39:0.061652281 40:0.012345679 41:0.014814815 42:0.0086419753 43:0.046855734 44:0.022222222 45:0.012345679 46:0.048088779 47:0.013580247 48:0.014814815 49:0.050554871 50:0.012345679 51:0.012345679 
19712.3547676312 1:0.62195122 2:0.097859327 3:0.033742331 4:0.039755352 5:0.018404908 6:0 7:0.012269939 8:0.10397553 9:0.04601227 10:0.051987768 11:0.0061349693 12:0.009202454 13:0.030674847 14:0.0061349693 15:0.082568807 16:0.015337423 17:0.021472393 18:0.039877301 19:0.006134969 20:0.070336391 21:0.021472393 22:0.018404908 23:0.006116208 24:0 25:0.079510703 26:0.018404908 27:0.015337423 28:0.033742331 29:0.079510703 30:0.003067485 31:0.018404908 32:0.076452599 33:0.0030674847 34:0.036697248 35:0 36:0.051987768 37:0.018404908 38:0.018404908 39:0.036697248 40:0.0030674847 41:0.015337423 42:0.009202454 43:0.051987768 44:0.021472393 45:0.021472393 46:0.094801223 47:0.021472393 48:0.027607362 49:0.039755352 50:0.012269939 51:0.012269939 
32768 1:0.87927928 2:0.075812274 3:0.014466546 4:0.07400722 5:0.025316456 6:0.016274864 7:0.016274864 8:0.093862816 9:0.03074141 10:0.046931408 11:0.0072332731 12:0.01084991 13:0.014466546 14:0.014466546 15:0.088447653 16:0.027124774 17:0.023508137 18:0.018083183 19:0.019891501 20:0.063176895 21:0.021699819 22:0.016274864 23:0.034296029 24:0.01084991 25:0.059566787 26:0.014466546 27:0.018083183 28:0.012658228 29:0.09566787 30:0.018083183 31:0.034358047 32:0.050541516 33:0.0036166365 34:0.063176895 35:0.0090415913 36:0.046931408 37:0.009041591 38:0.025316456 39:0.030685921 40:0.014466546 41:0.0036166365 42:0.0054249548 43:0.059566787 44:0.027124774 45:0.016274864 46:0.063176895 47:0.027124774 48:0.012658228 49:0.054151625 50:0.01084991 51:0.019891501 
32768 1:0.82599119 2:0.070640177 3:0.011061947 4:0.052980132 5:0.017699115 6:0.0022123894 7:0.022123894 8:0.08388521 9:0.028761062 10:0.066225166 11:0.0066371681 12:0.011061947 13:0.028761062 14:0.019911504 15:0.081677704 16:0.022123894 17:0.019911504 18:0.028761062 19:0.011061947 20:0.046357616 21:0.022123894 22:0.0088495575 23:0.015452539 24:0.0022123894 25:0.086092715 26:0.013274336 27:0.011061947 28:0.042035398 29:0.090507726 30:0.017699115 31:0.017699115 32:0.079470199 33:0.0066371681 34:0.06401766 35:0.017699115 36:0.024282561 37:0.011061947 38:0.006637168 39:0.030905077 40:0.0066371681 41:0.0044247788 42:0.011061947 43:0.050772627 44:0.017699115 45:0.015486726 46:0.092715232 47:0.026548673 48:0.013274336 49:0.06401766 50:0.015486726 51:0.019911504 
14079.55334141711 1:0.66899767 2:0.070093458 3:0.011709602 4:0.067757009 5:0.028103044 6:0.0023419204 7:0.021077283 8:0.067757009 9:0.016393443 10:0.058411215 11:0.0046838407 12:0.011709602 13:0.016393443 14:0.025761124 15:0.086448598 16:0.023419204 17:0.018735363 18:0.032786885 19:0.011709602 20:0.063084112 21:0.021077283 22:0.0093676815 23:0.0070093458 24:0 25:0.093457944 26:0.021077283 27:0.030444965 28:0.030444965 29:0.060747664 30:0.011709602 31:0.007025761 32:0.053738318 33:0 34:0.042056075 35:0.0070257611 36:0.037383178 37:0 38:0.016393443 39:0.046728972 40:0.014051522 41:0 42:0.025761124 43:0.063084112 44:0.021077283 45:0.014051522 46:0.077102804 47:0.030444965 48:0.016393443 49:0.10514019 50:0.014051522 51:0.051522248 
98.33651979673576 1:0.92811839 2:0.10169491 3:0.040339703 4:0.044491525 5:0.023354565 6:0.0021231423 7:0.006369427 8:0.093220339 9:0.040339703 10:0.076271186 11:0.010615711 12:0.023354565 13:0.021231423 14:0.021231422 15:0.097457627 16:0.021231423 17:0.012738854 18:0.031847134 19:0.031847134 20:0.059322034 21:0.029723992 22:0.014861996 23:0.0063559322 24:0.0042462845 25:0.05720339 26:0.008492569 27:0.016985138 28:0.014861996 29:0.080508475 30:0.014861996 31:0.01910828 32:0.046610169 33:0.0021231423 34:0.033898305 35:0.0021231423 36:0.044491525 37:0.010615711 38:0.016985138 39:0.036016949 40:0.0042462845 41:0.010615711 42:0.014861996 43:0.069915254 44:0.027600849 45:0.01910828 46:0.072033898 47:0.025477707 48:0.016985138 49:0.080508475 50:0.01910828 51:0.033970276 
32768 1:0.91008772 2:0.11868132 3:0.052863436 4:0.041758242 5:0.019823789 6:0.0044052863 7:0.008810573 8:0.083516484 9:0.028634361 10:0.07032967 11:0.015418502 12:0.017621145 13:0.017621145 14:0.019823789 15:0.081318681 16:0.024229075 17:0.008810573 18:0.030837004 19:0.017621145 20:0.059340659 21:0.028634361 22:0.011013216 23:0.010989011 24:0.0088105727 25:0.068131868 26:0.0088105727 27:0.019823789 28:0.013215859 29:0.074725275 30:0.013215859 31:0.015418502 32:0.054945055 33:0.0022026432 34:0.035164835 35:0 36:0.041758242 37:0.011013216 38:0.015418502 39:0.041758242 40:0.011013216 41:0.0088105727 42:0.0066079295 43:0.063736264 44:0.015418502 45:0.019823789 46:0.074725275 47:0.028634361 48:0.013215859 49:0.079120879 50:0.028634361 51:0.019823789 
32768 1:0.96153846 2:0.0861678 3:0.020454546 4:0.06122449 5:0.018181818 6:0.0022727273 7:0.022727273 8:0.081632653 9:0.027272727 10:0.058956916 11:0.015909091 12:0.006818182 13:0.025 14:0.011363636 15:0.10657596 16:0.036363636 17:0.013636364 18:0.045454545 19:0.011363636 20:0.083900227 21:0.036363636 22:0.025 23:0.013605442 24:0.0045454545 25:0.068027211 26:0.0090909091 27:0.022727273 28:0.018181818 29:0.06122449 30:0.011363636 31:0.011363636 32:0.058956916 33:0.0045454545 34:0.024943311 35:0.0068181818 36:0.049886621 37:0.018181818 38:0.006818182 39:0.036281179 40:0.011363636 41:0.0045454545 42:0.0090909091 43:0.068027211 44:0.029545455 45:0.013636364 46:0.074829932 47:0.020454545 48:0.025 49:0.065759637 50:0.022727273 51:0.018181818 
32768 1:0.88073395 2:0.082720588 3:0.018416206 4:0.073529412 5:0.034990792 6:0.0036832413 7:0.020257827 8:0.090073529 9:0.027624309 10:0.058823529 11:0.0073664825 12:0.011049724 13:0.020257827 14:0.020257827 15:0.091911765 16:0.023941068 17:0.018416206 18:0.025782689 19:0.023941068 20:0.034926471 21:0.011049724 22:0.0055248619 23:0.023897059 24:0.0055248619 25:0.068014706 26:0.014732965 27:0.016574586 28:0.020257827 29:0.090073529 30:0.014732965 31:0.02946593 32:0.058823529 33:0.0073664825 34:0.047794118 35:0.0055248619 36:0.049632353 37:0.009208103 38:0.027624309 39:0.042279412 40:0.020257827 41:0.0055248619 42:0.0092081031 43:0.049632353 44:0.023941068 45:0.014732965 46:0.084558824 47:0.02946593 48:0.018416206 49:0.053308824 50:0.016574586 51:0.0073664825 
7265.460615682069 1:0.33778626 2:0.095602294 3:0.026819923 4:0.053537285 5:0.026819923 6:0.0019157088 7:0.019157088 8:0.089866157 9:0.03256705 10:0.057361377 11:0.013409962 12:0.011494253 13:0.013409962 14:0.019157088 15:0.080305927 16:0.026819923 17:0.011494253 18:0.026819923 19:0.01532567 20:0.043977055 21:0.019157088 22:0.0076628352 23:0.0095602294 24:0.0038314176 25:0.057361377 26:0.011494253 27:0.013409962 28:0.022988506 29:0.076481836 30:0.009578544 31:0.030651341 32:0.04206501 33:0.0019157088 34:0.080305927 35:0.026819923 36:0.059273423 37:0.005747126 38:0.01532567 39:0.043977055 40:0.01532567 41:0.0057471264 42:0.0076628352 43:0.051625239 44:0.019157088 45:0.017241379 46:0.080305927 47:0.01532567 48:0.022988506 49:0.078393881 50:0.028735632 51:0.021072797 
32768 1:0.9714795 2:0.083928571 3:0.030411449 4:0.066071429 5:0.017889088 6:0.0053667263 7:0.025044723 8:0.080357143 9:0.02862254 10:0.041071429 11:0.0035778175 12:0.010733453 13:0.017889088 14:0.0089445438 15:0.082142857 16:0.017889088 17:0.026833631 18:0.025044723 19:0.012522361 20:0.083928571 21:0.030411449 22:0.01431127 23:0.0125 24:0.0071556351 25:0.089285714 26:0.0071556351 27:0.023255814 28:0.037567084 29:0.085714286 30:0.01431127 31:0.030411449 32:0.066071429 33:0.0035778175 34:0.058928571 35:0.0089445438 36:0.0375 37:0.007155635 38:0.021466905 39:0.021428571 40:0.0017889088 41:0.0089445438 42:0.0017889088 43:0.051785714 44:0.017889088 45:0.012522361 46:0.094642857 47:0.025044723 48:0.016100179 49:0.044642857 50:0.017889088 51:0.0071556351 
1827.281131876957 1:0.7903577 2:0.062850031 3:0.013383131 4:0.082762912 5:0.032057267 6:0.027388733 7:0.011826953 8:0.066583696 9:0.014316838 10:0.071561917 11:0.017117958 12:0.021786492 13:0.023031435 14:0.0096483038 15:0.088674549 16:0.019919079 17:0.024276377 18:0.015873016 19:0.02832244 20:0.061294337 21:0.025832555 22:0.013694367 23:0.059427505 24:0.034858388 25:0.053204729 26:0.016806723 27:0.009648304 28:0.018674136 29:0.079962663 30:0.029256147 31:0.027077498 32:0.075606721 33:0.0043572985 34:0.070317362 35:0.016184251 36:0.034536403 37:0.004046063 38:0.011204482 39:0.052271313 40:0.014316838 41:0.0040460629 42:0.01556178 43:0.04293715 44:0.010270775 45:0.010270775 46:0.064094586 47:0.021475257 48:0.018051665 49:0.033914126 50:0.011204482 51:0.0096483038 
393.9538355457065 1:0.38709677 2:0.04 3:0.0046224961 4:0.066153846 5:0.003081664 6:0.063174114 7:0 8:0.076923077 9:0.004622496 10:0.041538462 11:0.001540832 12:0.036979969 13:0.003081664 14:0 15:0.10461539 16:0.029275809 17:0.012326656 18:0.027734977 19:0.035439137 20:0.13692308 21:0.069337442 22:0.030816641 23:0.14769231 24:0.10323575 25:0.004615385 26:0.0030816641 27:0 28:0.001540832 29:0.075384615 30:0.033898305 31:0.036979969 32:0.14923077 33:0.0092449923 34:0.1 35:0.023112481 36:0.004615385 37:0.003081664 38:0 39:0.006153846 40:0.001540832 41:0 42:0.001540832 43:0.041538462 44:0 45:0 46:0.004615385 47:0 48:0.001540832 49:0 50:0 51:0 
32768 1:1 2:0.12405063 3:0.043147208 4:0.050632911 5:0.017766497 6:0 7:0.017766497 8:0.098734177 9:0.045685279 10:0.065822785 11:0.0050761421 12:0.010152284 13:0.027918782 14:0.02284264 15:0.086075949 16:0.020304569 17:0.012690355 18:0.02284264 19:0.030456853 20:0.050632911 21:0.030456853 22:0.012690355 23:0.012658228 24:0.0025380711 25:0.058227848 26:0.010152284 27:0.012690355 28:0.02284264 29:0.10126582 30:0.012690355 31:0.025380711 32:0.058227848 33:0.010152284 34:0.065822785 35:0.02284264 36:0.025316456 37:0.012690355 38:0.007614213 39:0.027848101 40:0.0076142132 41:0.0025380711 42:0.0025380711 43:0.048101266 44:0.02284264 45:0.015228426 46:0.073417722 47:0.02284264 48:0.012690355 49:0.053164557 50:0.015228426 51:0.012690355 
20910.87706505521 1:0.73214286 2:0.1471173 3:0.061752988 4:0.047713718 5:0.011952191 6:0.0039840637 7:0.019920319 8:0.049701789 9:0.021912351 10:0.089463221 11:0.0099601594 12:0.001992032 13:0.03187251 14:0.045816733 15:0.053677932 16:0.021912351 17:0.009960159 18:0.011952191 19:0.009960159 20:0.035785288 21:0.017928287 22:0.0039840637 23:0.021868787 24:0.0039840637 25:0.047713718 26:0.011952191 27:0.005976096 28:0.015936255 29:0.061630219 30:0.005976096 31:0.005976096 32:0.043737575 33:0.0099601594 34:0.035785288 35:0.011952191 36:0.051689861 37:0.007968127 38:0.007968127 39:0.069582505 40:0.013944223 41:0.011952191 42:0.013944223 43:0.033797217 44:0.007968127 45:0.013944223 46:0.085487078 47:0.021912351 48:0.023904382 49:0.12524851 50:0.029880478 51:0.045816733 
5557.549362102119 1:0.30267062 2:0.11309524 3:0.035820895 4:0.080357143 5:0.029850746 6:0.0029850746 7:0.011940299 8:0.056547619 9:0.017910448 10:0.05952381 11:0.020895522 12:0.005970149 13:0.017910448 14:0.014925373 15:0.092261905 16:0.023880597 17:0.029850746 18:0.017910448 19:0.020895522 20:0.083333333 21:0.032835821 22:0.017910448 23:0.014880952 24:0 25:0.06547619 26:0.011940298 27:0.008955224 28:0.032835821 29:0.050595238 30:0.011940299 31:0.008955224 32:0.053571429 33:0.0029850746 34:0.041666667 35:0.0059701493 36:0.053571429 37:0.005970149 38:0.014925373 39:0.053571429 40:0.011940298 41:0.0029850746 42:0.0089552239 43:0.038690476 44:0.011940299 45:0.011940299 46:0.086309524 47:0.014925373 48:0.017910448 49:0.056547619 50:0.020895522 51:0.0089552239 
26509.90335812913 1:0.73443983 2:0.11642412 3:0.039583333 4:0.066528067 5:0.025 6:0.0041666667 7:0.010416667 8:0.11850312 9:0.0375 10:0.033264033 11:0.0041666667 12:0.010416667 13:0.010416667 14:0.0083333333 15:0.095634096 16:0.035416667 17:0.020833333 18:0.03125 19:0.008333333 20:0.097713098 21:0.047916667 22:0.029166667 23:0.018711019 24:0.00625 25:0.054054054 26:0.010416667 27:0.022916667 28:0.014583333 29:0.0997921 30:0.016666667 31:0.035416667 32:0.03950104 33:0.0041666667 34:0.072765073 35:0.016666667 36:0.035343035 37:0.0125 38:0.008333333 39:0.024948025 40:0.00625 41:0.00625 42:0.00625 43:0.06029106 44:0.016666667 45:0.022916667 46:0.037422037 47:0.022916667 48:0.004166667 49:0.029106029 50:0.004166667 51:0.0083333333 
19749.91812569402 1:0.64677804 2:0.052631579 3:0.011990408 4:0.04784689 5:0.023980815 6:0.0023980815 7:0.009592326 8:0.10047847 9:0.045563549 10:0.035885167 11:0.0047961631 12:0.014388489 13:0.014388489 14:0.0023980815 15:0.090909091 16:0.021582734 17:0.016786571 18:0.035971223 19:0.016786571 20:0.11722488 21:0.043165468 22:0.050359712 23:0.031100479 24:0.0095923261 25:0.064593301 26:0.0095923261 27:0.019184652 28:0.023980815 29:0.076555024 30:0.014388489 31:0.03117506 32:0.06937799 33:0.011990408 34:0.083732057 35:0.019184652 36:0.050239234 37:0.019184652 38:0.016786571 39:0.019138756 40:0.0071942446 41:0.0071942446 42:0 43:0.066985646 44:0.009592326 45:0.021582734 46:0.064593301 47:0.004796163 48:0.011990408 49:0.028708134 50:0.009592326 51:0.0047961631 
32768 1:0.96467722 2:0.042682927 3:0.0097680098 4:0.046341463 5:0.008547009 6:0.0036630037 7:0.008547009 8:0.084146341 9:0.015873016 10:0.030487805 11:0.0012210012 12:0.003663004 13:0.012210012 14:0.013431013 15:0.073170732 16:0.013431013 17:0.014652015 18:0.035409035 19:0.00976801 20:0.11219512 21:0.031746032 22:0.031746032 23:0.030487805 24:0.0073260073 25:0.074390244 26:0.0036630037 27:0.028083028 28:0.034188034 29:0.067073171 30:0.018315018 31:0.025641026 32:0.070731707 33:0.0085470085 34:0.10243902 35:0.030525031 36:0.053658537 37:0.00976801 38:0.021978022 39:0.019512195 40:0.0061050061 41:0.0036630037 42:0.0048840049 43:0.062195122 44:0.015873016 45:0.014652015 46:0.076829268 47:0.018315018 48:0.012210012 49:0.053658537 50:0.008547009 51:0.01953602 
32768 1:0.72558139 2:0.058275058 3:0.021028037 4:0.048951049 5:0.007009346 6:0.0070093458 7:0.018691589 8:0.093240093 9:0.030373832 10:0.044289044 11:0.0070093458 12:0.004672897 13:0.01635514 14:0.01635514 15:0.083916084 16:0.01635514 17:0.018691589 18:0.037383178 19:0.011682243 20:0.097902098 21:0.030373832 22:0.035046729 23:0.025641026 24:0.0093457944 25:0.076923077 26:0.0023364486 27:0.023364486 28:0.039719626 29:0.06993007 30:0.014018692 31:0.023364486 32:0.079254079 33:0.0046728972 34:0.055944056 35:0.0093457944 36:0.046620047 37:0.01635514 38:0.007009346 39:0.032634033 40:0.011682243 41:0.0046728972 42:0.011682243 43:0.058275058 44:0.014018692 45:0.014018692 46:0.076923077 47:0.021028037 48:0.014018692 49:0.051282051 50:0.014018692 51:0.0093457944 
7526.893299273116 1:0.37344398 2:0.11666667 3:0.041841004 4:0.054166667 5:0.020920502 6:0.0041841004 7:0.012552301 8:0.070833333 9:0.029288703 10:0.066666667 11:0.016736402 12:0.0041841 13:0.029288703 14:0.016736402 15:0.0625 16:0.020920502 17:0.012552301 18:0.016736402 19:0.012552301 20:0.041666667 21:0.020920502 22:0.0041841004 23:0.025 24:0.012552301 25:0.066666667 26:0.0041841004 27:0.020920502 28:0.025104603 29:0.075 30:0.008368201 31:0.012552301 32:0.045833333 33:0.0083682008 34:0.0625 35:0.012552301 36:0.066666667 37:0.016736402 38:0.025104603 39:0.054166667 40:0.0083682008 41:0.012552301 42:0.016736402 43:0.054166667 44:0.012552301 45:0.012552301 46:0.091666667 47:0.020920502 48:0.037656904 49:0.045833333 50:0.012552301 51:0 
9179.195448946775 1:0.95121951 2:0.081521739 3:0.027247956 4:0.046195652 5:0.021798365 6:0.0027247956 7:0.008174387 8:0.059782609 9:0.013623978 10:0.092391304 11:0.013623978 12:0.027247956 13:0.027247956 14:0.021798365 15:0.086956522 16:0.019073569 17:0.010899183 18:0.024523161 19:0.032697548 20:0.070652174 21:0.032697548 22:0.013623978 23:0.0081521739 24:0.0027247956 25:0.089673913 26:0.0054495913 27:0.029972752 28:0.021798365 29:0.057065217 30:0.002724796 31:0.010899183 32:0.043478261 33:0.0027247956 34:0.019021739 35:0 36:0.035326087 37:0.008174387 38:0.005449591 39:0.054347826 40:0.010899183 41:0.0054495913 42:0.021798365 43:0.092391304 44:0.029972752 45:0.040871935 46:0.067934783 47:0.032697548 48:0.010899183 49:0.095108696 50:0.013623978 51:0.029972752 
27079.48240992178 1:0.76774193 2:0.10344828 3:0.036717063 4:0.025862069 5:0.010799136 6:0.0043196544 7:0.002159827 8:0.073275862 9:0.036717063 10:0.094827586 11:0.017278618 12:0.012958963 13:0.034557235 14:0.030237581 15:0.047413793 16:0.010799136 17:0.008639309 18:0.012958963 19:0.01511879 20:0.045258621 21:0.01511879 22:0.012958963 23:0.0086206897 24:0 25:0.058189655 26:0.0086393089 27:0.010799136 28:0.019438445 29:0.086206897 30:0.008639309 31:0.017278618 32:0.038793103 33:0 34:0.036637931 35:0.0043196544 36:0.047413793 37:0.006479482 38:0.008639309 39:0.0625 40:0.0043196544 41:0.012958963 42:0.025917927 43:0.047413793 44:0.01511879 45:0.019438445 46:0.090517241 47:0.032397408 48:0.01511879 49:0.13362069 50:0.028077754 51:0.060475162 
6399.071369049529 1:0.49608611 2:0.031341822 3:0.0029411765 4:0.042115573 5:0.005882353 6:0.01372549 7:0.009803922 8:0.10871694 9:0.023529412 10:0.014691479 11:0.0029411765 12:0.001960784 13:0.006862745 14:0.0029411765 15:0.059745348 16:0.008823529 17:0.007843137 18:0.040196078 19:0.002941176 20:0.068560235 21:0.014705882 22:0.015686274 23:0.083251714 24:0.042156863 25:0.080313418 26:0.0078431373 27:0.019607843 28:0.045098039 29:0.088148874 30:0.018627451 31:0.050980392 32:0.14593536 33:0.043137255 34:0.10088149 35:0.016666667 36:0.032321254 37:0.006862745 38:0.016666667 39:0.017629775 40:0.0058823529 41:0.0039215686 42:0.0019607843 43:0.035259549 44:0.004901961 45:0.009803922 46:0.074436827 47:0.008823529 48:0.007843137 49:0.016650343 50:0.005882353 51:0.0019607843 
32768 1:1 2:0.091286307 3:0.027027027 4:0.053941909 5:0.020790021 6:0.0041580042 7:0.018711019 8:0.062240664 9:0.01039501 10:0.085062241 11:0.022869023 12:0.020790021 13:0.014553015 14:0.027027027 15:0.070539419 16:0.018711019 17:0.014553015 18:0.012474012 19:0.024948025 20:0.037344398 21:0.014553015 22:0.0041580042 23:0.0082987552 24:0 25:0.078838174 26:0.014553015 27:0.016632017 28:0.024948025 29:0.056016598 30:0.012474012 31:0.01039501 32:0.041493776 33:0.0020790021 34:0.043568465 35:0.0041580042 36:0.039419087 37:0.002079002 38:0.004158004 39:0.074688797 40:0.016632017 41:0.016632017 42:0.0083160083 43:0.062240664 44:0.018711019 45:0.024948025 46:0.066390041 47:0.016632017 48:0.020790021 49:0.12863071 50:0.022869023 51:0.056133056 
32768 1:1 2:0.13745704 3:0.046471601 4:0.049828179 5:0.030981067 6:0 7:0.015490534 8:0.082474227 9:0.034423408 10:0.065292096 11:0.012048193 12:0.012048193 13:0.022375215 14:0.018932874 15:0.079037801 16:0.039586919 17:0.003442341 18:0.018932874 19:0.017211704 20:0.032646048 21:0.010327022 22:0.0051635112 23:0.0085910653 24:0 25:0.065292096 26:0.010327022 27:0.012048193 28:0.017211704 29:0.077319588 30:0.013769363 31:0.017211704 32:0.04467354 33:0 34:0.036082474 35:0.0051635112 36:0.046391753 37:0.005163511 38:0.012048193 39:0.041237113 40:0.0068846816 41:0.0051635112 42:0.012048193 43:0.058419244 44:0.022375215 45:0.020654045 46:0.077319588 47:0.020654045 48:0.015490534 49:0.097938144 50:0.025817556 51:0.030981067 
2473.310068438704 1:0.32992327 2:0.033333333 3:0 4:0.038461538 5:0.01285347 6:0 7:0.015424165 8:0.092307692 9:0.025706941 10:0.035897436 11:0.010282776 12:0.007712082 13:0.007712082 14:0.010282776 15:0.058974359 16:0.007712082 17:0.017994859 18:0.025706941 19:0.007712082 20:0.048717949 21:0.01285347 22:0.0077120823 23:0.0076923077 24:0 25:0.066666667 26:0.0077120823 27:0.020565553 28:0.023136247 29:0.074358974 30:0.010282776 31:0.028277635 32:0.053846154 33:0.0025706941 34:0.092307692 35:0.028277635 36:0.074358974 37:0.007712082 38:0.017994859 39:0.035897436 40:0.0051413882 41:0.015424165 42:0.0025706941 43:0.041025641 44:0.007712082 45:0.017994859 46:0.1025641 47:0.020565553 48:0.035989717 49:0.14358974 50:0.051413882 51:0.082262211 
32768 1:0.94812165 2:0.041218638 3:0.0089766607 4:0.05734767 5:0.016157989 6:0.0089766607 7:0.012567325 8:0.086021505 9:0.032315978 10:0.035842294 11:0.0017953321 12:0.007181329 13:0.019748654 14:0.0071813285 15:0.084229391 16:0.010771993 17:0.021543986 18:0.037701975 19:0.014362657 20:0.11111111 21:0.030520646 22:0.037701975 23:0.034050179 24:0.012567325 25:0.075268817 26:0.0035906643 27:0.026929982 28:0.034111311 29:0.082437276 30:0.021543986 31:0.030520646 32:0.075268817 33:0.0089766607 34:0.109319 35:0.032315979 36:0.035842294 37:0.016157989 38:0.010771993 39:0.012544803 40:0.0035906643 41:0.0017953321 42:0.0035906643 43:0.0609319 44:0.023339318 45:0.008976661 46:0.073476703 47:0.014362657 48:0.010771993 49:0.025089606 50:0.008976661 51:0.0017953321 
14276.23671703715 1:0.73504273 2:0.011412268 3:0.0014285714 4:0.051355207 5:0.01 6:0.0057142857 7:0.012857143 8:0.064194009 9:0.008571429 10:0.019971469 11:0 12:0.005714286 13:0.011428571 14:0.0028571429 15:0.078459344 16:0.004285714 17:0.03 18:0.034285714 19:0.01 20:0.15691869 21:0.034285714 22:0.057142857 23:0.031383738 24:0.01 25:0.11126962 26:0.0014285714 27:0.037142857 28:0.061428571 29:0.05278174 30:0.014285714 31:0.024285714 32:0.10128388 33:0.0071428571 34:0.10984308 35:0.034285714 36:0.031383738 37:0.012857143 38:0.012857143 39:0.004279601 40:0.0014285714 41:0.0014285714 42:0 43:0.068473609 44:0.017142857 45:0.014285714 46:0.089871612 47:0.007142857 48:0.017142857 49:0.017118402 50:0.004285714 51:0 
32768 1:0.8650519 2:0.038194444 3:0.0069686411 4:0.079861111 5:0.034843206 6:0.0069686411 7:0.027874564 8:0.052083333 9:0.013937282 10:0.065972222 11:0.0069686411 12:0.006968641 13:0.024390244 14:0.027874565 15:0.10069444 16:0.017421603 17:0.027874564 18:0.020905923 19:0.034843206 20:0.055555556 21:0.027874564 22:0.017421603 23:0.017361111 24:0.0069686411 25:0.072916667 26:0.010452962 27:0.013937282 28:0.031358885 29:0.065972222 30:0.031358885 31:0.017421603 32:0.048611111 33:0.0069686411 34:0.072916667 35:0.017421603 36:0.052083333 37:0.010452962 38:0.027874564 39:0.03125 40:0.010452962 41:0.0034843206 42:0.010452962 43:0.0625 44:0.020905923 45:0.024390244 46:0.10069444 47:0.024390244 48:0.027874564 49:0.083333333 50:0.017421603 51:0.027874565 
32768 1:0.97861635 2:0.071788413 3:0.020176545 4:0.054156171 5:0.01261034 6:0.0063051702 7:0.022698613 8:0.060453401 9:0.017654477 10:0.093198992 11:0.037831021 12:0.008827238 13:0.021437579 14:0.025220681 15:0.061712846 16:0.017654477 17:0.01261034 18:0.020176545 19:0.011349306 20:0.040302267 21:0.01261034 22:0.010088272 23:0.0075566751 24:0 25:0.089420655 26:0.017654477 27:0.020176545 28:0.029003783 29:0.06675063 30:0.013871375 31:0.011349306 32:0.042821159 33:0 34:0.040302267 35:0.0088272383 36:0.049118388 37:0.008827238 38:0.020176545 39:0.079345088 40:0.018915511 41:0.0075662043 42:0.035308953 43:0.061712846 44:0.020176545 45:0.029003783 46:0.091939547 47:0.027742749 48:0.026481715 49:0.089420655 50:0.020176545 51:0.031525851 
11708.39849733152 1:0.72527473 2:0.083700441 3:0.022075055 4:0.037444934 5:0.013245033 6:0.004415011 7:0.008830022 8:0.072687225 9:0.035320088 10:0.077092511 11:0.013245033 12:0.030905077 13:0.015452539 14:0.017660044 15:0.074889868 16:0.017660044 17:0.008830022 18:0.028697572 19:0.01986755 20:0.072687225 21:0.030905077 22:0.017660044 23:0.011013216 24:0.0022075055 25:0.079295154 26:0.0066225166 27:0.024282561 28:0.022075055 29:0.077092511 30:0.013245033 31:0.011037528 32:0.033039648 33:0 34:0.055066079 35:0.011037528 36:0.044052863 37:0.017660044 38:0.013245033 39:0.037444934 40:0.0066225166 41:0.0022075055 42:0.017660044 43:0.094713656 44:0.017660044 45:0.033112583 46:0.068281938 47:0.022075055 48:0.015452539 49:0.081497797 50:0.017660044 51:0.028697572 
30.67422097823304 1:0.32974138 2:0.09287257 3:0.025974026 4:0.051835853 5:0.017316017 6:0.0043290043 7:0.019480519 8:0.082073434 9:0.023809524 10:0.066954644 11:0.01948052 12:0.012987013 13:0.015151515 14:0.01948052 15:0.075593952 16:0.021645022 17:0.015151515 18:0.025974026 19:0.012987013 20:0.05399568 21:0.017316017 22:0.023809524 23:0.0086393089 24:0 25:0.073434125 26:0.010822511 27:0.017316017 28:0.021645022 29:0.066954644 30:0.008658009 31:0.010822511 32:0.043196544 33:0.0021645022 34:0.056155508 35:0.012987013 36:0.051835853 37:0.019480519 38:0.008658009 39:0.060475162 40:0.015151515 41:0.0086580087 42:0.017316017 43:0.060475162 44:0.021645022 45:0.025974026 46:0.071274298 47:0.012987013 48:0.019480519 49:0.084233261 50:0.025974026 51:0.028138528 
6530.274208065794 1:0.72148541 2:0.11170213 3:0.04 4:0.066489362 5:0.04 6:0 7:0.016 8:0.093085106 9:0.04 10:0.074468085 11:0.013333333 12:0.010666667 13:0.026666667 14:0.024 15:0.087765957 16:0.021333333 17:0.010666667 18:0.037333333 19:0.018666667 20:0.034574468 21:0.018666667 22:0.0053333333 23:0.0026595745 24:0 25:0.045212766 26:0.0053333333 27:0.008 28:0.013333333 29:0.10638298 30:0.013333333 31:0.021333333 32:0.042553191 33:0 34:0.07712766 35:0.013333333 36:0.026595745 37:0.005333333 38:0.010666667 39:0.039893617 40:0.013333333 41:0.013333333 42:0.008 43:0.029255319 44:0.008 45:0.008 46:0.079787234 47:0.029333333 48:0.008 49:0.082446809 50:0.029333333 51:0.037333333 
24706.35310299103 1:0.65951743 2:0.099462366 3:0.04851752 4:0.053763441 5:0.013477089 6:0.0026954178 7:0.018867925 8:0.069892473 9:0.026954178 10:0.059139785 11:0.010781671 12:0.010781671 13:0.02425876 14:0.013477089 15:0.059139785 16:0.02425876 17:0.013477089 18:0.018867925 19:0.002695418 20:0.061827957 21:0.021563342 22:0.016172507 23:0.016129032 24:0.0026954178 25:0.080645161 26:0.013477089 27:0.016172507 28:0.026954178 29:0.067204301 30:0.018867925 31:0.016172507 32:0.048387097 33:0.0053908356 34:0.056451613 35:0.013477089 36:0.053763441 37:0.010781671 38:0.013477089 39:0.059139785 40:0.013477089 41:0.010781671 42:0.02425876 43:0.053763441 44:0.008086253 45:0.026954178 46:0.083333333 47:0.021563342 48:0.018867925 49:0.077956989 50:0.018867925 51:0.02425876 
32768 1:0.67689531 2:0.119349 3:0.047101449 4:0.05244123 5:0.019927536 6:0.0072463768 7:0.019927536 8:0.070524412 9:0.023550725 10:0.081374322 11:0.023550725 12:0.018115942 13:0.02173913 14:0.018115942 15:0.063291139 16:0.014492754 17:0.009057971 18:0.018115942 19:0.02173913 20:0.034358047 21:0.016304348 22:0.0036231884 23:0.014466546 24:0.0036231884 25:0.065099458 26:0.0072463768 27:0.010869565 28:0.019927536 29:0.08318264 30:0.010869565 31:0.010869565 32:0.032549729 33:0 34:0.034358047 35:0 36:0.057866184 37:0.014492754 38:0.019927536 39:0.057866184 40:0.016304348 41:0.009057971 42:0.014492754 43:0.059674503 44:0.016304348 45:0.019927536 46:0.088607595 47:0.030797101 48:0.023550725 49:0.084990958 50:0.027173913 51:0.028985507 
32768 1:0.98461539 2:0.11986301 3:0.044596913 4:0.056506849 5:0.02915952 6:0 7:0.018867925 8:0.10958904 9:0.04974271 10:0.061643836 11:0.0068610635 12:0.006861063 13:0.027444254 14:0.02058319 15:0.087328767 16:0.027444254 17:0.015437393 18:0.032590051 19:0.012006861 20:0.034246575 21:0.018867925 22:0.0085763293 23:0.0017123288 24:0 25:0.059931507 26:0.010291595 27:0.013722127 28:0.022298456 29:0.099315068 30:0.013722127 31:0.02915952 32:0.049657534 33:0.0017152659 34:0.051369863 35:0.010291595 36:0.039383562 37:0.005145798 38:0.010291595 39:0.039383562 40:0.0085763293 41:0.012006861 42:0.012006861 43:0.042808219 44:0.015437393 45:0.012006861 46:0.078767123 47:0.025728988 48:0.015437393 49:0.068493151 50:0.018867925 51:0.022298456 
5195.156230001848 1:0.31218274 2:0.050890585 3:0.012755102 4:0.050890585 5:0.012755102 6:0.0025510204 7:0.015306122 8:0.06870229 9:0.017857143 10:0.050890585 11:0.010204082 12:0.015306122 13:0.015306122 14:0.010204082 15:0.086513995 16:0.012755102 17:0.022959184 18:0.022959184 19:0.028061224 20:0.12722646 21:0.040816327 22:0.045918367 23:0.0050890585 24:0 25:0.094147583 26:0.015306122 27:0.022959184 28:0.043367347 29:0.053435115 30:0.010204082 31:0.015306122 32:0.073791349 33:0 34:0.10178117 35:0.035714286 36:0.030534351 37:0.007653061 38:0.015306122 39:0.030534351 40:0.010204082 41:0.010204082 42:0.0051020408 43:0.063613232 44:0.015306122 45:0.025510204 46:0.083969466 47:0.012755102 48:0.015306122 49:0.027989822 50:0.007653061 51:0 
32768 1:0.88016529 2:0.062111801 3:0.01659751 4:0.043478261 5:0.012448133 6:0.012448133 7:0.012448133 8:0.080745342 9:0.020746888 10:0.064182195 11:0.0062240664 12:0.018672199 13:0.018672199 14:0.020746888 15:0.064182195 16:0.014522822 17:0.010373444 18:0.024896266 19:0.014522822 20:0.057971014 21:0.01659751 22:0.01659751 23:0.031055901 24:0.0041493776 25:0.060041408 26:0.0020746888 27:0.018672199 28:0.024896266 29:0.095238095 30:0.012448133 31:0.031120332 32:0.053830228 33:0.010373444 34:0.093167702 35:0.024896266 36:0.051759834 37:0.008298755 38:0.018672199 39:0.031055901 40:0.0062240664 41:0.0082987552 42:0.010373444 43:0.057971014 44:0.024896266 45:0.010373444 46:0.086956522 47:0.020746888 48:0.020746888 49:0.066252588 50:0.024896266 51:0.01659751 
32768 1:0.94636015 2:0.13422819 3:0.055662188 4:0.046021093 5:0.017274472 6:0.0019193858 7:0.015355086 8:0.10354746 9:0.03646833 10:0.053691275 11:0.014395394 12:0.011516315 13:0.018234165 14:0.009596929 15:0.069990412 16:0.023992322 17:0.005758157 18:0.02975048 19:0.010556622 20:0.059443912 21:0.023992322 22:0.021113244 23:0.0076701822 24:0 25:0.06232023 26:0.009596929 27:0.012476008 28:0.028790787 29:0.095877277 30:0.015355086 31:0.020153551 32:0.038350911 33:0.0028790787 34:0.056567593 35:0.0086372361 36:0.052732502 37:0.017274472 38:0.013435701 39:0.038350911 40:0.0086372361 41:0.0076775432 42:0.012476008 43:0.055608821 44:0.018234165 45:0.018234165 46:0.075743049 47:0.027831094 48:0.016314779 49:0.049856184 50:0.014395393 51:0.013435701 
24772.28872948914 1:0.68786127 2:0.061776062 3:0.01934236 4:0.05019305 5:0.017408124 6:0.003868472 7:0.017408124 8:0.075289575 9:0.025145068 10:0.055984556 11:0.0058027079 12:0.00967118 13:0.025145068 14:0.013539652 15:0.067567568 16:0.011605416 17:0.013539652 18:0.027079304 19:0.015473888 20:0.042471042 21:0.015473888 22:0.003868472 23:0.023166023 24:0.003868472 25:0.088803089 26:0.011605416 27:0.025145068 28:0.030947776 29:0.077220077 30:0.011605416 31:0.025145068 32:0.067567568 33:0.0077369439 34:0.05984556 35:0.0096711799 36:0.057915058 37:0.015473888 38:0.021276596 39:0.036679537 40:0.011605416 41:0.0096711799 42:0.0096711799 43:0.061776062 44:0.01934236 45:0.025145068 46:0.1023166 47:0.021276596 48:0.017408124 49:0.071428571 50:0.025145068 51:0.025145068 
28215.32331578162 1:0.98809524 2:0.053677932 3:0.017928287 4:0.053677932 5:0.029880478 6:0 7:0.015936255 8:0.045725646 9:0.017928287 10:0.083499006 11:0.017928287 12:0.003984064 13:0.047808765 14:0.013944223 15:0.079522863 16:0.009960159 17:0.015936255 18:0.023904382 19:0.029880478 20:0.043737575 21:0.015936255 22:0.0099601594 23:0.0059642147 24:0 25:0.055666004 26:0.0079681275 27:0.009960159 28:0.019920319 29:0.059642147 30:0.013944223 31:0.007968127 32:0.045725646 33:0.0039840637 34:0.085487078 35:0.03187251 36:0.089463221 37:0.007968127 38:0.049800797 39:0.043737575 40:0.0079681275 41:0.0059760956 42:0.023904383 43:0.043737575 44:0.011952191 45:0.009960159 46:0.14115308 47:0.021912351 48:0.059760956 49:0.069582505 50:0.023904382 51:0.017928287 
32768 1:0.97104677 2:0.066889632 3:0.016741071 4:0.056856187 5:0.017857143 6:0.0055803571 7:0.025669643 8:0.090301003 9:0.027901786 10:0.062430323 11:0.010044643 12:0.014508929 13:0.016741071 14:0.021205357 15:0.090301003 16:0.014508929 17:0.018973214 18:0.033482143 19:0.0234375 20:0.054626533 21:0.022321429 22:0.013392857 23:0.013377926 24:0.0022321429 25:0.081382386 26:0.015625 27:0.0234375 28:0.025669643 29:0.070234114 30:0.0078125 31:0.027901786 32:0.061315496 33:0.0022321429 34:0.053511706 35:0.011160714 36:0.045707915 37:0.008928571 38:0.018973214 39:0.049052397 40:0.013392857 41:0.0078125 42:0.011160714 43:0.066889632 44:0.0234375 45:0.021205357 46:0.073578595 47:0.014508929 48:0.021205357 49:0.063545151 50:0.012276786 51:0.014508929 
32768 1:0.97169374 2:0.02553389 3:0.00510915 4:0.056174559 5:0.021365536 6:0.010682768 7:0.006967023 8:0.076601671 9:0.018114259 10:0.026462396 11:0.0023223409 12:0.007431491 13:0.013005109 14:0.0037157455 15:0.086350975 16:0.007431491 17:0.024616814 18:0.043660009 19:0.010682768 20:0.12163417 21:0.031583837 22:0.041337668 23:0.04178273 24:0.0083604273 25:0.081708449 26:0.0027868091 27:0.032512773 28:0.037621923 29:0.064995357 30:0.023223409 31:0.021830005 32:0.085886722 33:0.0088248955 34:0.10352832 35:0.032048305 36:0.04549675 37:0.016256386 38:0.019507664 39:0.008356546 40:0.0013934046 41:0.0027868091 42:0.0023223409 43:0.06731662 44:0.016256386 45:0.014398514 46:0.077994429 47:0.01532745 48:0.011147236 49:0.030176416 50:0.007895959 51:0.0083604273 
874.1413518068855 1:0.76470588 2:0.0875 3:0.030411449 4:0.048214286 5:0.012522361 6:0.0053667263 7:0.010733453 8:0.1 9:0.033989267 10:0.051785714 11:0.0053667263 12:0.012522361 13:0.01431127 14:0.019677996 15:0.082142857 16:0.017889088 17:0.023255814 18:0.030411449 19:0.010733453 20:0.057142857 21:0.021466905 22:0.012522361 23:0.023214286 24:0.0053667263 25:0.0625 26:0.0071556351 27:0.012522361 28:0.032200358 29:0.0875 30:0.01431127 31:0.025044723 32:0.060714286 33:0.0017889088 34:0.058928571 35:0.0071556351 36:0.053571429 37:0.016100179 38:0.016100179 39:0.030357143 40:0.0017889088 41:0.012522361 42:0.0071556351 43:0.058928571 44:0.021466905 45:0.019677996 46:0.078571429 47:0.026833631 48:0.008944544 49:0.058928571 50:0.016100179 51:0.016100179 
5301.188529205992 1:0.81386861 2:0.10054845 3:0.034798535 4:0.065813528 5:0.023809524 6:0.0054945055 7:0.018315018 8:0.056672761 9:0.023809524 10:0.091407678 11:0.012820513 12:0.025641026 13:0.014652015 14:0.038461539 15:0.096892139 16:0.027472527 17:0.018315018 18:0.018315018 19:0.032967033 20:0.0511883 21:0.031135531 22:0.0073260073 23:0.0091407678 24:0.0018315018 25:0.063985375 26:0.02014652 27:0.014652015 28:0.018315018 29:0.056672761 30:0.010989011 31:0.010989011 32:0.034734918 33:0 34:0.049360146 35:0.0073260073 36:0.038391225 37:0.007326007 38:0.010989011 39:0.058500914 40:0.016483516 41:0.0036630037 42:0.02014652 43:0.071297989 44:0.027472527 45:0.025641026 46:0.063985375 47:0.012820513 48:0.016483516 49:0.091407678 50:0.02014652 51:0.031135531 
536.5781349299054 1:0.8504902 2:0.046683047 3:0.014778325 4:0.036855037 5:0.009852217 6:0.0024630542 7:0.012315271 8:0.093366093 9:0.032019704 10:0.049140049 11:0.012315271 12:0.017241379 13:0.007389163 14:0.012315271 15:0.073710074 16:0.014778325 17:0.012315271 18:0.039408867 19:0.007389163 20:0.081081081 21:0.024630542 22:0.022167488 23:0.014742015 24:0 25:0.098280098 26:0.0098522167 27:0.034482759 28:0.036945813 29:0.068796069 30:0.012315271 31:0.019704433 32:0.076167076 33:0.0024630542 34:0.066339066 35:0.012315271 36:0.044226044 37:0.004926108 38:0.019704433 39:0.039312039 40:0.0073891626 41:0.012315271 42:0.012315271 43:0.071253071 44:0.017241379 45:0.024630542 46:0.081081081 47:0.014778325 48:0.014778325 49:0.058968059 50:0.017241379 51:0.019704434 
746.2052376543102 1:0.29779412 2:0.070110701 3:0.018518519 4:0.022140221 5:0.003703704 6:0 7:0.011111111 8:0.073800738 9:0.018518519 10:0.05904059 11:0.014814815 12:0.011111111 13:0.018518519 14:0.014814815 15:0.05904059 16:0.011111111 17:0.007407407 18:0.022222222 19:0.018518519 20:0.081180812 21:0.02962963 22:0.025925926 23:0.0073800738 24:0 25:0.10701107 26:0.011111111 27:0.025925926 28:0.037037037 29:0.044280443 30:0.011111111 31:0.007407407 32:0.070110701 33:0 34:0.081180812 35:0.014814815 36:0.044280443 37:0.011111111 38:0.014814815 39:0.051660517 40:0.0037037037 41:0.0037037037 42:0.022222222 43:0.077490775 44:0.014814815 45:0.022222222 46:0.081180812 47:0.003703704 48:0.022222222 49:0.070110701 50:0.011111111 51:0.018518519 
32768 1:0.8959276 2:0.14285714 3:0.056818182 4:0.034013605 5:0.013636364 6:0 7:0.009090909 8:0.095238095 9:0.038636364 10:0.077097506 11:0.011363636 12:0.009090909 13:0.027272727 14:0.029545454 15:0.065759637 16:0.020454545 17:0.004545455 18:0.027272727 19:0.013636364 20:0.065759637 21:0.027272727 22:0.018181818 23:0.0045351474 24:0 25:0.052154195 26:0.0045454545 27:0.013636364 28:0.018181818 29:0.10430839 30:0.011363636 31:0.025 32:0.045351474 33:0.0022727273 34:0.040816327 35:0.0022727273 36:0.029478458 37:0.002272727 38:0.011363636 39:0.038548753 40:0.0022727273 41:0.013636364 42:0.0045454545 43:0.040816327 44:0.009090909 45:0.020454545 46:0.079365079 47:0.036363636 48:0.018181818 49:0.083900227 50:0.022727273 51:0.029545454 
9865.201665040484 1:0.95867769 2:0.1519337 3:0.072022161 4:0.055248619 5:0.027700831 6:0 7:0.016620499 8:0.071823204 9:0.024930748 10:0.074585635 11:0.019390582 12:0.008310249 13:0.027700831 14:0.019390582 15:0.077348066 16:0.030470914 17:0.008310249 18:0.022160665 19:0.016620499 20:0.066298343 21:0.027700831 22:0.024930748 23:0 24:0 25:0.066298343 26:0.011080332 27:0.022160665 28:0.008310249 29:0.052486188 30:0.011080332 31:0.011080332 32:0.03038674 33:0 34:0.035911602 35:0.0055401662 36:0.041436464 37:0.011080332 38:0.005540166 39:0.069060773 40:0.011080332 41:0.013850415 42:0.016620499 43:0.05801105 44:0.013850416 45:0.024930748 46:0.055248619 47:0.011080332 48:0.013850416 49:0.093922652 50:0.013850416 51:0.033240997 
23160.54380411291 1:0.65397924 2:0.10763889 3:0.027874565 4:0.072916667 5:0.038327526 6:0.0034843206 7:0.017421603 8:0.069444444 9:0.020905923 10:0.048611111 11:0.0069686411 12:0.006968641 13:0.024390244 14:0.010452962 15:0.10069444 16:0.038327526 17:0.010452962 18:0.024390244 19:0.027874564 20:0.097222222 21:0.031358885 22:0.038327526 23:0.013888889 24:0.0034843206 25:0.069444444 26:0.010452962 27:0.020905923 28:0.020905923 29:0.069444444 30:0.013937282 31:0.006968641 32:0.052083333 33:0 34:0.041666667 35:0.013937282 36:0.045138889 37:0.010452962 38:0.024390244 39:0.024305556 40:0.010452962 41:0.0034843206 42:0 43:0.055555556 44:0.020905923 45:0.010452962 46:0.083333333 47:0.027874564 48:0.013937282 49:0.048611111 50:0.013937282 51:0.010452962 
20376.87709466575 1:0.44488978 2:0.13052209 3:0.046277666 4:0.062248996 5:0.020120724 6:0.0040241449 7:0.020120724 8:0.074297189 9:0.028169014 10:0.046184739 11:0.0080482897 12:0.00804829 13:0.016096579 14:0.012072435 15:0.074297189 16:0.024144869 17:0.014084507 18:0.026156942 19:0.010060362 20:0.068273092 21:0.022132797 22:0.018108652 23:0.016064257 24:0.0040241449 25:0.078313253 26:0.0040241449 27:0.014084507 28:0.038229376 29:0.080321285 30:0.010060362 31:0.010060362 32:0.048192771 33:0 34:0.036144578 35:0.0020120724 36:0.040160643 37:0.010060362 38:0.00804829 39:0.02811245 40:0.0080482897 41:0.0060362173 42:0.0020120724 43:0.058232932 44:0.020120724 45:0.014084507 46:0.078313253 47:0.028169014 48:0.018108652 49:0.080321285 50:0.016096579 51:0.030181086 
4031.460596598015 1:0.96242775 2:0.12011577 3:0.047826087 4:0.056439942 5:0.01884058 6:0.0028985507 7:0.027536232 8:0.068017366 9:0.037681159 10:0.10564399 11:0.033333333 12:0.008695652 13:0.027536232 14:0.036231884 15:0.05788712 16:0.01884058 17:0.010144928 18:0.015942029 19:0.013043478 20:0.026049204 21:0.010144928 22:0.0028985507 23:0.004341534 24:0 25:0.07959479 26:0.024637681 27:0.02173913 28:0.023188406 29:0.082489146 30:0.014492754 31:0.01884058 32:0.037626628 33:0.0014492754 34:0.046309696 35:0.011594203 36:0.02894356 37:0.004347826 38:0.005797101 39:0.089725036 40:0.02173913 41:0.013043478 42:0.030434783 43:0.049204052 44:0.017391304 45:0.02173913 46:0.075253256 47:0.023188406 48:0.013043478 49:0.0723589 50:0.01884058 51:0.015942029 
802.4986835957253 1:0.66969147 2:0.15636364 3:0.072859745 4:0.025454545 5:0.007285974 6:0 7:0.010928962 8:0.078181818 9:0.023679417 10:0.090909091 11:0.018214936 12:0.023679417 13:0.030965392 14:0.016393443 15:0.045454545 16:0.014571949 17:0.001821494 18:0.012750455 19:0.016393443 20:0.030909091 21:0.012750455 22:0.0054644809 23:0.0054545455 24:0 25:0.061818182 26:0.021857924 27:0.003642987 28:0.018214936 29:0.074545455 30:0.005464481 31:0.010928962 32:0.050909091 33:0.0018214936 34:0.027272727 35:0.0018214936 36:0.065454545 37:0.009107468 38:0.023679417 39:0.074545455 40:0.0072859745 41:0.018214936 42:0.021857924 43:0.036363636 44:0.009107468 45:0.018214936 46:0.10545454 47:0.034608379 48:0.032786885 49:0.070909091 50:0.032786885 51:0.025500911 
22410.75763410323 1:0.69824561 2:0.13028169 3:0.053003534 4:0.049295775 5:0.028268551 6:0 7:0.017667845 8:0.095070423 9:0.049469965 10:0.066901408 11:0.010600707 12:0.017667845 13:0.028268551 14:0.010600707 15:0.080985915 16:0.024734982 17:0.010600707 18:0.035335689 19:0.010600707 20:0.035211268 21:0.017667845 22:0.010600707 23:0.0070422535 24:0.0035335689 25:0.084507042 26:0.010600707 27:0.024734982 28:0.014134276 29:0.088028169 30:0.014134276 31:0.024734982 32:0.042253521 33:0 34:0.028169014 35:0.0035335689 36:0.031690141 37:0.003533569 38:0.003533569 39:0.042253521 40:0.0035335689 41:0.0035335689 42:0.017667845 43:0.077464789 44:0.024734982 45:0.035335689 46:0.063380282 47:0.017667845 48:0.014134276 49:0.077464789 50:0.017667845 51:0.017667845 
32768 1:0.96575343 2:0.14874142 3:0.05733945 4:0.04805492 5:0.025229358 6:0.002293578 7:0.01146789 8:0.084668192 9:0.025229358 10:0.089244851 11:0.018348624 12:0.016055046 13:0.027522936 14:0.027522936 15:0.066361556 16:0.032110092 17:0.002293578 18:0.020642202 19:0.01146789 20:0.029748284 21:0.009174312 22:0.0068807339 23:0.013729977 24:0 25:0.04805492 26:0.0091743119 27:0.009174312 28:0.013761468 29:0.1006865 30:0.013761468 31:0.02293578 32:0.036613272 33:0.002293578 34:0.057208238 35:0.013761468 36:0.034324943 37:0.004587156 38:0.009174312 39:0.054919908 40:0.0091743119 41:0.0068807339 42:0.018348624 43:0.043478261 44:0.013761468 45:0.01146789 46:0.073226545 47:0.03440367 48:0.013761468 49:0.070938215 50:0.02293578 51:0.018348624 
32768 1:0.59147425 2:0.048042705 3:0.01426025 4:0.051601423 5:0.017825312 6:0.0053475936 7:0.017825312 8:0.056939502 9:0.01426025 10:0.049822064 11:0.0053475936 12:0.016042781 13:0.012477718 14:0.016042781 15:0.080071174 16:0.021390374 17:0.016042781 18:0.021390374 19:0.021390374 20:0.080071174 21:0.023172906 22:0.019607843 23:0.026690392 24:0.0071301248 25:0.076512456 26:0.012477718 27:0.023172906 28:0.024955437 29:0.042704626 30:0.016042781 31:0.01426025 32:0.06227758 33:0.008912656 34:0.088967972 35:0.032085561 36:0.056939502 37:0.01426025 38:0.021390374 39:0.035587189 40:0.010695187 41:0.0071301248 42:0.012477718 43:0.069395018 44:0.026737968 45:0.01426025 46:0.078291815 47:0.007130125 48:0.021390374 49:0.096085409 50:0.019607843 51:0.053475936 
32768 1:0.94890511 2:0.14634146 3:0.053789731 4:0.041463415 5:0.014669927 6:0 7:0.017114914 8:0.082926829 9:0.039119804 10:0.090243902 11:0.017114914 12:0.017114914 13:0.036674817 14:0.019559902 15:0.065853659 16:0.014669927 17:0.009779951 18:0.019559902 19:0.02200489 20:0.041463415 21:0.029339853 22:0.0097799511 23:0.0024390244 24:0 25:0.051219512 26:0.017114914 27:0.009779951 28:0.012224939 29:0.090243902 30:0.007334963 31:0.009779951 32:0.031707317 33:0.0024449878 34:0.046341463 35:0.014669927 36:0.043902439 37:0.007334963 38:0.007334963 39:0.058536585 40:0.0048899756 41:0.012224939 42:0.0097799511 43:0.046341463 44:0.012224939 45:0.019559902 46:0.080487805 47:0.029339853 48:0.02200489 49:0.080487805 50:0.024449878 51:0.026894866 
3519.443530706173 1:0.3847487 2:0.065972222 3:0.024347826 4:0.052083333 5:0.020869565 6:0.0086956522 7:0.015652174 8:0.074652778 9:0.020869565 10:0.029513889 11:0.0034782609 12:0.010434783 13:0.006956522 14:0.0086956522 15:0.069444444 16:0.020869565 17:0.020869565 18:0.022608696 19:0.005217391 20:0.067708333 21:0.015652174 22:0.015652174 23:0.048611111 24:0.0069565217 25:0.071180556 26:0.0017391304 27:0.019130435 28:0.034782609 29:0.065972222 30:0.015652174 31:0.020869565 32:0.085069444 33:0.019130435 34:0.10763889 35:0.03826087 36:0.052083333 37:0.003478261 38:0.019130435 39:0.022569444 40:0.0086956522 41:0.0034782609 42:0.0052173913 43:0.052083333 44:0.015652174 45:0.008695652 46:0.079861111 47:0.022608696 48:0.013913043 49:0.055555556 50:0.019130435 51:0.010434783 
32768 1:0.80465116 2:0.093167702 3:0.034214619 4:0.052795031 5:0.023328149 6:0.0031104199 7:0.00777605 8:0.11024845 9:0.040435459 10:0.072981366 11:0.018662519 12:0.020217729 13:0.021772939 14:0.01244168 15:0.094720497 16:0.0155521 17:0.017107309 18:0.043545879 19:0.018662519 20:0.046583851 21:0.023328149 22:0.0077760498 23:0.0062111801 24:0.00155521 25:0.054347826 26:0.01244168 27:0.01399689 28:0.01399689 29:0.096273292 30:0.0155521 31:0.023328149 32:0.043478261 33:0.00155521 34:0.045031056 35:0.01088647 36:0.049689441 37:0.01244168 38:0.0155521 39:0.043478261 40:0.0093312597 41:0.0062208398 42:0.015552099 43:0.060559006 44:0.027993779 45:0.021772939 46:0.072981366 47:0.034214619 48:0.01088647 49:0.057453416 50:0.021772939 51:0.01710731 
3722.531291827288 1:0.086642599 2:0.15942029 3:0.087272727 4:0.065217391 5:0.032727273 6:0 7:0.018181818 8:0.10869565 9:0.036363636 10:0.032608696 11:0.010909091 12:0.014545455 13:0.007272727 14:0 15:0.076086957 16:0.04 17:0.010909091 18:0.025454545 19:0 20:0.047101449 21:0.018181818 22:0.0072727273 23:0.018115942 24:0 25:0.072463768 26:0.010909091 27:0.021818182 28:0.029090909 29:0.10507246 30:0.010909091 31:0.069090909 32:0.057971014 33:0.0036363636 34:0.072463768 35:0.018181818 36:0.028985507 37:0.003636364 38:0.014545455 39:0.028985507 40:0.0072727273 41:0 42:0.0072727273 43:0.039855072 44:0.010909091 45:0.014545455 46:0.065217391 47:0.04 48:0.003636364 49:0.02173913 50:0.014545455 51:0 
26084.59435894947 1:0.64788732 2:0.089411765 3:0.035377358 4:0.056470588 5:0.014150943 6:0.0047169811 7:0.021226415 8:0.075294118 9:0.030660377 10:0.068235294 11:0.021226415 12:0.004716981 13:0.018867925 14:0.023584906 15:0.058823529 16:0.014150943 17:0.009433962 18:0.023584906 19:0.011792453 20:0.054117647 21:0.016509434 22:0.018867925 23:0.0070588235 24:0 25:0.084705882 26:0.014150943 27:0.016509434 28:0.028301887 29:0.087058824 30:0.018867925 31:0.014150943 32:0.047058824 33:0.0023584906 34:0.056470588 35:0.011792453 36:0.030588235 37:0.007075472 38:0.007075472 39:0.056470588 40:0.018867925 41:0.0070754717 42:0.018867925 43:0.047058824 44:0.018867925 45:0.018867925 46:0.08 47:0.023584906 48:0.007075472 49:0.10117647 50:0.025943396 51:0.035377358 
32768 1:0.93323442 2:0.063893016 3:0.017857143 4:0.052005944 5:0.022321429 6:0.0074404762 7:0.010416667 8:0.059435364 9:0.020833333 10:0.059435364 11:0.0089285714 12:0.013392857 13:0.019345238 14:0.017857143 15:0.072808321 16:0.016369048 17:0.017857143 18:0.014880952 19:0.023809524 20:0.069836553 21:0.019345238 22:0.017857143 23:0.028231798 24:0.005952381 25:0.084695394 26:0.010416667 27:0.017857143 28:0.041666667 29:0.0653789 30:0.016369048 31:0.020833333 32:0.068350669 33:0.0029761905 34:0.075780089 35:0.022321429 36:0.054977712 37:0.014880952 38:0.029761905 39:0.03268945 40:0.005952381 41:0.005952381 42:0.011904762 43:0.0653789 44:0.016369048 45:0.020833333 46:0.10104012 47:0.022321429 48:0.026785714 49:0.046062407 50:0.010416667 51:0.010416667 
32768 1:0.53395784 2:0.11267606 3:0.028235294 4:0.058685446 5:0.028235294 6:0 7:0.023529412 8:0.096244131 9:0.032941176 10:0.072769953 11:0.021176471 12:0.011764706 13:0.025882353 14:0.014117647 15:0.096244131 16:0.030588235 17:0.016470588 18:0.032941176 19:0.016470588 20:0.028169014 21:0.018823529 22:0.0023529412 23:0.0046948357 24:0 25:0.0657277 26:0.011764706 27:0.016470588 28:0.016470588 29:0.070422535 30:0.004705882 31:0.016470588 32:0.05399061 33:0.0023529412 34:0.03286385 35:0.0070588235 36:0.049295775 37:0.014117647 38:0.011764706 39:0.063380282 40:0.021176471 41:0.0070588235 42:0.018823529 43:0.051643192 44:0.023529412 45:0.018823529 46:0.072769953 47:0.023529412 48:0.018823529 49:0.070422535 50:0.018823529 51:0.021176471 
32768 1:0.99786325 2:0.12633833 3:0.032188841 4:0.070663812 5:0.030042918 6:0.0042918455 7:0.019313305 8:0.094218415 9:0.0472103 10:0.085653105 11:0.030042919 12:0.017167382 13:0.019313305 14:0.019313305 15:0.092077088 16:0.0472103 17:0.017167382 18:0.021459227 19:0.006437768 20:0.04496788 21:0.019313305 22:0.015021459 23:0.010706638 24:0 25:0.055674518 26:0.017167382 27:0.015021459 28:0.012875536 29:0.085653105 30:0.019313305 31:0.025751073 32:0.032119914 33:0.0042918455 34:0.03640257 35:0.0021459227 36:0.038543897 37:0.010729614 38:0.006437768 39:0.072805139 40:0.010729614 41:0.015021459 42:0.019313305 43:0.055674518 44:0.025751073 45:0.017167382 46:0.049250535 47:0.017167382 48:0.012875536 49:0.049250535 50:0.010729614 51:0.0064377682 
4272.665852579717 1:0.33707865 2:0.14285714 3:0.067924528 4:0.086466165 5:0.037735849 6:0.0037735849 7:0.026415094 8:0.078947368 9:0.026415094 10:0.041353383 11:0.011320755 12:0.01509434 13:0.00754717 14:0.0075471698 15:0.093984962 16:0.041509434 17:0.01509434 18:0.026415094 19:0.011320755 20:0.067669173 21:0.033962264 22:0.01509434 23:0.011278195 24:0 25:0.067669173 26:0.0075471698 27:0.01509434 28:0.030188679 29:0.082706767 30:0.022641509 31:0.033962264 32:0.041353383 33:0.0037735849 34:0.04887218 35:0 36:0.041353383 37:0.003773585 38:0.011320755 39:0.033834586 40:0.011320755 41:0 42:0 43:0.045112782 44:0.011320755 45:0.022641509 46:0.071428571 47:0.022641509 48:0.00754717 49:0.045112782 50:0.022641509 51:0.011320755 
26962.23052749265 1:0.61121495 2:0.02247191 3:0 4:0.041198502 5:0.011257036 6:0.0056285178 7:0.009380863 8:0.080524345 9:0.011257036 10:0.018726592 11:0 12:0.005628518 13:0.009380863 14:0.0037523452 15:0.06741573 16:0.009380863 17:0.018761726 18:0.031894934 19:0.00750469 20:0.12734082 21:0.022514071 22:0.045028143 23:0.06741573 24:0.016885554 25:0.071161049 26:0.0056285178 27:0.030018762 28:0.028142589 29:0.063670412 30:0.013133208 31:0.030018762 32:0.11423221 33:0.028142589 34:0.1329588 35:0.045028143 36:0.043071161 37:0.00750469 38:0.028142589 39:0.009363296 40:0.0037523452 41:0.0056285178 42:0 43:0.050561798 44:0.013133208 45:0.011257036 46:0.073033708 47:0.015009381 48:0.013133208 49:0.016853933 50:0.00750469 51:0.0018761726 
3083.897122213818 1:0.1953125 2:0.041775457 3:0.002617801 4:0.052219321 5:0.010471204 6:0.0052356021 7:0.013089005 8:0.067885117 9:0.020942408 10:0.023498695 11:0.0052356021 12:0.007853403 13:0.005235602 14:0.0052356021 15:0.070496084 16:0.02617801 17:0.007853403 18:0.031413613 19:0.005235602 20:0.11227154 21:0.031413613 22:0.031413613 23:0.036553525 24:0.010471204 25:0.11488251 26:0 27:0.036649215 28:0.039267016 29:0.062663185 30:0.034031414 31:0.010471204 32:0.070496084 33:0.013089005 34:0.054830287 35:0.013089005 36:0.036553525 37:0.010471204 38:0.007853403 39:0.010443864 40:0.002617801 41:0.0052356021 42:0 43:0.09921671 44:0.015706806 45:0.036649215 46:0.065274151 47:0.023560209 48:0.005235602 49:0.080939948 50:0.013089005 51:0.020942408 
16069.64867854551 1:0.64622641 2:0.037914692 3:0 4:0.08056872 5:0.019047619 6:0.014285714 7:0.023809524 8:0.061611374 9:0.019047619 10:0.056872038 11:0.014285714 12:0.023809524 13:0.014285714 14:0.0047619048 15:0.090047393 16:0.00952381 17:0.019047619 18:0.033333333 19:0.023809524 20:0.090047393 21:0.019047619 22:0.023809524 23:0.014218009 24:0.0047619048 25:0.099526066 26:0.019047619 27:0.014285714 28:0.033333333 29:0.071090047 30:0.023809524 31:0.014285714 32:0.042654028 33:0 34:0.066350711 35:0.023809524 36:0.028436019 37:0.004761905 38:0.004761905 39:0.042654028 40:0.014285714 41:0 42:0.023809524 43:0.08056872 44:0.038095238 45:0.014285714 46:0.066350711 47:0.019047619 48:0.014285714 49:0.071090047 50:0.014285714 51:0.0095238095 
32768 1:0.99252336 2:0.078651685 3:0.026266417 4:0.06928839 5:0.028142589 6:0.0018761726 7:0.016885553 8:0.058052434 9:0.016885553 10:0.078651685 11:0.020637899 12:0.009380863 13:0.028142589 14:0.020637899 15:0.080524345 16:0.016885553 17:0.015009381 18:0.024390244 19:0.024390244 20:0.076779026 21:0.026266417 22:0.022514071 23:0.0093632959 24:0.0018761726 25:0.065543071 26:0.009380863 27:0.015009381 28:0.024390244 29:0.074906367 30:0.018761726 31:0.016885553 32:0.035580524 33:0 34:0.086142322 35:0.031894934 36:0.037453184 37:0.00750469 38:0.016885553 39:0.052434457 40:0.015009381 41:0.0018761726 42:0.020637899 43:0.048689139 44:0.016885553 45:0.013133208 46:0.080524345 47:0.022514071 48:0.022514071 49:0.06741573 50:0.011257036 51:0.020637899 
