svm_type c_svc
kernel_type rbf
gamma 2
nr_class 2
total_sv 3356
rho 39.4707
label 1 -1
probA -2.35445
probB 0.186744
nr_sv 1741 1615
SV
32768 1:0.94942196 2:0.073806078 3:0.027536232 4:0.047756874 5:0.015942029 6:0.0028985507 7:0.015942029 8:0.0723589 9:0.024637681 10:0.0723589 11:0.011594203 12:0.014492754 13:0.027536232 14:0.01884058 15:0.076700434 16:0.020289855 17:0.005797101 18:0.028985507 19:0.02173913 20:0.049204052 21:0.017391304 22:0.010144927 23:0.005788712 24:0.0014492754 25:0.089725036 26:0.013043478 27:0.02173913 28:0.039130435 29:0.070911722 30:0.015942029 31:0.060781476 32:0.0014492754 33:0.044862518 34:0.011594203 35:0.049204052 36:0.010144928 37:0.014492754 38:0.044862518 39:0.011594203 40:0.010144927 41:0.015942029 42:0.063675832 43:0.024637681 44:0.0014492754 45:0.024637681 46:0.10274964 47:0.031884058 48:0.02173913 49:0.075253256 50:0.02173913 51:0.023188406 
7144.163365818626 1:0.23796791 2:0.053619303 3:0.010752688 4:0.069705094 5:0.016129032 6:0.0080645161 7:0.008064516 8:0.08310992 9:0.032258065 10:0.024128686 11:0.002688172 12:0.005376344 13:0.005376344 14:0.010752688 15:0.09383378 16:0.018817204 17:0.034946237 18:0.034946237 19:0.002688172 20:0.14209115 21:0.040322581 22:0.051075269 23:0.042895442 24:0.010752688 25:0.08310992 26:0.0080645161 27:0.043010753 28:0.010752688 29:0.069705094 30:0.021505376 31:0.061662198 32:0.0080645161 33:0.048257373 34:0.010752688 35:0.040214477 36:0.021505376 37:0.01344086 38:0.016085791 39:0.0053763441 40:0.0053763441 41:0.002688172 42:0.085790885 43:0.01344086 44:0.0080645161 45:0.029569892 46:0.045576408 47:0.010752688 48:0.01344086 49:0.040214477 50:0.016129032 51:0.002688172 
27126.5031269645 1:0.48614072 2:0.08974359 3:0.019271949 4:0.070512821 5:0.029978587 6:0.0042826552 7:0.023554604 8:0.10683761 9:0.042826552 10:0.047008547 11:0.010706638 12:0.00856531 13:0.014989293 14:0.012847966 15:0.083333333 16:0.019271949 17:0.021413276 18:0.025695931 19:0.017130621 20:0.055555556 21:0.025695931 22:0.0085653105 23:0.0064102564 24:0 25:0.074786325 26:0.010706638 27:0.014989293 28:0.029978587 29:0.10470085 30:0.03640257 31:0.049145299 32:0 33:0.047008547 34:0.010706638 35:0.047008547 36:0.006423983 37:0.023554604 38:0.038461538 39:0.0085653105 40:0.017130621 41:0.0085653105 42:0.042735043 43:0.010706638 44:0.0021413276 45:0.014989293 46:0.087606838 47:0.040685225 48:0.010706638 49:0.049145299 50:0.019271949 51:0.010706638 
10292.48367582988 1:0.78159126 2:0.074401665 3:0.026548673 4:0.043184183 5:0.019781364 6:0.002602811 7:0.010931806 8:0.04578564 9:0.008328995 10:0.10301769 11:0.02602811 12:0.022384175 13:0.020822488 14:0.033836544 15:0.073361082 16:0.019260802 17:0.010411244 18:0.010931806 19:0.032795419 20:0.042663892 21:0.017699115 22:0.0072878709 23:0.0062434964 24:0.0005205622 25:0.067117586 26:0.011972931 27:0.010411244 28:0.013014055 29:0.035900104 30:0.008328995 31:0.03069719 32:0 33:0.030176899 34:0.0072878709 35:0.062434964 36:0.011972931 37:0.011972931 38:0.082726327 39:0.015096304 40:0.015616866 41:0.031754295 42:0.072840791 43:0.022904737 44:0.0010411244 45:0.03071317 46:0.077003122 47:0.017178553 48:0.03071317 49:0.15244537 50:0.031233732 51:0.064549714 
24257.99751283957 1:0.96868204 2:0.056409513 3:0.0081218274 4:0.040458237 5:0.010587382 6:0.0030456853 7:0.005801305 8:0.10266821 9:0.011892676 10:0.078306265 11:0.00826686 12:0.008701958 13:0.039303843 14:0.02204496 15:0.112529 16:0.008992023 17:0.00768673 18:0.0551124 19:0.04075417 20:0.068735499 21:0.041044235 22:0.00551124 23:0.0087006961 24:0.0007251632 25:0.039588167 26:0.0023205221 27:0.006236403 28:0.00826686 29:0.066415313 30:0.011747643 31:0.059889791 32:0.0023205221 33:0.076856148 34:0.0044960116 35:0.050174014 36:0.005366207 37:0.014358231 38:0.042488399 39:0.0042059463 40:0.0085569253 41:0.0059463379 42:0.060324826 43:0.02973169 44:0.0011602611 45:0.009572154 46:0.06525522 47:0.011167513 48:0.009862219 49:0.071200696 50:0.003335751 51:0.021754895 
19574.67047869554 1:0.23546512 2:0.11661808 3:0.055555556 4:0.032069971 5:0.014619883 6:0.0029239766 7:0.00877193 8:0.081632653 9:0.020467836 10:0.043731778 11:0.0087719298 12:0.005847953 13:0.011695906 14:0.01754386 15:0.04664723 16:0.01754386 17:0 18:0.026315789 19:0.002923977 20:0.055393586 21:0.014619883 22:0.014619883 23:0.017492711 24:0.0058479532 25:0.081632653 26:0.0029239766 27:0.011695906 28:0.046783626 29:0.084548105 30:0.032163743 31:0.058309038 32:0.0029239766 33:0.093294461 34:0.020467836 35:0.055393586 36:0.014619883 37:0.029239766 38:0.029154519 39:0 40:0.0058479532 41:0.0087719298 42:0.055393586 43:0.005847953 44:0.0058479532 45:0.023391813 46:0.096209913 47:0.020467836 48:0.023391813 49:0.052478134 50:0.00877193 51:0.0087719298 
32768 1:1 2:0.049875312 3:0.01 4:0.027431421 5:0.0075 6:0.005 7:0.005 8:0.08478803 9:0.0225 10:0.054862843 11:0.0075 12:0.0075 13:0.0225 14:0.0175 15:0.069825436 16:0.01 17:0.0075 18:0.035 19:0.0175 20:0.074812968 21:0.025 22:0.0125 23:0.0099750623 24:0.0025 25:0.099750623 26:0.0025 27:0.0325 28:0.045 29:0.079800499 30:0.03 31:0.08478803 32:0.005 33:0.082294264 34:0.0175 35:0.034912718 36:0.01 37:0.0175 38:0.014962594 39:0 40:0.0025 41:0.0025 42:0.067331671 43:0.0225 44:0 45:0.0175 46:0.10723192 47:0.0225 48:0.01 49:0.057356608 50:0.0225 51:0.0125 
20905.39265854102 1:0.66359447 2:0.12037037 3:0.027906977 4:0.055555556 5:0.037209302 6:0.0046511628 7:0.009302326 8:0.083333333 9:0.018604651 10:0.078703704 11:0.027906977 12:0.009302326 13:0.023255814 14:0.018604651 15:0.10648148 16:0.051162791 17:0.004651163 18:0.03255814 19:0.018604651 20:0.027777778 21:0.018604651 22:0.0046511628 23:0.018518519 24:0 25:0.041666667 26:0.0046511628 27:0.004651163 28:0.018604651 29:0.069444444 30:0.023255814 31:0.060185185 32:0.0046511628 33:0.032407407 34:0 35:0.055555556 36:0.018604651 37:0.013953488 38:0.046296296 39:0.0093023256 40:0.0046511628 41:0.013953488 42:0.050925926 43:0.023255814 44:0.0093023256 45:0.013953488 46:0.078703704 47:0.018604651 48:0.023255814 49:0.074074074 50:0.023255814 51:0.023255814 
14903.71400154325 1:0.49878935 2:0.050970874 3:0.0072992701 4:0.067961165 5:0.01459854 6:0 7:0.0243309 8:0.087378641 9:0.03163017 10:0.031553398 11:0.00486618 12:0.00729927 13:0.00486618 14:0.01459854 15:0.084951456 16:0.01459854 17:0.01946472 18:0.03649635 19:0.01459854 20:0.11165048 21:0.0243309 22:0.03892944 23:0.019417476 24:0.0072992701 25:0.10436893 26:0.01703163 27:0.03163017 28:0.03406326 29:0.067961165 30:0.01703163 31:0.067961165 32:0.00243309 33:0.033980583 34:0.00486618 35:0.038834951 36:0.01459854 37:0.01946472 38:0.031553398 39:0.01216545 40:0.0072992701 41:0.0097323601 42:0.075242718 43:0.0243309 44:0.00486618 45:0.0243309 46:0.067961165 47:0.02189781 48:0.01703163 49:0.058252427 50:0.00973236 51:0.01703163 
11604.09851110147 1:0.82692308 2:0.077170418 3:0.035483871 4:0.057877814 5:0.009677419 6:0.0032258065 7:0.032258065 8:0.048231511 9:0.009677419 10:0.073954984 11:0.019354839 12:0.012903226 13:0.019354839 14:0.022580645 15:0.073954984 16:0.029032258 17:0.012903226 18:0.006451613 19:0.025806452 20:0.083601286 21:0.029032258 22:0.019354839 23:0.012861736 24:0.0064516129 25:0.1221865 26:0.025806452 27:0.035483871 28:0.022580645 29:0.038585209 30:0.009677419 31:0.045016077 32:0 33:0.028938907 34:0.0064516129 35:0.025723473 36:0.009677419 37:0.003225806 38:0.07073955 39:0.012903226 40:0.022580645 41:0.025806452 42:0.10289389 43:0.025806452 44:0.0032258065 45:0.041935484 46:0.048231511 47:0.009677419 48:0.003225806 49:0.090032154 50:0.003225806 51:0.025806452 
32768 1:0.95520581 2:0.048484848 3:0.014563107 4:0.058181818 5:0.015776699 6:0.01092233 7:0.018203883 8:0.088484848 9:0.031553398 10:0.036363636 11:0.0060679612 12:0.007281553 13:0.009708738 14:0.013349515 15:0.073939394 16:0.014563107 17:0.019417476 18:0.030339806 19:0.009708738 20:0.072727273 21:0.025485437 22:0.020631068 23:0.035151515 24:0.0084951456 25:0.072727273 26:0.0048543689 27:0.016990291 28:0.031553398 29:0.08969697 30:0.035194175 31:0.077575758 32:0.0097087379 33:0.092121212 34:0.020631068 35:0.04 36:0.003640777 37:0.02184466 38:0.019393939 39:0.0060679612 40:0.0036407767 41:0.0072815534 42:0.047272727 43:0.009708738 44:0.0060679612 45:0.014563107 46:0.083636364 47:0.01092233 48:0.014563107 49:0.064242424 50:0.020631068 51:0.020631068 
25046.37257734932 1:0.68129771 2:0.12428298 3:0.040229885 4:0.06500956 5:0.024904215 6:0 7:0.021072797 8:0.059273423 9:0.03256705 10:0.09751434 11:0.022988506 12:0.022988506 13:0.026819923 14:0.024904215 15:0.093690249 16:0.040229885 17:0.021072797 18:0.017241379 19:0.01532567 20:0.047801147 21:0.022988506 22:0.0095785441 23:0.013384321 24:0.0019157088 25:0.057361377 26:0.0076628352 27:0.013409962 28:0.017241379 29:0.078393881 30:0.011494253 31:0.034416826 32:0.0019157088 33:0.059273423 34:0.011494253 35:0.024856597 36:0.001915709 37:0.011494253 38:0.049713193 39:0.0076628352 40:0.013409962 41:0.013409962 42:0.06500956 43:0.034482759 44:0.0095785441 45:0.009578544 46:0.06500956 47:0.009578544 48:0.005747126 49:0.06500956 50:0.009578544 51:0.01532567 
32768 1:0.81392045 2:0.073968706 3:0.017094017 4:0.041251778 5:0.012820513 6:0.0071225071 7:0.005698006 8:0.089615932 9:0.022792023 10:0.062588905 11:0.012820513 12:0.017094017 13:0.017094017 14:0.015669516 15:0.078236131 16:0.025641026 17:0.00997151 18:0.031339031 19:0.011396011 20:0.075391181 21:0.027065527 22:0.017094017 23:0.032716927 24:0.0028490028 25:0.058321479 26:0.0071225071 27:0.01994302 28:0.021367521 29:0.075391181 30:0.021367521 31:0.06401138 32:0.00997151 33:0.06116643 34:0.015669516 35:0.052631579 36:0.014245014 37:0.015669516 38:0.039829303 39:0.0071225071 40:0.0071225071 41:0.017094017 42:0.06401138 43:0.021367521 44:0.0056980057 45:0.014245014 46:0.06970128 47:0.01994302 48:0.008547009 49:0.06116643 50:0.015669516 51:0.01994302 
32768 1:0.90354331 2:0.08086785 3:0.0256917 4:0.037475345 5:0.011857708 6:0.0039525692 7:0.005928854 8:0.08678501 9:0.02173913 10:0.059171598 11:0.011857708 12:0.017786561 13:0.017786561 14:0.011857708 15:0.07495069 16:0.023715415 17:0.011857708 18:0.033596838 19:0.005928854 20:0.071005917 21:0.0256917 22:0.013833992 23:0.037475345 24:0.0019762846 25:0.063116371 26:0.0079051383 27:0.0256917 28:0.019762846 29:0.07495069 30:0.019762846 31:0.063116371 32:0.011857708 33:0.067061144 34:0.019762846 35:0.055226824 36:0.015810277 37:0.019762846 38:0.033530572 39:0.0039525692 40:0.0019762846 41:0.019762846 42:0.07495069 43:0.023715415 44:0.0079051383 45:0.019762846 46:0.069033531 47:0.02173913 48:0.009881423 49:0.051282051 50:0.011857708 51:0.015810277 
10848.21217591702 1:0.061728395 2:0.089783282 3:0.034161491 4:0.07120743 5:0.031055901 6:0.01552795 7:0.01552795 8:0.095975232 9:0.034161491 10:0.040247678 11:0.0093167702 12:0.00931677 13:0.00621118 14:0.01552795 15:0.068111455 16:0.02484472 17:0.01242236 18:0.02484472 19:0.00621118 20:0.034055728 21:0.01552795 22:0.0062111801 23:0.021671827 24:0.0031055901 25:0.07120743 26:0.01242236 27:0.00931677 28:0.027950311 29:0.089783282 30:0.040372671 31:0.043343653 32:0.0031055901 33:0.055727554 34:0.0062111801 35:0.068111455 36:0.00931677 37:0.027950311 38:0.049535604 39:0.02173913 40:0.01242236 41:0.0031055901 42:0.046439628 43:0.01242236 44:0.0031055901 45:0.01552795 46:0.083591331 47:0.02484472 48:0.01552795 49:0.07120743 50:0.02173913 51:0.01552795 
32768 1:0.60587002 2:0.050420168 3:0.014736842 4:0.039915966 5:0.016842105 6:0 7:0.008421053 8:0.075630252 9:0.014736842 10:0.046218487 11:0.0063157895 12:0.012631579 13:0.010526316 14:0.016842105 15:0.079831933 16:0.012631579 17:0.014736842 18:0.029473684 19:0.023157895 20:0.079831933 21:0.014736842 22:0.021052632 23:0.031512605 24:0.0084210526 25:0.075630252 26:0.0063157895 27:0.014736842 28:0.037894737 29:0.058823529 30:0.027368421 31:0.079831933 32:0.0021052632 33:0.086134454 34:0.016842105 35:0.06302521 36:0.021052632 37:0.031578947 38:0.023109244 39:0.0084210526 40:0.0021052632 41:0.0063157895 42:0.067226891 43:0.018947368 44:0.016842105 45:0.014736842 46:0.092436975 47:0.014736842 48:0.021052632 49:0.050420168 50:0.012631579 51:0.012631579 
32768 1:0.9630485 2:0.12268519 3:0.046403712 4:0.041666667 5:0.011600928 6:0.0046403712 7:0.016241299 8:0.071759259 9:0.030162413 10:0.090277778 11:0.027842227 12:0.009280742 13:0.023201856 14:0.030162413 15:0.071759259 16:0.025522042 17:0.013921114 18:0.023201856 19:0.009280742 20:0.048611111 21:0.027842227 22:0.0023201856 23:0.0092592593 24:0.0046403712 25:0.055555556 26:0.0092807425 27:0.009280742 28:0.013921114 29:0.0625 30:0.011600928 31:0.041666667 32:0 33:0.039351852 34:0.0046403712 35:0.053240741 36:0.011600928 37:0.011600928 38:0.071759259 39:0.011600928 40:0.013921114 41:0.018561485 42:0.053240741 43:0.011600928 44:0.0023201856 45:0.016241299 46:0.074074074 47:0.013921114 48:0.030162413 49:0.092592593 50:0.025522042 51:0.020881671 
11303.61299898752 1:0.59482759 2:0.12680115 3:0.054913295 4:0.04610951 5:0.01734104 6:0.0028901734 7:0.020231214 8:0.057636888 9:0.014450867 10:0.089337176 11:0.028901734 12:0.011560694 13:0.01734104 14:0.031791908 15:0.043227666 16:0.011560694 17:0.00867052 18:0.014450867 19:0.00867052 20:0.025936599 21:0.005780347 22:0 23:0.0086455331 24:0 25:0.080691643 26:0.014450867 27:0.011560694 28:0.023121387 29:0.063400576 30:0.011560694 31:0.037463977 32:0 33:0.028818444 34:0.0028901734 35:0.051873199 36:0.002890173 37:0.014450867 38:0.089337176 39:0.014450867 40:0.0086705202 41:0.037572254 42:0.04610951 43:0.014450867 44:0.0028901734 45:0.01734104 46:0.086455331 47:0.034682081 48:0.01734104 49:0.11815562 50:0.031791908 51:0.040462428 
4474.280563281594 1:0.94029851 2:0.03125 3:0.0027210884 4:0.025815217 5:0.005442177 6:0.0040816327 7:0.008163265 8:0.065217391 9:0.017687075 10:0.028532609 11:0.0027210884 12:0.002721088 13:0.016326531 14:0.0068027211 15:0.047554348 16:0.008163265 17:0.012244898 18:0.021768707 19:0.005442177 20:0.11277174 21:0.021768707 22:0.039455782 23:0.039402174 24:0.014965986 25:0.099184783 26:0.0095238095 27:0.05170068 28:0.02585034 29:0.051630435 30:0.021768707 31:0.074728261 32:0.016326531 33:0.1548913 34:0.10068027 35:0.047554348 36:0.016326531 37:0.017687075 38:0.020380435 39:0.0027210884 40:0.0040816327 41:0.0013605442 42:0.086956522 43:0.017687075 44:0.010884354 45:0.02585034 46:0.067934783 47:0.008163265 48:0.012244898 49:0.046195652 50:0.008163265 51:0.019047619 
667.1820867447087 1:0 2:0.029962547 3:0.007518797 4:0.056179775 5:0.015037594 6:0.018796993 7:0.011278195 8:0.06741573 9:0.015037594 10:0.02247191 11:0.0037593985 12:0.011278195 13:0 14:0.007518797 15:0.074906367 16:0.011278195 17:0.030075188 18:0.018796992 19:0.015037594 20:0.10861423 21:0.022556391 22:0.033834586 23:0.08988764 24:0.037593985 25:0.074906367 26:0.015037594 27:0.030075188 28:0.022556391 29:0.037453184 30:0.015037594 31:0.1011236 32:0.037593985 33:0.078651685 34:0.030075188 35:0.06741573 36:0.018796992 37:0.022556391 38:0.033707865 39:0.011278195 40:0.015037594 41:0.007518797 42:0.082397004 43:0.015037594 44:0.007518797 45:0.011278195 46:0.04494382 47:0.011278195 48:0.015037594 49:0.029962547 50:0 51:0.0037593985 
32768 1:0.91758242 2:0.07706422 3:0.020220588 4:0.04587156 5:0.011029412 6:0.0055147059 7:0.012867647 8:0.091743119 9:0.036764706 10:0.086238532 11:0.012867647 12:0.020220588 13:0.038602941 14:0.014705882 15:0.064220183 16:0.012867647 17:0.011029412 18:0.018382353 19:0.022058824 20:0.03853211 21:0.016544118 22:0.0055147059 23:0.011009174 24:0 25:0.058715596 26:0.0073529412 27:0.011029412 28:0.025735294 29:0.11009174 30:0.038602941 31:0.036697248 32:0 33:0.071559633 34:0.012867647 35:0.044036697 36:0.007352941 37:0.014705882 38:0.049541284 39:0.0036764706 40:0.0036764706 41:0.025735294 42:0.053211009 43:0.020220588 44:0.0036764706 45:0.016544118 46:0.088073394 47:0.034926471 48:0.012867647 49:0.073394495 50:0.009191176 51:0.023897059 
32768 1:0.96923077 2:0.10054348 3:0.038984588 4:0.063405797 5:0.032638259 6:0.0027198549 7:0.01631913 8:0.092391304 9:0.040797824 10:0.070652174 11:0.019038985 12:0.009972801 13:0.022665458 14:0.019038985 15:0.085144928 16:0.017225748 17:0.015412511 18:0.032638259 19:0.019945603 20:0.057065217 21:0.019038985 22:0.014505893 23:0.0072463768 24:0.0009066183 25:0.063405797 26:0.0090661831 27:0.014505893 28:0.02175884 29:0.091485507 30:0.023572076 31:0.043478261 32:0.0009066183 33:0.042572464 34:0.0099728015 35:0.042572464 36:0.008159565 37:0.019945603 38:0.049818841 39:0.011786038 40:0.011786038 41:0.012692656 42:0.048913043 43:0.01631913 44:0 45:0.015412511 46:0.077898551 47:0.029918404 48:0.012692656 49:0.063405797 50:0.013599275 51:0.017225748 
32768 1:0.81075697 2:0.10778443 3:0.042 4:0.055888224 5:0.014 6:0.006 7:0.02 8:0.045908184 9:0.014 10:0.073852295 11:0.02 12:0.012 13:0.02 14:0.022 15:0.055888224 16:0.016 17:0.012 18:0.014 19:0.014 20:0.053892216 21:0.016 22:0.014 23:0.035928144 24:0.006 25:0.061876248 26:0.01 27:0.014 28:0.032 29:0.065868263 30:0.006 31:0.045908184 32:0.008 33:0.067864271 34:0.008 35:0.061876248 36:0.014 37:0.018 38:0.053892216 39:0.014 40:0.004 41:0.018 42:0.051896208 43:0.018 44:0.012 45:0.014 46:0.091816367 47:0.022 48:0.022 49:0.069860279 50:0.022 51:0.028 
32768 1:0.6950495 2:0.10714286 3:0.041749503 4:0.055555556 5:0.013916501 6:0.0059642147 7:0.019880716 8:0.047619048 9:0.013916501 10:0.073412698 11:0.019880716 12:0.011928429 13:0.019880716 14:0.021868787 15:0.055555556 16:0.015904573 17:0.011928429 18:0.013916501 19:0.013916501 20:0.053571429 21:0.015904573 22:0.013916501 23:0.035714286 24:0.0059642147 25:0.061507937 26:0.0099403579 27:0.013916501 28:0.031809145 29:0.06547619 30:0.005964215 31:0.045634921 32:0.0079522863 33:0.067460317 34:0.0079522863 35:0.063492063 36:0.013916501 37:0.017892644 38:0.055555556 39:0.013916501 40:0.0059642147 41:0.017892644 42:0.051587302 43:0.017892644 44:0.011928429 45:0.013916501 46:0.091269841 47:0.021868787 48:0.021868787 49:0.069444444 50:0.021868787 51:0.027833002 
32768 1:0.74137931 2:0.11239193 3:0.040462428 4:0.048991354 5:0.01734104 6:0 7:0.014450867 8:0.11527377 9:0.057803468 10:0.07204611 11:0.011560694 12:0.00867052 13:0.034682081 14:0.01734104 15:0.054755043 16:0.011560694 17:0.005780347 18:0.020231214 19:0.01734104 20:0.031700288 21:0.005780347 22:0.0028901734 23:0.0057636888 24:0.0028901734 25:0.057636888 26:0.014450867 27:0.002890173 28:0.014450867 29:0.12391931 30:0.031791908 31:0.037463977 32:0 33:0.028818444 34:0.0028901734 35:0.054755043 36:0.00867052 37:0.020231214 38:0.057636888 39:0.014450867 40:0.020231214 41:0.01734104 42:0.028818444 43:0.011560694 44:0 45:0.011560694 46:0.095100865 47:0.046242775 48:0.023121387 49:0.074927954 50:0.026011561 51:0.026011561 
23340.80712177512 1:1 2:0.063157895 3:0.018469657 4:0.042105263 5:0.01055409 6:0.015831135 7:0.01055409 8:0.14473684 9:0.08707124 10:0.034210526 11:0.0026385224 12:0.005277045 13:0.01055409 14:0.013192612 15:0.063157895 16:0.01055409 17:0.007915567 18:0.042216359 19:0.002638522 20:0.036842105 21:0.007915567 22:0.013192612 23:0.023684211 24:0.0026385224 25:0.063157895 26:0.0052770449 27:0.018469657 28:0.031662269 29:0.12894737 30:0.071240106 31:0.047368421 32:0 33:0.063157895 34:0.0026385224 35:0.068421053 36:0.023746702 37:0.026385224 38:0.026315789 39:0.0052770449 40:0.0052770449 41:0.0079155673 42:0.060526316 43:0.034300792 44:0.0026385224 45:0.005277045 46:0.076315789 47:0.002638522 48:0.031662269 49:0.057894737 50:0.007915567 51:0.021108179 
32768 1:0.98579041 2:0.074733096 3:0.017825312 4:0.049822064 5:0.019607843 6:0.0035650624 7:0.01426025 8:0.080071174 9:0.035650624 10:0.065836299 11:0.0071301248 12:0.016042781 13:0.032085561 14:0.010695187 15:0.067615658 16:0.016042781 17:0.017825312 18:0.016042781 19:0.017825312 20:0.055160142 21:0.016042781 22:0.017825312 23:0.010676157 24:0 25:0.083629893 26:0.012477718 27:0.016042781 28:0.040998217 29:0.099644128 30:0.035650624 31:0.058718861 32:0.0017825312 33:0.087188612 34:0.028520499 35:0.037366548 36:0.012477718 37:0.01426025 38:0.026690391 39:0.0053475936 40:0.0071301248 41:0.012477718 42:0.055160142 43:0.008912656 44:0.0035650624 45:0.028520499 46:0.10498221 47:0.026737968 48:0.010695187 49:0.042704626 50:0.017825312 51:0.012477718 
771.774625316212 1:0.76928729 2:0.075 3:0.025018396 4:0.049264706 5:0.025018396 6:0.0022075055 7:0.007358352 8:0.078676471 9:0.022075055 10:0.061764706 11:0.0073583517 12:0.015452539 13:0.02281089 14:0.016188374 15:0.091911765 16:0.019131714 17:0.01986755 18:0.033848418 19:0.019131714 20:0.057352941 21:0.020603385 22:0.016188374 23:0.016911765 24:0.0014716703 25:0.0625 26:0.0058866814 27:0.012509198 28:0.022075055 29:0.071323529 30:0.018395879 31:0.066176471 32:0.0029433407 33:0.070588235 34:0.016188374 35:0.048529412 36:0.009565857 37:0.022075055 38:0.027205882 39:0.0066225166 40:0.0051508462 41:0.011037528 42:0.055882353 43:0.018395879 44:0.0066225166 45:0.017660044 46:0.089705882 47:0.02281089 48:0.018395879 49:0.077205882 50:0.02281089 51:0.027961737 
23690.12106850703 1:0.66146993 2:0.069196429 3:0.033557047 4:0.0625 5:0.022371365 6:0.0044742729 7:0.020134228 8:0.071428571 9:0.026845638 10:0.058035714 11:0.015659955 12:0.013422819 13:0.020134228 14:0.0089485459 15:0.075892857 16:0.011185682 17:0.017897092 18:0.029082774 19:0.017897092 20:0.046875 21:0.015659955 22:0.011185682 23:0.020089286 24:0.0022371365 25:0.066964286 26:0 27:0.022371365 28:0.015659955 29:0.082589286 30:0.022371365 31:0.037946429 32:0 33:0.082589286 34:0.020134228 35:0.049107143 36:0 37:0.022371365 38:0.033482143 39:0.011185682 40:0.0067114094 41:0.011185682 42:0.0625 43:0.015659955 44:0.0089485459 45:0.022371365 46:0.078125 47:0.015659955 48:0.015659955 49:0.10267857 50:0.020134228 51:0.040268456 
32768 1:0.97804878 2:0.056234719 3:0.0098039216 4:0.068459658 5:0.022058824 6:0.0049019608 7:0.014705882 8:0.080684597 9:0.026960784 10:0.063569682 11:0.0073529412 12:0.014705882 13:0.022058824 14:0.019607843 15:0.090464548 16:0.022058824 17:0.022058824 18:0.024509804 19:0.022058824 20:0.078239609 21:0.031862745 22:0.0098039216 23:0.024449878 24:0.0049019608 25:0.063569682 26:0.0049019608 27:0.026960784 28:0.026960784 29:0.06601467 30:0.024509804 31:0.056234719 32:0.0049019608 33:0.06601467 34:0.014705882 35:0.053789731 36:0.00245098 37:0.022058824 38:0.053789731 39:0.017156863 40:0.014705882 41:0.012254902 42:0.053789731 43:0.019607843 44:0.0073529412 45:0.007352941 46:0.073349633 47:0.009803922 48:0.019607843 49:0.051344743 50:0.00245098 51:0.017156863 
3247.763784887421 1:0.67346939 2:0.084795322 3:0.035190616 4:0.043859649 5:0.032258065 6:0.0029325513 7:0.005865103 8:0.052631579 9:0.017595308 10:0.10233918 11:0.0029325513 12:0.029325513 13:0.032258065 14:0.038123167 15:0.099415205 16:0.017595308 17:0.020527859 18:0.020527859 19:0.041055718 20:0.064327485 21:0.014662757 22:0.023460411 23:0.014619883 24:0.0029325513 25:0.061403509 26:0.0058651026 27:0.023460411 28:0.026392962 29:0.064327485 30:0.017595308 31:0.046783626 32:0 33:0.073099415 34:0.017595308 35:0.035087719 36:0.011730205 37:0.008797654 38:0.038011696 39:0.008797654 40:0.0058651026 41:0.008797654 42:0.081871345 43:0.032258065 44:0.008797654 45:0.014662757 46:0.078947368 47:0.023460411 48:0.011730205 49:0.058479532 50:0.011730205 51:0.011730205 
30531.63225860659 1:0.85667752 2:0.039215686 3:0.0098360656 4:0.04248366 5:0.009836066 6:0.016393443 7:0.013114754 8:0.11111111 9:0.026229508 10:0.022875817 11:0 12:0.013114754 13:0.006557377 14:0.0032786885 15:0.08496732 16:0.009836066 17:0.013114754 18:0.055737705 19:0.006557377 20:0.081699346 21:0.029508197 22:0.02295082 23:0.068627451 24:0.019672131 25:0.055555556 26:0.0032786885 27:0.032786885 28:0.013114754 29:0.08496732 30:0.039344262 31:0.10457516 32:0.019672131 33:0.11111111 34:0.036065574 35:0.04248366 36:0.009836066 37:0.016393443 38:0.006535948 39:0.0032786885 40:0 41:0 42:0.062091503 43:0.009836066 44:0.016393443 45:0.006557377 46:0.052287582 47:0.006557377 48:0.009836066 49:0.029411765 50:0.016393443 51:0.006557377 
32768 1:0.6 2:0.042735043 3:0 4:0.02991453 5:0.012875536 6:0.012875536 7:0 8:0.10683761 9:0.025751073 10:0.02991453 11:0 12:0.008583691 13:0.017167382 14:0.0042918455 15:0.072649573 16:0.021459227 17:0.008583691 18:0.021459227 19:0.021459227 20:0.068376068 21:0.017167382 22:0.012875536 23:0.081196581 24:0.021459228 25:0.05982906 26:0 27:0.030042918 28:0.021459227 29:0.085470085 30:0.051502146 31:0.13247863 32:0.042918455 33:0.13247863 34:0.042918455 35:0.02991453 36:0.004291845 37:0.021459227 38:0.008547009 39:0.008583691 40:0 41:0 42:0.047008547 43:0.004291845 44:0.0042918455 45:0.012875536 46:0.05982906 47:0.012875536 48:0.012875536 49:0.012820513 50:0 51:0 
1151.298110853453 1:0.72594142 2:0.11740042 3:0.027310924 4:0.050314465 5:0.023109244 6:0.0021008403 7:0.010504202 8:0.07966457 9:0.025210084 10:0.094339623 11:0.025210084 12:0.016806723 13:0.029411765 14:0.021008403 15:0.081761006 16:0.025210084 17:0.014705882 18:0.021008403 19:0.021008403 20:0.050314465 21:0.027310924 22:0.0084033613 23:0.0083857442 24:0 25:0.041928721 26:0.0084033613 27:0.00210084 28:0.018907563 29:0.083857442 30:0.014705882 31:0.041928721 32:0.0021008403 33:0.056603774 34:0.016806723 35:0.039832285 36:0.008403361 37:0.004201681 38:0.05870021 39:0.0084033613 40:0.0042016807 41:0.027310924 42:0.039832285 43:0.016806723 44:0.0042016807 45:0.008403361 46:0.075471698 47:0.031512605 48:0.010504202 49:0.07966457 50:0.023109244 51:0.027310924 
32768 1:0.99487836 2:0.043589744 3:0.0077021823 4:0.051282051 5:0.008985879 6:0.0064184852 7:0.020539153 8:0.064102564 9:0.023106547 10:0.044871795 11:0.0064184852 12:0.016688062 13:0.010269576 14:0.011553273 15:0.069230769 16:0.01283697 17:0.02182285 18:0.024390244 19:0.010269576 20:0.10769231 21:0.032092426 22:0.032092426 23:0.05 24:0.016688062 25:0.080769231 26:0.0051347882 27:0.026957638 28:0.033376123 29:0.06025641 30:0.02182285 31:0.071794872 32:0.019255456 33:0.055128205 34:0.0089858793 35:0.056410256 36:0.019255456 37:0.017971759 38:0.032051282 39:0.0089858793 40:0.0051347882 41:0.0077021823 42:0.076923077 43:0.014120668 44:0.0064184852 45:0.023106547 46:0.073076923 47:0.011553273 48:0.020539153 49:0.062820513 50:0.011553273 51:0.024390244 
32768 1:0.99278268 2:0.036918138 3:0.0064257028 4:0.048956661 5:0.013654618 6:0.0088353414 7:0.012048193 8:0.088282504 9:0.020883534 10:0.039325843 11:0.0048192771 12:0.01124498 13:0.015261044 14:0.0080321285 15:0.083467095 16:0.014457831 17:0.017670683 18:0.034538153 19:0.01686747 20:0.083467095 21:0.026506024 22:0.025702811 23:0.025682183 24:0.0080321285 25:0.075441413 26:0.0048192771 27:0.021686747 28:0.035341365 29:0.073033708 30:0.031325301 31:0.073033708 32:0.0088353414 33:0.1035313 34:0.028915663 35:0.053772071 36:0.015261044 37:0.024096386 38:0.020866774 39:0.0024096386 40:0.00562249 41:0.0080321285 42:0.062600321 43:0.016064257 44:0.0040160643 45:0.014457831 46:0.085072231 47:0.015261044 48:0.018473896 49:0.046548957 50:0.010441767 51:0.016064257 
15706.14165525634 1:0.66044776 2:0.11962617 3:0.041198502 4:0.052336449 5:0.026217228 6:0.0056179775 7:0.014981273 8:0.074766355 9:0.028089888 10:0.061682243 11:0.011235955 12:0.003745318 13:0.024344569 14:0.02247191 15:0.059813084 16:0.020599251 17:0.009363296 18:0.020599251 19:0.009363296 20:0.03364486 21:0.007490637 22:0.0093632959 23:0.014953271 24:0.0037453184 25:0.044859813 26:0.0074906367 27:0.005617978 28:0.020599251 29:0.082242991 30:0.016853933 31:0.03364486 32:0.0037453184 33:0.074766355 34:0.031835206 35:0.071028037 36:0.007490637 37:0.026217228 38:0.046728972 39:0.011235955 40:0.0056179775 41:0.018726592 42:0.03364486 43:0.016853933 44:0 45:0.011235955 46:0.097196262 47:0.026217228 48:0.033707865 49:0.099065421 50:0.026217228 51:0.041198502 
31926.61572153553 1:0.94372294 2:0.097613883 3:0.030434783 4:0.062906725 5:0.030434783 6:0 7:0.010869565 8:0.082429501 9:0.030434783 10:0.067245119 11:0.013043478 12:0.015217391 13:0.015217391 14:0.023913044 15:0.11930586 16:0.039130435 17:0.015217391 18:0.032608696 19:0.032608696 20:0.091106291 21:0.036956522 22:0.034782609 23:0.0065075922 24:0 25:0.071583514 26:0.013043478 27:0.02826087 28:0.015217391 29:0.062906725 30:0.010869565 31:0.052060738 32:0 33:0.023861171 34:0.0043478261 35:0.023861171 36:0.006521739 37:0.004347826 38:0.030368764 39:0.0086956522 40:0.0043478261 41:0.0065217391 42:0.082429501 43:0.030434783 44:0.0065217391 45:0.026086957 46:0.04989154 47:0.02173913 48:0.002173913 49:0.075921909 50:0.015217391 51:0.023913044 
32768 1:0.96544503 2:0.040880503 3:0.0062959077 4:0.054507338 5:0.012591815 6:0.010493179 7:0.009443861 8:0.076519916 9:0.016789087 10:0.039832285 11:0.0041972718 12:0.011542497 13:0.013641133 14:0.010493179 15:0.082809224 16:0.007345226 17:0.026232949 18:0.037775446 19:0.011542497 20:0.12054507 21:0.029380902 22:0.0409234 23:0.072327044 24:0.03043022 25:0.05870021 26:0.0073452256 27:0.017838405 28:0.026232949 29:0.062893082 30:0.018887723 31:0.11006289 32:0.03043022 33:0.080712788 34:0.017838405 35:0.031446541 36:0.006295908 37:0.009443861 38:0.025157233 39:0.0020986359 40:0.0073452256 41:0.0094438615 42:0.049266247 43:0.015739769 44:0.0020986359 45:0.010493179 46:0.055555556 47:0.015739769 48:0.007345226 49:0.038784067 50:0.006295908 51:0.012591815 
32768 1:0.95967742 2:0.053908356 3:0.013513513 4:0.061994609 5:0.018918919 6:0.010810811 7:0.008108108 8:0.099730458 9:0.02972973 10:0.037735849 11:0.0054054054 12:0.016216216 13:0.010810811 14:0.0054054054 15:0.10512129 16:0.005405405 17:0.02972973 18:0.056756757 19:0.013513514 20:0.11590296 21:0.043243243 22:0.032432432 23:0.037735849 24:0.013513513 25:0.067385445 26:0.013513513 27:0.027027027 28:0.013513514 29:0.070080863 30:0.021621622 31:0.088948787 32:0.010810811 33:0.078167116 34:0.035135135 35:0.02425876 36:0.008108108 37:0.013513514 38:0.02425876 39:0.0081081081 40:0.0027027027 41:0.0027027027 42:0.061994609 43:0.018918919 44:0.0054054054 45:0.013513514 46:0.043126685 47:0.002702703 48:0.002702703 49:0.029649596 50:0.005405405 51:0.0081081081 
3538.474118323622 1:0.96319018 2:0.018461538 3:0.0030864198 4:0.049230769 5:0.021604938 6:0 7:0.00308642 8:0.052307692 9:0.018518519 10:0.036923077 11:0.0030864198 12:0.00617284 13:0.024691358 14:0.0030864198 15:0.083076923 16:0.00617284 17:0.027777778 18:0.037037037 19:0.012345679 20:0.11076923 21:0.015432099 22:0.037037037 23:0.018461538 24:0.0030864198 25:0.095384615 26:0 27:0.027777778 28:0.049382716 29:0.043076923 30:0.009259259 31:0.067692308 32:0.0030864198 33:0.055384615 34:0.024691358 35:0.095384615 36:0.018518519 37:0.052469136 38:0.015384615 39:0.0030864198 40:0 41:0.0092592593 42:0.076923077 43:0.024691358 44:0.0030864198 45:0.018518519 46:0.13538462 47:0.009259259 48:0.061728395 49:0.046153846 50:0.009259259 51:0.0061728395 
32768 1:1 2:0.11834319 3:0.041543027 4:0.053254438 5:0.020771513 6:0 7:0.014836795 8:0.10946746 9:0.047477745 10:0.056213018 11:0.0089020772 12:0.014836795 13:0.026706231 14:0.0059347181 15:0.094674556 16:0.029673591 17:0.017804154 18:0.026706231 19:0.020771513 20:0.044378698 21:0.017804154 22:0.0029673591 23:0.0059171598 24:0 25:0.068047337 26:0.0059347181 27:0.023738872 28:0.020771513 29:0.088757396 30:0.020771513 31:0.050295858 32:0.0059347181 33:0.044378698 34:0.0029673591 35:0.047337278 36:0.014836795 37:0.011869436 38:0.035502959 39:0.011869436 40:0.0089020772 41:0.0089020772 42:0.065088757 43:0.03264095 44:0 45:0.023738872 46:0.071005917 47:0.014836795 48:0.017804154 49:0.047337278 50:0.011869436 51:0.0059347181 
13409.1905257023 1:0.55769231 2:0.12540193 3:0.035483871 4:0.054662379 5:0.019354839 6:0.0032258065 7:0.029032258 8:0.07073955 9:0.038709677 10:0.080385852 11:0.016129032 12:0.022580645 13:0.012903226 14:0.029032258 15:0.057877814 16:0.029032258 17:0.009677419 18:0.009677419 19:0.009677419 20:0.025723473 21:0.012903226 22:0.0064516129 23:0.0096463023 24:0.0032258065 25:0.073954984 26:0.016129032 27:0.012903226 28:0.032258065 29:0.090032154 30:0.016129032 31:0.025723473 32:0 33:0.048231511 34:0.0096774194 35:0.051446945 36:0.003225806 37:0.022580645 38:0.061093248 39:0.0064516129 40:0.0096774194 41:0.029032258 42:0.061093248 43:0.025806452 44:0.0064516129 45:0.022580645 46:0.083601286 47:0.032258065 48:0.019354839 49:0.080385852 50:0.016129032 51:0.022580645 
2043.081636399476 1:0.76719577 2:0.1360424 3:0.063716814 4:0.058303887 5:0.02300885 6:0 7:0.021238938 8:0.10070671 9:0.042477876 10:0.040636042 11:0.0088495575 12:0.008849558 13:0.019469027 14:0.003539823 15:0.067137809 16:0.02300885 17:0.010619469 18:0.024778761 19:0.008849558 20:0.056537102 21:0.021238938 22:0.0017699115 23:0.010600707 24:0 25:0.090106007 26:0.01238938 27:0.030088496 28:0.024778761 29:0.10070671 30:0.026548673 31:0.049469965 32:0.0053097345 33:0.058303887 34:0.0088495575 35:0.026501767 36:0.007079646 37:0.007079646 38:0.030035336 39:0.010619469 40:0.007079646 41:0.003539823 42:0.060070671 43:0.008849558 44:0.0017699115 45:0.02300885 46:0.067137809 47:0.028318584 48:0.012389381 49:0.04770318 50:0.015929204 51:0.014159292 
1999.559591157013 1:0.83623693 2:0.059440559 3:0.010526316 4:0.06993007 5:0.038596491 6:0.014035088 7:0.010526316 8:0.11888112 9:0.038596491 10:0.031468531 11:0 12:0.010526316 13:0.014035088 14:0.0070175439 15:0.10839161 16:0.024561404 17:0.035087719 18:0.042105263 19:0.007017544 20:0.062937063 21:0.024561404 22:0.028070175 23:0.041958042 24:0.0070175439 25:0.048951049 26:0.0070175439 27:0.010526316 28:0.028070175 29:0.097902098 30:0.038596491 31:0.094405594 32:0.01754386 33:0.1013986 34:0.021052632 35:0.031468531 36:0.007017544 37:0.014035088 38:0.013986014 39:0.0035087719 40:0.0070175439 41:0.0035087719 42:0.038461538 43:0.010526316 44:0.010526316 45:0.007017544 46:0.059440559 47:0.003508772 48:0.014035088 49:0.020979021 50:0.003508772 51:0.0070175439 
32768 1:0.94132653 2:0.10485933 3:0.028205128 4:0.071611253 5:0.030769231 6:0 7:0.017948718 8:0.086956522 9:0.025641026 10:0.071611253 11:0.017948718 12:0.012820513 13:0.028205128 14:0.012820513 15:0.097186701 16:0.025641026 17:0.012820513 18:0.033333333 19:0.025641026 20:0.066496164 21:0.028205128 22:0.012820513 23:0.0051150895 24:0 25:0.069053708 26:0.0076923077 27:0.015384615 28:0.035897436 29:0.099744246 30:0.017948718 31:0.05370844 32:0.0025641026 33:0.046035806 34:0.0025641026 35:0.028132992 36:0.01025641 37:0.012820513 38:0.030690537 39:0.01025641 40:0.0025641026 41:0.0076923077 42:0.046035806 43:0.015384615 44:0.0025641026 45:0.01025641 46:0.089514066 47:0.038461538 48:0.020512821 49:0.033248082 50:0.012820513 51:0.0076923077 
32768 1:0.95733333 2:0.072192513 3:0.016085791 4:0.056149733 5:0.018766756 6:0.0053619303 7:0.018766756 8:0.07486631 9:0.032171582 10:0.06684492 11:0.0080428954 12:0.013404826 13:0.029490617 14:0.016085791 15:0.088235294 16:0.021447721 17:0.013404826 18:0.024128686 19:0.029490617 20:0.064171123 21:0.029490617 22:0.010723861 23:0.0053475936 24:0.0026809651 25:0.082887701 26:0.0053619303 27:0.016085791 28:0.029490617 29:0.080213904 30:0.024128686 31:0.053475936 32:0 33:0.042780749 34:0.010723861 35:0.037433155 36:0.013404826 37:0.00536193 38:0.032085561 39:0.013404826 40:0.0026809651 41:0.010723861 42:0.064171123 43:0.024128686 44:0 45:0.021447721 46:0.090909091 47:0.026809651 48:0.018766756 49:0.088235294 50:0.026809651 51:0.026809652 
2024.135598532315 1:0.78661088 2:0.018867925 3:0.0021008403 4:0.046121593 5:0.004201681 6:0.018907563 7:0.008403361 8:0.060796646 9:0.014705882 10:0.014675052 11:0.0021008403 12:0.00210084 13:0.008403361 14:0.0021008403 15:0.041928721 16:0.006302521 17:0.010504202 18:0.021008403 19:0.004201681 20:0.075471698 21:0.012605042 22:0.014705882 23:0.092243187 24:0.052521008 25:0.10691824 26:0.0084033613 27:0.031512605 28:0.06092437 29:0.060796646 30:0.031512605 31:0.14465409 32:0.039915966 33:0.1048218 34:0.018907563 35:0.046121593 36:0.008403361 37:0.027310924 38:0.016771488 39:0.0042016807 40:0.0021008403 41:0.0021008403 42:0.050314465 43:0.008403361 44:0.012605042 45:0.012605042 46:0.10062893 47:0.006302521 48:0.014705882 49:0.018867925 50:0.004201681 51:0.0042016807 
32768 1:0.60705882 2:0.073113208 3:0.023640662 4:0.047169811 5:0.021276596 6:0 7:0.016548463 8:0.051886792 9:0.011820331 10:0.080188679 11:0.01891253 12:0.016548463 13:0.023640662 14:0.021276596 15:0.075471698 16:0.011820331 17:0.023640662 18:0.016548463 19:0.023640662 20:0.030660377 21:0.016548463 22:0.0047281324 23:0.0047169811 24:0 25:0.091981132 26:0.0047281324 27:0.021276596 28:0.016548463 29:0.056603774 30:0.009456265 31:0.037735849 32:0 33:0.04245283 34:0.0070921986 35:0.044811321 36:0.002364066 37:0.01891253 38:0.049528302 39:0.0047281324 40:0.0094562648 41:0.021276596 42:0.08490566 43:0.023640662 44:0.0047281324 45:0.042553191 46:0.08254717 47:0.01891253 48:0.01891253 49:0.14622641 50:0.023640662 51:0.063829787 
32768 1:0.98128342 2:0.09383378 3:0.032258065 4:0.058981233 5:0.024193548 6:0.002688172 7:0.01344086 8:0.09383378 9:0.040322581 10:0.067024129 11:0.01344086 12:0.016129032 13:0.024193548 14:0.01344086 15:0.085790885 16:0.018817204 17:0.010752688 18:0.029569892 19:0.02688172 20:0.058981233 21:0.024193548 22:0.018817204 23:0.0053619303 24:0 25:0.077747989 26:0.0053763441 27:0.02688172 28:0.034946237 29:0.09383378 30:0.02688172 31:0.042895442 32:0 33:0.034852547 34:0.0053763441 35:0.048257373 36:0.018817204 37:0.016129032 38:0.040214477 39:0.01344086 40:0.01344086 41:0.002688172 42:0.069705094 43:0.021505376 44:0 45:0.032258065 46:0.08310992 47:0.029569892 48:0.024193548 49:0.045576408 50:0.008064516 51:0.016129032 
32768 1:0.63728814 2:0.11904762 3:0.044368601 4:0.054421769 5:0.020477816 6:0.013651877 7:0.017064846 8:0.088435374 9:0.027303754 10:0.054421769 11:0.0034129693 12:0.010238908 13:0.030716724 14:0.010238908 15:0.081632653 16:0.040955631 17:0.006825939 18:0.023890785 19:0.010238908 20:0.020408163 21:0.013651877 22:0 23:0.034013605 24:0.0068259386 25:0.044217687 26:0.017064846 27:0.003412969 28:0.013651877 29:0.085034014 30:0.034129693 31:0.06462585 32:0.013651877 33:0.057823129 34:0.0068259386 35:0.054421769 36:0.006825939 37:0.017064846 38:0.034013605 39:0.010238908 40:0.010238908 41:0.0034129693 42:0.040816327 43:0.020477816 44:0.0034129693 45:0.006825939 46:0.081632653 47:0.023890785 48:0.013651877 49:0.085034014 50:0.020477816 51:0.037542662 
32768 1:0.9043659 2:0.041666667 3:0.0083507307 4:0.054166667 5:0.018789144 6:0.0083507307 7:0.012526096 8:0.095833333 9:0.037578288 10:0.052083333 11:0.0020876827 12:0.014613779 13:0.033402923 14:0.0020876827 15:0.06875 16:0.004175365 17:0.014613779 18:0.039665971 19:0.010438413 20:0.054166667 21:0.016701461 22:0.012526096 23:0.025 24:0 25:0.079166667 26:0.0041753653 27:0.018789144 28:0.041753653 29:0.12083333 30:0.045929019 31:0.064583333 32:0.010438413 33:0.10208333 34:0.027139875 35:0.0375 36:0.008350731 37:0.018789144 38:0.0125 39:0.0083507307 40:0 41:0 42:0.054166667 43:0.014613779 44:0.0020876827 45:0.016701461 46:0.10208333 47:0.03131524 48:0.010438413 49:0.035416667 50:0.008350731 51:0.0083507307 
32768 1:0.91496063 2:0.042586751 3:0.011058452 4:0.056782334 5:0.023696682 6:0.0078988942 7:0.012638231 8:0.097791798 9:0.031595577 10:0.045741325 11:0.0031595577 12:0.015797788 13:0.025276461 14:0.0015797788 15:0.082018927 16:0.006319115 17:0.022116904 18:0.044233807 19:0.009478673 20:0.066246057 21:0.018957346 22:0.015797788 23:0.033123028 24:0.0063191153 25:0.070977918 26:0.0047393365 27:0.017377567 28:0.036334913 29:0.10094637 30:0.04107425 31:0.075709779 32:0.009478673 33:0.10410095 34:0.030015798 35:0.039432177 36:0.009478673 37:0.018957346 38:0.015772871 39:0.009478673 40:0 41:0.0015797788 42:0.05362776 43:0.014218009 44:0.0047393365 45:0.012638231 46:0.086750789 47:0.028436019 48:0.007898894 49:0.028391167 50:0.006319115 51:0.0063191153 
32768 1:0.91891892 2:0.039097744 3:0.010542169 4:0.052631579 5:0.018072289 6:0.0075301205 7:0.015060241 8:0.093233083 9:0.030120482 10:0.046616541 11:0.0030120482 12:0.016566265 13:0.022590361 14:0.0045180723 15:0.07518797 16:0.006024096 17:0.022590361 18:0.039156627 19:0.00753012 20:0.069172932 21:0.019578313 22:0.018072289 23:0.033082707 24:0.0060240964 25:0.073684211 26:0.0060240964 27:0.016566265 28:0.037650602 29:0.10225564 30:0.042168675 31:0.072180451 32:0.0090361446 33:0.11127819 34:0.034638554 35:0.039097744 36:0.010542169 37:0.021084337 38:0.013533835 39:0.0075301205 40:0.0015060241 41:0.0015060241 42:0.057142857 43:0.015060241 44:0.0045180723 45:0.013554217 46:0.088721805 47:0.028614458 48:0.009036145 49:0.033082707 50:0.00753012 51:0.0075301205 
32768 1:0.95734597 2:0.047619048 3:0.009569378 4:0.028571429 5:0.004784689 6:0.004784689 7:0.004784689 8:0.057142857 9:0.014354067 10:0.066666667 11:0.014354067 12:0.023923445 13:0.019138756 14:0.009569378 15:0.057142857 16:0.014354067 17:0.009569378 18:0.014354067 19:0.019138756 20:0.057142857 21:0.009569378 22:0.019138756 23:0.038095238 24:0.009569378 25:0.066666667 26:0 27:0.004784689 28:0.038277512 29:0.066666667 30:0.028708134 31:0.057142857 32:0.004784689 33:0.076190476 34:0.023923445 35:0.09047619 36:0.019138756 37:0.038277512 38:0.023809524 39:0.009569378 40:0 41:0.014354067 42:0.076190476 43:0.019138756 44:0.019138756 45:0.019138756 46:0.11904762 47:0.019138756 48:0.043062201 49:0.071428571 50:0.023923445 51:0.014354067 
32768 1:0.71146245 2:0.095049505 3:0.025793651 4:0.057425743 5:0.021825397 6:0.0099206349 7:0.021825397 8:0.077227723 9:0.023809524 10:0.057425743 11:0.0079365079 12:0.01984127 13:0.017857143 14:0.011904762 15:0.081188119 16:0.035714286 17:0.007936508 18:0.021825397 19:0.015873016 20:0.027722772 21:0.009920635 22:0 23:0.02970297 24:0.003968254 25:0.077227723 26:0.003968254 27:0.031746032 28:0.01984127 29:0.083168317 30:0.021825397 31:0.041584158 32:0.005952381 33:0.059405941 34:0.017857143 35:0.053465347 36:0.013888889 37:0.013888889 38:0.02970297 39:0.005952381 40:0.005952381 41:0.0079365079 42:0.087128713 43:0.031746032 44:0.0079365079 45:0.033730159 46:0.071287129 47:0.021825397 48:0.015873016 49:0.071287129 50:0.01984127 51:0.021825397 
11647.35203918124 1:0.68893528 2:0.089958159 3:0.027253669 4:0.073221757 5:0.027253669 6:0.0062893082 7:0.016771488 8:0.056485356 9:0.025157233 10:0.085774059 11:0.012578616 12:0.023060797 13:0.023060797 14:0.027253669 15:0.083682008 16:0.020964361 17:0.018867925 18:0.018867925 19:0.025157233 20:0.046025105 21:0.014675052 22:0.01048218 23:0.012552301 24:0.0041928721 25:0.069037657 26:0.020964361 27:0.014675052 28:0.014675052 29:0.071129707 30:0.014675052 31:0.029288703 32:0 33:0.041841004 34:0.0041928721 35:0.043933054 36:0.006289308 37:0.016771488 38:0.060669456 39:0.020964361 40:0.0020964361 41:0.018867925 42:0.064853556 43:0.031446541 44:0.0041928721 45:0.020964361 46:0.075313808 47:0.025157233 48:0.016771488 49:0.09623431 50:0.018867925 51:0.035639413 
6028.916417594184 1:0.13043478 2:0.12307692 3:0.05655527 4:0.051282051 5:0.020565553 6:0.0051413882 7:0.010282776 8:0.084615385 9:0.028277635 10:0.061538462 11:0.01285347 12:0.020565553 13:0.01285347 14:0.015424165 15:0.094871795 16:0.025706941 17:0.020565553 18:0.033419023 19:0.015424165 20:0.064102564 21:0.028277635 22:0.01285347 23:0.017948718 24:0.0025706941 25:0.058974359 26:0.01285347 27:0.01285347 28:0.020565553 29:0.056410256 30:0.010282776 31:0.056410256 32:0.0051413882 33:0.056410256 34:0.010282776 35:0.056410256 36:0.020565553 37:0.017994859 38:0.048717949 39:0.0025706941 40:0.01285347 41:0.015424165 42:0.064102564 43:0.028277635 44:0.0025706941 45:0.015424165 46:0.066666667 47:0.005141388 48:0.010282776 49:0.038461538 50:0.01285347 51:0.0025706941 
32768 1:0.94812165 2:0.041218638 3:0.0089766607 4:0.05734767 5:0.016157989 6:0.0089766607 7:0.012567325 8:0.086021505 9:0.032315978 10:0.035842294 11:0.0017953321 12:0.007181329 13:0.019748654 14:0.0071813285 15:0.084229391 16:0.010771993 17:0.021543986 18:0.037701975 19:0.014362657 20:0.11111111 21:0.030520646 22:0.037701975 23:0.034050179 24:0.012567325 25:0.075268817 26:0.0035906643 27:0.026929982 28:0.034111311 29:0.082437276 30:0.030520646 31:0.075268817 32:0.0089766607 33:0.109319 34:0.032315979 35:0.035842294 36:0.016157989 37:0.010771993 38:0.012544803 39:0.0035906643 40:0.0017953321 41:0.0035906643 42:0.0609319 43:0.023339318 44:0.0017953321 45:0.008976661 46:0.073476703 47:0.014362657 48:0.010771993 49:0.025089606 50:0.008976661 51:0.0017953321 
21841.5529178766 1:0.7706422 2:0.16551724 3:0.066820276 4:0.066666667 5:0.01843318 6:0.0046082949 7:0.006912442 8:0.10804598 9:0.039170507 10:0.03908046 11:0.0069124424 12:0.013824885 13:0.013824885 14:0.0046082949 15:0.07816092 16:0.02764977 17:0.016129032 18:0.025345622 19:0.00921659 20:0.075862069 21:0.02764977 22:0.01843318 23:0.036781609 24:0.0023041475 25:0.04137931 26:0.016129032 27:0.00921659 28:0.013824885 29:0.10114943 30:0.023041475 31:0.04137931 32:0.011520737 33:0.057471264 34:0.011520737 35:0.045977011 36:0.016129032 37:0.016129032 38:0.034482759 39:0.0092165899 40:0.0046082949 41:0.0046082949 42:0.048275862 43:0.025345622 44:0.0092165899 45:0.00921659 46:0.043678161 47:0.025345622 48:0.006912442 49:0.016091954 50:0 51:0 
32768 1:0.78354204 2:0.05734767 3:0.0071813285 4:0.053763441 5:0.023339318 6:0.0053859964 7:0.008976661 8:0.093189964 9:0.028725314 10:0.039426523 11:0.0071813285 12:0.007181329 13:0.017953321 14:0.0071813285 15:0.091397849 16:0.026929982 17:0.016157989 18:0.032315978 19:0.016157989 20:0.078853047 21:0.021543986 22:0.026929982 23:0.03046595 24:0.0035906643 25:0.066308244 26:0.0035906643 27:0.014362657 28:0.032315978 29:0.075268817 30:0.023339318 31:0.08781362 32:0.012567325 33:0.073476703 34:0.012567325 35:0.046594982 36:0.014362657 37:0.017953321 38:0.019713262 39:0.0035906643 40:0.0089766607 41:0.0053859964 42:0.046594982 43:0.019748654 44:0.0089766607 45:0.010771993 46:0.08781362 47:0.012567325 48:0.012567325 49:0.051971326 50:0.019748654 51:0.019748654 
32768 1:0.88073395 2:0.057471264 3:0.020737327 4:0.050574713 5:0.020737327 6:0.0023041475 7:0.01843318 8:0.062068966 9:0.025345622 10:0.08045977 11:0.0092165899 12:0.023041475 13:0.02764977 14:0.020737327 15:0.087356322 16:0.013824885 17:0.013824885 18:0.025345622 19:0.032258065 20:0.057471264 21:0.020737327 22:0.011520737 23:0.0068965517 24:0 25:0.07816092 26:0.013824885 27:0.006912442 28:0.029953917 29:0.062068966 30:0.020737327 31:0.043678161 32:0 33:0.052873563 34:0.011520737 35:0.064367816 36:0.016129032 37:0.023041475 38:0.045977011 39:0.013824885 40:0.0046082949 41:0.016129032 42:0.075862069 43:0.032258065 44:0 45:0.020737327 46:0.10114943 47:0.020737327 48:0.023041475 49:0.073563218 50:0.020737327 51:0.0092165899 
32768 1:0.99208861 2:0.14104596 3:0.087301587 4:0.049128368 5:0.019047619 6:0 7:0.014285714 8:0.080824089 9:0.022222222 10:0.06022187 11:0.011111111 12:0.012698413 13:0.019047619 14:0.017460317 15:0.077654517 16:0.026984127 17:0.014285714 18:0.022222222 19:0.014285714 20:0.045958796 21:0.019047619 22:0.0063492063 23:0.030110935 24:0.011111111 25:0.049128368 26:0.0095238095 27:0.014285714 28:0.014285714 29:0.064976228 30:0.031746032 31:0.049128368 32:0.012698413 33:0.06022187 34:0.0063492063 35:0.061806656 36:0.019047619 37:0.019047619 38:0.047543582 39:0.0063492063 40:0.012698413 41:0.015873016 42:0.058637084 43:0.022222222 44:0.0063492063 45:0.019047619 46:0.066561014 47:0.015873016 48:0.015873016 49:0.057052298 50:0.014285714 51:0.017460317 
31986.7730400924 1:0.36458333 2:0.034782609 3:0.0087108014 4:0.036521739 5:0.012195122 6:0.0034843206 7:0.008710801 8:0.090434783 9:0.024390244 10:0.012173913 11:0 12:0.003484321 13:0.005226481 14:0.0034843206 15:0.052173913 16:0.003484321 17:0.015679443 18:0.027874564 19:0.005226481 20:0.13391304 21:0.017421603 22:0.052264808 23:0.07826087 24:0.031358885 25:0.08173913 26:0.0069686411 27:0.024390244 28:0.031358885 29:0.067826087 30:0.027874564 31:0.11130435 32:0.027874565 33:0.08173913 34:0.019163763 35:0.046956522 36:0.020905923 37:0.015679443 38:0.017391304 39:0.0034843206 40:0.012195122 41:0.0017421603 42:0.064347826 43:0.013937282 44:0.013937282 45:0.010452962 46:0.059130435 47:0.005226481 48:0.010452962 49:0.031304348 50:0.006968641 51:0.0034843206 
32768 1:0.97029703 2:0.087603306 3:0.021523179 4:0.042975207 5:0.013245033 6:0.0049668874 7:0.018211921 8:0.080991736 9:0.026490066 10:0.05785124 11:0.0066225166 12:0.011589404 13:0.024834437 14:0.014900662 15:0.076033058 16:0.011589404 17:0.021523179 18:0.026490066 19:0.016556291 20:0.052892562 21:0.018211921 22:0.013245033 23:0.0099173554 24:0.0033112583 25:0.082644628 26:0.0066225166 27:0.013245033 28:0.041390728 29:0.069421488 30:0.014900662 31:0.076033058 32:0 33:0.059504132 34:0.0099337748 35:0.051239669 36:0.006622517 37:0.01986755 38:0.036363636 39:0.0033112583 40:0.0066225166 41:0.011589404 42:0.049586777 43:0.014900662 44:0.0033112583 45:0.01986755 46:0.10413223 47:0.016556291 48:0.01986755 49:0.062809917 50:0.018211921 51:0.013245033 
32768 1:0.99664992 2:0.083892617 3:0.033613445 4:0.033557047 5:0.011764706 6:0 7:0.01512605 8:0.07885906 9:0.03697479 10:0.070469799 11:0.0050420168 12:0.023529412 13:0.028571429 14:0.013445378 15:0.068791946 16:0.01512605 17:0.011764706 18:0.020168067 19:0.021848739 20:0.041946309 21:0.011764706 22:0.010084034 23:0.0083892617 24:0 25:0.08557047 26:0.0084033613 27:0.020168067 28:0.031932773 29:0.07885906 30:0.023529412 31:0.062080537 32:0.0016806723 33:0.062080537 34:0.020168067 35:0.046979866 36:0.003361345 37:0.026890756 38:0.035234899 39:0.0050420168 40:0.0050420168 41:0.016806723 42:0.067114094 43:0.025210084 44:0.0050420168 45:0.026890756 46:0.10067114 47:0.026890756 48:0.021848739 49:0.075503356 50:0.013445378 51:0.026890756 
1082.510931190432 1:0.6512605 2:0.12622721 3:0.054775281 4:0.063113604 5:0.029494382 6:0.0042134831 7:0.021067416 8:0.079943899 9:0.033707865 10:0.072931276 11:0.014044944 12:0.015449438 13:0.016853933 14:0.026685393 15:0.074333801 16:0.014044944 17:0.021067416 18:0.019662921 19:0.019662921 20:0.039270687 21:0.018258427 22:0.0056179775 23:0.012622721 24:0.0014044944 25:0.064516129 26:0.014044944 27:0.015449438 28:0.014044944 29:0.085553997 30:0.014044944 31:0.026647966 32:0 33:0.057503506 34:0.015449438 35:0.032258065 36:0.002808989 37:0.007022472 38:0.056100982 39:0.018258427 40:0.0070224719 41:0.015449438 42:0.06171108 43:0.019662921 44:0.0042134831 45:0.018258427 46:0.051893408 47:0.023876404 48:0.005617978 49:0.095371669 50:0.014044944 51:0.030898876 
22044.94116447759 1:0.20289855 2:0.072815534 3:0.024390244 4:0.072815534 5:0.029268293 6:0 7:0.029268293 8:0.067961165 9:0.014634146 10:0.063106796 11:0.0048780488 12:0.014634146 13:0.014634146 14:0.029268293 15:0.097087379 16:0.019512195 17:0.009756098 18:0.043902439 19:0.024390244 20:0.048543689 21:0.014634146 22:0.014634146 23:0.014563107 24:0 25:0.077669903 26:0.0097560976 27:0.014634146 28:0.019512195 29:0.072815534 30:0.004878049 31:0.04368932 32:0 33:0.04368932 34:0 35:0.04368932 36:0.014634146 37:0.009756098 38:0.038834951 39:0.014634146 40:0 41:0.014634146 42:0.072815534 43:0.034146341 44:0.014634146 45:0.014634146 46:0.072815534 47:0.024390244 48:0 49:0.097087379 50:0.029268293 51:0.024390244 
32768 1:0.972167 2:0.14940239 3:0.041916168 4:0.061752988 5:0.027944112 6:0.003992016 7:0.013972056 8:0.10358566 9:0.053892216 10:0.067729084 11:0.017964072 12:0.015968064 13:0.017964072 14:0.013972056 15:0.079681275 16:0.037924152 17:0.00998004 18:0.01996008 19:0.011976048 20:0.047808765 21:0.017964072 22:0.013972056 23:0.013944223 24:0.001996008 25:0.051792829 26:0.015968064 27:0.00998004 28:0.013972056 29:0.099601594 30:0.02994012 31:0.041832669 32:0 33:0.047808765 34:0.011976048 35:0.03187251 36:0.001996008 37:0.007984032 38:0.053784861 39:0.0079840319 40:0.0099800399 41:0.0079840319 42:0.039840637 43:0.013972056 44:0.005988024 45:0.011976048 46:0.055776892 47:0.023952096 48:0.005988024 49:0.053784861 50:0.015968064 51:0.017964072 
13504.06582477167 1:0.70982143 2:0.094170404 3:0.022522522 4:0.053811659 5:0.027027027 6:0 7:0.018018018 8:0.080717489 9:0.031531532 10:0.094170404 11:0.013513513 12:0.013513514 13:0.036036036 14:0.031531532 15:0.089686099 16:0.022522523 17:0.009009009 18:0.040540541 19:0.018018018 20:0.035874439 21:0.027027027 22:0.0045045045 23:0 24:0 25:0.067264574 26:0.018018018 27:0.009009009 28:0.027027027 29:0.076233184 30:0.022522523 31:0.053811659 32:0 33:0.02690583 34:0.0045045045 35:0.040358744 36:0.004504505 37:0.009009009 38:0.067264574 39:0.022522522 40:0 41:0.013513513 42:0.044843049 43:0.013513514 44:0 45:0.013513514 46:0.089686099 47:0.036036036 48:0.013513514 49:0.085201794 50:0.018018018 51:0.027027027 
32768 1:0.87927928 2:0.075812274 3:0.014466546 4:0.07400722 5:0.025316456 6:0.016274864 7:0.016274864 8:0.093862816 9:0.03074141 10:0.046931408 11:0.0072332731 12:0.01084991 13:0.014466546 14:0.014466546 15:0.088447653 16:0.027124774 17:0.023508137 18:0.018083183 19:0.019891501 20:0.063176895 21:0.021699819 22:0.016274864 23:0.034296029 24:0.01084991 25:0.059566787 26:0.014466546 27:0.018083183 28:0.012658228 29:0.09566787 30:0.034358047 31:0.050541516 32:0.0036166365 33:0.063176895 34:0.0090415913 35:0.046931408 36:0.009041591 37:0.025316456 38:0.030685921 39:0.014466546 40:0.0036166365 41:0.0054249548 42:0.059566787 43:0.027124774 44:0.0054249548 45:0.016274864 46:0.063176895 47:0.027124774 48:0.012658228 49:0.054151625 50:0.01084991 51:0.019891501 
32768 1:0.95733333 2:0.072192513 3:0.016085791 4:0.056149733 5:0.018766756 6:0.0053619303 7:0.018766756 8:0.07486631 9:0.032171582 10:0.06684492 11:0.0080428954 12:0.013404826 13:0.029490617 14:0.016085791 15:0.088235294 16:0.021447721 17:0.013404826 18:0.024128686 19:0.029490617 20:0.064171123 21:0.029490617 22:0.010723861 23:0.0053475936 24:0.0026809651 25:0.082887701 26:0.0053619303 27:0.016085791 28:0.029490617 29:0.080213904 30:0.024128686 31:0.053475936 32:0 33:0.042780749 34:0.010723861 35:0.037433155 36:0.013404826 37:0.00536193 38:0.032085561 39:0.013404826 40:0.0026809651 41:0.010723861 42:0.064171123 43:0.024128686 44:0 45:0.021447721 46:0.090909091 47:0.026809651 48:0.018766756 49:0.088235294 50:0.026809651 51:0.026809652 
19317.59826713097 1:0.13157895 2:0.030837004 3:0.0088495575 4:0.04845815 5:0.004424779 6:0.0088495575 7:0.013274336 8:0.074889868 9:0.008849558 10:0.022026432 11:0 12:0.008849558 13:0.008849558 14:0.0044247788 15:0.083700441 16:0.022123894 17:0.022123894 18:0.030973451 19:0.008849558 20:0.074889868 21:0.030973451 22:0.013274336 23:0.039647577 24:0.0044247788 25:0.092511013 26:0 27:0.048672566 28:0.044247788 29:0.052863436 30:0.03539823 31:0.088105727 32:0.022123894 33:0.0969163 34:0.017699115 35:0.070484581 36:0.017699115 37:0.030973451 38:0.008810573 39:0.0088495575 40:0 41:0 42:0.079295154 43:0.03539823 44:0.0088495575 45:0.022123894 46:0.10132159 47:0.017699115 48:0.008849558 49:0.035242291 50:0.013274336 51:0.013274336 
32768 1:0.97974684 2:0.068527919 3:0.030534351 4:0.040609137 5:0.017811705 6:0 7:0.007633588 8:0.063451777 9:0.015267176 10:0.050761421 11:0.0050890585 12:0.005089059 13:0.020356234 14:0.020356234 15:0.076142132 16:0.022900763 17:0.015267176 18:0.017811705 19:0.017811705 20:0.081218274 21:0.015267176 22:0.020356234 23:0.017766497 24:0.0076335878 25:0.083756345 26:0.015267176 27:0.022900763 28:0.030534351 29:0.053299492 30:0.022900763 31:0.068527919 32:0.0076335878 33:0.096446701 34:0.040712468 35:0.053299492 36:0.017811705 37:0.022900763 38:0.027918782 39:0.015267176 40:0.0025445293 41:0.0076335878 42:0.065989848 43:0.017811705 44:0.0050890585 45:0.020356234 46:0.093908629 47:0.015267176 48:0.027989822 49:0.058375635 50:0.020356234 51:0.010178117 
4186.31073175341 1:0.92811839 2:0.10169491 3:0.040339703 4:0.044491525 5:0.023354565 6:0.0021231423 7:0.006369427 8:0.093220339 9:0.040339703 10:0.076271186 11:0.010615711 12:0.023354565 13:0.021231423 14:0.021231422 15:0.097457627 16:0.021231423 17:0.012738854 18:0.031847134 19:0.031847134 20:0.059322034 21:0.029723992 22:0.014861996 23:0.0063559322 24:0.0042462845 25:0.05720339 26:0.008492569 27:0.016985138 28:0.014861996 29:0.080508475 30:0.01910828 31:0.046610169 32:0.0021231423 33:0.033898305 34:0.0021231423 35:0.044491525 36:0.010615711 37:0.016985138 38:0.036016949 39:0.0042462845 40:0.010615711 41:0.014861996 42:0.069915254 43:0.027600849 44:0 45:0.01910828 46:0.072033898 47:0.025477707 48:0.016985138 49:0.080508475 50:0.01910828 51:0.033970276 
32768 1:0.91008772 2:0.11868132 3:0.052863436 4:0.041758242 5:0.019823789 6:0.0044052863 7:0.008810573 8:0.083516484 9:0.028634361 10:0.07032967 11:0.015418502 12:0.017621145 13:0.017621145 14:0.019823789 15:0.081318681 16:0.024229075 17:0.008810573 18:0.030837004 19:0.017621145 20:0.059340659 21:0.028634361 22:0.011013216 23:0.010989011 24:0.0088105727 25:0.068131868 26:0.0088105727 27:0.019823789 28:0.013215859 29:0.074725275 30:0.015418502 31:0.054945055 32:0.0022026432 33:0.035164835 34:0 35:0.041758242 36:0.011013216 37:0.015418502 38:0.041758242 39:0.011013216 40:0.0088105727 41:0.0066079295 42:0.063736264 43:0.015418502 44:0 45:0.019823789 46:0.074725275 47:0.028634361 48:0.013215859 49:0.079120879 50:0.028634361 51:0.019823789 
4346.229837250568 1:0.96153846 2:0.0861678 3:0.020454546 4:0.06122449 5:0.018181818 6:0.0022727273 7:0.022727273 8:0.081632653 9:0.027272727 10:0.058956916 11:0.015909091 12:0.006818182 13:0.025 14:0.011363636 15:0.10657596 16:0.036363636 17:0.013636364 18:0.045454545 19:0.011363636 20:0.083900227 21:0.036363636 22:0.025 23:0.013605442 24:0.0045454545 25:0.068027211 26:0.0090909091 27:0.022727273 28:0.018181818 29:0.06122449 30:0.011363636 31:0.058956916 32:0.0045454545 33:0.024943311 34:0.0068181818 35:0.049886621 36:0.018181818 37:0.006818182 38:0.036281179 39:0.011363636 40:0.0045454545 41:0.0090909091 42:0.068027211 43:0.029545455 44:0.0022727273 45:0.013636364 46:0.074829932 47:0.020454545 48:0.025 49:0.065759637 50:0.022727273 51:0.018181818 
32768 1:0.88073395 2:0.082720588 3:0.018416206 4:0.073529412 5:0.034990792 6:0.0036832413 7:0.020257827 8:0.090073529 9:0.027624309 10:0.058823529 11:0.0073664825 12:0.011049724 13:0.020257827 14:0.020257827 15:0.091911765 16:0.023941068 17:0.018416206 18:0.025782689 19:0.023941068 20:0.034926471 21:0.011049724 22:0.0055248619 23:0.023897059 24:0.0055248619 25:0.068014706 26:0.014732965 27:0.016574586 28:0.020257827 29:0.090073529 30:0.02946593 31:0.058823529 32:0.0073664825 33:0.047794118 34:0.0055248619 35:0.049632353 36:0.009208103 37:0.027624309 38:0.042279412 39:0.020257827 40:0.0055248619 41:0.0092081031 42:0.049632353 43:0.023941068 44:0.0055248619 45:0.014732965 46:0.084558824 47:0.02946593 48:0.018416206 49:0.053308824 50:0.016574586 51:0.0073664825 
32768 1:0.93759287 2:0.06547619 3:0.013412817 4:0.052083333 5:0.017883756 6:0.001490313 7:0.011922504 8:0.092261905 9:0.034277198 10:0.0625 11:0.0074515648 12:0.01490313 13:0.022354694 14:0.017883756 15:0.089285714 16:0.020864382 17:0.022354694 18:0.02533532 19:0.020864382 20:0.077380952 21:0.026825633 22:0.020864382 23:0.0074404762 24:0.0029806259 25:0.069940476 26:0.01490313 27:0.019374069 28:0.017883756 29:0.084821429 30:0.026825633 31:0.049107143 32:0.001490313 33:0.05952381 34:0.011922504 35:0.047619048 36:0.007451565 37:0.026825633 38:0.032738095 39:0.010432191 40:0.0044709389 41:0.010432191 42:0.06547619 43:0.028315946 44:0.0029806259 45:0.020864382 46:0.081845238 47:0.023845007 48:0.01490313 49:0.0625 50:0.01490313 51:0.017883756 
2479.474300290228 1:0.38709677 2:0.04 3:0.0046224961 4:0.066153846 5:0.003081664 6:0.063174114 7:0 8:0.076923077 9:0.004622496 10:0.041538462 11:0.001540832 12:0.036979969 13:0.003081664 14:0 15:0.10461539 16:0.029275809 17:0.012326656 18:0.027734977 19:0.035439137 20:0.13692308 21:0.069337442 22:0.030816641 23:0.14769231 24:0.10323575 25:0.004615385 26:0.0030816641 27:0 28:0.001540832 29:0.075384615 30:0.036979969 31:0.14923077 32:0.0092449923 33:0.1 34:0.023112481 35:0.004615385 36:0.003081664 37:0 38:0.006153846 39:0.001540832 40:0 41:0.001540832 42:0.041538462 43:0 44:0.038520801 45:0 46:0.004615385 47:0 48:0.001540832 49:0 50:0 51:0 
32768 1:1 2:0.12405063 3:0.043147208 4:0.050632911 5:0.017766497 6:0 7:0.017766497 8:0.098734177 9:0.045685279 10:0.065822785 11:0.0050761421 12:0.010152284 13:0.027918782 14:0.02284264 15:0.086075949 16:0.020304569 17:0.012690355 18:0.02284264 19:0.030456853 20:0.050632911 21:0.030456853 22:0.012690355 23:0.012658228 24:0.0025380711 25:0.058227848 26:0.010152284 27:0.012690355 28:0.02284264 29:0.10126582 30:0.025380711 31:0.058227848 32:0.010152284 33:0.065822785 34:0.02284264 35:0.025316456 36:0.012690355 37:0.007614213 38:0.027848101 39:0.0076142132 40:0.0025380711 41:0.0025380711 42:0.048101266 43:0.02284264 44:0.0025380711 45:0.015228426 46:0.073417722 47:0.02284264 48:0.012690355 49:0.053164557 50:0.015228426 51:0.012690355 
32768 1:0.73443983 2:0.11642412 3:0.039583333 4:0.066528067 5:0.025 6:0.0041666667 7:0.010416667 8:0.11850312 9:0.0375 10:0.033264033 11:0.0041666667 12:0.010416667 13:0.010416667 14:0.0083333333 15:0.095634096 16:0.035416667 17:0.020833333 18:0.03125 19:0.008333333 20:0.097713098 21:0.047916667 22:0.029166667 23:0.018711019 24:0.00625 25:0.054054054 26:0.010416667 27:0.022916667 28:0.014583333 29:0.0997921 30:0.035416667 31:0.03950104 32:0.0041666667 33:0.072765073 34:0.016666667 35:0.035343035 36:0.0125 37:0.008333333 38:0.024948025 39:0.00625 40:0.00625 41:0.00625 42:0.06029106 43:0.016666667 44:0.0020833333 45:0.022916667 46:0.037422037 47:0.022916667 48:0.004166667 49:0.029106029 50:0.004166667 51:0.0083333333 
11664.41122104401 1:0.76774193 2:0.10344828 3:0.036717063 4:0.025862069 5:0.010799136 6:0.0043196544 7:0.002159827 8:0.073275862 9:0.036717063 10:0.094827586 11:0.017278618 12:0.012958963 13:0.034557235 14:0.030237581 15:0.047413793 16:0.010799136 17:0.008639309 18:0.012958963 19:0.01511879 20:0.045258621 21:0.01511879 22:0.012958963 23:0.0086206897 24:0 25:0.058189655 26:0.0086393089 27:0.010799136 28:0.019438445 29:0.086206897 30:0.017278618 31:0.038793103 32:0 33:0.036637931 34:0.0043196544 35:0.047413793 36:0.006479482 37:0.008639309 38:0.0625 39:0.0043196544 40:0.012958963 41:0.025917927 42:0.047413793 43:0.01511879 44:0.0043196544 45:0.019438445 46:0.090517241 47:0.032397408 48:0.01511879 49:0.13362069 50:0.028077754 51:0.060475162 
9999.367294921061 1:0.13533835 2:0.049056604 3:0.0075757576 4:0.041509434 5:0.007575758 6:0.0075757576 7:0.011363636 8:0.086792453 9:0.015151515 10:0.049056604 11:0.011363636 12:0.007575758 13:0.007575758 14:0.022727273 15:0.071698113 16:0.026515152 17:0.007575758 18:0.03030303 19:0.007575758 20:0.083018868 21:0.018939394 22:0.022727273 23:0.018867925 24:0.0037878788 25:0.094339623 26:0.015151515 27:0.026515152 28:0.037878788 29:0.060377358 30:0.015151515 31:0.083018868 32:0.0075757576 33:0.090566038 34:0.022727273 35:0.041509434 36:0.015151515 37:0.011363636 38:0.041509434 39:0.011363636 40:0.015151515 41:0.011363636 42:0.060377358 43:0.011363636 44:0 45:0.018939394 46:0.083018868 47:0.015151515 48:0.018939394 49:0.045283019 50:0.026515152 51:0 
25526.02666931475 1:0.49608611 2:0.031341822 3:0.0029411765 4:0.042115573 5:0.005882353 6:0.01372549 7:0.009803922 8:0.10871694 9:0.023529412 10:0.014691479 11:0.0029411765 12:0.001960784 13:0.006862745 14:0.0029411765 15:0.059745348 16:0.008823529 17:0.007843137 18:0.040196078 19:0.002941176 20:0.068560235 21:0.014705882 22:0.015686274 23:0.083251714 24:0.042156863 25:0.080313418 26:0.0078431373 27:0.019607843 28:0.045098039 29:0.088148874 30:0.050980392 31:0.14593536 32:0.043137255 33:0.10088149 34:0.016666667 35:0.032321254 36:0.006862745 37:0.016666667 38:0.017629775 39:0.0058823529 40:0.0039215686 41:0.0019607843 42:0.035259549 43:0.004901961 44:0.0098039216 45:0.009803922 46:0.074436827 47:0.008823529 48:0.007843137 49:0.016650343 50:0.005882353 51:0.0019607843 
11011.09073070009 1:0.342711 2:0.033333333 3:0.0025706941 4:0.041025641 5:0.007712082 6:0.01285347 7:0.015424165 8:0.14871795 9:0.025706941 10:0.015384615 11:0.0025706941 12:0 13:0.007712082 14:0.0051413882 15:0.084615385 16:0.01285347 17:0.007712082 18:0.061696658 19:0.002570694 20:0.030769231 21:0.015424165 22:0.0025706941 23:0.069230769 24:0.033419023 25:0.056410256 26:0.0051413882 27:0.007712082 28:0.035989717 29:0.10769231 30:0.06940874 31:0.14871795 32:0.048843188 33:0.12307692 34:0.020565553 35:0.028205128 36:0.007712082 37:0.015424165 38:0.012820513 39:0.0077120823 40:0.0025706941 41:0.0025706941 42:0.020512821 43:0.002570694 44:0.0051413882 45:0.007712082 46:0.066666667 47:0.010282776 48:0.002570694 49:0.012820513 50:0.007712082 51:0 
32768 1:0.94812165 2:0.041218638 3:0.0089766607 4:0.05734767 5:0.016157989 6:0.0089766607 7:0.012567325 8:0.086021505 9:0.032315978 10:0.035842294 11:0.0017953321 12:0.007181329 13:0.019748654 14:0.0071813285 15:0.084229391 16:0.010771993 17:0.021543986 18:0.037701975 19:0.014362657 20:0.11111111 21:0.030520646 22:0.037701975 23:0.034050179 24:0.012567325 25:0.075268817 26:0.0035906643 27:0.026929982 28:0.034111311 29:0.082437276 30:0.030520646 31:0.075268817 32:0.0089766607 33:0.109319 34:0.032315979 35:0.035842294 36:0.016157989 37:0.010771993 38:0.012544803 39:0.0035906643 40:0.0017953321 41:0.0035906643 42:0.0609319 43:0.023339318 44:0.0017953321 45:0.008976661 46:0.073476703 47:0.014362657 48:0.010771993 49:0.025089606 50:0.008976661 51:0.0017953321 
18254.34709688951 1:0.73504273 2:0.011412268 3:0.0014285714 4:0.051355207 5:0.01 6:0.0057142857 7:0.012857143 8:0.064194009 9:0.008571429 10:0.019971469 11:0 12:0.005714286 13:0.011428571 14:0.0028571429 15:0.078459344 16:0.004285714 17:0.03 18:0.034285714 19:0.01 20:0.15691869 21:0.034285714 22:0.057142857 23:0.031383738 24:0.01 25:0.11126962 26:0.0014285714 27:0.037142857 28:0.061428571 29:0.05278174 30:0.024285714 31:0.10128388 32:0.0071428571 33:0.10984308 34:0.034285714 35:0.031383738 36:0.012857143 37:0.012857143 38:0.004279601 39:0.0014285714 40:0.0014285714 41:0 42:0.068473609 43:0.017142857 44:0.0042857143 45:0.014285714 46:0.089871612 47:0.007142857 48:0.017142857 49:0.017118402 50:0.004285714 51:0 
19523.88041147023 1:0.8650519 2:0.038194444 3:0.0069686411 4:0.079861111 5:0.034843206 6:0.0069686411 7:0.027874564 8:0.052083333 9:0.013937282 10:0.065972222 11:0.0069686411 12:0.006968641 13:0.024390244 14:0.027874565 15:0.10069444 16:0.017421603 17:0.027874564 18:0.020905923 19:0.034843206 20:0.055555556 21:0.027874564 22:0.017421603 23:0.017361111 24:0.0069686411 25:0.072916667 26:0.010452962 27:0.013937282 28:0.031358885 29:0.065972222 30:0.017421603 31:0.048611111 32:0.0069686411 33:0.072916667 34:0.017421603 35:0.052083333 36:0.010452962 37:0.027874564 38:0.03125 39:0.010452962 40:0.0034843206 41:0.010452962 42:0.0625 43:0.020905923 44:0.0034843206 45:0.024390244 46:0.10069444 47:0.024390244 48:0.027874564 49:0.083333333 50:0.017421603 51:0.027874565 
17590.95754696043 1:0.97861635 2:0.071788413 3:0.020176545 4:0.054156171 5:0.01261034 6:0.0063051702 7:0.022698613 8:0.060453401 9:0.017654477 10:0.093198992 11:0.037831021 12:0.008827238 13:0.021437579 14:0.025220681 15:0.061712846 16:0.017654477 17:0.01261034 18:0.020176545 19:0.011349306 20:0.040302267 21:0.01261034 22:0.010088272 23:0.0075566751 24:0 25:0.089420655 26:0.017654477 27:0.020176545 28:0.029003783 29:0.06675063 30:0.011349306 31:0.042821159 32:0 33:0.040302267 34:0.0088272383 35:0.049118388 36:0.008827238 37:0.020176545 38:0.079345088 39:0.018915511 40:0.0075662043 41:0.035308953 42:0.061712846 43:0.020176545 44:0.001261034 45:0.029003783 46:0.091939547 47:0.027742749 48:0.026481715 49:0.089420655 50:0.020176545 51:0.031525851 
32768 1:0.91522491 2:0.077989601 3:0.022569444 4:0.043327556 5:0.012152778 6:0.0052083333 7:0.013888889 8:0.077989601 9:0.03125 10:0.058925477 11:0.0034722222 12:0.013888889 13:0.026041667 14:0.015625 15:0.071057192 16:0.024305556 17:0.003472222 18:0.022569444 19:0.020833333 20:0.064124783 21:0.022569444 22:0.010416667 23:0.025996534 24:0.0034722222 25:0.074523397 26:0.0034722222 27:0.024305556 28:0.024305556 29:0.08492201 30:0.027777778 31:0.065857886 32:0.0017361111 33:0.079722704 34:0.022569444 35:0.03812825 36:0.008680556 37:0.012152778 38:0.022530329 39:0.0017361111 40:0.0052083333 41:0.0069444444 42:0.062391681 43:0.020833333 44:0.015625 45:0.012152778 46:0.086655113 47:0.022569444 48:0.010416667 49:0.065857886 50:0.024305556 51:0.017361111 
32768 1:0.97222222 2:0.063079777 3:0.014869888 4:0.059369202 5:0.024163569 6:0.0055762082 7:0.018587361 8:0.064935065 9:0.026022305 10:0.081632653 11:0.011152416 12:0.020446097 13:0.020446097 14:0.027881041 15:0.092764378 16:0.014869888 17:0.020446097 18:0.024163569 19:0.033457249 20:0.07606679 21:0.031598513 22:0.024163569 23:0.0055658627 24:0 25:0.07606679 26:0.011152416 27:0.020446097 28:0.018587361 29:0.057513915 30:0.011152416 31:0.040816327 32:0 33:0.040816327 34:0.0074349442 35:0.046382189 36:0.005576208 37:0.00929368 38:0.05380334 39:0.014869888 40:0.011152416 41:0.014869888 42:0.074211503 43:0.018587361 44:0 45:0.020446097 46:0.074211503 47:0.014869888 48:0.020446097 49:0.092764378 50:0.026022305 51:0.027881041 
32768 1:0.90967742 2:0.090517241 3:0.030237581 4:0.049568966 5:0.012958963 6:0 7:0.021598272 8:0.094827586 9:0.03887689 10:0.075431034 11:0.01511879 12:0.021598272 13:0.025917927 14:0.012958963 15:0.07112069 16:0.017278618 17:0.01511879 18:0.025917927 19:0.012958963 20:0.047413793 21:0.010799136 22:0.0064794816 23:0.0086206897 24:0.0021598272 25:0.088362069 26:0.012958963 27:0.021598272 28:0.021598272 29:0.088362069 30:0.019438445 31:0.047413793 32:0 33:0.034482759 34:0.0043196544 35:0.038793103 36:0.010799136 37:0.006479482 38:0.0625 39:0.010799136 40:0.017278618 41:0.01511879 42:0.068965517 43:0.030237581 44:0.0064794816 45:0.023758099 46:0.07112069 47:0.025917927 48:0.008639309 49:0.0625 50:0.017278618 51:0.010799136 
5902.677266471538 1:0.35703246 2:0.074303406 3:0.024806202 4:0.035603715 5:0.013953488 6:0.0015503876 7:0.003100775 8:0.057275542 9:0.013953488 10:0.086687307 11:0.021705426 12:0.007751938 13:0.017054264 14:0.040310077 15:0.069659443 16:0.020155039 17:0.007751938 18:0.020155039 19:0.021705426 20:0.07120743 21:0.021705426 22:0.017054264 23:0.015479876 24:0.0046511628 25:0.069659443 26:0.0093023256 27:0.023255814 28:0.021705426 29:0.046439628 30:0.012403101 31:0.046439628 32:0.0015503876 33:0.044891641 34:0.010852713 35:0.049535604 36:0.010852713 37:0.021705426 38:0.06501548 39:0.012403101 40:0.012403101 41:0.021705426 42:0.072755418 43:0.023255814 44:0.0046511628 45:0.027906977 46:0.069659443 47:0.021705426 48:0.013953488 49:0.125387 50:0.009302326 51:0.058914729 
13736.3836645991 1:0.52866242 2:0.093617021 3:0.025586354 4:0.034042553 5:0.014925373 6:0.0021321962 7:0.010660981 8:0.10851064 9:0.0554371 10:0.085106383 11:0.031982942 12:0.012793177 13:0.021321962 14:0.019189766 15:0.04893617 16:0.006396588 17:0.006396588 18:0.014925373 19:0.021321962 20:0.040425532 21:0.008528785 22:0.014925373 23:0.012765957 24:0.0021321962 25:0.061702128 26:0.012793177 27:0.017057569 28:0.021321962 29:0.11276596 30:0.031982942 31:0.036170213 32:0.0042643923 33:0.070212766 34:0.014925373 35:0.042553191 36:0.008528785 37:0.008528785 38:0.068085106 39:0.010660981 40:0.021321962 41:0.021321962 42:0.05106383 43:0.008528785 44:0.0063965885 45:0.021321962 46:0.070212766 47:0.014925373 48:0.025586354 49:0.063829787 50:0.019189765 51:0.019189766 
6126.690673504834 1:0.44954128 2:0.1595092 3:0.043076923 4:0.052147239 5:0.027692308 6:0 7:0.021538462 8:0.09202454 9:0.052307692 10:0.079754601 11:0.024615385 12:0.009230769 13:0.030769231 14:0.015384615 15:0.055214724 16:0.021538462 17:0.006153846 18:0.021538462 19:0.006153846 20:0.030674847 21:0.012307692 22:0.0061538462 23:0.0030674847 24:0 25:0.070552147 26:0.018461538 27:0.015384615 28:0.015384615 29:0.10736196 30:0.021538462 31:0.027607362 32:0 33:0.04601227 34:0.0061538462 35:0.036809816 36:0.015384615 37:0.006153846 38:0.061349693 39:0.0092307692 40:0.0092307692 41:0.015384615 42:0.049079755 43:0.006153846 44:0.0030769231 45:0.030769231 46:0.073619632 47:0.033846154 48:0.012307692 49:0.055214724 50:0.021538462 51:0.012307692 
32768 1:0.72148541 2:0.11170213 3:0.04 4:0.066489362 5:0.04 6:0 7:0.016 8:0.093085106 9:0.04 10:0.074468085 11:0.013333333 12:0.010666667 13:0.026666667 14:0.024 15:0.087765957 16:0.021333333 17:0.010666667 18:0.037333333 19:0.018666667 20:0.034574468 21:0.018666667 22:0.0053333333 23:0.0026595745 24:0 25:0.045212766 26:0.0053333333 27:0.008 28:0.013333333 29:0.10638298 30:0.021333333 31:0.042553191 32:0 33:0.07712766 34:0.013333333 35:0.026595745 36:0.005333333 37:0.010666667 38:0.039893617 39:0.013333333 40:0.013333333 41:0.008 42:0.029255319 43:0.008 44:0 45:0.008 46:0.079787234 47:0.029333333 48:0.008 49:0.082446809 50:0.029333333 51:0.037333333 
32768 1:0.97546012 2:0.12530712 3:0.049200492 4:0.057739558 5:0.027060271 6:0.0024600246 7:0.013530135 8:0.068796069 9:0.018450185 10:0.07002457 11:0.0049200492 12:0.011070111 13:0.024600246 14:0.029520295 15:0.090909091 16:0.040590406 17:0.013530135 18:0.018450185 19:0.018450185 20:0.038083538 21:0.020910209 22:0.0086100861 23:0.013513513 24:0.0036900369 25:0.054054054 26:0.0073800738 27:0.014760148 28:0.01599016 29:0.076167076 30:0.019680197 31:0.045454545 32:0.0049200492 33:0.047911548 34:0.0061500615 35:0.052825553 36:0.011070111 37:0.024600246 38:0.029484029 39:0.012300123 40:0.0012300123 41:0.0073800738 42:0.055282555 43:0.023370234 44:0.0036900369 45:0.019680197 46:0.092137592 47:0.034440344 48:0.014760148 49:0.082309582 50:0.027060271 51:0.028290283 
32768 1:0.65951743 2:0.099462366 3:0.04851752 4:0.053763441 5:0.013477089 6:0.0026954178 7:0.018867925 8:0.069892473 9:0.026954178 10:0.059139785 11:0.010781671 12:0.010781671 13:0.02425876 14:0.013477089 15:0.059139785 16:0.02425876 17:0.013477089 18:0.018867925 19:0.002695418 20:0.061827957 21:0.021563342 22:0.016172507 23:0.016129032 24:0.0026954178 25:0.080645161 26:0.013477089 27:0.016172507 28:0.026954178 29:0.067204301 30:0.016172507 31:0.048387097 32:0.0053908356 33:0.056451613 34:0.013477089 35:0.053763441 36:0.010781671 37:0.013477089 38:0.059139785 39:0.013477089 40:0.010781671 41:0.02425876 42:0.053763441 43:0.008086253 44:0.0026954178 45:0.026954178 46:0.083333333 47:0.021563342 48:0.018867925 49:0.077956989 50:0.018867925 51:0.02425876 
32768 1:0.67689531 2:0.119349 3:0.047101449 4:0.05244123 5:0.019927536 6:0.0072463768 7:0.019927536 8:0.070524412 9:0.023550725 10:0.081374322 11:0.023550725 12:0.018115942 13:0.02173913 14:0.018115942 15:0.063291139 16:0.014492754 17:0.009057971 18:0.018115942 19:0.02173913 20:0.034358047 21:0.016304348 22:0.0036231884 23:0.014466546 24:0.0036231884 25:0.065099458 26:0.0072463768 27:0.010869565 28:0.019927536 29:0.08318264 30:0.010869565 31:0.032549729 32:0 33:0.034358047 34:0 35:0.057866184 36:0.014492754 37:0.019927536 38:0.057866184 39:0.016304348 40:0.009057971 41:0.014492754 42:0.059674503 43:0.016304348 44:0.0054347826 45:0.019927536 46:0.088607595 47:0.030797101 48:0.023550725 49:0.084990958 50:0.027173913 51:0.028985507 
32768 1:0.98461539 2:0.11986301 3:0.044596913 4:0.056506849 5:0.02915952 6:0 7:0.018867925 8:0.10958904 9:0.04974271 10:0.061643836 11:0.0068610635 12:0.006861063 13:0.027444254 14:0.02058319 15:0.087328767 16:0.027444254 17:0.015437393 18:0.032590051 19:0.012006861 20:0.034246575 21:0.018867925 22:0.0085763293 23:0.0017123288 24:0 25:0.059931507 26:0.010291595 27:0.013722127 28:0.022298456 29:0.099315068 30:0.02915952 31:0.049657534 32:0.0017152659 33:0.051369863 34:0.010291595 35:0.039383562 36:0.005145798 37:0.010291595 38:0.039383562 39:0.0085763293 40:0.012006861 41:0.012006861 42:0.042808219 43:0.015437393 44:0 45:0.012006861 46:0.078767123 47:0.025728988 48:0.015437393 49:0.068493151 50:0.018867925 51:0.022298456 
32768 1:0.94636015 2:0.13422819 3:0.055662188 4:0.046021093 5:0.017274472 6:0.0019193858 7:0.015355086 8:0.10354746 9:0.03646833 10:0.053691275 11:0.014395394 12:0.011516315 13:0.018234165 14:0.009596929 15:0.069990412 16:0.023992322 17:0.005758157 18:0.02975048 19:0.010556622 20:0.059443912 21:0.023992322 22:0.021113244 23:0.0076701822 24:0 25:0.06232023 26:0.009596929 27:0.012476008 28:0.028790787 29:0.095877277 30:0.020153551 31:0.038350911 32:0.0028790787 33:0.056567593 34:0.0086372361 35:0.052732502 36:0.017274472 37:0.013435701 38:0.038350911 39:0.0086372361 40:0.0076775432 41:0.012476008 42:0.055608821 43:0.018234165 44:0.0019193858 45:0.018234165 46:0.075743049 47:0.027831094 48:0.016314779 49:0.049856184 50:0.014395393 51:0.013435701 
29064.13751592569 1:0.98809524 2:0.053677932 3:0.017928287 4:0.053677932 5:0.029880478 6:0 7:0.015936255 8:0.045725646 9:0.017928287 10:0.083499006 11:0.017928287 12:0.003984064 13:0.047808765 14:0.013944223 15:0.079522863 16:0.009960159 17:0.015936255 18:0.023904382 19:0.029880478 20:0.043737575 21:0.015936255 22:0.0099601594 23:0.0059642147 24:0 25:0.055666004 26:0.0079681275 27:0.009960159 28:0.019920319 29:0.059642147 30:0.007968127 31:0.045725646 32:0.0039840637 33:0.085487078 34:0.03187251 35:0.089463221 36:0.007968127 37:0.049800797 38:0.043737575 39:0.0079681275 40:0.0059760956 41:0.023904383 42:0.043737575 43:0.011952191 44:0.0019920319 45:0.009960159 46:0.14115308 47:0.021912351 48:0.059760956 49:0.069582505 50:0.023904382 51:0.017928287 
32768 1:0.97104677 2:0.066889632 3:0.016741071 4:0.056856187 5:0.017857143 6:0.0055803571 7:0.025669643 8:0.090301003 9:0.027901786 10:0.062430323 11:0.010044643 12:0.014508929 13:0.016741071 14:0.021205357 15:0.090301003 16:0.014508929 17:0.018973214 18:0.033482143 19:0.0234375 20:0.054626533 21:0.022321429 22:0.013392857 23:0.013377926 24:0.0022321429 25:0.081382386 26:0.015625 27:0.0234375 28:0.025669643 29:0.070234114 30:0.027901786 31:0.061315496 32:0.0022321429 33:0.053511706 34:0.011160714 35:0.045707915 36:0.008928571 37:0.018973214 38:0.049052397 39:0.013392857 40:0.0078125 41:0.011160714 42:0.066889632 43:0.0234375 44:0.0022321429 45:0.021205357 46:0.073578595 47:0.014508929 48:0.021205357 49:0.063545151 50:0.012276786 51:0.014508929 
32768 1:0.97169374 2:0.02553389 3:0.00510915 4:0.056174559 5:0.021365536 6:0.010682768 7:0.006967023 8:0.076601671 9:0.018114259 10:0.026462396 11:0.0023223409 12:0.007431491 13:0.013005109 14:0.0037157455 15:0.086350975 16:0.007431491 17:0.024616814 18:0.043660009 19:0.010682768 20:0.12163417 21:0.031583837 22:0.041337668 23:0.04178273 24:0.0083604273 25:0.081708449 26:0.0027868091 27:0.032512773 28:0.037621923 29:0.064995357 30:0.021830005 31:0.085886722 32:0.0088248955 33:0.10352832 34:0.032048305 35:0.04549675 36:0.016256386 37:0.019507664 38:0.008356546 39:0.0013934046 40:0.0027868091 41:0.0023223409 42:0.06731662 43:0.016256386 44:0.0065025546 45:0.014398514 46:0.077994429 47:0.01532745 48:0.011147236 49:0.030176416 50:0.007895959 51:0.0083604273 
32768 1:0.96734694 2:0.027777778 3:0.0057236304 4:0.046568627 5:0.013082584 6:0.0049059689 7:0.011447261 8:0.083333333 9:0.017988553 10:0.020424837 11:0 12:0.007358953 13:0.009811938 14:0.003270646 15:0.080882353 16:0.008994276 17:0.022894522 18:0.041700736 19:0.007358953 20:0.12908497 21:0.031071137 22:0.047424366 23:0.051470588 24:0.017988553 25:0.078431373 26:0.0057236304 27:0.024529845 28:0.040883074 29:0.055555556 30:0.02207686 31:0.10947712 32:0.021259199 33:0.11846405 34:0.03843009 35:0.04003268 36:0.014717907 37:0.013900245 38:0.013888889 39:0.0024529845 40:0.0073589534 41:0.0024529845 42:0.054738562 43:0.012264922 44:0.0024529845 45:0.011447261 46:0.070261438 47:0.008994276 48:0.011447261 49:0.019607843 50:0.00572363 51:0.003270646 
22816.04800941198 1:0.65397924 2:0.10763889 3:0.027874565 4:0.072916667 5:0.038327526 6:0.0034843206 7:0.017421603 8:0.069444444 9:0.020905923 10:0.048611111 11:0.0069686411 12:0.006968641 13:0.024390244 14:0.010452962 15:0.10069444 16:0.038327526 17:0.010452962 18:0.024390244 19:0.027874564 20:0.097222222 21:0.031358885 22:0.038327526 23:0.013888889 24:0.0034843206 25:0.069444444 26:0.010452962 27:0.020905923 28:0.020905923 29:0.069444444 30:0.006968641 31:0.052083333 32:0 33:0.041666667 34:0.013937282 35:0.045138889 36:0.010452962 37:0.024390244 38:0.024305556 39:0.010452962 40:0.0034843206 41:0 42:0.055555556 43:0.020905923 44:0 45:0.010452962 46:0.083333333 47:0.027874564 48:0.013937282 49:0.048611111 50:0.013937282 51:0.010452962 
13955.44142911271 1:0.575 2:0.13059034 3:0.050179212 4:0.071556351 5:0.03046595 6:0.0035842294 7:0.016129032 8:0.075134168 9:0.035842294 10:0.078711986 11:0.025089606 12:0.017921147 13:0.010752688 14:0.025089606 15:0.091234347 16:0.03046595 17:0.014336918 18:0.025089606 19:0.021505376 20:0.060822898 21:0.03046595 22:0.0053763441 23:0.012522361 24:0.0035842294 25:0.066189624 26:0.019713262 27:0.021505376 28:0.016129032 29:0.075134168 30:0.016129032 31:0.033989267 32:0 33:0.04293381 34:0.0053763441 35:0.025044723 36:0.003584229 37:0.005376344 38:0.059033989 39:0.025089606 40:0.010752688 41:0.0071684588 42:0.064400716 43:0.014336918 44:0.0035842294 45:0.019713262 46:0.046511628 47:0.017921147 48:0.007168459 49:0.066189624 50:0.014336918 51:0.021505376 
32768 1:0.96575343 2:0.14874142 3:0.05733945 4:0.04805492 5:0.025229358 6:0.002293578 7:0.01146789 8:0.084668192 9:0.025229358 10:0.089244851 11:0.018348624 12:0.016055046 13:0.027522936 14:0.027522936 15:0.066361556 16:0.032110092 17:0.002293578 18:0.020642202 19:0.01146789 20:0.029748284 21:0.009174312 22:0.0068807339 23:0.013729977 24:0 25:0.04805492 26:0.0091743119 27:0.009174312 28:0.013761468 29:0.1006865 30:0.02293578 31:0.036613272 32:0.002293578 33:0.057208238 34:0.013761468 35:0.034324943 36:0.004587156 37:0.009174312 38:0.054919908 39:0.0091743119 40:0.0068807339 41:0.018348624 42:0.043478261 43:0.013761468 44:0.0068807339 45:0.01146789 46:0.073226545 47:0.03440367 48:0.013761468 49:0.070938215 50:0.02293578 51:0.018348624 
22321.35126926903 1:0.94890511 2:0.14634146 3:0.053789731 4:0.041463415 5:0.014669927 6:0 7:0.017114914 8:0.082926829 9:0.039119804 10:0.090243902 11:0.017114914 12:0.017114914 13:0.036674817 14:0.019559902 15:0.065853659 16:0.014669927 17:0.009779951 18:0.019559902 19:0.02200489 20:0.041463415 21:0.029339853 22:0.0097799511 23:0.0024390244 24:0 25:0.051219512 26:0.017114914 27:0.009779951 28:0.012224939 29:0.090243902 30:0.009779951 31:0.031707317 32:0.0024449878 33:0.046341463 34:0.014669927 35:0.043902439 36:0.007334963 37:0.007334963 38:0.058536585 39:0.0048899756 40:0.012224939 41:0.0097799511 42:0.046341463 43:0.012224939 44:0 45:0.019559902 46:0.080487805 47:0.029339853 48:0.02200489 49:0.080487805 50:0.024449878 51:0.026894866 
4600.400129085656 1:0.3847487 2:0.065972222 3:0.024347826 4:0.052083333 5:0.020869565 6:0.0086956522 7:0.015652174 8:0.074652778 9:0.020869565 10:0.029513889 11:0.0034782609 12:0.010434783 13:0.006956522 14:0.0086956522 15:0.069444444 16:0.020869565 17:0.020869565 18:0.022608696 19:0.005217391 20:0.067708333 21:0.015652174 22:0.015652174 23:0.048611111 24:0.0069565217 25:0.071180556 26:0.0017391304 27:0.019130435 28:0.034782609 29:0.065972222 30:0.020869565 31:0.085069444 32:0.019130435 33:0.10763889 34:0.03826087 35:0.052083333 36:0.003478261 37:0.019130435 38:0.022569444 39:0.0086956522 40:0.0034782609 41:0.0052173913 42:0.052083333 43:0.015652174 44:0.0069565217 45:0.008695652 46:0.079861111 47:0.022608696 48:0.013913043 49:0.055555556 50:0.019130435 51:0.010434783 
2667.935072901868 1:0.086642599 2:0.15942029 3:0.087272727 4:0.065217391 5:0.032727273 6:0 7:0.018181818 8:0.10869565 9:0.036363636 10:0.032608696 11:0.010909091 12:0.014545455 13:0.007272727 14:0 15:0.076086957 16:0.04 17:0.010909091 18:0.025454545 19:0 20:0.047101449 21:0.018181818 22:0.0072727273 23:0.018115942 24:0 25:0.072463768 26:0.010909091 27:0.021818182 28:0.029090909 29:0.10507246 30:0.069090909 31:0.057971014 32:0.0036363636 33:0.072463768 34:0.018181818 35:0.028985507 36:0.003636364 37:0.014545455 38:0.028985507 39:0.0072727273 40:0 41:0.0072727273 42:0.039855072 43:0.010909091 44:0.0072727273 45:0.014545455 46:0.065217391 47:0.04 48:0.003636364 49:0.02173913 50:0.014545455 51:0 
32768 1:0.81216458 2:0.14695341 3:0.061041293 4:0.071684588 5:0.041292639 6:0.0017953321 7:0.016157989 8:0.10752688 9:0.037701975 10:0.050179211 11:0.0089766607 12:0.010771993 13:0.021543986 14:0.0089766607 15:0.084229391 16:0.032315978 17:0.017953321 18:0.026929982 19:0.007181329 20:0.037634409 21:0.014362657 22:0.0035906643 23:0.0071684588 24:0.0017953321 25:0.053763441 26:0.0089766607 27:0.008976661 28:0.014362657 29:0.094982079 30:0.02513465 31:0.034050179 32:0 33:0.053763441 34:0.014362657 35:0.044802867 36:0.005385996 37:0.012567325 38:0.050179211 39:0.012567325 40:0.012567325 41:0.0071813285 42:0.039426523 43:0.016157989 44:0.0017953321 45:0.010771993 46:0.0609319 47:0.026929982 48:0.007181329 49:0.062724014 50:0.012567325 51:0.021543986 
32768 1:0.96946565 2:0.087870105 3:0.033460803 4:0.054441261 5:0.014340344 6:0.0038240918 7:0.013384321 8:0.071633238 9:0.018164436 10:0.063992359 11:0.015296367 12:0.006692161 13:0.020076482 14:0.021988528 15:0.06112703 16:0.013384321 17:0.012428298 18:0.022944551 19:0.012428298 20:0.065902579 21:0.023900574 22:0.018164436 23:0.0085959885 24:0 25:0.067812798 26:0.010516252 27:0.014340344 28:0.023900574 29:0.076408787 30:0.022944551 31:0.037249284 32:0.0019120459 33:0.070678128 34:0.013384321 35:0.06112703 36:0.009560229 37:0.03250478 38:0.053486151 39:0.011472275 40:0.0066921606 41:0.011472275 42:0.045845272 43:0.010516252 44:0.0019120459 45:0.019120459 46:0.093600764 47:0.022944551 48:0.02581262 49:0.080229226 50:0.017208413 51:0.028680688 
32768 1:0.93323442 2:0.063893016 3:0.017857143 4:0.052005944 5:0.022321429 6:0.0074404762 7:0.010416667 8:0.059435364 9:0.020833333 10:0.059435364 11:0.0089285714 12:0.013392857 13:0.019345238 14:0.017857143 15:0.072808321 16:0.016369048 17:0.017857143 18:0.014880952 19:0.023809524 20:0.069836553 21:0.019345238 22:0.017857143 23:0.028231798 24:0.005952381 25:0.084695394 26:0.010416667 27:0.017857143 28:0.041666667 29:0.0653789 30:0.020833333 31:0.068350669 32:0.0029761905 33:0.075780089 34:0.022321429 35:0.054977712 36:0.014880952 37:0.029761905 38:0.03268945 39:0.005952381 40:0.005952381 41:0.011904762 42:0.0653789 43:0.016369048 44:0.0074404762 45:0.020833333 46:0.10104012 47:0.022321429 48:0.026785714 49:0.046062407 50:0.010416667 51:0.010416667 
32768 1:0.99786325 2:0.12633833 3:0.032188841 4:0.070663812 5:0.030042918 6:0.0042918455 7:0.019313305 8:0.094218415 9:0.0472103 10:0.085653105 11:0.030042919 12:0.017167382 13:0.019313305 14:0.019313305 15:0.092077088 16:0.0472103 17:0.017167382 18:0.021459227 19:0.006437768 20:0.04496788 21:0.019313305 22:0.015021459 23:0.010706638 24:0 25:0.055674518 26:0.017167382 27:0.015021459 28:0.012875536 29:0.085653105 30:0.025751073 31:0.032119914 32:0.0042918455 33:0.03640257 34:0.0021459227 35:0.038543897 36:0.010729614 37:0.006437768 38:0.072805139 39:0.010729614 40:0.015021459 41:0.019313305 42:0.055674518 43:0.025751073 44:0.0021459227 45:0.017167382 46:0.049250535 47:0.017167382 48:0.012875536 49:0.049250535 50:0.010729614 51:0.0064377682 
2826.331773910337 1:0.33707865 2:0.14285714 3:0.067924528 4:0.086466165 5:0.037735849 6:0.0037735849 7:0.026415094 8:0.078947368 9:0.026415094 10:0.041353383 11:0.011320755 12:0.01509434 13:0.00754717 14:0.0075471698 15:0.093984962 16:0.041509434 17:0.01509434 18:0.026415094 19:0.011320755 20:0.067669173 21:0.033962264 22:0.01509434 23:0.011278195 24:0 25:0.067669173 26:0.0075471698 27:0.01509434 28:0.030188679 29:0.082706767 30:0.033962264 31:0.041353383 32:0.0037735849 33:0.04887218 34:0 35:0.041353383 36:0.003773585 37:0.011320755 38:0.033834586 39:0.011320755 40:0 41:0 42:0.045112782 43:0.011320755 44:0 45:0.022641509 46:0.071428571 47:0.022641509 48:0.00754717 49:0.045112782 50:0.022641509 51:0.011320755 
11044.28746372098 1:0.5409015 2:0.13210702 3:0.056951424 4:0.071906355 5:0.030150754 6:0.0016750419 7:0.025125628 8:0.06187291 9:0.020100503 10:0.06187291 11:0.018425461 12:0.005025126 13:0.021775544 14:0.016750419 15:0.068561873 16:0.020100503 17:0.020100503 18:0.015075377 19:0.013400335 20:0.043478261 21:0.023450586 22:0.0067001675 23:0.008361204 24:0.0016750419 25:0.068561873 26:0.0050251256 27:0.011725293 28:0.016750419 29:0.075250836 30:0.005025126 31:0.031772575 32:0.0016750419 33:0.043478261 34:0.011725293 35:0.040133779 36:0.003350084 37:0.013400335 38:0.051839465 39:0.013400335 40:0.0067001675 41:0.015075377 42:0.04180602 43:0.008375209 44:0.0050251256 45:0.015075377 46:0.076923077 47:0.030150754 48:0.015075377 49:0.12207358 50:0.025125628 51:0.056951424 
25004.78473692367 1:0.95280236 2:0.14792899 3:0.06231454 4:0.062130178 5:0.035608309 6:0 7:0.008902077 8:0.085798817 9:0.03264095 10:0.079881657 11:0.017804154 12:0.011869436 13:0.029673591 14:0.020771513 15:0.088757396 16:0.035608309 17:0.011869436 18:0.026706231 19:0.014836795 20:0.038461538 21:0.017804154 22:0.0059347181 23:0.0029585799 24:0.0029673591 25:0.053254438 26:0.0089020772 27:0.020771513 28:0.011869436 29:0.082840237 30:0.017804154 31:0.035502959 32:0 33:0.068047337 34:0.023738872 35:0.032544379 36:0.002967359 37:0.008902077 38:0.056213018 39:0.017804154 40:0.0089020772 41:0.0089020772 42:0.047337278 43:0.026706231 44:0 45:0.014836795 46:0.062130178 47:0.017804154 48:0.005934718 49:0.056213018 50:0.011869436 51:0.017804154 
9111.265135882401 1:0.23185012 2:0.035211268 3:0.0047058824 4:0.042253521 5:0.014117647 6:0.0070588235 7:0.011764706 8:0.0657277 9:0.016470588 10:0.046948357 11:0.0023529412 12:0.016470588 13:0.007058824 14:0.021176471 15:0.082159624 16:0.014117647 17:0.018823529 18:0.030588235 19:0.018823529 20:0.093896714 21:0.032941176 22:0.018823529 23:0.028169014 24:0.011764706 25:0.093896714 26:0.0070588235 27:0.037647059 28:0.028235294 29:0.049295775 30:0.018823529 31:0.077464789 32:0.0094117647 33:0.075117371 34:0.018823529 35:0.042253521 36:0.007058824 37:0.021176471 38:0.023474178 39:0.0047058824 40:0.0047058824 41:0.0094117647 42:0.084507042 43:0.023529412 44:0.0047058824 45:0.023529412 46:0.077464789 47:0.011764706 48:0.011764706 49:0.082159624 50:0.021176471 51:0.028235294 
13777.04161144152 1:0.64622641 2:0.037914692 3:0 4:0.08056872 5:0.019047619 6:0.014285714 7:0.023809524 8:0.061611374 9:0.019047619 10:0.056872038 11:0.014285714 12:0.023809524 13:0.014285714 14:0.0047619048 15:0.090047393 16:0.00952381 17:0.019047619 18:0.033333333 19:0.023809524 20:0.090047393 21:0.019047619 22:0.023809524 23:0.014218009 24:0.0047619048 25:0.099526066 26:0.019047619 27:0.014285714 28:0.033333333 29:0.071090047 30:0.014285714 31:0.042654028 32:0 33:0.066350711 34:0.023809524 35:0.028436019 36:0.004761905 37:0.004761905 38:0.042654028 39:0.014285714 40:0 41:0.023809524 42:0.08056872 43:0.038095238 44:0 45:0.014285714 46:0.066350711 47:0.019047619 48:0.014285714 49:0.071090047 50:0.014285714 51:0.0095238095 
17728.91059304327 1:0.40909091 2:0.054711246 3:0.024390244 4:0.063829787 5:0.021341463 6:0.0091463415 7:0.021341463 8:0.075987842 9:0.021341463 10:0.018237082 11:0.0091463415 12:0 13:0.006097561 14:0.0030487805 15:0.060790274 16:0.012195122 17:0.015243902 18:0.027439024 19:0.006097561 20:0.097264438 21:0.024390244 22:0.030487805 23:0.045592705 24:0.006097561 25:0.082066869 26:0.006097561 27:0.027439024 28:0.015243902 29:0.069908815 30:0.024390244 31:0.05775076 32:0.0091463415 33:0.088145897 34:0.015243902 35:0.060790274 36:0.012195122 37:0.021341463 38:0.030395137 39:0.0091463415 40:0.015243902 41:0.0030487805 42:0.063829787 43:0.006097561 44:0.015243902 45:0.021341463 46:0.066869301 47:0.015243902 48:0.012195122 49:0.063829787 50:0.024390244 51:0.0091463415 
32768 1:0.99252336 2:0.078651685 3:0.026266417 4:0.06928839 5:0.028142589 6:0.0018761726 7:0.016885553 8:0.058052434 9:0.016885553 10:0.078651685 11:0.020637899 12:0.009380863 13:0.028142589 14:0.020637899 15:0.080524345 16:0.016885553 17:0.015009381 18:0.024390244 19:0.024390244 20:0.076779026 21:0.026266417 22:0.022514071 23:0.0093632959 24:0.0018761726 25:0.065543071 26:0.009380863 27:0.015009381 28:0.024390244 29:0.074906367 30:0.016885553 31:0.035580524 32:0 33:0.086142322 34:0.031894934 35:0.037453184 36:0.00750469 37:0.016885553 38:0.052434457 39:0.015009381 40:0.0018761726 41:0.020637899 42:0.048689139 43:0.016885553 44:0.0037523452 45:0.013133208 46:0.080524345 47:0.022514071 48:0.022514071 49:0.06741573 50:0.011257036 51:0.020637899 
17297.6792684346 1:0.88582677 2:0.086956522 3:0.027777778 4:0.04743083 5:0.015873016 6:0.011904762 7:0.015873016 8:0.1027668 9:0.043650794 10:0.051383399 11:0.003968254 12:0.007936508 13:0.007936508 14:0.031746032 15:0.079051383 16:0.01984127 17:0.011904762 18:0.035714286 19:0.011904762 20:0.039525692 21:0.01984127 22:0 23:0.027667984 24:0 25:0.063241107 26:0.003968254 27:0.015873016 28:0.031746032 29:0.11067194 30:0.043650794 31:0.059288538 32:0.0079365079 33:0.079051383 34:0.031746032 35:0.035573123 36:0.007936508 37:0.015873016 38:0.015810277 39:0.003968254 40:0.003968254 41:0.003968254 42:0.063241107 43:0.027777778 44:0.003968254 45:0.015873016 46:0.071146245 47:0.023809524 48:0.011904762 49:0.067193676 50:0.015873016 51:0.015873016 
5676.152858485347 1:0.59633028 2:0.11349693 3:0.027692308 4:0.030674847 5:0.015384615 6:0.0061538462 7:0.006153846 8:0.067484663 9:0.015384615 10:0.10122699 11:0.030769231 12:0.021538462 13:0.021538462 14:0.027692308 15:0.04601227 16:0.009230769 17:0.009230769 18:0.009230769 19:0.018461538 20:0.030674847 21:0.003076923 22:0 23:0.042944785 24:0 25:0.036809816 26:0.012307692 27:0.003076923 28:0.012307692 29:0.073619632 30:0.009230769 31:0.042944785 32:0.012307692 33:0.079754601 34:0.018461538 35:0.061349693 36:0.009230769 37:0.024615385 38:0.082822086 39:0.0030769231 40:0.012307692 41:0.027692308 42:0.052147239 43:0.021538462 44:0.012307692 45:0.003076923 46:0.064417178 47:0.018461538 48:0.012307692 49:0.073619632 50:0.006153846 51:0.021538462 
32768 1:0.9948718 2:0.10539846 3:0.036082474 4:0.064267352 5:0.028350515 6:0.0051546392 7:0.015463918 8:0.059125964 9:0.018041237 10:0.079691517 11:0.015463918 12:0.020618557 13:0.015463918 14:0.028350515 15:0.097686375 16:0.028350515 17:0.023195876 18:0.023195876 19:0.023195876 20:0.079691517 21:0.028350515 22:0.020618557 23:0.010282776 24:0.0025773196 25:0.074550129 26:0.010309278 27:0.018041237 28:0.033505155 29:0.059125964 30:0.015463918 31:0.051413882 32:0 33:0.030848329 34:0.0025773196 35:0.028277635 36:0.00257732 37:0.007731959 38:0.043701799 39:0.018041237 40:0.0025773196 41:0.012886598 42:0.06940874 43:0.018041237 44:0.0025773196 45:0.018041237 46:0.06940874 47:0.018041237 48:0.012886598 49:0.077120823 50:0.012886598 51:0.028350515 
3276.251557715777 1:0.23282051 2:0.017453799 3:0.0010277492 4:0.030800821 5:0.004110997 6:0.0030832477 7:0.007194245 8:0.077002053 9:0.012332991 10:0.011293634 11:0 12:0.005138746 13:0.004110997 14:0.0020554985 15:0.047227926 16:0.006166495 17:0.012332991 18:0.025693731 19:0.003083248 20:0.15708419 21:0.020554985 22:0.061664954 23:0.1036961 24:0.042137718 25:0.073921971 26:0.0061664954 27:0.044193217 28:0.016443988 29:0.063655031 30:0.039054471 31:0.12320328 32:0.038026721 33:0.13347023 34:0.045220966 35:0.031827515 36:0.015416238 37:0.015416238 38:0.008213552 39:0.0051387461 40:0.0010277492 41:0.0010277492 42:0.069815195 43:0.006166495 44:0.014388489 45:0.015416238 46:0.039014374 47:0.006166495 48:0.003083248 49:0.012320329 50:0.003083248 51:0.0030832477 
23146.37771273988 1:0.39069111 2:0.025423729 3:0.0014144272 4:0.046610169 5:0.007072136 6:0.0084865629 7:0.008486563 8:0.074858757 9:0.012729844 10:0.018361582 11:0 12:0.008486563 13:0.005657709 14:0.0042432815 15:0.059322034 16:0.008486563 17:0.018387553 18:0.026874116 19:0.005657709 20:0.13418079 21:0.022630835 22:0.052333805 23:0.077683616 24:0.022630834 25:0.072033898 26:0.0099009901 27:0.033946252 28:0.018387553 29:0.066384181 30:0.031117397 31:0.098870056 32:0.026874116 33:0.1200565 34:0.036775106 35:0.049435028 36:0.015558699 37:0.031117397 38:0.014124294 39:0.0084865629 40:0.0028288543 41:0.0014144272 42:0.062146893 43:0.00990099 44:0.0099009901 45:0.015558699 46:0.062146893 47:0.011315417 48:0.00990099 49:0.018361582 50:0.007072136 51:0.0042432815 
32768 1:0.9569378 2:0.057692308 3:0.014492754 4:0.028846154 5:0.004830918 6:0.0096618357 7:0.009661836 8:0.10576923 9:0.033816425 10:0.033653846 11:0 12:0.019323671 13:0.004830918 14:0.0096618357 15:0.0625 16:0.014492754 17:0.009661836 18:0.028985507 19:0.009661836 20:0.0625 21:0.014492754 22:0.019323672 23:0.014423077 24:0 25:0.086538462 26:0.0048309179 27:0.014492754 28:0.043478261 29:0.096153846 30:0.038647343 31:0.067307692 32:0 33:0.10576923 34:0.024154589 35:0.052884615 36:0.009661836 37:0.024154589 38:0.014423077 39:0 40:0.0096618357 41:0.0048309179 42:0.0625 43:0.019323671 44:0 45:0.014492754 46:0.096153846 47:0.019323671 48:0.014492754 49:0.052884615 50:0.024154589 51:0.0048309179 
297.2054757938393 1:0.75505618 2:0.074324324 3:0.018058691 4:0.045045045 5:0.020316027 6:0.0022573363 7:0.018058691 8:0.096846847 9:0.027088036 10:0.04954955 11:0.011286682 12:0.015801354 13:0.011286682 14:0.011286682 15:0.085585586 16:0.031602709 17:0.011286682 18:0.029345372 19:0.013544018 20:0.081081081 21:0.027088036 22:0.0248307 23:0.029279279 24:0.011286682 25:0.076576577 26:0.006772009 27:0.027088036 28:0.020316027 29:0.076576577 30:0.029345372 31:0.083333333 32:0.013544018 33:0.04954955 34:0.020316027 35:0.033783784 36:0.006772009 37:0.018058691 38:0.029279279 39:0.011286682 40:0.0022573363 41:0.0090293454 42:0.063063063 43:0.020316027 44:0.006772009 45:0.022573363 46:0.065315315 47:0.022573363 48:0.013544018 49:0.060810811 50:0.015801354 51:0.020316027 
31082.8620907699 1:0.62032086 2:0.058928571 3:0.01431127 4:0.046428571 5:0.016100179 6:0.0035778175 7:0.012522361 8:0.096428571 9:0.039355993 10:0.066071429 11:0.01431127 12:0.016100179 13:0.012522361 14:0.023255814 15:0.064285714 16:0.012522361 17:0.008944544 18:0.030411449 19:0.012522361 20:0.057142857 21:0.016100179 22:0.021466905 23:0.017857143 24:0.0035778175 25:0.058928571 26:0.010733453 27:0.010733453 28:0.021466905 29:0.10357143 30:0.039355993 31:0.041071429 32:0.0035778175 33:0.071428571 34:0.019677996 35:0.053571429 36:0.003577818 37:0.021466905 38:0.041071429 39:0.01431127 40:0.0053667263 41:0.016100179 42:0.053571429 43:0.017889088 44:0.0071556351 45:0.017889088 46:0.083928571 47:0.030411449 48:0.019677996 49:0.085714286 50:0.02862254 51:0.021466905 
1345.288021059359 1:1 2:0.18417838 3:0.087381607 4:0.017715333 5:0.008554843 6:0.0024442408 7:0.004277421 8:0.064752596 9:0.050106936 10:0.17898595 11:0.027192178 12:0.004277421 13:0.1289337 14:0.018637336 15:0.019547954 16:0.006721662 17:0.002444241 18:0.002138711 19:0.008249313 20:0.005497862 21:0.002444241 22:0.0006110602 23:0.0039706781 24:0 25:0.016493586 26:0.0042774213 27:0.00122212 28:0.004277421 29:0.19059255 30:0.045523984 31:0.007330483 32:0.0006110602 33:0.012828345 34:0.0012221204 35:0.024740379 36:0.003360831 37:0.007943782 38:0.051313378 39:0.0051940116 40:0.0058050718 41:0.015582035 42:0.014966402 43:0.005499542 44:0.0009165903 45:0.006721662 46:0.15394013 47:0.13046135 48:0.014359914 49:0.053145999 50:0.012832264 51:0.020470516 
7876.264045716517 1:0.47519084 2:0.04206501 3:0.0076628352 4:0.040152964 5:0.01532567 6:0 7:0.005747126 8:0.13575526 9:0.019157088 10:0.022944551 11:0.0019157088 12:0.007662835 13:0.011494253 14:0.0019157088 15:0.12810707 16:0.019157088 17:0.013409962 18:0.086206897 19:0.009578544 20:0.099426386 21:0.059386973 22:0.01532567 23:0.011472275 24:0.0057471264 25:0.049713193 26:0.013409962 27:0.009578544 28:0.024904215 29:0.047801147 30:0.013409962 31:0.11472275 32:0.0057471264 33:0.15296367 34:0.055555556 35:0.038240918 36:0.017241379 37:0.011494253 38:0.022944551 39:0.0057471264 40:0.011494253 41:0 42:0.036328872 43:0.009578544 44:0.0019157088 45:0.007662835 46:0.051625239 47:0.01532567 48:0.003831418 49:0.005736138 50:0.003831418 51:0 
