svm_type c_svc
kernel_type polynomial
degree 2
gamma 2
coef0 0
nr_class 2
total_sv 3006
rho 460.568
label 1 -1
probA -1.69415
probB -0.0408769
nr_sv 1490 1516
SV
32768 1:0.37121212 2:0.10646388 3:0.026717557 4:0.045627376 5:0.030534351 6:0.0038167939 7:0.007633588 8:0.11026616 9:0.041984733 10:0.049429658 11:0.0076335878 12:0.011450382 13:0.019083969 14:0.011450382 15:0.11406844 16:0.038167939 17:0.015267176 18:0.049618321 19:0.011450382 20:0.068441065 21:0.038167939 22:0.015267176 23:0.015209126 24:0.0076335878 25:0.053231939 26:0 27:0.003816794 28:0.015267176 29:0.079847909 30:0.007633588 31:0.019083969 32:0.087452471 33:0 34:0.045627376 35:0.0038167939 36:0.02661597 37:0.007633588 38:0.007633588 39:0.015209125 40:0 41:0.0076335878 42:0.0038167939 43:0.045627376 44:0.019083969 45:0.015267176 46:0.068441065 47:0.015267176 48:0.015267176 49:0.068441065 50:0.026717557 51:0.011450382 
32768 1:0.21695761 2:0.0875 3:0.027568922 4:0.045 5:0.007518797 6:0.012531328 7:0.015037594 8:0.1 9:0.030075188 10:0.0375 11:0.0025062657 12:0.010025063 13:0.010025063 14:0.012531328 15:0.055 16:0.012531328 17:0.002506266 18:0.032581454 19:0.007518797 20:0.0725 21:0.020050125 22:0.020050125 23:0.0525 24:0.01754386 25:0.0625 26:0.010025063 27:0.012531328 28:0.027568922 29:0.0975 30:0.010025063 31:0.037593985 32:0.075 33:0.01754386 34:0.0825 35:0.027568922 36:0.0475 37:0.015037594 38:0.015037594 39:0.03 40:0.012531328 41:0.0025062657 42:0.0050125313 43:0.05 44:0.012531328 45:0.01754386 46:0.065 47:0.027568922 48:0.007518797 49:0.04 50:0.012531328 51:0.010025063 
8263.456257066557 1:0.96868204 2:0.056409513 3:0.0081218274 4:0.040458237 5:0.010587382 6:0.0030456853 7:0.005801305 8:0.10266821 9:0.011892676 10:0.078306265 11:0.00826686 12:0.008701958 13:0.039303843 14:0.02204496 15:0.112529 16:0.008992023 17:0.00768673 18:0.0551124 19:0.04075417 20:0.068735499 21:0.041044235 22:0.00551124 23:0.0087006961 24:0.0007251632 25:0.039588167 26:0.0023205221 27:0.006236403 28:0.00826686 29:0.066415313 30:0.016388687 31:0.011747643 32:0.059889791 33:0.0023205221 34:0.076856148 35:0.0044960116 36:0.050174014 37:0.005366207 38:0.014358231 39:0.042488399 40:0.0042059463 41:0.0085569253 42:0.0059463379 43:0.060324826 44:0.02973169 45:0.009572154 46:0.06525522 47:0.011167513 48:0.009862219 49:0.071200696 50:0.003335751 51:0.021754895 
32768 1:0.83773585 2:0.09073724 3:0.024621212 4:0.034026465 5:0.009469697 6:0.0037878788 7:0.005681818 8:0.083175803 9:0.034090909 10:0.083175803 11:0.018939394 12:0.015151515 13:0.026515152 14:0.022727273 15:0.06805293 16:0.020833333 17:0.009469697 18:0.017045455 19:0.020833333 20:0.06805293 21:0.022727273 22:0.024621212 23:0.0094517958 24:0 25:0.058601134 26:0.009469697 27:0.011363636 28:0.024621212 29:0.085066163 30:0 31:0.020833333 32:0.041587902 33:0 34:0.06805293 35:0.017045455 36:0.051039698 37:0.013257576 38:0.017045455 39:0.047258979 40:0.013257576 41:0.011363636 42:0.013257576 43:0.060491493 44:0.022727273 45:0.018939394 46:0.085066163 47:0.022727273 48:0.028409091 49:0.066162571 50:0.017045455 51:0.013257576 
27413.12427138275 1:0.91252485 2:0.051792829 3:0.017964072 4:0.049800797 5:0.015968064 6:0 7:0.013972056 8:0.077689243 9:0.017964072 10:0.059760956 11:0.013972056 12:0.013972056 13:0.025948104 14:0.005988024 15:0.085657371 16:0.011976048 17:0.01996008 18:0.031936128 19:0.021956088 20:0.10358566 21:0.025948104 22:0.041916168 23:0.011952191 24:0.003992016 25:0.079681275 26:0.003992016 27:0.017964072 28:0.03992016 29:0.073705179 30:0.011976048 31:0.027944112 32:0.071713147 33:0.003992016 34:0.077689243 35:0.011976048 36:0.037848606 37:0.00998004 38:0.013972056 39:0.027888446 40:0.0079840319 41:0.005988024 42:0.0079840319 43:0.055776892 44:0.017964072 45:0.011976048 46:0.093625498 47:0.025948104 48:0.015968064 49:0.041832669 50:0.013972056 51:0.0079840319 
32768 1:1 2:0.049875312 3:0.01 4:0.027431421 5:0.0075 6:0.005 7:0.005 8:0.08478803 9:0.0225 10:0.054862843 11:0.0075 12:0.0075 13:0.0225 14:0.0175 15:0.069825436 16:0.01 17:0.0075 18:0.035 19:0.0175 20:0.074812968 21:0.025 22:0.0125 23:0.0099750623 24:0.0025 25:0.099750623 26:0.0025 27:0.0325 28:0.045 29:0.079800499 30:0.0125 31:0.03 32:0.08478803 33:0.005 34:0.082294264 35:0.0175 36:0.034912718 37:0.01 38:0.0175 39:0.014962594 40:0 41:0.0025 42:0.0025 43:0.067331671 44:0.0225 45:0.0175 46:0.10723192 47:0.0225 48:0.01 49:0.057356608 50:0.0225 51:0.0125 
32768 1:0.93854749 2:0.10644258 3:0.033707865 4:0.047619048 5:0.025280899 6:0.0056179775 7:0.005617978 8:0.075630252 9:0.039325843 10:0.072829132 11:0.0084269663 12:0.030898876 13:0.019662921 14:0.014044944 15:0.098039216 16:0.030898876 17:0.019662921 18:0.028089888 19:0.016853933 20:0.047619048 21:0.011235955 22:0.011235955 23:0.016806723 24:0 25:0.056022409 26:0.0056179775 27:0.02247191 28:0.014044944 29:0.072829132 30:0.005617978 31:0.02247191 32:0.036414566 33:0.0028089888 34:0.042016807 35:0 36:0.053221289 37:0.005617978 38:0.016853933 39:0.028011204 40:0.0028089888 41:0.0056179775 42:0.011235955 43:0.086834734 44:0.039325843 45:0.025280899 46:0.070028011 47:0.014044944 48:0.016853933 49:0.089635854 50:0.019662921 51:0.033707865 
32768 1:0.82372881 2:0.12585034 3:0.051194539 4:0.06122449 5:0.020477816 6:0 7:0.017064846 8:0.095238095 9:0.040955631 10:0.051020408 11:0.0034129693 12:0.017064846 13:0.023890785 14:0.0034129693 15:0.078231293 16:0.023890785 17:0.020477816 18:0.020477816 19:0.013651877 20:0.068027211 21:0.023890785 22:0.017064846 23:0.0068027211 24:0 25:0.068027211 26:0.0068259386 27:0.006825939 28:0.040955631 29:0.10884354 30:0.013651877 31:0.027303754 32:0.037414966 33:0.0034129693 34:0.047619048 35:0.0068259386 36:0.047619048 37:0.010238908 38:0.020477816 39:0.020408163 40:0.010238908 41:0.0034129693 42:0 43:0.051020408 44:0.020477816 45:0.013651877 46:0.091836735 47:0.030716724 48:0.030716724 49:0.040816327 50:0.006825939 51:0.010238908 
7824.052273402256 1:0.82692308 2:0.077170418 3:0.035483871 4:0.057877814 5:0.009677419 6:0.0032258065 7:0.032258065 8:0.048231511 9:0.009677419 10:0.073954984 11:0.019354839 12:0.012903226 13:0.019354839 14:0.022580645 15:0.073954984 16:0.029032258 17:0.012903226 18:0.006451613 19:0.025806452 20:0.083601286 21:0.029032258 22:0.019354839 23:0.012861736 24:0.0064516129 25:0.1221865 26:0.025806452 27:0.035483871 28:0.022580645 29:0.038585209 30:0.019354839 31:0.009677419 32:0.045016077 33:0 34:0.028938907 35:0.0064516129 36:0.025723473 37:0.009677419 38:0.003225806 39:0.07073955 40:0.012903226 41:0.022580645 42:0.025806452 43:0.10289389 44:0.025806452 45:0.041935484 46:0.048231511 47:0.009677419 48:0.003225806 49:0.090032154 50:0.003225806 51:0.025806452 
32768 1:0.95520581 2:0.048484848 3:0.014563107 4:0.058181818 5:0.015776699 6:0.01092233 7:0.018203883 8:0.088484848 9:0.031553398 10:0.036363636 11:0.0060679612 12:0.007281553 13:0.009708738 14:0.013349515 15:0.073939394 16:0.014563107 17:0.019417476 18:0.030339806 19:0.009708738 20:0.072727273 21:0.025485437 22:0.020631068 23:0.035151515 24:0.0084951456 25:0.072727273 26:0.0048543689 27:0.016990291 28:0.031553398 29:0.08969697 30:0.024271845 31:0.035194175 32:0.077575758 33:0.0097087379 34:0.092121212 35:0.020631068 36:0.04 37:0.003640777 38:0.02184466 39:0.019393939 40:0.0060679612 41:0.0036407767 42:0.0072815534 43:0.047272727 44:0.009708738 45:0.014563107 46:0.083636364 47:0.01092233 48:0.014563107 49:0.064242424 50:0.020631068 51:0.020631068 
32768 1:0.81392045 2:0.073968706 3:0.017094017 4:0.041251778 5:0.012820513 6:0.0071225071 7:0.005698006 8:0.089615932 9:0.022792023 10:0.062588905 11:0.012820513 12:0.017094017 13:0.017094017 14:0.015669516 15:0.078236131 16:0.025641026 17:0.00997151 18:0.031339031 19:0.011396011 20:0.075391181 21:0.027065527 22:0.017094017 23:0.032716927 24:0.0028490028 25:0.058321479 26:0.0071225071 27:0.01994302 28:0.021367521 29:0.075391181 30:0.017094017 31:0.021367521 32:0.06401138 33:0.00997151 34:0.06116643 35:0.015669516 36:0.052631579 37:0.014245014 38:0.015669516 39:0.039829303 40:0.0071225071 41:0.0071225071 42:0.017094017 43:0.06401138 44:0.021367521 45:0.014245014 46:0.06970128 47:0.01994302 48:0.008547009 49:0.06116643 50:0.015669516 51:0.01994302 
32768 1:0.90354331 2:0.08086785 3:0.0256917 4:0.037475345 5:0.011857708 6:0.0039525692 7:0.005928854 8:0.08678501 9:0.02173913 10:0.059171598 11:0.011857708 12:0.017786561 13:0.017786561 14:0.011857708 15:0.07495069 16:0.023715415 17:0.011857708 18:0.033596838 19:0.005928854 20:0.071005917 21:0.0256917 22:0.013833992 23:0.037475345 24:0.0019762846 25:0.063116371 26:0.0079051383 27:0.0256917 28:0.019762846 29:0.07495069 30:0.02173913 31:0.019762846 32:0.063116371 33:0.011857708 34:0.067061144 35:0.019762846 36:0.055226824 37:0.015810277 38:0.019762846 39:0.033530572 40:0.0039525692 41:0.0019762846 42:0.019762846 43:0.07495069 44:0.023715415 45:0.019762846 46:0.069033531 47:0.02173913 48:0.009881423 49:0.051282051 50:0.011857708 51:0.015810277 
32768 1:0.8442029 2:0.10181818 3:0.02919708 4:0.050909091 5:0.02919708 6:0.003649635 7:0.00729927 8:0.10181818 9:0.032846715 10:0.043636364 11:0.010948905 12:0.018248175 13:0.003649635 14:0.010948905 15:0.087272727 16:0.03649635 17:0.00729927 18:0.032846715 19:0.010948905 20:0.061818182 21:0.032846715 22:0.003649635 23:0.018181818 24:0.003649635 25:0.08 26:0.0072992701 27:0.010948905 28:0.02919708 29:0.072727273 30:0.003649635 31:0.02189781 32:0.061818182 33:0.003649635 34:0.065454545 35:0.02189781 36:0.032727273 37:0.010948905 38:0.00729927 39:0.032727273 40:0.018248175 41:0 42:0.003649635 43:0.072727273 44:0.018248175 45:0.032846715 46:0.050909091 47:0.010948905 48:0.00729927 49:0.065454545 50:0.010948905 51:0.01459854 
32768 1:0.88829787 2:0.082666667 3:0.021390374 4:0.056 5:0.026737968 6:0 7:0.016042781 8:0.082666667 9:0.029411765 10:0.064 11:0.0053475936 12:0.013368984 13:0.026737968 14:0.018716578 15:0.074666667 16:0.018716578 17:0.010695187 18:0.029411765 19:0.016042781 20:0.053333333 21:0.018716578 22:0.013368984 23:0.010666667 24:0.0026737968 25:0.08 26:0.021390374 27:0.010695187 28:0.024064171 29:0.082666667 30:0.010695187 31:0.016042781 32:0.045333333 33:0.0026737968 34:0.032 35:0.0053475936 36:0.056 37:0.018716578 38:0.016042781 39:0.042666667 40:0.010695187 41:0.0053475936 42:0.021390374 43:0.066666667 44:0.013368984 45:0.029411765 46:0.090666667 47:0.042780749 48:0.029411765 49:0.08 50:0.024064171 51:0.026737968 
32768 1:0.9630485 2:0.12268519 3:0.046403712 4:0.041666667 5:0.011600928 6:0.0046403712 7:0.016241299 8:0.071759259 9:0.030162413 10:0.090277778 11:0.027842227 12:0.009280742 13:0.023201856 14:0.030162413 15:0.071759259 16:0.025522042 17:0.013921114 18:0.023201856 19:0.009280742 20:0.048611111 21:0.027842227 22:0.0023201856 23:0.0092592593 24:0.0046403712 25:0.055555556 26:0.0092807425 27:0.009280742 28:0.013921114 29:0.0625 30:0.006960557 31:0.011600928 32:0.041666667 33:0 34:0.039351852 35:0.0046403712 36:0.053240741 37:0.011600928 38:0.011600928 39:0.071759259 40:0.011600928 41:0.013921114 42:0.018561485 43:0.053240741 44:0.011600928 45:0.016241299 46:0.074074074 47:0.013921114 48:0.030162413 49:0.092592593 50:0.025522042 51:0.020881671 
32768 1:0.98118669 2:0.086956522 3:0.029027576 4:0.050724638 5:0.013062409 6:0.0043541364 7:0.023222061 8:0.062318841 9:0.020319303 10:0.069565217 11:0.015965167 12:0 13:0.026124819 14:0.027576197 15:0.062318841 16:0.014513788 17:0.015965167 18:0.018867925 19:0.013062409 20:0.050724638 21:0.017416546 22:0.01161103 23:0.011594203 24:0.0058055152 25:0.079710145 26:0.018867925 27:0.026124819 28:0.02467344 29:0.060869565 30:0.007256894 31:0.013062409 32:0.050724638 33:0.0029027576 34:0.055072464 35:0.014513788 36:0.050724638 37:0.008708273 38:0.01161103 39:0.060869565 40:0.0087082729 41:0.013062409 42:0.015965167 43:0.052173913 44:0.014513788 45:0.02467344 46:0.086956522 47:0.017416546 48:0.027576197 49:0.10869565 50:0.02467344 51:0.04934688 
10047.87170840902 1:0.94029851 2:0.03125 3:0.0027210884 4:0.025815217 5:0.005442177 6:0.0040816327 7:0.008163265 8:0.065217391 9:0.017687075 10:0.028532609 11:0.0027210884 12:0.002721088 13:0.016326531 14:0.0068027211 15:0.047554348 16:0.008163265 17:0.012244898 18:0.021768707 19:0.005442177 20:0.11277174 21:0.021768707 22:0.039455782 23:0.039402174 24:0.014965986 25:0.099184783 26:0.0095238095 27:0.05170068 28:0.02585034 29:0.051630435 30:0.006802721 31:0.021768707 32:0.074728261 33:0.016326531 34:0.1548913 35:0.10068027 36:0.047554348 37:0.016326531 38:0.017687075 39:0.020380435 40:0.0027210884 41:0.0040816327 42:0.0013605442 43:0.086956522 44:0.017687075 45:0.02585034 46:0.067934783 47:0.008163265 48:0.012244898 49:0.046195652 50:0.008163265 51:0.019047619 
32768 1:0.91697417 2:0.020332717 3:0.0037037037 4:0.03142329 5:0.011111111 6:0.0037037037 7:0.007407407 8:0.081330869 9:0.016666667 10:0.033271719 11:0 12:0.001851852 13:0.022222222 14:0.0092592593 15:0.070240296 16:0.005555556 17:0.012962963 18:0.035185185 19:0.016666667 20:0.11645102 21:0.018518519 22:0.038888889 23:0.03142329 24:0.0055555556 25:0.088724584 26:0.0037037037 27:0.02962963 28:0.044444444 29:0.070240296 30:0.014814815 31:0.031481481 32:0.099815157 33:0.0092592593 34:0.099815157 35:0.022222222 36:0.051756007 37:0.016666667 38:0.027777778 39:0.005545287 40:0.0018518519 41:0.0018518519 42:0.0018518519 43:0.060998152 44:0.005555556 45:0.022222222 46:0.10720887 47:0.024074074 48:0.018518519 49:0.03142329 50:0.012962963 51:0.0055555556 
32768 1:0.91758242 2:0.07706422 3:0.020220588 4:0.04587156 5:0.011029412 6:0.0055147059 7:0.012867647 8:0.091743119 9:0.036764706 10:0.086238532 11:0.012867647 12:0.020220588 13:0.038602941 14:0.014705882 15:0.064220183 16:0.012867647 17:0.011029412 18:0.018382353 19:0.022058824 20:0.03853211 21:0.016544118 22:0.0055147059 23:0.011009174 24:0 25:0.058715596 26:0.0073529412 27:0.011029412 28:0.025735294 29:0.11009174 30:0.023897059 31:0.038602941 32:0.036697248 33:0 34:0.071559633 35:0.012867647 36:0.044036697 37:0.007352941 38:0.014705882 39:0.049541284 40:0.0036764706 41:0.0036764706 42:0.025735294 43:0.053211009 44:0.020220588 45:0.016544118 46:0.088073394 47:0.034926471 48:0.012867647 49:0.073394495 50:0.009191176 51:0.023897059 
32768 1:0.96923077 2:0.10054348 3:0.038984588 4:0.063405797 5:0.032638259 6:0.0027198549 7:0.01631913 8:0.092391304 9:0.040797824 10:0.070652174 11:0.019038985 12:0.009972801 13:0.022665458 14:0.019038985 15:0.085144928 16:0.017225748 17:0.015412511 18:0.032638259 19:0.019945603 20:0.057065217 21:0.019038985 22:0.014505893 23:0.0072463768 24:0.0009066183 25:0.063405797 26:0.0090661831 27:0.014505893 28:0.02175884 29:0.091485507 30:0.02175884 31:0.023572076 32:0.043478261 33:0.0009066183 34:0.042572464 35:0.0099728015 36:0.042572464 37:0.008159565 38:0.019945603 39:0.049818841 40:0.011786038 41:0.011786038 42:0.012692656 43:0.048913043 44:0.01631913 45:0.015412511 46:0.077898551 47:0.029918404 48:0.012692656 49:0.063405797 50:0.013599275 51:0.017225748 
32768 1:0.46302251 2:0.04516129 3:0.0064724919 4:0.05483871 5:0.01618123 6:0.0097087379 7:0.006472492 8:0.061290323 9:0.012944984 10:0.070967742 11:0.012944984 12:0.029126214 13:0.012944984 14:0.01618123 15:0.096774194 16:0.019417476 17:0.009708738 18:0.029126214 19:0.035598706 20:0.080645161 21:0.025889968 22:0.022653722 23:0.032258065 24:0.012944984 25:0.067741935 26:0.0097087379 27:0.022653722 28:0.022653722 29:0.058064516 30:0.012944984 31:0.01618123 32:0.064516129 33:0.0097087379 34:0.067741935 35:0.012944984 36:0.04516129 37:0.012944984 38:0.012944984 39:0.035483871 40:0.01618123 41:0.0064724919 42:0.012944984 43:0.077419355 44:0.022653722 45:0.022653722 46:0.070967742 47:0.012944984 48:0.012944984 49:0.070967742 50:0.022653722 51:0.029126214 
32768 1:0.39896373 2:0.069204152 3:0.01559792 4:0.057093426 5:0.020797227 6:0.0051993068 7:0.01559792 8:0.060553633 9:0.012131716 10:0.077854671 11:0.010398614 12:0.029462738 13:0.017331023 14:0.020797227 15:0.093425606 16:0.027729636 17:0.010398614 18:0.019064125 19:0.036395147 20:0.055363322 21:0.024263432 22:0.012131716 23:0.015570934 24:0.006932409 25:0.069204152 26:0.010398614 27:0.019064125 28:0.022530329 29:0.058823529 30:0.012131716 31:0.013864818 32:0.048442907 33:0.0034662045 34:0.062283737 35:0.012131716 36:0.046712803 37:0.008665511 38:0.010398614 39:0.043252595 40:0.019064125 41:0.0086655113 42:0.0086655113 43:0.074394464 44:0.025996534 45:0.024263432 46:0.076124567 47:0.017331023 48:0.019064125 49:0.091695502 50:0.025996534 51:0.036395147 
32768 1:0.81075697 2:0.10778443 3:0.042 4:0.055888224 5:0.014 6:0.006 7:0.02 8:0.045908184 9:0.014 10:0.073852295 11:0.02 12:0.012 13:0.02 14:0.022 15:0.055888224 16:0.016 17:0.012 18:0.014 19:0.014 20:0.053892216 21:0.016 22:0.014 23:0.035928144 24:0.006 25:0.061876248 26:0.01 27:0.014 28:0.032 29:0.065868263 30:0.01 31:0.006 32:0.045908184 33:0.008 34:0.067864271 35:0.008 36:0.061876248 37:0.014 38:0.018 39:0.053892216 40:0.014 41:0.004 42:0.018 43:0.051896208 44:0.018 45:0.014 46:0.091816367 47:0.022 48:0.022 49:0.069860279 50:0.022 51:0.028 
32768 1:1 2:0.06092437 3:0.014736842 4:0.042016807 5:0.014736842 6:0.014736842 7:0.008421053 8:0.15546219 9:0.096842105 10:0.029411765 11:0.0021052632 12:0.004210526 13:0.010526316 14:0.010526316 15:0.067226891 16:0.014736842 17:0.008421053 18:0.037894737 19:0.006315789 20:0.042016807 21:0.010526316 22:0.014736842 23:0.025210084 24:0.0021052632 25:0.058823529 26:0.0042105263 27:0.018947368 28:0.029473684 29:0.13655462 30:0.023157895 31:0.082105263 32:0.048319328 33:0 34:0.06302521 35:0.0021052632 36:0.067226891 37:0.025263158 38:0.023157895 39:0.021008403 40:0.0042105263 41:0.0042105263 42:0.0063157895 43:0.06092437 44:0.033684211 45:0.004210526 46:0.071428571 47:0.002105263 48:0.031578947 49:0.050420168 50:0.008421053 51:0.016842105 
32768 1:0.89069424 2:0.087278107 3:0.023703704 4:0.048816568 5:0.017777778 6:0.0074074074 7:0.01037037 8:0.10502959 9:0.035555556 10:0.054733728 11:0.011851852 12:0.011851852 13:0.025185185 14:0.0059259259 15:0.079881657 16:0.020740741 17:0.011851852 18:0.035555556 19:0.011851852 20:0.051775148 21:0.016296296 22:0.016296296 23:0.022189349 24:0.0044444444 25:0.051775148 26:0.0044444444 27:0.007407407 28:0.031111111 29:0.10798817 30:0.016296296 31:0.032592593 32:0.065088757 33:0.0088888889 34:0.097633136 35:0.025185185 36:0.045857988 37:0.016296296 38:0.022222222 39:0.020710059 40:0.0059259259 41:0.0059259259 42:0.002962963 43:0.039940828 44:0.011851852 45:0.013333333 46:0.091715976 47:0.025185185 48:0.014814815 49:0.029585799 50:0.013333333 51:0.0088888889 
32768 1:0.74137931 2:0.11239193 3:0.040462428 4:0.048991354 5:0.01734104 6:0 7:0.014450867 8:0.11527377 9:0.057803468 10:0.07204611 11:0.011560694 12:0.00867052 13:0.034682081 14:0.01734104 15:0.054755043 16:0.011560694 17:0.005780347 18:0.020231214 19:0.01734104 20:0.031700288 21:0.005780347 22:0.0028901734 23:0.0057636888 24:0.0028901734 25:0.057636888 26:0.014450867 27:0.002890173 28:0.014450867 29:0.12391931 30:0.014450867 31:0.031791908 32:0.037463977 33:0 34:0.028818444 35:0.0028901734 36:0.054755043 37:0.00867052 38:0.020231214 39:0.057636888 40:0.014450867 41:0.020231214 42:0.01734104 43:0.028818444 44:0.011560694 45:0.011560694 46:0.095100865 47:0.046242775 48:0.023121387 49:0.074927954 50:0.026011561 51:0.026011561 
32768 1:1 2:0.063157895 3:0.018469657 4:0.042105263 5:0.01055409 6:0.015831135 7:0.01055409 8:0.14473684 9:0.08707124 10:0.034210526 11:0.0026385224 12:0.005277045 13:0.01055409 14:0.013192612 15:0.063157895 16:0.01055409 17:0.007915567 18:0.042216359 19:0.002638522 20:0.036842105 21:0.007915567 22:0.013192612 23:0.023684211 24:0.0026385224 25:0.063157895 26:0.0052770449 27:0.018469657 28:0.031662269 29:0.12894737 30:0.023746702 31:0.071240106 32:0.047368421 33:0 34:0.063157895 35:0.0026385224 36:0.068421053 37:0.023746702 38:0.026385224 39:0.026315789 40:0.0052770449 41:0.0052770449 42:0.0079155673 43:0.060526316 44:0.034300792 45:0.005277045 46:0.076315789 47:0.002638522 48:0.031662269 49:0.057894737 50:0.007915567 51:0.021108179 
32768 1:0.65062389 2:0.075 3:0.025044723 4:0.057142857 5:0.025044723 6:0.0035778175 7:0.023255814 8:0.064285714 9:0.023255814 10:0.0875 11:0.02862254 12:0.012522361 13:0.01431127 14:0.032200358 15:0.055357143 16:0.007155635 17:0.007155635 18:0.019677996 19:0.019677996 20:0.026785714 21:0.003577818 22:0.0035778175 23:0.0125 24:0 25:0.071428571 26:0.01431127 27:0.01431127 28:0.021466905 29:0.073214286 30:0.007155635 31:0.019677996 32:0.035714286 33:0 34:0.046428571 35:0.012522361 36:0.066071429 37:0.010733453 38:0.023255814 39:0.080357143 40:0.025044723 41:0.012522361 42:0.02862254 43:0.046428571 44:0.012522361 45:0.021466905 46:0.098214286 47:0.02862254 48:0.030411449 49:0.10357143 50:0.039355993 51:0.032200358 
32768 1:0.98579041 2:0.074733096 3:0.017825312 4:0.049822064 5:0.019607843 6:0.0035650624 7:0.01426025 8:0.080071174 9:0.035650624 10:0.065836299 11:0.0071301248 12:0.016042781 13:0.032085561 14:0.010695187 15:0.067615658 16:0.016042781 17:0.017825312 18:0.016042781 19:0.017825312 20:0.055160142 21:0.016042781 22:0.017825312 23:0.010676157 24:0 25:0.083629893 26:0.012477718 27:0.016042781 28:0.040998217 29:0.099644128 30:0.008912656 31:0.035650624 32:0.058718861 33:0.0017825312 34:0.087188612 35:0.028520499 36:0.037366548 37:0.012477718 38:0.01426025 39:0.026690391 40:0.0053475936 41:0.0071301248 42:0.012477718 43:0.055160142 44:0.008912656 45:0.028520499 46:0.10498221 47:0.026737968 48:0.010695187 49:0.042704626 50:0.017825312 51:0.012477718 
32768 1:0.97804878 2:0.056234719 3:0.0098039216 4:0.068459658 5:0.022058824 6:0.0049019608 7:0.014705882 8:0.080684597 9:0.026960784 10:0.063569682 11:0.0073529412 12:0.014705882 13:0.022058824 14:0.019607843 15:0.090464548 16:0.022058824 17:0.022058824 18:0.024509804 19:0.022058824 20:0.078239609 21:0.031862745 22:0.0098039216 23:0.024449878 24:0.0049019608 25:0.063569682 26:0.0049019608 27:0.026960784 28:0.026960784 29:0.06601467 30:0.009803922 31:0.024509804 32:0.056234719 33:0.0049019608 34:0.06601467 35:0.014705882 36:0.053789731 37:0.00245098 38:0.022058824 39:0.053789731 40:0.017156863 41:0.014705882 42:0.012254902 43:0.053789731 44:0.019607843 45:0.007352941 46:0.073349633 47:0.009803922 48:0.019607843 49:0.051344743 50:0.00245098 51:0.017156863 
32768 1:0.85667752 2:0.039215686 3:0.0098360656 4:0.04248366 5:0.009836066 6:0.016393443 7:0.013114754 8:0.11111111 9:0.026229508 10:0.022875817 11:0 12:0.013114754 13:0.006557377 14:0.0032786885 15:0.08496732 16:0.009836066 17:0.013114754 18:0.055737705 19:0.006557377 20:0.081699346 21:0.029508197 22:0.02295082 23:0.068627451 24:0.019672131 25:0.055555556 26:0.0032786885 27:0.032786885 28:0.013114754 29:0.08496732 30:0.016393443 31:0.039344262 32:0.10457516 33:0.019672131 34:0.11111111 35:0.036065574 36:0.04248366 37:0.009836066 38:0.016393443 39:0.006535948 40:0.0032786885 41:0 42:0 43:0.062091503 44:0.009836066 45:0.006557377 46:0.052287582 47:0.006557377 48:0.009836066 49:0.029411765 50:0.016393443 51:0.006557377 
32768 1:0.6 2:0.042735043 3:0 4:0.02991453 5:0.012875536 6:0.012875536 7:0 8:0.10683761 9:0.025751073 10:0.02991453 11:0 12:0.008583691 13:0.017167382 14:0.0042918455 15:0.072649573 16:0.021459227 17:0.008583691 18:0.021459227 19:0.021459227 20:0.068376068 21:0.017167382 22:0.012875536 23:0.081196581 24:0.021459228 25:0.05982906 26:0 27:0.030042918 28:0.021459227 29:0.085470085 30:0.008583691 31:0.051502146 32:0.13247863 33:0.042918455 34:0.13247863 35:0.042918455 36:0.02991453 37:0.004291845 38:0.021459227 39:0.008547009 40:0.008583691 41:0 42:0 43:0.047008547 44:0.004291845 45:0.012875536 46:0.05982906 47:0.012875536 48:0.012875536 49:0.012820513 50:0 51:0 
32768 1:0.91924565 2:0.10788583 3:0.03678606 4:0.047895501 5:0.018877057 6:0.0029041626 7:0.013552759 8:0.080309627 9:0.031461762 10:0.079825835 11:0.012584705 12:0.022749274 13:0.02178122 14:0.022265247 15:0.087566522 16:0.028557599 17:0.013552759 18:0.021297193 19:0.024201355 20:0.04934688 21:0.022749274 22:0.011132623 23:0.0053217223 24:0.0014520813 25:0.067247218 26:0.011616651 27:0.013552759 28:0.024201355 29:0.07256894 30:0.008228461 31:0.01839303 32:0.047411708 33:0.0004840271 34:0.043541364 35:0.0077444337 36:0.042573778 37:0.011132623 38:0.011132623 39:0.047411708 40:0.012584705 41:0.0067763795 42:0.015488867 43:0.064828254 44:0.026137464 45:0.023717328 46:0.076923077 47:0.020329138 48:0.023233301 49:0.079342042 50:0.019845111 51:0.028073572 
32768 1:0.93965517 2:0.098445596 3:0.029411765 4:0.055267703 5:0.020761246 6:0.0017301038 7:0.01384083 8:0.07253886 9:0.029411765 10:0.075993092 11:0.010380623 12:0.020761246 13:0.024221453 14:0.020761246 15:0.091537133 16:0.032871972 17:0.012110727 18:0.017301038 19:0.029411765 20:0.051813472 21:0.024221453 22:0.0069204152 23:0.0017271157 24:0 25:0.081174439 26:0.01384083 27:0.01384083 28:0.032871972 29:0.067357513 30:0.008650519 31:0.017301038 32:0.04835924 33:0 34:0.06044905 35:0.012110727 36:0.034542314 37:0.008650519 38:0.006920415 39:0.044905009 40:0.017301038 41:0.008650519 42:0.012110727 43:0.070811744 44:0.027681661 45:0.031141869 46:0.075993092 47:0.01384083 48:0.01384083 49:0.069084629 50:0.012110727 51:0.015570934 
32768 1:0.99487836 2:0.043589744 3:0.0077021823 4:0.051282051 5:0.008985879 6:0.0064184852 7:0.020539153 8:0.064102564 9:0.023106547 10:0.044871795 11:0.0064184852 12:0.016688062 13:0.010269576 14:0.011553273 15:0.069230769 16:0.01283697 17:0.02182285 18:0.024390244 19:0.010269576 20:0.10769231 21:0.032092426 22:0.032092426 23:0.05 24:0.016688062 25:0.080769231 26:0.0051347882 27:0.026957638 28:0.033376123 29:0.06025641 30:0.014120668 31:0.02182285 32:0.071794872 33:0.019255456 34:0.055128205 35:0.0089858793 36:0.056410256 37:0.019255456 38:0.017971759 39:0.032051282 40:0.0089858793 41:0.0051347882 42:0.0077021823 43:0.076923077 44:0.014120668 45:0.023106547 46:0.073076923 47:0.011553273 48:0.020539153 49:0.062820513 50:0.011553273 51:0.024390244 
32768 1:0.97297297 2:0.06875 3:0.020876827 4:0.047916667 5:0.012526096 6:0.010438413 7:0.016701461 8:0.089583333 9:0.025052192 10:0.052083333 11:0.012526096 12:0.006263048 13:0.020876827 14:0.012526096 15:0.058333333 16:0.016701461 17:0.014613779 18:0.022964509 19:0.004175365 20:0.045833333 21:0.018789144 22:0.0083507307 23:0.04375 24:0.018789144 25:0.060416667 26:0.010438413 27:0.010438413 28:0.022964509 29:0.079166667 30:0.016701461 31:0.027139875 32:0.08125 33:0.020876827 34:0.066666667 35:0.0083507307 36:0.070833333 37:0.010438413 38:0.035490605 39:0.052083333 40:0.006263048 41:0.018789144 42:0.012526096 43:0.033333333 44:0.008350731 45:0.014613779 46:0.095833333 47:0.022964509 48:0.025052192 49:0.054166667 50:0.016701461 51:0.016701461 
32768 1:0.93073593 2:0.088150289 3:0.033285094 4:0.054913295 5:0.020260492 6:0.001447178 7:0.015918958 8:0.082369942 9:0.026049204 10:0.057803468 11:0.00723589 12:0.013024602 13:0.023154848 14:0.01447178 15:0.091040462 16:0.027496382 17:0.017366136 18:0.031837916 19:0.01447178 20:0.076589595 21:0.039073806 22:0.01447178 23:0.0057803468 24:0.001447178 25:0.073699422 26:0.010130246 27:0.011577424 28:0.03617945 29:0.075144509 30:0.017366136 31:0.020260492 32:0.056358382 33:0 34:0.062138728 35:0.011577424 36:0.040462428 37:0.01447178 38:0.008683068 39:0.028901734 40:0.010130246 41:0.002894356 42:0.00723589 43:0.059248555 44:0.018813314 45:0.017366136 46:0.083815029 47:0.020260492 48:0.018813314 49:0.063583815 50:0.015918958 51:0.023154848 
32768 1:0.99278268 2:0.036918138 3:0.0064257028 4:0.048956661 5:0.013654618 6:0.0088353414 7:0.012048193 8:0.088282504 9:0.020883534 10:0.039325843 11:0.0048192771 12:0.01124498 13:0.015261044 14:0.0080321285 15:0.083467095 16:0.014457831 17:0.017670683 18:0.034538153 19:0.01686747 20:0.083467095 21:0.026506024 22:0.025702811 23:0.025682183 24:0.0080321285 25:0.075441413 26:0.0048192771 27:0.021686747 28:0.035341365 29:0.073033708 30:0.020883534 31:0.031325301 32:0.073033708 33:0.0088353414 34:0.1035313 35:0.028915663 36:0.053772071 37:0.015261044 38:0.024096386 39:0.020866774 40:0.0024096386 41:0.00562249 42:0.0080321285 43:0.062600321 44:0.016064257 45:0.014457831 46:0.085072231 47:0.015261044 48:0.018473896 49:0.046548957 50:0.010441767 51:0.016064257 
32768 1:0.94140625 2:0.11741683 3:0.056862745 4:0.045009785 5:0.019607843 6:0.0019607843 7:0.007843137 8:0.072407045 9:0.037254902 10:0.064579256 11:0.021568627 12:0.005882353 13:0.019607843 14:0.017647059 15:0.052837573 16:0.019607843 17:0.011764706 18:0.01372549 19:0.007843137 20:0.033268102 21:0.005882353 22:0 23:0.0058708415 24:0.0019607843 25:0.076320939 26:0.0078431373 27:0.011764706 28:0.035294118 29:0.076320939 30:0.017647059 31:0.017647059 32:0.045009785 33:0 34:0.056751468 35:0.01372549 36:0.060665362 37:0.007843137 38:0.021568627 39:0.052837573 40:0.011764706 41:0.0098039216 42:0.017647059 43:0.046966732 44:0.011764706 45:0.023529412 46:0.10176125 47:0.019607843 48:0.033333333 49:0.091976517 50:0.025490196 51:0.033333333 
32768 1:0.94372294 2:0.097613883 3:0.030434783 4:0.062906725 5:0.030434783 6:0 7:0.010869565 8:0.082429501 9:0.030434783 10:0.067245119 11:0.013043478 12:0.015217391 13:0.015217391 14:0.023913044 15:0.11930586 16:0.039130435 17:0.015217391 18:0.032608696 19:0.032608696 20:0.091106291 21:0.036956522 22:0.034782609 23:0.0065075922 24:0 25:0.071583514 26:0.013043478 27:0.02826087 28:0.015217391 29:0.062906725 30:0.019565217 31:0.010869565 32:0.052060738 33:0 34:0.023861171 35:0.0043478261 36:0.023861171 37:0.006521739 38:0.004347826 39:0.030368764 40:0.0086956522 41:0.0043478261 42:0.0065217391 43:0.082429501 44:0.030434783 45:0.026086957 46:0.04989154 47:0.02173913 48:0.002173913 49:0.075921909 50:0.015217391 51:0.023913044 
32768 1:0.96544503 2:0.040880503 3:0.0062959077 4:0.054507338 5:0.012591815 6:0.010493179 7:0.009443861 8:0.076519916 9:0.016789087 10:0.039832285 11:0.0041972718 12:0.011542497 13:0.013641133 14:0.010493179 15:0.082809224 16:0.007345226 17:0.026232949 18:0.037775446 19:0.011542497 20:0.12054507 21:0.029380902 22:0.0409234 23:0.072327044 24:0.03043022 25:0.05870021 26:0.0073452256 27:0.017838405 28:0.026232949 29:0.062893082 30:0.011542497 31:0.018887723 32:0.11006289 33:0.03043022 34:0.080712788 35:0.017838405 36:0.031446541 37:0.006295908 38:0.009443861 39:0.025157233 40:0.0020986359 41:0.0073452256 42:0.0094438615 43:0.049266247 44:0.015739769 45:0.010493179 46:0.055555556 47:0.015739769 48:0.007345226 49:0.038784067 50:0.006295908 51:0.012591815 
32768 1:0.94405594 2:0.07530648 3:0.028070175 4:0.029772329 5:0.003508772 6:0.0035087719 7:0.00877193 8:0.064798599 9:0.024561404 10:0.043782837 11:0.001754386 12:0.01754386 13:0.01754386 14:0.0070175439 15:0.049036778 16:0.01754386 17:0.00877193 18:0.014035088 19:0.00877193 20:0.096322242 21:0.015789474 22:0.028070175 23:0.050788091 24:0.021052632 25:0.091068301 26:0.0035087719 27:0.028070175 28:0.036842105 29:0.073555166 30:0.015789474 31:0.028070175 32:0.087565674 33:0.019298246 34:0.07530648 35:0.024561403 36:0.033274956 37:0.010526316 38:0.010526316 39:0.014010508 40:0 41:0.001754386 42:0.0052631579 43:0.073555166 44:0.010526316 45:0.026315789 46:0.078809107 47:0.014035088 48:0.019298246 49:0.063047285 50:0.014035088 51:0.022807017 
32768 1:0.9369483 2:0.10606061 3:0.032869785 4:0.073232323 5:0.037926675 6:0.0012642225 7:0.013906448 8:0.079545455 9:0.03034134 10:0.071969697 11:0.011378002 12:0.01517067 13:0.029077118 14:0.016434892 15:0.10984848 16:0.03539823 17:0.017699115 18:0.034134008 19:0.022756005 20:0.063131313 21:0.027812895 22:0.012642225 23:0.012626263 24:0.0012642225 25:0.063131313 26:0.0063211125 27:0.016434893 28:0.022756005 29:0.077020202 30:0.016434893 31:0.021491783 32:0.047979798 33:0.00505689 34:0.036616162 35:0.0088495575 36:0.035353535 37:0.01011378 38:0.01011378 39:0.037878788 40:0.011378002 41:0.0063211125 42:0.0063211125 43:0.064393939 44:0.026548673 45:0.016434893 46:0.068181818 47:0.03034134 48:0.007585335 49:0.053030303 50:0.006321113 51:0.012642225 
32768 1:0.98709677 2:0.099137931 3:0.036717063 4:0.05387931 5:0.017278618 6:0.0021598272 7:0.01511879 8:0.081896552 9:0.03887689 10:0.066810345 11:0.01511879 12:0.008639309 13:0.032397408 14:0.010799136 15:0.075431034 16:0.012958963 17:0.019438445 18:0.028077754 19:0.01511879 20:0.081896552 21:0.028077754 22:0.023758099 23:0.010775862 24:0.0021598272 25:0.064655172 26:0.010799136 27:0.012958963 28:0.017278618 29:0.075431034 30:0.006479482 31:0.023758099 32:0.049568966 33:0 34:0.05387931 35:0.0086393089 36:0.043103448 37:0.012958963 38:0.004319654 39:0.051724138 40:0.01511879 41:0.0043196544 42:0.012958963 43:0.047413793 44:0.01511879 45:0.012958963 46:0.075431034 47:0.019438445 48:0.019438445 49:0.068965517 50:0.021598272 51:0.019438445 
32768 1:0.92954545 2:0.13667426 3:0.061643836 4:0.061503417 5:0.03652968 6:0.0091324201 7:0.00913242 8:0.06833713 9:0.01826484 10:0.066059226 11:0.01369863 12:0.011415525 13:0.025114155 14:0.015981735 15:0.093394077 16:0.03196347 17:0.020547945 18:0.02283105 19:0.01826484 20:0.047835991 21:0.015981735 22:0.01369863 23:0.020501139 24:0.00456621 25:0.045558087 26:0.00456621 27:0.015981735 28:0.01369863 29:0.066059226 30:0.00913242 31:0.01369863 32:0.047835991 33:0.002283105 34:0.056947608 35:0.01369863 36:0.056947608 37:0.011415525 38:0.02283105 39:0.038724374 40:0.0091324201 41:0.0091324201 42:0.01369863 43:0.050113895 44:0.01369863 45:0.01369863 46:0.082004556 47:0.02739726 48:0.011415525 49:0.061503417 50:0.020547945 51:0.020547945 
4205.211089134495 1:0.84046693 2:0.033138402 3:0.005859375 4:0.040935673 5:0.01171875 6:0 7:0.00390625 8:0.089668616 9:0.02734375 10:0.038986355 11:0.00390625 12:0.015625 13:0.015625 14:0.00390625 15:0.070175439 16:0.009765625 17:0.017578125 18:0.029296875 19:0.013671875 20:0.091617934 21:0.029296875 22:0.015625 23:0.019493177 24:0.005859375 25:0.097465887 26:0.001953125 27:0.01953125 28:0.044921875 29:0.083820663 30:0.01171875 31:0.037109375 32:0.074074074 33:0.001953125 34:0.07797271 35:0.01171875 36:0.046783626 37:0.013671875 38:0.01953125 39:0.013645224 40:0.00390625 41:0.00390625 42:0.00390625 43:0.072124756 44:0.01171875 45:0.033203125 46:0.095516569 47:0.0234375 48:0.021484375 49:0.054580897 50:0.015625 51:0.009765625 
32768 1:0.94132653 2:0.10485933 3:0.028205128 4:0.071611253 5:0.030769231 6:0 7:0.017948718 8:0.086956522 9:0.025641026 10:0.071611253 11:0.017948718 12:0.012820513 13:0.028205128 14:0.012820513 15:0.097186701 16:0.025641026 17:0.012820513 18:0.033333333 19:0.025641026 20:0.066496164 21:0.028205128 22:0.012820513 23:0.0051150895 24:0 25:0.069053708 26:0.0076923077 27:0.015384615 28:0.035897436 29:0.099744246 30:0.020512821 31:0.017948718 32:0.05370844 33:0.0025641026 34:0.046035806 35:0.0025641026 36:0.028132992 37:0.01025641 38:0.012820513 39:0.030690537 40:0.01025641 41:0.0025641026 42:0.0076923077 43:0.046035806 44:0.015384615 45:0.01025641 46:0.089514066 47:0.038461538 48:0.020512821 49:0.033248082 50:0.012820513 51:0.0076923077 
32768 1:0.86775362 2:0.12522686 3:0.036363636 4:0.056261343 5:0.025454545 6:0 7:0.010909091 8:0.099818512 9:0.036363636 10:0.074410163 11:0.02 12:0.014545455 13:0.023636364 14:0.016363636 15:0.092558984 16:0.025454545 17:0.007272727 18:0.032727273 19:0.027272727 20:0.052631579 21:0.027272727 22:0.0090909091 23:0.0036297641 24:0 25:0.058076225 26:0.010909091 27:0.012727273 28:0.023636364 29:0.096188748 30:0.010909091 31:0.018181818 32:0.047186933 33:0.0018181818 34:0.045372051 35:0.0054545455 36:0.034482759 37:0.012727273 38:0.014545455 39:0.041742287 40:0.010909091 41:0.0090909091 42:0.010909091 43:0.050816697 44:0.018181818 45:0.014545455 46:0.074410163 47:0.032727273 48:0.016363636 49:0.047186933 50:0.012727273 51:0.016363636 
32768 1:0.84782609 2:0.083484574 3:0.021818182 4:0.061705989 5:0.021818182 6:0 7:0.016363636 8:0.081669691 9:0.029090909 10:0.061705989 11:0.012727273 12:0.012727273 13:0.023636364 14:0.012727273 15:0.087114338 16:0.018181818 17:0.007272727 18:0.036363636 19:0.025454545 20:0.079854809 21:0.030909091 22:0.012727273 23:0.0036297641 24:0 25:0.083484574 26:0.0090909091 27:0.018181818 28:0.032727273 29:0.081669691 30:0.012727273 31:0.014545455 32:0.056261343 33:0.0018181818 34:0.038112523 35:0.0036363636 36:0.038112523 37:0.010909091 38:0.012727273 39:0.034482759 40:0.016363636 41:0.0054545455 42:0.0054545455 43:0.058076225 44:0.018181818 45:0.012727273 46:0.090744102 47:0.027272727 48:0.027272727 49:0.059891107 50:0.021818182 51:0.016363636 
32768 1:0.90785498 2:0.099848714 3:0.036363636 4:0.060514372 5:0.025757576 6:0.0015151515 7:0.013636364 8:0.081694402 9:0.027272727 10:0.055975794 11:0.0090909091 12:0.010606061 13:0.024242424 14:0.012121212 15:0.093797277 16:0.03030303 17:0.015151515 18:0.033333333 19:0.015151515 20:0.063540091 21:0.027272727 22:0.013636364 23:0.0075642965 24:0 25:0.08623298 26:0.012121212 27:0.028787879 28:0.028787879 29:0.074130106 30:0.016666667 31:0.016666667 32:0.054462935 33:0.0015151515 34:0.055975794 35:0.016666667 36:0.037821483 37:0.013636364 38:0.010606061 39:0.030257186 40:0.010606061 41:0.0060606061 42:0.0060606061 43:0.072617247 44:0.022727273 45:0.027272727 46:0.077155825 47:0.021212121 48:0.022727273 49:0.048411498 50:0.013636364 51:0.012121212 
32768 1:0.92875648 2:0.049286641 3:0.012987013 4:0.04539559 5:0.012987013 6:0.012987013 7:0.011688312 8:0.089494163 9:0.025974026 10:0.027237354 11:0.0038961039 12:0.007792208 13:0.009090909 14:0.0064935065 15:0.067444877 16:0.012987013 17:0.011688312 18:0.032467532 19:0.01038961 20:0.081712062 21:0.015584416 22:0.027272727 23:0.036316472 24:0.014285714 25:0.080415045 26:0.0025974026 27:0.025974026 28:0.037662338 29:0.077821012 30:0.015584416 31:0.036363636 32:0.080415045 33:0.0077922078 34:0.12062257 35:0.042857143 36:0.047989624 37:0.015584416 38:0.019480519 39:0.016861219 40:0.0051948052 41:0.0038961039 42:0.0038961039 43:0.058365759 44:0.015584416 45:0.020779221 46:0.080415045 47:0.012987013 48:0.012987013 49:0.040207523 50:0.014285714 51:0.014285714 
32768 1:0.95733333 2:0.072192513 3:0.016085791 4:0.056149733 5:0.018766756 6:0.0053619303 7:0.018766756 8:0.07486631 9:0.032171582 10:0.06684492 11:0.0080428954 12:0.013404826 13:0.029490617 14:0.016085791 15:0.088235294 16:0.021447721 17:0.013404826 18:0.024128686 19:0.029490617 20:0.064171123 21:0.029490617 22:0.010723861 23:0.0053475936 24:0.0026809651 25:0.082887701 26:0.0053619303 27:0.016085791 28:0.029490617 29:0.080213904 30:0.016085791 31:0.024128686 32:0.053475936 33:0 34:0.042780749 35:0.010723861 36:0.037433155 37:0.013404826 38:0.00536193 39:0.032085561 40:0.013404826 41:0.0026809651 42:0.010723861 43:0.064171123 44:0.024128686 45:0.021447721 46:0.090909091 47:0.026809651 48:0.018766756 49:0.088235294 50:0.026809651 51:0.026809652 
32768 1:0.52542373 2:0.031161473 3:0.0028409091 4:0.04815864 5:0.005681818 6:0.019886364 7:0.011363636 8:0.12464589 9:0.034090909 10:0.02266289 11:0.0028409091 12:0 13:0.014204545 14:0.0056818182 15:0.079320113 16:0.011363636 17:0.008522727 18:0.053977273 19:0.005681818 20:0.059490085 21:0.022727273 22:0.011363636 23:0.07082153 24:0.028409091 25:0.04815864 26:0 27:0.008522727 28:0.034090909 29:0.10764873 30:0.028409091 31:0.056818182 32:0.13031161 33:0.028409091 34:0.11331445 35:0.011363636 36:0.039660057 37:0.005681818 38:0.025568182 39:0.008498584 40:0.0028409091 41:0.0028409091 42:0.0028409091 43:0.02266289 44:0.005681818 45:0 46:0.079320113 47:0.014204545 48:0.008522727 49:0.014164306 50:0.005681818 51:0 
32768 1:0.92949907 2:0.050185874 3:0.014897579 4:0.050185874 5:0.022346369 6:0 7:0.011173184 8:0.079925651 9:0.014897579 10:0.029739777 11:0.0018621974 12:0.013035382 13:0.005586592 14:0.009310987 15:0.098513011 16:0.016759777 17:0.029795158 18:0.04283054 19:0.009310987 20:0.12453532 21:0.044692737 22:0.046554935 23:0.018587361 24:0.0055865922 25:0.087360595 26:0.0055865922 27:0.029795158 28:0.037243948 29:0.046468401 30:0.011173184 31:0.014897579 32:0.079925651 33:0.0074487896 34:0.087360595 35:0.031657356 36:0.042750929 37:0.013035382 38:0.016759777 39:0.014869888 40:0.0018621974 41:0.0037243948 42:0.0018621974 43:0.072490706 44:0.009310987 45:0.024208566 46:0.072490706 47:0 48:0.020484171 49:0.044609665 50:0.013035382 51:0.011173184 
32768 1:0.98128342 2:0.09383378 3:0.032258065 4:0.058981233 5:0.024193548 6:0.002688172 7:0.01344086 8:0.09383378 9:0.040322581 10:0.067024129 11:0.01344086 12:0.016129032 13:0.024193548 14:0.01344086 15:0.085790885 16:0.018817204 17:0.010752688 18:0.029569892 19:0.02688172 20:0.058981233 21:0.024193548 22:0.018817204 23:0.0053619303 24:0 25:0.077747989 26:0.0053763441 27:0.02688172 28:0.034946237 29:0.09383378 30:0.016129032 31:0.02688172 32:0.042895442 33:0 34:0.034852547 35:0.0053763441 36:0.048257373 37:0.018817204 38:0.016129032 39:0.040214477 40:0.01344086 41:0.01344086 42:0.002688172 43:0.069705094 44:0.021505376 45:0.032258065 46:0.08310992 47:0.029569892 48:0.024193548 49:0.045576408 50:0.008064516 51:0.016129032 
32768 1:0.63728814 2:0.11904762 3:0.044368601 4:0.054421769 5:0.020477816 6:0.013651877 7:0.017064846 8:0.088435374 9:0.027303754 10:0.054421769 11:0.0034129693 12:0.010238908 13:0.030716724 14:0.010238908 15:0.081632653 16:0.040955631 17:0.006825939 18:0.023890785 19:0.010238908 20:0.020408163 21:0.013651877 22:0 23:0.034013605 24:0.0068259386 25:0.044217687 26:0.017064846 27:0.003412969 28:0.013651877 29:0.085034014 30:0.013651877 31:0.034129693 32:0.06462585 33:0.013651877 34:0.057823129 35:0.0068259386 36:0.054421769 37:0.006825939 38:0.017064846 39:0.034013605 40:0.010238908 41:0.010238908 42:0.0034129693 43:0.040816327 44:0.020477816 45:0.006825939 46:0.081632653 47:0.023890785 48:0.013651877 49:0.085034014 50:0.020477816 51:0.037542662 
32768 1:0.9043659 2:0.041666667 3:0.0083507307 4:0.054166667 5:0.018789144 6:0.0083507307 7:0.012526096 8:0.095833333 9:0.037578288 10:0.052083333 11:0.0020876827 12:0.014613779 13:0.033402923 14:0.0020876827 15:0.06875 16:0.004175365 17:0.014613779 18:0.039665971 19:0.010438413 20:0.054166667 21:0.016701461 22:0.012526096 23:0.025 24:0 25:0.079166667 26:0.0041753653 27:0.018789144 28:0.041753653 29:0.12083333 30:0.020876827 31:0.045929019 32:0.064583333 33:0.010438413 34:0.10208333 35:0.027139875 36:0.0375 37:0.008350731 38:0.018789144 39:0.0125 40:0.0083507307 41:0 42:0 43:0.054166667 44:0.014613779 45:0.016701461 46:0.10208333 47:0.03131524 48:0.010438413 49:0.035416667 50:0.008350731 51:0.0083507307 
32768 1:0.91496063 2:0.042586751 3:0.011058452 4:0.056782334 5:0.023696682 6:0.0078988942 7:0.012638231 8:0.097791798 9:0.031595577 10:0.045741325 11:0.0031595577 12:0.015797788 13:0.025276461 14:0.0015797788 15:0.082018927 16:0.006319115 17:0.022116904 18:0.044233807 19:0.009478673 20:0.066246057 21:0.018957346 22:0.015797788 23:0.033123028 24:0.0063191153 25:0.070977918 26:0.0047393365 27:0.017377567 28:0.036334913 29:0.10094637 30:0.015797788 31:0.04107425 32:0.075709779 33:0.009478673 34:0.10410095 35:0.030015798 36:0.039432177 37:0.009478673 38:0.018957346 39:0.015772871 40:0.009478673 41:0 42:0.0015797788 43:0.05362776 44:0.014218009 45:0.012638231 46:0.086750789 47:0.028436019 48:0.007898894 49:0.028391167 50:0.006319115 51:0.0063191153 
32768 1:0.91891892 2:0.039097744 3:0.010542169 4:0.052631579 5:0.018072289 6:0.0075301205 7:0.015060241 8:0.093233083 9:0.030120482 10:0.046616541 11:0.0030120482 12:0.016566265 13:0.022590361 14:0.0045180723 15:0.07518797 16:0.006024096 17:0.022590361 18:0.039156627 19:0.00753012 20:0.069172932 21:0.019578313 22:0.018072289 23:0.033082707 24:0.0060240964 25:0.073684211 26:0.0060240964 27:0.016566265 28:0.037650602 29:0.10225564 30:0.013554217 31:0.042168675 32:0.072180451 33:0.0090361446 34:0.11127819 35:0.034638554 36:0.039097744 37:0.010542169 38:0.021084337 39:0.013533835 40:0.0075301205 41:0.0015060241 42:0.0015060241 43:0.057142857 44:0.015060241 45:0.013554217 46:0.088721805 47:0.028614458 48:0.009036145 49:0.033082707 50:0.00753012 51:0.0075301205 
32768 1:0.95734597 2:0.047619048 3:0.009569378 4:0.028571429 5:0.004784689 6:0.004784689 7:0.004784689 8:0.057142857 9:0.014354067 10:0.066666667 11:0.014354067 12:0.023923445 13:0.019138756 14:0.009569378 15:0.057142857 16:0.014354067 17:0.009569378 18:0.014354067 19:0.019138756 20:0.057142857 21:0.009569378 22:0.019138756 23:0.038095238 24:0.009569378 25:0.066666667 26:0 27:0.004784689 28:0.038277512 29:0.066666667 30:0.009569378 31:0.028708134 32:0.057142857 33:0.004784689 34:0.076190476 35:0.023923445 36:0.09047619 37:0.019138756 38:0.038277512 39:0.023809524 40:0.009569378 41:0 42:0.014354067 43:0.076190476 44:0.019138756 45:0.019138756 46:0.11904762 47:0.019138756 48:0.043062201 49:0.071428571 50:0.023923445 51:0.014354067 
32768 1:0.9494382 2:0.082551595 3:0.026315789 4:0.05065666 5:0.015037594 6:0.0056390977 7:0.015037594 8:0.069418386 9:0.018796992 10:0.063789869 11:0.011278195 12:0.013157895 13:0.033834586 14:0.0056390977 15:0.08630394 16:0.02443609 17:0.015037594 18:0.02443609 19:0.020676692 20:0.054409006 21:0.020676692 22:0.007518797 23:0.018761726 24:0.007518797 25:0.060037523 26:0.0056390977 27:0.013157895 28:0.030075188 29:0.061913696 30:0.009398496 31:0.015037594 32:0.056285178 33:0.0056390977 34:0.056285178 35:0.013157895 36:0.082551595 37:0.020676692 38:0.035714286 39:0.037523452 40:0.011278195 41:0.0093984962 42:0.0056390977 43:0.058161351 44:0.020676692 45:0.015037594 46:0.11069418 47:0.02443609 48:0.043233083 49:0.05065666 50:0.011278195 51:0.018796993 
32768 1:0.13043478 2:0.12307692 3:0.05655527 4:0.051282051 5:0.020565553 6:0.0051413882 7:0.010282776 8:0.084615385 9:0.028277635 10:0.061538462 11:0.01285347 12:0.020565553 13:0.01285347 14:0.015424165 15:0.094871795 16:0.025706941 17:0.020565553 18:0.033419023 19:0.015424165 20:0.064102564 21:0.028277635 22:0.01285347 23:0.017948718 24:0.0025706941 25:0.058974359 26:0.01285347 27:0.01285347 28:0.020565553 29:0.056410256 30:0.007712082 31:0.010282776 32:0.056410256 33:0.0051413882 34:0.056410256 35:0.010282776 36:0.056410256 37:0.020565553 38:0.017994859 39:0.048717949 40:0.0025706941 41:0.01285347 42:0.015424165 43:0.064102564 44:0.028277635 45:0.015424165 46:0.066666667 47:0.005141388 48:0.010282776 49:0.038461538 50:0.01285347 51:0.0025706941 
32768 1:0.94812165 2:0.041218638 3:0.0089766607 4:0.05734767 5:0.016157989 6:0.0089766607 7:0.012567325 8:0.086021505 9:0.032315978 10:0.035842294 11:0.0017953321 12:0.007181329 13:0.019748654 14:0.0071813285 15:0.084229391 16:0.010771993 17:0.021543986 18:0.037701975 19:0.014362657 20:0.11111111 21:0.030520646 22:0.037701975 23:0.034050179 24:0.012567325 25:0.075268817 26:0.0035906643 27:0.026929982 28:0.034111311 29:0.082437276 30:0.021543986 31:0.030520646 32:0.075268817 33:0.0089766607 34:0.109319 35:0.032315979 36:0.035842294 37:0.016157989 38:0.010771993 39:0.012544803 40:0.0035906643 41:0.0017953321 42:0.0035906643 43:0.0609319 44:0.023339318 45:0.008976661 46:0.073476703 47:0.014362657 48:0.010771993 49:0.025089606 50:0.008976661 51:0.0017953321 
32768 1:0.89318885 2:0.11007752 3:0.024844721 4:0.048062016 5:0.01552795 6:0.0046583851 7:0.020186335 8:0.11472868 9:0.055900621 10:0.066666667 11:0.01863354 12:0.017080745 13:0.01242236 14:0.01863354 15:0.088372093 16:0.032608696 17:0.013975155 18:0.01863354 19:0.023291925 20:0.041860465 21:0.023291925 22:0.0077639752 23:0.0062015504 24:0 25:0.066666667 26:0.0093167702 27:0.01552795 28:0.02173913 29:0.094573643 30:0.010869565 31:0.029503106 32:0.051162791 33:0 34:0.03875969 35:0.001552795 36:0.04496124 37:0.01552795 38:0.017080745 39:0.048062016 40:0.0077639752 41:0.017080745 42:0.0093167702 43:0.060465116 44:0.023291925 45:0.01552795 46:0.069767442 47:0.020186335 48:0.01552795 49:0.049612403 50:0.01863354 51:0.0077639752 
32768 1:0.92181818 2:0.096539162 3:0.034671533 4:0.063752277 5:0.020072993 6:0.0018248175 7:0.02919708 8:0.072859745 9:0.02919708 10:0.063752277 11:0.010948905 12:0.01459854 13:0.020072993 14:0.018248175 15:0.080145719 16:0.016423358 17:0.02189781 18:0.02189781 19:0.020072993 20:0.056466302 21:0.02189781 22:0.0072992701 23:0.016393443 24:0.003649635 25:0.0856102 26:0.0072992701 27:0.023722628 28:0.032846715 29:0.076502732 30:0.016423358 31:0.018248175 32:0.045537341 33:0.003649635 34:0.054644809 35:0.012773723 36:0.036429872 37:0.00729927 38:0.010948905 39:0.041894353 40:0.010948905 41:0.0072992701 42:0.0072992701 43:0.072859745 44:0.027372263 45:0.02189781 46:0.071038251 47:0.023722628 48:0.01459854 49:0.06557377 50:0.00729927 51:0.01459854 
2074.504591937514 1:0.7706422 2:0.16551724 3:0.066820276 4:0.066666667 5:0.01843318 6:0.0046082949 7:0.006912442 8:0.10804598 9:0.039170507 10:0.03908046 11:0.0069124424 12:0.013824885 13:0.013824885 14:0.0046082949 15:0.07816092 16:0.02764977 17:0.016129032 18:0.025345622 19:0.00921659 20:0.075862069 21:0.02764977 22:0.01843318 23:0.036781609 24:0.0023041475 25:0.04137931 26:0.016129032 27:0.00921659 28:0.013824885 29:0.10114943 30:0.020737327 31:0.023041475 32:0.04137931 33:0.011520737 34:0.057471264 35:0.011520737 36:0.045977011 37:0.016129032 38:0.016129032 39:0.034482759 40:0.0092165899 41:0.0046082949 42:0.0046082949 43:0.048275862 44:0.025345622 45:0.00921659 46:0.043678161 47:0.025345622 48:0.006912442 49:0.016091954 50:0 51:0 
32768 1:0.78354204 2:0.05734767 3:0.0071813285 4:0.053763441 5:0.023339318 6:0.0053859964 7:0.008976661 8:0.093189964 9:0.028725314 10:0.039426523 11:0.0071813285 12:0.007181329 13:0.017953321 14:0.0071813285 15:0.091397849 16:0.026929982 17:0.016157989 18:0.032315978 19:0.016157989 20:0.078853047 21:0.021543986 22:0.026929982 23:0.03046595 24:0.0035906643 25:0.066308244 26:0.0035906643 27:0.014362657 28:0.032315978 29:0.075268817 30:0.021543986 31:0.023339318 32:0.08781362 33:0.012567325 34:0.073476703 35:0.012567325 36:0.046594982 37:0.014362657 38:0.017953321 39:0.019713262 40:0.0035906643 41:0.0089766607 42:0.0053859964 43:0.046594982 44:0.019748654 45:0.010771993 46:0.08781362 47:0.012567325 48:0.012567325 49:0.051971326 50:0.019748654 51:0.019748654 
29383.7815839036 1:0.36986301 2:0.098503741 3:0.031210986 4:0.043640898 5:0.013732834 6:0.0012484395 7:0.016229713 8:0.079800499 9:0.024968789 10:0.056109726 11:0.011235955 12:0.017478152 13:0.013732834 14:0.013732834 15:0.067331671 16:0.021223471 17:0.011235955 18:0.019975031 19:0.014981273 20:0.073566085 21:0.018726592 22:0.02372035 23:0.027431421 24:0.0074906367 25:0.066084788 26:0.012484395 27:0.013732834 28:0.026217228 29:0.077306733 30:0.008739076 31:0.018726592 32:0.06234414 33:0.0099875156 34:0.08478803 35:0.012484395 36:0.041147132 37:0.006242197 38:0.018726592 39:0.036159601 40:0.0074906367 41:0.0087390762 42:0.0062421973 43:0.054862843 44:0.013732834 45:0.009987516 46:0.072319202 47:0.014981273 48:0.006242197 49:0.058603491 50:0.013732834 51:0.021223471 
32768 1:0.77958237 2:0.16511628 3:0.067599068 4:0.06744186 5:0.018648019 6:0.0046620047 7:0.006993007 8:0.10930233 9:0.03962704 10:0.037209302 11:0.006993007 12:0.013986014 13:0.013986014 14:0.0023310023 15:0.076744186 16:0.027972028 17:0.016317016 18:0.023310023 19:0.009324009 20:0.076744186 21:0.027972028 22:0.018648019 23:0.037209302 24:0.0023310023 25:0.041860465 26:0.016317016 27:0.009324009 28:0.013986014 29:0.10232558 30:0.020979021 31:0.023310023 32:0.041860465 33:0.011655012 34:0.058139535 35:0.011655012 36:0.046511628 37:0.016317016 38:0.016317016 39:0.034883721 40:0.0093240093 41:0.0046620047 42:0.0046620047 43:0.046511628 44:0.023310023 45:0.009324009 46:0.044186047 47:0.025641026 48:0.006993007 49:0.013953488 50:0 51:0 
32768 1:0.88073395 2:0.057471264 3:0.020737327 4:0.050574713 5:0.020737327 6:0.0023041475 7:0.01843318 8:0.062068966 9:0.025345622 10:0.08045977 11:0.0092165899 12:0.023041475 13:0.02764977 14:0.020737327 15:0.087356322 16:0.013824885 17:0.013824885 18:0.025345622 19:0.032258065 20:0.057471264 21:0.020737327 22:0.011520737 23:0.0068965517 24:0 25:0.07816092 26:0.013824885 27:0.006912442 28:0.029953917 29:0.062068966 30:0.00921659 31:0.020737327 32:0.043678161 33:0 34:0.052873563 35:0.011520737 36:0.064367816 37:0.016129032 38:0.023041475 39:0.045977011 40:0.013824885 41:0.0046082949 42:0.016129032 43:0.075862069 44:0.032258065 45:0.020737327 46:0.10114943 47:0.020737327 48:0.023041475 49:0.073563218 50:0.020737327 51:0.0092165899 
32768 1:0.93253012 2:0.13768116 3:0.05811138 4:0.057971014 5:0.021791768 6:0.00968523 7:0.012106538 8:0.077294686 9:0.036319613 10:0.057971014 11:0.0072639225 12:0.012106538 13:0.01937046 14:0.01937046 15:0.074879227 16:0.024213075 17:0.007263923 18:0.02905569 19:0.014527845 20:0.036231884 21:0.014527845 22:0.0024213075 23:0.014492754 24:0 25:0.070048309 26:0.004842615 27:0.014527845 28:0.014527845 29:0.089371981 30:0.021791768 31:0.014527845 32:0.028985507 33:0 34:0.033816425 35:0.012106538 36:0.050724638 37:0.014527845 38:0.014527845 39:0.031400966 40:0.0072639225 41:0.0024213075 42:0.004842615 43:0.072463768 44:0.02905569 45:0.02905569 46:0.077294686 47:0.031476998 48:0.026634383 49:0.089371981 50:0.02905569 51:0.01937046 
32768 1:0.92513369 2:0.085714286 3:0.02862254 4:0.048214286 5:0.025044723 6:0.0017889088 7:0.01431127 8:0.083928571 9:0.025044723 10:0.067857143 11:0.016100179 12:0.010733453 13:0.021466905 14:0.019677996 15:0.078571429 16:0.01431127 17:0.016100179 18:0.02862254 19:0.019677996 20:0.048214286 21:0.017889088 22:0.010733453 23:0.0125 24:0 25:0.069642857 26:0.0089445438 27:0.01431127 28:0.019677996 29:0.066071429 30:0.010733453 31:0.017889088 32:0.046428571 33:0.0017889088 34:0.064285714 35:0.017889088 36:0.053571429 37:0.01431127 38:0.01431127 39:0.053571429 40:0.0089445438 41:0.0089445438 42:0.019677996 43:0.066071429 44:0.023255814 45:0.019677996 46:0.069642857 47:0.017889088 48:0.016100179 49:0.085714286 50:0.01431127 51:0.026833631 
32768 1:0.926 2:0.054108216 3:0.010040161 4:0.044088176 5:0.014056225 6:0.0040160643 7:0.014056225 8:0.082164329 9:0.014056225 10:0.06012024 11:0.0080321285 12:0.018072289 13:0.022088353 14:0.012048193 15:0.086172345 16:0.020080321 17:0.020080321 18:0.026104418 19:0.020080321 20:0.062124248 21:0.022088353 22:0.010040161 23:0.01002004 24:0.0020080321 25:0.080160321 26:0.010040161 27:0.018072289 28:0.02811245 29:0.064128257 30:0.008032129 31:0.024096386 32:0.070140281 33:0.0020080321 34:0.086172345 35:0.02811245 36:0.048096192 37:0.004016064 38:0.014056225 39:0.036072144 40:0.0080321285 41:0.0040160643 42:0.018072289 43:0.062124248 44:0.020080321 45:0.020080321 46:0.090180361 47:0.016064257 48:0.022088353 49:0.064128257 50:0.026104418 51:0.0080321285 
32768 1:0.99208861 2:0.14104596 3:0.087301587 4:0.049128368 5:0.019047619 6:0 7:0.014285714 8:0.080824089 9:0.022222222 10:0.06022187 11:0.011111111 12:0.012698413 13:0.019047619 14:0.017460317 15:0.077654517 16:0.026984127 17:0.014285714 18:0.022222222 19:0.014285714 20:0.045958796 21:0.019047619 22:0.0063492063 23:0.030110935 24:0.011111111 25:0.049128368 26:0.0095238095 27:0.014285714 28:0.014285714 29:0.064976228 30:0.007936508 31:0.031746032 32:0.049128368 33:0.012698413 34:0.06022187 35:0.0063492063 36:0.061806656 37:0.019047619 38:0.019047619 39:0.047543582 40:0.0063492063 41:0.012698413 42:0.015873016 43:0.058637084 44:0.022222222 45:0.019047619 46:0.066561014 47:0.015873016 48:0.015873016 49:0.057052298 50:0.014285714 51:0.017460317 
32768 1:0.9541779 2:0.10810811 3:0.040650406 4:0.056756757 5:0.021680217 6:0.0027100271 7:0.024390244 8:0.072972973 9:0.029810298 10:0.086486486 11:0.01897019 12:0.016260163 13:0.029810298 14:0.021680217 15:0.083783784 16:0.024390244 17:0.01897019 18:0.01897019 19:0.021680217 20:0.021621622 21:0.016260163 22:0 23:0.0027027027 24:0.0027100271 25:0.081081081 26:0.0081300813 27:0.013550136 28:0.032520325 29:0.081081081 30:0.013550136 31:0.021680217 32:0.059459459 33:0 34:0.056756757 35:0.021680217 36:0.018918919 37:0.002710027 38:0 39:0.051351351 40:0.0081300813 41:0.010840108 42:0.016260163 43:0.051351351 44:0.024390244 45:0.021680217 46:0.083783784 47:0.027100271 48:0.005420054 49:0.083783784 50:0.021680217 51:0.024390244 
32768 1:0.97029703 2:0.087603306 3:0.021523179 4:0.042975207 5:0.013245033 6:0.0049668874 7:0.018211921 8:0.080991736 9:0.026490066 10:0.05785124 11:0.0066225166 12:0.011589404 13:0.024834437 14:0.014900662 15:0.076033058 16:0.011589404 17:0.021523179 18:0.026490066 19:0.016556291 20:0.052892562 21:0.018211921 22:0.013245033 23:0.0099173554 24:0.0033112583 25:0.082644628 26:0.0066225166 27:0.013245033 28:0.041390728 29:0.069421488 30:0.009933775 31:0.014900662 32:0.076033058 33:0 34:0.059504132 35:0.0099337748 36:0.051239669 37:0.006622517 38:0.01986755 39:0.036363636 40:0.0033112583 41:0.0066225166 42:0.011589404 43:0.049586777 44:0.014900662 45:0.01986755 46:0.10413223 47:0.016556291 48:0.01986755 49:0.062809917 50:0.018211921 51:0.013245033 
32768 1:0.99664992 2:0.083892617 3:0.033613445 4:0.033557047 5:0.011764706 6:0 7:0.01512605 8:0.07885906 9:0.03697479 10:0.070469799 11:0.0050420168 12:0.023529412 13:0.028571429 14:0.013445378 15:0.068791946 16:0.01512605 17:0.011764706 18:0.020168067 19:0.021848739 20:0.041946309 21:0.011764706 22:0.010084034 23:0.0083892617 24:0 25:0.08557047 26:0.0084033613 27:0.020168067 28:0.031932773 29:0.07885906 30:0.013445378 31:0.023529412 32:0.062080537 33:0.0016806723 34:0.062080537 35:0.020168067 36:0.046979866 37:0.003361345 38:0.026890756 39:0.035234899 40:0.0050420168 41:0.0050420168 42:0.016806723 43:0.067114094 44:0.025210084 45:0.026890756 46:0.10067114 47:0.026890756 48:0.021848739 49:0.075503356 50:0.013445378 51:0.026890756 
32768 1:0.65284974 2:0.058365759 3:0.014285714 4:0.058365759 5:0.007792208 6:0.015584416 7:0.011688312 8:0.095979248 9:0.027272727 10:0.037613489 11:0.0090909091 12:0.009090909 13:0.012987013 14:0.0064935065 15:0.072632944 16:0.01038961 17:0.019480519 18:0.036363636 19:0.006493506 20:0.09079118 21:0.02987013 22:0.023376623 23:0.057068742 24:0.012987013 25:0.060959792 26:0.0051948052 27:0.016883117 28:0.024675325 29:0.099870298 30:0.023376623 31:0.028571429 32:0.073929961 33:0.015584416 34:0.068741894 35:0.0064935065 36:0.04150454 37:0.011688312 38:0.011688312 39:0.019455253 40:0.0051948052 41:0.0064935065 42:0.0051948052 43:0.057068742 44:0.01038961 45:0.012987013 46:0.063553826 47:0.024675325 48:0.01038961 49:0.044098573 50:0.014285714 51:0.01038961 
32768 1:0.20289855 2:0.072815534 3:0.024390244 4:0.072815534 5:0.029268293 6:0 7:0.029268293 8:0.067961165 9:0.014634146 10:0.063106796 11:0.0048780488 12:0.014634146 13:0.014634146 14:0.029268293 15:0.097087379 16:0.019512195 17:0.009756098 18:0.043902439 19:0.024390244 20:0.048543689 21:0.014634146 22:0.014634146 23:0.014563107 24:0 25:0.077669903 26:0.0097560976 27:0.014634146 28:0.019512195 29:0.072815534 30:0.034146341 31:0.004878049 32:0.04368932 33:0 34:0.04368932 35:0 36:0.04368932 37:0.014634146 38:0.009756098 39:0.038834951 40:0.014634146 41:0 42:0.014634146 43:0.072815534 44:0.034146341 45:0.014634146 46:0.072815534 47:0.024390244 48:0 49:0.097087379 50:0.029268293 51:0.024390244 
32768 1:0.972167 2:0.14940239 3:0.041916168 4:0.061752988 5:0.027944112 6:0.003992016 7:0.013972056 8:0.10358566 9:0.053892216 10:0.067729084 11:0.017964072 12:0.015968064 13:0.017964072 14:0.013972056 15:0.079681275 16:0.037924152 17:0.00998004 18:0.01996008 19:0.011976048 20:0.047808765 21:0.017964072 22:0.013972056 23:0.013944223 24:0.001996008 25:0.051792829 26:0.015968064 27:0.00998004 28:0.013972056 29:0.099601594 30:0.00998004 31:0.02994012 32:0.041832669 33:0 34:0.047808765 35:0.011976048 36:0.03187251 37:0.001996008 38:0.007984032 39:0.053784861 40:0.0079840319 41:0.0099800399 42:0.0079840319 43:0.039840637 44:0.013972056 45:0.011976048 46:0.055776892 47:0.023952096 48:0.005988024 49:0.053784861 50:0.015968064 51:0.017964072 
1717.879486934243 1:0.38947368 2:0.070422535 3:0.021201413 4:0.070422535 5:0.014134276 6:0.010600707 7:0.010600707 8:0.088028169 9:0.028268551 10:0.049295775 11:0.0070671378 12:0.017667845 13:0.010600707 14:0.014134276 15:0.077464789 16:0.014134276 17:0.042402827 18:0.010600707 19:0.010600707 20:0.063380282 21:0.028268551 22:0.0035335689 23:0.031690141 24:0.0070671378 25:0.056338028 26:0.014134276 27:0.007067138 28:0.03180212 29:0.1056338 30:0.014134276 31:0.038869258 32:0.045774648 33:0.0070671378 34:0.10211268 35:0.028268551 36:0.031690141 37:0.003533569 38:0.010600707 39:0.024647887 40:0.0070671378 41:0.0070671378 42:0.010600707 43:0.049295775 44:0.028268551 45:0.007067138 46:0.063380282 47:0.028268551 48:0.007067138 49:0.070422535 50:0.010600707 51:0.038869258 
32768 1:0.9679803 2:0.17262639 3:0.069135802 4:0.067817509 5:0.032098765 6:0.0012345679 7:0.018518519 8:0.094944513 9:0.050617284 10:0.077681874 11:0.024691358 12:0.019753086 13:0.016049383 14:0.017283951 15:0.092478422 16:0.041975309 17:0.017283951 18:0.019753086 19:0.013580247 20:0.038224414 21:0.020987654 22:0.0074074074 23:0.0061652281 24:0.0012345679 25:0.050554871 26:0.014814815 27:0.013580247 28:0.012345679 29:0.086313194 30:0.012345679 31:0.020987654 32:0.035758323 33:0.0012345679 34:0.041923551 35:0.012345679 36:0.028360049 37:0.001234568 38:0.007407407 39:0.061652281 40:0.012345679 41:0.014814815 42:0.0086419753 43:0.046855734 44:0.022222222 45:0.012345679 46:0.048088779 47:0.013580247 48:0.014814815 49:0.050554871 50:0.012345679 51:0.012345679 
32768 1:0.90334572 2:0.055970149 3:0.014981273 4:0.044776119 5:0.011235955 6:0.014981273 7:0.003745318 8:0.082089552 9:0.026217228 10:0.029850746 11:0 12:0 13:0.026217228 14:0.0037453184 15:0.055970149 16:0.011235955 17:0.014981273 18:0.026217228 19:0.003745318 20:0.082089552 21:0.014981273 22:0.029962547 23:0.059701493 24:0.018726592 25:0.055970149 26:0.0037453184 27:0.014981273 28:0.026217228 29:0.097014925 30:0.018726592 31:0.037453184 32:0.10074627 33:0.02247191 34:0.12313433 35:0.029962547 36:0.048507463 37:0.011235955 38:0.029962547 39:0.003731343 40:0 41:0 42:0 43:0.029850746 44:0.007490637 45:0.007490637 46:0.10074627 47:0.026217228 48:0.003745318 49:0.029850746 50:0.018726592 51:0.0074906367 
32768 1:0.87927928 2:0.075812274 3:0.014466546 4:0.07400722 5:0.025316456 6:0.016274864 7:0.016274864 8:0.093862816 9:0.03074141 10:0.046931408 11:0.0072332731 12:0.01084991 13:0.014466546 14:0.014466546 15:0.088447653 16:0.027124774 17:0.023508137 18:0.018083183 19:0.019891501 20:0.063176895 21:0.021699819 22:0.016274864 23:0.034296029 24:0.01084991 25:0.059566787 26:0.014466546 27:0.018083183 28:0.012658228 29:0.09566787 30:0.018083183 31:0.034358047 32:0.050541516 33:0.0036166365 34:0.063176895 35:0.0090415913 36:0.046931408 37:0.009041591 38:0.025316456 39:0.030685921 40:0.014466546 41:0.0036166365 42:0.0054249548 43:0.059566787 44:0.027124774 45:0.016274864 46:0.063176895 47:0.027124774 48:0.012658228 49:0.054151625 50:0.01084991 51:0.019891501 
32768 1:0.82599119 2:0.070640177 3:0.011061947 4:0.052980132 5:0.017699115 6:0.0022123894 7:0.022123894 8:0.08388521 9:0.028761062 10:0.066225166 11:0.0066371681 12:0.011061947 13:0.028761062 14:0.019911504 15:0.081677704 16:0.022123894 17:0.019911504 18:0.028761062 19:0.011061947 20:0.046357616 21:0.022123894 22:0.0088495575 23:0.015452539 24:0.0022123894 25:0.086092715 26:0.013274336 27:0.011061947 28:0.042035398 29:0.090507726 30:0.017699115 31:0.017699115 32:0.079470199 33:0.0066371681 34:0.06401766 35:0.017699115 36:0.024282561 37:0.011061947 38:0.006637168 39:0.030905077 40:0.0066371681 41:0.0044247788 42:0.011061947 43:0.050772627 44:0.017699115 45:0.015486726 46:0.092715232 47:0.026548673 48:0.013274336 49:0.06401766 50:0.015486726 51:0.019911504 
32768 1:0.9512721 2:0.12295082 3:0.047906776 4:0.066005177 5:0.025463962 6:0.0004315926 7:0.019421666 8:0.067730802 9:0.03021148 10:0.091026747 11:0.024600777 12:0.019853259 13:0.029779888 14:0.016832111 15:0.078947368 16:0.013810962 17:0.01510574 18:0.020716444 19:0.029348295 20:0.051768766 21:0.01683211 22:0.01337937 23:0.011216566 24:0.003021148 25:0.060396894 26:0.012084592 27:0.009063444 28:0.018558481 29:0.080241588 30:0.009495037 31:0.017695296 32:0.029335634 33:0.003021148 34:0.040120794 35:0.0069054812 36:0.040983607 37:0.007768666 38:0.01337937 39:0.06557377 40:0.019421666 41:0.0077686664 42:0.018126888 43:0.055220017 44:0.026327147 45:0.015537333 46:0.071182053 47:0.023737592 48:0.020284851 49:0.067299396 50:0.009495037 51:0.024169184 
32768 1:0.92811839 2:0.10169491 3:0.040339703 4:0.044491525 5:0.023354565 6:0.0021231423 7:0.006369427 8:0.093220339 9:0.040339703 10:0.076271186 11:0.010615711 12:0.023354565 13:0.021231423 14:0.021231422 15:0.097457627 16:0.021231423 17:0.012738854 18:0.031847134 19:0.031847134 20:0.059322034 21:0.029723992 22:0.014861996 23:0.0063559322 24:0.0042462845 25:0.05720339 26:0.008492569 27:0.016985138 28:0.014861996 29:0.080508475 30:0.014861996 31:0.01910828 32:0.046610169 33:0.0021231423 34:0.033898305 35:0.0021231423 36:0.044491525 37:0.010615711 38:0.016985138 39:0.036016949 40:0.0042462845 41:0.010615711 42:0.014861996 43:0.069915254 44:0.027600849 45:0.01910828 46:0.072033898 47:0.025477707 48:0.016985138 49:0.080508475 50:0.01910828 51:0.033970276 
32768 1:0.91008772 2:0.11868132 3:0.052863436 4:0.041758242 5:0.019823789 6:0.0044052863 7:0.008810573 8:0.083516484 9:0.028634361 10:0.07032967 11:0.015418502 12:0.017621145 13:0.017621145 14:0.019823789 15:0.081318681 16:0.024229075 17:0.008810573 18:0.030837004 19:0.017621145 20:0.059340659 21:0.028634361 22:0.011013216 23:0.010989011 24:0.0088105727 25:0.068131868 26:0.0088105727 27:0.019823789 28:0.013215859 29:0.074725275 30:0.013215859 31:0.015418502 32:0.054945055 33:0.0022026432 34:0.035164835 35:0 36:0.041758242 37:0.011013216 38:0.015418502 39:0.041758242 40:0.011013216 41:0.0088105727 42:0.0066079295 43:0.063736264 44:0.015418502 45:0.019823789 46:0.074725275 47:0.028634361 48:0.013215859 49:0.079120879 50:0.028634361 51:0.019823789 
32768 1:0.96153846 2:0.0861678 3:0.020454546 4:0.06122449 5:0.018181818 6:0.0022727273 7:0.022727273 8:0.081632653 9:0.027272727 10:0.058956916 11:0.015909091 12:0.006818182 13:0.025 14:0.011363636 15:0.10657596 16:0.036363636 17:0.013636364 18:0.045454545 19:0.011363636 20:0.083900227 21:0.036363636 22:0.025 23:0.013605442 24:0.0045454545 25:0.068027211 26:0.0090909091 27:0.022727273 28:0.018181818 29:0.06122449 30:0.011363636 31:0.011363636 32:0.058956916 33:0.0045454545 34:0.024943311 35:0.0068181818 36:0.049886621 37:0.018181818 38:0.006818182 39:0.036281179 40:0.011363636 41:0.0045454545 42:0.0090909091 43:0.068027211 44:0.029545455 45:0.013636364 46:0.074829932 47:0.020454545 48:0.025 49:0.065759637 50:0.022727273 51:0.018181818 
32768 1:0.92248062 2:0.072445019 3:0.016839378 4:0.063389392 5:0.015544041 6:0.0077720207 7:0.019430052 8:0.063389392 9:0.023316062 10:0.06080207 11:0.0090673575 12:0.009067358 13:0.024611399 14:0.018134715 15:0.089262613 16:0.022020725 17:0.024611399 18:0.020725389 19:0.022020725 20:0.080206986 21:0.03626943 22:0.018134715 23:0.011642949 24:0.0051813472 25:0.082794308 26:0.011658031 27:0.022020725 28:0.025906736 29:0.059508409 30:0.010362694 31:0.016839378 32:0.046571798 33:0.0012953368 34:0.040103493 35:0.0090673575 36:0.04915912 37:0.018134715 38:0.009067358 39:0.038809832 40:0.014248705 41:0.0038860104 42:0.0090673575 43:0.072445019 44:0.024611399 45:0.019430052 46:0.080206986 47:0.020725389 48:0.027202073 49:0.089262613 50:0.020725389 51:0.03238342 
32768 1:0.88073395 2:0.082720588 3:0.018416206 4:0.073529412 5:0.034990792 6:0.0036832413 7:0.020257827 8:0.090073529 9:0.027624309 10:0.058823529 11:0.0073664825 12:0.011049724 13:0.020257827 14:0.020257827 15:0.091911765 16:0.023941068 17:0.018416206 18:0.025782689 19:0.023941068 20:0.034926471 21:0.011049724 22:0.0055248619 23:0.023897059 24:0.0055248619 25:0.068014706 26:0.014732965 27:0.016574586 28:0.020257827 29:0.090073529 30:0.014732965 31:0.02946593 32:0.058823529 33:0.0073664825 34:0.047794118 35:0.0055248619 36:0.049632353 37:0.009208103 38:0.027624309 39:0.042279412 40:0.020257827 41:0.0055248619 42:0.0092081031 43:0.049632353 44:0.023941068 45:0.014732965 46:0.084558824 47:0.02946593 48:0.018416206 49:0.053308824 50:0.016574586 51:0.0073664825 
32768 1:0.95092025 2:0.071721311 3:0.030800821 4:0.047131148 5:0.020533881 6:0.0061601643 7:0.01026694 8:0.075819672 9:0.018480493 10:0.045081967 11:0.0082135524 12:0.01026694 13:0.016427105 14:0.010266941 15:0.073770492 16:0.014373717 17:0.016427105 18:0.030800821 19:0.01026694 20:0.081967213 21:0.022587269 22:0.022587269 23:0.024590164 24:0.0061601643 25:0.096311475 26:0.010266941 27:0.032854209 28:0.041067762 29:0.071721311 30:0.014373717 31:0.020533881 32:0.075819672 33:0.0082135524 34:0.092213115 35:0.026694045 36:0.032786885 37:0.016427105 38:0.012320329 39:0.024590164 40:0.0082135524 41:0.0082135524 42:0.0020533881 43:0.071721311 44:0.014373717 45:0.028747433 46:0.079918033 47:0.016427105 48:0.01026694 49:0.034836066 50:0.01026694 51:0.0082135524 
32768 1:0.9714795 2:0.083928571 3:0.030411449 4:0.066071429 5:0.017889088 6:0.0053667263 7:0.025044723 8:0.080357143 9:0.02862254 10:0.041071429 11:0.0035778175 12:0.010733453 13:0.017889088 14:0.0089445438 15:0.082142857 16:0.017889088 17:0.026833631 18:0.025044723 19:0.012522361 20:0.083928571 21:0.030411449 22:0.01431127 23:0.0125 24:0.0071556351 25:0.089285714 26:0.0071556351 27:0.023255814 28:0.037567084 29:0.085714286 30:0.01431127 31:0.030411449 32:0.066071429 33:0.0035778175 34:0.058928571 35:0.0089445438 36:0.0375 37:0.007155635 38:0.021466905 39:0.021428571 40:0.0017889088 41:0.0089445438 42:0.0017889088 43:0.051785714 44:0.017889088 45:0.012522361 46:0.094642857 47:0.025044723 48:0.016100179 49:0.044642857 50:0.017889088 51:0.0071556351 
32768 1:0.7903577 2:0.062850031 3:0.013383131 4:0.082762912 5:0.032057267 6:0.027388733 7:0.011826953 8:0.066583696 9:0.014316838 10:0.071561917 11:0.017117958 12:0.021786492 13:0.023031435 14:0.0096483038 15:0.088674549 16:0.019919079 17:0.024276377 18:0.015873016 19:0.02832244 20:0.061294337 21:0.025832555 22:0.013694367 23:0.059427505 24:0.034858388 25:0.053204729 26:0.016806723 27:0.009648304 28:0.018674136 29:0.079962663 30:0.029256147 31:0.027077498 32:0.075606721 33:0.0043572985 34:0.070317362 35:0.016184251 36:0.034536403 37:0.004046063 38:0.011204482 39:0.052271313 40:0.014316838 41:0.0040460629 42:0.01556178 43:0.04293715 44:0.010270775 45:0.010270775 46:0.064094586 47:0.021475257 48:0.018051665 49:0.033914126 50:0.011204482 51:0.0096483038 
32768 1:0.93759287 2:0.06547619 3:0.013412817 4:0.052083333 5:0.017883756 6:0.001490313 7:0.011922504 8:0.092261905 9:0.034277198 10:0.0625 11:0.0074515648 12:0.01490313 13:0.022354694 14:0.017883756 15:0.089285714 16:0.020864382 17:0.022354694 18:0.02533532 19:0.020864382 20:0.077380952 21:0.026825633 22:0.020864382 23:0.0074404762 24:0.0029806259 25:0.069940476 26:0.01490313 27:0.019374069 28:0.017883756 29:0.084821429 30:0.011922504 31:0.026825633 32:0.049107143 33:0.001490313 34:0.05952381 35:0.011922504 36:0.047619048 37:0.007451565 38:0.026825633 39:0.032738095 40:0.010432191 41:0.0044709389 42:0.010432191 43:0.06547619 44:0.028315946 45:0.020864382 46:0.081845238 47:0.023845007 48:0.01490313 49:0.0625 50:0.01490313 51:0.017883756 
32768 1:1 2:0.12405063 3:0.043147208 4:0.050632911 5:0.017766497 6:0 7:0.017766497 8:0.098734177 9:0.045685279 10:0.065822785 11:0.0050761421 12:0.010152284 13:0.027918782 14:0.02284264 15:0.086075949 16:0.020304569 17:0.012690355 18:0.02284264 19:0.030456853 20:0.050632911 21:0.030456853 22:0.012690355 23:0.012658228 24:0.0025380711 25:0.058227848 26:0.010152284 27:0.012690355 28:0.02284264 29:0.10126582 30:0.012690355 31:0.025380711 32:0.058227848 33:0.010152284 34:0.065822785 35:0.02284264 36:0.025316456 37:0.012690355 38:0.007614213 39:0.027848101 40:0.0076142132 41:0.0025380711 42:0.0025380711 43:0.048101266 44:0.02284264 45:0.015228426 46:0.073417722 47:0.02284264 48:0.012690355 49:0.053164557 50:0.015228426 51:0.012690355 
32768 1:0.74734982 2:0.12212389 3:0.039007092 4:0.069026549 5:0.030141844 6:0.0035460993 7:0.023049645 8:0.099115044 9:0.042553191 10:0.076106195 11:0.024822695 12:0.010638298 13:0.030141844 14:0.010638298 15:0.083185841 16:0.021276596 17:0.014184397 18:0.019503546 19:0.028368794 20:0.03539823 21:0.017730496 22:0.0035460993 23:0.0088495575 24:0 25:0.060176991 26:0.010638298 27:0.005319149 28:0.019503546 29:0.099115044 30:0.017730496 31:0.028368794 32:0.049557522 33:0.0017730496 34:0.046017699 35:0.0088652482 36:0.030088496 37:0.003546099 38:0.010638298 39:0.060176991 40:0.012411347 41:0.0053191489 42:0.021276596 43:0.033628319 44:0.023049645 45:0.005319149 46:0.072566372 47:0.030141844 48:0.005319149 49:0.054867257 50:0.012411348 51:0.010638298 
32768 1:0.73214286 2:0.1471173 3:0.061752988 4:0.047713718 5:0.011952191 6:0.0039840637 7:0.019920319 8:0.049701789 9:0.021912351 10:0.089463221 11:0.0099601594 12:0.001992032 13:0.03187251 14:0.045816733 15:0.053677932 16:0.021912351 17:0.009960159 18:0.011952191 19:0.009960159 20:0.035785288 21:0.017928287 22:0.0039840637 23:0.021868787 24:0.0039840637 25:0.047713718 26:0.011952191 27:0.005976096 28:0.015936255 29:0.061630219 30:0.005976096 31:0.005976096 32:0.043737575 33:0.0099601594 34:0.035785288 35:0.011952191 36:0.051689861 37:0.007968127 38:0.007968127 39:0.069582505 40:0.013944223 41:0.011952191 42:0.013944223 43:0.033797217 44:0.007968127 45:0.013944223 46:0.085487078 47:0.021912351 48:0.023904382 49:0.12524851 50:0.029880478 51:0.045816733 
32768 1:0.94362745 2:0.073710074 3:0.019704434 4:0.046683047 5:0.012315271 6:0.0049261084 7:0.017241379 8:0.088452088 9:0.024630542 10:0.061425061 11:0.0098522167 12:0.012315271 13:0.012315271 14:0.027093596 15:0.066339066 16:0.004926108 17:0.007389163 18:0.041871921 19:0.012315271 20:0.063882064 21:0.024630542 22:0.019704434 23:0.02948403 24:0.017241379 25:0.081081081 26:0.017241379 27:0.017241379 28:0.02955665 29:0.081081081 30:0.014778325 31:0.017241379 32:0.071253071 33:0.019704434 34:0.061425061 35:0.017241379 36:0.031941032 37:0.014778325 38:0.002463054 39:0.049140049 40:0.012315271 41:0.0024630542 42:0.017241379 43:0.058968059 44:0.017241379 45:0.027093596 46:0.066339066 47:0.017241379 48:0.017241379 49:0.068796069 50:0.022167488 51:0.014778325 
32768 1:0.96467722 2:0.042682927 3:0.0097680098 4:0.046341463 5:0.008547009 6:0.0036630037 7:0.008547009 8:0.084146341 9:0.015873016 10:0.030487805 11:0.0012210012 12:0.003663004 13:0.012210012 14:0.013431013 15:0.073170732 16:0.013431013 17:0.014652015 18:0.035409035 19:0.00976801 20:0.11219512 21:0.031746032 22:0.031746032 23:0.030487805 24:0.0073260073 25:0.074390244 26:0.0036630037 27:0.028083028 28:0.034188034 29:0.067073171 30:0.018315018 31:0.025641026 32:0.070731707 33:0.0085470085 34:0.10243902 35:0.030525031 36:0.053658537 37:0.00976801 38:0.021978022 39:0.019512195 40:0.0061050061 41:0.0036630037 42:0.0048840049 43:0.062195122 44:0.015873016 45:0.014652015 46:0.076829268 47:0.018315018 48:0.012210012 49:0.053658537 50:0.008547009 51:0.01953602 
32768 1:0.96091954 2:0.066820276 3:0.016166282 4:0.059907834 5:0.032332564 6:0.0023094688 7:0.011547344 8:0.078341014 9:0.013856813 10:0.057603687 11:0.0046189376 12:0.011547344 13:0.025404157 14:0.016166282 15:0.099078341 16:0.018475751 17:0.025404157 18:0.032332564 19:0.023094688 20:0.052995392 21:0.027713626 22:0.0069284065 23:0.011520737 24:0 25:0.062211982 26:0.0069284065 27:0.016166282 28:0.023094688 29:0.064516129 30:0.009237875 31:0.023094688 32:0.059907834 33:0.0046189376 34:0.11059908 35:0.032332564 36:0.046082949 37:0.009237875 38:0.011547344 39:0.032258065 40:0.0069284065 41:0.0069284065 42:0.0092378753 43:0.052995392 44:0.018475751 45:0.018475751 46:0.080645161 47:0.013856813 48:0.006928406 49:0.064516129 50:0.020785219 51:0.020785219 
32768 1:0.32608696 2:0.091503268 3:0.032751092 4:0.052287582 5:0.024017467 6:0.0021834061 7:0.008733624 8:0.11764706 9:0.03930131 10:0.052287582 11:0.010917031 12:0.017467249 13:0.008733624 14:0.015283843 15:0.089324619 16:0.024017467 17:0.013100437 18:0.045851528 19:0.006550218 20:0.045751634 21:0.024017467 22:0 23:0.017429194 24:0.0065502183 25:0.067538126 26:0.017467249 27:0.013100437 28:0.021834061 29:0.091503268 30:0.015283843 31:0.037117904 32:0.05664488 33:0.0043668122 34:0.061002179 35:0.0065502183 36:0.039215686 37:0.013100437 38:0.013100437 39:0.043572985 40:0.0065502183 41:0.013100437 42:0.010917031 43:0.063180828 44:0.021834061 45:0.019650655 46:0.052287582 47:0.010917031 48:0.013100437 49:0.058823529 50:0.008733624 51:0.021834061 
32768 1:0.95121951 2:0.081521739 3:0.027247956 4:0.046195652 5:0.021798365 6:0.0027247956 7:0.008174387 8:0.059782609 9:0.013623978 10:0.092391304 11:0.013623978 12:0.027247956 13:0.027247956 14:0.021798365 15:0.086956522 16:0.019073569 17:0.010899183 18:0.024523161 19:0.032697548 20:0.070652174 21:0.032697548 22:0.013623978 23:0.0081521739 24:0.0027247956 25:0.089673913 26:0.0054495913 27:0.029972752 28:0.021798365 29:0.057065217 30:0.002724796 31:0.010899183 32:0.043478261 33:0.0027247956 34:0.019021739 35:0 36:0.035326087 37:0.008174387 38:0.005449591 39:0.054347826 40:0.010899183 41:0.0054495913 42:0.021798365 43:0.092391304 44:0.029972752 45:0.040871935 46:0.067934783 47:0.032697548 48:0.010899183 49:0.095108696 50:0.013623978 51:0.029972752 
32768 1:0.87352941 2:0.067746686 3:0.014749263 4:0.060382916 5:0.028023599 6:0.0044247788 7:0.013274336 8:0.070692194 9:0.026548673 10:0.064801178 11:0.017699115 12:0.010324484 13:0.019174041 14:0.017699115 15:0.072164948 16:0.014749263 17:0.017699115 18:0.025073746 19:0.014749263 20:0.075110457 21:0.020648968 22:0.022123894 23:0.014727541 24:0.0014749263 25:0.089837997 26:0.013274336 27:0.020648968 28:0.032448378 29:0.078055965 30:0.016224189 31:0.019174041 32:0.0544919 33:0.0044247788 34:0.050073638 35:0.0088495575 36:0.039764359 37:0.01179941 38:0.01179941 39:0.045655376 40:0.014749263 41:0.005899705 42:0.013274336 43:0.06185567 44:0.010324484 45:0.026548673 46:0.086892489 47:0.028023599 48:0.014749263 49:0.067746686 50:0.02359882 51:0.019174041 
32768 1:0.49608611 2:0.031341822 3:0.0029411765 4:0.042115573 5:0.005882353 6:0.01372549 7:0.009803922 8:0.10871694 9:0.023529412 10:0.014691479 11:0.0029411765 12:0.001960784 13:0.006862745 14:0.0029411765 15:0.059745348 16:0.008823529 17:0.007843137 18:0.040196078 19:0.002941176 20:0.068560235 21:0.014705882 22:0.015686274 23:0.083251714 24:0.042156863 25:0.080313418 26:0.0078431373 27:0.019607843 28:0.045098039 29:0.088148874 30:0.018627451 31:0.050980392 32:0.14593536 33:0.043137255 34:0.10088149 35:0.016666667 36:0.032321254 37:0.006862745 38:0.016666667 39:0.017629775 40:0.0058823529 41:0.0039215686 42:0.0019607843 43:0.035259549 44:0.004901961 45:0.009803922 46:0.074436827 47:0.008823529 48:0.007843137 49:0.016650343 50:0.005882353 51:0.0019607843 
32768 1:1 2:0.091286307 3:0.027027027 4:0.053941909 5:0.020790021 6:0.0041580042 7:0.018711019 8:0.062240664 9:0.01039501 10:0.085062241 11:0.022869023 12:0.020790021 13:0.014553015 14:0.027027027 15:0.070539419 16:0.018711019 17:0.014553015 18:0.012474012 19:0.024948025 20:0.037344398 21:0.014553015 22:0.0041580042 23:0.0082987552 24:0 25:0.078838174 26:0.014553015 27:0.016632017 28:0.024948025 29:0.056016598 30:0.012474012 31:0.01039501 32:0.041493776 33:0.0020790021 34:0.043568465 35:0.0041580042 36:0.039419087 37:0.002079002 38:0.004158004 39:0.074688797 40:0.016632017 41:0.016632017 42:0.0083160083 43:0.062240664 44:0.018711019 45:0.024948025 46:0.066390041 47:0.016632017 48:0.020790021 49:0.12863071 50:0.022869023 51:0.056133056 
32768 1:1 2:0.13745704 3:0.046471601 4:0.049828179 5:0.030981067 6:0 7:0.015490534 8:0.082474227 9:0.034423408 10:0.065292096 11:0.012048193 12:0.012048193 13:0.022375215 14:0.018932874 15:0.079037801 16:0.039586919 17:0.003442341 18:0.018932874 19:0.017211704 20:0.032646048 21:0.010327022 22:0.0051635112 23:0.0085910653 24:0 25:0.065292096 26:0.010327022 27:0.012048193 28:0.017211704 29:0.077319588 30:0.013769363 31:0.017211704 32:0.04467354 33:0 34:0.036082474 35:0.0051635112 36:0.046391753 37:0.005163511 38:0.012048193 39:0.041237113 40:0.0068846816 41:0.0051635112 42:0.012048193 43:0.058419244 44:0.022375215 45:0.020654045 46:0.077319588 47:0.020654045 48:0.015490534 49:0.097938144 50:0.025817556 51:0.030981067 
32768 1:0.94812165 2:0.041218638 3:0.0089766607 4:0.05734767 5:0.016157989 6:0.0089766607 7:0.012567325 8:0.086021505 9:0.032315978 10:0.035842294 11:0.0017953321 12:0.007181329 13:0.019748654 14:0.0071813285 15:0.084229391 16:0.010771993 17:0.021543986 18:0.037701975 19:0.014362657 20:0.11111111 21:0.030520646 22:0.037701975 23:0.034050179 24:0.012567325 25:0.075268817 26:0.0035906643 27:0.026929982 28:0.034111311 29:0.082437276 30:0.021543986 31:0.030520646 32:0.075268817 33:0.0089766607 34:0.109319 35:0.032315979 36:0.035842294 37:0.016157989 38:0.010771993 39:0.012544803 40:0.0035906643 41:0.0017953321 42:0.0035906643 43:0.0609319 44:0.023339318 45:0.008976661 46:0.073476703 47:0.014362657 48:0.010771993 49:0.025089606 50:0.008976661 51:0.0017953321 
32768 1:0.8650519 2:0.038194444 3:0.0069686411 4:0.079861111 5:0.034843206 6:0.0069686411 7:0.027874564 8:0.052083333 9:0.013937282 10:0.065972222 11:0.0069686411 12:0.006968641 13:0.024390244 14:0.027874565 15:0.10069444 16:0.017421603 17:0.027874564 18:0.020905923 19:0.034843206 20:0.055555556 21:0.027874564 22:0.017421603 23:0.017361111 24:0.0069686411 25:0.072916667 26:0.010452962 27:0.013937282 28:0.031358885 29:0.065972222 30:0.031358885 31:0.017421603 32:0.048611111 33:0.0069686411 34:0.072916667 35:0.017421603 36:0.052083333 37:0.010452962 38:0.027874564 39:0.03125 40:0.010452962 41:0.0034843206 42:0.010452962 43:0.0625 44:0.020905923 45:0.024390244 46:0.10069444 47:0.024390244 48:0.027874564 49:0.083333333 50:0.017421603 51:0.027874565 
32768 1:0.97861635 2:0.071788413 3:0.020176545 4:0.054156171 5:0.01261034 6:0.0063051702 7:0.022698613 8:0.060453401 9:0.017654477 10:0.093198992 11:0.037831021 12:0.008827238 13:0.021437579 14:0.025220681 15:0.061712846 16:0.017654477 17:0.01261034 18:0.020176545 19:0.011349306 20:0.040302267 21:0.01261034 22:0.010088272 23:0.0075566751 24:0 25:0.089420655 26:0.017654477 27:0.020176545 28:0.029003783 29:0.06675063 30:0.013871375 31:0.011349306 32:0.042821159 33:0 34:0.040302267 35:0.0088272383 36:0.049118388 37:0.008827238 38:0.020176545 39:0.079345088 40:0.018915511 41:0.0075662043 42:0.035308953 43:0.061712846 44:0.020176545 45:0.029003783 46:0.091939547 47:0.027742749 48:0.026481715 49:0.089420655 50:0.020176545 51:0.031525851 
5652.024273233959 1:0.92255125 2:0.095890411 3:0.029748284 4:0.066210046 5:0.022883295 6:0.004576659 7:0.025171625 8:0.050228311 9:0.020594966 10:0.084474886 11:0.022883295 12:0.004576659 13:0.032036613 14:0.025171625 15:0.073059361 16:0.020594966 17:0.018306636 18:0.016018307 19:0.018306636 20:0.054794521 21:0.016018307 22:0.013729977 23:0.0091324201 24:0.0022883295 25:0.079908676 26:0.018306636 27:0.020594966 28:0.020594966 29:0.066210046 30:0.004576659 31:0.006864989 32:0.03652968 33:0.0022883295 34:0.038812785 35:0.011441648 36:0.047945205 37:0.016018307 38:0.020594966 39:0.061643836 40:0.027459954 41:0.004576659 42:0.011441648 43:0.059360731 44:0.013729977 45:0.022883295 46:0.091324201 47:0.027459954 48:0.032036613 49:0.084474886 50:0.018306636 51:0.034324943 
32768 1:0.91830986 2:0.093220339 3:0.031161473 4:0.064971751 5:0.02266289 6:0.0028328612 7:0.025495751 8:0.062146893 9:0.025495751 10:0.06779661 11:0.011331445 12:0.014164306 13:0.028328612 14:0.014164306 15:0.076271186 16:0.025495751 17:0.019830028 18:0.02266289 19:0.008498584 20:0.059322034 21:0.016997167 22:0.016997167 23:0.0056497175 24:0 25:0.096045198 26:0.022662889 27:0.025495751 28:0.014164306 29:0.070621469 30:0.005665722 31:0.014164306 32:0.036723164 33:0 34:0.042372881 35:0.0084985836 36:0.042372881 37:0.016997167 38:0.016997167 39:0.04519774 40:0.022662889 41:0.0028328612 42:0.014164306 43:0.076271186 44:0.014164306 45:0.039660057 46:0.081920904 47:0.02266289 48:0.028328612 49:0.079096045 50:0.02266289 51:0.028328612 
32768 1:0.91522491 2:0.077989601 3:0.022569444 4:0.043327556 5:0.012152778 6:0.0052083333 7:0.013888889 8:0.077989601 9:0.03125 10:0.058925477 11:0.0034722222 12:0.013888889 13:0.026041667 14:0.015625 15:0.071057192 16:0.024305556 17:0.003472222 18:0.022569444 19:0.020833333 20:0.064124783 21:0.022569444 22:0.010416667 23:0.025996534 24:0.0034722222 25:0.074523397 26:0.0034722222 27:0.024305556 28:0.024305556 29:0.08492201 30:0.019097222 31:0.027777778 32:0.065857886 33:0.0017361111 34:0.079722704 35:0.022569444 36:0.03812825 37:0.008680556 38:0.012152778 39:0.022530329 40:0.0017361111 41:0.0052083333 42:0.0069444444 43:0.062391681 44:0.020833333 45:0.012152778 46:0.086655113 47:0.022569444 48:0.010416667 49:0.065857886 50:0.024305556 51:0.017361111 
32768 1:0.5449827 2:0.060658579 3:0.012152778 4:0.041594454 5:0.010416667 6:0.0069444444 7:0.010416667 8:0.088388215 9:0.029513889 10:0.062391681 11:0.012152778 12:0.019097222 13:0.013888889 14:0.017361111 15:0.057192374 16:0.015625 17:0.006944444 18:0.026041667 19:0.008680556 20:0.057192374 21:0.017361111 22:0.012152778 23:0.013864818 24:0.0034722222 25:0.079722704 26:0.0052083333 27:0.019097222 28:0.041666667 29:0.10051993 30:0.013888889 31:0.026041667 32:0.043327556 33:0.0034722222 34:0.086655113 35:0.019097222 36:0.050259965 37:0.006944444 38:0.013888889 39:0.034662045 40:0.010416667 41:0.0086805556 42:0.012152778 43:0.065857886 44:0.020833333 45:0.029513889 46:0.091854419 47:0.022569444 48:0.012152778 49:0.065857886 50:0.022569444 51:0.013888889 
32768 1:0.95172414 2:0.11917098 3:0.044982699 4:0.07253886 5:0.029411765 6:0.0034602076 7:0.031141869 8:0.043177893 9:0.01384083 10:0.11744387 11:0.048442907 12:0.008650519 13:0.019031142 14:0.039792387 15:0.077720207 16:0.025951557 17:0.017301038 18:0.017301038 19:0.017301038 20:0.025906736 21:0.015570934 22:0.0034602076 23:0.010362694 24:0 25:0.053540587 26:0.019031142 27:0.006920415 28:0.01384083 29:0.043177893 30:0.015570934 31:0.001730104 32:0.020725389 33:0 34:0.03626943 35:0.0069204152 36:0.04835924 37:0.006920415 38:0.010380623 39:0.11053541 40:0.020761246 41:0.012110727 42:0.038062284 43:0.04835924 44:0.019031142 45:0.012110727 46:0.058721934 47:0.012110727 48:0.017301038 49:0.11398964 50:0.015570934 51:0.053633218 
32768 1:0.93966817 2:0.083081571 3:0.028744327 4:0.066465257 5:0.018154312 6:0.0030257186 7:0.018154312 8:0.074018127 9:0.02269289 10:0.054380665 11:0.016641452 12:0.004538578 13:0.015128593 14:0.018154312 15:0.090634441 16:0.025718608 17:0.024205749 18:0.024205749 19:0.016641452 20:0.075528701 21:0.033282905 22:0.010590015 23:0.012084592 24:0.0030257186 25:0.087613293 26:0.010590015 27:0.037821483 28:0.02118003 29:0.060422961 30:0.015128593 31:0.015128593 32:0.049848943 33:0.0030257186 34:0.043806647 35:0.0090771558 36:0.042296073 37:0.012102874 38:0.012102874 39:0.045317221 40:0.016641452 41:0.0090771558 42:0.010590015 43:0.074018127 44:0.02269289 45:0.019667171 46:0.064954683 47:0.019667171 48:0.009077156 49:0.075528701 50:0.016641452 51:0.030257186 
32768 1:0.93233083 2:0.12562814 3:0.032745592 4:0.055276382 5:0.012594458 6:0.0025188917 7:0.025188917 8:0.072864322 9:0.027707809 10:0.055276382 11:0.0075566751 12:0.012594458 13:0.017632242 14:0.017632242 15:0.072864322 16:0.025188917 17:0.012594458 18:0.01511335 19:0.020151134 20:0.065326633 21:0.022670025 22:0.01511335 23:0.0050251256 24:0 25:0.087939698 26:0.017632242 27:0.025188917 28:0.025188917 29:0.060301508 30:0 31:0.012594458 32:0.045226131 33:0 34:0.050251256 35:0.010075567 36:0.042713568 37:0.005037783 38:0.012594458 39:0.050251256 40:0.012594458 41:0.0025188917 42:0.0075566751 43:0.065326633 44:0.01511335 45:0.025188917 46:0.070351759 47:0.010075567 48:0.01511335 49:0.075376884 50:0.01511335 51:0.027707809 
32768 1:0.98461539 2:0.11986301 3:0.044596913 4:0.056506849 5:0.02915952 6:0 7:0.018867925 8:0.10958904 9:0.04974271 10:0.061643836 11:0.0068610635 12:0.006861063 13:0.027444254 14:0.02058319 15:0.087328767 16:0.027444254 17:0.015437393 18:0.032590051 19:0.012006861 20:0.034246575 21:0.018867925 22:0.0085763293 23:0.0017123288 24:0 25:0.059931507 26:0.010291595 27:0.013722127 28:0.022298456 29:0.099315068 30:0.013722127 31:0.02915952 32:0.049657534 33:0.0017152659 34:0.051369863 35:0.010291595 36:0.039383562 37:0.005145798 38:0.010291595 39:0.039383562 40:0.0085763293 41:0.012006861 42:0.012006861 43:0.042808219 44:0.015437393 45:0.012006861 46:0.078767123 47:0.025728988 48:0.015437393 49:0.068493151 50:0.018867925 51:0.022298456 
32768 1:0.88016529 2:0.062111801 3:0.01659751 4:0.043478261 5:0.012448133 6:0.012448133 7:0.012448133 8:0.080745342 9:0.020746888 10:0.064182195 11:0.0062240664 12:0.018672199 13:0.018672199 14:0.020746888 15:0.064182195 16:0.014522822 17:0.010373444 18:0.024896266 19:0.014522822 20:0.057971014 21:0.01659751 22:0.01659751 23:0.031055901 24:0.0041493776 25:0.060041408 26:0.0020746888 27:0.018672199 28:0.024896266 29:0.095238095 30:0.012448133 31:0.031120332 32:0.053830228 33:0.010373444 34:0.093167702 35:0.024896266 36:0.051759834 37:0.008298755 38:0.018672199 39:0.031055901 40:0.0062240664 41:0.0082987552 42:0.010373444 43:0.057971014 44:0.024896266 45:0.010373444 46:0.086956522 47:0.020746888 48:0.020746888 49:0.066252588 50:0.024896266 51:0.01659751 
32768 1:0.94636015 2:0.13422819 3:0.055662188 4:0.046021093 5:0.017274472 6:0.0019193858 7:0.015355086 8:0.10354746 9:0.03646833 10:0.053691275 11:0.014395394 12:0.011516315 13:0.018234165 14:0.009596929 15:0.069990412 16:0.023992322 17:0.005758157 18:0.02975048 19:0.010556622 20:0.059443912 21:0.023992322 22:0.021113244 23:0.0076701822 24:0 25:0.06232023 26:0.009596929 27:0.012476008 28:0.028790787 29:0.095877277 30:0.015355086 31:0.020153551 32:0.038350911 33:0.0028790787 34:0.056567593 35:0.0086372361 36:0.052732502 37:0.017274472 38:0.013435701 39:0.038350911 40:0.0086372361 41:0.0076775432 42:0.012476008 43:0.055608821 44:0.018234165 45:0.018234165 46:0.075743049 47:0.027831094 48:0.016314779 49:0.049856184 50:0.014395393 51:0.013435701 
32768 1:0.98809524 2:0.053677932 3:0.017928287 4:0.053677932 5:0.029880478 6:0 7:0.015936255 8:0.045725646 9:0.017928287 10:0.083499006 11:0.017928287 12:0.003984064 13:0.047808765 14:0.013944223 15:0.079522863 16:0.009960159 17:0.015936255 18:0.023904382 19:0.029880478 20:0.043737575 21:0.015936255 22:0.0099601594 23:0.0059642147 24:0 25:0.055666004 26:0.0079681275 27:0.009960159 28:0.019920319 29:0.059642147 30:0.013944223 31:0.007968127 32:0.045725646 33:0.0039840637 34:0.085487078 35:0.03187251 36:0.089463221 37:0.007968127 38:0.049800797 39:0.043737575 40:0.0079681275 41:0.0059760956 42:0.023904383 43:0.043737575 44:0.011952191 45:0.009960159 46:0.14115308 47:0.021912351 48:0.059760956 49:0.069582505 50:0.023904382 51:0.017928287 
32768 1:0.97104677 2:0.066889632 3:0.016741071 4:0.056856187 5:0.017857143 6:0.0055803571 7:0.025669643 8:0.090301003 9:0.027901786 10:0.062430323 11:0.010044643 12:0.014508929 13:0.016741071 14:0.021205357 15:0.090301003 16:0.014508929 17:0.018973214 18:0.033482143 19:0.0234375 20:0.054626533 21:0.022321429 22:0.013392857 23:0.013377926 24:0.0022321429 25:0.081382386 26:0.015625 27:0.0234375 28:0.025669643 29:0.070234114 30:0.0078125 31:0.027901786 32:0.061315496 33:0.0022321429 34:0.053511706 35:0.011160714 36:0.045707915 37:0.008928571 38:0.018973214 39:0.049052397 40:0.013392857 41:0.0078125 42:0.011160714 43:0.066889632 44:0.0234375 45:0.021205357 46:0.073578595 47:0.014508929 48:0.021205357 49:0.063545151 50:0.012276786 51:0.014508929 
32768 1:0.97169374 2:0.02553389 3:0.00510915 4:0.056174559 5:0.021365536 6:0.010682768 7:0.006967023 8:0.076601671 9:0.018114259 10:0.026462396 11:0.0023223409 12:0.007431491 13:0.013005109 14:0.0037157455 15:0.086350975 16:0.007431491 17:0.024616814 18:0.043660009 19:0.010682768 20:0.12163417 21:0.031583837 22:0.041337668 23:0.04178273 24:0.0083604273 25:0.081708449 26:0.0027868091 27:0.032512773 28:0.037621923 29:0.064995357 30:0.023223409 31:0.021830005 32:0.085886722 33:0.0088248955 34:0.10352832 35:0.032048305 36:0.04549675 37:0.016256386 38:0.019507664 39:0.008356546 40:0.0013934046 41:0.0027868091 42:0.0023223409 43:0.06731662 44:0.016256386 45:0.014398514 46:0.077994429 47:0.01532745 48:0.011147236 49:0.030176416 50:0.007895959 51:0.0083604273 
32768 1:0.8504902 2:0.046683047 3:0.014778325 4:0.036855037 5:0.009852217 6:0.0024630542 7:0.012315271 8:0.093366093 9:0.032019704 10:0.049140049 11:0.012315271 12:0.017241379 13:0.007389163 14:0.012315271 15:0.073710074 16:0.014778325 17:0.012315271 18:0.039408867 19:0.007389163 20:0.081081081 21:0.024630542 22:0.022167488 23:0.014742015 24:0 25:0.098280098 26:0.0098522167 27:0.034482759 28:0.036945813 29:0.068796069 30:0.012315271 31:0.019704433 32:0.076167076 33:0.0024630542 34:0.066339066 35:0.012315271 36:0.044226044 37:0.004926108 38:0.019704433 39:0.039312039 40:0.0073891626 41:0.012315271 42:0.012315271 43:0.071253071 44:0.017241379 45:0.024630542 46:0.081081081 47:0.014778325 48:0.014778325 49:0.058968059 50:0.017241379 51:0.019704434 
32768 1:0.8959276 2:0.14285714 3:0.056818182 4:0.034013605 5:0.013636364 6:0 7:0.009090909 8:0.095238095 9:0.038636364 10:0.077097506 11:0.011363636 12:0.009090909 13:0.027272727 14:0.029545454 15:0.065759637 16:0.020454545 17:0.004545455 18:0.027272727 19:0.013636364 20:0.065759637 21:0.027272727 22:0.018181818 23:0.0045351474 24:0 25:0.052154195 26:0.0045454545 27:0.013636364 28:0.018181818 29:0.10430839 30:0.011363636 31:0.025 32:0.045351474 33:0.0022727273 34:0.040816327 35:0.0022727273 36:0.029478458 37:0.002272727 38:0.011363636 39:0.038548753 40:0.0022727273 41:0.013636364 42:0.0045454545 43:0.040816327 44:0.009090909 45:0.020454545 46:0.079365079 47:0.036363636 48:0.018181818 49:0.083900227 50:0.022727273 51:0.029545454 
32768 1:0.95867769 2:0.1519337 3:0.072022161 4:0.055248619 5:0.027700831 6:0 7:0.016620499 8:0.071823204 9:0.024930748 10:0.074585635 11:0.019390582 12:0.008310249 13:0.027700831 14:0.019390582 15:0.077348066 16:0.030470914 17:0.008310249 18:0.022160665 19:0.016620499 20:0.066298343 21:0.027700831 22:0.024930748 23:0 24:0 25:0.066298343 26:0.011080332 27:0.022160665 28:0.008310249 29:0.052486188 30:0.011080332 31:0.011080332 32:0.03038674 33:0 34:0.035911602 35:0.0055401662 36:0.041436464 37:0.011080332 38:0.005540166 39:0.069060773 40:0.011080332 41:0.013850415 42:0.016620499 43:0.05801105 44:0.013850416 45:0.024930748 46:0.055248619 47:0.011080332 48:0.013850416 49:0.093922652 50:0.013850416 51:0.033240997 
32768 1:0.96242775 2:0.12011577 3:0.047826087 4:0.056439942 5:0.01884058 6:0.0028985507 7:0.027536232 8:0.068017366 9:0.037681159 10:0.10564399 11:0.033333333 12:0.008695652 13:0.027536232 14:0.036231884 15:0.05788712 16:0.01884058 17:0.010144928 18:0.015942029 19:0.013043478 20:0.026049204 21:0.010144928 22:0.0028985507 23:0.004341534 24:0 25:0.07959479 26:0.024637681 27:0.02173913 28:0.023188406 29:0.082489146 30:0.014492754 31:0.01884058 32:0.037626628 33:0.0014492754 34:0.046309696 35:0.011594203 36:0.02894356 37:0.004347826 38:0.005797101 39:0.089725036 40:0.02173913 41:0.013043478 42:0.030434783 43:0.049204052 44:0.017391304 45:0.02173913 46:0.075253256 47:0.023188406 48:0.013043478 49:0.0723589 50:0.01884058 51:0.015942029 
32768 1:0.9103139 2:0.16179775 3:0.060810811 4:0.047191011 5:0.02027027 6:0.009009009 7:0.011261261 8:0.08988764 9:0.036036036 10:0.096629213 11:0.022522522 12:0.011261261 13:0.031531532 14:0.029279279 15:0.078651685 16:0.033783784 17:0.013513514 18:0.011261261 19:0.02027027 20:0.035955056 21:0.02027027 22:0.0067567568 23:0.008988764 24:0 25:0.040449438 26:0.015765766 27:0.006756757 28:0.006756757 29:0.087640449 30:0.006756757 31:0.02027027 32:0.038202247 33:0 34:0.049438202 35:0.011261261 36:0.033707865 37:0.004504505 38:0.009009009 39:0.06741573 40:0.013513513 41:0.011261261 42:0.018018018 43:0.042696629 44:0.015765766 45:0.013513514 46:0.060674157 47:0.02027027 48:0.02027027 49:0.060674157 50:0.013513514 51:0.013513513 
32768 1:0.96575343 2:0.14874142 3:0.05733945 4:0.04805492 5:0.025229358 6:0.002293578 7:0.01146789 8:0.084668192 9:0.025229358 10:0.089244851 11:0.018348624 12:0.016055046 13:0.027522936 14:0.027522936 15:0.066361556 16:0.032110092 17:0.002293578 18:0.020642202 19:0.01146789 20:0.029748284 21:0.009174312 22:0.0068807339 23:0.013729977 24:0 25:0.04805492 26:0.0091743119 27:0.009174312 28:0.013761468 29:0.1006865 30:0.013761468 31:0.02293578 32:0.036613272 33:0.002293578 34:0.057208238 35:0.013761468 36:0.034324943 37:0.004587156 38:0.009174312 39:0.054919908 40:0.0091743119 41:0.0068807339 42:0.018348624 43:0.043478261 44:0.013761468 45:0.01146789 46:0.073226545 47:0.03440367 48:0.013761468 49:0.070938215 50:0.02293578 51:0.018348624 
32768 1:0.85776805 2:0.081140351 3:0.021978022 4:0.059210526 5:0.021978022 6:0.0065934066 7:0.01978022 8:0.057017544 9:0.017582418 10:0.067982456 11:0.017582418 12:0.015384615 13:0.010989011 14:0.024175824 15:0.070175439 16:0.015384615 17:0.013186813 18:0.028571429 19:0.013186813 20:0.041666667 21:0.008791209 22:0.0021978022 23:0.032894737 24:0.0021978022 25:0.092105263 26:0.015384615 27:0.021978022 28:0.026373626 29:0.052631579 30:0.004395604 31:0.008791209 32:0.050438596 33:0.013186813 34:0.046052632 35:0.0087912088 36:0.048245614 37:0.015384615 38:0.010989011 39:0.061403509 40:0.024175824 41:0.0043956044 42:0.017582418 43:0.087719298 44:0.026373626 45:0.035164835 46:0.059210526 47:0.01978022 48:0.010989011 49:0.092105263 50:0.010989011 51:0.028571429 
32768 1:0.8880597 2:0.15317559 3:0.06234414 4:0.04607721 5:0.016209476 6:0.0024937656 7:0.012468828 8:0.11706102 9:0.064837905 10:0.04358655 11:0.0099750623 12:0.00872818 13:0.012468828 14:0.012468828 15:0.054794521 16:0.013715711 17:0.012468828 18:0.018703242 19:0.009975062 20:0.062266501 21:0.02244389 22:0.014962593 23:0.00373599 24:0 25:0.070983811 26:0.011221945 27:0.016209476 28:0.024937656 29:0.1120797 30:0.009975062 31:0.029925187 32:0.03486924 33:0 34:0.064757161 35:0.014962593 36:0.03362391 37:0.004987531 38:0.007481297 39:0.03985056 40:0.0074812968 41:0.0087281796 42:0.006234414 43:0.04732254 44:0.007481297 45:0.02244389 46:0.061021171 47:0.017456359 48:0.00872818 49:0.054794521 50:0.016209476 51:0.016209476 
32768 1:0.94890511 2:0.14634146 3:0.053789731 4:0.041463415 5:0.014669927 6:0 7:0.017114914 8:0.082926829 9:0.039119804 10:0.090243902 11:0.017114914 12:0.017114914 13:0.036674817 14:0.019559902 15:0.065853659 16:0.014669927 17:0.009779951 18:0.019559902 19:0.02200489 20:0.041463415 21:0.029339853 22:0.0097799511 23:0.0024390244 24:0 25:0.051219512 26:0.017114914 27:0.009779951 28:0.012224939 29:0.090243902 30:0.007334963 31:0.009779951 32:0.031707317 33:0.0024449878 34:0.046341463 35:0.014669927 36:0.043902439 37:0.007334963 38:0.007334963 39:0.058536585 40:0.0048899756 41:0.012224939 42:0.0097799511 43:0.046341463 44:0.012224939 45:0.019559902 46:0.080487805 47:0.029339853 48:0.02200489 49:0.080487805 50:0.024449878 51:0.026894866 
11251.85377303308 1:0.80465116 2:0.093167702 3:0.034214619 4:0.052795031 5:0.023328149 6:0.0031104199 7:0.00777605 8:0.11024845 9:0.040435459 10:0.072981366 11:0.018662519 12:0.020217729 13:0.021772939 14:0.01244168 15:0.094720497 16:0.0155521 17:0.017107309 18:0.043545879 19:0.018662519 20:0.046583851 21:0.023328149 22:0.0077760498 23:0.0062111801 24:0.00155521 25:0.054347826 26:0.01244168 27:0.01399689 28:0.01399689 29:0.096273292 30:0.0155521 31:0.023328149 32:0.043478261 33:0.00155521 34:0.045031056 35:0.01088647 36:0.049689441 37:0.01244168 38:0.0155521 39:0.043478261 40:0.0093312597 41:0.0062208398 42:0.015552099 43:0.060559006 44:0.027993779 45:0.021772939 46:0.072981366 47:0.034214619 48:0.01088647 49:0.057453416 50:0.021772939 51:0.01710731 
