svm_type c_svc
kernel_type rbf
gamma 0.5
nr_class 2
total_sv 2334
rho -115.409
label 1 -1
probA -2.90369
probB 0.455598
nr_sv 1215 1119
SV
11832.3824012944 1:0.045507585 2:0.082943925 3:0.023391813 4:0.046728972 5:0.023391813 6:0.008187135 7:0.08878505 8:0.025730994 9:0.071261682 10:0.015204678 11:0.01754386 12:0.019883041 13:0.01871345 14:0.087616822 15:0.023391813 16:0.014035088 17:0.031578947 18:0.01871345 19:0.059579439 20:0.030409357 21:0.011695906 22:0.010514019 23:0.0023391813 24:0.060747664 25:0.0081871345 26:0.008187135 27:0.026900585 28:0.07242991 29:0.007017544 30:0.024561403 31:0.050233645 32:0 33:0.058411215 34:0.014035088 35:0.053738318 36:0.0093567251 37:0.012865497 38:0.015204678 39:0.046728972 40:0.011695906 41:0.0058479532 42:0.014035088 43:0.060747664 44:0.019883041 45:0.019883041 46:0.07827103 47:0.019883041 48:0.022222222 49:0.071261682 50:0.016374269 51:0.01871345 
32768 1:0.1331058 2:0.085470085 3:0.02739726 4:0.047863248 5:0.018835616 6:0.010273973 7:0.08888889 8:0.022260274 9:0.054700855 10:0.0085616438 11:0.006849315 12:0.023972603 13:0.015410959 14:0.085470085 15:0.025684932 16:0.010273973 17:0.035958904 18:0.01369863 19:0.047863248 20:0.023972603 21:0.010273973 22:0.013675214 23:0.0034246575 24:0.07008547 25:0.0085616438 26:0.01369863 27:0.032534247 28:0.07179487 29:0.006849315 30:0.022260274 31:0.066666667 32:0.0017123288 33:0.068376068 34:0.015410959 35:0.052991453 36:0.0051369863 37:0.006849315 38:0.018835616 39:0.035897436 40:0.017123288 41:0.0034246575 42:0.0034246575 43:0.052991453 44:0.015410959 45:0.025684932 46:0.08888889 47:0.022260274 48:0.020547945 49:0.068376068 50:0.01369863 51:0.015410959 
32768 1:0.15656566 2:0.097807757 3:0.030405405 4:0.042158516 5:0.02027027 6:0.006756757 7:0.09106239 8:0.028716216 9:0.072512648 10:0.011824324 11:0.013513514 12:0.027027027 13:0.02027027 14:0.077571669 15:0.02027027 16:0.011824324 17:0.030405405 18:0.015202703 19:0.060708263 20:0.027027027 21:0.011824324 22:0.015177066 23:0.0050675676 24:0.057335582 25:0.0084459459 26:0.015202703 27:0.021959459 28:0.07925801 29:0.001689189 30:0.02195946 31:0.048903879 32:0 33:0.064080944 34:0.011824324 35:0.053962901 36:0.015202703 37:0.013513514 38:0.013513514 39:0.050590219 40:0.016891892 41:0.0050675676 42:0.010135135 43:0.059021922 44:0.016891892 45:0.016891892 46:0.07588533 47:0.018581081 48:0.015202703 49:0.053962901 50:0.013513514 51:0.010135135 
32768 1:0.10273973 2:0.077186964 3:0.030927835 4:0.065180103 5:0.027491409 6:0.015463918 7:0.06174957 8:0.02233677 9:0.061749571 10:0.0051546392 11:0.015463918 12:0.025773196 13:0.015463918 14:0.084048027 15:0.024054983 16:0.012027491 17:0.025773196 18:0.02233677 19:0.087478559 20:0.020618557 21:0.02233677 22:0.015437393 23:0.0034364261 24:0.092624357 25:0.013745705 26:0.029209622 27:0.027491409 28:0.07204117 29:0.02233677 30:0.013745705 31:0.048027444 32:0 33:0.041166381 34:0.010309278 35:0.039451115 36:0.0085910653 37:0.008591065 38:0.012027491 39:0.032590051 40:0.010309278 41:0.0068728522 42:0.0068728522 43:0.080617496 44:0.017182131 45:0.02233677 46:0.0806175 47:0.025773196 48:0.010309278 49:0.060034305 50:0.015463918 51:0.012027491 
186.6338351815251 1:0.21428571 2:0.058631922 3:0.0098039216 4:0.042345277 5:0.029411765 6:0.006535948 7:0.10749186 8:0.019607843 9:0.035830619 10:0.0065359477 11:0.009803922 12:0.006535948 13:0.013071895 14:0.087947883 15:0.029411765 16:0.019607843 17:0.032679739 18:0.006535948 19:0.048859935 20:0.009803922 21:0.0065359477 22:0.026058632 23:0.0065359477 24:0.084690554 25:0.0032679739 26:0.026143791 27:0.049019608 28:0.08143322 29:0.013071895 30:0.032679739 31:0.1009772 32:0.0065359477 33:0.094462541 34:0.016339869 35:0.035830619 36:0.0032679739 37:0.006535948 38:0.019607843 39:0.016286645 40:0.0032679739 41:0.0098039216 42:0 43:0.055374593 44:0.022875817 45:0.009803922 46:0.08469055 47:0.022875817 48:0.009803922 49:0.039087948 50:0.009803922 51:0.013071895 
32768 1:0.26351351 2:0.098305085 3:0.040816326 4:0.061016949 5:0.034013605 6:0.013605442 7:0.05423729 8:0.006802721 9:0.061016949 10:0.0034013605 11:0.003401361 12:0.027210884 13:0.027210884 14:0.071186441 15:0.023809524 16:0.020408163 17:0.013605442 18:0.013605442 19:0.071186441 20:0.020408163 21:0.013605442 22:0.006779661 23:0 24:0.077966102 25:0.013605442 26:0.013605442 27:0.020408163 28:0.05084746 29:0.010204082 30:0.0068027211 31:0.047457627 32:0 33:0.044067797 34:0.013605442 35:0.057627119 36:0.013605442 37:0.010204082 38:0.020408163 39:0.057627119 40:0.023809524 41:0.0068027211 42:0.017006803 43:0.047457627 44:0.013605442 45:0.010204082 46:0.09152542 47:0.023809524 48:0.023809524 49:0.10169491 50:0.023809524 51:0.030612245 
12630.27476441035 1:0.89273356 2:0.0625 3:0.017421603 4:0.065972222 5:0.024390244 6:0.027874564 7:0.06944444 8:0.010452962 9:0.020833333 10:0.0034843206 11:0.003484321 12:0.006968641 13:0.0069686411 14:0.083333333 15:0.013937282 16:0.034843206 17:0.024390244 18:0.010452962 19:0.10763889 20:0.031358885 21:0.034843206 22:0.010416667 23:0.0034843206 24:0.13194444 25:0.024390244 26:0.038327526 27:0.038327526 28:0.03125 29:0.003484321 30:0.010452962 31:0.090277778 32:0.0034843206 33:0.055555556 34:0.013937282 35:0.024305556 36:0.0034843206 37:0.010452962 38:0.006968641 39:0.045138889 40:0.020905923 41:0.0034843206 42:0.0034843206 43:0.069444444 44:0.013937282 45:0.027874564 46:0.06597222 47:0 48:0.013937282 49:0.065972222 50:0.013937282 51:0.024390244 
32768 1:1 2:0.026829268 3:0.0024449878 4:0.068292683 5:0.02200489 6:0.012224939 7:0.10487805 8:0.034229829 9:0.026829268 10:0.0024449878 11:0.002444988 12:0.019559902 13:0.0024449878 14:0.07804878 15:0.004889976 16:0.02200489 17:0.046454768 18:0.004889976 19:0.063414634 20:0.007334963 21:0.017114914 22:0.031707317 23:0.0048899756 24:0.085365854 25:0.0073349633 26:0.026894866 27:0.02200489 28:0.1097561 29:0.041564792 30:0.036674817 31:0.068292683 32:0.0024449878 33:0.11219512 34:0.02200489 35:0.029268293 36:0 37:0.012224939 38:0.007334963 39:0.009756098 40:0 41:0.0024449878 42:0.0048899756 43:0.058536585 44:0.019559902 45:0.019559902 46:0.07317073 47:0.007334963 48:0.004889976 49:0.053658537 50:0.024449878 51:0.012224939 
8895.244797458165 1:0.22580645 2:0.090517241 3:0.030237581 4:0.049568966 5:0.012958963 6:0.021598272 7:0.09482759 8:0.03887689 9:0.075431034 10:0.01511879 11:0.021598272 12:0.025917927 13:0.012958963 14:0.07112069 15:0.017278618 16:0.01511879 17:0.025917927 18:0.012958963 19:0.047413793 20:0.010799136 21:0.0064794816 22:0.0086206897 23:0.0021598272 24:0.088362069 25:0.012958963 26:0.021598272 27:0.021598272 28:0.08836207 29:0.012958963 30:0.019438445 31:0.047413793 32:0 33:0.034482759 34:0.0043196544 35:0.038793103 36:0.01511879 37:0.010799136 38:0.006479482 39:0.0625 40:0.010799136 41:0.017278618 42:0.01511879 43:0.068965517 44:0.030237581 45:0.023758099 46:0.07112069 47:0.025917927 48:0.008639309 49:0.0625 50:0.017278618 51:0.010799136 
22591.17485375938 1:0.69863014 2:0.04587156 3:0.0046082949 4:0.091743119 5:0.036866359 6:0.023041475 7:0.05504587 8:0.004608295 9:0.050458716 10:0 11:0.013824885 12:0.023041475 13:0.013824885 14:0.11926605 15:0.01843318 16:0.046082949 17:0.041474654 18:0.013824885 19:0.11926605 20:0.064516129 21:0.023041475 22:0.004587156 23:0 24:0.077981651 25:0.0046082949 26:0.01843318 27:0.023041475 28:0.05504587 29:0.02764977 30:0.0046082949 31:0.04587156 32:0 33:0.064220183 34:0.01843318 35:0.036697248 36:0 37:0.00921659 38:0.01843318 39:0.02293578 40:0.0046082949 41:0 42:0.0092165899 43:0.068807339 44:0.013824885 45:0.01843318 46:0.0733945 47:0.023041475 48:0.013824885 49:0.068807339 50:0.00921659 51:0.013824885 
1499.903182468088 1:0.014981273 2:0.1075 3:0.035043805 4:0.05375 5:0.027534418 6:0.008760951 7:0.07375 8:0.028785982 9:0.1025 10:0.026282854 11:0.010012516 12:0.027534418 13:0.038798498 14:0.09125 15:0.020025031 16:0.013767209 17:0.027534418 18:0.030037547 19:0.03625 20:0.015018773 21:0.0087609512 22:0.00625 23:0.0012515645 24:0.04125 25:0.0037546934 26:0.006257822 27:0.018773467 28:0.07125 29:0.01126408 30:0.010012516 31:0.04375 32:0 33:0.03875 34:0.0037546934 35:0.0525 36:0.01126408 37:0.007509387 38:0.021276596 39:0.0675 40:0.0075093867 41:0.013767209 42:0.023779725 43:0.04125 44:0.026282854 45:0.008760951 46:0.0875 47:0.023779725 48:0.020025031 49:0.085 50:0.020025031 51:0.021276596 
2635.48936074709 1:0.061567164 2:0.15327103 3:0.073033708 4:0.035514019 5:0.020599251 6:0.007490637 7:0.05981308 8:0.024344569 9:0.1046729 10:0.035580524 11:0.007490637 12:0.029962547 13:0.031835206 14:0.046728972 15:0.013108614 16:0.005617978 17:0.011235955 18:0.016853933 19:0.020560748 20:0.005617978 21:0.0074906367 22:0.0056074766 23:0 24:0.052336449 25:0.0074906367 26:0.011235955 27:0.007490637 28:0.0635514 29:0.011235955 30:0.0056179775 31:0.028037383 32:0.0018726592 33:0.024299065 34:0 35:0.061682243 36:0.014981273 37:0.009363296 38:0.013108614 39:0.087850467 40:0.0037453184 41:0.014981273 42:0.024344569 43:0.041121495 44:0.016853933 45:0.018726592 46:0.08785047 47:0.02247191 48:0.033707865 49:0.1271028 50:0.037453184 51:0.046816479 
16380.97064194442 1:0.12565445 2:0.10498688 3:0.036842105 4:0.057742782 5:0.018421053 6:0.018421053 7:0.09186352 8:0.031578947 9:0.078740157 10:0.013157895 11:0.015789474 12:0.026315789 13:0.023684211 14:0.086614173 15:0.018421053 16:0.023684211 17:0.026315789 18:0.018421053 19:0.05511811 20:0.031578947 21:0.010526316 22:0.010498688 23:0 24:0.052493438 25:0.021052632 26:0.018421053 27:0.002631579 28:0.07874016 29:0.005263158 30:0.021052632 31:0.026246719 32:0 33:0.047244094 34:0.010526316 35:0.05511811 36:0.013157895 37:0.018421053 38:0.013157895 39:0.065616798 40:0.010526316 41:0.010526316 42:0.023684211 43:0.065616798 44:0.023684211 45:0.023684211 46:0.05511811 47:0.018421053 48:0.021052632 49:0.06824147 50:0.013157895 51:0.023684211 
32768 1:0.9046729 2:0.065543071 3:0.009380863 4:0.084269663 5:0.031894934 6:0.015009381 7:0.09363296 8:0.031894934 9:0.04494382 10:0.0075046904 11:0.011257036 12:0.013133208 13:0.013133208 14:0.088014981 15:0.024390244 16:0.024390244 17:0.018761726 18:0.020637899 19:0.063670412 20:0.020637899 21:0.018761726 22:0.039325843 23:0.011257036 24:0.063670412 25:0.015009381 26:0.016885553 27:0.013133208 28:0.09925094 29:0.024390244 30:0.035647279 31:0.050561798 32:0.0037523452 33:0.063670412 34:0.011257036 35:0.041198502 36:0.009380863 37:0.009380863 38:0.018761726 39:0.033707865 40:0.018761726 41:0.0037523452 42:0.0037523452 43:0.056179775 44:0.020637899 45:0.018761726 46:0.05992509 47:0.026266417 48:0.011257036 49:0.052434457 50:0.015009381 51:0.016885554 
29664.48705689783 1:0.71388102 2:0.065340909 3:0.01994302 4:0.056818182 5:0.034188034 6:0.017094017 7:0.09375 8:0.037037037 9:0.056818182 10:0.0056980057 11:0.01994302 12:0.014245014 13:0.017094017 14:0.10227273 15:0.022792023 16:0.025641026 17:0.037037037 18:0.017094017 19:0.065340909 20:0.025641026 21:0.011396011 22:0.014204546 23:0 24:0.09375 25:0.014245014 26:0.025641026 27:0.034188034 28:0.06818182 29:0.01994302 30:0.017094017 31:0.068181818 32:0.011396011 33:0.036931818 34:0.0085470085 35:0.034090909 36:0.0028490028 37:0.005698006 38:0.008547009 39:0.036931818 40:0.0085470085 41:0.011396011 42:0.011396011 43:0.085227273 44:0.03988604 45:0.01994302 46:0.0625 47:0.017094017 48:0.002849003 49:0.059659091 50:0.005698006 51:0.0056980057 
32768 1:0.020408163 2:0.11945393 3:0.047945205 4:0.058020478 5:0.017123288 6:0.023972603 7:0.06825939 8:0.017123288 9:0.071672355 10:0.017123288 11:0.01369863 12:0.023972603 13:0.017123288 14:0.064846416 15:0.023972603 16:0.010273973 17:0.006849315 18:0.023972603 19:0.051194539 20:0.023972603 21:0.0034246575 22:0.0068259386 23:0 24:0.078498294 25:0.017123288 26:0.006849315 27:0.037671233 28:0.07508532 29:0.01369863 30:0.017123288 31:0.040955631 32:0 33:0.04778157 34:0.010273973 35:0.04778157 36:0.01369863 37:0.003424658 38:0.017123288 39:0.061433447 40:0.010273973 41:0.010273973 42:0.02739726 43:0.051194539 44:0.010273973 45:0.010273973 46:0.0887372 47:0.020547945 48:0.02739726 49:0.068259386 50:0.006849315 51:0.020547945 
7785.862215243268 1:0.029850746 2:0.1 3:0.035175879 4:0.06 5:0.015075377 6:0.025125628 7:0.06 8:0.025125628 9:0.06 10:0.015075377 11:0.010050251 12:0.015075377 13:0.020100502 14:0.06 15:0.030150754 16:0.010050251 17:0.015075377 18:0.005025126 19:0.04 20:0.015075377 21:0.010050251 22:0.025 23:0.0050251256 24:0.08 25:0.010050251 26:0.020100503 27:0.025125628 28:0.07 29:0.025125628 30:0.020100502 31:0.045 32:0.0050251256 33:0.06 34:0.0050251256 35:0.055 36:0.015075377 37:0 38:0.025125628 39:0.055 40:0.010050251 41:0.0050251256 42:0.020100502 43:0.06 44:0.010050251 45:0.025125628 46:0.08 47:0.015075377 48:0.020100503 49:0.09 50:0.015075377 51:0.030150754 
4926.505682636282 1:0.041166381 2:0.04467354 3:0.013769363 4:0.049828179 5:0.017211704 6:0.017211704 7:0.06872852 8:0.010327022 9:0.041237113 10:0.0017211704 11:0.008605852 12:0.020654045 13:0.010327022 14:0.072164948 15:0.013769363 16:0.013769363 17:0.027538726 18:0.017211704 19:0.046391753 20:0.022375215 21:0.0068846816 22:0.049828179 23:0.013769363 24:0.063573883 25:0.008605852 26:0.010327022 27:0.037865749 28:0.06357388 29:0.013769363 30:0.024096386 31:0.089347079 32:0.025817556 33:0.12027491 34:0.030981067 35:0.065292096 36:0.008605852 37:0.012048193 38:0.024096386 39:0.02233677 40:0.010327022 41:0.0051635112 42:0.0051635112 43:0.046391753 44:0.012048193 45:0.012048193 46:0.09965636 47:0.013769363 48:0.018932874 49:0.056701031 50:0.017211704 51:0.018932874 
32768 1:0.011262318 2:0.057276995 3:0.014560827 4:0.054929577 5:0.016439643 6:0.010803194 7:0.07887324 8:0.023954908 9:0.051173709 10:0.0079849695 11:0.013151714 12:0.018788163 13:0.011272898 14:0.083098592 15:0.01268201 16:0.022545796 17:0.030061062 18:0.017848755 19:0.057746479 20:0.018788163 21:0.010803194 22:0.045539906 23:0.014091123 24:0.058685446 25:0.0084546736 26:0.010803194 27:0.03100047 28:0.07464789 29:0.013151714 30:0.022076092 31:0.084976526 32:0.015500235 33:0.088262911 34:0.021606388 35:0.055868545 36:0.0046970409 37:0.014560827 38:0.023485204 39:0.026760563 40:0.0098637858 41:0.0032879286 42:0.0079849695 43:0.047887324 44:0.015500235 45:0.010803194 46:0.09107981 47:0.014091123 48:0.022545796 49:0.043192488 50:0.017848755 51:0.01033349 
15922.48327248368 1:0.019633508 2:0.082568807 3:0.022309711 4:0.043250328 5:0.005249344 6:0.009186352 7:0.06684142 8:0.019685039 9:0.053735256 10:0.0065616798 11:0.014435696 12:0.022309711 13:0.0091863517 14:0.068152031 15:0.018372703 16:0.015748031 17:0.019685039 18:0.014435696 19:0.077326343 20:0.023622047 21:0.017060367 22:0.038007864 23:0.01312336 24:0.065530799 25:0.0052493438 26:0.011811024 27:0.036745407 28:0.06815203 29:0.015748031 30:0.014435695 31:0.078636959 32:0.0091863517 33:0.068152031 34:0.019685039 35:0.051114024 36:0.0052493438 37:0.009186352 38:0.018372703 39:0.027522936 40:0.001312336 41:0.0026246719 42:0.011811024 43:0.049803408 44:0.014435696 45:0.015748031 46:0.09305374 47:0.014435696 48:0.015748031 49:0.068152031 50:0.014435696 51:0.028871391 
32768 1:0.20375723 2:0.037626628 3:0.0072463768 4:0.05065123 5:0.010144928 6:0.013043478 7:0.0723589 8:0.02173913 9:0.039073806 10:0.0043478261 11:0.008695652 12:0.017391304 13:0.0086956522 14:0.073806078 15:0.017391304 16:0.017391304 17:0.034782609 18:0.004347826 19:0.088277858 20:0.026086957 21:0.01884058 22:0.01447178 23:0.0028985507 24:0.10709117 25:0.010144927 26:0.024637681 27:0.056521739 28:0.06657019 29:0.015942029 30:0.015942029 31:0.083936324 32:0.0043478261 33:0.082489146 34:0.01884058 35:0.049204052 36:0.0043478261 37:0.013043478 38:0.026086957 39:0.02170767 40:0.0072463768 41:0.0043478261 42:0.0057971014 43:0.062228654 44:0.017391304 45:0.02173913 46:0.11287988 47:0.017391304 48:0.015942029 49:0.037626628 50:0.013043478 51:0.0072463768 
24143.40736159361 1:0.35042735 2:0.051355207 3:0.011428571 4:0.05278174 5:0.01 6:0.014285714 7:0.08987161 8:0.031428571 9:0.039942939 10:0.0014285714 11:0.004285714 12:0.028571429 13:0.0057142857 14:0.079885877 15:0.018571429 16:0.02 17:0.032857143 18:0.008571429 19:0.091298146 20:0.03 21:0.022857143 22:0.02425107 23:0.0071428571 24:0.079885877 25:0.011428571 26:0.017142857 27:0.032857143 28:0.08131241 29:0.015714286 30:0.024285714 31:0.079885877 32:0.0057142857 33:0.071326676 34:0.01 35:0.041369472 36:0.0042857143 37:0.01 38:0.017142857 39:0.021398003 40:0.0057142857 41:0.0071428571 42:0.0042857143 43:0.051355207 44:0.014285714 45:0.01 46:0.08844508 47:0.018571429 48:0.012857143 49:0.055634807 50:0.01 51:0.021428571 
6553.265796532156 1:0.31640625 2:0.074509804 3:0.027559055 4:0.078431373 5:0.027559055 6:0.015748031 7:0.03529412 8:0.003937008 9:0.050980392 10:0.019685039 11:0.023622047 12:0.003937008 13:0.0039370079 14:0.10980392 15:0.027559055 16:0.051181102 17:0.015748031 18:0.015748031 19:0.20784314 20:0.047244094 21:0.090551181 22:0.0078431373 23:0 24:0.11764706 25:0.0039370079 26:0.062992126 27:0.015748031 28:0.01176471 29:0.003937008 30:0.0039370079 31:0.031372549 32:0 33:0.015686275 34:0.0039370079 35:0.023529412 36:0.0078740157 37:0.007874016 38:0.003937008 39:0.047058824 40:0.0039370079 41:0.0039370079 42:0.019685039 43:0.12156863 44:0.031496063 45:0.031496063 46:0.02352941 47:0.007874016 48:0.003937008 49:0.043137255 50:0 51:0 
32768 1:0.029658922 2:0.045004946 3:0.0108857 4:0.049455984 5:0.019297378 6:0.009401286 7:0.08011869 8:0.01632855 9:0.025222552 10:0.0024740228 11:0.007916873 12:0.009401286 13:0.0054428501 14:0.082591494 15:0.017812964 16:0.019792182 17:0.03364671 18:0.011380505 19:0.11473788 20:0.030677882 21:0.036615537 22:0.034619189 23:0.0094012865 24:0.072700297 25:0.0054428501 26:0.020286987 27:0.038594755 28:0.05835806 29:0.012864918 30:0.025729837 31:0.088526212 32:0.0094012865 33:0.13006924 34:0.047996042 35:0.046983185 36:0.0034636319 37:0.012864918 38:0.024740228 39:0.013353116 40:0.0064324592 41:0.0019792182 42:0.0014844137 43:0.052423343 44:0.011875309 45:0.011380505 46:0.07912957 47:0.008906482 48:0.017812964 49:0.026706231 50:0.006432459 51:0.0069272637 
32768 1:0.22429907 2:0.02247191 3:0 4:0.041198502 5:0.011257036 6:0.009380863 7:0.08052434 8:0.011257036 9:0.018726592 10:0 11:0.005628518 12:0.009380863 13:0.0037523452 14:0.06741573 15:0.009380863 16:0.018761726 17:0.031894934 18:0.00750469 19:0.12734082 20:0.022514071 21:0.045028143 22:0.06741573 23:0.016885554 24:0.071161049 25:0.0056285178 26:0.030018762 27:0.028142589 28:0.06367041 29:0.013133208 30:0.030018762 31:0.11423221 32:0.028142589 33:0.1329588 34:0.045028143 35:0.043071161 36:0.0037523452 37:0.00750469 38:0.028142589 39:0.009363296 40:0.0037523452 41:0.0056285178 42:0 43:0.050561798 44:0.013133208 45:0.011257036 46:0.07303371 47:0.015009381 48:0.013133208 49:0.016853933 50:0.00750469 51:0.0018761726 
32768 1:0.014150943 2:0.08503937 3:0.028391167 4:0.048818898 5:0.018927445 6:0.009463722 7:0.13070866 8:0.041009464 9:0.037795276 10:0.0031545741 11:0.017350158 12:0.014195584 13:0.0031545741 14:0.092913386 15:0.022082019 16:0.018927445 17:0.044164038 18:0.007886435 19:0.056692913 20:0.028391167 21:0.0047318612 22:0.02519685 23:0.0031545741 24:0.051968504 25:0.0047318612 26:0.011041009 27:0.029968454 28:0.10708661 29:0.012618297 30:0.044164038 31:0.075590551 32:0.0015772871 33:0.091338583 34:0.022082019 35:0.042519685 36:0.0031545741 37:0.007886435 38:0.020504732 39:0.017322835 40:0.0031545741 41:0.0063091483 42:0.0015772871 43:0.044094488 44:0.017350158 45:0.011041009 46:0.06929134 47:0.012618297 48:0.011041009 49:0.023622047 50:0.004731861 51:0.0031545741 
27183.91800261087 1:0 2:0.18761384 3:0.072992701 4:0.025500911 5:0.009124088 6:0.003649635 7:0.16939891 8:0.094890511 9:0.029143898 10:0 11:0.010948905 12:0 13:0.018248175 14:0.049180328 15:0.010948905 16:0.012773723 17:0.020072993 18:0.005474453 19:0.032786885 20:0.012773723 21:0.0072992701 22:0.010928962 23:0.003649635 24:0.045537341 25:0.0018248175 26:0.016423358 27:0.016423358 28:0.15846995 29:0.005474453 30:0.04379562 31:0.034608379 32:0 33:0.074681239 34:0.0091240876 35:0.025500911 36:0.0054744526 37:0.005474453 38:0.005474453 39:0.014571949 40:0.0018248175 41:0.0018248175 42:0.0054744526 43:0.045537341 44:0.010948905 45:0.020072993 46:0.04007286 47:0.005474453 48:0.00729927 49:0.056466302 50:0.018248175 51:0.018248175 
17738.85164255471 1:0.09113924 2:0.081218274 3:0.03307888 4:0.04822335 5:0.015267176 6:0.020356234 7:0.06091371 8:0.03307888 9:0.12436548 10:0.03307888 11:0.022900763 12:0.027989822 13:0.040712468 14:0.068527919 15:0.015267176 16:0.015267176 17:0.010178117 18:0.027989822 19:0.030456853 20:0.015267176 21:0.0025445293 22:0.0076142132 23:0.0025445293 24:0.065989848 25:0.012722646 26:0.017811705 27:0.017811705 28:0.0786802 29:0.010178117 30:0.020356234 31:0.017766497 32:0 33:0.030456853 34:0.0050890585 35:0.045685279 36:0.012722646 37:0.007633588 38:0.012722646 39:0.088832487 40:0.017811705 41:0.017811705 42:0.038167939 43:0.073604061 44:0.025445293 45:0.030534351 46:0.07360406 47:0.020356234 48:0.030534351 49:0.10406091 50:0.015267176 51:0.03307888 
30979.74870500915 1:0.67955801 2:0.074792244 3:0.019444444 4:0.074792244 5:0.022222222 6:0.030555556 7:0.06648199 8:0.019444444 9:0.058171745 10:0.013888889 11:0.025 12:0.011111111 13:0.0083333333 14:0.077562327 15:0.027777778 16:0.013888889 17:0.022222222 18:0.013888889 19:0.083102493 20:0.038888889 21:0.011111111 22:0.011080332 23:0.0027777778 24:0.099722992 25:0.019444444 26:0.013888889 27:0.036111111 28:0.06371191 29:0.013888889 30:0.013888889 31:0.052631579 32:0.0055555556 33:0.033240997 34:0.0083333333 35:0.041551247 36:0.011111111 37:0.005555556 38:0.016666667 39:0.060941828 40:0.027777778 41:0.011111111 42:0.011111111 43:0.060941828 44:0.005555556 45:0.027777778 46:0.08033241 47:0.033333333 48:0.019444444 49:0.060941828 50:0.016666667 51:0.013888889 
32768 1:0.9762419 2:0.04978355 3:0.010845987 4:0.056277056 5:0.028199566 6:0.013015184 7:0.08874459 8:0.019522777 9:0.047619048 10:0.021691974 11:0.006507592 12:0.00867679 13:0.010845987 14:0.097402597 15:0.021691974 16:0.017353579 17:0.043383948 18:0.015184382 19:0.12337662 20:0.026030369 21:0.056399132 22:0.023809524 23:0.0043383948 24:0.071428571 25:0.010845987 26:0.028199566 27:0.023861171 28:0.04761905 29:0.010845987 30:0.021691974 31:0.077922078 32:0.0043383948 33:0.093073593 34:0.030368764 35:0.034632035 36:0.0065075922 37:0.006507592 38:0.017353579 39:0.047619048 40:0.017353579 41:0.0065075922 42:0.017353579 43:0.056277056 44:0.015184382 45:0.015184382 46:0.04978355 47:0.004338395 48:0.006507592 49:0.034632035 50:0 51:0.010845987 
32768 1:0.12270804 2:0.025423729 3:0.0014144272 4:0.046610169 5:0.007072136 6:0.008486563 7:0.07485876 8:0.012729844 9:0.018361582 10:0 11:0.008486563 12:0.005657709 13:0.0042432815 14:0.059322034 15:0.008486563 16:0.018387553 17:0.026874116 18:0.005657709 19:0.13418079 20:0.022630835 21:0.052333805 22:0.077683616 23:0.022630834 24:0.072033898 25:0.0099009901 26:0.033946252 27:0.018387553 28:0.06638418 29:0.014144272 30:0.031117398 31:0.098870056 32:0.026874116 33:0.1200565 34:0.036775106 35:0.049435028 36:0.0028288543 37:0.015558699 38:0.031117397 39:0.014124294 40:0.0084865629 41:0.0028288543 42:0.0014144272 43:0.062146893 44:0.00990099 45:0.015558699 46:0.06214689 47:0.011315417 48:0.00990099 49:0.018361582 50:0.007072136 51:0.0042432815 
32768 1:0.14447592 2:0.056818182 3:0.014245014 4:0.085227273 5:0.031339031 6:0.01994302 7:0.05397727 8:0.017094017 9:0.053977273 10:0.0085470085 11:0.025641026 12:0.01994302 13:0 14:0.10795454 15:0.017094017 16:0.045584046 17:0.01994302 18:0.025641026 19:0.12215909 20:0.045584046 21:0.037037037 22:0.028409091 23:0.0085470085 24:0.068181818 25:0.014245014 26:0.014245014 27:0.034188034 28:0.05397727 29:0.017094017 30:0.011396011 31:0.059659091 32:0 33:0.068181818 34:0.017094017 35:0.045454545 36:0.0085470085 37:0.011396011 38:0.017094017 39:0.03125 40:0.014245014 41:0.0028490028 42:0.0056980057 43:0.059659091 44:0.014245014 45:0.014245014 46:0.07670455 47:0.017094017 48:0.008547009 49:0.028409091 50:0.005698006 51:0.014245014 
32768 1:0.033333333 2:0.12987013 3:0.053903346 4:0.055658627 5:0.029739777 6:0.00929368 7:0.09461967 8:0.042750929 9:0.074211503 10:0.013011152 11:0.016728625 12:0.027881041 13:0.016728625 14:0.085343228 15:0.016728625 16:0.013011152 17:0.037174721 18:0.018587361 19:0.046382189 20:0.020446097 21:0.0074349442 22:0.018552876 23:0.0018587361 24:0.042671614 25:0.0037174721 26:0.011152416 27:0.018587361 28:0.10760668 29:0.014869888 30:0.020446097 31:0.038961039 32:0.0037174721 33:0.063079777 34:0.011152416 35:0.033395176 36:0.0055762082 37:0.007434944 38:0.007434944 39:0.029684601 40:0.0037174721 41:0.0037174721 42:0.0092936803 43:0.051948052 44:0.024163569 45:0.00929368 46:0.06864564 47:0.027881041 48:0.014869888 49:0.059369202 50:0.014869888 51:0.020446097 
32768 1:0.467618 2:0.051648352 3:0.0110011 4:0.062637363 5:0.01760176 6:0.01650165 7:0.09230769 8:0.0220022 9:0.023076923 10:0.00110011 11:0.0110011 12:0.00880088 13:0.00220022 14:0.1032967 15:0.01980198 16:0.02970297 17:0.04290429 18:0.00990099 19:0.10989011 20:0.03520352 21:0.03190319 22:0.036263736 23:0.0110011 24:0.078021978 25:0.00440044 26:0.02640264 27:0.03410341 28:0.06593407 29:0.01650165 30:0.02530253 31:0.094505495 32:0.01320132 33:0.074725275 34:0.02420242 35:0.038461538 36:0.00220022 37:0.01430143 38:0.01650165 39:0.00989011 40:0.00440044 41:0.00220022 42:0.00220022 43:0.06043956 44:0.02530253 45:0.01210121 46:0.06923077 47:0.01210121 48:0.01430143 49:0.02967033 50:0.00990099 51:0.0088008801 
32768 1:0.17027027 2:0.067750678 3:0.024456522 4:0.073170732 5:0.013586957 6:0.019021739 7:0.06233062 8:0.02173913 9:0.059620596 10:0.013586957 11:0.013586957 12:0.019021739 13:0.013586957 14:0.078590786 15:0.010869565 16:0.019021739 17:0.019021739 18:0.029891304 19:0.086720867 20:0.024456522 21:0.029891304 22:0.013550135 23:0.0054347826 24:0.078590786 25:0.010869565 26:0.019021739 27:0.029891304 28:0.07588076 29:0.016304348 30:0.013586957 31:0.040650407 32:0 33:0.059620596 34:0.010869565 35:0.040650407 36:0.0081521739 37:0.010869565 38:0.013586957 39:0.043360434 40:0.016304348 41:0.010869565 42:0.0081521739 43:0.056910569 44:0.02173913 45:0.016304348 46:0.08130081 47:0.024456522 48:0.013586957 49:0.081300813 50:0.019021739 51:0.038043478 
32768 1:0.019271949 2:0.0472103 3:0.0021505376 4:0.049356223 5:0.012903226 6:0.012903226 7:0.10729614 8:0.027956989 9:0.049356223 10:0.0086021505 11:0.012903226 12:0.019354839 13:0.0086021505 14:0.090128755 15:0.017204301 16:0.015053763 17:0.04516129 18:0.012903226 19:0.079399142 20:0.030107527 21:0.027956989 22:0.02360515 23:0.0021505376 24:0.055793991 25:0.0086021505 26:0.017204301 27:0.021505376 28:0.08798283 29:0.023655914 30:0.027956989 31:0.057939914 32:0 33:0.08583691 34:0.017204301 35:0.060085837 36:0.0086021505 37:0.012903226 38:0.023655914 39:0.027896996 40:0.0043010753 41:0.010752688 42:0.0086021505 43:0.06223176 44:0.023655914 45:0.008602151 46:0.0751073 47:0.025806452 48:0.010752688 49:0.040772532 50:0.010752688 51:0.0086021505 
13973.7244953237 1:0.27543424 2:0.049751244 3:0.017456359 4:0.05721393 5:0.014962594 6:0.019950125 7:0.06467662 8:0.014962594 9:0.054726368 10:0.0049875312 11:0.009975062 12:0.019950125 13:0.019950125 14:0.07960199 15:0.012468828 16:0.019950125 17:0.032418953 18:0.014962594 19:0.05721393 20:0.017456359 21:0.012468828 22:0.017412935 23:0.0024937656 24:0.089552239 25:0.0099750623 26:0.024937656 27:0.024937656 28:0.04726368 29:0.009975062 30:0.014962593 31:0.062189055 32:0 33:0.074626866 34:0.02244389 35:0.05721393 36:0.014962593 37:0.012468828 38:0.017456359 39:0.049751244 40:0.02244389 41:0.0049875312 42:0.012468828 43:0.067164179 44:0.027431421 45:0.032418953 46:0.08457711 47:0.009975062 48:0.027431421 49:0.087064677 50:0.02244389 51:0.024937656 
32768 1:0.91666667 2:0.065116279 3:0.0093457944 4:0.055813953 5:0.023364486 6:0.009345794 7:0.10697674 8:0.03271028 9:0.046511628 10:0.0093457944 11:0.009345794 12:0.028037383 13:0 14:0.097674419 15:0.023364486 16:0.042056075 17:0.028037383 18:0.004672897 19:0.079069767 20:0.042056075 21:0.018691589 22:0.018604651 23:0 24:0.069767442 25:0 26:0.028037383 27:0.03271028 28:0.09767442 29:0.004672897 30:0.03271028 31:0.060465116 32:0 33:0.065116279 34:0.0046728972 35:0.041860465 36:0.0046728972 37:0.018691589 38:0.009345794 39:0.013953488 40:0.0046728972 41:0 42:0.0046728972 43:0.069767442 44:0.018691589 45:0.028037383 46:0.0744186 47:0.028037383 48:0.018691589 49:0.037209302 50:0.004672897 51:0.018691589 
5537.783014652619 1:0.024358417 2:0.056409513 3:0.0081218274 4:0.040458237 5:0.010587382 6:0.005801305 7:0.10266821 8:0.011892676 9:0.078306265 10:0.00826686 11:0.008701958 12:0.039303843 13:0.02204496 14:0.112529 15:0.008992023 16:0.00768673 17:0.0551124 18:0.04075417 19:0.068735499 20:0.041044235 21:0.00551124 22:0.0087006961 23:0.0007251632 24:0.039588167 25:0.0023205221 26:0.006236403 27:0.00826686 28:0.06641531 29:0.016388687 30:0.011747643 31:0.059889791 32:0.0023205221 33:0.076856148 34:0.0044960116 35:0.050174014 36:0.025815809 37:0.005366207 38:0.014358231 39:0.042488399 40:0.0042059463 41:0.0085569253 42:0.0059463379 43:0.060324826 44:0.02973169 45:0.009572154 46:0.06525522 47:0.011167513 48:0.009862219 49:0.071200696 50:0.003335751 51:0.021754895 
32768 1:0.75765306 2:0.081841432 3:0.038461539 4:0.056265985 5:0.023076923 6:0.025641026 7:0.05370844 8:0.015384615 9:0.071611253 10:0.0076923077 11:0.015384615 12:0.033333333 13:0.015384615 14:0.084398977 15:0.015384615 16:0.015384615 17:0.023076923 18:0.030769231 19:0.04859335 20:0.015384615 21:0.015384615 22:0.0051150895 23:0 24:0.079283887 25:0.0051282051 26:0.030769231 27:0.017948718 28:0.06649616 29:0.020512821 30:0.015384615 31:0.030690537 32:0 33:0.079283887 34:0.028205128 35:0.05370844 36:0.0076923077 37:0.005128205 38:0.017948718 39:0.033248082 40:0.015384615 41:0 42:0.012820513 43:0.079283887 44:0.030769231 45:0.030769231 46:0.09207161 47:0.023076923 48:0.020512821 49:0.084398977 50:0.023076923 51:0.020512821 
32768 1:0.11619718 2:0.077738516 3:0.024822695 4:0.042402827 5:0.014184397 6:0.014184397 7:0.07067138 8:0.031914894 9:0.06360424 10:0.010638298 11:0.010638298 12:0.021276596 13:0.021276596 14:0.067137809 15:0.010638298 16:0.007092199 17:0.017730496 18:0.031914894 19:0.070671378 20:0.017730496 21:0.014184397 22:0.010600707 23:0 24:0.09540636 25:0.010638298 26:0.014184397 27:0.031914894 28:0.06360424 29:0.010638298 30:0.014184397 31:0.074204947 32:0.0035460993 33:0.028268551 34:0.0035460993 35:0.038869258 36:0.010638298 37:0.007092199 38:0.010638298 39:0.049469965 40:0.0070921986 41:0.010638298 42:0.017730497 43:0.056537102 44:0.014184397 45:0.021276596 46:0.09540636 47:0.017730496 48:0.017730496 49:0.09540636 50:0.028368794 51:0.024822695 
32768 1:0.03515625 2:0.12777053 3:0.053524804 4:0.057366362 5:0.015665796 6:0.019582245 7:0.08344198 8:0.028720627 9:0.054758801 10:0.0091383812 11:0.014360313 12:0.018276762 13:0.01305483 14:0.069100391 15:0.020887728 16:0.010443864 17:0.023498695 18:0.014360313 19:0.05345502 20:0.018276762 21:0.0091383812 22:0.011734029 23:0.001305483 24:0.074315515 25:0.018276762 26:0.018276762 27:0.023498695 28:0.08474576 29:0.014360313 30:0.022193212 31:0.036505867 32:0 33:0.043024772 34:0.0065274151 35:0.052151239 36:0.0052219321 37:0.007832898 38:0.018276762 39:0.041720991 40:0.011749347 41:0.0078328982 42:0.0039164491 43:0.061277705 44:0.024804178 45:0.016971279 46:0.07953064 47:0.027415144 48:0.022193211 49:0.069100391 50:0.018276762 51:0.020887729 
32768 1:0.06122449 2:0.090322581 3:0.030139935 4:0.056989247 5:0.026910657 6:0.006458558 7:0.09247312 8:0.023681378 9:0.048387097 10:0.010764263 11:0.011840689 12:0.012917115 13:0.012917115 14:0.086021505 15:0.030139935 16:0.015069968 17:0.027987083 18:0.012917115 19:0.074193548 20:0.026910657 21:0.020452099 22:0.029032258 23:0.012917115 24:0.064516129 25:0.016146394 26:0.013993541 27:0.021528525 28:0.07419355 29:0.011840689 30:0.031216362 31:0.074193548 32:0.010764263 33:0.058064516 34:0.010764263 35:0.040860215 36:0.0032292788 37:0.007534984 38:0.015069968 39:0.038709677 40:0.0075349839 41:0.0096878364 42:0.012917115 43:0.048387097 44:0.016146394 45:0.015069968 46:0.06774194 47:0.020452099 48:0.012917115 49:0.055913978 50:0.01722282 51:0.015069968 
7032.456479403177 1:0.72765073 2:0.0625 3:0.022964509 4:0.070833333 5:0.027139875 6:0.006263048 7:0.11041667 8:0.045929019 9:0.025 10:0.0020876827 11:0.012526096 12:0.010438413 13:0 14:0.095833333 15:0.008350731 16:0.033402923 17:0.041753653 18:0.012526096 19:0.12291667 20:0.039665971 21:0.037578288 22:0.0375 23:0.010438413 24:0.05625 25:0.006263048 26:0.016701461 27:0.016701461 28:0.09166667 29:0.018789144 30:0.041753653 31:0.066666667 32:0.006263048 33:0.079166667 34:0.027139875 35:0.0375 36:0.010438413 37:0.016701461 38:0.010438413 39:0.01875 40:0.006263048 41:0.006263048 42:0 43:0.054166667 44:0.008350731 45:0.006263048 46:0.04791667 47:0.014613779 48:0.012526096 49:0.022916667 50:0.010438413 51:0.006263048 
9594.314785943934 1:0.85100287 2:0.020114943 3:0.0057636888 4:0.048850575 5:0.008645533 6:0.011527378 7:0.05172414 8:0.011527378 9:0.025862069 10:0.0028818444 11:0 12:0.020172911 13:0.0028818444 14:0.074712644 15:0 16:0.025936599 17:0.028818444 18:0.017291066 19:0.13505747 20:0.031700288 21:0.04610951 22:0.037356322 23:0.0057636888 24:0.094827586 25:0.0028818444 26:0.031700288 27:0.051873199 28:0.04310345 29:0.017291066 30:0.014409222 31:0.086206897 32:0.011527377 33:0.1091954 34:0.043227666 35:0.063218391 36:0.0028818444 37:0.025936599 38:0.025936599 39:0.011494253 40:0.0028818444 41:0.0028818444 42:0 43:0.068965517 44:0.011527378 45:0.014409222 46:0.10344828 47:0.014409222 48:0.023054755 49:0.025862069 50:0.005763689 51:0.0057636888 
32768 1:1 2:0.0155902 3:0 4:0.051224944 5:0.013392857 6:0.015625 7:0.0935412 8:0.033482143 9:0.026726058 10:0.0022321429 11:0.004464286 12:0.013392857 13:0.0066964286 14:0.082405345 15:0.006696429 16:0.022321429 17:0.040178571 18:0.013392857 19:0.10690423 20:0.037946429 21:0.033482143 22:0.022271715 23:0.0066964286 24:0.095768374 25:0.011160714 26:0.040178571 27:0.03125 28:0.07349666 29:0.022321429 30:0.033482143 31:0.075723831 32:0.0044642857 33:0.084632517 34:0.03125 35:0.048997773 36:0.0022321429 37:0.011160714 38:0.024553571 39:0.0155902 40:0.0044642857 41:0.0089285714 42:0.0022321429 43:0.073496659 44:0.015625 45:0.026785714 46:0.08240535 47:0.020089286 48:0.015625 49:0.051224944 50:0.013392857 51:0.020089286 
32768 1:0.13530327 2:0.046728972 3:0.012480499 4:0.052959502 5:0.010920437 6:0.009360374 7:0.08255452 8:0.026521061 9:0.034267913 10:0.0031201248 11:0.009360374 12:0.014040562 13:0.007800312 14:0.062305296 15:0.014040562 16:0.010920437 17:0.029641186 18:0.007800312 19:0.12149533 20:0.029641186 21:0.043681747 22:0.029595016 23:0.007800312 24:0.088785047 25:0.012480499 26:0.018720749 27:0.042121685 28:0.08099688 29:0.020280811 30:0.032761311 31:0.07788162 32:0.012480499 33:0.093457944 34:0.032761311 35:0.034267913 36:0.0046801872 37:0.010920437 38:0.014040562 39:0.026479751 40:0.0093603744 41:0.0062402496 42:0.0062402496 43:0.049844237 44:0.009360374 45:0.012480499 46:0.08099688 47:0.018720749 48:0.007800312 49:0.037383178 50:0.010920437 51:0.0093603744 
32768 1:0.030991735 2:0.062111801 3:0.01659751 4:0.043478261 5:0.012448133 6:0.012448133 7:0.08074534 8:0.020746888 9:0.064182195 10:0.0062240664 11:0.018672199 12:0.018672199 13:0.020746888 14:0.064182195 15:0.014522822 16:0.010373444 17:0.024896266 18:0.014522822 19:0.057971014 20:0.01659751 21:0.01659751 22:0.031055901 23:0.0041493776 24:0.060041408 25:0.0020746888 26:0.018672199 27:0.024896266 28:0.0952381 29:0.012448133 30:0.031120332 31:0.053830228 32:0.010373444 33:0.093167702 34:0.024896266 35:0.051759834 36:0.010373444 37:0.008298755 38:0.018672199 39:0.031055901 40:0.0062240664 41:0.0082987552 42:0.010373444 43:0.057971014 44:0.024896266 45:0.010373444 46:0.08695652 47:0.020746888 48:0.020746888 49:0.066252588 50:0.024896266 51:0.01659751 
30791.25922497595 1:0.062977099 2:0.12428298 3:0.040229885 4:0.06500956 5:0.024904215 6:0.021072797 7:0.05927342 8:0.03256705 9:0.09751434 10:0.022988506 11:0.022988506 12:0.026819923 13:0.024904215 14:0.093690249 15:0.040229885 16:0.021072797 17:0.017241379 18:0.01532567 19:0.047801147 20:0.022988506 21:0.0095785441 22:0.013384321 23:0.0019157088 24:0.057361377 25:0.0076628352 26:0.013409962 27:0.017241379 28:0.07839388 29:0.019157088 30:0.011494253 31:0.034416826 32:0.0019157088 33:0.059273423 34:0.011494253 35:0.024856597 36:0.0057471264 37:0.001915709 38:0.011494253 39:0.049713193 40:0.0076628352 41:0.013409962 42:0.013409962 43:0.06500956 44:0.034482759 45:0.009578544 46:0.06500956 47:0.009578544 48:0.005747126 49:0.06500956 50:0.009578544 51:0.01532567 
32768 1:0.06122449 2:0.11363636 3:0.043280182 4:0.05 5:0.020501139 6:0.011389522 7:0.07727273 8:0.031890661 9:0.061363636 10:0.0045558087 11:0.022779043 12:0.022779043 13:0.011389522 14:0.079545455 15:0.027334852 16:0.018223235 17:0.025056948 18:0.009111617 19:0.059090909 20:0.022779043 21:0.0091116173 22:0.025 23:0.0022779043 24:0.075 25:0.006833713 26:0.025056948 27:0.025056948 28:0.075 29:0.011389522 30:0.01594533 31:0.059090909 32:0.0045558087 33:0.040909091 34:0.006833713 35:0.045454545 36:0.0091116173 37:0.009111617 38:0.01594533 39:0.036363636 40:0.006833713 41:0.0022779043 42:0.0091116173 43:0.070454545 44:0.01594533 45:0.027334852 46:0.07727273 47:0.022779043 48:0.020501139 49:0.054545455 50:0.011389522 51:0.013667426 
32768 1:0.31990521 2:0.040380048 3:0.0071428571 4:0.045130641 5:0.026190476 6:0.007142857 7:0.06175772 8:0.011904762 9:0.059382423 10:0.0071428571 11:0.023809524 12:0.011904762 13:0.016666667 14:0.09263658 15:0.014285714 16:0.023809524 17:0.028571429 18:0.026190476 19:0.080760095 20:0.014285714 21:0.014285714 22:0.026128266 23:0.0071428571 24:0.09263658 25:0.0071428571 26:0.016666667 27:0.021428571 28:0.04038005 29:0.007142857 30:0.0071428571 31:0.071258907 32:0.0023809524 33:0.049881235 34:0.011904762 35:0.045130641 36:0.0071428571 37:0.016666667 38:0.011904762 39:0.033254157 40:0.011904762 41:0.011904762 42:0.0071428571 43:0.095011876 44:0.030952381 45:0.030952381 46:0.06888361 47:0.00952381 48:0.014285714 49:0.097387173 50:0.023809524 51:0.023809524 
32768 1:0.13657056 2:0.021276596 3:0.00456621 4:0.044072948 5:0.00761035 6:0.01674277 7:0.07142857 8:0.01369863 9:0.019756839 10:0.00304414 11:0.00456621 12:0.00608828 13:0.0060882801 14:0.051671733 15:0.00304414 16:0.01217656 17:0.03196347 18:0.00456621 19:0.10486322 20:0.01369863 21:0.02891933 22:0.048632219 23:0.01674277 24:0.097264438 25:0.0060882801 26:0.01978691 27:0.054794521 28:0.06534954 29:0.0152207 30:0.02891933 31:0.10334346 32:0.01369863 33:0.11702128 34:0.04109589 35:0.050151976 36:0.00304414 37:0.01826484 38:0.02130898 39:0.019756839 40:0.01217656 41:0.00304414 42:0.00152207 43:0.050151976 44:0.01217656 45:0.01369863 46:0.09726444 47:0.01217656 48:0.01978691 49:0.037993921 50:0.0152207 51:0.0076103501 
10193.74861192577 1:0.11029412 2:0.019631902 3:0.0036855037 4:0.044171779 5:0.00982801 6:0.013513514 7:0.07484663 8:0.015970516 9:0.018404908 10:0.0036855037 11:0.006142506 12:0.002457002 13:0.0061425061 14:0.05398773 15:0.003685504 16:0.012285012 17:0.033169533 18:0.004914005 19:0.096932515 20:0.017199017 21:0.022113022 22:0.052760736 23:0.014742015 24:0.087116564 25:0.0061425061 26:0.017199017 27:0.047911548 28:0.06380368 29:0.015970516 30:0.02948403 31:0.098159509 32:0.014742015 33:0.13374233 34:0.051597052 35:0.057668712 36:0.0036855037 37:0.017199017 38:0.028255528 39:0.019631902 40:0.012285012 41:0.0024570025 42:0.0024570025 43:0.051533742 44:0.00982801 45:0.015970516 46:0.09202454 47:0.012285012 48:0.01965602 49:0.035582822 50:0.013513514 51:0.0049140049 
13791.16888342935 1:0.013186813 2:0.083700441 3:0.022075055 4:0.037444934 5:0.013245033 6:0.008830022 7:0.07268722 8:0.035320088 9:0.077092511 10:0.013245033 11:0.030905077 12:0.015452539 13:0.017660044 14:0.074889868 15:0.017660044 16:0.008830022 17:0.028697572 18:0.01986755 19:0.072687225 20:0.030905077 21:0.017660044 22:0.011013216 23:0.0022075055 24:0.079295154 25:0.0066225166 26:0.024282561 27:0.022075055 28:0.07709251 29:0.013245033 30:0.011037528 31:0.033039648 32:0 33:0.055066079 34:0.011037528 35:0.044052863 36:0.004415011 37:0.017660044 38:0.013245033 39:0.037444934 40:0.0066225166 41:0.0022075055 42:0.017660044 43:0.094713656 44:0.017660044 45:0.033112583 46:0.06828194 47:0.022075055 48:0.015452539 49:0.081497797 50:0.017660044 51:0.028697572 
32768 1:0.019230769 2:0.085653105 3:0.032188841 4:0.049250535 5:0.012875536 6:0.006437768 7:0.08351178 8:0.032188841 9:0.072805139 10:0.0042918455 11:0.025751073 12:0.030042918 13:0.012875536 14:0.079229122 15:0.015021459 16:0.015021459 17:0.025751073 18:0.02360515 19:0.087794433 20:0.036480687 21:0.019313305 22:0.014989293 23:0 24:0.057815846 25:0.012875536 26:0.015021459 27:0.019313305 28:0.09635974 29:0.015021459 30:0.021459228 31:0.04496788 32:0.0021459227 33:0.072805139 34:0.012875536 35:0.04496788 36:0.0021459227 37:0.015021459 38:0.021459227 39:0.029978587 40:0.0064377682 41:0.008583691 42:0.0064377682 43:0.057815846 44:0.010729614 45:0.019313305 46:0.08779443 47:0.030042918 48:0.017167382 49:0.034261242 50:0.017167382 51:0.0042918455 
32768 1:0.78571429 2:0.050746269 3:0.026946108 4:0.053731343 5:0.008982036 6:0.008982036 7:0.05074627 8:0.002994012 9:0.041791045 10:0.005988024 11:0.01497006 12:0.017964072 13:0.002994012 14:0.086567164 15:0.002994012 16:0.02994012 17:0.032934132 18:0.020958084 19:0.11044776 20:0.032934132 21:0.026946108 22:0.026865672 23:0.0089820359 24:0.10447761 25:0.002994012 26:0.032934132 27:0.056886228 28:0.0358209 29:0.01497006 30:0.0089820359 31:0.08358209 32:0.002994012 33:0.062686567 34:0.020958084 35:0.056716418 36:0.0089820359 37:0.023952096 38:0.020958084 39:0.026865672 40:0.002994012 41:0 42:0.011976048 43:0.080597015 44:0.020958084 45:0.023952096 46:0.09850746 47:0.008982036 48:0.023952096 49:0.029850746 50:0.002994012 51:0.011976048 
32768 1:1 2:0.004615385 3:0 4:0.023076923 5:0.004622496 6:0.004622496 7:0.04307692 8:0.001540832 9:0.013846154 10:0 11:0.006163328 12:0.006163328 13:0.001540832 14:0.044615385 15:0.001540832 16:0.016949153 17:0.021571649 18:0.004622496 19:0.14 20:0.01540832 21:0.058551618 22:0.11384615 23:0.05238829 24:0.070769231 25:0.0030816641 26:0.020030817 27:0.032357473 28:0.02769231 29:0.004622496 30:0.010785824 31:0.14307692 32:0.043143297 33:0.10307692 34:0.035439137 35:0.064615385 36:0.0030816641 37:0.016949153 38:0.023112481 39:0.007692308 40:0 41:0.0077041602 42:0 43:0.063076923 44:0.004622496 45:0.010785824 46:0.07846154 47:0.00770416 48:0.016949153 49:0.058461538 50:0.016949153 51:0.020030817 
13544.32978097852 1:0.38709677 2:0.061764706 3:0.02359882 4:0.055882353 5:0.020648968 6:0.01179941 7:0.10588235 8:0.029498525 9:0.05 10:0.005899705 11:0.014749263 12:0.017699115 13:0.01179941 14:0.10588235 15:0.017699115 16:0.020648968 17:0.044247788 18:0.02359882 19:0.076470588 20:0.04719764 21:0.014749263 22:0.023529412 23:0.0088495575 24:0.064705882 25:0 26:0.017699115 27:0.044247788 28:0.08823529 29:0.026548673 30:0.029498525 31:0.082352941 32:0.005899705 33:0.064705882 34:0.01179941 35:0.041176471 36:0.005899705 37:0.01179941 38:0.017699115 39:0.014705882 40:0 41:0.005899705 42:0.005899705 43:0.058823529 44:0.014749263 45:0.029498525 46:0.08235294 47:0.02359882 48:0.008849558 49:0.023529412 50:0.002949853 51:0.0029498525 
32768 1:0.022113022 2:0.056650246 3:0.0074074074 4:0.0591133 5:0.02962963 6:0.014814815 7:0.08374384 8:0.017283951 9:0.02955665 10:0 11:0.012345679 12:0.007407407 13:0.0098765432 14:0.10098522 15:0.019753086 16:0.022222222 17:0.041975309 18:0.014814815 19:0.086206897 20:0.024691358 21:0.027160494 22:0.017241379 23:0.0049382716 24:0.093596059 25:0.0074074074 26:0.022222222 27:0.034567901 28:0.05418719 29:0.009876543 30:0.014814815 31:0.0591133 32:0.0049382716 33:0.054187192 34:0.0074074074 35:0.0591133 36:0.0098765432 37:0.019753086 38:0.014814815 39:0.019704433 40:0.0074074074 41:0.0024691358 42:0.0074074074 43:0.093596059 44:0.032098765 45:0.02962963 46:0.06896552 47:0.017283951 48:0.012345679 49:0.064039409 50:0.012345679 51:0.0098765432 
17034.73899452736 1:0.79728419 2:0.029126214 3:0.0058309038 4:0.03592233 5:0.005830904 6:0.003887269 7:0.08737864 8:0.012633625 9:0.013592233 10:0.0019436346 11:0.003887269 12:0.005830904 13:0.0019436346 14:0.058252427 15:0.009718173 16:0.011661808 17:0.033041788 18:0.003887269 19:0.1038835 20:0.022351798 21:0.039844509 22:0.10194175 23:0.033041788 24:0.050485437 25:0.0009718173 26:0.017492711 27:0.023323615 28:0.06893204 29:0.017492711 30:0.036929057 31:0.12330097 32:0.04664723 33:0.1407767 34:0.052478134 35:0.050485437 36:0.0029154519 37:0.020408163 38:0.021379981 39:0.009708738 40:0.0038872692 41:0.0029154519 42:0.0019436346 43:0.052427184 44:0.007774538 45:0.009718173 46:0.05339806 47:0.006802721 48:0.008746356 49:0.02038835 50:0.002915452 51:0.0038872692 
16450.51176703213 1:0.063934426 2:0.14778325 3:0.065789474 4:0.047619048 5:0.016447368 6:0.018092105 7:0.08702791 8:0.041118421 9:0.078817734 10:0.024671053 11:0.014802632 12:0.011513158 13:0.027960526 14:0.065681445 15:0.024671053 16:0.003289474 17:0.019736842 18:0.016447368 19:0.032840722 20:0.011513158 21:0.0082236842 22:0.016420361 23:0.0049342105 24:0.054187192 25:0.011513158 26:0.008223684 27:0.014802632 28:0.08374384 29:0.009868421 30:0.021381579 31:0.039408867 32:0.0032894737 33:0.049261084 34:0.011513158 35:0.039408867 36:0.014802632 37:0.008223684 38:0.004934211 39:0.065681445 40:0.014802632 41:0.0082236842 42:0.021381579 43:0.049261084 44:0.018092105 45:0.019736842 46:0.0591133 47:0.018092105 48:0.009868421 49:0.083743842 50:0.027960526 51:0.023026316 
2729.96575444211 1:0.46049661 2:0.085972851 3:0.024943311 4:0.081447964 5:0.038548753 6:0.013605442 7:0.08597285 8:0.036281179 9:0.076923077 10:0.01814059 11:0.022675737 12:0.013605442 13:0.022675737 14:0.10859729 15:0.029478458 16:0.027210884 17:0.038548753 18:0.013605442 19:0.040723982 20:0.022675737 21:0.0090702948 22:0.0067873303 23:0 24:0.058823529 25:0.011337869 26:0.006802721 27:0.029478458 28:0.07466063 29:0.022675737 30:0.0068027211 31:0.045248869 32:0 33:0.033936652 34:0.0045351474 35:0.052036199 36:0.013605442 37:0.009070295 38:0.013605442 39:0.058823529 40:0.011337869 41:0.0090702948 42:0.024943311 43:0.049773756 44:0.027210884 45:0.015873016 46:0.07918552 47:0.020408163 48:0.024943311 49:0.061085973 50:0.022675737 51:0.011337869 
32768 1:0.11337209 2:0.11078717 3:0.035087719 4:0.064139942 5:0.014619883 6:0.023391813 7:0.09329446 8:0.035087719 9:0.04664723 10:0.0087719298 11:0.00877193 12:0.026315789 13:0.0029239766 14:0.072886297 15:0.023391813 16:0.014619883 17:0.020467836 18:0.014619883 19:0.058309038 20:0.023391813 21:0.0058479532 22:0.026239067 23:0.0087719298 24:0.064139942 25:0.020467836 26:0.005847953 27:0.01754386 28:0.09912536 29:0.01754386 30:0.029239766 31:0.072886297 32:0.0058479532 33:0.096209913 34:0.026315789 35:0.026239067 36:0.0058479532 37:0.005847953 38:0.014619883 39:0.034985423 40:0.0087719298 41:0.0029239766 42:0.0058479532 43:0.026239067 44:0.005847953 45:0.002923977 46:0.0787172 47:0.01754386 48:0.00877193 49:0.029154519 50:0.020467836 51:0.0029239766 
32768 1:0.053846154 2:0.10282776 3:0.036082474 4:0.059125964 5:0.030927835 6:0.020618557 7:0.06683805 8:0.030927835 9:0.082262211 10:0.020618557 11:0.018041237 12:0.025773196 13:0.018041237 14:0.071979434 15:0.018041237 16:0.012886598 17:0.015463918 18:0.025773196 19:0.030848329 20:0.010309278 21:0.0025773196 22:0.01285347 23:0.0051546392 24:0.084832905 25:0.023195876 26:0.025773196 27:0.015463918 28:0.06169666 29:0.00257732 30:0.012886598 31:0.043701799 32:0 33:0.033419023 34:0 35:0.048843188 36:0.010309278 37:0.007731959 38:0.012886598 39:0.077120823 40:0.028350515 41:0.012886598 42:0.018041237 43:0.066838046 44:0.015463918 45:0.030927835 46:0.07197943 47:0.018041237 48:0.018041237 49:0.084832905 50:0.018041237 51:0.028350515 
19929.17017950968 1:0.023017903 2:0.071794872 3:0.025706941 4:0.053846154 5:0.020565553 6:0.010282776 7:0.08205128 8:0.025706941 9:0.053846154 10:0.015424165 11:0.01285347 12:0.015424165 13:0.010282776 14:0.092307692 15:0.023136247 16:0.017994859 17:0.038560411 18:0.01285347 19:0.1025641 20:0.038560411 21:0.030848329 22:0.0051282051 23:0.0025706941 24:0.08974359 25:0.0025706941 26:0.028277635 27:0.051413882 28:0.07179487 29:0.017994859 30:0.023136247 31:0.082051282 32:0 33:0.064102564 34:0.01285347 35:0.030769231 36:0.0025706941 37:0.007712082 38:0.017994859 39:0.025641026 40:0.0077120823 41:0 42:0.01285347 43:0.051282051 44:0.01285347 45:0.023136247 46:0.0974359 47:0.017994859 48:0.01285347 49:0.025641026 50:0.01285347 51:0.0051413882 
10530.29998243192 1:0.12598425 2:0.084210526 3:0.036939314 4:0.031578947 5:0 6:0.007915567 7:0.08947368 8:0.018469657 9:0.05 10:0.01055409 11:0.015831135 12:0.015831135 13:0.0079155673 14:0.068421053 15:0.021108179 16:0.005277045 17:0.021108179 18:0.021108179 19:0.063157895 20:0.018469657 21:0.013192612 22:0.036842105 23:0.0026385224 24:0.071052632 25:0.013192612 26:0.015831135 27:0.018469657 28:0.07368421 29:0.015831135 30:0.031662269 31:0.081578947 32:0.0079155673 33:0.086842105 34:0.021108179 35:0.042105263 36:0.0052770449 37:0.005277045 38:0.023746702 39:0.031578947 40:0.0026385224 41:0.015831135 42:0.0052770449 43:0.060526316 44:0.018469657 45:0.013192612 46:0.07105263 47:0.015831135 48:0.01055409 49:0.057894737 50:0.013192612 51:0.018469657 
8593.983643127307 1:0.037656904 2:0.11740042 3:0.027310924 4:0.050314465 5:0.023109244 6:0.010504202 7:0.07966457 8:0.025210084 9:0.094339623 10:0.025210084 11:0.016806723 12:0.029411765 13:0.021008403 14:0.081761006 15:0.025210084 16:0.014705882 17:0.021008403 18:0.021008403 19:0.050314465 20:0.027310924 21:0.0084033613 22:0.0083857442 23:0 24:0.041928721 25:0.0084033613 26:0.00210084 27:0.018907563 28:0.08385744 29:0.012605042 30:0.014705882 31:0.041928721 32:0.0021008403 33:0.056603774 34:0.016806723 35:0.039832285 36:0.0084033613 37:0.008403361 38:0.004201681 39:0.05870021 40:0.0084033613 41:0.0042016807 42:0.027310924 43:0.039832285 44:0.016806723 45:0.008403361 46:0.0754717 47:0.031512605 48:0.010504202 49:0.07966457 50:0.023109244 51:0.027310924 
32768 1:0.55288462 2:0.060240964 3:0.012077295 4:0.040963855 5:0.007246377 6:0.007246377 7:0.0746988 8:0.02173913 9:0.048192771 10:0.0024154589 11:0.012077295 12:0.019323671 13:0.014492754 14:0.072289157 15:0.02173913 16:0.012077295 17:0.024154589 18:0.014492754 19:0.079518072 20:0.026570048 21:0.012077295 22:0.03373494 23:0.0096618357 24:0.084337349 25:0.0072463768 26:0.026570048 27:0.028985507 28:0.0626506 29:0.007246377 30:0.024154589 31:0.074698795 32:0.0072463768 33:0.060240964 34:0.0096618357 35:0.048192771 36:0.0096618357 37:0.004830918 38:0.014492754 39:0.028915663 40:0.012077295 41:0.0048309179 42:0.0072463768 43:0.072289157 44:0.028985507 45:0.012077295 46:0.07710843 47:0.009661836 48:0.019323671 49:0.081927711 50:0.014492754 51:0.028985507 
1082.720794637922 1:0.58450704 2:0.037647059 3:0.0094339623 4:0.047058824 5:0.016509434 6:0.014150943 7:0.07058824 8:0.016509434 9:0.051764706 10:0.0047169811 11:0.014150943 12:0.014150943 13:0.018867925 14:0.087058824 15:0.007075472 16:0.021226415 17:0.025943396 18:0.033018868 19:0.08 20:0.035377358 21:0.021226415 22:0.032941177 23:0.011792453 24:0.068235294 25:0.011792453 26:0.021226415 27:0.016509434 28:0.04941176 29:0.011792453 30:0.014150943 31:0.072941176 32:0.0047169811 33:0.10352941 34:0.033018868 35:0.054117647 36:0.0023584906 37:0.018867925 38:0.016509434 39:0.030588235 40:0.011792453 41:0.0023584906 42:0.0094339623 43:0.068235294 44:0.016509434 45:0.016509434 46:0.07529412 47:0.004716981 48:0.021226415 49:0.070588235 50:0.028301887 51:0.016509434 
21901.36753452201 1:0.025316456 2:0.086680761 3:0.016949152 4:0.050739958 5:0.029661017 6:0.006355932 7:0.09302326 8:0.055084746 9:0.10359408 10:0.014830509 11:0.031779661 12:0.038135593 13:0.019067797 14:0.084566596 15:0.016949153 16:0.008474576 17:0.025423729 18:0.033898305 19:0.042283298 20:0.014830508 21:0.0063559322 22:0.0042283298 23:0 24:0.050739958 25:0.0084745763 26:0.012711864 27:0.019067797 28:0.1141649 29:0.006355932 30:0.033898305 31:0.033826638 32:0 33:0.052854123 34:0.0084745763 35:0.042283298 36:0.012711864 37:0.006355932 38:0.014830508 39:0.046511628 40:0.021186441 41:0.0021186441 42:0.01059322 43:0.054968288 44:0.033898305 45:0.006355932 46:0.09302326 47:0.038135593 48:0.021186441 49:0.046511628 50:0.021186441 51:0.0084745763 
32768 1:0.048316252 2:0.051319648 3:0.0088105727 4:0.06744868 5:0.024963289 6:0.020558003 7:0.07771261 8:0.017621145 9:0.046920821 10:0.0058737151 11:0.008810573 12:0.020558003 13:0.01174743 14:0.095307918 15:0.019089574 16:0.020558003 17:0.042584435 18:0.013215859 19:0.089442815 20:0.03671072 21:0.017621145 22:0.020527859 23:0.0044052863 24:0.095307918 25:0.017621145 26:0.038179148 27:0.024963289 28:0.05718475 29:0.014684288 30:0.013215859 31:0.074780059 32:0.0058737151 33:0.051319648 34:0.0088105727 35:0.041055718 36:0.0058737151 37:0.008810573 38:0.013215859 39:0.039589443 40:0.016152717 41:0.0073421439 42:0.01174743 43:0.068914956 44:0.014684288 45:0.019089574 46:0.07478006 47:0.024963289 48:0.01174743 49:0.048387097 50:0.014684288 51:0.010279001 
32768 1:0.13333333 2:0.089108911 3:0.024813896 4:0.051980198 5:0.009925558 6:0.027295285 7:0.08415842 8:0.037220844 9:0.079207921 10:0.024813896 11:0.022332506 12:0.014888337 13:0.017369727 14:0.071782178 15:0.017369727 16:0.004962779 17:0.029776675 18:0.019851117 19:0.03960396 20:0.019851117 21:0.0049627792 22:0.017326733 23:0.0024813896 24:0.061881188 25:0.012406948 26:0.012406948 27:0.022332506 28:0.08910891 29:0.019851117 30:0.012406948 31:0.034653465 32:0.0024813896 33:0.034653465 34:0.0024813896 35:0.054455446 36:0.0024813896 37:0.014888337 38:0.012406948 39:0.051980198 40:0.014888337 41:0.014888337 42:0.0099255583 43:0.064356436 44:0.029776675 45:0.009925558 46:0.07673267 47:0.024813896 48:0.027295285 49:0.099009901 50:0.027295285 51:0.042183623 
32768 1:0.18087318 2:0.041666667 3:0.0083507307 4:0.054166667 5:0.018789144 6:0.012526096 7:0.09583333 8:0.037578288 9:0.052083333 10:0.0020876827 11:0.014613779 12:0.033402923 13:0.0020876827 14:0.06875 15:0.004175365 16:0.014613779 17:0.039665971 18:0.010438413 19:0.054166667 20:0.016701461 21:0.012526096 22:0.025 23:0 24:0.079166667 25:0.0041753653 26:0.018789144 27:0.041753653 28:0.12083333 29:0.020876827 30:0.045929019 31:0.064583333 32:0.010438413 33:0.10208333 34:0.027139875 35:0.0375 36:0 37:0.008350731 38:0.018789144 39:0.0125 40:0.0083507307 41:0 42:0 43:0.054166667 44:0.014613779 45:0.016701461 46:0.10208333 47:0.03131524 48:0.010438413 49:0.035416667 50:0.008350731 51:0.0083507307 
32768 1:0.018897638 2:0.042586751 3:0.011058452 4:0.056782334 5:0.023696682 6:0.012638231 7:0.0977918 8:0.031595577 9:0.045741325 10:0.0031595577 11:0.015797788 12:0.025276461 13:0.0015797788 14:0.082018927 15:0.006319115 16:0.022116904 17:0.044233807 18:0.009478673 19:0.066246057 20:0.018957346 21:0.015797788 22:0.033123028 23:0.0063191153 24:0.070977918 25:0.0047393365 26:0.017377567 27:0.036334913 28:0.10094637 29:0.015797788 30:0.04107425 31:0.075709779 32:0.009478673 33:0.10410095 34:0.030015798 35:0.039432177 36:0.0031595577 37:0.009478673 38:0.018957346 39:0.015772871 40:0.009478673 41:0 42:0.0015797788 43:0.05362776 44:0.014218009 45:0.012638231 46:0.08675079 47:0.028436019 48:0.007898894 49:0.028391167 50:0.006319115 51:0.0063191153 
32768 1:0.018018018 2:0.039097744 3:0.010542169 4:0.052631579 5:0.018072289 6:0.015060241 7:0.09323308 8:0.030120482 9:0.046616541 10:0.0030120482 11:0.016566265 12:0.022590361 13:0.0045180723 14:0.07518797 15:0.006024096 16:0.022590361 17:0.039156627 18:0.00753012 19:0.069172932 20:0.019578313 21:0.018072289 22:0.033082707 23:0.0060240964 24:0.073684211 25:0.0060240964 26:0.016566265 27:0.037650602 28:0.10225564 29:0.013554217 30:0.042168675 31:0.072180451 32:0.0090361446 33:0.11127819 34:0.034638554 35:0.039097744 36:0 37:0.010542169 38:0.021084337 39:0.013533835 40:0.0075301205 41:0.0015060241 42:0.0015060241 43:0.057142857 44:0.015060241 45:0.013554217 46:0.0887218 47:0.028614458 48:0.009036145 49:0.033082707 50:0.00753012 51:0.0075301205 
4170.561784056747 1:0.0098846787 2:0.084158416 3:0.028099174 4:0.056105611 5:0.008264463 6:0.016528926 7:0.09240924 8:0.031404959 9:0.034653465 10:0.0016528926 11:0.01322314 12:0.014876033 13:0.0033057851 14:0.074257426 15:0.011570248 16:0.016528926 17:0.028099174 18:0.018181818 19:0.074257426 20:0.033057851 21:0.014876033 22:0.052805281 23:0.018181818 24:0.074257426 25:0.01322314 26:0.016528926 27:0.026446281 28:0.08250825 29:0.01322314 30:0.026446281 31:0.090759076 32:0.014876033 33:0.066006601 34:0.016528926 35:0.03960396 36:0.0066115702 37:0.016528926 38:0.011570248 39:0.024752475 40:0.0066115702 41:0.0082644628 42:0 43:0.054455446 44:0.011570248 45:0.021487603 46:0.06765677 47:0.018181818 48:0.014876033 49:0.031353135 50:0.014876033 51:0.0049586777 
32768 1:0.033088235 2:0.090239411 3:0.022140221 4:0.055248619 5:0.020295203 6:0.011070111 7:0.09576427 8:0.046125461 9:0.055248619 10:0.0073800738 11:0.018450185 12:0.016605166 13:0.012915129 14:0.071823204 15:0.014760148 16:0.007380074 17:0.033210332 18:0.016605166 19:0.069981584 20:0.012915129 21:0.025830258 22:0.023941068 23:0.0036900369 24:0.069981584 25:0.0092250923 26:0.025830258 27:0.020295203 28:0.09576427 29:0.016605166 30:0.016605166 31:0.042357274 32:0.0018450185 33:0.055248619 34:0.011070111 35:0.046040516 36:0.0073800738 37:0.009225092 38:0.016605166 39:0.040515654 40:0.0092250923 41:0.0092250923 42:0.0055350554 43:0.068139963 44:0.022140221 45:0.018450185 46:0.0626151 47:0.02398524 48:0.014760148 49:0.057090239 50:0.009225092 51:0.016605166 
32768 1:0.15337423 2:0.047131148 3:0.010266941 4:0.034836066 5:0.012320329 6:0.008213552 7:0.10245902 8:0.018480493 9:0.028688525 10:0.0041067762 11:0.014373717 12:0.006160164 13:0.0041067762 14:0.071721311 15:0.016427105 16:0.01026694 17:0.036960986 18:0.008213552 19:0.081967213 20:0.022587269 21:0.022587269 22:0.06352459 23:0.0082135524 24:0.067622951 25:0.0020533881 26:0.016427105 27:0.041067762 28:0.07786885 29:0.018480493 30:0.032854209 31:0.11680328 32:0.030800821 33:0.098360656 34:0.012320328 35:0.040983607 36:0.0082135524 37:0.006160164 38:0.016427105 39:0.016393443 40:0.0020533881 41:0.0061601643 42:0.0041067762 43:0.051229508 44:0.014373717 45:0.008213552 46:0.06967213 47:0.022587269 48:0.014373717 49:0.030737705 50:0.006160164 51:0.0082135524 
32768 1:0.45744681 2:0.079928952 3:0.026690392 4:0.04973357 5:0.019572954 6:0.014234875 7:0.09058615 8:0.035587189 9:0.06749556 10:0.019572954 11:0.012455516 12:0.021352313 13:0.014234875 14:0.072824156 15:0.024911032 16:0.007117438 17:0.023131673 18:0.017793594 19:0.065719361 20:0.026690391 21:0.010676157 22:0.017761989 23:0 24:0.056838366 25:0.0017793594 26:0.014234875 27:0.021352313 28:0.09769094 29:0.023131673 30:0.03024911 31:0.047957371 32:0.0017793594 33:0.071047957 34:0.014234875 35:0.046181172 36:0.0035587189 37:0.008896797 38:0.016014235 39:0.037300178 40:0.0071174377 41:0.012455516 42:0.012455516 43:0.04973357 44:0.014234875 45:0.014234875 46:0.08170515 47:0.024911032 48:0.007117438 49:0.06749556 50:0.023131673 51:0.017793594 
1115.908860474268 1:0.43928571 2:0.10035842 3:0.050359712 4:0.0609319 5:0.017985612 6:0.028776978 7:0.04659498 8:0.021582734 9:0.089605735 10:0.017985611 11:0.021582734 12:0.025179856 13:0.025179856 14:0.050179211 15:0.007194245 16:0.007194245 17:0.010791367 18:0.025179856 19:0.046594982 20:0.017985612 21:0.010791367 22:0.014336918 23:0 24:0.071684588 25:0.014388489 26:0.017985612 27:0.017985612 28:0.06451613 29:0.010791367 30:0.010791367 31:0.003584229 32:0 33:0.025089606 34:0.0035971223 35:0.082437276 36:0.017985611 37:0.021582734 38:0.017985612 39:0.082437276 40:0.025179856 41:0.0071942446 42:0.032374101 43:0.071684588 44:0.010791367 45:0.028776978 46:0.08602151 47:0.028776978 48:0.039568345 49:0.10394265 50:0.025179856 51:0.035971223 
9942.608012418938 1:0.037433155 2:0.0625 3:0.017889088 4:0.044642857 5:0.021466905 6:0.010733453 7:0.10178571 8:0.032200358 9:0.069642857 10:0.016100179 11:0.023255814 12:0.016100179 13:0.01431127 14:0.1 15:0.012522361 16:0.010733453 17:0.041144902 18:0.035778175 19:0.0625 20:0.023255814 21:0.016100179 22:0.010714286 23:0 24:0.073214286 25:0.0089445438 26:0.021466905 27:0.019677996 28:0.06785714 29:0.010733453 30:0.019677996 31:0.051785714 32:0 33:0.046428571 34:0.0071556351 35:0.057142857 36:0.016100179 37:0.012522361 38:0.021466905 39:0.046428571 40:0.01431127 41:0.01431127 42:0.0071556351 43:0.0875 44:0.037567084 45:0.021466905 46:0.06607143 47:0.016100179 48:0.016100179 49:0.051785714 50:0.008944544 51:0.0071556351 
11395.68809622593 1:0.28612717 2:0.043478261 3:0.0058139535 4:0.046376812 5:0.011627907 6:0.014534884 7:0.08985507 8:0.034883721 9:0.063768116 10:0.0087209302 11:0.002906977 12:0.037790698 13:0.014534884 14:0.069565217 15:0.00872093 16:0.014534884 17:0.020348837 18:0.026162791 19:0.055072464 20:0.01744186 21:0.0058139535 22:0.014492754 23:0.0029069767 24:0.086956522 25:0.0058139535 26:0.01744186 27:0.052325581 28:0.09565217 29:0.011627907 30:0.040697674 31:0.089855072 32:0.0029069767 33:0.069565217 34:0.011627907 35:0.043478261 36:0.014534884 37:0.002906977 38:0.020348837 39:0.037681159 40:0.014534884 41:0.0058139535 42:0.0087209302 43:0.034782609 44:0.014534884 45:0.014534884 46:0.12463768 47:0.037790698 48:0.029069767 49:0.034782609 50:0.014534884 51:0.0029069767 
32676.12747750267 1:0.89377289 2:0.13970588 3:0.070110701 4:0.073529412 5:0.044280443 6:0.014760148 7:0.06985294 8:0.044280443 9:0.069852941 10:0.011070111 11:0.007380074 12:0.033210332 13:0.018450185 14:0.077205882 15:0.022140221 16:0.018450185 17:0.018450185 18:0.018450185 19:0.044117647 20:0.003690037 21:0.0073800738 22:0.0073529412 23:0 24:0.066176471 25:0.0036900369 26:0.007380074 27:0.025830258 28:0.09191176 29:0.025830258 30:0.018450185 31:0.044117647 32:0 33:0.044117647 34:0.0073800738 35:0.033088235 36:0.022140221 37:0.003690037 38:0.007380074 39:0.047794118 40:0.011070111 41:0.0073800738 42:0.014760148 43:0.029411765 44:0.014760148 45:0.003690037 46:0.09191176 47:0.014760148 48:0.033210332 49:0.069852941 50:0.025830258 51:0.022140221 
32768 1:0.16346154 2:0.047313553 3:0.012038523 4:0.055332799 5:0.020064205 6:0.011235955 7:0.10184443 8:0.027287319 9:0.032076985 10:0.0024077047 11:0.012038523 12:0.011235955 13:0.0064205457 14:0.097834804 15:0.019261637 16:0.02247191 17:0.044141252 18:0.012038523 19:0.091419407 20:0.027287319 21:0.027287319 22:0.028067362 23:0.0064205457 24:0.070569366 25:0.0040128411 26:0.020866774 27:0.032102729 28:0.07377706 29:0.017656501 30:0.036918138 31:0.076984763 32:0.0064205457 33:0.093023256 34:0.025682183 35:0.045709703 36:0.0056179775 37:0.015248796 38:0.016853933 39:0.017642342 40:0.007223114 41:0.0016051364 42:0.0040128411 43:0.063352045 44:0.02247191 45:0.016853933 46:0.06736167 47:0.009630819 48:0.012038523 49:0.037690457 50:0.007223114 51:0.0096308186 
32768 1:0.091172214 2:0.08115942 3:0.021770682 4:0.053623188 5:0.020319303 6:0.010159652 7:0.07536232 8:0.02467344 9:0.066666667 10:0.0087082729 11:0.018867925 12:0.021770682 13:0.017416546 14:0.092753623 15:0.023222061 16:0.020319303 17:0.029027576 18:0.020319303 19:0.056521739 20:0.020319303 21:0.010159652 22:0.031884058 23:0.0058055152 24:0.05942029 25:0.010159652 26:0.017416546 27:0.021770682 28:0.07101449 29:0.013062409 30:0.013062409 31:0.063768116 32:0.0058055152 33:0.079710145 34:0.017416546 35:0.037681159 36:0.0014513788 37:0.010159652 38:0.010159652 39:0.031884058 40:0.0058055152 41:0.0029027576 42:0.01161103 43:0.066666667 44:0.026124819 45:0.008708273 46:0.06521739 47:0.015965167 48:0.010159652 49:0.066666667 50:0.01161103 51:0.023222061 
32768 1:0.11888112 2:0.10046729 3:0.025761124 4:0.051401869 5:0.025761124 6:0.011709602 7:0.07943925 8:0.035128806 9:0.091121495 10:0.021077283 11:0.018735363 12:0.021077283 13:0.030444965 14:0.079439252 15:0.018735363 16:0.009367681 17:0.025761124 18:0.025761124 19:0.030373832 20:0.014051522 21:0.0046838407 22:0.014018692 23:0 24:0.044392523 25:0.0046838407 26:0.007025761 27:0.018735363 28:0.0911215 29:0.014051522 30:0.011709602 31:0.030373832 32:0.0023419204 33:0.049065421 34:0.0070257611 35:0.044392523 36:0.0023419204 37:0.007025761 38:0.009367681 39:0.051401869 40:0.014051522 41:0.0046838407 42:0.014051522 43:0.056074766 44:0.025761124 45:0.011709602 46:0.07242991 47:0.028103044 48:0.018735363 49:0.11448598 50:0.023419204 51:0.044496487 
32768 1:0.03 2:0.089171975 3:0.031876138 4:0.058234759 5:0.021857923 6:0.017304189 7:0.07188353 8:0.02276867 9:0.075523203 10:0.013661202 11:0.017304189 12:0.028233151 13:0.016393443 14:0.077343039 15:0.02276867 16:0.018214936 17:0.02003643 18:0.016393443 19:0.057324841 20:0.017304189 21:0.014571949 22:0.011828935 23:0.0018214936 24:0.070973612 25:0.018214936 26:0.015482696 27:0.020947177 28:0.07097361 29:0.017304189 30:0.018214936 31:0.04822566 32:0.0009107468 33:0.060054595 34:0.010018215 35:0.049135578 36:0.010928962 37:0.006375228 38:0.02003643 39:0.058234759 40:0.012750455 41:0.0091074681 42:0.020947177 43:0.05277525 44:0.02003643 45:0.018214936 46:0.08462238 47:0.016393443 48:0.024590164 49:0.063694268 50:0.015482696 51:0.019125683 
19283.4498909002 1:0.043994413 2:0.085255066 3:0.026573427 4:0.047519217 5:0.016083916 6:0.018881119 7:0.04262753 8:0.016083916 9:0.1160028 10:0.032867133 11:0.013286713 12:0.025174825 13:0.044755245 14:0.07267645 15:0.016783217 16:0.014685315 17:0.016083916 18:0.025174825 19:0.029350105 20:0.013986014 21:0.0090909091 22:0.0020964361 23:0 24:0.055904962 25:0.011188811 26:0.011888112 27:0.012587413 28:0.04472397 29:0.005594406 30:0.0055944056 31:0.031446541 32:0 33:0.022361985 34:0.0013986014 35:0.064290706 36:0.016083916 37:0.006993007 38:0.018881119 39:0.089447939 40:0.012587413 41:0.011888112 42:0.043356643 43:0.051013277 44:0.023076923 45:0.020979021 46:0.09573725 47:0.022377622 48:0.03986014 49:0.14954577 50:0.039160839 51:0.062237762 
32768 1:0.22621185 2:0.064748201 3:0.010810811 4:0.037769784 5:0.012612613 6:0.001801802 7:0.10611511 8:0.03963964 9:0.028776978 10:0.0018018018 11:0.010810811 12:0.010810811 13:0.0054054054 14:0.055755396 15:0.014414414 16:0.001801802 17:0.030630631 18:0.009009009 19:0.048561151 20:0.014414414 21:0.009009009 22:0.043165468 23:0.0054054054 24:0.068345324 25:0.0054054054 26:0.014414414 27:0.030630631 28:0.09892086 29:0.010810811 30:0.03963964 31:0.06294964 32:0.009009009 33:0.089928058 34:0.016216216 35:0.070143885 36:0.009009009 37:0.01981982 38:0.023423423 39:0.017985612 40:0.0036036036 41:0.0072072072 42:0.0036036036 43:0.066546763 44:0.009009009 45:0.030630631 46:0.08273381 47:0.010810811 48:0.021621622 49:0.057553957 50:0.018018018 51:0.016216216 
2450.59338872815 1:0.037974684 2:0.073510773 3:0.019035533 4:0.077313054 5:0.015228426 6:0.017766497 7:0.05830165 8:0.019035533 9:0.051964512 10:0.0076142132 11:0.016497462 12:0.01142132 13:0.016497462 14:0.08365019 15:0.017766497 16:0.021573604 17:0.024111675 18:0.019035533 19:0.13941698 20:0.039340102 21:0.049492386 22:0.01774398 23:0.0025380711 24:0.087452471 25:0.015228426 26:0.024111675 27:0.032994924 28:0.06970849 29:0.027918782 30:0.01142132 31:0.043092522 32:0 33:0.043092522 34:0.0063451777 35:0.032953105 36:0.0063451777 37:0.010152284 38:0.012690355 39:0.034220532 40:0.0088832487 41:0.0025380711 42:0.0038071066 43:0.068441065 44:0.021573604 45:0.006345178 46:0.06970849 47:0.021573604 48:0.016497462 49:0.049429658 50:0.012690355 51:0.013959391 
32768 1:0.13204225 2:0.079365079 3:0.026501767 4:0.063492063 5:0.022968198 6:0.007067138 7:0.07760141 8:0.024734982 9:0.045855379 10:0.0035335689 11:0.017667845 12:0.01590106 13:0.0088339223 14:0.08994709 15:0.040636042 16:0.014134276 17:0.024734982 18:0.010600707 19:0.095238095 20:0.024734982 21:0.024734982 22:0.019400353 23:0.0017667845 24:0.081128748 25:0.0017667845 26:0.022968198 27:0.037102473 28:0.07760141 29:0.017667845 30:0.028268551 31:0.054673721 32:0.0035335689 33:0.0670194 34:0.017667845 35:0.035273369 36:0.0017667845 37:0.01590106 38:0.008833922 39:0.019400353 40:0.0088339223 41:0.0053003534 42:0.0035335689 43:0.072310406 44:0.033568905 45:0.014134276 46:0.07054674 47:0.022968198 48:0.010600707 49:0.051146384 50:0.008833922 51:0.014134276 
32768 1:0.45714286 2:0.10828026 3:0.047923323 4:0.057324841 5:0.028753994 6:0.003194888 7:0.12101911 8:0.047923323 9:0.050955414 10:0.0063897764 11:0.009584665 12:0.015974441 13:0.019169329 14:0.10191083 15:0.019169329 16:0.012779553 17:0.054313099 18:0.015974441 19:0.038216561 20:0.022364217 21:0.0031948882 22:0.01910828 23:0 24:0.054140127 25:0.0063897764 26:0.009584665 27:0.012779553 28:0.08598726 29:0.015974441 30:0.025559105 31:0.066878981 32:0.0031948882 33:0.041401274 34:0.0063897764 35:0.038216561 36:0.015974441 37:0 38:0.006389776 39:0.044585987 40:0.015974441 41:0.0063897764 42:0.019169329 43:0.050955414 44:0.022364217 45:0.012779553 46:0.0477707 47:0.015974441 48:0.012779553 49:0.073248408 50:0.012779553 51:0.012779553 
17069.16964292389 1:0.091304348 2:0.12636166 3:0.054585153 4:0.041394336 5:0.010917031 6:0.008733624 7:0.06753813 8:0.024017467 9:0.095860566 10:0.024017467 11:0.015283843 12:0.024017467 13:0.032751092 14:0.063180828 15:0.015283843 16:0.013100437 17:0.017467249 18:0.017467249 19:0.021786492 20:0.013100437 21:0 22:0.0065359477 23:0 24:0.05664488 25:0.0065502183 26:0.004366812 27:0.024017467 28:0.07843137 29:0.004366812 30:0.021834061 31:0.039215686 32:0 33:0.045751634 34:0.010917031 35:0.054466231 36:0.010917031 37:0.008733624 38:0.015283843 39:0.065359477 40:0.0065502183 41:0.0065502183 42:0.026200873 43:0.045751634 44:0.017467249 45:0.026200873 46:0.09803922 47:0.034934498 48:0.017467249 49:0.093681917 50:0.034934498 51:0.017467249 
32768 1:0.53716216 2:0.084602369 3:0.025423729 4:0.099830795 5:0.027118644 6:0.015254237 7:0.08967851 8:0.044067797 9:0.023688663 10:0.006779661 11:0.003389831 12:0.010169492 13:0.0033898305 14:0.10152284 15:0.013559322 16:0.040677966 17:0.042372881 18:0.005084746 19:0.12182741 20:0.042372881 21:0.042372881 22:0.03891709 23:0.0050847458 24:0.057529611 25:0.006779661 26:0.016949153 27:0.016949153 28:0.08121827 29:0.025423729 30:0.020338983 31:0.045685279 32:0.0033898305 33:0.052453469 34:0.0084745763 35:0.045685279 36:0.013559322 37:0.010169492 38:0.015254237 39:0.0321489 40:0.013559322 41:0.0016949153 42:0.0033898305 43:0.050761421 44:0.016949153 45:0.005084746 46:0.04399323 47:0.013559322 48:0.010169492 49:0.030456853 50:0.001694915 51:0.0033898305 
32768 1:0.18476499 2:0.019480519 3:0.0081300813 4:0.040584416 5:0.008130081 6:0.01300813 7:0.09415584 8:0.011382114 9:0.01461039 10:0 11:0.008130081 12:0.001626016 13:0.0048780488 14:0.073051948 15:0.003252033 16:0.01300813 17:0.045528455 18:0.011382114 19:0.12987013 20:0.02601626 21:0.048780488 22:0.040584416 23:0.0081300813 24:0.090909091 25:0.0032520325 26:0.030894309 27:0.047154472 28:0.06980519 29:0.019512195 30:0.040650406 31:0.10876623 32:0.011382114 33:0.11038961 34:0.034146342 35:0.038961039 36:0 37:0.009756098 38:0.027642276 39:0.00487013 40:0.0048780488 41:0 42:0 43:0.055194805 44:0.017886179 45:0.004878049 46:0.08441558 47:0.016260163 48:0.01300813 49:0.024350649 50:0.008130081 51:0.0081300813 
6519.064084725202 1:0.14950166 2:0.10333333 3:0.030100334 4:0.04 5:0.003344482 6:0.006688963 7:0.08666667 8:0.026755853 9:0.063333333 10:0.0066889632 11:0.013377926 12:0.013377926 13:0.026755853 14:0.073333333 15:0.02006689 16:0.003344482 17:0.030100334 18:0.02006689 19:0.053333333 20:0.02006689 21:0.010033445 22:0.036666667 23:0.0033444816 24:0.05 25:0 26:0.013377926 27:0.016722408 28:0.08 29:0.006688963 30:0.02006689 31:0.053333333 32:0.0066889632 33:0.07 34:0.013377926 35:0.053333333 36:0.016722408 37:0.006688963 38:0.023411371 39:0.033333333 40:0.013377926 41:0.0033444816 42:0.0033444816 43:0.066666667 44:0.026755853 45:0.013377926 46:0.06333333 47:0.016722408 48:0.02006689 49:0.073333333 50:0.010033445 51:0.02006689 
32768 1:0.039735099 2:0.089700997 3:0.03 4:0.066445183 5:0.02 6:0.023333333 7:0.09302326 8:0.04 9:0.063122924 10:0.0066666667 11:0.023333333 12:0.016666667 13:0.016666667 14:0.096345515 15:0.016666667 16:0.023333333 17:0.04 18:0.016666667 19:0.063122924 20:0.03 21:0.0066666667 22:0.019933555 23:0.0033333333 24:0.063122924 25:0.013333333 26:0.016666667 27:0.023333333 28:0.0730897 29:0.016666667 30:0.023333333 31:0.046511628 32:0 33:0.043189369 34:0.0066666667 35:0.049833887 36:0.016666667 37:0.013333333 38:0.006666667 39:0.056478405 40:0.0066666667 41:0.0066666667 42:0.02 43:0.066445183 44:0.026666667 45:0.013333333 46:0.05647841 47:0.016666667 48:0.02 49:0.053156146 50:0.01 51:0.013333333 
32768 1:0.52209945 2:0.038781163 3:0.0083333333 4:0.060941828 5:0.013888889 6:0.013888889 7:0.08587258 8:0.019444444 9:0.027700831 10:0.0055555556 11:0.008333333 12:0.011111111 13:0.0027777778 14:0.088642659 15:0.013888889 16:0.025 17:0.038888889 18:0.011111111 19:0.13296399 20:0.030555556 21:0.044444444 22:0.027700831 23:0.011111111 24:0.08033241 25:0.0083333333 26:0.019444444 27:0.027777778 28:0.06925208 29:0.019444444 30:0.030555556 31:0.091412742 32:0.0055555556 33:0.08033241 34:0.013888889 35:0.03601108 36:0.0027777778 37:0.002777778 38:0.025 39:0.019390582 40:0.0055555556 41:0.0027777778 42:0.0083333333 43:0.04432133 44:0.016666667 45:0.013888889 46:0.08033241 47:0.011111111 48:0.016666667 49:0.03601108 50:0.016666667 51:0.0027777778 
32768 1:0.3997195 2:0.081460674 3:0.028129395 4:0.04494382 5:0.012658228 6:0.012658228 7:0.06039326 8:0.016877637 9:0.073033708 10:0.0098452883 11:0.008438819 12:0.032348805 13:0.022503516 14:0.070224719 15:0.019690577 16:0.014064698 17:0.018284107 18:0.018284107 19:0.064606742 20:0.018284107 21:0.019690577 22:0.023876405 23:0.0028129395 24:0.061797753 25:0.0070323488 26:0.021097046 27:0.023909986 28:0.06601124 29:0.011251758 30:0.016877637 31:0.053370787 32:0 33:0.06741573 34:0.023909986 35:0.05758427 36:0.0098452883 37:0.014064698 38:0.014064698 39:0.043539326 40:0.0084388186 41:0.0042194093 42:0.015471167 43:0.05758427 44:0.014064698 45:0.015471167 46:0.09269663 47:0.018284107 48:0.025316456 49:0.081460674 50:0.022503516 51:0.028129395 
32768 1:0.02948403 2:0.083743842 3:0.019753086 4:0.04679803 5:0.017283951 6:0.024691358 7:0.07881773 8:0.027160494 9:0.064039409 10:0.0024691358 11:0.014814815 12:0.039506173 13:0.0074074074 14:0.066502463 15:0.017283951 16:0.012345679 17:0.014814815 18:0.022222222 19:0.064039409 20:0.027160494 21:0.024691358 22:0.0098522167 23:0 24:0.071428571 25:0.0024691358 26:0.014814815 27:0.02962963 28:0.10098522 29:0.017283951 30:0.022222222 31:0.051724138 32:0.0024691358 33:0.086206897 34:0.017283951 35:0.04679803 36:0.0049382716 37:0.004938272 38:0.02962963 39:0.022167488 40:0.0024691358 41:0.0024691358 42:0.0098765432 43:0.049261084 44:0.009876543 45:0.017283951 46:0.11083744 47:0.034567901 48:0.017283951 49:0.04679803 50:0.012345679 51:0.0074074074 
27255.58412934837 1:0.591133 2:0.088888889 3:0.034653465 4:0.039506173 5:0.022277228 6:0.007425743 7:0.05432099 8:0.014851485 9:0.088888889 10:0.012376238 11:0.014851485 12:0.022277228 13:0.03960396 14:0.064197531 15:0.007425743 16:0.012376238 17:0.024752475 18:0.01980198 19:0.051851852 20:0.017326733 21:0.0074257426 22:0.022222222 23:0.0074257426 24:0.056790123 25:0.012376238 26:0.012376238 27:0.014851485 28:0.05432099 29:0.00990099 30:0.004950495 31:0.051851852 32:0.004950495 33:0.041975309 34:0.004950495 35:0.056790123 36:0.014851485 37:0.002475248 38:0.01980198 39:0.066666667 40:0.014851485 41:0.0024752475 42:0.027227723 43:0.051851852 44:0.012376238 45:0.012376238 46:0.08395062 47:0.01980198 48:0.027227723 49:0.12592593 50:0.027227723 51:0.04950495 
27620.46632909853 1:0.097165992 2:0.046653144 3:0.0081300813 4:0.044624746 5:0.012195122 6:0.010162602 7:0.10750507 8:0.038617886 9:0.040567951 10:0.0020325203 11:0.00203252 12:0.028455285 13:0.0081300813 14:0.064908722 15:0.014227642 16:0.008130081 17:0.032520325 18:0.010162602 19:0.062880325 20:0.018292683 21:0.020325203 22:0.016227181 23:0.006097561 24:0.073022312 25:0.0081300813 26:0.014227642 27:0.030487805 28:0.10547667 29:0.020325203 30:0.038617886 31:0.062880325 32:0.0040650407 33:0.09127789 34:0.022357724 35:0.044624746 36:0.0040650407 37:0.008130081 38:0.014227642 39:0.022312373 40:0.0081300813 41:0.0081300813 42:0.006097561 43:0.046653144 44:0.012195122 45:0.016260163 46:0.08924949 47:0.020325203 48:0.008130081 49:0.081135903 50:0.016260163 51:0.034552845 
32768 1:0.011262318 2:0.057276995 3:0.014560827 4:0.054929577 5:0.016439643 6:0.010803194 7:0.07887324 8:0.023954908 9:0.051173709 10:0.0079849695 11:0.013151714 12:0.018788163 13:0.011272898 14:0.083098592 15:0.01268201 16:0.022545796 17:0.030061062 18:0.017848755 19:0.057746479 20:0.018788163 21:0.010803194 22:0.045539906 23:0.014091123 24:0.058685446 25:0.0084546736 26:0.010803194 27:0.03100047 28:0.07464789 29:0.013151714 30:0.022076092 31:0.084976526 32:0.015500235 33:0.088262911 34:0.021606388 35:0.055868545 36:0.0046970409 37:0.014560827 38:0.023485204 39:0.026760563 40:0.0098637858 41:0.0032879286 42:0.0079849695 43:0.047887324 44:0.015500235 45:0.010803194 46:0.09107981 47:0.014091123 48:0.022545796 49:0.043192488 50:0.017848755 51:0.01033349 
32768 1:0.041166381 2:0.04467354 3:0.013769363 4:0.049828179 5:0.017211704 6:0.017211704 7:0.06872852 8:0.010327022 9:0.041237113 10:0.0017211704 11:0.008605852 12:0.020654045 13:0.010327022 14:0.072164948 15:0.013769363 16:0.013769363 17:0.027538726 18:0.017211704 19:0.046391753 20:0.022375215 21:0.0068846816 22:0.049828179 23:0.013769363 24:0.063573883 25:0.008605852 26:0.010327022 27:0.037865749 28:0.06357388 29:0.013769363 30:0.024096386 31:0.089347079 32:0.025817556 33:0.12027491 34:0.030981067 35:0.065292096 36:0.008605852 37:0.012048193 38:0.024096386 39:0.02233677 40:0.010327022 41:0.0051635112 42:0.0051635112 43:0.046391753 44:0.012048193 45:0.012048193 46:0.09965636 47:0.013769363 48:0.018932874 49:0.056701031 50:0.017211704 51:0.018932874 
32768 1:0.40243902 2:0.11836735 3:0.045081967 4:0.07755102 5:0.024590164 6:0.032786885 7:0.08979592 8:0.028688525 9:0.06122449 10:0.012295082 11:0.012295082 12:0.024590164 13:0.012295082 14:0.10204082 15:0.020491803 16:0.020491803 17:0.036885246 18:0.024590164 19:0.044897959 20:0.032786885 21:0.0040983607 22:0.0081632653 23:0 24:0.06122449 25:0.0040983607 26:0.024590164 27:0.008196721 28:0.07346939 29:0.012295082 30:0.020491803 31:0.032653061 32:0 33:0.036734694 34:0.0040983607 35:0.053061224 36:0.028688525 37:0.008196721 38:0.008196721 39:0.057142857 40:0.016393443 41:0.0040983607 42:0.016393443 43:0.06122449 44:0.028688525 45:0.020491803 46:0.06122449 47:0.016393443 48:0.016393443 49:0.06122449 50:0.020491803 51:0.012295082 
3648.241013822957 1:0.34408602 2:0.12589928 3:0.046931408 4:0.061151079 5:0.032490975 6:0.025270758 7:0.06115108 8:0.025270758 9:0.079136691 10:0.02166065 11:0.007220217 12:0.028880866 13:0.02166065 14:0.10071942 15:0.0433213 16:0.010830325 17:0.028880866 18:0.018050542 19:0.035971223 20:0.014440433 21:0.0072202166 22:0.0071942446 23:0 24:0.061151079 25:0.0072202166 26:0.014440433 27:0.014440433 28:0.05035971 29:0.014440433 30:0 31:0.053956835 32:0.0036101083 33:0.028776978 34:0.0036101083 35:0.050359712 36:0.010830325 37:0.014440433 38:0.003610108 39:0.050359712 40:0.010830325 41:0.014440433 42:0.014440433 43:0.053956835 44:0.028880866 45:0.007220217 46:0.08992806 47:0.018050542 48:0.02166065 49:0.089928058 50:0.0433213 51:0.018050541 
32768 1:0.1138088 2:0.083586626 3:0.03196347 4:0.056231003 5:0.01674277 6:0.01065449 7:0.07598784 8:0.02891933 9:0.075987842 10:0.0076103501 11:0.01826484 12:0.02739726 13:0.02283105 14:0.089665653 15:0.02283105 16:0.01674277 17:0.02891933 18:0.01978691 19:0.08662614 20:0.03805175 21:0.02891933 22:0.010638298 23:0.00304414 24:0.066869301 25:0.01369863 26:0.02283105 27:0.02283105 28:0.07902736 29:0.01674277 30:0.01674277 31:0.051671733 32:0.00152207 33:0.045592705 34:0.01369863 35:0.041033435 36:0.0060882801 37:0.00608828 38:0.0152207 39:0.041033435 40:0.0076103501 41:0.0076103501 42:0.01978691 43:0.059270517 44:0.01978691 45:0.01369863 46:0.08510638 47:0.02739726 48:0.02283105 49:0.051671733 50:0.01978691 51:0.0060882801 
32768 1:1 2:0.015184382 3:0.002173913 4:0.019522777 5:0.002173913 6:0.006521739 7:0.07158351 8:0.002173913 9:0.010845987 10:0 11:0.004347826 12:0.006521739 13:0 14:0.036876356 15:0.002173913 16:0.004347826 17:0.023913043 18:0.006521739 19:0.21258135 20:0.026086957 21:0.097826087 22:0.078091106 23:0.032608696 24:0.056399132 25:0.0065217391 26:0.015217391 27:0.032608696 28:0.05639913 29:0.002173913 30:0.041304348 31:0.11062907 32:0.013043478 33:0.17787419 34:0.089130435 35:0.041214751 36:0.002173913 37:0.019565217 38:0.017391304 39:0.00867679 40:0.0086956522 41:0 42:0 43:0.041214751 44:0.008695652 45:0.017391304 46:0.05856833 47:0.013043478 48:0.006521739 49:0.004338395 50:0.002173913 51:0 
32768 1:1 2:0.035490605 3:0.0020920502 4:0.058455115 5:0.016736402 6:0.010460251 7:0.10647182 8:0.029288703 9:0.029227557 10:0.0041841004 11:0.010460251 12:0.010460251 13:0.0041841004 14:0.10020877 15:0.010460251 16:0.029288703 17:0.052301255 18:0.008368201 19:0.10229645 20:0.041841004 21:0.039748954 22:0.027139875 23:0.0062761506 24:0.064718163 25:0 26:0.025104603 27:0.023012552 28:0.08141962 29:0.020920502 30:0.031380753 31:0.064718163 32:0.014644351 33:0.098121086 34:0.035564854 35:0.050104384 36:0 37:0.014644351 38:0.025104603 39:0.010438413 40:0.0041841004 41:0.0020920502 42:0.0041841004 43:0.068893528 44:0.025104603 45:0.020920502 46:0.06471816 47:0.012552301 48:0.010460251 49:0.037578288 50:0.006276151 51:0.0062761506 
32768 1:0.20289855 2:0.072815534 3:0.024390244 4:0.072815534 5:0.029268293 6:0.029268293 7:0.06796117 8:0.014634146 9:0.063106796 10:0.0048780488 11:0.014634146 12:0.014634146 13:0.029268293 14:0.097087379 15:0.019512195 16:0.009756098 17:0.043902439 18:0.024390244 19:0.048543689 20:0.014634146 21:0.014634146 22:0.014563107 23:0 24:0.077669903 25:0.0097560976 26:0.014634146 27:0.019512195 28:0.07281553 29:0.034146341 30:0.0048780488 31:0.04368932 32:0 33:0.04368932 34:0 35:0.04368932 36:0.0097560976 37:0.014634146 38:0.009756098 39:0.038834951 40:0.014634146 41:0 42:0.014634146 43:0.072815534 44:0.034146341 45:0.014634146 46:0.07281553 47:0.024390244 48:0 49:0.097087379 50:0.029268293 51:0.024390244 
29435.67484757484 1:0.22105263 2:0.084507042 3:0.017667845 4:0.042253521 5:0.014134276 6:0.010600707 7:0.08098592 8:0.028268551 9:0.042253521 10:0 11:0.003533569 12:0.017667845 13:0.021201413 14:0.063380282 15:0.014134276 16:0.010600707 17:0.024734982 18:0.014134276 19:0.049295775 20:0.014134276 21:0.014134276 22:0.017605634 23:0 24:0.080985915 25:0.010600707 26:0.021201413 27:0.024734982 28:0.06690141 29:0 30:0.014134276 31:0.056338028 32:0 33:0.049295775 34:0.0035335689 35:0.056338028 36:0.014134276 37:0.010600707 38:0.010600707 39:0.038732394 40:0.014134276 41:0.0035335689 42:0.014134276 43:0.059859155 44:0.014134276 45:0.03180212 46:0.08098592 47:0.017667845 48:0.03180212 49:0.13028169 50:0.028268551 51:0.06360424 
32768 1:0.098275862 2:0.082901554 3:0.025951557 4:0.067357513 5:0.024221453 6:0.012110727 7:0.07599309 8:0.017301038 9:0.034542314 10:0.0051903114 11:0.012110727 12:0.008650519 13:0.008650519 14:0.086355786 15:0.031141869 16:0.019031142 17:0.022491349 18:0.012110727 19:0.082901554 20:0.027681661 21:0.02249135 22:0.03626943 23:0.0069204152 24:0.065630397 25:0.0051903114 26:0.015570934 27:0.034602076 28:0.06390328 29:0.017301038 30:0.017301038 31:0.070811744 32:0.010380623 33:0.08462867 34:0.025951557 35:0.06044905 36:0.01384083 37:0.01384083 38:0.025951557 39:0.029360967 40:0.01384083 41:0.0069204152 42:0.0034602076 43:0.050086356 44:0.012110727 45:0.012110727 46:0.08290155 47:0.01384083 48:0.022491349 49:0.025906736 50:0.01384083 51:0 
32768 1:0.12283894 2:0.046448087 3:0.01549681 4:0.046448087 5:0.015496809 6:0.010027347 7:0.06739526 8:0.015496809 9:0.028233151 10:0.0036463081 11:0.006381039 12:0.010938924 13:0.0072926162 14:0.068306011 15:0.014585232 16:0.010938924 17:0.027347311 18:0.015496809 19:0.13934426 20:0.027347311 21:0.047402005 22:0.086520947 23:0.035551504 24:0.058287796 25:0.0072926162 26:0.019143118 27:0.025524157 28:0.05464481 29:0.016408387 30:0.021877849 31:0.11384335 32:0.023701003 33:0.083788707 34:0.021877849 35:0.043715847 36:0.0054694622 37:0.015496809 38:0.010938924 39:0.019125683 40:0.0082041933 41:0.0018231541 42:0.0036463081 43:0.051912568 44:0.012762078 45:0.008204193 46:0.05919854 47:0.010938924 48:0.008204193 49:0.032786885 50:0.011850501 51:0.0072926162 
32768 1:0.034722222 2:0.081206497 3:0.018604651 4:0.041763341 5:0.011627907 6:0.013953488 7:0.05336427 8:0.01627907 9:0.076566125 10:0.0046511628 11:0.01627907 12:0.030232558 13:0.025581395 14:0.085846868 15:0.025581395 16:0.01627907 17:0.018604651 18:0.025581395 19:0.048723898 20:0.018604651 21:0.0069767442 22:0.016241299 23:0.0023255814 24:0.069605568 25:0 26:0.011627907 27:0.039534884 28:0.05800464 29:0.009302326 30:0.0069767442 31:0.071925754 32:0.0046511628 33:0.05800464 34:0.01627907 35:0.051044084 36:0.011627907 37:0.004651163 38:0.020930233 39:0.030162413 40:0.0069767442 41:0.0023255814 42:0.0069767442 43:0.055684455 44:0.030232558 45:0.013953488 46:0.11136891 47:0.023255814 48:0.027906977 49:0.090487239 50:0.020930233 51:0.032558139 
32768 1:0.065136476 2:0.10800745 3:0.048447205 4:0.042209808 5:0.01242236 6:0.013664596 7:0.07386716 8:0.02484472 9:0.08317815 10:0.019875776 11:0.019254658 12:0.019875776 13:0.024223603 14:0.062073246 15:0.013043478 16:0.009937888 17:0.020496894 18:0.01863354 19:0.046554935 20:0.01552795 21:0.0055900621 22:0.024208566 23:0.0074534161 24:0.066418374 25:0.011801242 26:0.014906832 27:0.024223602 28:0.07386716 29:0.009937888 30:0.01552795 31:0.049037865 32:0.0074534161 33:0.041589075 34:0.0068322981 35:0.050900062 36:0.013664596 37:0.009937888 38:0.014285714 39:0.063935444 40:0.013043478 41:0.0093167702 42:0.022360248 43:0.061452514 44:0.021118012 45:0.019254658 46:0.07510863 47:0.023602484 48:0.014906832 49:0.077591558 50:0.016770186 51:0.024844721 
12779.48094125165 1:0.097922849 2:0.047619048 3:0.0089552239 4:0.05952381 5:0.017910448 6:0.017910448 7:0.06547619 8:0.008955224 9:0.074404762 10:0.020895522 11:0.035820896 12:0.011940299 13:0.0059701493 14:0.11309524 15:0.026865672 16:0.020895522 17:0.032835821 18:0.032835821 19:0.083333333 20:0.035820896 21:0.014925373 22:0.017857143 23:0.0059701493 24:0.092261905 25:0.0089552239 26:0.035820896 27:0.032835821 28:0.04166667 29:0.014925373 30:0.0089552239 31:0.0625 32:0.0089552239 33:0.032738095 34:0.0089552239 35:0.053571429 36:0.011940298 37:0.011940299 38:0.017910448 39:0.041666667 40:0.0089552239 41:0.0089552239 42:0.017910448 43:0.10416667 44:0.03880597 45:0.026865672 46:0.07440476 47:0.011940299 48:0.026865672 49:0.035714286 50:0.011940299 51:0.0029850746 
13874.42896828516 1:0.43504532 2:0.057575758 3:0.015197568 4:0.057575758 5:0.030395137 6:0.006079027 7:0.0969697 8:0.027355623 9:0.033333333 10:0 11:0.015197568 12:0.012158055 13:0.0060790274 14:0.096969697 15:0.018237082 16:0.024316109 17:0.045592705 18:0.009118541 19:0.060606061 20:0.021276596 21:0.009118541 22:0.021212121 23:0.009118541 24:0.081818182 25:0.015197568 26:0.015197568 27:0.024316109 28:0.06666667 29:0.018237082 30:0.021276596 31:0.057575758 32:0.0060790274 33:0.066666667 34:0.009118541 35:0.060606061 36:0.0030395137 37:0.021276596 38:0.021276596 39:0.027272727 40:0.009118541 41:0.0060790274 42:0.0060790274 43:0.081818182 44:0.03343465 45:0.027355623 46:0.06666667 47:0.009118541 48:0.021276596 49:0.066666667 50:0.009118541 51:0.018237082 
32768 1:0.01300578 2:0.054992764 3:0.015942029 4:0.060781476 5:0.017391304 6:0.014492754 7:0.08393632 8:0.024637681 9:0.041968162 10:0.0043478261 11:0.010144928 12:0.015942029 13:0.011594203 14:0.10274964 15:0.014492754 16:0.020289855 17:0.049275362 18:0.01884058 19:0.11287988 20:0.039130435 21:0.036231884 22:0.039073806 23:0.011594203 24:0.0723589 25:0.011594203 26:0.028985507 27:0.026086957 28:0.0593343 29:0.01884058 30:0.01884058 31:0.089725036 32:0.0057971014 33:0.06512301 34:0.017391304 35:0.040520984 36:0.0057971014 37:0.013043478 38:0.01884058 39:0.024602026 40:0.0072463768 41:0.0043478261 42:0.0043478261 43:0.063675832 44:0.017391304 45:0.011594203 46:0.06657019 47:0.017391304 48:0.011594203 49:0.02170767 50:0.005797101 51:0.0014492754 
14333.29799390045 1:0.8442029 2:0.10181818 3:0.02919708 4:0.050909091 5:0.02919708 6:0.00729927 7:0.10181818 8:0.032846715 9:0.043636364 10:0.010948905 11:0.018248175 12:0.003649635 13:0.010948905 14:0.087272727 15:0.03649635 16:0.00729927 17:0.032846715 18:0.010948905 19:0.061818182 20:0.032846715 21:0.003649635 22:0.018181818 23:0.003649635 24:0.08 25:0.0072992701 26:0.010948905 27:0.02919708 28:0.07272727 29:0.003649635 30:0.02189781 31:0.061818182 32:0.003649635 33:0.065454545 34:0.02189781 35:0.032727273 36:0.0072992701 37:0.010948905 38:0.00729927 39:0.032727273 40:0.018248175 41:0 42:0.003649635 43:0.072727273 44:0.018248175 45:0.032846715 46:0.05090909 47:0.010948905 48:0.00729927 49:0.065454545 50:0.010948905 51:0.01459854 
32768 1:0.79966044 2:0.10204082 3:0.037478705 4:0.056122449 5:0.02044293 6:0.018739353 7:0.10034014 8:0.037478705 9:0.056122449 10:0.0068143101 11:0.017035775 12:0.015332198 13:0.017035775 14:0.073129252 15:0.017035775 16:0.01362862 17:0.022146508 18:0.02044293 19:0.051020408 20:0.017035775 21:0.011925043 22:0.017006803 23:0.0085178876 24:0.06462585 25:0.0051107325 26:0.017035775 27:0.02725724 28:0.10714286 29:0.017035775 30:0.02725724 31:0.044217687 32:0.0051107325 33:0.06122449 34:0.01362862 35:0.039115646 36:0.0068143101 37:0.00681431 38:0.01362862 39:0.032312925 40:0.010221465 41:0.011925043 42:0.0085178876 43:0.054421769 44:0.022146508 45:0.01362862 46:0.07312925 47:0.028960818 48:0.008517888 49:0.068027211 50:0.015332198 51:0.025553663 
17733.35673081272 1:0.88602941 2:0.014760148 3:0 4:0.025830258 5:0.011111111 6:0.003703704 7:0.07380074 8:0.025925926 9:0.044280443 10:0 11:0.011111111 12:0.022222222 13:0.011111111 14:0.05904059 15:0.007407407 16:0.018518519 17:0.022222222 18:0.011111111 19:0.066420664 20:0.011111111 21:0.014814815 22:0.011070111 23:0.0037037037 24:0.12177122 25:0.0037037037 26:0.025925926 27:0.055555556 28:0.0701107 29:0.003703704 30:0.044444444 31:0.088560886 32:0 33:0.084870849 34:0.018518519 35:0.051660517 36:0.0074074074 37:0.018518519 38:0.022222222 39:0.014760148 40:0.0037037037 41:0 42:0.0074074074 43:0.077490775 44:0.014814815 45:0.02962963 46:0.12915129 47:0.014814815 48:0.025925926 49:0.066420664 50:0.02962963 51:0.014814815 
2713.738450820742 1:0.30566038 2:0.052930057 3:0.009469697 4:0.054820416 5:0.018939394 6:0.011363636 7:0.06427221 8:0.013257576 9:0.069943289 10:0.011363636 11:0.005681818 12:0.03030303 13:0.022727273 14:0.09073724 15:0.020833333 16:0.013257576 17:0.034090909 18:0.022727273 19:0.083175803 20:0.035984848 21:0.028409091 22:0.020793951 23:0.0037878788 24:0.058601134 25:0.0037878788 26:0.020833333 27:0.017045455 28:0.06994329 29:0.022727273 30:0.017045455 31:0.066162571 32:0.0075757576 33:0.10396975 34:0.03219697 35:0.037807183 36:0.0037878788 37:0.011363636 38:0.020833333 39:0.028355388 40:0.0075757576 41:0.0037878788 42:0.009469697 43:0.047258979 44:0.011363636 45:0.017045455 46:0.08884688 47:0.017045455 48:0.005681818 49:0.062381853 50:0.020833333 51:0.020833333 
21475.99461656079 1:0.12015504 2:0.08538163 3:0.025906736 4:0.051746442 5:0.023316062 6:0.022020725 7:0.04915912 8:0.015544041 9:0.082794308 10:0.016839378 11:0.015544041 12:0.018134715 13:0.03238342 14:0.068564036 15:0.015544041 16:0.020725389 17:0.012953368 18:0.019430052 19:0.037516171 20:0.014248705 21:0.010362694 22:0.0038809832 23:0.0012953368 24:0.078913325 25:0.0051813472 26:0.014248705 27:0.022020725 28:0.05562743 29:0.009067358 30:0.0051813472 31:0.042690815 32:0 33:0.045278137 34:0.010362694 35:0.046571798 36:0.015544041 37:0.006476684 38:0.009067358 39:0.06080207 40:0.0090673575 41:0.011658031 42:0.022020725 43:0.055627426 44:0.012953368 45:0.027202073 46:0.09184994 47:0.022020725 48:0.024611399 49:0.14359638 50:0.042746114 51:0.058290155 
32768 1:0.010619469 2:0.10638298 3:0.042628774 4:0.062056738 5:0.026642984 6:0.017761989 7:0.07978723 8:0.035523979 9:0.081560284 10:0.012433392 11:0.014209591 12:0.039076377 13:0.01598579 14:0.076241135 15:0.024866785 16:0.01598579 17:0.014209591 18:0.021314387 19:0.04787234 20:0.021314387 21:0.010657194 22:0.0053191489 23:0 24:0.04964539 25:0.010657194 26:0.010657194 27:0.017761989 28:0.09042553 29:0.019538188 30:0.019538188 31:0.037234043 32:0 33:0.063829787 34:0.0053285968 35:0.05141844 36:0.014209592 37:0.003552398 38:0.01598579 39:0.056737589 40:0.010657194 41:0.014209592 42:0.023090586 43:0.033687943 44:0.008880995 45:0.010657194 46:0.09219858 47:0.023090586 48:0.017761989 49:0.065602837 50:0.019538188 51:0.021314387 
32768 1:0.047191011 2:0.099099099 3:0.036117381 4:0.051801802 5:0.006772009 6:0.020316027 7:0.06531532 8:0.027088036 9:0.060810811 10:0.018058691 11:0.006772009 12:0.020316027 13:0.015801354 14:0.056306306 15:0.0248307 16:0.006772009 17:0.011286682 18:0.013544018 19:0.056306306 20:0.022573363 21:0.0045146727 22:0.015765766 23:0.0022573363 24:0.092342342 25:0.013544018 26:0.0248307 27:0.022573363 28:0.08333333 29:0.015801354 30:0.022573363 31:0.036036036 32:0.006772009 33:0.060810811 34:0.015801354 35:0.047297297 36:0.0022573363 37:0.009029345 38:0.020316027 39:0.040540541 40:0.015801354 41:0.0022573363 42:0.013544018 43:0.076576577 44:0.022573363 45:0.027088036 46:0.08333333 47:0.015801354 48:0.015801354 49:0.074324324 50:0.020316027 51:0.011286682 
32768 1:0.85204082 2:0.025553663 3:0.0051194539 4:0.049403748 5:0.013651877 6:0.005119454 7:0.07495741 8:0.020477816 9:0.032367973 10:0 11:0.010238908 12:0.015358362 13:0.0068259386 14:0.083475298 15:0.006825939 16:0.0221843 17:0.039249147 18:0.015358362 19:0.13117547 20:0.030716724 21:0.054607508 22:0.05451448 23:0.020477816 24:0.074957411 25:0.0051194539 26:0.02559727 27:0.035836177 28:0.06303237 29:0.013651877 30:0.030716724 31:0.10221465 32:0.013651877 33:0.06132879 34:0.011945393 35:0.057921635 36:0.0034129693 37:0.015358362 38:0.032423208 39:0.010221465 40:0.0017064846 41:0 42:0.0034129693 43:0.06132879 44:0.011945392 45:0.017064846 46:0.09199319 47:0.015358362 48:0.02559727 49:0.025553663 50:0.008532423 51:0.0051194539 
32768 1:0.10623946 2:0.12331081 3:0.052453469 4:0.055743243 5:0.030456853 6:0.018612521 7:0.07432432 8:0.033840948 9:0.092905405 10:0.016920474 11:0.013536379 12:0.030456853 13:0.0321489 14:0.074324324 15:0.015228426 16:0.018612521 17:0.021996616 18:0.018612521 19:0.023648649 20:0.011844332 21:0.0033840948 22:0.015202703 23:0 24:0.047297297 25:0.0033840948 26:0.011844332 27:0.021996616 28:0.09459459 29:0.011844332 30:0.023688663 31:0.037162162 32:0.0016920474 33:0.048986486 34:0.010152284 35:0.04222973 36:0.010152284 37:0.005076142 38:0.010152284 39:0.055743243 40:0.010152284 41:0.0050761421 42:0.016920474 43:0.04222973 44:0.020304569 45:0.013536379 46:0.08445946 47:0.033840948 48:0.016920474 49:0.087837838 50:0.021996616 51:0.028764805 
32768 1:0.096045198 2:0.14528302 3:0.056710775 4:0.077358491 5:0.037807183 6:0.011342155 7:0.07735849 8:0.030245747 9:0.064150943 10:0.017013232 11:0.003780718 12:0.020793951 13:0.02268431 14:0.077358491 15:0.035916824 16:0.007561437 17:0.024574669 18:0.009451796 19:0.054716981 20:0.018903592 21:0.018903592 22:0.01509434 23:0 24:0.037735849 25:0.011342155 26:0.001890359 27:0.020793951 28:0.09433962 29:0.018903592 30:0.017013232 31:0.037735849 32:0 33:0.073584906 34:0.018903592 35:0.045283019 36:0.0075614367 37:0.003780718 38:0.02268431 39:0.047169811 40:0.015122873 41:0.0037807183 42:0.015122873 43:0.01509434 44:0.001890359 45:0.007561437 46:0.08490566 47:0.026465028 48:0.011342155 49:0.052830189 50:0.020793951 51:0.015122873 
26948.05540249898 1:0.19117647 2:0.11056511 3:0.039408867 4:0.036855037 5:0.009852217 6:0.019704433 7:0.07125307 8:0.027093596 9:0.061425061 10:0.012315271 11:0.022167488 12:0.012315271 13:0.014778325 14:0.066339066 15:0.02955665 16:0.004926108 17:0.022167488 18:0.009852217 19:0.071253071 20:0.02955665 21:0.017241379 22:0.0073710074 23:0.0024630542 24:0.090909091 25:0.0073891626 26:0.019704433 27:0.041871921 28:0.07371007 29:0.007389163 30:0.014778325 31:0.061425061 32:0.0024630542 33:0.066339066 34:0.014778325 35:0.036855037 36:0.0024630542 37:0.004926108 38:0.022167488 39:0.031941032 40:0.0098522167 41:0.0024630542 42:0.0098522167 43:0.066339066 44:0.012315271 45:0.024630542 46:0.09090909 47:0.019704433 48:0.009852217 49:0.056511057 50:0.014778325 51:0.012315271 
10376.89742954404 1:0.013867488 2:0.054012346 3:0.010819165 4:0.072530864 5:0.029366306 6:0.018547141 7:0.06635802 8:0.018547141 9:0.057098765 10:0.0061823802 11:0.01236476 12:0.023183926 13:0.01545595 14:0.091049383 15:0.01236476 16:0.034003091 17:0.026275116 18:0.018547141 19:0.080246914 20:0.029366306 21:0.029366306 22:0.016975309 23:0.0015455951 24:0.074074074 25:0.010819165 26:0.020092736 27:0.026275116 28:0.06790123 29:0.00927357 30:0.018547141 31:0.055555556 32:0.0030911901 33:0.064814815 34:0.01236476 35:0.052469136 36:0.01236476 37:0.00618238 38:0.020092736 39:0.037037037 40:0.0092735703 41:0.0077279753 42:0.013910356 43:0.054012346 44:0.018547141 45:0.013910355 46:0.09259259 47:0.026275116 48:0.018547141 49:0.063271605 50:0.023183926 51:0.017001546 
32768 1:1 2:0.11834319 3:0.041543027 4:0.053254438 5:0.020771513 6:0.014836795 7:0.10946746 8:0.047477745 9:0.056213018 10:0.0089020772 11:0.014836795 12:0.026706231 13:0.0059347181 14:0.094674556 15:0.029673591 16:0.017804154 17:0.026706231 18:0.020771513 19:0.044378698 20:0.017804154 21:0.0029673591 22:0.0059171598 23:0 24:0.068047337 25:0.0059347181 26:0.023738872 27:0.020771513 28:0.0887574 29:0.011869436 30:0.020771513 31:0.050295858 32:0.0059347181 33:0.044378698 34:0.0029673591 35:0.047337278 36:0.0029673591 37:0.014836795 38:0.011869436 39:0.035502959 40:0.011869436 41:0.0089020772 42:0.0089020772 43:0.065088757 44:0.03264095 45:0.023738872 46:0.07100592 47:0.014836795 48:0.017804154 49:0.047337278 50:0.011869436 51:0.0059347181 
32768 1:0.29665072 2:0.096153846 3:0.038647343 4:0.043269231 5:0.009661836 6:0.009661836 7:0.07211538 8:0.014492754 9:0.028846154 10:0.0048309179 11:0.009661836 12:0.004830918 13:0.0096618357 14:0.0625 15:0.024154589 16:0.014492754 17:0.019323671 18:0.004830918 19:0.086538462 20:0.024154589 21:0.024154589 22:0.048076923 23:0.0048309179 24:0.057692308 25:0 26:0.024154589 27:0.024154589 28:0.07692308 29:0.019323671 30:0.019323672 31:0.072115385 32:0.0096618357 33:0.091346154 34:0.019323672 35:0.0625 36:0 37:0.009661836 38:0.038647343 39:0.009615385 40:0 41:0 42:0.0048309179 43:0.052884615 44:0.014492754 45:0.009661836 46:0.08653846 47:0.019323671 48:0.014492754 49:0.052884615 50:0.019323671 51:0.019323672 
32330.07142305421 1:0.22176591 2:0.069958848 3:0.022680412 4:0.043209877 5:0.010309278 6:0.010309278 7:0.09053498 8:0.016494845 9:0.026748971 10:0.0041237113 11:0.008247423 12:0.012371134 13:0.0020618557 14:0.067901235 15:0.012371134 16:0.020618557 17:0.026804124 18:0.008247423 19:0.10493827 20:0.026804124 21:0.030927835 22:0.022633745 23:0.0020618557 24:0.082304527 25:0.0082474227 26:0.016494845 27:0.037113402 28:0.0781893 29:0.006185567 30:0.032989691 31:0.080246914 32:0.0020618557 33:0.08436214 34:0.012371134 35:0.051440329 36:0.0020618557 37:0.01443299 38:0.030927835 39:0.016460905 40:0.0041237113 41:0.0041237113 42:0.0082474227 43:0.049382716 44:0.008247423 45:0.016494845 46:0.09465021 47:0.026804124 48:0.018556701 49:0.037037037 50:0.01443299 51:0.010309278 
