svm_type c_svc
kernel_type rbf
gamma 0.5
nr_class 2
total_sv 3204
rho -112.532
label 1 -1
probA -2.92427
probB 0.478885
nr_sv 1633 1571
SV
32768 1:0.15972222 2:0.07424594 3:0.011627907 4:0.041763341 5:0.013953488 6:0.0069767442 7:0.011627907 8:0.12296984 9:0.051162791 10:0.051044084 11:0.0046511628 12:0.011627907 13:0.023255814 14:0.011627907 15:0.07424594 16:0.025581395 17:0.006976744 18:0.030232558 19:0.011627907 20:0.05800464 21:0.020930233 22:0.011600928 23:0 24:0.053364269 25:0.0046511628 26:0.01627907 27:0.01627907 28:0.11600928 29:0.01627907 30:0.046511628 31:0.034802784 32:0 33:0.078886311 34:0.018604651 35:0.060324826 36:0.01627907 37:0.01627907 38:0.027842227 39:0.0023255814 40:0.011627907 41:0.0093023256 42:0.062645012 43:0.020930233 44:0.0046511628 45:0.023255814 46:0.07656613 47:0.027906977 48:0.013953488 49:0.055684455 50:0.018604651 51:0.011627907 
32768 1:0.038095238 2:0.073131955 3:0.022292994 4:0.055643879 5:0.02388535 6:0 7:0.017515924 8:0.08585056 9:0.022292994 10:0.082670906 11:0.027070064 12:0.01433121 13:0.02866242 14:0.012738853 15:0.089030207 16:0.020700637 17:0.01433121 18:0.03343949 19:0.020700637 20:0.054054054 21:0.015923567 22:0.0095389507 23:0 24:0.052464229 25:0.0095541401 26:0.01433121 27:0.012738854 28:0.06518283 29:0.015923567 30:0.017515924 31:0.047694754 32:0.0063694268 33:0.06518283 34:0.015923567 35:0.057233704 36:0.00477707 37:0.015923567 38:0.07154213 39:0.015923567 40:0.01433121 41:0.027070064 42:0.047694754 43:0.02388535 44:0.0015923567 45:0.00955414 46:0.07313196 47:0.01910828 48:0.015923567 49:0.069952305 50:0.015923567 51:0.025477707 
32768 1:0.10273973 2:0.077186964 3:0.030927835 4:0.065180103 5:0.027491409 6:0.0034364261 7:0.015463918 8:0.06174957 9:0.02233677 10:0.061749571 11:0.0051546392 12:0.015463918 13:0.025773196 14:0.015463918 15:0.084048027 16:0.024054983 17:0.012027491 18:0.025773196 19:0.02233677 20:0.087478559 21:0.02233677 22:0.015437393 23:0.0034364261 24:0.092624357 25:0.013745705 26:0.029209622 27:0.027491409 28:0.07204117 29:0.02233677 30:0.013745705 31:0.048027444 32:0 33:0.041166381 34:0.010309278 35:0.039451115 36:0.008591065 37:0.012027491 38:0.032590051 39:0.010309278 40:0.0068728522 41:0.0068728522 42:0.080617496 43:0.017182131 44:0.0051546392 45:0.02233677 46:0.0806175 47:0.025773196 48:0.010309278 49:0.060034305 50:0.015463918 51:0.012027491 
16686.72955765276 1:0.008097166 2:0.07972973 3:0.01759134 4:0.059459459 5:0.02435724 6:0.0054127199 7:0.01217862 8:0.11891892 9:0.044654939 10:0.035135135 11:0.0054127199 12:0.00270636 13:0.0202977 14:0.0067658999 15:0.085135135 16:0.025710419 17:0.02300406 18:0.032476319 19:0.00405954 20:0.068918919 21:0.01217862 22:0.014864865 23:0.0027063599 24:0.066216216 25:0.0040595399 26:0.01623816 27:0.02435724 28:0.10540541 29:0.01082544 30:0.046008119 31:0.052702703 32:0.0027063599 33:0.090540541 34:0.01759134 35:0.039189189 36:0.01759134 37:0.01082544 38:0.024324324 39:0.0094722598 40:0.0094722598 41:0.0040595399 42:0.054054054 43:0.01894452 44:0.00135318 45:0.01623816 46:0.06216216 47:0.02165088 48:0.00811908 49:0.043243243 50:0.0067659 51:0.0094722598 
8763.885698581118 1:0.22580645 2:0.090517241 3:0.030237581 4:0.049568966 5:0.012958963 6:0 7:0.021598272 8:0.09482759 9:0.03887689 10:0.075431034 11:0.01511879 12:0.021598272 13:0.025917927 14:0.012958963 15:0.07112069 16:0.017278618 17:0.01511879 18:0.025917927 19:0.012958963 20:0.047413793 21:0.0064794816 22:0.0086206897 23:0.0021598272 24:0.088362069 25:0.012958963 26:0.021598272 27:0.021598272 28:0.08836207 29:0.012958963 30:0.019438445 31:0.047413793 32:0 33:0.034482759 34:0.0043196544 35:0.038793103 36:0.010799136 37:0.006479482 38:0.0625 39:0.010799136 40:0.017278618 41:0.01511879 42:0.068965517 43:0.030237581 44:0.0064794816 45:0.023758099 46:0.07112069 47:0.025917927 48:0.008639309 49:0.0625 50:0.017278618 51:0.010799136 
32768 1:0.014981273 2:0.1075 3:0.035043805 4:0.05375 5:0.027534418 6:0.0012515645 7:0.008760951 8:0.07375 9:0.028785982 10:0.1025 11:0.026282854 12:0.010012516 13:0.027534418 14:0.038798498 15:0.09125 16:0.020025031 17:0.013767209 18:0.027534418 19:0.030037547 20:0.03625 21:0.0087609512 22:0.00625 23:0.0012515645 24:0.04125 25:0.0037546934 26:0.006257822 27:0.018773467 28:0.07125 29:0.01126408 30:0.010012516 31:0.04375 32:0 33:0.03875 34:0.0037546934 35:0.0525 36:0.007509387 37:0.021276596 38:0.0675 39:0.0075093867 40:0.013767209 41:0.023779725 42:0.04125 43:0.026282854 44:0.0025031289 45:0.008760951 46:0.0875 47:0.023779725 48:0.020025031 49:0.085 50:0.020025031 51:0.021276596 
32768 1:0.071111111 2:0.060830861 3:0.022288261 4:0.044510386 5:0.013372957 6:0.0044576523 7:0.014858841 8:0.07715134 9:0.017830609 10:0.037091988 11:0 12:0.008915305 13:0.020802377 14:0.0074294205 15:0.057863501 16:0.013372957 17:0.007429421 18:0.029717682 19:0.007429421 20:0.065281899 21:0.020802377 22:0.043026706 23:0.017830609 24:0.078635015 25:0.0089153046 26:0.022288262 27:0.02526003 28:0.08456973 29:0.019316493 30:0.023774146 31:0.077151335 32:0.011887073 33:0.10682493 34:0.034175334 35:0.045994065 36:0.011887073 37:0.022288262 38:0.016320475 39:0.0044576523 40:0.0059435364 41:0.0044576523 42:0.057863501 43:0.005943536 44:0.019316493 45:0.019316493 46:0.08753709 47:0.022288262 48:0.010401189 49:0.059347181 50:0.019316493 51:0.019316493 
17264.44478396794 1:0.15566038 2:0.063829787 3:0.011848341 4:0.063829787 5:0.021327014 6:0.0023696682 7:0.016587678 8:0.06146572 9:0.011848341 10:0.054373522 11:0.0071090047 12:0.011848341 13:0.018957346 14:0.016587678 15:0.080378251 16:0.018957346 17:0.014218009 18:0.026066351 19:0.021327014 20:0.070921986 21:0.028436019 22:0.016548463 23:0.0047393365 24:0.080378251 25:0.0071090047 26:0.018957346 27:0.026066351 28:0.06382979 29:0.018957346 30:0.014218009 31:0.054373522 32:0.0071090047 33:0.10165485 34:0.042654028 35:0.037825059 36:0.004739336 37:0.014218009 38:0.035460993 39:0.011848341 40:0.0047393365 41:0.009478673 42:0.059101655 43:0.026066351 44:0.0047393365 45:0.016587678 46:0.08037825 47:0.018957346 48:0.018957346 49:0.075650118 50:0.021327014 51:0.021327014 
32768 1:0.9046729 2:0.065543071 3:0.009380863 4:0.084269663 5:0.031894934 6:0.020637899 7:0.015009381 8:0.09363296 9:0.031894934 10:0.04494382 11:0.0075046904 12:0.011257036 13:0.013133208 14:0.013133208 15:0.088014981 16:0.024390244 17:0.024390244 18:0.018761726 19:0.020637899 20:0.063670412 21:0.018761726 22:0.039325843 23:0.011257036 24:0.063670412 25:0.015009381 26:0.016885553 27:0.013133208 28:0.09925094 29:0.024390244 30:0.035647279 31:0.050561798 32:0.0037523452 33:0.063670412 34:0.011257036 35:0.041198502 36:0.009380863 37:0.018761726 38:0.033707865 39:0.018761726 40:0.0037523452 41:0.0037523452 42:0.056179775 43:0.020637899 44:0.0075046904 45:0.018761726 46:0.05992509 47:0.026266417 48:0.011257036 49:0.052434457 50:0.015009381 51:0.016885554 
32768 1:0.020408163 2:0.11945393 3:0.047945205 4:0.058020478 5:0.017123288 6:0 7:0.023972603 8:0.06825939 9:0.017123288 10:0.071672355 11:0.017123288 12:0.01369863 13:0.023972603 14:0.017123288 15:0.064846416 16:0.023972603 17:0.010273973 18:0.006849315 19:0.023972603 20:0.051194539 21:0.0034246575 22:0.0068259386 23:0 24:0.078498294 25:0.017123288 26:0.006849315 27:0.037671233 28:0.07508532 29:0.01369863 30:0.017123288 31:0.040955631 32:0 33:0.04778157 34:0.010273973 35:0.04778157 36:0.003424658 37:0.017123288 38:0.061433447 39:0.010273973 40:0.010273973 41:0.02739726 42:0.051194539 43:0.010273973 44:0.0034246575 45:0.010273973 46:0.0887372 47:0.020547945 48:0.02739726 49:0.068259386 50:0.006849315 51:0.020547945 
32768 1:0.011262318 2:0.057276995 3:0.014560827 4:0.054929577 5:0.016439643 6:0.01268201 7:0.010803194 8:0.07887324 9:0.023954908 10:0.051173709 11:0.0079849695 12:0.013151714 13:0.018788163 14:0.011272898 15:0.083098592 16:0.01268201 17:0.022545796 18:0.030061062 19:0.017848755 20:0.057746479 21:0.010803194 22:0.045539906 23:0.014091123 24:0.058685446 25:0.0084546736 26:0.010803194 27:0.03100047 28:0.07464789 29:0.013151714 30:0.022076092 31:0.084976526 32:0.015500235 33:0.088262911 34:0.021606388 35:0.055868545 36:0.014560827 37:0.023485204 38:0.026760563 39:0.0098637858 40:0.0032879286 41:0.0079849695 42:0.047887324 43:0.015500235 44:0.0089243776 45:0.010803194 46:0.09107981 47:0.014091123 48:0.022545796 49:0.043192488 50:0.017848755 51:0.01033349 
797.0178938806769 1:0.017605634 2:0.090481786 3:0.025882353 4:0.063454759 5:0.022352941 6:0.011764706 7:0.017647059 8:0.09165687 9:0.035294118 10:0.047003525 11:0.0082352941 12:0.012941176 13:0.018823529 14:0.0058823529 15:0.079905993 16:0.016470588 17:0.022352941 18:0.029411765 19:0.011764706 20:0.041128085 21:0.0082352941 22:0.034077556 23:0.010588235 24:0.059929495 25:0.010588235 26:0.009411765 27:0.031764706 28:0.09518214 29:0.022352941 30:0.021176471 31:0.071680376 32:0.0094117647 33:0.078730905 34:0.022352941 35:0.055229142 36:0.011764706 37:0.025882353 38:0.025851939 39:0.0058823529 40:0.0035294118 41:0.0082352941 42:0.038777908 43:0.016470588 44:0.0035294118 45:0.009411765 46:0.09635723 47:0.021176471 48:0.018823529 49:0.030552291 50:0.02 51:0.0047058824 
32768 1:0.24165708 2:0.054147465 3:0.012687428 4:0.05875576 5:0.021914648 6:0.0069204152 7:0.016147636 8:0.08410138 9:0.026528258 10:0.040322581 11:0.0034602076 12:0.011534025 13:0.018454441 14:0.0069204152 15:0.088709677 16:0.017301038 17:0.026528258 18:0.035755479 19:0.00922722 20:0.072580645 21:0.014994233 22:0.024193548 23:0.0080738178 24:0.089861751 25:0.016147636 26:0.023068051 27:0.036908881 28:0.0702765 29:0.012687428 30:0.018454441 31:0.082949309 32:0.0069204152 33:0.06797235 34:0.017301038 35:0.049539171 36:0.012687428 37:0.021914648 38:0.025345622 39:0.010380623 40:0.0046136101 41:0.0034602076 42:0.061059908 43:0.016147636 44:0.0057670127 45:0.017301038 46:0.09331797 47:0.018454441 48:0.019607843 49:0.036866359 50:0.016147636 51:0.0069204152 
32768 1:0.10315186 2:0.047345768 3:0.007183908 4:0.06312769 5:0.017241379 6:0.007183908 7:0.011494253 8:0.10329986 9:0.040229885 10:0.040172166 11:0 12:0.011494253 13:0.022988506 14:0.0057471264 15:0.094691535 16:0.021551724 17:0.021551724 18:0.038793103 19:0.012931034 20:0.10043042 21:0.031609195 22:0.028694405 23:0.014367816 24:0.068866571 25:0.010057471 26:0.015804598 27:0.030172414 28:0.0989957 29:0.027298851 30:0.033045977 31:0.076040172 32:0.0028735632 33:0.06456241 34:0.015804598 35:0.031563845 36:0.005747126 37:0.015804598 38:0.012912482 39:0.0014367816 40:0.0086206897 41:0.0028735632 42:0.051649928 43:0.015804598 44:0.0028735632 45:0.017241379 46:0.07460545 47:0.024425287 48:0.005747126 49:0.043041607 50:0.005747126 51:0.015804598 
32768 1:0.28907168 2:0.050588235 3:0.0094228504 4:0.063529412 5:0.020023557 6:0.0047114252 7:0.011778563 8:0.09882353 9:0.037691402 10:0.041176471 11:0.0011778563 12:0.008244994 13:0.024734982 14:0.0070671378 15:0.095294118 16:0.02237927 17:0.023557126 18:0.037691402 19:0.011778563 20:0.1 21:0.029446408 22:0.027058823 23:0.011778563 24:0.069411765 25:0.011778563 26:0.015312132 27:0.028268551 28:0.09176471 29:0.023557126 30:0.028268551 31:0.08 32:0.0035335689 33:0.062352941 34:0.012956419 35:0.029411765 36:0.003533569 37:0.014134276 38:0.017647059 39:0.0035335689 40:0.0082449941 41:0.0035335689 42:0.047058824 43:0.014134276 44:0.0023557126 45:0.014134276 46:0.07529412 47:0.02237927 48:0.005889282 49:0.050588235 50:0.008244994 51:0.020023557 
32768 1:0.029658922 2:0.045004946 3:0.0108857 4:0.049455984 5:0.019297378 6:0.0049480455 7:0.009401286 8:0.08011869 9:0.01632855 10:0.025222552 11:0.0024740228 12:0.007916873 13:0.009401286 14:0.0054428501 15:0.082591494 16:0.017812964 17:0.019792182 18:0.03364671 19:0.011380505 20:0.11473788 21:0.036615537 22:0.034619189 23:0.0094012865 24:0.072700297 25:0.0054428501 26:0.020286987 27:0.038594755 28:0.05835806 29:0.012864918 30:0.025729837 31:0.088526212 32:0.0094012865 33:0.13006924 34:0.047996042 35:0.046983185 36:0.012864918 37:0.024740228 38:0.013353116 39:0.0064324592 40:0.0019792182 41:0.0014844137 42:0.052423343 43:0.011875309 44:0.0069272637 45:0.011380505 46:0.07912957 47:0.008906482 48:0.017812964 49:0.026706231 50:0.006432459 51:0.0069272637 
32768 1:0.22429907 2:0.02247191 3:0 4:0.041198502 5:0.011257036 6:0.0056285178 7:0.009380863 8:0.08052434 9:0.011257036 10:0.018726592 11:0 12:0.005628518 13:0.009380863 14:0.0037523452 15:0.06741573 16:0.009380863 17:0.018761726 18:0.031894934 19:0.00750469 20:0.12734082 21:0.045028143 22:0.06741573 23:0.016885554 24:0.071161049 25:0.0056285178 26:0.030018762 27:0.028142589 28:0.06367041 29:0.013133208 30:0.030018762 31:0.11423221 32:0.028142589 33:0.1329588 34:0.045028143 35:0.043071161 36:0.00750469 37:0.028142589 38:0.009363296 39:0.0037523452 40:0.0056285178 41:0 42:0.050561798 43:0.013133208 44:0.0037523452 45:0.011257036 46:0.07303371 47:0.015009381 48:0.013133208 49:0.016853933 50:0.00750469 51:0.0018761726 
32768 1:0.22241379 2:0.074265976 3:0.020761246 4:0.06044905 5:0.01384083 6:0.010380623 7:0.015570934 8:0.07426598 9:0.019031142 10:0.037996546 11:0.0017301038 12:0.01384083 13:0.017301038 14:0.0051903114 15:0.081174439 16:0.019031142 17:0.020761246 18:0.029411765 19:0.012110727 20:0.10708117 21:0.027681661 22:0.031088083 23:0.015570934 24:0.086355786 25:0.0051903114 26:0.022491349 27:0.032871972 28:0.06217617 29:0.01384083 30:0.019031142 31:0.070811744 32:0.0034602076 33:0.055267703 34:0.0069204152 35:0.044905009 36:0.017301038 37:0.010380623 38:0.029360967 39:0.012110727 40:0.0017301038 41:0.0051903114 42:0.067357513 43:0.019031142 44:0.0034602076 45:0.015570934 46:0.07253886 47:0.025951557 48:0.010380623 49:0.044905009 50:0.012110727 51:0.0069204152 
32768 1:0.094444444 2:0.033395176 3:0.0037174721 4:0.063079777 5:0.014869888 6:0.013011152 7:0.00929368 8:0.0890538 9:0.011152416 10:0.020408163 11:0.0018587361 12:0.007434944 13:0.005576208 14:0.0055762082 15:0.10018553 16:0.013011152 17:0.026022305 18:0.048327138 19:0.013011152 20:0.1187384 21:0.031598513 22:0.033395176 23:0.0092936803 24:0.085343228 25:0.0092936803 26:0.031598513 27:0.035315985 28:0.05380334 29:0.011152416 30:0.022304833 31:0.096474954 32:0.0018587361 33:0.096474954 34:0.031598513 35:0.040816327 36:0.014869888 37:0.018587361 38:0.016697588 39:0.0092936803 40:0.0055762082 41:0 42:0.06122449 43:0.011152416 44:0.0037174721 45:0.018587361 46:0.06864564 47:0.016728625 48:0.007434944 49:0.022263451 50:0.00929368 51:0.0037174721 
32768 1:0 2:0.18761384 3:0.072992701 4:0.025500911 5:0.009124088 6:0.0054744526 7:0.003649635 8:0.16939891 9:0.094890511 10:0.029143898 11:0 12:0.010948905 13:0 14:0.018248175 15:0.049180328 16:0.010948905 17:0.012773723 18:0.020072993 19:0.005474453 20:0.032786885 21:0.0072992701 22:0.010928962 23:0.003649635 24:0.045537341 25:0.0018248175 26:0.016423358 27:0.016423358 28:0.15846995 29:0.005474453 30:0.04379562 31:0.034608379 32:0 33:0.074681239 34:0.0091240876 35:0.025500911 36:0.005474453 37:0.005474453 38:0.014571949 39:0.0018248175 40:0.0018248175 41:0.0054744526 42:0.045537341 43:0.010948905 44:0.003649635 45:0.020072993 46:0.04007286 47:0.005474453 48:0.00729927 49:0.056466302 50:0.018248175 51:0.018248175 
32768 1:0.67955801 2:0.074792244 3:0.019444444 4:0.074792244 5:0.022222222 6:0 7:0.030555556 8:0.06648199 9:0.019444444 10:0.058171745 11:0.013888889 12:0.025 13:0.011111111 14:0.0083333333 15:0.077562327 16:0.027777778 17:0.013888889 18:0.022222222 19:0.013888889 20:0.083102493 21:0.011111111 22:0.011080332 23:0.0027777778 24:0.099722992 25:0.019444444 26:0.013888889 27:0.036111111 28:0.06371191 29:0.013888889 30:0.013888889 31:0.052631579 32:0.0055555556 33:0.033240997 34:0.0083333333 35:0.041551247 36:0.005555556 37:0.016666667 38:0.060941828 39:0.027777778 40:0.011111111 41:0.011111111 42:0.060941828 43:0.005555556 44:0.0027777778 45:0.027777778 46:0.08033241 47:0.033333333 48:0.019444444 49:0.060941828 50:0.016666667 51:0.013888889 
32768 1:0.9762419 2:0.04978355 3:0.010845987 4:0.056277056 5:0.028199566 6:0 7:0.013015184 8:0.08874459 9:0.019522777 10:0.047619048 11:0.021691974 12:0.006507592 13:0.00867679 14:0.010845987 15:0.097402597 16:0.021691974 17:0.017353579 18:0.043383948 19:0.015184382 20:0.12337662 21:0.056399132 22:0.023809524 23:0.0043383948 24:0.071428571 25:0.010845987 26:0.028199566 27:0.023861171 28:0.04761905 29:0.010845987 30:0.021691974 31:0.077922078 32:0.0043383948 33:0.093073593 34:0.030368764 35:0.034632035 36:0.006507592 37:0.017353579 38:0.047619048 39:0.017353579 40:0.0065075922 41:0.017353579 42:0.056277056 43:0.015184382 44:0.0065075922 45:0.015184382 46:0.04978355 47:0.004338395 48:0.006507592 49:0.034632035 50:0 51:0.010845987 
32768 1:0.14447592 2:0.056818182 3:0.014245014 4:0.085227273 5:0.031339031 6:0.011396011 7:0.01994302 8:0.05397727 9:0.017094017 10:0.053977273 11:0.0085470085 12:0.025641026 13:0.01994302 14:0 15:0.10795454 16:0.017094017 17:0.045584046 18:0.01994302 19:0.025641026 20:0.12215909 21:0.037037037 22:0.028409091 23:0.0085470085 24:0.068181818 25:0.014245014 26:0.014245014 27:0.034188034 28:0.05397727 29:0.017094017 30:0.011396011 31:0.059659091 32:0 33:0.068181818 34:0.017094017 35:0.045454545 36:0.011396011 37:0.017094017 38:0.03125 39:0.014245014 40:0.0028490028 41:0.0056980057 42:0.059659091 43:0.014245014 44:0.0028490028 45:0.014245014 46:0.07670455 47:0.017094017 48:0.008547009 49:0.028409091 50:0.005698006 51:0.014245014 
21823.04955374227 1:0.17027027 2:0.067750678 3:0.024456522 4:0.073170732 5:0.013586957 6:0.0081521739 7:0.019021739 8:0.06233062 9:0.02173913 10:0.059620596 11:0.013586957 12:0.013586957 13:0.019021739 14:0.013586957 15:0.078590786 16:0.010869565 17:0.019021739 18:0.019021739 19:0.029891304 20:0.086720867 21:0.029891304 22:0.013550135 23:0.0054347826 24:0.078590786 25:0.010869565 26:0.019021739 27:0.029891304 28:0.07588076 29:0.016304348 30:0.013586957 31:0.040650407 32:0 33:0.059620596 34:0.010869565 35:0.040650407 36:0.010869565 37:0.013586957 38:0.043360434 39:0.016304348 40:0.010869565 41:0.0081521739 42:0.056910569 43:0.02173913 44:0 45:0.016304348 46:0.08130081 47:0.024456522 48:0.013586957 49:0.081300813 50:0.019021739 51:0.038043478 
32768 1:0.019271949 2:0.0472103 3:0.0021505376 4:0.049356223 5:0.012903226 6:0.0064516129 7:0.012903226 8:0.10729614 9:0.027956989 10:0.049356223 11:0.0086021505 12:0.012903226 13:0.019354839 14:0.0086021505 15:0.090128755 16:0.017204301 17:0.015053763 18:0.04516129 19:0.012903226 20:0.079399142 21:0.027956989 22:0.02360515 23:0.0021505376 24:0.055793991 25:0.0086021505 26:0.017204301 27:0.021505376 28:0.08798283 29:0.023655914 30:0.027956989 31:0.057939914 32:0 33:0.08583691 34:0.017204301 35:0.060085837 36:0.012903226 37:0.023655914 38:0.027896996 39:0.0043010753 40:0.010752688 41:0.0086021505 42:0.06223176 43:0.023655914 44:0.0064516129 45:0.008602151 46:0.0751073 47:0.025806452 48:0.010752688 49:0.040772532 50:0.010752688 51:0.0086021505 
32768 1:0.91666667 2:0.065116279 3:0.0093457944 4:0.055813953 5:0.023364486 6:0.014018692 7:0.009345794 8:0.10697674 9:0.03271028 10:0.046511628 11:0.0093457944 12:0.009345794 13:0.028037383 14:0 15:0.097674419 16:0.023364486 17:0.042056075 18:0.028037383 19:0.004672897 20:0.079069767 21:0.018691589 22:0.018604651 23:0 24:0.069767442 25:0 26:0.028037383 27:0.03271028 28:0.09767442 29:0.004672897 30:0.03271028 31:0.060465116 32:0 33:0.065116279 34:0.0046728972 35:0.041860465 36:0.018691589 37:0.009345794 38:0.013953488 39:0.0046728972 40:0 41:0.0046728972 42:0.069767442 43:0.018691589 44:0.0046728972 45:0.028037383 46:0.0744186 47:0.028037383 48:0.018691589 49:0.037209302 50:0.004672897 51:0.018691589 
4955.755806671209 1:0.054249548 2:0.085144928 3:0.032667877 4:0.039855072 5:0.016333938 6:0.001814882 7:0.012704174 8:0.10688406 9:0.025408348 10:0.038043478 11:0.0036297641 12:0.012704174 13:0.016333938 14:0.0054446461 15:0.094202899 16:0.025408348 17:0.01814882 18:0.038112523 19:0.012704174 20:0.09057971 21:0.027223231 22:0.012681159 23:0.001814882 24:0.070652174 25:0.014519056 26:0.014519056 27:0.034482759 28:0.06702899 29:0.005444646 30:0.027223231 31:0.081521739 32:0.0054446461 33:0.086956522 34:0.027223231 35:0.045289855 36:0.01814882 37:0.01814882 38:0.023550725 39:0.0072595281 40:0.0072595281 41:0.0072595281 42:0.05615942 43:0.025408348 44:0 45:0.010889292 46:0.07427536 47:0.014519056 48:0.010889292 49:0.027173913 50:0.005444646 51:0.0090744102 
32768 1:0.85100287 2:0.020114943 3:0.0057636888 4:0.048850575 5:0.008645533 6:0.0028818444 7:0.011527378 8:0.05172414 9:0.011527378 10:0.025862069 11:0.0028818444 12:0 13:0.020172911 14:0.0028818444 15:0.074712644 16:0 17:0.025936599 18:0.028818444 19:0.017291066 20:0.13505747 21:0.04610951 22:0.037356322 23:0.0057636888 24:0.094827586 25:0.0028818444 26:0.031700288 27:0.051873199 28:0.04310345 29:0.017291066 30:0.014409222 31:0.086206897 32:0.011527377 33:0.1091954 34:0.043227666 35:0.063218391 36:0.025936599 37:0.025936599 38:0.011494253 39:0.0028818444 40:0.0028818444 41:0 42:0.068965517 43:0.011527378 44:0.011527377 45:0.014409222 46:0.10344828 47:0.014409222 48:0.023054755 49:0.025862069 50:0.005763689 51:0.0057636888 
32768 1:0.6380597 2:0.037383178 3:0.0074906367 4:0.048598131 5:0.016853933 6:0.0037453184 7:0.009363296 8:0.08411215 9:0.013108614 10:0.028037383 11:0 12:0.007490637 13:0.013108614 14:0.0074906367 15:0.069158879 16:0.009363296 17:0.011235955 18:0.041198502 19:0.007490637 20:0.087850467 21:0.020599251 22:0.037383178 23:0.0018726592 24:0.080373832 25:0.0093632959 26:0.018726592 27:0.031835206 28:0.0728972 29:0.013108614 30:0.029962547 31:0.072897196 32:0.0093632959 33:0.097196262 34:0.020599251 35:0.061682243 36:0.02247191 37:0.02247191 38:0.018691589 39:0.0093632959 40:0.0018726592 41:0.0018726592 42:0.065420561 43:0.014981273 44:0.0093632959 45:0.02247191 46:0.08598131 47:0.018726592 48:0.018726592 49:0.052336449 50:0.018726592 51:0.0093632959 
32768 1:0.13530327 2:0.046728972 3:0.012480499 4:0.052959502 5:0.010920437 6:0.0062402496 7:0.009360374 8:0.08255452 9:0.026521061 10:0.034267913 11:0.0031201248 12:0.009360374 13:0.014040562 14:0.007800312 15:0.062305296 16:0.014040562 17:0.010920437 18:0.029641186 19:0.007800312 20:0.12149533 21:0.043681747 22:0.029595016 23:0.007800312 24:0.088785047 25:0.012480499 26:0.018720749 27:0.042121685 28:0.08099688 29:0.020280811 30:0.032761311 31:0.07788162 32:0.012480499 33:0.093457944 34:0.032761311 35:0.034267913 36:0.010920437 37:0.014040562 38:0.026479751 39:0.0093603744 40:0.0062402496 41:0.0062402496 42:0.049844237 43:0.009360374 44:0.0015600624 45:0.012480499 46:0.08099688 47:0.018720749 48:0.007800312 49:0.037383178 50:0.010920437 51:0.0093603744 
32768 1:0.030991735 2:0.062111801 3:0.01659751 4:0.043478261 5:0.012448133 6:0.012448133 7:0.012448133 8:0.08074534 9:0.020746888 10:0.064182195 11:0.0062240664 12:0.018672199 13:0.018672199 14:0.020746888 15:0.064182195 16:0.014522822 17:0.010373444 18:0.024896266 19:0.014522822 20:0.057971014 21:0.01659751 22:0.031055901 23:0.0041493776 24:0.060041408 25:0.0020746888 26:0.018672199 27:0.024896266 28:0.0952381 29:0.012448133 30:0.031120332 31:0.053830228 32:0.010373444 33:0.093167702 34:0.024896266 35:0.051759834 36:0.008298755 37:0.018672199 38:0.031055901 39:0.0062240664 40:0.0082987552 41:0.010373444 42:0.057971014 43:0.024896266 44:0.0041493776 45:0.010373444 46:0.08695652 47:0.020746888 48:0.020746888 49:0.066252588 50:0.024896266 51:0.01659751 
11063.61487518769 1:0.042959427 2:0.14832536 3:0.06235012 4:0.055023923 5:0.021582734 6:0.0071942446 7:0.014388489 8:0.10047847 9:0.050359712 10:0.076555024 11:0.023980815 12:0.016786571 13:0.021582734 14:0.014388489 15:0.06937799 16:0.016786571 17:0.014388489 18:0.023980815 19:0.011990408 20:0.04784689 21:0.011990408 22:0.019138756 23:0 24:0.040669856 25:0.011990408 26:0.002398082 27:0.021582734 28:0.1076555 29:0.019184652 30:0.019184652 31:0.045454545 32:0.0071942446 33:0.057416268 34:0.0095923261 35:0.035885167 36:0.004796163 37:0.014388489 38:0.057416268 39:0.0071942446 40:0.0095923261 41:0.019184652 42:0.028708134 43:0.021582734 44:0.0023980815 45:0.002398082 46:0.06937799 47:0.021582734 48:0.014388489 49:0.040669856 50:0.009592326 51:0.014388489 
32768 1:0.06122449 2:0.11363636 3:0.043280182 4:0.05 5:0.020501139 6:0.0045558087 7:0.011389522 8:0.07727273 9:0.031890661 10:0.061363636 11:0.0045558087 12:0.022779043 13:0.022779043 14:0.011389522 15:0.079545455 16:0.027334852 17:0.018223235 18:0.025056948 19:0.009111617 20:0.059090909 21:0.0091116173 22:0.025 23:0.0022779043 24:0.075 25:0.006833713 26:0.025056948 27:0.025056948 28:0.075 29:0.011389522 30:0.01594533 31:0.059090909 32:0.0045558087 33:0.040909091 34:0.006833713 35:0.045454545 36:0.009111617 37:0.01594533 38:0.036363636 39:0.006833713 40:0.0022779043 41:0.0091116173 42:0.070454545 43:0.01594533 44:0.0091116173 45:0.027334852 46:0.07727273 47:0.022779043 48:0.020501139 49:0.054545455 50:0.011389522 51:0.013667426 
32768 1:0.31990521 2:0.040380048 3:0.0071428571 4:0.045130641 5:0.026190476 6:0.0023809524 7:0.007142857 8:0.06175772 9:0.011904762 10:0.059382423 11:0.0071428571 12:0.023809524 13:0.011904762 14:0.016666667 15:0.09263658 16:0.014285714 17:0.023809524 18:0.028571429 19:0.026190476 20:0.080760095 21:0.014285714 22:0.026128266 23:0.0071428571 24:0.09263658 25:0.0071428571 26:0.016666667 27:0.021428571 28:0.04038005 29:0.007142857 30:0.0071428571 31:0.071258907 32:0.0023809524 33:0.049881235 34:0.011904762 35:0.045130641 36:0.016666667 37:0.011904762 38:0.033254157 39:0.011904762 40:0.011904762 41:0.0071428571 42:0.095011876 43:0.030952381 44:0.0095238095 45:0.030952381 46:0.06888361 47:0.00952381 48:0.014285714 49:0.097387173 50:0.023809524 51:0.023809524 
32768 1:0.11029412 2:0.019631902 3:0.0036855037 4:0.044171779 5:0.00982801 6:0.0061425061 7:0.013513514 8:0.07484663 9:0.015970516 10:0.018404908 11:0.0036855037 12:0.006142506 13:0.002457002 14:0.0061425061 15:0.05398773 16:0.003685504 17:0.012285012 18:0.033169533 19:0.004914005 20:0.096932515 21:0.022113022 22:0.052760736 23:0.014742015 24:0.087116564 25:0.0061425061 26:0.017199017 27:0.047911548 28:0.06380368 29:0.015970516 30:0.02948403 31:0.098159509 32:0.014742015 33:0.13374233 34:0.051597052 35:0.057668712 36:0.017199017 37:0.028255528 38:0.019631902 39:0.012285012 40:0.0024570025 41:0.0024570025 42:0.051533742 43:0.00982801 44:0.0085995086 45:0.015970516 46:0.09202454 47:0.012285012 48:0.01965602 49:0.035582822 50:0.013513514 51:0.0049140049 
32768 1:1 2:0.004615385 3:0 4:0.023076923 5:0.004622496 6:0.0077041602 7:0.004622496 8:0.04307692 9:0.001540832 10:0.013846154 11:0 12:0.006163328 13:0.006163328 14:0.001540832 15:0.044615385 16:0.001540832 17:0.016949153 18:0.021571649 19:0.004622496 20:0.14 21:0.058551618 22:0.11384615 23:0.05238829 24:0.070769231 25:0.0030816641 26:0.020030817 27:0.032357473 28:0.02769231 29:0.004622496 30:0.010785824 31:0.14307692 32:0.043143297 33:0.10307692 34:0.035439137 35:0.064615385 36:0.016949153 37:0.023112481 38:0.007692308 39:0 40:0.0077041602 41:0 42:0.063076923 43:0.004622496 44:0.024653313 45:0.010785824 46:0.07846154 47:0.00770416 48:0.016949153 49:0.058461538 50:0.016949153 51:0.020030817 
6983.354056871529 1:0.0079365079 2:0.047682119 3:0.0053050398 4:0.056953642 5:0.023872679 6:0.0053050398 7:0.01193634 8:0.09006623 9:0.022546419 10:0.025165563 11:0.0013262599 12:0.00795756 13:0.0066313 14:0.0092838196 15:0.094039735 16:0.019893899 17:0.021220159 18:0.045092838 19:0.00795756 20:0.10198675 21:0.039787798 22:0.021192053 23:0.0026525199 24:0.082119205 25:0.0079575597 26:0.019893899 27:0.030503979 28:0.05165563 29:0.014588859 30:0.01193634 31:0.062251656 32:0.0079575597 33:0.083443709 34:0.030503979 35:0.060927152 36:0.021220159 37:0.015915119 38:0.026490066 39:0.0092838196 40:0.0079575597 41:0.0066312997 42:0.078145695 43:0.022546419 44:0.0053050398 45:0.023872679 46:0.06357616 47:0.00928382 48:0.013262599 49:0.054304636 50:0.01061008 51:0.0092838196 
2520.117478238346 1:0.042613636 2:0.021337127 3:0.0028490028 4:0.046941679 5:0.00997151 6:0 7:0.025641026 8:0.03556188 9:0.008547009 10:0.036984353 11:0.00997151 12:0.005698006 13:0.015669516 14:0.0056980057 15:0.059743954 16:0.007122507 17:0.027065527 18:0.015669516 19:0.00997151 20:0.10810811 21:0.038461539 22:0.012802276 23:0.0071225071 24:0.14793741 25:0.00997151 26:0.02991453 27:0.078347578 28:0.02702703 29:0.004273504 30:0.0085470085 31:0.089615932 32:0.0071225071 33:0.075391181 34:0.018518519 35:0.049786629 36:0.015669516 37:0.017094017 38:0.032716927 39:0.00997151 40:0.0042735043 41:0.012820513 42:0.082503556 43:0.00997151 44:0.0028490028 45:0.035612536 46:0.11948791 47:0.008547009 48:0.015669516 49:0.054054054 50:0.008547009 51:0.011396011 
32768 1:0.053846154 2:0.10282776 3:0.036082474 4:0.059125964 5:0.030927835 6:0.0051546392 7:0.020618557 8:0.06683805 9:0.030927835 10:0.082262211 11:0.020618557 12:0.018041237 13:0.025773196 14:0.018041237 15:0.071979434 16:0.018041237 17:0.012886598 18:0.015463918 19:0.025773196 20:0.030848329 21:0.0025773196 22:0.01285347 23:0.0051546392 24:0.084832905 25:0.023195876 26:0.025773196 27:0.015463918 28:0.06169666 29:0.00257732 30:0.012886598 31:0.043701799 32:0 33:0.033419023 34:0 35:0.048843188 36:0.007731959 37:0.012886598 38:0.077120823 39:0.028350515 40:0.012886598 41:0.018041237 42:0.066838046 43:0.015463918 44:0.0025773196 45:0.030927835 46:0.07197943 47:0.018041237 48:0.018041237 49:0.084832905 50:0.018041237 51:0.028350515 
32768 1:0.52356021 2:0.04020979 3:0.0087565674 4:0.038461538 5:0.00525394 6:0.0017513135 7:0.015761821 8:0.07167832 9:0.014010508 10:0.02972028 11:0 12:0.007005254 13:0.017513135 14:0.0052539405 15:0.068181818 16:0.012259194 17:0.015761821 18:0.033274956 19:0.007005254 20:0.052447552 21:0.0070052539 22:0.033216783 23:0.0087565674 24:0.096153846 25:0.0017513135 26:0.019264448 27:0.043782837 28:0.06293706 29:0.012259194 30:0.019264448 31:0.06993007 32:0.014010508 33:0.073426573 34:0.010507881 35:0.08041958 36:0.022767075 37:0.028021016 38:0.01048951 39:0.0017513135 40:0.0017513135 41:0.0017513135 42:0.087412587 43:0.031523643 44:0.0070052539 45:0.03502627 46:0.10839161 47:0.017513135 48:0.026269702 49:0.076923077 50:0.019264448 51:0.015761821 
8205.800189599144 1:0.58450704 2:0.037647059 3:0.0094339623 4:0.047058824 5:0.016509434 6:0 7:0.014150943 8:0.07058824 9:0.016509434 10:0.051764706 11:0.0047169811 12:0.014150943 13:0.014150943 14:0.018867925 15:0.087058824 16:0.007075472 17:0.021226415 18:0.025943396 19:0.033018868 20:0.08 21:0.021226415 22:0.032941177 23:0.011792453 24:0.068235294 25:0.011792453 26:0.021226415 27:0.016509434 28:0.04941176 29:0.011792453 30:0.014150943 31:0.072941176 32:0.0047169811 33:0.10352941 34:0.033018868 35:0.054117647 36:0.018867925 37:0.016509434 38:0.030588235 39:0.011792453 40:0.0023584906 41:0.0094339623 42:0.068235294 43:0.016509434 44:0.014150943 45:0.016509434 46:0.07529412 47:0.004716981 48:0.021226415 49:0.070588235 50:0.028301887 51:0.016509434 
32768 1:0.57329843 2:0.083989501 3:0.026315789 4:0.049868766 5:0.026315789 6:0 7:0.015789474 8:0.06036745 9:0.018421053 10:0.083989501 11:0.010526316 12:0.021052632 13:0.026315789 14:0.026315789 15:0.089238845 16:0.015789474 17:0.010526316 18:0.021052632 19:0.042105263 20:0.044619423 21:0.0052631579 22:0.015748031 23:0.0078947368 24:0.070866142 25:0.015789474 26:0.015789474 27:0.021052632 28:0.05774278 29:0.007894737 30:0.015789474 31:0.05511811 32:0.0052631579 33:0.028871391 34:0.0078947368 35:0.047244094 36:0.015789474 37:0.002631579 38:0.049868766 39:0.015789474 40:0.0052631579 41:0.013157895 42:0.070866142 43:0.021052632 44:0.0052631579 45:0.021052632 46:0.0839895 47:0.023684211 48:0.031578947 49:0.10761155 50:0.034210526 51:0.042105263 
32768 1:0.13157895 2:0.14096916 3:0.066371681 4:0.079295154 5:0.048672566 6:0.0044247788 7:0.013274336 8:0.08810573 9:0.03539823 10:0.070484581 11:0.0088495575 12:0.017699115 13:0.022123894 14:0.022123894 15:0.10132159 16:0.022123894 17:0.017699115 18:0.044247788 19:0.017699115 20:0.026431718 21:0 22:0.013215859 23:0.0044247788 24:0.052863436 25:0.013274336 26:0 27:0.017699115 28:0.09251101 29:0.030973451 30:0.013274336 31:0.052863436 32:0 33:0.030837004 34:0 35:0.022026432 36:0 37:0.004424779 38:0.04845815 39:0.013274336 40:0.0088495575 41:0.013274336 42:0.035242291 43:0.013274336 44:0.0044247788 45:0.017699115 46:0.0660793 47:0.03539823 48:0.004424779 49:0.079295154 50:0.022123894 51:0.026548673 
32768 1:0.025316456 2:0.086680761 3:0.016949152 4:0.050739958 5:0.029661017 6:0.0042372881 7:0.006355932 8:0.09302326 9:0.055084746 10:0.10359408 11:0.014830509 12:0.031779661 13:0.038135593 14:0.019067797 15:0.084566596 16:0.016949153 17:0.008474576 18:0.025423729 19:0.033898305 20:0.042283298 21:0.0063559322 22:0.0042283298 23:0 24:0.050739958 25:0.0084745763 26:0.012711864 27:0.019067797 28:0.1141649 29:0.006355932 30:0.033898305 31:0.033826638 32:0 33:0.052854123 34:0.0084745763 35:0.042283298 36:0.006355932 37:0.014830508 38:0.046511628 39:0.021186441 40:0.0021186441 41:0.01059322 42:0.054968288 43:0.033898305 44:0 45:0.006355932 46:0.09302326 47:0.038135593 48:0.021186441 49:0.046511628 50:0.021186441 51:0.0084745763 
32768 1:0.012658228 2:0.086680761 3:0.025423729 4:0.046511628 5:0.016949153 6:0.0042372881 7:0.012711864 8:0.08245243 9:0.023305085 10:0.057082452 11:0 12:0.01059322 13:0.025423729 14:0.021186441 15:0.080338266 16:0.016949153 17:0.016949153 18:0.031779661 19:0.014830508 20:0.048625793 21:0.0084745763 22:0.012684989 23:0.0021186441 24:0.078224101 25:0.0084745763 26:0.021186441 27:0.025423729 28:0.07188161 29:0.004237288 30:0.023305085 31:0.052854123 32:0 33:0.067653277 34:0.016949152 35:0.054968288 36:0.01059322 37:0.023305085 38:0.035940803 39:0.0084745763 40:0.0042372881 41:0.012711864 42:0.069767442 43:0.016949153 44:0.0084745763 45:0.029661017 46:0.0845666 47:0.019067797 48:0.023305085 49:0.069767442 50:0.01059322 51:0.016949152 
32768 1:0.050847458 2:0.14563107 3:0.055961071 4:0.04368932 5:0.02189781 6:0.00486618 7:0.00973236 8:0.10194175 9:0.055961071 10:0.089805825 11:0.02189781 12:0.01216545 13:0.02189781 14:0.03406326 15:0.075242718 16:0.02676399 17:0.00973236 18:0.0243309 19:0.01459854 20:0.014563107 21:0 22:0.0072815534 23:0 24:0.033980583 25:0.0097323601 26:0.00486618 27:0.00729927 28:0.10436893 29:0.01216545 30:0.02189781 31:0.026699029 32:0 33:0.063106796 34:0.01946472 35:0.04368932 36:0.00243309 37:0.01703163 38:0.055825243 39:0.0097323601 40:0.01459854 41:0.01216545 42:0.046116505 43:0.03406326 44:0 45:0.00973236 46:0.06553398 47:0.0243309 48:0.01459854 49:0.082524272 50:0.01946472 51:0.02189781 
10204.8677170943 1:0.015345269 2:0.13846154 3:0.048843188 4:0.071794872 5:0.025706941 6:0.0025706941 7:0.025706941 8:0.07692308 9:0.038560411 10:0.092307692 11:0.033419023 12:0.010282776 13:0.025706941 14:0.023136247 15:0.087179487 16:0.030848329 17:0.020565553 18:0.020565553 19:0.015424165 20:0.028205128 21:0.0025706941 22:0.0025641026 23:0 24:0.053846154 25:0.010282776 26:0.007712082 27:0.017994859 28:0.08717949 29:0.015424165 30:0.020565553 31:0.023076923 32:0 33:0.023076923 34:0.0025706941 35:0.041025641 36:0.010282776 37:0.01285347 38:0.069230769 39:0.017994859 40:0.0077120823 41:0.020565553 42:0.048717949 43:0.025706941 44:0 45:0.017994859 46:0.06923077 47:0.025706941 48:0.017994859 49:0.087179487 50:0.01285347 51:0.035989717 
14538.54924942428 1:0.32038835 2:0.092682927 3:0.029411765 4:0.068292683 5:0.014705882 6:0.0098039216 7:0.024509804 8:0.07317073 9:0.029411765 10:0.063414634 11:0.0098039216 12:0.019607843 13:0.019607843 14:0.014705882 15:0.058536585 16:0.014705882 17:0.009803922 18:0.029411765 19:0.004901961 20:0.053658537 21:0.0098039216 22:0.0097560976 23:0 24:0.11219512 25:0.029411765 26:0.024509804 27:0.049019608 28:0.08292683 29:0.024509804 30:0.0098039216 31:0.058536585 32:0 33:0.034146341 34:0 35:0.029268293 36:0.004901961 37:0.004901961 38:0.068292683 39:0.014705882 40:0.0098039216 41:0.019607843 42:0.053658537 43:0.019607843 44:0 45:0.024509804 46:0.08292683 47:0.029411765 48:0.004901961 49:0.058536585 50:0.009803922 51:0.024509804 
32768 1:0.018897638 2:0.042586751 3:0.011058452 4:0.056782334 5:0.023696682 6:0.0078988942 7:0.012638231 8:0.0977918 9:0.031595577 10:0.045741325 11:0.0031595577 12:0.015797788 13:0.025276461 14:0.0015797788 15:0.082018927 16:0.006319115 17:0.022116904 18:0.044233807 19:0.009478673 20:0.066246057 21:0.015797788 22:0.033123028 23:0.0063191153 24:0.070977918 25:0.0047393365 26:0.017377567 27:0.036334913 28:0.10094637 29:0.015797788 30:0.04107425 31:0.075709779 32:0.009478673 33:0.10410095 34:0.030015798 35:0.039432177 36:0.009478673 37:0.018957346 38:0.015772871 39:0.009478673 40:0 41:0.0015797788 42:0.05362776 43:0.014218009 44:0.0047393365 45:0.012638231 46:0.08675079 47:0.028436019 48:0.007898894 49:0.028391167 50:0.006319115 51:0.0063191153 
32768 1:0.033088235 2:0.090239411 3:0.022140221 4:0.055248619 5:0.020295203 6:0.0073800738 7:0.011070111 8:0.09576427 9:0.046125461 10:0.055248619 11:0.0073800738 12:0.018450185 13:0.016605166 14:0.012915129 15:0.071823204 16:0.014760148 17:0.007380074 18:0.033210332 19:0.016605166 20:0.069981584 21:0.025830258 22:0.023941068 23:0.0036900369 24:0.069981584 25:0.0092250923 26:0.025830258 27:0.020295203 28:0.09576427 29:0.016605166 30:0.016605166 31:0.042357274 32:0.0018450185 33:0.055248619 34:0.011070111 35:0.046040516 36:0.009225092 37:0.016605166 38:0.040515654 39:0.0092250923 40:0.0092250923 41:0.0055350554 42:0.068139963 43:0.022140221 44:0.0073800738 45:0.018450185 46:0.0626151 47:0.02398524 48:0.014760148 49:0.057090239 50:0.009225092 51:0.016605166 
32768 1:0.15337423 2:0.047131148 3:0.010266941 4:0.034836066 5:0.012320329 6:0.0041067762 7:0.008213552 8:0.10245902 9:0.018480493 10:0.028688525 11:0.0041067762 12:0.014373717 13:0.006160164 14:0.0041067762 15:0.071721311 16:0.016427105 17:0.01026694 18:0.036960986 19:0.008213552 20:0.081967213 21:0.022587269 22:0.06352459 23:0.0082135524 24:0.067622951 25:0.0020533881 26:0.016427105 27:0.041067762 28:0.07786885 29:0.018480493 30:0.032854209 31:0.11680328 32:0.030800821 33:0.098360656 34:0.012320328 35:0.040983607 36:0.006160164 37:0.016427105 38:0.016393443 39:0.0020533881 40:0.0061601643 41:0.0041067762 42:0.051229508 43:0.014373717 44:0.010266941 45:0.008213552 46:0.06967213 47:0.022587269 48:0.014373717 49:0.030737705 50:0.006160164 51:0.0082135524 
32768 1:0.022091311 2:0.075221239 3:0.022156573 4:0.064896755 5:0.019202363 6:0.0044313146 7:0.016248154 8:0.07079646 9:0.022156573 10:0.063421829 11:0.013293944 12:0.010339734 13:0.020679468 14:0.019202363 15:0.078171091 16:0.014771049 17:0.020679468 18:0.020679468 19:0.022156573 20:0.057522124 21:0.0088626292 22:0.019174041 23:0 24:0.072271386 25:0.010339734 26:0.023633678 27:0.017725258 28:0.07817109 29:0.016248154 30:0.025110783 31:0.042772861 32:0.0029542097 33:0.045722714 34:0.0044313146 35:0.04719764 36:0.010339734 37:0.016248154 38:0.042772861 39:0.0073855244 40:0.0029542097 41:0.019202363 42:0.060471976 43:0.020679468 44:0.0029542097 45:0.023633678 46:0.07964602 47:0.028064993 48:0.008862629 49:0.10176991 50:0.025110783 51:0.047267356 
32768 1:0.043923865 2:0.10703812 3:0.032305433 4:0.057184751 5:0.020558003 6:0.0014684288 7:0.02349486 8:0.09090909 9:0.033773862 10:0.060117302 11:0.0029368576 12:0.016152717 13:0.019089574 14:0.022026432 15:0.086510264 16:0.02349486 17:0.020558003 18:0.027900147 19:0.014684288 20:0.049853372 21:0.01174743 22:0.0058651026 23:0.0014684288 24:0.070381232 25:0.014684288 26:0.01174743 27:0.029368576 28:0.08064516 29:0.008810573 30:0.014684288 31:0.042521994 32:0.0014684288 33:0.051319648 34:0.01174743 35:0.051319648 36:0.014684288 37:0.014684288 38:0.042521994 39:0.013215859 40:0.013215859 41:0.0088105727 42:0.061583578 43:0.026431718 44:0.0014684288 45:0.020558003 46:0.07771261 47:0.02349486 48:0.017621145 49:0.064516129 50:0.014684288 51:0.019089574 
32768 1:0.014553015 2:0.074895978 3:0.017349063 4:0.052704577 5:0.022206801 6:0.0006939625 7:0.018043026 8:0.09500693 9:0.030534351 10:0.073509015 11:0.017349063 12:0.020818876 13:0.018043026 14:0.017349063 15:0.093619972 16:0.018043026 17:0.014573213 18:0.034004164 19:0.027064539 20:0.052011096 21:0.010409438 22:0.010402219 23:0 24:0.071428571 25:0.0097154754 26:0.020124913 27:0.020818876 28:0.07975035 29:0.012491325 30:0.021512838 31:0.046463245 32:0.0013879251 33:0.04368932 34:0.0041637752 35:0.049237171 36:0.010409438 37:0.018043026 38:0.047850208 39:0.012491326 40:0.0097154754 41:0.011797363 42:0.07628294 43:0.032616239 44:0.0055517002 45:0.019430951 46:0.07004161 47:0.023594726 48:0.016655101 49:0.063106796 50:0.013185288 51:0.016655101 
32768 1:0.04375 2:0.087682672 3:0.027196653 4:0.045929019 5:0.025104603 6:0.0020920502 7:0.008368201 8:0.12317328 9:0.050209205 10:0.066805846 11:0.014644351 12:0.014644351 13:0.018828452 14:0.018828452 15:0.087682672 16:0.020920502 17:0.006276151 18:0.035564854 19:0.025104603 20:0.041753653 21:0.0062761506 22:0.016701461 23:0 24:0.041753653 25:0.0020920502 26:0.008368201 27:0.014644351 28:0.10229645 29:0.018828452 30:0.033472803 31:0.041753653 32:0.0020920502 33:0.041753653 34:0.0062761506 35:0.068893528 36:0.010460251 37:0.027196653 38:0.043841336 39:0.012552301 40:0.012552301 41:0.0062761506 42:0.058455115 43:0.027196653 44:0.0062761506 45:0.010460251 46:0.07306889 47:0.027196653 48:0.016736402 49:0.058455115 50:0.012552301 51:0.012552301 
32768 1:0.013574661 2:0.097505669 3:0.031818182 4:0.056689342 5:0.025 6:0.0045454545 7:0.006818182 8:0.09750567 9:0.029545455 10:0.038548753 11:0.0068181818 12:0.011363636 13:0.013636364 14:0.0068181818 15:0.077097506 16:0.018181818 17:0.013636364 18:0.038636364 19:0.006818182 20:0.072562358 21:0.015909091 22:0.031746032 23:0.0068181818 24:0.065759637 25:0.011363636 26:0.011363636 27:0.022727273 28:0.07482993 29:0.020454545 30:0.011363636 31:0.06122449 32:0.0090909091 33:0.0430839 34:0.0022727273 35:0.06122449 36:0.013636364 37:0.011363636 38:0.0430839 39:0.011363636 40:0.0045454545 41:0.0045454545 42:0.054421769 43:0.011363636 44:0.0090909091 45:0.015909091 46:0.06802721 47:0.020454545 48:0.018181818 49:0.056689342 50:0.020454545 51:0.011363636 
32768 1:0.32624113 2:0.075829384 3:0.023752969 4:0.078199052 5:0.028503563 6:0.0023752969 7:0.023752969 8:0.06161137 9:0.028503563 10:0.061611374 11:0.019002375 12:0.014251781 13:0.007125891 14:0.021377672 15:0.082938389 16:0.019002375 17:0.023752969 18:0.023752969 19:0.016627078 20:0.059241706 21:0.016627078 22:0.016587678 23:0.0023752969 24:0.097156398 25:0.014251781 26:0.026128266 27:0.035629454 28:0.07819905 29:0.016627078 30:0.016627078 31:0.042654028 32:0 33:0.066350711 34:0.014251781 35:0.030805687 36:0.011876485 37:0.009501188 38:0.042654028 39:0.019002375 40:0 41:0.016627078 42:0.073459716 43:0.03087886 44:0.0071258907 45:0.026128266 46:0.07345972 47:0.026128266 48:0.007125891 49:0.059241706 50:0.021377672 51:0.011876485 
32768 1:0.89377289 2:0.13970588 3:0.070110701 4:0.073529412 5:0.044280443 6:0 7:0.014760148 8:0.06985294 9:0.044280443 10:0.069852941 11:0.011070111 12:0.007380074 13:0.033210332 14:0.018450185 15:0.077205882 16:0.022140221 17:0.018450185 18:0.018450185 19:0.018450185 20:0.044117647 21:0.0073800738 22:0.0073529412 23:0 24:0.066176471 25:0.0036900369 26:0.007380074 27:0.025830258 28:0.09191176 29:0.025830258 30:0.018450185 31:0.044117647 32:0 33:0.044117647 34:0.0073800738 35:0.033088235 36:0.003690037 37:0.007380074 38:0.047794118 39:0.011070111 40:0.0073800738 41:0.014760148 42:0.029411765 43:0.014760148 44:0.0036900369 45:0.003690037 46:0.09191176 47:0.014760148 48:0.033210332 49:0.069852941 50:0.025830258 51:0.022140221 
32768 1:0.080152672 2:0.077707006 3:0.022959184 4:0.061146497 5:0.025510204 6:0.006377551 7:0.012755102 8:0.07261146 9:0.022959184 10:0.066242038 11:0.014030612 12:0.012755102 13:0.031887755 14:0.0076530612 15:0.099363057 16:0.025510204 17:0.021683673 18:0.028061224 19:0.024234694 20:0.066242038 21:0.012755102 22:0.026751592 23:0.0089285714 24:0.064968153 25:0.012755102 26:0.020408163 27:0.021683673 28:0.0611465 29:0.012755102 30:0.014030612 31:0.068789809 32:0.006377551 33:0.068789809 34:0.015306122 35:0.044585987 36:0.008928571 37:0.011479592 38:0.040764331 39:0.010204082 40:0.0076530612 41:0.014030612 42:0.061146497 43:0.022959184 44:0.0051020408 45:0.010204082 46:0.07515924 47:0.015306122 48:0.019132653 49:0.044585987 50:0.010204082 51:0.011479592 
32768 1:0.091172214 2:0.08115942 3:0.021770682 4:0.053623188 5:0.020319303 6:0.013062409 7:0.010159652 8:0.07536232 9:0.02467344 10:0.066666667 11:0.0087082729 12:0.018867925 13:0.021770682 14:0.017416546 15:0.092753623 16:0.023222061 17:0.020319303 18:0.029027576 19:0.020319303 20:0.056521739 21:0.010159652 22:0.031884058 23:0.0058055152 24:0.05942029 25:0.010159652 26:0.017416546 27:0.021770682 28:0.07101449 29:0.013062409 30:0.013062409 31:0.063768116 32:0.0058055152 33:0.079710145 34:0.017416546 35:0.037681159 36:0.010159652 37:0.010159652 38:0.031884058 39:0.0058055152 40:0.0029027576 41:0.01161103 42:0.066666667 43:0.026124819 44:0.0058055152 45:0.008708273 46:0.06521739 47:0.015965167 48:0.010159652 49:0.066666667 50:0.01161103 51:0.023222061 
32768 1:0.27464789 2:0.029982363 3:0.0088339223 4:0.074074074 5:0.028268551 6:0.017667845 7:0.012367491 8:0.0952381 9:0.017667845 10:0.019400353 11:0 12:0.001766784 13:0.010600707 14:0.0070671378 15:0.1005291 16:0.010600707 17:0.037102473 18:0.042402827 19:0.010600707 20:0.088183422 21:0.03180212 22:0.052910053 23:0.01590106 24:0.063492063 25:0.010600707 26:0.019434629 27:0.024734982 28:0.07583774 29:0.024734982 30:0.037102473 31:0.1005291 32:0.01590106 33:0.10758377 34:0.033568905 35:0.045855379 36:0.012367491 37:0.026501767 38:0.012345679 39:0.0088339223 40:0 41:0.0017667845 42:0.042328042 43:0.01590106 44:0.0053003534 45:0.008833922 46:0.07231041 47:0.012367491 48:0.019434629 49:0.019400353 50:0.010600707 51:0 
1617.427287885688 1:0.079245283 2:0.13257576 3:0.049429658 4:0.053030303 5:0.02661597 6:0.0076045627 7:0.007604563 8:0.13257576 9:0.079847909 10:0.079545455 11:0.015209126 12:0.015209125 13:0.038022814 14:0.011406844 15:0.075757576 16:0.011406844 17:0.019011407 18:0.022813688 19:0.022813688 20:0.022727273 21:0.0038022814 22:0.011363636 23:0.0038022814 24:0.03030303 25:0.0076045627 26:0 27:0.015209125 28:0.14015152 29:0.011406844 30:0.053231939 31:0.03030303 32:0 33:0.045454545 34:0.0076045627 35:0.045454545 36:0 37:0.015209125 38:0.053030303 39:0.0076045627 40:0.015209126 41:0.0076045627 42:0.03030303 43:0.011406844 44:0.0038022814 45:0.011406844 46:0.0719697 47:0.02661597 48:0.030418251 49:0.045454545 50:0.003802281 51:0.015209126 
32768 1:1 2:0.15959821 3:0.070391062 4:0.047991071 5:0.023463687 6:0.0011173184 7:0.016759777 8:0.07924107 9:0.037988827 10:0.1015625 11:0.026815643 12:0.015642458 13:0.043575419 14:0.015642458 15:0.075892857 16:0.020111732 17:0.008938547 18:0.022346369 19:0.024581006 20:0.021205357 21:0.0022346369 22:0.0055803571 23:0.0011173184 24:0.051339286 25:0.0078212291 26:0.007821229 27:0.018994413 28:0.09151786 29:0.01452514 30:0.015642458 31:0.034598214 32:0.0011173184 33:0.030133929 34:0.0033519553 35:0.044642857 36:0.010055866 37:0.012290503 38:0.061383929 39:0.0055865922 40:0.0033519553 41:0.017877095 42:0.050223214 43:0.024581006 44:0.0022346369 45:0.01452514 46:0.0859375 47:0.042458101 48:0.015642458 49:0.059151786 50:0.011173184 51:0.01452514 
1621.052086514462 1:0.26638478 2:0.078389831 3:0.021231422 4:0.044491525 5:0.012738854 6:0.008492569 7:0.010615711 8:0.125 9:0.048832272 10:0.023305085 11:0.0021231423 12:0.006369427 13:0.008492569 14:0.0063694268 15:0.055084746 16:0.014861996 17:0.008492569 18:0.025477707 19:0.006369427 20:0.055084746 21:0.010615711 22:0.033898305 23:0.008492569 24:0.093220339 25:0.014861996 26:0.027600849 27:0.036093418 28:0.11016949 29:0.012738854 30:0.048832272 31:0.06779661 32:0.012738853 33:0.074152542 34:0.012738853 35:0.040254237 36:0.014861996 37:0.008492569 38:0.025423729 39:0.008492569 40:0.012738853 41:0 42:0.069915254 43:0.016985138 44:0.010615711 45:0.029723992 46:0.06144068 47:0.010615711 48:0.012738854 49:0.042372881 50:0.008492569 51:0.010615711 
32768 1:0.13204225 2:0.079365079 3:0.026501767 4:0.063492063 5:0.022968198 6:0.0070671378 7:0.007067138 8:0.07760141 9:0.024734982 10:0.045855379 11:0.0035335689 12:0.017667845 13:0.01590106 14:0.0088339223 15:0.08994709 16:0.040636042 17:0.014134276 18:0.024734982 19:0.010600707 20:0.095238095 21:0.024734982 22:0.019400353 23:0.0017667845 24:0.081128748 25:0.0017667845 26:0.022968198 27:0.037102473 28:0.07760141 29:0.017667845 30:0.028268551 31:0.054673721 32:0.0035335689 33:0.0670194 34:0.017667845 35:0.035273369 36:0.01590106 37:0.008833922 38:0.019400353 39:0.0088339223 40:0.0053003534 41:0.0035335689 42:0.072310406 43:0.033568905 44:0.0035335689 45:0.014134276 46:0.07054674 47:0.022968198 48:0.010600707 49:0.051146384 50:0.008833922 51:0.014134276 
32768 1:0.45714286 2:0.10828026 3:0.047923323 4:0.057324841 5:0.028753994 6:0.012779553 7:0.003194888 8:0.12101911 9:0.047923323 10:0.050955414 11:0.0063897764 12:0.009584665 13:0.015974441 14:0.019169329 15:0.10191083 16:0.019169329 17:0.012779553 18:0.054313099 19:0.015974441 20:0.038216561 21:0.0031948882 22:0.01910828 23:0 24:0.054140127 25:0.0063897764 26:0.009584665 27:0.012779553 28:0.08598726 29:0.015974441 30:0.025559105 31:0.066878981 32:0.0031948882 33:0.041401274 34:0.0063897764 35:0.038216561 36:0 37:0.006389776 38:0.044585987 39:0.015974441 40:0.0063897764 41:0.019169329 42:0.050955414 43:0.022364217 44:0.0031948882 45:0.012779553 46:0.0477707 47:0.015974441 48:0.012779553 49:0.073248408 50:0.012779553 51:0.012779553 
31885.04896835436 1:0.091304348 2:0.12636166 3:0.054585153 4:0.041394336 5:0.010917031 6:0.0043668122 7:0.008733624 8:0.06753813 9:0.024017467 10:0.095860566 11:0.024017467 12:0.015283843 13:0.024017467 14:0.032751092 15:0.063180828 16:0.015283843 17:0.013100437 18:0.017467249 19:0.017467249 20:0.021786492 21:0 22:0.0065359477 23:0 24:0.05664488 25:0.0065502183 26:0.004366812 27:0.024017467 28:0.07843137 29:0.004366812 30:0.021834061 31:0.039215686 32:0 33:0.045751634 34:0.010917031 35:0.054466231 36:0.008733624 37:0.015283843 38:0.065359477 39:0.0065502183 40:0.0065502183 41:0.026200873 42:0.045751634 43:0.017467249 44:0.0021834061 45:0.026200873 46:0.09803922 47:0.034934498 48:0.017467249 49:0.093681917 50:0.034934498 51:0.017467249 
32768 1:0.40127389 2:0.074468085 3:0.02771855 4:0.055319149 5:0.021321962 6:0.0021321962 7:0.012793177 8:0.08297872 9:0.02771855 10:0.063829787 11:0.0085287846 12:0.012793177 13:0.023454158 14:0.019189766 15:0.091489362 16:0.021321962 17:0.014925373 18:0.029850746 19:0.025586354 20:0.055319149 21:0.0085287846 22:0.014893617 23:0 24:0.055319149 25:0.0063965885 26:0.012793177 27:0.02771855 28:0.07446809 29:0.012793177 30:0.025586354 31:0.04893617 32:0.0042643923 33:0.070212766 34:0.014925373 35:0.061702128 36:0.008528785 37:0.023454158 38:0.036170213 39:0.019189766 40:0.0063965885 41:0.0085287846 42:0.057446809 43:0.023454158 44:0.0063965885 45:0.014925373 46:0.08723404 47:0.017057569 48:0.025586354 49:0.070212766 50:0.012793177 51:0.021321962 
32768 1:0.18476499 2:0.019480519 3:0.0081300813 4:0.040584416 5:0.008130081 6:0.0048780488 7:0.01300813 8:0.09415584 9:0.011382114 10:0.01461039 11:0 12:0.008130081 13:0.001626016 14:0.0048780488 15:0.073051948 16:0.003252033 17:0.01300813 18:0.045528455 19:0.011382114 20:0.12987013 21:0.048780488 22:0.040584416 23:0.0081300813 24:0.090909091 25:0.0032520325 26:0.030894309 27:0.047154472 28:0.06980519 29:0.019512195 30:0.040650406 31:0.10876623 32:0.011382114 33:0.11038961 34:0.034146342 35:0.038961039 36:0.009756098 37:0.027642276 38:0.00487013 39:0.0048780488 40:0 41:0 42:0.055194805 43:0.017886179 44:0.0081300813 45:0.004878049 46:0.08441558 47:0.016260163 48:0.01300813 49:0.024350649 50:0.008130081 51:0.0081300813 
32768 1:0.039735099 2:0.089700997 3:0.03 4:0.066445183 5:0.02 6:0 7:0.023333333 8:0.09302326 9:0.04 10:0.063122924 11:0.0066666667 12:0.023333333 13:0.016666667 14:0.016666667 15:0.096345515 16:0.016666667 17:0.023333333 18:0.04 19:0.016666667 20:0.063122924 21:0.0066666667 22:0.019933555 23:0.0033333333 24:0.063122924 25:0.013333333 26:0.016666667 27:0.023333333 28:0.0730897 29:0.016666667 30:0.023333333 31:0.046511628 32:0 33:0.043189369 34:0.0066666667 35:0.049833887 36:0.013333333 37:0.006666667 38:0.056478405 39:0.0066666667 40:0.0066666667 41:0.02 42:0.066445183 43:0.026666667 44:0.0066666667 45:0.013333333 46:0.05647841 47:0.016666667 48:0.02 49:0.053156146 50:0.01 51:0.013333333 
32768 1:0.053811659 2:0.12808989 3:0.045045045 4:0.053932584 5:0.018018018 6:0.0022522523 7:0.024774775 8:0.08089888 9:0.027027027 10:0.076404494 11:0.013513513 12:0.011261261 13:0.018018018 14:0.033783784 15:0.06741573 16:0.013513514 17:0.009009009 18:0.022522523 19:0.022522523 20:0.035955056 21:0.0045045045 22:0.006741573 23:0.0022522523 24:0.069662921 25:0.015765766 26:0.009009009 27:0.022522523 28:0.08988764 29:0.006756757 30:0.015765766 31:0.033707865 32:0 33:0.035955056 34:0.0045045045 35:0.042696629 36:0.013513514 37:0.011261261 38:0.056179775 39:0.0067567568 40:0.011261261 41:0.02027027 42:0.056179775 43:0.02027027 44:0 45:0.022522523 46:0.07640449 47:0.036036036 48:0.015765766 49:0.08988764 50:0.024774775 51:0.02027027 
32768 1:0.026785714 2:0.14847943 3:0.050179212 4:0.048300537 5:0.019713262 6:0.0017921147 7:0.023297491 8:0.08407871 9:0.039426523 10:0.1019678 11:0.02688172 12:0.019713262 13:0.02688172 14:0.028673835 15:0.064400716 16:0.032258065 17:0.003584229 18:0.019713262 19:0.008960573 20:0.030411449 21:0.0035842294 22:0.0053667263 23:0 24:0.046511628 25:0.010752688 26:0.007168459 27:0.017921147 28:0.09302326 29:0.012544803 30:0.014336918 31:0.025044723 32:0 33:0.037567084 34:0.0035842294 35:0.04293381 36:0.005376344 37:0.007168459 38:0.076923077 39:0.010752688 40:0.0053763441 41:0.035842294 42:0.041144902 43:0.014336918 44:0.0035842294 45:0.010752688 46:0.07334526 47:0.03046595 48:0.019713262 49:0.080500894 50:0.021505376 51:0.023297491 
32768 1:0.02948403 2:0.083743842 3:0.019753086 4:0.04679803 5:0.017283951 6:0.0024691358 7:0.024691358 8:0.07881773 9:0.027160494 10:0.064039409 11:0.0024691358 12:0.014814815 13:0.039506173 14:0.0074074074 15:0.066502463 16:0.017283951 17:0.012345679 18:0.014814815 19:0.022222222 20:0.064039409 21:0.024691358 22:0.0098522167 23:0 24:0.071428571 25:0.0024691358 26:0.014814815 27:0.02962963 28:0.10098522 29:0.017283951 30:0.022222222 31:0.051724138 32:0.0024691358 33:0.086206897 34:0.017283951 35:0.04679803 36:0.004938272 37:0.02962963 38:0.022167488 39:0.0024691358 40:0.0024691358 41:0.0098765432 42:0.049261084 43:0.009876543 44:0 45:0.017283951 46:0.11083744 47:0.034567901 48:0.017283951 49:0.04679803 50:0.012345679 51:0.0074074074 
32768 1:0.28907168 2:0.050588235 3:0.0094228504 4:0.064705882 5:0.020023557 6:0.0047114252 7:0.012956419 8:0.09882353 9:0.037691402 10:0.041176471 11:0.0011778563 12:0.008244994 13:0.024734982 14:0.0070671378 15:0.095294118 16:0.02237927 17:0.024734982 18:0.036513545 19:0.011778563 20:0.1 21:0.029446408 22:0.027058823 23:0.010600707 24:0.069411765 25:0.011778563 26:0.015312132 27:0.028268551 28:0.09294118 29:0.024734982 30:0.029446408 31:0.078823529 32:0.0023557126 33:0.061176471 34:0.011778563 35:0.029411765 36:0.003533569 37:0.014134276 38:0.017647059 39:0.0023557126 40:0.0082449941 41:0.0047114252 42:0.047058824 43:0.014134276 44:0.0023557126 45:0.014134276 46:0.07529412 47:0.02237927 48:0.005889282 49:0.050588235 50:0.008244994 51:0.020023557 
32768 1:0.097165992 2:0.046653144 3:0.0081300813 4:0.044624746 5:0.012195122 6:0.0040650407 7:0.010162602 8:0.10750507 9:0.038617886 10:0.040567951 11:0.0020325203 12:0.00203252 13:0.028455285 14:0.0081300813 15:0.064908722 16:0.014227642 17:0.008130081 18:0.032520325 19:0.010162602 20:0.062880325 21:0.020325203 22:0.016227181 23:0.006097561 24:0.073022312 25:0.0081300813 26:0.014227642 27:0.030487805 28:0.10547667 29:0.020325203 30:0.038617886 31:0.062880325 32:0.0040650407 33:0.09127789 34:0.022357724 35:0.044624746 36:0.008130081 37:0.014227642 38:0.022312373 39:0.0081300813 40:0.0081300813 41:0.006097561 42:0.046653144 43:0.012195122 44:0.0020325203 45:0.016260163 46:0.08924949 47:0.020325203 48:0.008130081 49:0.081135903 50:0.016260163 51:0.034552845 
30895.32725962743 1:0.017605634 2:0.090481786 3:0.025882353 4:0.063454759 5:0.022352941 6:0.011764706 7:0.017647059 8:0.09165687 9:0.035294118 10:0.047003525 11:0.0082352941 12:0.012941176 13:0.018823529 14:0.0058823529 15:0.079905993 16:0.016470588 17:0.022352941 18:0.029411765 19:0.011764706 20:0.041128085 21:0.0082352941 22:0.034077556 23:0.010588235 24:0.059929495 25:0.010588235 26:0.009411765 27:0.031764706 28:0.09518214 29:0.022352941 30:0.021176471 31:0.071680376 32:0.0094117647 33:0.078730905 34:0.022352941 35:0.055229142 36:0.011764706 37:0.025882353 38:0.025851939 39:0.0058823529 40:0.0035294118 41:0.0082352941 42:0.038777908 43:0.016470588 44:0.0035294118 45:0.009411765 46:0.09635723 47:0.021176471 48:0.018823529 49:0.030552291 50:0.02 51:0.0047058824 
32768 1:0.011262318 2:0.057276995 3:0.014560827 4:0.054929577 5:0.016439643 6:0.01268201 7:0.010803194 8:0.07887324 9:0.023954908 10:0.051173709 11:0.0079849695 12:0.013151714 13:0.018788163 14:0.011272898 15:0.083098592 16:0.01268201 17:0.022545796 18:0.030061062 19:0.017848755 20:0.057746479 21:0.010803194 22:0.045539906 23:0.014091123 24:0.058685446 25:0.0084546736 26:0.010803194 27:0.03100047 28:0.07464789 29:0.013151714 30:0.022076092 31:0.084976526 32:0.015500235 33:0.088262911 34:0.021606388 35:0.055868545 36:0.014560827 37:0.023485204 38:0.026760563 39:0.0098637858 40:0.0032879286 41:0.0079849695 42:0.047887324 43:0.015500235 44:0.0089243776 45:0.010803194 46:0.09107981 47:0.014091123 48:0.022545796 49:0.043192488 50:0.017848755 51:0.01033349 
3055.557203686743 1:0.045714286 2:0.04389313 3:0.0095602294 4:0.045801527 5:0.021032505 6:0.0038240918 7:0.009560229 8:0.08015267 9:0.017208413 10:0.047709924 11:0.0076481836 12:0.011472275 13:0.013384321 14:0.015296367 15:0.085877863 16:0.013384321 17:0.021032505 18:0.034416826 19:0.017208413 20:0.053435115 21:0.011472275 22:0.045801527 23:0.013384321 24:0.051526718 25:0.0038240918 26:0.007648184 27:0.030592734 28:0.05725191 29:0.009560229 30:0.017208413 31:0.095419847 32:0.021032505 33:0.099236641 34:0.022944551 35:0.062977099 36:0.009560229 37:0.022944551 38:0.030534351 39:0.0057361377 40:0.0076481836 41:0.011472275 42:0.041984733 43:0.017208413 44:0.0095602294 45:0.003824092 46:0.08969466 47:0.013384321 48:0.021032505 49:0.06870229 50:0.022944551 51:0.022944551 
32768 1:0.40243902 2:0.11836735 3:0.045081967 4:0.07755102 5:0.024590164 6:0.0081967213 7:0.032786885 8:0.08979592 9:0.028688525 10:0.06122449 11:0.012295082 12:0.012295082 13:0.024590164 14:0.012295082 15:0.10204082 16:0.020491803 17:0.020491803 18:0.036885246 19:0.024590164 20:0.044897959 21:0.0040983607 22:0.0081632653 23:0 24:0.06122449 25:0.0040983607 26:0.024590164 27:0.008196721 28:0.07346939 29:0.012295082 30:0.020491803 31:0.032653061 32:0 33:0.036734694 34:0.0040983607 35:0.053061224 36:0.008196721 37:0.008196721 38:0.057142857 39:0.016393443 40:0.0040983607 41:0.016393443 42:0.06122449 43:0.028688525 44:0 45:0.020491803 46:0.06122449 47:0.016393443 48:0.016393443 49:0.06122449 50:0.020491803 51:0.012295082 
17141.10307516815 1:0.40133779 2:0.10402685 3:0.033670034 4:0.05704698 5:0.033670034 6:0 7:0.02020202 8:0.04697987 9:0.013468013 10:0.093959732 11:0.026936027 12:0.01010101 13:0.023569024 14:0.033670034 15:0.090604027 16:0.037037037 17:0.013468013 18:0.01010101 19:0.03030303 20:0.026845638 21:0.0033670034 22:0.0067114094 23:0 24:0.073825503 25:0.013468014 26:0.016835017 27:0.026936027 28:0.04697987 29:0.016835017 30:0 31:0.05704698 32:0.0033670034 33:0.040268456 34:0.01010101 35:0.046979866 36:0.01010101 37:0.01010101 38:0.060402685 39:0.01010101 40:0.016835017 41:0.02020202 42:0.05704698 43:0.03030303 44:0.0033670034 45:0.013468013 46:0.09731544 47:0.02020202 48:0.02020202 49:0.093959732 50:0.037037037 51:0.023569024 
8943.44891930324 1:0.16793893 2:0.19897959 3:0.099744245 4:0.058673469 5:0.025575448 6:0.0051150895 7:0.012787724 8:0.08418367 9:0.038363171 10:0.084183673 11:0.028132992 12:0.010230179 13:0.017902813 14:0.028132992 15:0.068877551 16:0.020460358 17:0.002557545 18:0.028132992 19:0.017902813 20:0.033163265 21:0.0051150895 22:0.0076530612 23:0.0025575448 24:0.038265306 25:0.015345269 26:0.00511509 27:0.015345269 28:0.09438776 29:0.015345269 30:0.017902813 31:0.020408163 32:0.0025575448 33:0.038265306 34:0.0025575448 35:0.028061224 36:0.002557545 37:0.002557545 38:0.06377551 39:0.012787724 40:0.012787724 41:0.012787724 42:0.033163265 43:0.017902813 44:0 45:0.010230179 46:0.05357143 47:0.023017903 48:0.007672634 49:0.094387755 50:0.017902813 51:0.04859335 
32768 1:0.2038835 2:0.053527981 3:0.014634146 4:0.053527981 5:0.004878049 6:0.012195122 7:0.014634146 8:0.08515815 9:0.017073171 10:0.01459854 11:0.0024390244 12:0.002439024 13:0.007317073 14:0.0024390244 15:0.060827251 16:0.009756098 17:0.009756098 18:0.036585366 19:0.004878049 20:0.092457421 21:0.026829268 22:0.04622871 23:0.017073171 24:0.087591241 25:0.0024390244 26:0.019512195 27:0.041463415 28:0.08272506 29:0.02195122 30:0.029268293 31:0.077858881 32:0.0073170732 33:0.077858881 34:0.019512195 35:0.060827251 36:0.024390244 37:0.026829268 38:0.00973236 39:0.0024390244 40:0.0024390244 41:0.0024390244 42:0.065693431 43:0.012195122 44:0.014634146 45:0.012195122 46:0.09002433 47:0.031707317 48:0.014634146 49:0.04136253 50:0.012195122 51:0.0073170732 
32768 1:0.37121212 2:0.10646388 3:0.026717557 4:0.045627376 5:0.030534351 6:0.0038167939 7:0.007633588 8:0.11026616 9:0.041984733 10:0.049429658 11:0.0076335878 12:0.011450382 13:0.019083969 14:0.011450382 15:0.11406844 16:0.038167939 17:0.015267176 18:0.049618321 19:0.011450382 20:0.068441065 21:0.015267176 22:0.015209126 23:0.0076335878 24:0.053231939 25:0 26:0.003816794 27:0.015267176 28:0.07984791 29:0.007633588 30:0.019083969 31:0.087452471 32:0 33:0.045627376 34:0.0038167939 35:0.02661597 36:0.007633588 37:0.007633588 38:0.015209125 39:0 40:0.0076335878 41:0.0038167939 42:0.045627376 43:0.019083969 44:0.0076335878 45:0.015267176 46:0.06844106 47:0.015267176 48:0.015267176 49:0.068441065 50:0.026717557 51:0.011450382 
32768 1:0.47894737 2:0.061511424 3:0.021126761 4:0.0456942 5:0.012323944 6:0.0070422535 7:0.00528169 8:0.07205624 9:0.01584507 10:0.040421793 11:0.0035211268 12:0.01056338 13:0.01584507 14:0.01056338 15:0.066783831 16:0.01584507 17:0.01056338 18:0.026408451 19:0.014084507 20:0.096660808 21:0.031690141 22:0.057996485 23:0.026408451 24:0.052724077 25:0.0017605634 26:0.01584507 27:0.028169014 28:0.0685413 29:0.01056338 30:0.022887324 31:0.082601054 32:0.021126761 33:0.10193322 34:0.029929577 35:0.059753954 36:0.012323944 37:0.021126761 38:0.0228471 39:0.012323944 40:0.0052816901 41:0.0052816901 42:0.049209139 43:0.017605634 44:0.0052816901 45:0.01056338 46:0.08084359 47:0.017605634 48:0.01584507 49:0.040421793 50:0.01584507 51:0.0070422535 
32768 1:1 2:0.015184382 3:0.002173913 4:0.019522777 5:0.002173913 6:0.002173913 7:0.006521739 8:0.07158351 9:0.002173913 10:0.010845987 11:0 12:0.004347826 13:0.006521739 14:0 15:0.036876356 16:0.002173913 17:0.004347826 18:0.023913043 19:0.006521739 20:0.21258135 21:0.097826087 22:0.078091106 23:0.032608696 24:0.056399132 25:0.0065217391 26:0.015217391 27:0.032608696 28:0.05639913 29:0.002173913 30:0.041304348 31:0.11062907 32:0.013043478 33:0.17787419 34:0.089130435 35:0.041214751 36:0.019565217 37:0.017391304 38:0.00867679 39:0.0086956522 40:0 41:0 42:0.041214751 43:0.008695652 44:0.002173913 45:0.017391304 46:0.05856833 47:0.013043478 48:0.006521739 49:0.004338395 50:0.002173913 51:0 
32768 1:0.17647059 2:0.071253071 3:0.024630542 4:0.054054054 5:0.019704433 6:0.0049261084 7:0.014778325 8:0.05159705 9:0.022167488 10:0.081081081 11:0.012315271 12:0.014778325 13:0.027093596 14:0.027093596 15:0.076167076 16:0.012315271 17:0.014778325 18:0.027093596 19:0.022167488 20:0.061425061 21:0.014778325 22:0.017199017 23:0.0024630542 24:0.078624079 25:0.0073891626 26:0.024630542 27:0.019704433 28:0.07862408 29:0.014778325 30:0.012315271 31:0.046683047 32:0.0024630542 33:0.044226044 34:0.0098522167 35:0.046683047 36:0.012315271 37:0.027093596 38:0.034398034 39:0.0098522167 40:0 41:0.014778325 42:0.071253071 43:0.027093596 44:0.0098522167 45:0.019704433 46:0.1007371 47:0.034482759 48:0.019704433 49:0.085995086 50:0.027093596 51:0.027093596 
32768 1:0.20289855 2:0.072815534 3:0.024390244 4:0.072815534 5:0.029268293 6:0 7:0.029268293 8:0.06796117 9:0.014634146 10:0.063106796 11:0.0048780488 12:0.014634146 13:0.014634146 14:0.029268293 15:0.097087379 16:0.019512195 17:0.009756098 18:0.043902439 19:0.024390244 20:0.048543689 21:0.014634146 22:0.014563107 23:0 24:0.077669903 25:0.0097560976 26:0.014634146 27:0.019512195 28:0.07281553 29:0.034146341 30:0.0048780488 31:0.04368932 32:0 33:0.04368932 34:0 35:0.04368932 36:0.014634146 37:0.009756098 38:0.038834951 39:0.014634146 40:0 41:0.014634146 42:0.072815534 43:0.034146341 44:0.014634146 45:0.014634146 46:0.07281553 47:0.024390244 48:0 49:0.097087379 50:0.029268293 51:0.024390244 
10469.99970119881 1:0.22105263 2:0.084507042 3:0.017667845 4:0.042253521 5:0.014134276 6:0.010600707 7:0.010600707 8:0.08098592 9:0.028268551 10:0.042253521 11:0 12:0.003533569 13:0.017667845 14:0.021201413 15:0.063380282 16:0.014134276 17:0.010600707 18:0.024734982 19:0.014134276 20:0.049295775 21:0.014134276 22:0.017605634 23:0 24:0.080985915 25:0.010600707 26:0.021201413 27:0.024734982 28:0.06690141 29:0 30:0.014134276 31:0.056338028 32:0 33:0.049295775 34:0.0035335689 35:0.056338028 36:0.010600707 37:0.010600707 38:0.038732394 39:0.014134276 40:0.0035335689 41:0.014134276 42:0.059859155 43:0.014134276 44:0 45:0.03180212 46:0.08098592 47:0.017667845 48:0.03180212 49:0.13028169 50:0.028268551 51:0.06360424 
28454.61272280732 1:0.084210526 2:0.11971831 3:0.038869258 4:0.066901408 5:0.021201413 6:0.0035335689 7:0.024734982 8:0.05985915 9:0.021201413 10:0.084507042 11:0.024734982 12:0.014134276 13:0.028268551 14:0.017667845 15:0.091549296 16:0.035335689 17:0.010600707 18:0.014134276 19:0.03180212 20:0.031690141 21:0 22:0.0070422535 23:0 24:0.063380282 25:0.014134276 26:0.021201413 27:0.014134276 28:0.06338028 29:0.017667845 30:0.010600707 31:0.042253521 32:0 33:0.045774648 34:0.0070671378 35:0.049295775 36:0 37:0.021201413 38:0.059859155 39:0.021201413 40:0.0070671378 41:0.010600707 42:0.049295775 43:0.028268551 44:0.0035335689 45:0.007067138 46:0.08802817 47:0.021201413 48:0.024734982 49:0.077464789 50:0.024734982 51:0.024734982 
24010.00626824183 1:0.20785219 2:0.10416667 3:0.032482599 4:0.05787037 5:0.018561485 6:0 7:0.018561485 8:0.09027778 9:0.030162413 10:0.0625 11:0 12:0.020881671 13:0.020881671 14:0.020881671 15:0.092592593 16:0.030162413 17:0.011600928 18:0.023201856 19:0.027842227 20:0.05787037 21:0.016241299 22:0.0092592593 23:0 24:0.060185185 25:0.0069605568 26:0.011600928 27:0.025522042 28:0.09027778 29:0.006960557 30:0.032482599 31:0.048611111 32:0.0023201856 33:0.0625 34:0.016241299 35:0.039351852 36:0.006960557 37:0.018561485 38:0.027777778 39:0.0069605568 40:0.0046403712 41:0.011600928 42:0.055555556 43:0.030162413 44:0.0023201856 45:0.011600928 46:0.0787037 47:0.034802784 48:0.009280742 49:0.0625 50:0.013921114 51:0.018561485 
6350.671475029447 1:0.33962264 2:0.060606061 3:0.019011407 4:0.060606061 5:0.02661597 6:0 7:0.02661597 8:0.08333333 9:0.034220532 10:0.079545455 11:0.019011407 12:0.022813688 13:0.011406844 14:0.02661597 15:0.090909091 16:0.011406844 17:0.022813688 18:0.030418251 19:0.02661597 20:0.026515152 21:0.0038022814 22:0.011363636 23:0 24:0.083333333 25:0.0038022814 26:0.015209125 27:0.049429658 28:0.10606061 29:0.022813688 30:0.02661597 31:0.053030303 32:0.0038022814 33:0.068181818 34:0.015209126 35:0.022727273 36:0 37:0.011406844 38:0.026515152 39:0.0076045627 40:0.0076045627 41:0.0076045627 42:0.071969697 43:0.022813688 44:0.0038022814 45:0.030418251 46:0.09090909 47:0.034220532 48:0.007604563 49:0.064393939 50:0.019011407 51:0.015209126 
32768 1:0.012526096 2:0.089958159 3:0.027253669 4:0.073221757 5:0.027253669 6:0.0062893082 7:0.016771488 8:0.05648536 9:0.025157233 10:0.085774059 11:0.012578616 12:0.023060797 13:0.023060797 14:0.027253669 15:0.083682008 16:0.020964361 17:0.018867925 18:0.018867925 19:0.025157233 20:0.046025105 21:0.01048218 22:0.012552301 23:0.0041928721 24:0.069037657 25:0.020964361 26:0.014675052 27:0.014675052 28:0.07112971 29:0.008385744 30:0.014675052 31:0.029288703 32:0 33:0.041841004 34:0.0041928721 35:0.043933054 36:0.006289308 37:0.016771488 38:0.060669456 39:0.020964361 40:0.0020964361 41:0.018867925 42:0.064853556 43:0.031446541 44:0.0041928721 45:0.020964361 46:0.07531381 47:0.025157233 48:0.016771488 49:0.09623431 50:0.018867925 51:0.035639413 
12805.87108675623 1:0.22068966 2:0.085253456 3:0.027713626 4:0.073732719 5:0.036951501 6:0.0023094688 7:0.009237875 8:0.07373272 9:0.023094688 10:0.055299539 11:0.0092378753 12:0.030023095 13:0.013856813 14:0.0023094688 15:0.10138249 16:0.016166282 17:0.041570439 18:0.027713626 19:0.016166282 20:0.082949309 21:0.013856813 22:0.02764977 23:0 24:0.059907834 25:0.0069284065 26:0.013856813 27:0.025404157 28:0.07834101 29:0.011547344 30:0.023094688 31:0.052995392 32:0.0046189376 33:0.050691244 34:0.0069284065 35:0.050691244 36:0.006928406 37:0.025404157 38:0.025345622 39:0.0046189376 40:0.0046189376 41:0.0046189376 42:0.062211982 43:0.013856813 44:0.0046189376 45:0.020785219 46:0.08064516 47:0.020785219 48:0.016166282 49:0.039170507 50:0.013856813 51:0.011547344 
32768 1:0.17801047 2:0.11013986 3:0.036777583 4:0.048951049 5:0.015761821 6:0.010507881 7:0.00525394 8:0.10839161 9:0.036777583 10:0.054195804 11:0.0052539405 12:0.014010508 13:0.026269702 14:0.0087565674 15:0.078671329 16:0.031523643 17:0.014010508 18:0.017513135 19:0.015761821 20:0.061188811 21:0.021015762 22:0.017482517 23:0.0052539405 24:0.038461538 25:0.003502627 26:0.003502627 27:0.017513135 28:0.1048951 29:0.017513135 30:0.038528897 31:0.050699301 32:0.0017513135 33:0.083916084 34:0.012259194 35:0.048951049 36:0.00525394 37:0.017513135 38:0.026223776 39:0.0052539405 40:0.0087565674 41:0.0070052539 42:0.036713287 43:0.022767075 44:0 45:0.007005254 46:0.07867133 47:0.028021016 48:0.008756567 49:0.052447552 50:0.017513135 51:0.014010508 
32768 1:0.87169811 2:0.027707809 3:0 4:0.064231738 5:0.027742749 6:0.0050441362 7:0.010088272 8:0.07556675 9:0.016393443 10:0.047858942 11:0.001261034 12:0.017654477 13:0.026481715 14:0.0025220681 15:0.11335013 16:0.020176545 17:0.034047919 18:0.039092055 19:0.020176545 20:0.091939547 21:0.016393443 22:0.018891688 23:0.0063051702 24:0.083123426 25:0.0075662043 26:0.025220681 27:0.032786885 28:0.0604534 29:0.017654477 30:0.021437579 31:0.085642317 32:0.001261034 33:0.10075567 34:0.026481715 35:0.035264484 36:0.00630517 37:0.018915511 38:0.013853904 39:0.0075662043 40:0.0025220681 41:0.0037831021 42:0.064231738 43:0.025220681 44:0.0037831021 45:0.018915511 46:0.08816121 47:0.011349306 48:0.013871375 49:0.028967254 50:0.010088272 51:0.0025220681 
32768 1:0.025104602 2:0.088050314 3:0.033613445 4:0.052410901 5:0.018907563 6:0.006302521 7:0.012605042 8:0.08385744 9:0.031512605 10:0.054507338 11:0.0084033613 12:0.014705882 13:0.014705882 14:0.016806723 15:0.081761006 16:0.018907563 17:0.012605042 18:0.033613445 19:0.016806723 20:0.050314465 21:0.0021008403 22:0.033542977 23:0.006302521 24:0.054507338 25:0.006302521 26:0.012605042 27:0.014705882 28:0.06918239 29:0.014705882 30:0.0084033613 31:0.044025157 32:0.0042016807 33:0.050314465 34:0.0084033613 35:0.06918239 36:0.012605042 37:0.016806723 38:0.039832285 39:0.010504202 40:0.0084033613 41:0.012605042 42:0.073375262 43:0.027310924 44:0.0084033613 45:0.014705882 46:0.06498952 47:0.021008403 48:0.023109244 49:0.090146751 50:0.018907563 51:0.027310924 
32768 1:0.43504532 2:0.057575758 3:0.015197568 4:0.057575758 5:0.030395137 6:0.0030395137 7:0.006079027 8:0.0969697 9:0.027355623 10:0.033333333 11:0 12:0.015197568 13:0.012158055 14:0.0060790274 15:0.096969697 16:0.018237082 17:0.024316109 18:0.045592705 19:0.009118541 20:0.060606061 21:0.009118541 22:0.021212121 23:0.009118541 24:0.081818182 25:0.015197568 26:0.015197568 27:0.024316109 28:0.06666667 29:0.018237082 30:0.021276596 31:0.057575758 32:0.0060790274 33:0.066666667 34:0.009118541 35:0.060606061 36:0.021276596 37:0.021276596 38:0.027272727 39:0.009118541 40:0.0060790274 41:0.0060790274 42:0.081818182 43:0.03343465 44:0.0060790274 45:0.027355623 46:0.06666667 47:0.009118541 48:0.021276596 49:0.066666667 50:0.009118541 51:0.018237082 
32768 1:0.01300578 2:0.054992764 3:0.015942029 4:0.060781476 5:0.017391304 6:0.011594203 7:0.014492754 8:0.08393632 9:0.024637681 10:0.041968162 11:0.0043478261 12:0.010144928 13:0.015942029 14:0.011594203 15:0.10274964 16:0.014492754 17:0.020289855 18:0.049275362 19:0.01884058 20:0.11287988 21:0.036231884 22:0.039073806 23:0.011594203 24:0.0723589 25:0.011594203 26:0.028985507 27:0.026086957 28:0.0593343 29:0.01884058 30:0.01884058 31:0.089725036 32:0.0057971014 33:0.06512301 34:0.017391304 35:0.040520984 36:0.013043478 37:0.01884058 38:0.024602026 39:0.0072463768 40:0.0043478261 41:0.0043478261 42:0.063675832 43:0.017391304 44:0.0043478261 45:0.011594203 46:0.06657019 47:0.017391304 48:0.011594203 49:0.02170767 50:0.005797101 51:0.0014492754 
32768 1:0.8442029 2:0.10181818 3:0.02919708 4:0.050909091 5:0.02919708 6:0.003649635 7:0.00729927 8:0.10181818 9:0.032846715 10:0.043636364 11:0.010948905 12:0.018248175 13:0.003649635 14:0.010948905 15:0.087272727 16:0.03649635 17:0.00729927 18:0.032846715 19:0.010948905 20:0.061818182 21:0.003649635 22:0.018181818 23:0.003649635 24:0.08 25:0.0072992701 26:0.010948905 27:0.02919708 28:0.07272727 29:0.003649635 30:0.02189781 31:0.061818182 32:0.003649635 33:0.065454545 34:0.02189781 35:0.032727273 36:0.010948905 37:0.00729927 38:0.032727273 39:0.018248175 40:0 41:0.003649635 42:0.072727273 43:0.018248175 44:0 45:0.032846715 46:0.05090909 47:0.010948905 48:0.00729927 49:0.065454545 50:0.010948905 51:0.01459854 
32768 1:0.084705882 2:0.13679245 3:0.056737589 4:0.061320755 5:0.023640662 6:0.0070921986 7:0.023640662 8:0.11084906 9:0.042553191 10:0.04245283 11:0.011820331 12:0.011820331 13:0.009456265 14:0.0094562648 15:0.070754717 16:0.021276596 17:0.014184397 18:0.023640662 19:0.011820331 20:0.044811321 21:0.014184397 22:0.021226415 23:0.011820331 24:0.054245283 25:0.0070921986 26:0.016548463 27:0.023640662 28:0.11084906 29:0.016548463 30:0.028368794 31:0.04009434 32:0.0070921986 33:0.075471698 34:0.01891253 35:0.04009434 36:0.009456265 37:0.011820331 38:0.035377358 39:0.014184397 40:0.0070921986 41:0.0094562648 42:0.044811321 43:0.01891253 44:0.0023640662 45:0.004728132 46:0.05896226 47:0.021276596 48:0.004728132 49:0.051886792 50:0.011820331 51:0.023640662 
32768 1:0.037325039 2:0.14018692 3:0.042121685 4:0.049844237 5:0.026521061 6:0 7:0.014040562 8:0.08255452 9:0.035881435 10:0.088785047 11:0.015600624 12:0.012480499 13:0.029641186 14:0.031201248 15:0.074766355 16:0.03276131 17:0.010920437 18:0.015600624 19:0.015600624 20:0.037383178 21:0.007800312 22:0.0031152648 23:0 24:0.056074766 25:0.010920437 26:0.017160686 27:0.014040562 28:0.09501558 29:0.004680187 30:0.0093603744 31:0.028037383 32:0.0015600624 33:0.043613707 34:0.0093603744 35:0.040498442 36:0.012480499 37:0.015600624 38:0.052959502 39:0.012480499 40:0.014040562 41:0.010920437 42:0.056074766 43:0.021840874 44:0.0015600624 45:0.017160686 46:0.07632399 47:0.034321373 48:0.017160686 49:0.074766355 50:0.017160686 51:0.020280811 
136.2576720337218 1:0.0068181818 2:0.10011377 3:0.039863326 4:0.055745165 5:0.0261959 6:0.0022779043 7:0.01594533 8:0.0887372 9:0.037585421 10:0.065984073 11:0.013667426 12:0.018223235 13:0.017084282 14:0.017084282 15:0.093287827 16:0.023917995 17:0.013667426 18:0.037585421 19:0.018223235 20:0.058020478 21:0.011389522 22:0.013651877 23:0.0045558087 24:0.06370876 25:0.01025057 26:0.017084282 27:0.021640091 28:0.07849829 29:0.013667426 30:0.014806378 31:0.044368601 32:0.0034168565 33:0.070534699 34:0.020501139 35:0.044368601 36:0.011389522 37:0.018223235 38:0.038680319 39:0.014806378 40:0.0091116173 41:0.006833713 42:0.070534699 43:0.025056948 44:0.0034168565 45:0.018223235 46:0.06484642 47:0.014806378 48:0.013667426 49:0.048919226 50:0.007972665 51:0.0091116173 
32768 1:0.88602941 2:0.014760148 3:0 4:0.025830258 5:0.011111111 6:0.0074074074 7:0.003703704 8:0.07380074 9:0.025925926 10:0.044280443 11:0 12:0.011111111 13:0.022222222 14:0.011111111 15:0.05904059 16:0.007407407 17:0.018518519 18:0.022222222 19:0.011111111 20:0.066420664 21:0.014814815 22:0.011070111 23:0.0037037037 24:0.12177122 25:0.0037037037 26:0.025925926 27:0.055555556 28:0.0701107 29:0.003703704 30:0.044444444 31:0.088560886 32:0 33:0.084870849 34:0.018518519 35:0.051660517 36:0.018518519 37:0.022222222 38:0.014760148 39:0.0037037037 40:0 41:0.0074074074 42:0.077490775 43:0.014814815 44:0.0037037037 45:0.02962963 46:0.12915129 47:0.014814815 48:0.025925926 49:0.066420664 50:0.02962963 51:0.014814815 
32768 1:0.059866962 2:0.13555556 3:0.053452116 4:0.068888889 5:0.028953229 6:0.011135858 7:0.011135857 8:0.08222222 9:0.042316258 10:0.06 11:0.017817372 12:0.0155902 13:0.013363029 14:0.013363029 15:0.086666667 16:0.031180401 17:0.020044543 18:0.026726058 19:0.008908686 20:0.046666667 21:0.004454343 22:0.02 23:0.0022271715 24:0.053333333 25:0.004454343 26:0.008908686 27:0.017817372 28:0.08222222 29:0.0155902 30:0.020044543 31:0.037777778 32:0 33:0.037777778 34:0.0022271715 35:0.048888889 36:0.008908686 37:0.013363029 38:0.04 39:0.013363029 40:0.0022271715 41:0.008908686 42:0.053333333 43:0.020044543 44:0.004454343 45:0.017817372 46:0.06666667 47:0.013363029 48:0.017817372 49:0.08 50:0.022271715 51:0.026726058 
6001.168477363575 1:0.041522491 2:0.060658579 3:0.012152778 4:0.041594454 5:0.010416667 6:0.0069444444 7:0.010416667 8:0.08838821 9:0.029513889 10:0.062391681 11:0.012152778 12:0.019097222 13:0.013888889 14:0.017361111 15:0.057192374 16:0.015625 17:0.006944444 18:0.026041667 19:0.008680556 20:0.057192374 21:0.012152778 22:0.013864818 23:0.0034722222 24:0.079722704 25:0.0052083333 26:0.019097222 27:0.041666667 28:0.10051993 29:0.013888889 30:0.026041667 31:0.043327556 32:0.0034722222 33:0.086655113 34:0.019097222 35:0.050259965 36:0.006944444 37:0.013888889 38:0.034662045 39:0.010416667 40:0.0086805556 41:0.012152778 42:0.065857886 43:0.020833333 44:0 45:0.029513889 46:0.09185442 47:0.022569444 48:0.012152778 49:0.065857886 50:0.022569444 51:0.013888889 
32768 1:0.010619469 2:0.10638298 3:0.042628774 4:0.062056738 5:0.026642984 6:0.0017761989 7:0.017761989 8:0.07978723 9:0.035523979 10:0.081560284 11:0.012433392 12:0.014209591 13:0.039076377 14:0.01598579 15:0.076241135 16:0.024866785 17:0.01598579 18:0.014209591 19:0.021314387 20:0.04787234 21:0.010657194 22:0.0053191489 23:0 24:0.04964539 25:0.010657194 26:0.010657194 27:0.017761989 28:0.09042553 29:0.019538188 30:0.019538188 31:0.037234043 32:0 33:0.063829787 34:0.0053285968 35:0.05141844 36:0.003552398 37:0.01598579 38:0.056737589 39:0.010657194 40:0.014209592 41:0.023090586 42:0.033687943 43:0.008880995 44:0.0017761989 45:0.010657194 46:0.09219858 47:0.023090586 48:0.017761989 49:0.065602837 50:0.019538188 51:0.021314387 
32768 1:0.85204082 2:0.025553663 3:0.0051194539 4:0.049403748 5:0.013651877 6:0.013651877 7:0.005119454 8:0.07495741 9:0.020477816 10:0.032367973 11:0 12:0.010238908 13:0.015358362 14:0.0068259386 15:0.083475298 16:0.006825939 17:0.0221843 18:0.039249147 19:0.015358362 20:0.13117547 21:0.054607508 22:0.05451448 23:0.020477816 24:0.074957411 25:0.0051194539 26:0.02559727 27:0.035836177 28:0.06303237 29:0.013651877 30:0.030716724 31:0.10221465 32:0.013651877 33:0.06132879 34:0.011945393 35:0.057921635 36:0.015358362 37:0.032423208 38:0.010221465 39:0.0017064846 40:0 41:0.0034129693 42:0.06132879 43:0.011945392 44:0.0085324232 45:0.017064846 46:0.09199319 47:0.015358362 48:0.02559727 49:0.025553663 50:0.008532423 51:0.0051194539 
32768 1:0.15145631 2:0.035019455 3:0.011695906 4:0.060311284 5:0.011695906 6:0.011695906 7:0.015594542 8:0.05836576 9:0.015594542 10:0.054474708 11:0.0058479532 12:0.027290448 13:0.011695906 14:0.0097465887 15:0.097276265 16:0.011695906 17:0.033138402 18:0.027290448 19:0.025341131 20:0.085603113 21:0.01754386 22:0.048638132 23:0.021442495 24:0.070038911 25:0.007797271 26:0.019493177 27:0.025341131 28:0.05058366 29:0.011695906 30:0.021442495 31:0.079766537 32:0.019493177 33:0.095330739 34:0.031189084 35:0.036964981 36:0.009746589 37:0.015594542 38:0.025291829 39:0.0097465887 40:0.0019493177 41:0.0097465887 42:0.073929961 43:0.029239766 44:0.0038986355 45:0.019493177 46:0.06225681 47:0.009746589 48:0.011695906 49:0.06614786 50:0.009746589 51:0.031189084 
4895.685052660374 1:0.31578947 2:0.072864322 3:0.032745592 4:0.037688442 5:0.005037783 6:0.010075567 7:0.005037783 8:0.08291457 9:0.035264484 10:0.047738693 11:0 12:0.022670025 13:0.01511335 14:0.010075567 15:0.065326633 16:0.012594458 17:0.005037783 18:0.032745592 19:0.01511335 20:0.095477387 21:0.022670025 22:0.01758794 23:0.0050377834 24:0.087939698 25:0 26:0.025188917 27:0.04534005 28:0.09798995 29:0.022670025 30:0.032745592 31:0.065326633 32:0 33:0.085427136 34:0.022670025 35:0.032663317 36:0.007556675 37:0.017632242 38:0.005025126 39:0.0025188917 40:0 41:0.0025188917 42:0.067839196 43:0.017632242 44:0.0050377834 45:0.017632242 46:0.09547739 47:0.027707809 48:0.012594458 49:0.042713568 50:0.017632242 51:0.010075567 
32768 1:0.28378378 2:0.027100271 3:0.0027173913 4:0.037940379 5:0.010869565 6:0 7:0.008152174 8:0.09485095 9:0.024456522 10:0.035230352 11:0 12:0.010869565 13:0.019021739 14:0.0054347826 15:0.08401084 16:0.008152174 17:0.016304348 18:0.048913043 19:0.010869565 20:0.11653117 21:0.032608696 22:0.016260163 23:0.0054347826 24:0.078590786 25:0.0027173913 26:0.013586957 27:0.048913043 28:0.07859079 29:0.010869565 30:0.032608696 31:0.078590786 32:0.0054347826 33:0.08401084 34:0.027173913 35:0.059620596 36:0.013586957 37:0.035326087 38:0.005420054 39:0.0054347826 40:0 41:0 42:0.059620596 43:0.013586957 44:0.0027173913 45:0.019021739 46:0.10840108 47:0.016304348 48:0.027173913 49:0.035230352 50:0.005434783 51:0.0081521739 
18019.86605851726 1:0.25925926 2:0.15463917 3:0.070247934 4:0.070103093 5:0.035123967 6:0.0041322314 7:0.010330579 8:0.06185567 9:0.016528926 10:0.07628866 11:0.020661157 12:0.002066116 13:0.024793388 14:0.02892562 15:0.074226804 16:0.033057851 17:0.010330579 18:0.020661157 19:0.010330579 20:0.053608247 21:0.018595041 22:0.01443299 23:0 24:0.032989691 25:0.0082644628 26:0.004132231 27:0.012396694 28:0.07835052 29:0.016528926 30:0.016528926 31:0.037113402 32:0 33:0.06185567 34:0.01446281 35:0.051546392 36:0 37:0.026859504 38:0.057731959 39:0.01446281 40:0.0020661157 41:0.020661157 42:0.012371134 43:0.002066116 44:0 45:0.004132231 46:0.09072165 47:0.030991736 48:0.012396694 49:0.072164948 50:0.026859504 51:0.022727273 
32768 1:0.4581749 2:0.042485732 3:0.01142132 4:0.064045656 5:0.027918782 6:0.01142132 7:0.01713198 8:0.06087508 9:0.022208122 10:0.073557387 11:0.0076142132 12:0.026649746 13:0.024746193 14:0.014593909 15:0.078630311 16:0.008248731 17:0.019035533 18:0.014593909 19:0.03680203 20:0.044388079 21:0.0069796954 22:0.022194039 23:0.0038071066 24:0.08560558 25:0.010152284 26:0.014593909 27:0.038705584 28:0.08560558 29:0.026649746 30:0.029187817 31:0.055802156 32:0.0044416244 33:0.10462904 34:0.045685279 35:0.031071655 36:0.002538071 37:0.012055838 38:0.034876347 39:0.012055838 40:0.0038071066 41:0.0076142132 42:0.065948003 43:0.022208122 44:0.0031725888 45:0.023477157 46:0.08941027 47:0.033629442 48:0.016497462 49:0.060875079 50:0.013959391 51:0.019035533 
32768 1:0.056179775 2:0.065666041 3:0.016917293 4:0.05065666 5:0.022556391 6:0.0037593985 7:0.013157895 8:0.10694184 9:0.033834586 10:0.041275797 11:0.0037593985 12:0.011278195 13:0.015037594 14:0.011278195 15:0.09380863 16:0.018796992 17:0.015037594 18:0.046992481 19:0.013157895 20:0.065666041 21:0.015037594 22:0.028142589 23:0.0093984962 24:0.067542214 25:0.0018796992 26:0.02443609 27:0.028195489 28:0.08630394 29:0.016917293 30:0.026315789 31:0.07879925 32:0.007518797 33:0.075046904 34:0.0056390977 35:0.041275797 36:0.009398496 37:0.022556391 38:0.018761726 39:0.0056390977 40:0.0056390977 41:0.0018796992 42:0.058161351 43:0.013157895 44:0.0093984962 45:0.015037594 46:0.07317073 47:0.018796992 48:0.009398496 49:0.048780488 50:0.007518797 51:0.018796993 
32768 1:1 2:0.11834319 3:0.041543027 4:0.053254438 5:0.020771513 6:0 7:0.014836795 8:0.10946746 9:0.047477745 10:0.056213018 11:0.0089020772 12:0.014836795 13:0.026706231 14:0.0059347181 15:0.094674556 16:0.029673591 17:0.017804154 18:0.026706231 19:0.020771513 20:0.044378698 21:0.0029673591 22:0.0059171598 23:0 24:0.068047337 25:0.0059347181 26:0.023738872 27:0.020771513 28:0.0887574 29:0.011869436 30:0.020771513 31:0.050295858 32:0.0059347181 33:0.044378698 34:0.0029673591 35:0.047337278 36:0.014836795 37:0.011869436 38:0.035502959 39:0.011869436 40:0.0089020772 41:0.0089020772 42:0.065088757 43:0.03264095 44:0 45:0.023738872 46:0.07100592 47:0.014836795 48:0.017804154 49:0.047337278 50:0.011869436 51:0.0059347181 
32768 1:0.84713376 2:0.063897764 3:0.025641026 4:0.038338658 5:0.009615385 6:0.016025641 7:0.006410256 8:0.06070288 9:0.012820513 10:0.038338658 11:0.0032051282 12:0.009615385 13:0.012820513 14:0.012820513 15:0.060702875 16:0.016025641 17:0.019230769 18:0.019230769 19:0.006410256 20:0.073482428 21:0.016025641 22:0.047923323 23:0.0064102564 24:0.073482428 25:0 26:0.025641026 27:0.028846154 28:0.06709265 29:0.012820513 30:0.016025641 31:0.083067093 32:0.012820513 33:0.11182109 34:0.028846154 35:0.054313099 36:0.006410256 37:0.032051282 38:0.009584665 39:0.0032051282 40:0 41:0.0032051282 42:0.060702875 43:0.012820513 44:0.0064102564 45:0.009615385 46:0.09584665 47:0.016025641 48:0.012820513 49:0.060702875 50:0.022435897 51:0.016025641 
32768 1:0.29665072 2:0.096153846 3:0.038647343 4:0.043269231 5:0.009661836 6:0.014492754 7:0.009661836 8:0.07211538 9:0.014492754 10:0.028846154 11:0.0048309179 12:0.009661836 13:0.004830918 14:0.0096618357 15:0.0625 16:0.024154589 17:0.014492754 18:0.019323671 19:0.004830918 20:0.086538462 21:0.024154589 22:0.048076923 23:0.0048309179 24:0.057692308 25:0 26:0.024154589 27:0.024154589 28:0.07692308 29:0.019323671 30:0.019323672 31:0.072115385 32:0.0096618357 33:0.091346154 34:0.019323672 35:0.0625 36:0.009661836 37:0.038647343 38:0.009615385 39:0 40:0 41:0.0048309179 42:0.052884615 43:0.014492754 44:0.0096618357 45:0.009661836 46:0.08653846 47:0.019323671 48:0.014492754 49:0.052884615 50:0.019323671 51:0.019323672 
32768 1:0.77521008 2:0.058947368 3:0.014767933 4:0.058947368 5:0.023206751 6:0.0042194093 7:0.016877637 8:0.04842105 9:0.012658228 10:0.054736842 11:0.0084388186 12:0.014767932 13:0.016877637 14:0.014767933 15:0.073684211 16:0.016877637 17:0.021097046 18:0.023206751 19:0.012658228 20:0.096842105 21:0.03164557 22:0.023157895 23:0.0063291139 24:0.10526316 25:0.012658228 26:0.033755274 27:0.033755274 28:0.04631579 29:0.010548523 30:0.0042194093 31:0.063157895 32:0.0063291139 33:0.056842105 34:0.0084388186 35:0.04 36:0.008438819 37:0.014767932 38:0.042105263 39:0.010548523 40:0.0021097046 41:0.016877637 42:0.08 43:0.016877637 44:0.0042194093 45:0.02742616 46:0.07789474 47:0.008438819 48:0.014767932 49:0.073684211 50:0.012658228 51:0.025316456 
18242.70747815122 1:0.20650096 2:0.097701149 3:0.028790787 4:0.053639847 5:0.021113244 6:0.0038387716 7:0.019193858 8:0.06130268 9:0.02303263 10:0.074712644 11:0.017274472 12:0.003838772 13:0.02303263 14:0.028790787 15:0.059386973 16:0.019193858 17:0.009596929 18:0.021113244 19:0.009596929 20:0.028735632 21:0.0038387716 22:0.0057471264 23:0 24:0.068965517 25:0.013435701 26:0.009596929 27:0.019193858 28:0.05363985 29:0.005758157 30:0.0076775432 31:0.028735632 32:0 33:0.044061303 34:0.009596929 35:0.059386973 36:0.001919386 37:0.007677543 38:0.076628352 39:0.017274472 40:0.013435701 41:0.02303263 42:0.051724138 43:0.021113244 44:0 45:0.021113244 46:0.07471264 47:0.015355086 48:0.021113244 49:0.16091954 50:0.024952015 51:0.065259117 
4426.279968759903 1:0.02690583 2:0.076404494 3:0.029279279 4:0.047191011 5:0.02027027 6:0.0022522523 7:0.013513514 8:0.11460674 9:0.051801802 10:0.053932584 11:0.011261261 12:0.011261261 13:0.015765766 14:0.015765766 15:0.053932584 16:0.015765766 17:0.009009009 18:0.024774775 19:0.004504505 20:0.035955056 21:0.013513513 22:0.004494382 23:0 24:0.085393258 25:0.013513513 26:0.009009009 27:0.042792793 28:0.12134831 29:0.013513514 30:0.051801802 31:0.051685393 32:0.0022522523 33:0.053932584 34:0.0022522523 35:0.042696629 36:0.006756757 37:0.006756757 38:0.042696629 39:0.018018018 40:0.013513513 41:0.0045045045 42:0.042696629 43:0.011261261 44:0 45:0.024774775 46:0.09662921 47:0.038288288 48:0.015765766 49:0.076404494 50:0.031531532 51:0.022522522 
32768 1:0.1460177 2:0.048744461 3:0.0059171598 4:0.062038405 5:0.017751479 6:0.0044378698 7:0.025147929 8:0.06646972 9:0.023668639 10:0.05465288 11:0.0044378698 12:0.016272189 13:0.022189349 14:0.01183432 15:0.062038405 16:0.014792899 17:0.013313609 18:0.016272189 19:0.016272189 20:0.05760709 21:0.016272189 22:0.038404727 23:0.0059171598 24:0.072378139 25:0.01331361 26:0.00887574 27:0.023668639 28:0.08419498 29:0.020710059 30:0.026627219 31:0.047267356 32:0.016272189 33:0.073855244 34:0.022189349 35:0.066469719 36:0.019230769 37:0.022189349 38:0.038404727 39:0.014792899 40:0.0029585799 41:0.0059171598 42:0.06351551 43:0.020710059 44:0.0073964497 45:0.020710059 46:0.0915805 47:0.029585799 48:0.025147929 49:0.072378139 50:0.023668639 51:0.017751479 
32768 1:0.09375 2:0.10514541 3:0.033632287 4:0.055928412 5:0.01793722 6:0.011210762 7:0.015695067 8:0.0738255 9:0.029147982 10:0.089485459 11:0.024663677 12:0.022421525 13:0.01793722 14:0.024663677 15:0.093959732 16:0.02690583 17:0.015695067 18:0.029147982 19:0.022421525 20:0.042505593 21:0.0044843049 22:0.022371365 23:0.0044843049 24:0.044742729 25:0.0044843049 26:0.015695067 27:0.00896861 28:0.06487696 29:0.015695067 30:0.0089686099 31:0.046979866 32:0 33:0.031319911 34:0.0022421525 35:0.042505593 36:0.006726457 37:0.006726457 38:0.060402685 39:0.013452915 40:0.0044843049 41:0.022421525 42:0.058165548 43:0.024663677 44:0.011210762 45:0.006726457 46:0.05816555 47:0.013452915 48:0.011210762 49:0.10961969 50:0.024663677 51:0.049327354 
32768 1:0.26666667 2:0.062360802 3:0.015625 4:0.051224944 5:0.020089286 6:0.0066964286 7:0.006696429 8:0.08685969 9:0.022321429 10:0.040089087 11:0.0066964286 12:0.013392857 13:0.017857143 14:0.0022321429 15:0.091314031 16:0.020089286 17:0.015625 18:0.035714286 19:0.020089286 20:0.075723831 21:0.022321429 22:0.024498886 23:0.0066964286 24:0.073496659 25:0.0066964286 26:0.017857143 27:0.029017857 28:0.06458797 29:0.011160714 30:0.024553571 31:0.066815145 32:0.0044642857 33:0.095768374 34:0.020089286 35:0.055679287 36:0.020089286 37:0.013392857 38:0.024498886 39:0.0089285714 40:0.0022321429 41:0.0089285714 42:0.071269488 43:0.026785714 44:0.0066964286 45:0.017857143 46:0.07349666 47:0.006696429 48:0.022321429 49:0.042316258 50:0.013392857 51:0 
32768 1:0.053380783 2:0.1 3:0.035842294 4:0.057142857 5:0.010752688 6:0.0071684588 7:0.014336918 8:0.10357143 9:0.021505376 10:0.028571429 11:0 12:0.007168459 13:0.014336918 14:0.0071684588 15:0.089285714 16:0.032258065 17:0.017921147 18:0.039426523 19:0 20:0.075 21:0.025089606 22:0.017857143 23:0 24:0.067857143 25:0.0071684588 26:0.010752688 27:0.032258065 28:0.07142857 29:0.014336918 30:0.025089606 31:0.075 32:0.0035842294 33:0.060714286 34:0.014336918 35:0.053571429 36:0.014336918 37:0.021505376 38:0.028571429 39:0.0035842294 40:0.010752688 41:0.0071684588 42:0.042857143 43:0.021505376 44:0.0071684588 45:0.010752688 46:0.08214286 47:0.021505376 48:0.010752688 49:0.046428571 50:0.014336918 51:0.014336918 
4154.17149839305 1:0.019672131 2:0.13486842 3:0.052805281 4:0.065789474 5:0.02310231 6:0 7:0.01980198 8:0.09210526 9:0.04620462 10:0.078947368 11:0.02640264 12:0.01320132 13:0.02970297 14:0.0099009901 15:0.059210526 16:0.01650165 17:0.00990099 18:0.02640264 19:0.00660066 20:0.039473684 21:0.00330033 22:0 23:0 24:0.075657895 25:0.0099009901 26:0.01980198 27:0.00990099 28:0.10855263 29:0.02310231 30:0.02970297 31:0.023026316 32:0 33:0.029605263 34:0.0066006601 35:0.023026316 36:0 37:0.00660066 38:0.069078947 39:0.01650165 40:0.0099009901 41:0.0099009901 42:0.049342105 43:0.01320132 44:0 45:0.02310231 46:0.0625 47:0.03960396 48:0.00990099 49:0.088815789 50:0.01650165 51:0.03630363 
12942.99355914762 1:0.27713626 2:0.11342593 3:0.039443156 4:0.074074074 5:0.032482599 6:0.0046403712 7:0.006960557 8:0.09259259 9:0.046403712 10:0.053240741 11:0.0092807425 12:0.009280742 13:0.018561485 14:0.016241299 15:0.099537037 16:0.030162413 17:0.020881671 18:0.03712297 19:0.011600928 20:0.055555556 21:0.0046403712 22:0.0092592593 23:0 24:0.064814815 25:0.0069605568 26:0.027842227 27:0.011600928 28:0.08564815 29:0.006960557 30:0.030162413 31:0.046296296 32:0 33:0.053240741 34:0.0069605568 35:0.030092593 36:0.004640371 37:0.011600928 38:0.034722222 39:0.011600928 40:0.0069605568 41:0.013921114 42:0.053240741 43:0.030162413 44:0.0046403712 45:0.006960557 46:0.06018519 47:0.009280742 48:0.009280742 49:0.074074074 50:0.018561485 51:0.034802784 
32768 1:0.38321168 2:0.051282051 3:0.011029412 4:0.054945055 5:0.011029412 6:0 7:0.014705882 8:0.05860806 9:0.007352941 10:0.054945055 11:0.0073529412 12:0.018382353 13:0.014705882 14:0.014705882 15:0.095238095 16:0.022058824 17:0.025735294 18:0.022058824 19:0.025735294 20:0.13919414 21:0.044117647 22:0.014652015 23:0 24:0.091575092 25:0.018382353 26:0.040441176 27:0.014705882 28:0.04395604 29:0.014705882 30:0.0036764706 31:0.04029304 32:0 33:0.054945055 34:0.011029412 35:0.043956044 36:0.014705882 37:0.011029412 38:0.029304029 39:0.0073529412 40:0.0036764706 41:0.011029412 42:0.10622711 43:0.025735294 44:0.0073529412 45:0.022058824 46:0.05494505 47:0.014705882 48:0.014705882 49:0.065934066 50:0.014705882 51:0.014705882 
32768 1:0.0095238095 2:0.093799682 3:0.025477707 4:0.055643879 5:0.030254777 6:0 7:0.015923567 8:0.07790143 9:0.031847134 10:0.081081081 11:0.01910828 12:0.012738854 13:0.025477707 14:0.02388535 15:0.079491256 16:0.030254777 17:0.011146497 18:0.017515924 19:0.020700637 20:0.046104928 21:0.0047770701 22:0.0095389507 23:0 24:0.06200318 25:0.0095541401 26:0.01910828 27:0.012738854 28:0.08267091 29:0.020700637 30:0.015923567 31:0.028616852 32:0.0015923567 33:0.054054054 34:0.0095541401 35:0.052464229 36:0.011146497 37:0.020700637 38:0.054054054 39:0.0063694268 40:0.015923567 41:0.01433121 42:0.066772655 43:0.025477707 44:0.0047770701 45:0.017515924 46:0.07472178 47:0.022292994 48:0.01433121 49:0.081081081 50:0.015923567 51:0.01910828 
32768 1:0.081818182 2:0.085106383 3:0.024390244 4:0.042553191 5:0.012195122 6:0 7:0.012195122 8:0.07598784 9:0.021341463 10:0.072948328 11:0.0091463415 12:0.027439024 13:0.030487805 14:0.006097561 15:0.054711246 16:0.018292683 17:0.006097561 18:0.012195122 19:0.018292683 20:0.051671733 21:0 22:0.015197568 23:0.0030487805 24:0.088145897 25:0.018292683 26:0.015243902 27:0.027439024 28:0.10334347 29:0.021341463 30:0.021341463 31:0.051671733 32:0 33:0.088145897 34:0.024390244 35:0.030395137 36:0.012195122 37:0.012195122 38:0.036474164 39:0.012195122 40:0.0030487805 41:0.012195122 42:0.063829787 43:0.012195122 44:0 45:0.033536585 46:0.09422492 47:0.042682927 48:0.012195122 49:0.045592705 50:0.021341463 51:0.006097561 
32768 1:0.093506493 2:0.075520833 3:0.020887729 4:0.041666667 5:0.01305483 6:0 7:0.01305483 8:0.07552083 9:0.018276762 10:0.059895833 11:0.0078328982 12:0.023498695 13:0.023498695 14:0.0052219321 15:0.0546875 16:0.015665796 17:0.007832898 18:0.015665796 19:0.015665796 20:0.049479167 21:0 22:0.020833333 23:0.0026109661 24:0.09375 25:0.018276762 26:0.015665796 27:0.031331593 28:0.09114583 29:0.020887728 30:0.020887729 31:0.065104167 32:0.0078328982 33:0.1015625 34:0.031331593 35:0.036458333 36:0.015665796 37:0.015665796 38:0.033854167 39:0.010443864 40:0.0026109661 41:0.010443864 42:0.0625 43:0.015665796 44:0 45:0.028720627 46:0.09375 47:0.036553525 48:0.010443864 49:0.044270833 50:0.023498695 51:0.0052219321 
32768 1:0.036319613 2:0.07038835 3:0.01946472 4:0.050970874 5:0.01459854 6:0.00243309 7:0.01216545 8:0.07524272 9:0.02189781 10:0.050970874 11:0.0097323601 12:0.01703163 13:0.01946472 14:0.00486618 15:0.067961165 16:0.01703163 17:0.01216545 18:0.02189781 19:0.01703163 20:0.07038835 21:0.01459854 22:0.033980583 23:0.0243309 24:0.087378641 25:0.01703163 26:0.01459854 27:0.03163017 28:0.0776699 29:0.02189781 30:0.01703163 31:0.082524272 32:0.0097323601 33:0.082524272 34:0.01703163 35:0.036407767 36:0.01459854 37:0.01703163 38:0.033980583 39:0.01216545 40:0.00243309 41:0.0097323601 42:0.055825243 43:0.00973236 44:0.00486618 45:0.02919708 46:0.08495146 47:0.03163017 48:0.01216545 49:0.038834951 50:0.01703163 51:0.00486618 
32768 1:0.010033445 2:0.10720268 3:0.033557047 4:0.036850921 5:0.015100671 6:0.0016778523 7:0.011744966 8:0.09380235 9:0.033557047 10:0.072026801 11:0.011744966 12:0.018456376 13:0.016778523 14:0.025167785 15:0.082077052 16:0.033557047 17:0.006711409 18:0.033557047 19:0.008389262 20:0.038525963 21:0.0067114094 22:0.0067001675 23:0.0016778523 24:0.056951424 25:0.005033557 26:0.015100671 27:0.020134228 28:0.08207705 29:0.011744966 30:0.016778523 31:0.040201005 32:0 33:0.05360134 34:0.010067114 35:0.060301508 36:0.013422819 37:0.018456376 38:0.036850921 39:0.0033557047 40:0.0083892617 41:0.013422819 42:0.068676717 43:0.033557047 44:0.0033557047 45:0.016778523 46:0.08375209 47:0.02852349 48:0.021812081 49:0.08040201 50:0.02852349 51:0.018456376 
29004.03618125585 1:0.012 2:0.18236473 3:0.082329317 4:0.024048096 5:0.008032129 6:0 7:0.008032129 8:0.11823647 9:0.052208835 10:0.064128257 11:0.014056225 12:0.016064257 13:0.016064257 14:0.018072289 15:0.068136273 16:0.026104418 17:0.002008032 18:0.02811245 19:0.012048193 20:0.03006012 21:0.0060240964 22:0.004008016 23:0 24:0.052104208 25:0.0040160643 26:0.010040161 27:0.02811245 28:0.10420842 29:0.010040161 30:0.020080321 31:0.042084168 32:0 33:0.054108216 34:0.010040161 35:0.042084168 36:0.010040161 37:0.008032129 38:0.032064128 39:0 40:0.0080321285 41:0.0060240964 42:0.058116232 43:0.026104418 44:0.0040160643 45:0.018072289 46:0.06613226 47:0.024096386 48:0.006024096 49:0.058116232 50:0.014056225 51:0.016064257 
32768 1:0.0685413 2:0.056338028 3:0.014109347 4:0.051056338 5:0.014109347 6:0.0035273369 7:0.017636684 8:0.07746479 9:0.012345679 10:0.052816901 11:0.012345679 12:0.010582011 13:0.019400353 14:0.010582011 15:0.068661972 16:0.014109347 17:0.017636684 18:0.028218695 19:0.008818342 20:0.084507042 21:0.0335097 22:0.038732394 23:0.0088183422 24:0.051056338 25:0.0088183422 26:0.010582011 27:0.019400353 28:0.07746479 29:0.017636684 30:0.017636684 31:0.059859155 32:0.010582011 33:0.098591549 34:0.02292769 35:0.066901408 36:0.017636684 37:0.0335097 38:0.035211268 39:0.0052910053 40:0.012345679 41:0.012345679 42:0.047535211 43:0.012345679 44:0.012345679 45:0.010582011 46:0.08802817 47:0.021164021 48:0.017636684 49:0.045774648 50:0.015873016 51:0.015873016 
32768 1:0.29166667 2:0.08913649 3:0.030726257 4:0.050139276 5:0.025139665 6:0 7:0.019553073 8:0.05571031 9:0.016759777 10:0.086350975 11:0.016759777 12:0.01396648 13:0.027932961 14:0.027932961 15:0.08356546 16:0.025139665 17:0.01396648 18:0.027932961 19:0.016759777 20:0.033426184 21:0.0055865922 22:0.0055710306 23:0 24:0.058495822 25:0.0027932961 26:0.01396648 27:0.022346369 28:0.05849582 29:0.008379888 30:0.0055865922 31:0.04178273 32:0.0027932961 33:0.061281337 34:0.01396648 35:0.058495822 36:0.011173184 37:0.025139665 38:0.052924791 39:0.011173184 40:0.0055865922 41:0.019553073 42:0.055710306 43:0.025139665 44:0.0027932961 45:0.01396648 46:0.09749304 47:0.025139665 48:0.019553073 49:0.11142061 50:0.022346369 51:0.047486033 
