svm_type c_svc
kernel_type rbf
gamma 0.000488281
nr_class 2
total_sv 7381
rho 3.07169
label 1 -1
probA -2.41591
probB 0.589424
nr_sv 3686 3695
SV
2048 1:0.04587156 2:0.049541284 3:0.047706422 4:0.086238532 5:0.055045872 6:0.060550459 7:0.03853211 8:0.091743119 9:0.071559633 10:222 11:0.40659341 12:0.095412844 
2048 1:0.051470588 2:0.073529412 3:0.085784314 4:0.06372549 5:0.083333333 6:0.066176471 7:0.024509804 8:0.053921569 9:0.071078431 10:255 11:0.62347188 12:0.049019608 
2048 1:0.11363636 2:0.081168831 3:0.045454545 4:0.068181818 5:0.029220779 6:0.042207792 7:0.038961039 8:0.077922078 9:0.032467532 10:126 11:0.40776699 12:0.081168831 
2048 1:0.12033898 2:0.059322034 3:0.052542373 4:0.066101695 5:0.066101695 6:0.06440678 7:0.010169492 8:0.079661017 9:0.047457627 10:303 11:0.51269036 12:0.052542373 
2048 1:0.062953995 2:0.070217918 3:0.046004843 4:0.094430993 5:0.062953995 6:0.062953995 7:0 8:0.082324455 9:0.055690073 10:414 11:1 12:0.055690073 
2048 1:0.011600928 2:0.020881671 3:0.044083527 4:0.039443155 5:0.032482599 6:0.13225058 7:0.14617169 8:0.046403712 9:0.14617169 10:126 11:0.29166667 12:0.18329466 
2048 1:0.05655527 2:0.10796915 3:0.084832905 4:0.066838046 5:0.079691517 6:0.097686375 7:0.0077120823 8:0.043701799 9:0.041131105 10:216 11:0.55384615 12:0.046272494 
2048 1:0.064457831 2:0.090361446 3:0.057831325 4:0.073493976 5:0.072891566 6:0.073493976 7:0.038554217 8:0.061445783 9:0.076506024 10:567 11:0.34136063 12:0.068674699 
2048 1:0.062992126 2:0.059055118 3:0.07480315 4:0.066929134 5:0.090551181 6:0.090551181 7:0.0078740157 8:0.059055118 9:0.05511811 10:111 11:0.43529412 12:0.066929134 
2048 1:0.033932136 2:0.031936128 3:0.05988024 4:0.075848303 5:0.071856287 6:0.10578842 7:0.035928144 8:0.041916168 9:0.10179641 10:334 11:0.66533865 12:0.11976048 
2048 1:0.043814433 2:0.015463918 3:0.051546392 4:0.06185567 5:0.082474227 6:0.15463918 7:0.077319588 8:0.054123711 9:0.11597938 10:156 11:0.40102828 12:0.10824742 
2048 1:0.06504065 2:0.073170732 3:0.069105691 4:0.073170732 5:0.093495935 6:0.089430894 7:0.028455285 8:0.073170732 9:0.06504065 10:225 11:0.91093117 12:0.052845528 
2048 1:0.075 2:0.06 3:0.085 4:0.075 5:0.09 6:0.095 7:0.02 8:0.055 9:0.055 10:177 11:0.88059701 12:0.04 
2048 1:0.026315789 2:0.04887218 3:0.090225564 4:0.056390977 5:0.086466165 6:0.12781955 7:0.084586466 8:0.045112782 9:0.10150376 10:246 11:0.46153846 12:0.093984962 
2048 1:0.040785498 2:0.060422961 3:0.083081571 4:0.064954683 5:0.075528701 6:0.083081571 7:0.039274924 8:0.045317221 9:0.090634441 10:396 11:0.59728507 12:0.080060423 
2048 1:0.041666667 2:0.019067797 3:0.04519774 4:0.068502825 5:0.066384181 6:0.12782486 7:0.056497175 8:0.063559322 9:0.11228814 10:711 11:0.50176429 12:0.10381356 
2048 1:0.072289157 2:0.048192771 3:0.075301205 4:0.10843373 5:0.10240964 6:0.063253012 7:0 8:0.078313253 9:0.054216867 10:93 11:0.27927928 12:0.063253012 
2048 1:0.093406593 2:0.071428571 3:0.068681319 4:0.082417582 5:0.090659341 6:0.06043956 7:0.013736264 8:0.068681319 9:0.057692308 10:39 11:0.10684932 12:0.046703297 
2048 1:0.071641791 2:0.029850746 3:0.047761194 4:0.074626866 5:0.068656716 6:0.074626866 7:0.026865672 8:0.07761194 9:0.080597015 10:66 11:0.19642857 12:0.07761194 
2048 1:0.032876712 2:0.016438356 3:0.060273973 4:0.043835616 5:0.068493151 6:0.093150685 7:0.076712329 8:0.060273973 9:0.11506849 10:194 11:0.53005464 12:0.093150685 
2048 1:0.046875 2:0.069444444 3:0.074652778 4:0.053819444 5:0.060763889 6:0.10069444 7:0.057291667 8:0.060763889 9:0.078125 10:366 11:0.63431542 12:0.0625 
2048 1:0.014678899 2:0.027522936 3:0.095412844 4:0.082568807 5:0.088073394 6:0.1266055 7:0.062385321 8:0.055045872 9:0.089908257 10:126 11:0.23076923 12:0.088073394 
2048 1:0.048640916 2:0.058655222 3:0.060085837 4:0.11015737 5:0.091559371 6:0.068669528 7:0.022889843 8:0.068669528 9:0.081545064 10:366 11:0.52285714 12:0.081545064 
2048 1:0.068965517 2:0.064655172 3:0.068965517 4:0.060344828 5:0.094827586 6:0.094827586 7:0.051724138 8:0.060344828 9:0.081896552 10:51 11:0.21888412 12:0.10775862 
2048 1:0.093949045 2:0.081210191 3:0.052547771 4:0.066878981 5:0.065286624 6:0.063694268 7:0.011146497 8:0.070063694 9:0.049363057 10:525 11:0.83465819 12:0.066878981 
2048 1:0.047146402 2:0.052109181 3:0.086848635 4:0.062034739 5:0.10421836 6:0.076923077 7:0.017369727 8:0.066997519 9:0.066997519 10:228 11:0.56435644 12:0.074441687 
2048 1:0.086956522 2:0.15019763 3:0.067193676 4:0.083003953 5:0.079051383 6:0.035573123 7:0.0039525692 8:0.055335968 9:0.035573123 10:114 11:0.4488189 12:0.035573123 
2048 1:0.083870968 2:0.10806452 3:0.061290323 4:0.091935484 5:0.075806452 6:0.046774194 7:0.0080645161 8:0.05483871 9:0.05 10:321 11:0.51690821 12:0.037096774 
2048 1:0.093406593 2:0.019230769 3:0.035714286 4:0.068681319 5:0.06043956 6:0.085164835 7:0.027472527 8:0.068681319 9:0.07967033 10:138 11:0.37808219 12:0.1043956 
2048 1:0.045146727 2:0.027088036 3:0.056433409 4:0.085778781 5:0.079006772 6:0.13769752 7:0.029345372 8:0.051918736 9:0.06772009 10:18 11:0.040540541 12:0.081264108 
2048 1:0.11793612 2:0.051597052 3:0.041769042 4:0.056511057 5:0.056511057 6:0.036855037 7:0.012285012 8:0.081081081 9:0.036855037 10:210 11:0.51470588 12:0.078624079 
2048 1:0.10333333 2:0.073333333 3:0.066666667 4:0.063333333 5:0.05 6:0.053333333 7:0.036666667 8:0.08 9:0.053333333 10:69 11:0.22923588 12:0.07 
2048 1:0.071641791 2:0.03880597 3:0.044776119 4:0.065671642 5:0.071641791 6:0.11044776 7:0.014925373 8:0.065671642 9:0.059701493 10:36 11:0.10714286 12:0.059701493 
2048 1:0.10084034 2:0.092436975 3:0.075630252 4:0.084033613 5:0.11344538 6:0.058823529 7:0.012605042 8:0.067226891 9:0.06302521 10:72 11:0.30125523 12:0.079831933 
2048 1:0.047619048 2:0.091269841 3:0.077380952 4:0.079365079 5:0.083333333 6:0.06547619 7:0.021825397 8:0.041666667 9:0.049603175 10:351 11:0.6950495 12:0.049603175 
2048 1:0.028017241 2:0.047413793 3:0.092672414 4:0.096982759 5:0.10344828 6:0.07112069 7:0.028017241 8:0.064655172 9:0.068965517 10:204 11:0.43870968 12:0.077586207 
2048 1:0.069534473 2:0.058927519 3:0.066588097 4:0.073070124 5:0.076605775 6:0.084266352 7:0.021803182 8:0.06246317 9:0.067177372 10:627 11:0.36925795 12:0.065998821 
2048 1:0.14705882 2:0.10180995 3:0.052036199 4:0.067873303 5:0.067873303 6:0.036199095 7:0.0045248869 8:0.052036199 9:0.036199095 10:264 11:0.59593679 12:0.040723982 
2048 1:0.041852182 2:0.061442565 3:0.059661621 4:0.081032947 5:0.081032947 6:0.089047195 7:0.030276046 8:0.06411398 9:0.079252004 10:498 11:0.4430605 12:0.076580588 
2048 1:0.12096774 2:0.064516129 3:0.067204301 4:0.056451613 5:0.056451613 6:0.029569892 7:0.032258065 8:0.094086022 9:0.034946237 10:228 11:0.61126005 12:0.056451613 
2048 1:0.11504425 2:0.026548673 3:0.05899705 4:0.05899705 5:0.05899705 6:0.073746313 7:0.044247788 8:0.08259587 9:0.067846608 10:141 11:0.41470588 12:0.067846608 
2048 1:0.084536624 2:0.054082436 3:0.056707797 4:0.07876083 5:0.061958519 6:0.071672355 7:0.023103177 8:0.07403518 9:0.061170911 10:1944 11:0.51023622 12:0.061433447 
2048 1:0.08988764 2:0.050561798 3:0.039325843 4:0.08988764 5:0.064606742 6:0.058988764 7:0.014044944 8:0.08988764 9:0.073033708 10:98 11:0.2745098 12:0.092696629 
2048 1:0.0703125 2:0.046875 3:0.049479167 4:0.080729167 5:0.0625 6:0.0859375 7:0.052083333 8:0.088541667 9:0.078125 10:72 11:0.18701299 12:0.0625 
2048 1:0.043604651 2:0.075581395 3:0.061046512 4:0.093023256 5:0.075581395 6:0.075581395 7:0.040697674 8:0.072674419 9:0.081395349 10:195 11:0.56521739 12:0.066860465 
2048 1:0.07424072 2:0.046119235 3:0.042744657 4:0.07424072 5:0.061867267 6:0.062992126 7:0.032620922 8:0.075365579 9:0.065241845 10:447 11:0.50224719 12:0.086614173 
2048 1:0.027855153 2:0.041225627 3:0.054038997 4:0.066852368 5:0.067966574 6:0.095821727 7:0.04178273 8:0.070194986 9:0.089693593 10:543 11:0.30233853 12:0.13704735 
2048 1:0.096828047 2:0.051752922 3:0.066777963 4:0.080133556 5:0.068447412 6:0.053422371 7:0.026711185 8:0.080133556 9:0.05509182 10:600 11:1 12:0.041736227 
2048 1:0.068281938 2:0.046255507 3:0.050660793 4:0.070484581 5:0.057268722 6:0.10132159 7:0.055066079 8:0.085903084 9:0.079295154 10:150 11:0.32967033 12:0.12995595 
2048 1:0.074349442 2:0.079925651 3:0.057620818 4:0.06133829 5:0.059479554 6:0.057620818 7:0.024163569 8:0.072490706 9:0.053903346 10:282 11:0.52319109 12:0.063197026 
2048 1:0.14178755 2:0.082826392 3:0.050538138 4:0.066448292 5:0.055217595 6:0.0491343 7:0.0098268601 8:0.082358446 9:0.029012635 10:867 11:0.40551918 12:0.038371549 
2048 1:0.10909091 2:0.040909091 3:0.056818182 4:0.070454545 5:0.075 6:0.11136364 7:0.036363636 8:0.068181818 9:0.068181818 10:240 11:0.54421769 12:0.077272727 
2048 1:0.027809965 2:0.091541136 3:0.086906141 4:0.077636153 5:0.11123986 6:0.1193511 7:0.022016222 8:0.048667439 9:0.067207416 10:622 11:0.71990741 12:0.059096176 
2048 1:0.068796069 2:0.095823096 3:0.063882064 4:0.088452088 5:0.061425061 6:0.039312039 7:0.0073710074 8:0.081081081 9:0.034398034 10:189 11:0.46323529 12:0.027027027 
2048 1:0.10629921 2:0.059055118 3:0.1023622 4:0.039370079 5:0.066929134 6:0.078740157 7:0.023622047 8:0.059055118 9:0.043307087 10:216 11:0.84705882 12:0.051181102 
2048 1:0.052930057 2:0.052930057 3:0.064272212 4:0.060018904 5:0.077504726 6:0.11389414 7:0.063327032 8:0.061436673 9:0.09026465 10:813 11:0.38403401 12:0.099716446 
2048 1:0.099861304 2:0.066574202 3:0.06518724 4:0.083217753 5:0.067961165 6:0.042995839 7:0.013869626 8:0.092926491 9:0.048543689 10:399 11:0.55263158 12:0.07073509 
2048 1:0.062730627 2:0.0073800738 3:0.04797048 4:0.051660517 5:0.04797048 6:0.099630996 7:0.070110701 8:0.062730627 9:0.10701107 10:183 11:0.67279412 12:0.1697417 
2048 1:0.12295082 2:0.067299396 3:0.055220017 4:0.071182053 5:0.060396894 6:0.051768766 7:0.011216566 8:0.080241588 9:0.029335634 10:1045 11:0.45062527 12:0.040120794 
2048 1:0.072368421 2:0.032894737 3:0.085526316 4:0.046052632 5:0.085526316 6:0.092105263 7:0.0625 8:0.065789474 9:0.078947368 10:221 11:0.72459016 12:0.088815789 
2048 1:0.059405941 2:0.084158416 3:0.062706271 4:0.066006601 5:0.089108911 6:0.092409241 7:0.03630363 8:0.057755776 9:0.070957096 10:324 11:0.53377265 12:0.094059406 
2048 1:0.13687151 2:0.036312849 3:0.033519553 4:0.058659218 5:0.05027933 6:0.067039106 7:0.044692737 8:0.10055866 9:0.058659218 10:105 11:0.29247911 12:0.055865922 
2048 1:0.06561086 2:0.040723982 3:0.049773756 4:0.070135747 5:0.056561086 6:0.067873303 7:0.036199095 8:0.099547511 9:0.056561086 10:162 11:0.36568849 12:0.085972851 
2048 1:0.064 2:0.048 3:0.072 4:0.104 5:0.08 6:0.076 7:0.024 8:0.08 9:0.024 10:132 11:0.52589641 12:0.04 
2048 1:0.12550607 2:0.048582996 3:0.052631579 4:0.093117409 5:0.060728745 6:0.044534413 7:0.008097166 8:0.089068826 9:0.050607287 10:378 11:0.76363636 12:0.044534413 
2048 1:0.1254902 2:0.10196078 3:0.047058824 4:0.070588235 5:0.050980392 6:0.035294118 7:0.011764706 8:0.070588235 9:0.047058824 10:159 11:0.62109375 12:0.058823529 
2048 1:0.11055276 2:0.015075377 3:0.060301508 4:0.050251256 5:0.070351759 6:0.065326633 7:0.020100503 8:0.055276382 9:0.045226131 10:81 11:0.405 12:0.075376884 
2048 1:0.075757576 2:0.079545455 3:0.085227273 4:0.075757576 5:0.075757576 6:0.058712121 7:0.018939394 8:0.077651515 9:0.039772727 10:441 11:0.83364839 12:0.068181818 
2048 1:0.050359712 2:0.021582734 3:0.068345324 4:0.071942446 5:0.086330935 6:0.097122302 7:0.032374101 8:0.068345324 9:0.079136691 10:108 11:0.38709677 12:0.11510791 
2048 1:0.03853211 2:0.031192661 3:0.049541284 4:0.075229358 5:0.073394495 6:0.12477064 7:0.049541284 8:0.066055046 9:0.10275229 10:247 11:0.45238095 12:0.10642202 
2048 1:0.077680525 2:0.060175055 3:0.067833698 4:0.072210066 5:0.071115974 6:0.06892779 7:0.019693654 8:0.070021882 9:0.047045952 10:426 11:0.46557377 12:0.073304158 
2048 1:0.066473988 2:0.052023121 3:0.075144509 4:0.072254335 5:0.089595376 6:0.078034682 7:0.028901734 8:0.063583815 9:0.060693642 10:103 11:0.29682997 12:0.052023121 
2048 1:0.035087719 2:0.082706767 3:0.072681704 4:0.082706767 5:0.096491228 6:0.080200501 7:0.031328321 8:0.052631579 9:0.078947368 10:408 11:0.5106383 12:0.088972431 
2048 1:0.044088176 2:0.0501002 3:0.0501002 4:0.064128257 5:0.074148297 6:0.076152305 7:0.038076152 8:0.082164329 9:0.082164329 10:216 11:0.432 12:0.11823647 
2048 1:0.059471366 2:0.068281938 3:0.060572687 4:0.077092511 5:0.056167401 6:0.073788546 7:0.050660793 8:0.070484581 9:0.058370044 10:474 11:0.52145215 12:0.092511013 
2048 1:0.059440559 2:0.020979021 3:0.038461538 4:0.059440559 5:0.048951049 6:0.062937063 7:0.041958042 8:0.097902098 9:0.094405594 10:240 11:0.83623693 12:0.1013986 
2048 1:0.10681115 2:0.069659443 3:0.057275542 4:0.075851393 5:0.07120743 6:0.043343653 7:0.0046439628 8:0.075851393 9:0.043343653 10:369 11:0.57032457 12:0.061919505 
2048 1:0.14716981 2:0.052830189 3:0.033962264 4:0.064150943 5:0.056603774 6:0.064150943 7:0.01509434 8:0.1245283 9:0.037735849 10:69 11:0.2593985 12:0.075471698 
2048 1:0.14469453 2:0.048231511 3:0.048231511 4:0.083601286 5:0.077170418 6:0.057877814 7:0.0064308682 8:0.051446945 9:0.057877814 10:176 11:0.56410256 12:0.057877814 
2048 1:0.046218487 2:0.029411765 3:0.077731092 4:0.06302521 5:0.088235294 6:0.11134454 7:0.056722689 8:0.056722689 9:0.086134454 10:93 11:0.19496855 12:0.081932773 
2048 1:0.049360146 2:0.047531993 3:0.038391225 4:0.096892139 5:0.078610603 6:0.095063985 7:0.031078611 8:0.08226691 9:0.073126143 10:407 11:0.74270073 12:0.096892139 
2048 1:0.079575597 2:0.031830239 3:0.061007958 4:0.063660477 5:0.068965517 6:0.079575597 7:0.023872679 8:0.084880637 9:0.061007958 10:156 11:0.41269841 12:0.079575597 
2048 1:0.061983471 2:0.031680441 3:0.060606061 4:0.073002755 5:0.081267218 6:0.10055096 7:0.011019284 8:0.063360882 9:0.084022039 10:498 11:0.68500688 12:0.085399449 
2048 1:0.098092643 2:0.073569482 3:0.0626703 4:0.0626703 5:0.0626703 6:0.054495913 7:0.0081743869 8:0.10354223 9:0.029972752 10:138 11:0.375 12:0.046321526 
2048 1:0.04496788 2:0.025695931 3:0.055674518 4:0.055674518 5:0.059957173 6:0.094218415 7:0.092077088 8:0.094218415 9:0.11563169 10:320 11:0.68376068 12:0.10706638 
2048 1:0.10282776 2:0.066838046 3:0.048843188 4:0.074550129 5:0.033419023 6:0.030848329 7:0.030848329 8:0.038560411 9:0.061696658 10:247 11:0.63333333 12:0.12339332 
2048 1:0.088235294 2:0.051470588 3:0.073529412 4:0.0625 5:0.0625 6:0.080882353 7:0.036764706 8:0.051470588 9:0.066176471 10:98 11:0.35897436 12:0.077205882 
2048 1:0.063694268 2:0.0095541401 3:0.020700637 4:0.062101911 5:0.036624204 6:0.078025478 7:0.058917197 8:0.10509554 9:0.10031847 10:251 11:0.3990461 12:0.093949045 
2048 1:0.090804598 2:0.047701149 3:0.061494253 4:0.077586207 5:0.060344828 6:0.057471264 7:0.018390805 8:0.082183908 9:0.051149425 10:1158 11:0.66513498 12:0.064367816 
2048 1:0.070850202 2:0.064777328 3:0.076923077 4:0.074898785 5:0.08097166 6:0.076923077 7:0.020242915 8:0.070850202 9:0.062753036 10:301 11:0.60808081 12:0.052631579 
2048 1:0.020930233 2:0.03255814 3:0.08372093 4:0.062790698 5:0.086046512 6:0.076744186 7:0.048837209 8:0.069767442 9:0.086046512 10:174 11:0.4037123 12:0.095348837 
2048 1:0.06122449 2:0.036734694 3:0.055102041 4:0.075510204 5:0.07755102 6:0.071428571 7:0.02244898 8:0.093877551 9:0.065306122 10:240 11:0.48879837 12:0.13061224 
2048 1:0.042929293 2:0.032828283 3:0.047979798 4:0.070707071 5:0.065656566 6:0.070707071 7:0.042929293 8:0.083333333 9:0.098484848 10:168 11:0.4231738 12:0.093434343 
2048 1:0.048192771 2:0.012048193 3:0.04302926 4:0.060240964 5:0.065404475 6:0.092943201 7:0.061962134 8:0.084337349 9:0.098106713 10:48 11:0.082474227 12:0.11876076 
2048 1:0.070052539 2:0.033274956 3:0.068301226 4:0.064798599 5:0.073555166 6:0.092819615 7:0.026269702 8:0.066549912 9:0.078809107 10:339 11:0.59265734 12:0.082311734 
2048 1:0.064814815 2:0.064814815 3:0.052469136 4:0.092592593 5:0.089506173 6:0.058641975 7:0.015432099 8:0.083333333 9:0.067901235 10:137 11:0.42153846 12:0.095679012 
2048 1:0.16923077 2:0.046153846 3:0.043589744 4:0.082051282 5:0.069230769 6:0.043589744 7:0.01025641 8:0.1 9:0.033333333 10:228 11:0.5831202 12:0.025641026 
2048 1:0.03362256 2:0.037960954 3:0.053145336 4:0.043383948 5:0.05856833 6:0.14316703 7:0.11062907 8:0.050976139 9:0.13015184 10:648 11:0.7020585 12:0.11388286 
853.1275654576938 1:0.099637681 2:0.043478261 3:0.052536232 4:0.067028986 5:0.074275362 6:0.076086957 7:0.027173913 8:0.063405797 9:0.09057971 10:279 11:0.5045208 12:0.061594203 
2048 1:0.034324943 2:0.035469108 3:0.053775744 4:0.074370709 5:0.065217391 6:0.1590389 7:0.040045767 8:0.059496568 9:0.075514874 10:660 11:0.75428571 12:0.11899314 
2048 1:0.032090199 2:0.024284475 3:0.06764961 4:0.083261058 5:0.09366869 6:0.13356461 7:0.015611448 8:0.048568951 9:0.084128361 10:939 11:0.81369151 12:0.09019948 
2048 1:0.10779817 2:0.038990826 3:0.043577982 4:0.068807339 5:0.055045872 6:0.080275229 7:0.0068807339 8:0.084862385 9:0.059633028 10:201 11:0.45995423 12:0.032110092 
2048 1:0.1119403 2:0.072139303 3:0.058457711 4:0.074626866 5:0.044776119 6:0.032338308 7:0.016169154 8:0.084577114 9:0.0460199 10:565 11:0.70186335 12:0.0460199 
2048 1:0.125 2:0.030405405 3:0.050675676 4:0.054054054 5:0.047297297 6:0.033783784 7:0.02027027 8:0.081081081 9:0.057432432 10:111 11:0.37373737 12:0.067567568 
2048 1:0.077777778 2:0.036111111 3:0.077777778 4:0.080555556 5:0.077777778 6:0.05 7:0.011111111 8:0.066666667 9:0.052777778 10:216 11:0.59833795 12:0.061111111 
2048 1:0.083333333 2:0.068965517 3:0.051724138 4:0.086206897 5:0.08045977 6:0.048850575 7:0.020114943 8:0.074712644 9:0.074712644 10:285 11:0.81661891 12:0.07183908 
2048 1:0.045537341 2:0.051001821 3:0.078324226 4:0.069216758 5:0.089253188 6:0.12568306 7:0.023679417 8:0.067395264 9:0.071038251 10:297 11:0.54 12:0.080145719 
2048 1:0.094170404 2:0.049327354 3:0.040358744 4:0.089686099 5:0.085201794 6:0.044843049 7:0.0089686099 8:0.085201794 9:0.080717489 10:159 11:0.70982143 12:0.089686099 
2048 1:0.081570997 2:0.057401813 3:0.066465257 4:0.087613293 5:0.090634441 6:0.072507553 7:0.012084592 8:0.072507553 9:0.060422961 10:87 11:0.26204819 12:0.036253776 
2048 1:0.092250923 2:0.05904059 3:0.070110701 4:0.092250923 5:0.077490775 6:0.036900369 7:0 8:0.088560886 9:0.018450185 10:111 11:0.40808824 12:0.04797048 
2048 1:0.059496568 2:0.061784897 3:0.052631579 4:0.061784897 5:0.057208238 6:0.084668192 7:0.064073227 8:0.073226545 9:0.10297483 10:54 11:0.12328767 12:0.082379863 
2048 1:0.050505051 2:0.055555556 3:0.058080808 4:0.068181818 5:0.070707071 6:0.10606061 7:0.047979798 8:0.065656566 9:0.065656566 10:180 11:0.4534005 12:0.085858586 
239.1530165252958 1:0.055793991 2:0.040772532 3:0.055793991 4:0.057939914 5:0.087982833 6:0.16309013 7:0.049356223 8:0.064377682 9:0.092274678 10:150 11:0.32119914 12:0.087982833 
2048 1:0.11286089 2:0.057742782 3:0.031496063 4:0.086614173 5:0.05511811 6:0.052493438 7:0.020997375 8:0.094488189 9:0.060367454 10:216 11:0.56544503 12:0.034120735 
2048 1:0.083798883 2:0.061452514 3:0.067039106 4:0.078212291 5:0.06424581 6:0.069832402 7:0.016759777 8:0.075418994 9:0.047486034 10:183 11:0.5097493 12:0.069832402 
2048 1:0.11239193 2:0.074927954 3:0.028818444 4:0.095100865 5:0.057636888 6:0.031700288 7:0.0057636888 8:0.12391931 9:0.037463977 10:132 11:0.37931034 12:0.028818444 
2048 1:0.068389058 2:0.03343465 3:0.060030395 4:0.072948328 5:0.081306991 6:0.1162614 7:0.020516717 8:0.064589666 9:0.071428571 10:690 11:0.523918 12:0.088145897 
2048 1:0.053140097 2:0.026570048 3:0.070048309 4:0.077294686 5:0.077294686 6:0.074879227 7:0.028985507 8:0.072463768 9:0.06763285 10:210 11:0.5060241 12:0.072463768 
2048 1:0.091503268 2:0.045751634 3:0.052287582 4:0.088235294 5:0.088235294 6:0.058823529 7:0.032679739 8:0.10130719 9:0.055555556 10:188 11:0.61237785 12:0.078431373 
2048 1:0.051162791 2:0.055813953 3:0.060465116 4:0.079069767 5:0.069767442 6:0.074418605 7:0 8:0.088372093 9:0.051162791 10:132 11:0.61111111 12:0.11162791 
2048 1:0.041176471 2:0.074509804 3:0.049019608 4:0.07254902 5:0.066666667 6:0.060784314 7:0.035294118 8:0.064705882 9:0.076470588 10:315 11:0.61643836 12:0.1 
2048 1:0.090128755 2:0.12875536 3:0.08583691 4:0.072961373 5:0.08583691 6:0.021459227 7:0.012875536 8:0.090128755 9:0.038626609 10:33 11:0.14102564 12:0.038626609 
2048 1:0.062084257 2:0.070953437 3:0.084257206 4:0.084257206 5:0.084257206 6:0.10421286 7:0.0044345898 8:0.066518847 9:0.046563193 10:303 11:0.67035398 12:0.059866962 
2048 1:0.050847458 2:0.064971751 3:0.056497175 4:0.076271186 5:0.053672316 6:0.079096045 7:0.02259887 8:0.079096045 9:0.073446328 10:138 11:0.38873239 12:0.070621469 
2048 1:0.052910053 2:0.021164021 3:0.047619048 4:0.058201058 5:0.061728395 6:0.097001764 7:0.0335097 8:0.10229277 9:0.086419753 10:300 11:0.52816901 12:0.075837743 
2048 1:0.034591195 2:0.059748428 3:0.072327044 4:0.083333333 5:0.094339623 6:0.10849057 7:0.023584906 8:0.051886792 9:0.078616352 10:444 11:0.69701727 12:0.056603774 
2048 1:0.076363636 2:0.050909091 3:0.061818182 4:0.083636364 5:0.083636364 6:0.08 7:0.0072727273 8:0.090909091 9:0.047272727 10:87 11:0.31521739 12:0.087272727 
2048 1:0.061349693 2:0.063394683 3:0.061349693 4:0.075664622 5:0.08793456 6:0.073619632 7:0.020449898 8:0.08997955 9:0.065439673 10:309 11:0.63061224 12:0.09406953 
2048 1:0.094262295 2:0.05942623 3:0.051229508 4:0.069672131 5:0.053278689 6:0.043032787 7:0.049180328 8:0.075819672 9:0.081967213 10:405 11:0.82822086 12:0.079918033 
2048 1:0.06 2:0.093333333 3:0.053333333 4:0.083333333 5:0.063333333 6:0.05 7:0.046666667 8:0.076666667 9:0.056666667 10:39 11:0.12956811 12:0.056666667 
2048 1:0.077134986 2:0.035812672 3:0.052341598 4:0.082644628 5:0.082644628 6:0.071625344 7:0.011019284 8:0.082644628 9:0.071625344 10:206 11:0.56593407 12:0.096418733 
2048 1:0.19041614 2:0.056746532 3:0.039092055 4:0.068095839 5:0.044136192 6:0.017654477 7:0.013871375 8:0.110971 9:0.022698613 10:647 11:0.81486146 12:0.026481715 
2048 1:0.047263682 2:0.042288557 3:0.074626866 4:0.1119403 5:0.094527363 6:0.092039801 7:0.017412935 8:0.077114428 9:0.072139303 10:78 11:0.19354839 12:0.069651741 
2048 1:0.033333333 2:0.012820513 3:0.020512821 4:0.066666667 5:0.056410256 6:0.030769231 7:0.069230769 8:0.10769231 9:0.14871795 10:134 11:0.342711 12:0.12307692 
2048 1:0.026923077 2:0.025 3:0.059615385 4:0.088461538 5:0.082692308 6:0.076923077 7:0.034615385 8:0.090384615 9:0.073076923 10:234 11:0.44913628 12:0.13269231 
2048 1:0.058823529 2:0.072192513 3:0.058823529 4:0.077540107 5:0.098930481 6:0.07486631 7:0.029411765 8:0.040106952 9:0.07486631 10:135 11:0.36 12:0.090909091 
2048 1:0.097633136 2:0.1183432 3:0.068047337 4:0.073964497 5:0.065088757 6:0.023668639 7:0.0059171598 8:0.079881657 9:0.026627219 10:171 11:0.50442478 12:0.038461538 
2048 1:0.10954064 2:0.11660777 3:0.067137809 4:0.070671378 5:0.088339223 6:0.06360424 7:0.0035335689 8:0.038869258 9:0.03180212 10:159 11:0.55985915 12:0.021201413 
1595.461252230699 1:0.06992164 2:0.056660639 3:0.061784207 4:0.06570223 5:0.069318867 6:0.098251959 7:0.036769138 8:0.059975889 9:0.068113321 10:936 11:0.28201265 12:0.080168776 
2048 1:0.030805687 2:0.059241706 3:0.075829384 4:0.05450237 5:0.066350711 6:0.1042654 7:0.085308057 8:0.05450237 9:0.10189573 10:288 11:0.68085106 12:0.14218009 
2048 1:0.1043771 2:0.04040404 3:0.069023569 4:0.055555556 5:0.074074074 6:0.070707071 7:0.016835017 8:0.087542088 9:0.055555556 10:327 11:0.54957983 12:0.069023569 
2048 1:0.08490566 2:0.063679245 3:0.08490566 4:0.08490566 5:0.10377358 6:0.063679245 7:0.0023584906 8:0.073113208 9:0.044811321 10:217 11:0.51058824 12:0.037735849 
2048 1:0.074766355 2:0.056074766 3:0.079439252 4:0.10747664 5:0.088785047 6:0.046728972 7:0.0046728972 8:0.060747664 9:0.056074766 10:39 11:0.18139535 12:0.051401869 
2048 1:0.074712644 2:0.074712644 3:0.048850575 4:0.11494253 5:0.068965517 6:0.025862069 7:0.0057471264 8:0.08908046 9:0.045977011 10:174 11:0.49856734 12:0.066091954 
2048 1:0.082733813 2:0.079650565 3:0.040596095 4:0.1012333 5:0.052415211 6:0.047276465 7:0.015416238 8:0.076053443 9:0.042137718 10:1887 11:0.96918336 12:0.060637205 
2048 1:0.089519651 2:0.06768559 3:0.050218341 4:0.089519651 5:0.058951965 6:0.061135371 7:0.017467249 8:0.089519651 9:0.054585153 10:255 11:0.55555556 12:0.06768559 
2048 1:0.073426573 2:0.085664336 3:0.078671329 4:0.092657343 5:0.11013986 6:0.08041958 7:0.006993007 8:0.062937063 9:0.057692308 10:354 11:0.61780105 12:0.059440559 
2048 1:0.10980392 2:0.050980392 3:0.047058824 4:0.070588235 5:0.035294118 6:0.078431373 7:0.0039215686 8:0.058823529 9:0.039215686 10:184 11:0.71875 12:0.070588235 
2048 1:0.061511424 2:0.040421793 3:0.049209139 4:0.080843585 5:0.052724077 6:0.096660808 7:0.057996485 8:0.068541301 9:0.082601054 10:273 11:0.47894737 12:0.10193322 
2048 1:0.070783133 2:0.03313253 3:0.042168675 4:0.079819277 5:0.067771084 6:0.11746988 7:0.034638554 8:0.070783133 9:0.084337349 10:318 11:0.47819549 12:0.088855422 
2048 1:0.082666667 2:0.045333333 3:0.042666667 4:0.096 5:0.050666667 6:0.048 7:0.0026666667 8:0.10933333 9:0.037333333 10:195 11:0.51861702 12:0.077333333 
2048 1:0.029644269 2:0.037549407 3:0.071146245 4:0.098814229 5:0.11462451 6:0.081027668 7:0.013833992 8:0.067193676 9:0.081027668 10:261 11:0.5147929 12:0.081027668 
2048 1:0.056053812 2:0.024663677 3:0.049327354 4:0.058295964 5:0.067264574 6:0.10089686 7:0.060538117 8:0.089686099 9:0.087443946 10:165 11:0.36912752 12:0.10313901 
2048 1:0.085443038 2:0.063291139 3:0.079113924 4:0.10759494 5:0.094936709 6:0.053797468 7:0.022151899 8:0.079113924 9:0.047468354 10:126 11:0.39747634 12:0.056962025 
2048 1:0.027105518 2:0.063891578 3:0.0803485 4:0.065827686 5:0.085188771 6:0.1142304 7:0.062923524 8:0.042594385 9:0.090997096 10:831 11:0.80367505 12:0.11907067 
2048 1:0.020114943 2:0.025862069 3:0.068965517 4:0.10344828 5:0.094827586 6:0.13505747 7:0.037356322 8:0.043103448 9:0.086206897 10:297 11:0.85100287 12:0.1091954 
2048 1:0.1056338 2:0.056338028 3:0.052816901 4:0.080985915 5:0.088028169 6:0.059859155 7:0.028169014 8:0.066901408 9:0.059859155 10:69 11:0.24210526 12:0.073943662 
2048 1:0.091286307 2:0.066390041 3:0.070539419 4:0.053941909 5:0.078838174 6:0.062240664 7:0.012448133 8:0.074688797 9:0.041493776 10:60 11:0.24793388 12:0.10373444 
2048 1:0.036789298 2:0.043478261 3:0.063545151 4:0.066889632 5:0.10033445 6:0.16053512 7:0.02006689 8:0.076923077 9:0.053511706 10:189 11:0.63 12:0.060200669 
2048 1:0.15959821 2:0.059151786 3:0.050223214 4:0.0859375 5:0.051339286 6:0.021205357 7:0.0055803571 8:0.091517857 9:0.034598214 10:897 11:1 12:0.030133929 
2048 1:0.1 2:0.096875 3:0.05625 4:0.084375 5:0.075 6:0.071875 7:0.009375 8:0.065625 9:0.053125 10:207 11:0.64485981 12:0.053125 
2048 1:0.16010499 2:0.05511811 3:0.065616798 4:0.06824147 5:0.06824147 6:0.028871391 7:0.01312336 8:0.081364829 9:0.044619423 10:243 11:0.63612565 12:0.034120735 
2048 1:0.12990937 2:0.063444109 3:0.051359517 4:0.069486405 5:0.069486405 6:0.048338369 7:0.003021148 8:0.060422961 9:0.039274924 10:141 11:0.4246988 12:0.048338369 
2048 1:0.032692308 2:0.023076923 3:0.059615385 4:0.051923077 5:0.059615385 6:0.14230769 7:0.086538462 8:0.075 9:0.10769231 10:405 11:0.77735125 12:0.10961538 
2048 1:0.066666667 2:0.05 3:0.046666667 4:0.086666667 5:0.07 6:0.046666667 7:0.0066666667 8:0.06 9:0.086666667 10:54 11:0.17940199 12:0.096666667 
2048 1:0.067567568 2:0.04954955 3:0.045045045 4:0.094594595 5:0.076576577 6:0.085585586 7:0.018018018 8:0.085585586 9:0.067567568 10:66 11:0.29596413 12:0.072072072 
2048 1:0.12562814 2:0.075376884 3:0.065326633 4:0.070351759 5:0.087939698 6:0.065326633 7:0.0050251256 8:0.060301508 9:0.045226131 10:285 11:0.71428571 12:0.050251256 
2048 1:0.075471698 2:0.075471698 3:0.075471698 4:0.086253369 5:0.083557951 6:0.059299191 7:0.013477089 8:0.059299191 9:0.043126685 10:198 11:0.53225806 12:0.026954178 
2048 1:0.07518797 2:0.052631579 3:0.050125313 4:0.077694236 5:0.070175439 6:0.072681704 7:0.030075188 8:0.080200501 9:0.07518797 10:156 11:0.39 12:0.062656642 
2048 1:0.07852194 2:0.036951501 3:0.050808314 4:0.053117783 5:0.073903002 6:0.13856813 7:0.03926097 8:0.064665127 9:0.069284065 10:235 11:0.54147465 12:0.11778291 
2048 1:0.082152975 2:0.025495751 3:0.059490085 4:0.082152975 5:0.073654391 6:0.07082153 7:0.016997167 8:0.099150142 9:0.056657224 10:111 11:0.31355932 12:0.11331445 
2048 1:0.051666667 2:0.053333333 3:0.068333333 4:0.088333333 5:0.076666667 6:0.12333333 7:0.018333333 8:0.063333333 9:0.065 10:353 11:0.58735441 12:0.071666667 
2048 1:0.017004578 2:0.030085023 3:0.066056246 4:0.047743623 5:0.084368869 6:0.14192283 7:0.08763898 8:0.060824068 9:0.11706998 10:756 11:0.49411765 12:0.14388489 
2048 1:0.03253012 2:0.03253012 3:0.063855422 4:0.069879518 5:0.072289157 6:0.11927711 7:0.062650602 8:0.073493976 9:0.10120482 10:723 11:0.8700361 12:0.11686747 
2048 1:0.086792453 2:0.033962264 3:0.049056604 4:0.079245283 5:0.056603774 6:0.083018868 7:0.01509434 8:0.10188679 9:0.041509434 10:127 11:0.47744361 12:0.052830189 
2048 1:0.089473684 2:0.057894737 3:0.044736842 4:0.073684211 5:0.081578947 6:0.073684211 7:0.0052631579 8:0.089473684 9:0.044736842 10:186 11:0.48818898 12:0.060526316 
2048 1:0.071661238 2:0.045602606 3:0.052117264 4:0.071661238 5:0.045602606 6:0.048859935 7:0.045602606 8:0.10423453 9:0.039087948 10:87 11:0.28246753 12:0.081433225 
2048 1:0.10147059 2:0.073529412 3:0.067647059 4:0.076470588 5:0.067647059 6:0.041176471 7:0.017647059 8:0.082352941 9:0.052941176 10:359 11:0.52716593 12:0.067647059 
2048 1:0.10917031 2:0.043668122 3:0.061135371 4:0.087336245 5:0.07860262 6:0.065502183 7:0.017467249 8:0.069868996 9:0.056768559 10:75 11:0.32608696 12:0.082969432 
2048 1:0.088 2:0.068 3:0.056 4:0.076 5:0.072 6:0.068 7:0.012 8:0.096 9:0.04 10:31 11:0.12350598 12:0.072 
2048 1:0.063636364 2:0.068181818 3:0.059090909 4:0.097727273 5:0.063636364 6:0.05 7:0.022727273 8:0.075 9:0.052272727 10:189 11:0.42857143 12:0.079545455 
2048 1:0.092224231 2:0.061482821 3:0.056057866 4:0.090415913 5:0.061482821 6:0.047016275 7:0.01084991 8:0.09403255 9:0.061482821 10:303 11:0.54693141 12:0.057866184 
2048 1:0.045627376 2:0.040557668 3:0.051964512 4:0.057034221 5:0.069708492 6:0.10519645 7:0.063371356 8:0.067173638 9:0.096324461 10:393 11:0.49746835 12:0.10646388 
2048 1:0.073510773 2:0.064638783 3:0.06590621 4:0.078580482 5:0.079847909 6:0.08365019 7:0.012674271 8:0.073510773 9:0.048162231 10:420 11:0.53164557 12:0.06590621 
2048 1:0.086746988 2:0.079518072 3:0.062650602 4:0.086746988 5:0.079518072 6:0.055421687 7:0.0072289157 8:0.081927711 9:0.040963855 10:207 11:0.49759615 12:0.065060241 
2048 1:0.12315271 2:0.10837438 3:0.049261084 4:0.078817734 5:0.0591133 6:0.019704433 7:0.0098522167 8:0.083743842 9:0.044334975 10:87 11:0.42647059 12:0.054187192 
2048 1:0.11347518 2:0.080378251 3:0.066193853 4:0.085106383 5:0.082742317 6:0.061465721 7:0.0094562648 8:0.075650118 9:0.037825059 10:246 11:0.58018868 12:0.056737589 
2048 1:0.07554672 2:0.03777336 3:0.045725646 4:0.071570577 5:0.059642147 6:0.099403579 7:0.061630219 8:0.073558648 9:0.10536779 10:210 11:0.41666667 12:0.10337972 
2048 1:0.10436893 2:0.026699029 3:0.048543689 4:0.077669903 5:0.063106796 6:0.050970874 7:0.024271845 8:0.10194175 9:0.048543689 10:171 11:0.41404358 12:0.07038835 
2048 1:0.028520499 2:0.039215686 3:0.062388592 4:0.083778966 5:0.083778966 6:0.092691622 7:0.064171123 8:0.058823529 9:0.1087344 10:279 11:0.49644128 12:0.085561497 
2048 1:0.05707196 2:0.032258065 3:0.062034739 4:0.076923077 5:0.081885856 6:0.10669975 7:0.027295285 8:0.069478908 9:0.079404467 10:123 11:0.30445545 12:0.084367246 
2048 1:0.059701493 2:0.057569296 3:0.063965885 4:0.081023454 5:0.059701493 6:0.093816631 7:0.012793177 8:0.078891258 9:0.057569296 10:249 11:0.52978723 12:0.093816631 
2048 1:0.058823529 2:0.054766734 3:0.058823529 4:0.093306288 5:0.10141988 6:0.079107505 7:0.018255578 8:0.064908722 9:0.087221095 10:345 11:0.69838057 12:0.068965517 
2048 1:0.053254438 2:0.049309665 3:0.072978304 4:0.084812623 5:0.076923077 6:0.090729783 7:0.051282051 8:0.07495069 9:0.069033531 10:222 11:0.43700787 12:0.071005917 
2048 1:0.060606061 2:0.03030303 3:0.022727273 4:0.087121212 5:0.068181818 6:0.10227273 7:0.034090909 8:0.10984848 9:0.079545455 10:27 11:0.10188679 12:0.125 
2048 1:0.054545455 2:0.063636364 3:0.084848485 4:0.081818182 5:0.087878788 6:0.054545455 7:0.036363636 8:0.072727273 9:0.078787879 10:132 11:0.39879154 12:0.072727273 
2048 1:0.033628319 2:0.019469027 3:0.060176991 4:0.077876106 5:0.079646018 6:0.10088496 7:0.03539823 8:0.079646018 9:0.079646018 10:405 11:0.7155477 12:0.12035398 
2048 1:0.057377049 2:0.043325527 3:0.056206089 4:0.073770492 5:0.081967213 6:0.11358314 7:0.015222482 8:0.06206089 9:0.080796253 10:459 11:0.53684211 12:0.098360656 
2048 1:0.085308057 2:0.033175355 3:0.026066351 4:0.061611374 5:0.047393365 6:0.071090047 7:0.073459716 8:0.090047393 9:0.10189573 10:52 11:0.12293144 12:0.099526066 
2048 1:0.10344828 2:0.086206897 3:0.056034483 4:0.081896552 5:0.058189655 6:0.023706897 7:0.0043103448 8:0.07112069 9:0.036637931 10:252 11:0.54193548 12:0.0625 
2048 1:0.091911765 2:0.080882353 3:0.058823529 4:0.088235294 5:0.069852941 6:0.073529412 7:0.014705882 8:0.080882353 9:0.033088235 10:108 11:0.3956044 12:0.051470588 
2048 1:0.069602273 2:0.056818182 3:0.058238636 4:0.068181818 5:0.0625 6:0.10227273 7:0.017045455 8:0.061079545 9:0.071022727 10:528 11:0.74893617 12:0.072443182 
2048 1:0.083989501 2:0.10761155 3:0.070866142 4:0.083989501 5:0.070866142 6:0.044619423 7:0.015748031 8:0.057742782 9:0.05511811 10:219 11:0.57329843 12:0.028871391 
2048 1:0.097112861 2:0.049868766 3:0.073490814 4:0.070866142 5:0.06824147 6:0.052493438 7:0.015748031 8:0.083989501 9:0.05511811 10:204 11:0.53403141 12:0.06824147 
2048 1:0.11870504 2:0.025179856 3:0.032374101 4:0.09352518 5:0.071942446 6:0.050359712 7:0.0071942446 8:0.086330935 9:0.061151079 10:177 11:0.6344086 12:0.043165468 
2048 1:0.095375723 2:0.040462428 3:0.057803468 4:0.083815029 5:0.11560694 6:0.049132948 7:0.0057803468 8:0.083815029 9:0.060693642 10:174 11:0.50144092 12:0.072254335 
2048 1:0.076115486 2:0.047244094 3:0.047244094 4:0.05511811 5:0.062992126 6:0.083989501 7:0.065616798 8:0.049868766 9:0.099737533 10:246 11:0.64397906 12:0.17322835 
2048 1:0.077134986 2:0.052341598 3:0.071625344 4:0.082644628 5:0.082644628 6:0.1046832 7:0.052341598 8:0.05785124 9:0.08815427 10:231 11:0.63461538 12:0.060606061 
2048 1:0.065705128 2:0.051282051 3:0.10096154 4:0.083333333 5:0.13141026 6:0.086538462 7:0.0064102564 8:0.065705128 9:0.067307692 10:501 11:0.8016 12:0.056089744 
2048 1:0.071428571 2:0.084183673 3:0.089285714 4:0.066326531 5:0.099489796 6:0.099489796 7:0.030612245 8:0.066326531 9:0.056122449 10:222 11:0.5648855 12:0.033163265 
2048 1:0.066935949 2:0.042700519 3:0.066935949 4:0.070975188 5:0.084824005 6:0.10098096 7:0.02135026 8:0.060011541 9:0.070398153 10:540 11:0.31141869 12:0.080207732 
2048 1:0.083732057 2:0.064593301 3:0.062200957 4:0.071770335 5:0.078947368 6:0.059808612 7:0.043062201 8:0.066985646 9:0.066985646 10:192 11:0.45823389 12:0.086124402 
2048 1:0.1 2:0.065217391 3:0.026086957 4:0.10869565 5:0.065217391 6:0.030434783 7:0.0043478261 8:0.1173913 9:0.043478261 10:69 11:0.2987013 12:0.047826087 
2048 1:0.028350515 2:0.036082474 3:0.06443299 4:0.10051546 5:0.069587629 6:0.090206186 7:0.046391753 8:0.069587629 9:0.06185567 10:301 11:0.77377892 12:0.12628866 
2048 1:0.065274151 2:0.062663185 3:0.080939948 4:0.07310705 5:0.07310705 6:0.070496084 7:0.0078328982 8:0.067885117 9:0.057441253 10:165 11:0.4296875 12:0.083550914 
2048 1:0.049462366 2:0.04516129 3:0.066666667 4:0.070967742 5:0.064516129 6:0.10752688 7:0.053763441 8:0.055913978 9:0.088172043 10:159 11:0.34120172 12:0.077419355 
2048 1:0.04047976 2:0.047976012 3:0.064467766 4:0.070464768 5:0.085457271 6:0.11244378 7:0.026986507 8:0.052473763 9:0.091454273 10:585 11:0.8757485 12:0.13193403 
2048 1:0.057591623 2:0.027923211 3:0.038394415 4:0.090750436 5:0.055846422 6:0.062827225 7:0.015706806 8:0.087260035 9:0.082024433 10:309 11:0.53832753 12:0.13263525 
2048 1:0.095057034 2:0.068441065 3:0.057034221 4:0.064638783 5:0.057034221 6:0.041825095 7:0 8:0.068441065 9:0.045627376 10:42 11:0.15909091 12:0.072243346 
2048 1:0.11603499 2:0.072303207 3:0.055393586 4:0.072886297 5:0.067638484 6:0.049562682 7:0.0069970845 8:0.086297376 9:0.043731778 10:723 11:0.42132867 12:0.050728863 
2048 1:0.10300429 2:0.045064378 3:0.077253219 4:0.060085837 5:0.066523605 6:0.070815451 7:0.017167382 8:0.070815451 9:0.045064378 10:245 11:0.52462527 12:0.045064378 
2048 1:0.092592593 2:0.063492063 3:0.076719577 4:0.076719577 5:0.068783069 6:0.060846561 7:0.021164021 8:0.052910053 9:0.058201058 10:148 11:0.39050132 12:0.055555556 
2048 1:0.11702128 2:0.09787234 3:0.061702128 4:0.074468085 5:0.070212766 6:0.061702128 7:0.027659574 8:0.074468085 9:0.046808511 10:281 11:0.59660297 12:0.044680851 
2048 1:0.14864865 2:0.083333333 3:0.063063063 4:0.072072072 5:0.067567568 6:0.04954955 7:0.013513514 8:0.083333333 9:0.036036036 10:281 11:0.63146067 12:0.054054054 
2048 1:0.081743869 2:0.057220708 3:0.046321526 4:0.070844687 5:0.068119891 6:0.089918256 7:0.027247956 8:0.081743869 9:0.065395095 10:242 11:0.6576087 12:0.076294278 
2048 1:0.093023256 2:0.11627907 3:0.069767442 4:0.10755814 5:0.078488372 6:0.029069767 7:0.0058139535 8:0.052325581 9:0.043604651 10:264 11:0.76521739 12:0.040697674 
2048 1:0.087866109 2:0.054393305 3:0.046025105 4:0.079497908 5:0.071129707 6:0.066945607 7:0.012552301 8:0.066945607 9:0.079497908 10:129 11:0.5375 12:0.066945607 
2048 1:0.11242604 2:0.050295858 3:0.071005917 4:0.059171598 5:0.065088757 6:0.097633136 7:0.035502959 8:0.065088757 9:0.065088757 10:198 11:0.5840708 12:0.050295858 
2048 1:0.046052632 2:0.065789474 3:0.078947368 4:0.075657895 5:0.095394737 6:0.072368421 7:0.023026316 8:0.072368421 9:0.0625 10:40 11:0.13114754 12:0.082236842 
2048 1:0.10946746 2:0.041420118 3:0.062130178 4:0.071005917 5:0.082840237 6:0.071005917 7:0.014792899 8:0.088757396 9:0.053254438 10:234 11:0.69026549 12:0.029585799 
2048 1:0.097305389 2:0.073353293 3:0.067365269 4:0.086826347 5:0.091317365 6:0.050898204 7:0.023952096 8:0.067365269 9:0.040419162 10:366 11:0.5470852 12:0.049401198 
2048 1:0.085287846 2:0.057569296 3:0.07249467 4:0.08315565 5:0.085287846 6:0.0554371 7:0.02771855 8:0.076759062 9:0.036247335 10:338 11:0.71914894 12:0.046908316 
2048 1:0.035234899 2:0.023489933 3:0.05704698 4:0.062080537 5:0.075503356 6:0.11912752 7:0.041946309 8:0.063758389 9:0.10067114 10:332 11:0.5561139 12:0.10067114 
2048 1:0.058548009 2:0.049180328 3:0.056206089 4:0.072599532 5:0.070257611 6:0.088992974 7:0.021077283 8:0.06088993 9:0.074941452 10:228 11:0.53271028 12:0.11007026 
2048 1:0.13729128 2:0.059369202 3:0.05380334 4:0.06122449 5:0.06122449 6:0.064935065 7:0.0074211503 8:0.072356215 9:0.042671614 10:315 11:0.58333333 12:0.057513915 
2048 1:0.054568528 2:0.050761421 3:0.052030457 4:0.073604061 5:0.067258883 6:0.10659898 7:0.039340102 8:0.069796954 9:0.083756345 10:408 11:0.51711027 12:0.07106599 
1041.152147822437 1:0.12359551 2:0.061797753 3:0.081460674 4:0.070224719 5:0.098314607 6:0.087078652 7:0 8:0.056179775 9:0.039325843 10:37 11:0.10364146 12:0.016853933 
2048 1:0.079710145 2:0.065217391 3:0.057971014 4:0.097826087 5:0.09057971 6:0.054347826 7:0.010869565 8:0.072463768 9:0.054347826 10:213 11:0.76895307 12:0.050724638 
2048 1:0.12556054 2:0.049327354 3:0.02690583 4:0.049327354 5:0.062780269 6:0.067264574 7:0.013452915 8:0.10313901 9:0.040358744 10:21 11:0.09375 12:0.022421525 
2048 1:0.032391454 2:0.017918677 3:0.046175052 4:0.036526533 5:0.039972433 6:0.1337009 7:0.10337698 8:0.068917988 9:0.1130255 10:1389 11:0.95661157 12:0.13439008 
2048 1:0.10181818 2:0.065454545 3:0.072727273 4:0.050909091 5:0.08 6:0.061818182 7:0.018181818 8:0.072727273 9:0.061818182 10:233 11:0.8442029 12:0.065454545 
2048 1:0.044247788 2:0.030973451 3:0.066371681 4:0.088495575 5:0.11061947 6:0.079646018 7:0.0044247788 8:0.092920354 9:0.066371681 10:174 11:0.76651982 12:0.088495575 
2048 1:0.10196078 2:0.090196078 3:0.062745098 4:0.08627451 5:0.062745098 6:0.047058824 7:0.0078431373 8:0.098039216 9:0.043137255 10:54 11:0.2109375 12:0.066666667 
2048 1:0.061440678 2:0.059322034 3:0.076271186 4:0.084745763 5:0.078389831 6:0.055084746 7:0.0084745763 8:0.072033898 9:0.048728814 10:339 11:0.7167019 12:0.061440678 
2048 1:0.18461538 2:0.042307692 3:0.019230769 4:0.065384615 5:0.053846154 6:0.046153846 7:0.0076923077 8:0.065384615 9:0.065384615 10:129 11:0.49425287 12:0.030769231 
2048 1:0.056994819 2:0.062176166 3:0.067357513 4:0.085492228 5:0.075129534 6:0.049222798 7:0.028497409 8:0.075129534 9:0.051813472 10:117 11:0.30232558 12:0.082901554 
2048 1:0.08 2:0.045714286 3:0.061714286 4:0.090285714 5:0.081142857 6:0.062857143 7:0.012571429 8:0.067428571 9:0.051428571 10:519 11:0.59246575 12:0.081142857 
2048 1:0.079027356 2:0.075987842 3:0.051671733 4:0.072948328 5:0.075987842 6:0.094224924 7:0.012158055 8:0.082066869 9:0.066869301 10:138 11:0.41818182 12:0.024316109 
2048 1:0.038395904 2:0.018771331 3:0.04778157 4:0.075085324 5:0.082764505 6:0.12627986 7:0.043515358 8:0.052047782 9:0.11177474 10:489 11:0.4168798 12:0.12798635 
2048 1:0.099365751 2:0.031712474 3:0.038054968 4:0.084566596 5:0.054968288 6:0.065539112 7:0.014799154 8:0.088794926 9:0.059196617 10:255 11:0.53797468 12:0.095137421 
2048 1:0.080078125 2:0.056640625 3:0.057942708 4:0.080078125 5:0.07421875 6:0.074869792 7:0.035807292 8:0.077473958 9:0.070963542 10:549 11:0.35718933 12:0.063151042 
2048 1:0.061261261 2:0.032432432 3:0.045045045 4:0.075675676 5:0.063063063 6:0.079279279 7:0.037837838 8:0.079279279 9:0.079279279 10:283 11:0.50899281 12:0.1027027 
2048 1:0.072847682 2:0.052980132 3:0.066225166 4:0.052980132 5:0.072847682 6:0.07615894 7:0.056291391 8:0.059602649 9:0.086092715 10:39 11:0.12871287 12:0.12913907 
2048 1:0.050251256 2:0.052763819 3:0.072864322 4:0.085427136 5:0.09798995 6:0.075376884 7:0.037688442 8:0.06281407 9:0.072864322 10:123 11:0.30827068 12:0.060301508 
369.776392125773 1:0.06993007 2:0.023310023 3:0.034965035 4:0.074592075 5:0.055944056 6:0.060606061 7:0.011655012 8:0.081585082 9:0.076923077 10:138 11:0.32093023 12:0.13519814 
2048 1:0.10153846 2:0.06974359 3:0.056410256 4:0.08 5:0.072820513 6:0.056410256 7:0.015384615 8:0.085128205 9:0.057435897 10:744 11:0.76229508 12:0.067692308 
2048 1:0.094736842 2:0.063157895 3:0.035087719 4:0.084210526 5:0.087719298 6:0.052631579 7:0.014035088 8:0.09122807 9:0.098245614 10:73 11:0.25524476 12:0.045614035 
2048 1:0.071984436 2:0.071984436 3:0.054474708 4:0.06614786 5:0.058365759 6:0.070038911 7:0.0077821012 8:0.077821012 9:0.052529183 10:429 11:0.83300971 12:0.10700389 
2048 1:0.059440559 2:0.048951049 3:0.055944056 4:0.075174825 5:0.068181818 6:0.068181818 7:0.020979021 8:0.10664336 9:0.052447552 10:372 11:0.64921466 12:0.083916084 
2048 1:0.070731707 2:0.095121951 3:0.090243902 4:0.06097561 5:0.095121951 6:0.082926829 7:0.014634146 8:0.051219512 9:0.053658537 10:243 11:0.59124088 12:0.063414634 
2048 1:0.061007958 2:0.063660477 3:0.084880637 4:0.074270557 5:0.074270557 6:0.068965517 7:0.0079575597 8:0.066312997 9:0.058355438 10:165 11:0.43650794 12:0.084880637 
2048 1:0.059340659 2:0.032967033 3:0.09010989 4:0.09010989 5:0.096703297 6:0.12087912 7:0.024175824 8:0.052747253 9:0.074725275 10:231 11:0.50657895 12:0.061538462 
2048 1:0.083928571 2:0.064285714 3:0.055357143 4:0.092857143 5:0.082142857 6:0.0625 7:0.016071429 8:0.0625 9:0.0625 10:375 11:0.6684492 12:0.064285714 
2048 1:0.061764706 2:0.023529412 3:0.058823529 4:0.082352941 5:0.064705882 6:0.076470588 7:0.023529412 8:0.088235294 9:0.082352941 10:132 11:0.38709677 12:0.064705882 
2048 1:0.076923077 2:0.028106509 3:0.050295858 4:0.073964497 5:0.053254438 6:0.081360947 7:0.034023669 8:0.10059172 9:0.063609467 10:327 11:0.48301329 12:0.094674556 
2048 1:0.058275058 2:0.051282051 3:0.058275058 4:0.076923077 5:0.076923077 6:0.097902098 7:0.025641026 8:0.06993007 9:0.079254079 10:144 11:0.33488372 12:0.055944056 
2048 1:0.11078717 2:0.029154519 3:0.026239067 4:0.078717201 5:0.064139942 6:0.058309038 7:0.026239067 8:0.099125364 9:0.072886297 10:126 11:0.36627907 12:0.096209913 
2048 1:0.15918367 2:0.065306122 3:0.051020408 4:0.063265306 5:0.06122449 6:0.034693878 7:0.006122449 8:0.10816327 9:0.03877551 10:258 11:0.52545825 12:0.026530612 
2048 1:0.077922078 2:0.069264069 3:0.051948052 4:0.073593074 5:0.073593074 6:0.064935065 7:0.025974026 8:0.056277056 9:0.077922078 10:45 11:0.19396552 12:0.095238095 
2048 1:0.085299456 2:0.041742287 3:0.049001815 4:0.067150635 5:0.074410163 6:0.063520871 7:0.021778584 8:0.081669691 9:0.068965517 10:370 11:0.67028986 12:0.067150635 
2048 1:0.072769953 2:0.05399061 3:0.084507042 4:0.089201878 5:0.10798122 6:0.091549296 7:0.014084507 8:0.058685446 9:0.068075117 10:255 11:0.5971897 12:0.039906103 
2048 1:0.038194444 2:0.083333333 3:0.0625 4:0.10069444 5:0.072916667 6:0.055555556 7:0.017361111 8:0.065972222 9:0.048611111 10:112 11:0.38754325 12:0.072916667 
2048 1:0.054123711 2:0.030927835 3:0.10051546 4:0.092783505 5:0.12371134 6:0.095360825 7:0.025773196 8:0.046391753 9:0.079896907 10:195 11:0.50128535 12:0.06443299 
2048 1:0.048275862 2:0.033497537 3:0.065024631 4:0.070935961 5:0.085714286 6:0.14285714 7:0.022660099 8:0.063054187 9:0.0591133 10:516 11:0.50787402 12:0.10344828 
2048 1:0.076470588 2:0.052941176 3:0.070588235 4:0.079411765 5:0.082352941 6:0.070588235 7:0.020588235 8:0.058823529 9:0.058823529 10:144 11:0.42228739 12:0.070588235 
2048 1:0.10204082 2:0.068877551 3:0.068877551 4:0.079081633 5:0.066326531 6:0.048469388 7:0.0051020408 8:0.081632653 9:0.051020408 10:294 11:0.7480916 12:0.071428571 
2048 1:0.045258621 2:0.038793103 3:0.05387931 4:0.094827586 5:0.086206897 6:0.086206897 7:0.032327586 8:0.081896552 9:0.088362069 10:102 11:0.21935484 12:0.081896552 
2048 1:0.089285714 2:0.035714286 3:0.041666667 4:0.073412698 5:0.051587302 6:0.071428571 7:0.023809524 8:0.12301587 9:0.049603175 10:225 11:0.44554455 12:0.1031746 
2048 1:0.083333333 2:0.060810811 3:0.047297297 4:0.06981982 5:0.06981982 6:0.06981982 7:0.009009009 8:0.072072072 9:0.063063063 10:294 11:0.66067416 12:0.058558559 
2048 1:0.067915691 2:0.030444965 3:0.051522248 4:0.077283372 5:0.053864169 6:0.072599532 7:0.032786885 8:0.086651054 9:0.070257611 10:237 11:0.55373832 12:0.1147541 
2048 1:0.06 2:0.043333333 3:0.056666667 4:0.083333333 5:0.073333333 6:0.10666667 7:0.03 8:0.086666667 9:0.063333333 10:273 11:0.90697674 12:0.086666667 
2048 1:0.052631579 2:0.033492823 3:0.062200957 4:0.090909091 5:0.088516746 6:0.062200957 7:0.023923445 8:0.064593301 9:0.093301435 10:189 11:0.45107399 12:0.088516746 
2048 1:0.032967033 2:0.017582418 3:0.050549451 4:0.085714286 5:0.072527473 6:0.14065934 7:0.052747253 8:0.07032967 9:0.081318681 10:162 11:0.35526316 12:0.11868132 
2048 1:0.058536585 2:0.068292683 3:0.068292683 4:0.07804878 5:0.073170732 6:0.048780488 7:0.0048780488 8:0.07804878 9:0.058536585 10:55 11:0.26699029 12:0.082926829 
2048 1:0.087136929 2:0.074688797 3:0.062240664 4:0.070539419 5:0.049792531 6:0.041493776 7:0.020746888 8:0.070539419 9:0.062240664 10:153 11:0.6322314 12:0.099585062 
2048 1:0.049046322 2:0.035422343 3:0.073569482 4:0.084468665 5:0.095367847 6:0.098092643 7:0.019073569 8:0.079019074 9:0.076294278 10:126 11:0.3423913 12:0.10081744 
2048 1:0.083333333 2:0.067460317 3:0.043650794 4:0.095238095 5:0.079365079 6:0.035714286 7:0.01984127 8:0.063492063 9:0.063492063 10:99 11:0.39130435 12:0.027777778 
2048 1:0.082887701 2:0.06684492 3:0.050802139 4:0.10427807 5:0.06684492 6:0.048128342 7:0.032085561 8:0.072192513 9:0.069518717 10:117 11:0.312 12:0.064171123 
2048 1:0.09122807 2:0.045614035 3:0.038596491 4:0.084210526 5:0.087719298 6:0.052631579 7:0.014035088 8:0.063157895 9:0.098245614 10:56 11:0.1958042 12:0.10175439 
2048 1:0.11827957 2:0.066308244 3:0.034050179 4:0.084229391 5:0.055555556 6:0.035842294 7:0.0089605735 8:0.11648746 9:0.043010753 10:514 11:0.91949911 12:0.055555556 
2048 1:0.10739437 2:0.077464789 3:0.063380282 4:0.070422535 5:0.059859155 6:0.040492958 7:0.0035211268 8:0.091549296 9:0.035211268 10:399 11:0.70123023 12:0.042253521 
2048 1:0.046104928 2:0.052464229 3:0.050874404 4:0.050874404 5:0.063593005 6:0.11764706 7:0.085850556 8:0.050874404 9:0.10174881 10:342 11:0.54285714 12:0.15739269 
2048 1:0.057471264 2:0.07183908 3:0.043103448 4:0.08908046 5:0.086206897 6:0.048850575 7:0.0057471264 8:0.083333333 9:0.057471264 10:132 11:0.3782235 12:0.10344828 
2048 1:0.085470085 2:0.076923077 3:0.038461538 4:0.098290598 5:0.051282051 6:0.017094017 7:0.0042735043 8:0.08974359 9:0.034188034 10:27 11:0.11489362 12:0.055555556 
2048 1:0.066447908 2:0.031993437 3:0.051681706 4:0.067268253 5:0.064807219 6:0.12469237 7:0.031173093 8:0.066447908 9:0.086136177 10:507 11:0.41557377 12:0.066447908 
2048 1:0.062200957 2:0.071770335 3:0.090909091 4:0.089314195 5:0.07814992 6:0.062200957 7:0.020733652 8:0.06539075 9:0.060606061 10:519 11:0.82643312 12:0.044657097 
2048 1:0.04020979 2:0.076923077 3:0.087412587 4:0.10839161 5:0.096153846 6:0.052447552 7:0.033216783 8:0.062937063 9:0.06993007 10:300 11:0.52356021 12:0.073426573 
2048 1:0.072289157 2:0.072289157 3:0.074698795 4:0.072289157 5:0.089156627 6:0.079518072 7:0.038554217 8:0.05060241 9:0.069879518 10:189 11:0.45432692 12:0.060240964 
2048 1:0.12598425 2:0.031496063 3:0.031496063 4:0.094488189 5:0.05511811 6:0.028871391 7:0.0026246719 8:0.076115486 9:0.026246719 10:354 11:0.92670157 12:0.065616798 
2048 1:0.053619303 2:0.040214477 3:0.085790885 4:0.045576408 5:0.08310992 6:0.14209115 7:0.042895442 8:0.069705094 9:0.061662198 10:89 11:0.23796791 12:0.048257373 
2048 1:0.055009823 2:0.033398821 3:0.055009823 4:0.072691552 5:0.074656189 6:0.086444008 7:0.039292731 8:0.080550098 9:0.090373281 10:476 11:0.93333333 12:0.1021611 
2048 1:0.0875 2:0.066666667 3:0.054166667 4:0.052083333 5:0.0625 6:0.089583333 7:0.058333333 8:0.066666667 9:0.060416667 10:327 11:0.67983368 12:0.091666667 
2048 1:0.026047565 2:0.018120045 3:0.053227633 4:0.073612684 5:0.092865232 6:0.1211778 7:0.088335221 8:0.058890147 9:0.13250283 10:420 11:0.47511312 12:0.099660249 
2048 1:0.022964509 2:0.020876827 3:0.052192067 4:0.098121086 5:0.10647182 6:0.075156576 7:0.091858038 8:0.06263048 9:0.14196242 10:366 11:0.7625 12:0.10438413 
2048 1:0.082666667 2:0.08 3:0.066666667 4:0.090666667 5:0.08 6:0.053333333 7:0.010666667 8:0.082666667 9:0.045333333 10:285 11:0.75797872 12:0.032 
2048 1:0.12048193 2:0.057228916 3:0.057228916 4:0.078313253 5:0.063253012 6:0.039156627 7:0.015060241 8:0.06626506 9:0.048192771 10:171 11:0.51351351 12:0.036144578 
2048 1:0.063897764 2:0.060702875 3:0.060702875 4:0.095846645 5:0.073482428 6:0.073482428 7:0.047923323 8:0.067092652 9:0.083067093 10:266 11:0.84713376 12:0.11182109 
2048 1:0.08045977 2:0.093869732 3:0.070881226 4:0.074712644 5:0.067049808 6:0.076628352 7:0.024904215 8:0.070881226 9:0.057471264 10:264 11:0.50478011 12:0.067049808 
2048 1:0.035714286 2:0.049107143 3:0.060267857 4:0.10714286 5:0.071428571 6:0.091517857 7:0.0089285714 8:0.087053571 9:0.0625 10:302 11:0.67260579 12:0.12276786 
2048 1:0.061840121 2:0.078431373 3:0.064856712 4:0.1040724 5:0.1040724 6:0.057315234 7:0.028657617 8:0.070889894 9:0.078431373 10:402 11:0.60542169 12:0.081447964 
2048 1:0.083102493 2:0.088642659 3:0.055401662 4:0.066481994 5:0.083102493 6:0.058171745 7:0.0083102493 8:0.083102493 9:0.055401662 10:138 11:0.38121547 12:0.030470914 
2048 1:0.039274924 2:0.027190332 3:0.045317221 4:0.075528701 5:0.057401813 6:0.096676737 7:0.036253776 8:0.072507553 9:0.10876133 10:290 11:0.87349398 12:0.10574018 
2048 1:0.098214286 2:0.047619048 3:0.044642857 4:0.0625 5:0.056547619 6:0.083333333 7:0.035714286 8:0.077380952 9:0.074404762 10:214 11:0.63501484 12:0.083333333 
2048 1:0.087912088 2:0.024175824 3:0.061538462 4:0.050549451 5:0.079120879 6:0.085714286 7:0.050549451 8:0.081318681 9:0.076923077 10:219 11:0.48026316 12:0.087912088 
2048 1:0.04483188 2:0.065379826 3:0.065379826 4:0.091531756 5:0.079078456 6:0.089041096 7:0.028019925 8:0.049190535 9:0.080323786 10:762 11:0.47417548 12:0.079701121 
2048 1:0.058823529 2:0.045248869 3:0.047511312 4:0.063348416 5:0.054298643 6:0.07918552 7:0.081447964 8:0.083710407 9:0.099547511 10:270 11:0.60948081 12:0.11764706 
2048 1:0.071197411 2:0.071197411 3:0.066882416 4:0.089536138 5:0.083063646 6:0.083063646 7:0.0053937433 8:0.071197411 9:0.049622438 10:651 11:0.70150862 12:0.050701187 
2048 1:0.051172708 2:0.049040512 3:0.059701493 4:0.074626866 5:0.07249467 6:0.08315565 7:0.010660981 8:0.061833689 9:0.087420043 10:297 11:0.63191489 12:0.051172708 
2048 1:0.067208065 2:0.033043965 3:0.040884906 4:0.071688603 5:0.059367124 6:0.044245309 7:0.052646318 8:0.080369644 9:0.06216746 10:1653 11:0.46276596 12:0.061887426 
2048 1:0.050176056 2:0.030809859 3:0.060739437 4:0.066021127 5:0.066021127 6:0.094190141 7:0.039612676 8:0.05721831 9:0.098591549 10:639 11:0.56200528 12:0.13380282 
2048 1:0.051643192 2:0.056338028 3:0.058685446 4:0.0657277 5:0.082159624 6:0.096244131 7:0.051643192 8:0.075117371 9:0.093896714 10:105 11:0.24590164 12:0.079812207 
2048 1:0.036900369 2:0.022140221 3:0.062730627 4:0.040590406 5:0.05904059 6:0.18450185 7:0.084870849 8:0.05904059 9:0.11070111 10:4 11:0.014705882 12:0.081180812 
2048 1:0.13879004 2:0.096085409 3:0.081850534 4:0.071174377 5:0.081850534 6:0.06405694 7:0.0035587189 8:0.081850534 9:0.035587189 10:160 11:0.56737589 12:0.03202847 
2048 1:0.061068702 2:0.061068702 3:0.063613232 4:0.061068702 5:0.066157761 6:0.1221374 7:0.081424936 8:0.058524173 9:0.10687023 10:342 11:0.8680203 12:0.071246819 
2048 1:0.15789474 2:0.033834586 3:0.071428571 4:0.037593985 5:0.067669173 6:0.14661654 7:0.026315789 8:0.082706767 9:0.033834586 10:90 11:0.33707865 12:0.063909774 
2048 1:0.04415011 2:0.04415011 3:0.052980132 4:0.086092715 5:0.088300221 6:0.11037528 7:0.0088300221 8:0.079470199 9:0.068432671 10:369 11:0.81277533 12:0.1214128 
2048 1:0.043126685 2:0.045822102 3:0.061994609 4:0.04851752 5:0.070080863 6:0.1509434 7:0.07277628 8:0.059299191 9:0.094339623 10:189 11:0.50806452 12:0.04851752 
2048 1:0.094414894 2:0.067819149 3:0.065159574 4:0.065159574 5:0.085106383 6:0.050531915 7:0.013297872 8:0.0625 9:0.058510638 10:393 11:0.52191235 12:0.045212766 
2048 1:0.076666667 2:0.046666667 3:0.043333333 4:0.096666667 5:0.073333333 6:0.096666667 7:0.0066666667 8:0.086666667 9:0.073333333 10:228 11:0.75747508 12:0.073333333 
2048 1:0.020338983 2:0.061016949 3:0.044067797 4:0.06779661 5:0.074576271 6:0.094915254 7:0.047457627 8:0.047457627 9:0.091525424 10:84 11:0.28378378 12:0.14237288 
2048 1:0.089285714 2:0.10357143 3:0.089285714 4:0.064285714 5:0.11428571 6:0.057142857 7:0.0071428571 8:0.05 9:0.039285714 10:174 11:0.61921708 12:0.05 
2048 1:0.061538462 2:0.061538462 3:0.054700855 4:0.07008547 5:0.041025641 6:0.061538462 7:0.013675214 8:0.082051282 9:0.041025641 10:300 11:0.51194539 12:0.076923077 
2048 1:0.098081023 2:0.12153518 3:0.061833689 4:0.085287846 5:0.087420043 6:0.0554371 7:0.0042643923 8:0.040511727 9:0.038379531 10:315 11:0.67021277 12:0.040511727 
2048 1:0.10054348 2:0.086956522 3:0.070652174 4:0.070652174 5:0.081521739 6:0.048913043 7:0.0081521739 8:0.070652174 9:0.046195652 10:189 11:0.51219512 12:0.046195652 
2048 1:0.068736142 2:0.044345898 3:0.039911308 4:0.064301552 5:0.053215078 6:0.062084257 7:0.028824834 8:0.093126386 9:0.068736142 10:192 11:0.42477876 12:0.18181818 
2048 1:0.083743842 2:0.039408867 3:0.064039409 4:0.064039409 5:0.07635468 6:0.064039409 7:0.022167488 8:0.054187192 9:0.071428571 10:171 11:0.42014742 12:0.049261084 
2048 1:0.1182266 2:0.083743842 3:0.024630542 4:0.073891626 5:0.0591133 6:0.093596059 7:0.0049261084 8:0.0591133 9:0.054187192 10:36 11:0.17647059 12:0.073891626 
2048 1:0.10330579 2:0.037190083 3:0.053719008 4:0.066115702 5:0.074380165 6:0.05785124 7:0.0082644628 8:0.090909091 9:0.049586777 10:190 11:0.781893 12:0.074380165 
2048 1:0.075294118 2:0.035294118 3:0.058823529 4:0.075294118 5:0.075294118 6:0.089411765 7:0.025882353 8:0.077647059 9:0.061176471 10:135 11:0.31690141 12:0.082352941 
2048 1:0.055084746 2:0.046610169 3:0.05720339 4:0.099576271 5:0.086864407 6:0.093220339 7:0.014830508 8:0.076271186 9:0.06779661 10:294 11:0.62156448 12:0.065677966 
2048 1:0.083003953 2:0.033596838 3:0.045454545 4:0.090909091 5:0.07312253 6:0.07312253 7:0.015810277 8:0.075098814 9:0.065217391 10:339 11:0.66863905 12:0.079051383 
2048 1:0.088578089 2:0.034965035 3:0.044289044 4:0.093240093 5:0.072261072 6:0.074592075 7:0.013986014 8:0.072261072 9:0.06993007 10:401 11:0.93255814 12:0.076923077 
2048 1:0.048732943 2:0.071150097 3:0.06042885 4:0.083820663 5:0.06920078 6:0.064327485 7:0.040935673 8:0.078947368 9:0.074074074 10:477 11:0.46445959 12:0.080896686 
2048 1:0.091623037 2:0.065445026 3:0.057591623 4:0.04973822 5:0.086387435 6:0.10471204 7:0.018324607 8:0.054973822 9:0.04973822 10:228 11:0.59530026 12:0.060209424 
2048 1:0.055670103 2:0.043298969 3:0.082474227 4:0.057731959 5:0.096907216 6:0.11958763 7:0.039175258 8:0.037113402 9:0.074226804 10:339 11:0.69753086 12:0.092783505 
2048 1:0.10402685 2:0.093959732 3:0.05704698 4:0.097315436 5:0.073825503 6:0.026845638 7:0.0067114094 8:0.046979866 9:0.05704698 10:129 11:0.43143813 12:0.040268456 
2048 1:0.051948052 2:0.049350649 3:0.067532468 4:0.083116883 5:0.090909091 6:0.093506494 7:0.025974026 8:0.05974026 9:0.05974026 10:135 11:0.34974093 12:0.093506494 
2048 1:0.056213018 2:0.085798817 3:0.068047337 4:0.10059172 5:0.088757396 6:0.062130178 7:0.01183432 8:0.088757396 9:0.044378698 10:333 11:0.98230088 12:0.035502959 
2048 1:0.089201878 2:0.070422535 3:0.061032864 4:0.11267606 5:0.079812207 6:0.0657277 7:0 8:0.079812207 9:0.046948357 10:79 11:0.36915888 12:0.070422535 
2048 1:0.087947883 2:0.055374593 3:0.06514658 4:0.087947883 5:0.10749186 6:0.081433225 7:0.009771987 8:0.074918567 9:0.061889251 10:48 11:0.15584416 12:0.084690554 
2048 1:0.1212938 2:0.04851752 3:0.059299191 4:0.075471698 5:0.061994609 6:0.04851752 7:0.013477089 8:0.086253369 9:0.043126685 10:180 11:0.48387097 12:0.056603774 
2048 1:0.090443686 2:0.064846416 3:0.064846416 4:0.093856655 5:0.081911263 6:0.049488055 7:0.013651877 8:0.083617747 9:0.042662116 10:338 11:0.5758092 12:0.080204778 
2048 1:0.052419355 2:0.044354839 3:0.044354839 4:0.10483871 5:0.12701613 6:0.064516129 7:0.014112903 8:0.072580645 9:0.094758065 10:15 11:0.030181087 12:0.10483871 
2048 1:0.093457944 2:0.11214953 3:0.056074766 4:0.098130841 5:0.093457944 6:0.037383178 7:0.018691589 8:0.074766355 9:0.046728972 10:51 11:0.2372093 12:0.060747664 
2048 1:0.0625 2:0.065972222 3:0.069444444 4:0.065972222 5:0.13194444 6:0.10763889 7:0.010416667 8:0.03125 9:0.090277778 10:258 11:0.89273356 12:0.055555556 
2048 1:0.048022599 2:0.050847458 3:0.079096045 4:0.09039548 5:0.10451977 6:0.096045198 7:0.019774011 8:0.042372881 9:0.079096045 10:15 11:0.042253521 12:0.056497175 
2048 1:0.080808081 2:0.021885522 3:0.058922559 4:0.055555556 5:0.053872054 6:0.079124579 7:0.043771044 8:0.094276094 9:0.069023569 10:288 11:0.48403361 12:0.095959596 
2048 1:0.08411215 2:0.028037383 3:0.080996885 4:0.07165109 5:0.093457944 6:0.052959502 7:0.024922118 8:0.08411215 9:0.049844237 10:54 11:0.16770186 12:0.068535826 
2048 1:0.081818182 2:0.059090909 3:0.084090909 4:0.063636364 5:0.088636364 6:0.068181818 7:0.018181818 8:0.05 9:0.061363636 10:381 11:0.86394558 12:0.05 
2048 1:0.07300885 2:0.077433628 3:0.081858407 4:0.081858407 5:0.077433628 6:0.068584071 7:0.017699115 8:0.064159292 9:0.064159292 10:240 11:0.52980132 12:0.042035398 
2048 1:0.062336302 2:0.042430592 3:0.057621792 4:0.052383447 5:0.062336302 6:0.097433211 7:0.063383971 8:0.063907805 9:0.091147197 10:693 11:0.36282723 12:0.10267156 
2048 1:0.058375635 2:0.060913706 3:0.058375635 4:0.081218274 5:0.078680203 6:0.030456853 7:0.040609137 8:0.10913706 9:0.068527919 10:45 11:0.11392405 12:0.088832487 
2048 1:0.034782609 2:0.031304348 3:0.064347826 4:0.059130435 5:0.08173913 6:0.13391304 7:0.07826087 8:0.067826087 9:0.11130435 10:210 11:0.36458333 12:0.08173913 
2048 1:0.094218415 2:0.070663812 3:0.079229122 4:0.062098501 5:0.092077088 6:0.057815846 7:0.0064239829 8:0.064239829 9:0.040685225 10:304 11:0.64957265 12:0.055674518 
2048 1:0.14792899 2:0.056213018 3:0.047337278 4:0.062130178 5:0.053254438 6:0.038461538 7:0.0029585799 8:0.082840237 9:0.035502959 10:226 11:0.66666667 12:0.068047337 
2048 1:0.12797619 2:0.047619048 3:0.068452381 4:0.056547619 5:0.06547619 6:0.074404762 7:0.0089285714 8:0.10119048 9:0.035714286 10:156 11:0.46290801 12:0.044642857 
2048 1:0.072463768 2:0.037681159 3:0.057971014 4:0.069565217 5:0.066666667 6:0.084057971 7:0.034782609 8:0.072463768 9:0.086956522 10:126 11:0.36416185 12:0.089855072 
2048 1:0.045833333 2:0.039583333 3:0.075 4:0.066666667 5:0.085416667 6:0.0875 7:0.0625 8:0.064583333 9:0.11041667 10:141 11:0.29313929 12:0.072916667 
2048 1:0.056034483 2:0.034482759 3:0.034482759 4:0.10775862 5:0.060344828 6:0.068965517 7:0.051724138 8:0.090517241 9:0.090517241 10:210 11:0.90128755 12:0.12931034 
2048 1:0.038922156 2:0.02994012 3:0.053892216 4:0.095808383 5:0.071856287 6:0.11077844 7:0.01497006 8:0.077844311 9:0.080838323 10:96 11:0.28656716 12:0.071856287 
2048 1:0.077294686 2:0.053140097 3:0.072463768 4:0.10628019 5:0.082125604 6:0.077294686 7:0.028985507 8:0.062801932 9:0.043478261 10:75 11:0.36057692 12:0.053140097 
2048 1:0.073170732 2:0.029268293 3:0.029268293 4:0.10243902 5:0.07804878 6:0.058536585 7:0.012195122 8:0.092682927 9:0.07804878 10:138 11:0.33576642 12:0.11219512 
2048 1:0.081057269 2:0.083700441 3:0.066079295 4:0.080176211 5:0.086343612 6:0.05814978 7:0.012334802 8:0.064317181 9:0.046696035 10:447 11:0.39348592 12:0.049339207 
2048 1:0.089820359 2:0.074850299 3:0.068862275 4:0.071856287 5:0.071856287 6:0.11377246 7:0.002994012 8:0.056886228 9:0.032934132 10:153 11:0.45671642 12:0.017964072 
2048 1:0.10542169 2:0.039156627 3:0.078313253 4:0.048192771 5:0.093373494 6:0.093373494 7:0.0030120482 8:0.090361446 9:0.024096386 10:174 11:0.52252252 12:0.039156627 
2048 1:0.057534247 2:0.02739726 3:0.057534247 4:0.073972603 5:0.063013699 6:0.10684932 7:0.01369863 8:0.079452055 9:0.079452055 10:300 11:0.81967213 12:0.049315068 
2048 1:0.05 2:0.071428571 3:0.076190476 4:0.092857143 5:0.09047619 6:0.09047619 7:0.0095238095 8:0.071428571 9:0.064285714 10:183 11:0.43467933 12:0.052380952 
2048 1:0.072 2:0.056 3:0.061333333 4:0.088 5:0.077333333 6:0.066666667 7:0.016 8:0.072 9:0.045333333 10:203 11:0.53989362 12:0.058666667 
2048 1:0.066445183 2:0.083056478 3:0.073089701 4:0.10631229 5:0.099667774 6:0.049833887 7:0.0033222591 8:0.059800664 9:0.073089701 10:165 11:0.54635762 12:0.056478405 
2048 1:0.055555556 2:0.037037037 3:0.052910053 4:0.055555556 5:0.076719577 6:0.10582011 7:0.079365079 8:0.074074074 9:0.12169312 10:234 11:0.61741425 12:0.10582011 
2048 1:0.014492754 2:0.012077295 3:0.084541063 4:0.070048309 5:0.089371981 6:0.1763285 7:0.038647343 8:0.02173913 9:0.096618357 10:30 11:0.072289157 12:0.02173913 
2048 1:0.039583333 2:0.05625 3:0.077083333 4:0.091666667 5:0.091666667 6:0.085416667 7:0.033333333 8:0.058333333 9:0.060416667 10:246 11:0.51143451 12:0.064583333 
2048 1:0.090523338 2:0.048090523 3:0.073550212 4:0.073550212 5:0.065063649 6:0.077793494 7:0.018387553 8:0.074964639 9:0.057991513 10:501 11:0.70762712 12:0.066478076 
2048 1:0.12080537 2:0.060402685 3:0.070469799 4:0.080536913 5:0.090604027 6:0.05033557 7:0.010067114 8:0.073825503 9:0.030201342 10:148 11:0.49498328 12:0.067114094 
2048 1:0.064900662 2:0.067549669 3:0.063576159 4:0.079470199 5:0.086092715 6:0.087417219 7:0.021192053 8:0.058278146 9:0.070198675 10:519 11:0.68650794 12:0.087417219 
2048 1:0.1013986 2:0.066433566 3:0.06993007 4:0.059440559 5:0.097902098 6:0.11888112 7:0.006993007 8:0.045454545 9:0.059440559 10:6 11:0.020905923 12:0.048951049 
2048 1:0.066981132 2:0.094339623 3:0.066981132 4:0.077358491 5:0.078301887 6:0.075471698 7:0.026415094 8:0.048113208 9:0.060377358 10:465 11:0.43826579 12:0.050943396 
2048 1:0.048309179 2:0.048309179 3:0.055555556 4:0.089371981 5:0.077294686 6:0.099033816 7:0.041062802 8:0.089371981 9:0.072463768 10:147 11:0.35421687 12:0.086956522 
2048 1:0.067911715 2:0.15449915 3:0.05942275 4:0.081494058 5:0.064516129 6:0.052631579 7:0.0067911715 8:0.0475382 9:0.040747029 10:403 11:0.68305085 12:0.050933786 
2048 1:0.12621359 2:0.097087379 3:0.058252427 4:0.080906149 5:0.055016181 6:0.035598706 7:0.0064724919 8:0.051779935 9:0.038834951 10:141 11:0.45483871 12:0.025889968 
2048 1:0.046511628 2:0.023255814 3:0.051878354 4:0.041144902 5:0.066189624 6:0.093023256 7:0.096601073 8:0.085867621 9:0.11985689 10:87 11:0.15535714 12:0.10554562 
2048 1:0.03164557 2:0.018987342 3:0.037974684 4:0.042194093 5:0.040084388 6:0.14345992 7:0.11814346 8:0.046413502 9:0.16033755 10:30 11:0.063157895 12:0.10548523 
2048 1:0.018450185 2:0.044280443 3:0.05904059 4:0.081180812 5:0.088560886 6:0.11439114 7:0.029520295 8:0.084870849 9:0.081180812 10:175 11:0.64338235 12:0.11439114 
2048 1:0.14626866 2:0.062686567 3:0.059701493 4:0.059701493 5:0.059701493 6:0.059701493 7:0.017910448 8:0.071641791 9:0.03880597 10:222 11:0.66071429 12:0.032835821 
2048 1:0.053475936 2:0.077540107 3:0.064171123 4:0.082887701 5:0.085561497 6:0.07486631 7:0.021390374 8:0.056149733 9:0.053475936 10:132 11:0.352 12:0.056149733 
2048 1:0.078612717 2:0.099421965 3:0.056647399 4:0.076300578 5:0.063583815 6:0.046242775 7:0.013872832 8:0.064739884 9:0.045086705 10:465 11:0.5369515 12:0.048554913 
2048 1:0.025951557 2:0.022491349 3:0.065743945 4:0.048442907 5:0.070934256 6:0.12110727 7:0.11937716 8:0.074394464 9:0.11764706 10:117 11:0.20207254 12:0.11418685 
2048 1:0.0768 2:0.0592 3:0.08 4:0.0784 5:0.0848 6:0.0768 7:0.008 8:0.0768 9:0.0432 10:345 11:0.55111821 12:0.0704 
168.3995882264353 1:0.10830325 2:0.086642599 3:0.0433213 4:0.083032491 5:0.075812274 6:0.02166065 7:0.014440433 8:0.064981949 9:0.0433213 10:78 11:0.28057554 12:0.057761733 
2048 1:0.095541401 2:0.047770701 3:0.041401274 4:0.066878981 5:0.057324841 6:0.076433121 7:0.0095541401 8:0.10828025 9:0.038216561 10:204 11:0.64761905 12:0.085987261 
2048 1:0.099033816 2:0.072463768 3:0.053140097 4:0.070048309 5:0.084541063 6:0.06763285 7:0.0072463768 8:0.060386473 9:0.055555556 10:372 11:0.89638554 12:0.055555556 
2048 1:0.060669456 2:0.056485356 3:0.071129707 4:0.083682008 5:0.079497908 6:0.087866109 7:0.039748954 8:0.079497908 9:0.060669456 10:242 11:0.50521921 12:0.09623431 
2048 1:0.10662824 2:0.04610951 3:0.04610951 4:0.048991354 5:0.063400576 6:0.060518732 7:0.017291066 8:0.11239193 9:0.063400576 10:159 11:0.45689655 12:0.089337176 
2048 1:0.034343434 2:0.048484848 3:0.056565657 4:0.084848485 5:0.076767677 6:0.080808081 7:0.058585859 8:0.048484848 9:0.11919192 10:237 11:0.47782258 12:0.11515152 
2048 1:0.025089606 2:0.03046595 3:0.0609319 4:0.08781362 5:0.069892473 6:0.12007168 7:0.043010753 8:0.068100358 9:0.080645161 10:422 11:0.7549195 12:0.089605735 
2048 1:0.1042471 2:0.096525097 3:0.054054054 4:0.11196911 5:0.061776062 6:0.046332046 7:0.0038610039 8:0.081081081 9:0.034749035 10:126 11:0.48461538 12:0.027027027 
2048 1:0.03277439 2:0.033536585 3:0.057164634 4:0.092987805 5:0.097560976 6:0.1097561 7:0.021341463 8:0.06402439 9:0.10289634 10:657 11:0.50038081 12:0.099085366 
2048 1:0.027100271 2:0.035230352 3:0.059620596 4:0.10840108 5:0.078590786 6:0.11653117 7:0.016260163 8:0.078590786 9:0.078590786 10:196 11:0.52972973 12:0.08401084 
2048 1:0.087912088 2:0.027472527 3:0.052197802 4:0.087912088 5:0.068681319 6:0.068681319 7:0.013736264 8:0.085164835 9:0.071428571 10:264 11:0.72328767 12:0.071428571 
2048 1:0.12727273 2:0.093181818 3:0.063636364 4:0.084090909 5:0.068181818 6:0.022727273 7:0.011363636 8:0.088636364 9:0.036363636 10:267 11:0.60544218 12:0.070454545 
2048 1:0.050583658 2:0.042801556 3:0.06614786 4:0.085603113 5:0.050583658 6:0.038910506 7:0.027237354 8:0.089494163 9:0.054474708 10:45 11:0.1744186 12:0.070038911 
2048 1:0.070362473 2:0.066098081 3:0.07249467 4:0.063965885 5:0.087420043 6:0.07249467 7:0.023454158 8:0.074626866 9:0.040511727 10:276 11:0.58723404 12:0.085287846 
2048 1:0.080178174 2:0.033407572 3:0.06013363 4:0.082405345 5:0.086859688 6:0.11135857 7:0.004454343 8:0.073496659 9:0.055679287 10:315 11:0.7 12:0.082405345 
2048 1:0.035874439 2:0.01793722 3:0.040358744 4:0.098654709 5:0.053811659 6:0.076233184 7:0.022421525 8:0.094170404 9:0.053811659 10:169 11:0.75446429 12:0.14798206 
2048 1:0.062962963 2:0.02962963 3:0.044444444 4:0.1037037 5:0.044444444 6:0.044444444 7:0.022222222 8:0.092592593 9:0.07037037 10:156 11:0.57564576 12:0.10740741 
2048 1:0.052493438 2:0.047244094 3:0.062992126 4:0.099737533 5:0.078740157 6:0.057742782 7:0.023622047 8:0.086614173 9:0.070866142 10:156 11:0.40837696 12:0.086614173 
2048 1:0.04587156 2:0.055045872 3:0.073394495 4:0.097859327 5:0.091743119 6:0.079510703 7:0.018348624 8:0.067278287 9:0.073394495 10:233 11:0.71036585 12:0.10091743 
2048 1:0.061881188 2:0.056930693 3:0.086633663 4:0.096534653 5:0.089108911 6:0.086633663 7:0.037128713 8:0.047029703 9:0.071782178 10:186 11:0.45925926 12:0.04950495 
2048 1:0.057613169 2:0.049382716 3:0.051440329 4:0.065843621 5:0.049382716 6:0.076131687 7:0.03909465 8:0.061728395 9:0.080246914 10:291 11:0.59753593 12:0.10699588 
2048 1:0.056795132 2:0.040567951 3:0.07505071 4:0.06693712 5:0.085192698 6:0.099391481 7:0.042596349 8:0.054766734 9:0.087221095 10:406 11:0.82186235 12:0.068965517 
2048 1:0.032634033 2:0.032634033 3:0.065268065 4:0.095571096 5:0.076923077 6:0.10722611 7:0.044289044 8:0.067599068 9:0.081585082 10:293 11:0.68139535 12:0.093240093 
2048 1:0.086378738 2:0.073089701 3:0.046511628 4:0.069767442 5:0.056478405 6:0.03654485 7:0.0099667774 8:0.099667774 9:0.049833887 10:189 11:0.62582781 12:0.059800664 
2048 1:0.065217391 2:0.04743083 3:0.061264822 4:0.045454545 5:0.04743083 6:0.10671937 7:0.07312253 8:0.092885375 9:0.077075099 10:207 11:0.40828402 12:0.088932806 
2048 1:0.050802139 2:0.072192513 3:0.056149733 4:0.10695187 5:0.088235294 6:0.072192513 7:0.016042781 8:0.048128342 9:0.080213904 10:240 11:0.64 12:0.056149733 
2048 1:0.043478261 2:0.054820416 3:0.066162571 4:0.060491493 5:0.073724008 6:0.092627599 7:0.064272212 8:0.06805293 9:0.094517958 10:213 11:0.40188679 12:0.077504726 
2048 1:0.099644128 2:0.021352313 3:0.046263345 4:0.085409253 5:0.060498221 6:0.060498221 7:0.021352313 8:0.096085409 9:0.071174377 10:90 11:0.31914894 12:0.046263345 
2048 1:0.1097561 2:0.057926829 3:0.05945122 4:0.079268293 5:0.085365854 6:0.05945122 7:0.012195122 8:0.079268293 9:0.050304878 10:415 11:0.63165906 12:0.051829268 
2048 1:0.066666667 2:0.083333333 3:0.073333333 4:0.076666667 5:0.1 6:0.05 7:0.01 8:0.043333333 9:0.06 10:78 11:0.25913621 12:0.026666667 
2048 1:0.092696629 2:0.056179775 3:0.053370787 4:0.070224719 5:0.050561798 6:0.064606742 7:0.016853933 8:0.073033708 9:0.061797753 10:129 11:0.36134454 12:0.058988764 
2048 1:0.05399061 2:0.075117371 3:0.072769953 4:0.089201878 5:0.08685446 6:0.079812207 7:0.018779343 8:0.072769953 9:0.072769953 10:387 11:0.90632319 12:0.058685446 
2048 1:0.077220077 2:0.073359073 3:0.05019305 4:0.081081081 5:0.081081081 6:0.077220077 7:0.011583012 8:0.069498069 9:0.065637066 10:36 11:0.13846154 12:0.038610039 
2048 1:0.094512195 2:0.027439024 3:0.027439024 4:0.073170732 5:0.054878049 6:0.097560976 7:0.048780488 8:0.082317073 9:0.076219512 10:277 11:0.84194529 12:0.079268293 
2048 1:0.042918455 2:0.049356223 3:0.081545064 4:0.075107296 5:0.083690987 6:0.081545064 7:0.040772532 8:0.092274678 9:0.055793991 10:354 11:0.75802998 12:0.060085837 
2048 1:0.04526749 2:0.026748971 3:0.065843621 4:0.074074074 5:0.074074074 6:0.12962963 7:0.067901235 8:0.065843621 9:0.086419753 10:174 11:0.35728953 12:0.090534979 
2048 1:0.041543027 2:0.023738872 3:0.050445104 4:0.080118694 5:0.091988131 6:0.115727 7:0.038575668 8:0.080118694 9:0.083086053 10:219 11:0.64792899 12:0.091988131 
2048 1:0.075907591 2:0.056105611 3:0.092409241 4:0.075907591 5:0.089108911 6:0.092409241 7:0.02310231 8:0.069306931 9:0.04290429 10:108 11:0.35526316 12:0.056105611 
2048 1:0.068 2:0.02 3:0.072 4:0.064 5:0.084 6:0.088 7:0.02 8:0.072 9:0.064 10:78 11:0.31075697 12:0.096 
2048 1:0.033163265 2:0.043367347 3:0.051020408 4:0.079081633 5:0.053571429 6:0.10714286 7:0.096938776 8:0.073979592 9:0.12244898 10:72 11:0.18320611 12:0.10459184 
2048 1:0.051535088 2:0.041666667 3:0.084429825 4:0.067982456 5:0.082236842 6:0.11842105 7:0.027412281 8:0.070175439 9:0.058114035 10:714 11:0.78203724 12:0.065789474 
2048 1:0.051569507 2:0.067264574 3:0.073991031 4:0.094170404 5:0.085201794 6:0.069506726 7:0.013452915 8:0.076233184 9:0.062780269 10:350 11:0.78299776 12:0.087443946 
2048 1:0.067285383 2:0.062645012 3:0.081206497 4:0.078886311 5:0.099767981 6:0.051044084 7:0.034802784 8:0.053364269 9:0.064965197 10:264 11:0.61111111 12:0.071925754 
2048 1:0.061493411 2:0.055636896 3:0.061493411 4:0.065885798 5:0.077598829 6:0.13323572 7:0.058565154 8:0.06295754 9:0.080527086 10:363 11:0.53070175 12:0.083455344 
2048 1:0.052301255 2:0.023012552 3:0.039748954 4:0.087866109 5:0.062761506 6:0.092050209 7:0.050209205 8:0.085774059 9:0.10669456 10:315 11:0.65762004 12:0.11087866 
2048 1:0.051020408 2:0.020408163 3:0.044217687 4:0.091836735 5:0.06462585 6:0.088435374 7:0.013605442 8:0.11564626 9:0.037414966 10:108 11:0.36610169 12:0.1122449 
2048 1:0.092741935 2:0.058467742 3:0.034274194 4:0.098790323 5:0.054435484 6:0.032258065 7:0.010080645 8:0.088709677 9:0.052419355 10:243 11:0.4889336 12:0.064516129 
233.3925573447315 1:0.032544379 2:0.038461538 3:0.056213018 4:0.094674556 5:0.094674556 6:0.13609467 7:0.017751479 8:0.071005917 9:0.059171598 10:72 11:0.21238938 12:0.12130178 
2048 1:0.10377358 2:0.047169811 3:0.044811321 4:0.068396226 5:0.056603774 6:0.070754717 7:0.021226415 8:0.10377358 9:0.049528302 10:273 11:0.64235294 12:0.080188679 
2048 1:0.01369863 2:0.02739726 3:0.020547945 4:0.10958904 5:0.075342466 6:0.095890411 7:0.089041096 8:0.051369863 9:0.17465753 10:114 11:0.3890785 12:0.099315068 
2048 1:0.0651341 2:0.084291188 3:0.0651341 4:0.030651341 5:0.0651341 6:0.08045977 7:0.068965517 8:0.061302682 9:0.088122605 10:348 11:0.66539197 12:0.11111111 
2048 1:0.052631579 2:0.028070175 3:0.059649123 4:0.09122807 5:0.080701754 6:0.098245614 7:0.028070175 8:0.077192982 9:0.063157895 10:213 11:0.74475524 12:0.09122807 
2048 1:0.048148148 2:0.042592593 3:0.085185185 4:0.059259259 5:0.10740741 6:0.10185185 7:0.022222222 8:0.055555556 9:0.074074074 10:312 11:0.5767098 12:0.053703704 
2048 1:0.048 2:0.072 3:0.068 4:0.068 5:0.084 6:0.106 7:0.034 8:0.062 9:0.07 10:258 11:0.51497006 12:0.11 
2048 1:0.036420863 2:0.066097122 3:0.075089928 4:0.10071942 5:0.10206835 6:0.10161871 7:0.021133094 8:0.04676259 9:0.07778777 10:783 11:0.35191011 12:0.074640288 
2048 1:0.09375 2:0.088068182 3:0.073863636 4:0.068181818 5:0.079545455 6:0.048295455 7:0.0056818182 8:0.053977273 9:0.042613636 10:192 11:0.54390935 12:0.065340909 
2048 1:0.092013889 2:0.038194444 3:0.057291667 4:0.074652778 5:0.076388889 6:0.086805556 7:0.038194444 8:0.086805556 9:0.074652778 10:264 11:0.45753899 12:0.074652778 
2048 1:0.039513678 2:0.047112462 3:0.065349544 4:0.092705167 5:0.098784195 6:0.11094225 7:0.010638298 8:0.071428571 9:0.079027356 10:372 11:0.56449165 12:0.06231003 
2048 1:0.12128713 2:0.047029703 3:0.059405941 4:0.069306931 5:0.064356436 6:0.069306931 7:0.017326733 8:0.094059406 9:0.042079208 10:309 11:0.76296296 12:0.076732673 
2048 1:0.086592179 2:0.044692737 3:0.05027933 4:0.075418994 5:0.075418994 6:0.047486034 7:0.041899441 8:0.10335196 9:0.05027933 10:75 11:0.20891365 12:0.097765363 
2048 1:0.088607595 2:0.053164557 3:0.053164557 4:0.075949367 5:0.060759494 6:0.06835443 7:0.032911392 8:0.083544304 9:0.06835443 10:126 11:0.31818182 12:0.083544304 
2048 1:0.11868687 2:0.03030303 3:0.03030303 4:0.063131313 5:0.0075757576 6:0.012626263 7:0.065656566 8:0.080808081 9:0.065656566 10:330 11:0.83123426 12:0.11363636 
2048 1:0.042513863 2:0.022181146 3:0.053604436 4:0.046210721 5:0.051756007 6:0.13863216 7:0.070240296 8:0.068391867 9:0.086876155 10:192 11:0.35424354 12:0.11460259 
2048 1:0.084070796 2:0.030973451 3:0.057522124 4:0.07079646 5:0.075221239 6:0.079646018 7:0.026548673 8:0.11061947 9:0.07079646 10:219 11:0.96475771 12:0.07079646 
2048 1:0.10035842 2:0.10394265 3:0.071684588 4:0.086021505 5:0.071684588 6:0.046594982 7:0.014336918 8:0.064516129 9:0.0035842294 10:123 11:0.43928571 12:0.025089606 
2048 1:0.029354207 2:0.060665362 3:0.066536204 4:0.060665362 5:0.080234834 6:0.082191781 7:0.086105675 8:0.080234834 9:0.10176125 10:84 11:0.1640625 12:0.11350294 
2048 1:0.13597246 2:0.082616179 3:0.058519793 4:0.056798623 5:0.055077453 6:0.04475043 7:0 8:0.049913941 9:0.056798623 10:306 11:0.5257732 12:0.017211704 
2048 1:0.026086957 2:0.060869565 3:0.086956522 4:0.034782609 5:0.11014493 6:0.13333333 7:0.014492754 8:0.028985507 9:0.12753623 10:82 11:0.23699422 12:0.023188406 
2048 1:0.1659919 2:0.072874494 3:0.04048583 4:0.076923077 5:0.032388664 6:0.004048583 7:0.012145749 8:0.12145749 9:0.024291498 10:156 11:0.62903226 12:0.044534413 
2048 1:0.084134615 2:0.021634615 3:0.052884615 4:0.079326923 5:0.072115385 6:0.057692308 7:0.052884615 8:0.088942308 9:0.088942308 10:174 11:0.41726619 12:0.09375 
2048 1:0.09039548 2:0.081920904 3:0.059322034 4:0.079096045 5:0.062146893 6:0.064971751 7:0.025423729 8:0.076271186 9:0.053672316 10:147 11:0.41408451 12:0.050847458 
2048 1:0.041214751 2:0.041214751 3:0.063991323 4:0.070498915 5:0.079175705 6:0.098698482 7:0.035791757 8:0.061822126 9:0.080260304 10:462 11:0.50054171 12:0.10737527 
2048 1:0.10952381 2:0.045238095 3:0.052380952 4:0.088095238 5:0.076190476 6:0.061904762 7:0.0047619048 8:0.064285714 9:0.057142857 10:216 11:0.51306413 12:0.078571429 
2048 1:0.040268456 2:0.010067114 3:0.043624161 4:0.067114094 5:0.046979866 6:0.080536913 7:0.067114094 8:0.073825503 9:0.090604027 10:195 11:0.65217391 12:0.13758389 
2048 1:0.1013986 2:0.041958042 3:0.055944056 4:0.052447552 5:0.076923077 6:0.10839161 7:0.01048951 8:0.059440559 9:0.052447552 10:49 11:0.17073171 12:0.087412587 
2048 1:0.070175439 2:0.080701754 3:0.077192982 4:0.077192982 5:0.080701754 6:0.063157895 7:0.014035088 8:0.059649123 9:0.045614035 10:51 11:0.17832168 12:0.056140351 
2048 1:0.090607735 2:0.033149171 3:0.04198895 4:0.045303867 5:0.049723757 6:0.097237569 7:0.093922652 8:0.045303867 9:0.13922652 10:906 11:1 12:0.12265193 
2048 1:0.088803089 2:0.081081081 3:0.057915058 4:0.088803089 5:0.077220077 6:0.065637066 7:0.0077220077 8:0.069498069 9:0.054054054 10:42 11:0.16153846 12:0.038610039 
2048 1:0.03219697 2:0.018939394 3:0.075757576 4:0.037878788 5:0.077651515 6:0.1875 7:0.060606061 8:0.056818182 9:0.10037879 10:194 11:0.36672968 12:0.083333333 
2048 1:0.055555556 2:0.070175439 3:0.058479532 4:0.064327485 5:0.064327485 6:0.078947368 7:0.055555556 8:0.081871345 9:0.076023392 10:102 11:0.29737609 12:0.090643275 
2048 1:0.11380145 2:0.055690073 3:0.070217918 4:0.082324455 5:0.10411622 6:0.046004843 7:0.021791768 8:0.06779661 9:0.050847458 10:219 11:0.52898551 12:0.024213075 
2048 1:0.063291139 2:0.1164557 3:0.11898734 4:0.063291139 5:0.11139241 6:0.065822785 7:0.012658228 8:0.04556962 9:0.032911392 10:309 11:0.78030303 12:0.035443038 
2048 1:0.088414634 2:0.024390244 3:0.048780488 4:0.088414634 5:0.054878049 6:0.091463415 7:0.015243902 8:0.079268293 9:0.06402439 10:126 11:0.38297872 12:0.054878049 
2048 1:0.036842105 2:0.049122807 3:0.077192982 4:0.084210526 5:0.075438596 6:0.096491228 7:0.015789474 8:0.08245614 9:0.054385965 10:315 11:0.55166375 12:0.09122807 
2048 1:0.063183475 2:0.046172539 3:0.058323208 4:0.07290401 5:0.077764277 6:0.087484812 7:0.029161604 8:0.047387606 9:0.086269745 10:447 11:0.54247573 12:0.083839611 
2048 1:0.10284464 2:0.061269147 3:0.037199125 4:0.074398249 5:0.04595186 6:0.048140044 7:0.010940919 8:0.076586433 9:0.050328228 10:231 11:0.50436681 12:0.083150985 
2048 1:0.066945607 2:0.041841004 3:0.058577406 4:0.066945607 5:0.046025105 6:0.11297071 7:0.062761506 8:0.075313808 9:0.083682008 10:48 11:0.2 12:0.083682008 
2048 1:0.099616858 2:0.091954023 3:0.088122605 4:0.045977011 5:0.076628352 6:0.057471264 7:0.011494253 8:0.061302682 9:0.049808429 10:153 11:0.58396947 12:0.026819923 
2048 1:0.017699115 2:0.03539823 3:0.07300885 4:0.07300885 5:0.090707965 6:0.14159292 7:0.039823009 8:0.053097345 9:0.10176991 10:453 11:1 12:0.064159292 
2048 1:0.074074074 2:0.054131054 3:0.071225071 4:0.076923077 5:0.074074074 6:0.07977208 7:0.017094017 8:0.048433048 9:0.07977208 10:144 11:0.40909091 12:0.056980057 
2048 1:0.0330033 2:0.04620462 3:0.089108911 4:0.092409241 5:0.10231023 6:0.062706271 7:0.0099009901 8:0.075907591 9:0.052805281 10:126 11:0.41447368 12:0.075907591 
2048 1:0.056603774 2:0.044596913 3:0.054888508 4:0.060034305 5:0.066895369 6:0.092624357 7:0.060034305 8:0.061749571 9:0.092624357 10:466 11:0.79794521 12:0.097770154 
2048 1:0.046692607 2:0.054474708 3:0.081712062 4:0.10894942 5:0.089494163 6:0.06614786 7:0.011673152 8:0.054474708 9:0.06614786 10:123 11:0.47674419 12:0.089494163 
2048 1:0.039473684 2:0.043859649 3:0.065789474 4:0.076754386 5:0.085526316 6:0.089912281 7:0.050438596 8:0.070175439 9:0.10307018 10:195 11:0.42669584 12:0.076754386 
2048 1:0.06009245 2:0.086286595 3:0.061633282 4:0.086286595 5:0.078582435 6:0.090909091 7:0.026194145 8:0.057010786 9:0.073959938 10:387 11:0.59538462 12:0.064714946 
2048 1:0.045112782 2:0.034586466 3:0.069172932 4:0.069172932 5:0.087218045 6:0.079699248 7:0.027067669 8:0.061654135 9:0.091729323 10:330 11:0.4954955 12:0.07518797 
2048 1:0.063241107 2:0.019762846 3:0.059288538 4:0.059288538 5:0.057312253 6:0.081027668 7:0.049407115 8:0.092885375 9:0.083003953 10:273 11:0.53846154 12:0.092885375 
2048 1:0.11197917 2:0.0625 3:0.065104167 4:0.072916667 5:0.083333333 6:0.052083333 7:0.0026041667 8:0.078125 9:0.036458333 10:207 11:0.53766234 12:0.03125 
2048 1:0.025171625 2:0.013729977 3:0.068649886 4:0.068649886 5:0.084668192 6:0.1395881 7:0.057208238 8:0.082379863 9:0.082379863 10:75 11:0.17123288 12:0.10755149 
2048 1:0.028346457 2:0.02992126 3:0.081889764 4:0.05511811 5:0.067716535 6:0.12598425 7:0.088188976 8:0.044094488 9:0.094488189 10:360 11:0.56603774 12:0.11181102 
2048 1:0.042335766 2:0.059854015 3:0.052554745 4:0.083211679 5:0.065693431 6:0.067153285 7:0.010218978 8:0.10072993 9:0.046715328 10:342 11:0.49854227 12:0.10364964 
2048 1:0.13235294 2:0.012867647 3:0.011029412 4:0.045955882 5:0.0036764706 6:0.016544118 7:0.016544118 8:0.14705882 9:0.047794118 10:271 11:0.49724771 12:0.15808824 
2048 1:0.04867872 2:0.040333797 3:0.075104312 4:0.080667594 5:0.086230876 6:0.10013908 7:0.026425591 8:0.069541029 9:0.063977747 10:585 11:0.8125 12:0.10431154 
2048 1:0.085227273 2:0.085227273 3:0.073863636 4:0.059659091 5:0.059659091 6:0.045454545 7:0.036931818 8:0.079545455 9:0.034090909 10:240 11:0.67988669 12:0.056818182 
2048 1:0.077809798 2:0.11239193 3:0.051873199 4:0.074927954 5:0.04610951 6:0.054755043 7:0.0086455331 8:0.077809798 9:0.031700288 10:138 11:0.39655172 12:0.07204611 
2048 1:0.048257373 2:0.050938338 3:0.061662198 4:0.10187668 5:0.10187668 6:0.058981233 7:0.021447721 8:0.075067024 9:0.056300268 10:207 11:0.55347594 12:0.09383378 
2048 1:0.018324607 2:0.020942408 3:0.023560209 4:0.091623037 5:0.036649215 6:0.10471204 7:0.11518325 8:0.052356021 9:0.15706806 10:349 11:0.91122715 12:0.15706806 
2048 1:0.061788618 2:0.03902439 3:0.058536585 4:0.076422764 5:0.068292683 6:0.091056911 7:0.016260163 8:0.055284553 9:0.079674797 10:378 11:0.61363636 12:0.091056911 
2048 1:0.070323488 2:0.035161744 3:0.049226442 4:0.054852321 5:0.026722925 6:0.10970464 7:0.063291139 8:0.039381153 9:0.11392405 10:366 11:0.51404494 12:0.052039381 
2048 1:0.10330579 2:0.066115702 3:0.066115702 4:0.053719008 5:0.061983471 6:0.045454545 7:0.0082644628 8:0.053719008 9:0.045454545 10:87 11:0.35802469 12:0.045454545 
2048 1:0.090634441 2:0.081570997 3:0.042296073 4:0.087613293 5:0.057401813 6:0.072507553 7:0.012084592 8:0.081570997 9:0.054380665 10:195 11:0.5873494 12:0.069486405 
2048 1:0.11053985 2:0.053984576 3:0.071979434 4:0.071979434 5:0.087403599 6:0.05655527 7:0.020565553 8:0.092544987 9:0.043701799 10:261 11:0.66923077 12:0.053984576 
2048 1:0.1005291 2:0.11640212 3:0.047619048 4:0.066137566 5:0.060846561 6:0.034391534 7:0.013227513 8:0.068783069 9:0.034391534 10:186 11:0.49076517 12:0.055555556 
2048 1:0.057017544 2:0.046052632 3:0.059210526 4:0.063596491 5:0.078947368 6:0.10526316 7:0.061403509 8:0.074561404 9:0.096491228 10:93 11:0.20350109 12:0.087719298 
2048 1:0.013574661 2:0.022624434 3:0.040723982 4:0.081447964 5:0.058823529 6:0.13122172 7:0.067873303 8:0.076923077 9:0.085972851 10:216 11:0.97297297 12:0.15837104 
2048 1:0.1277533 2:0.092511013 3:0.035242291 4:0.079295154 5:0.039647577 6:0.04845815 7:0 8:0.11894273 9:0.044052863 10:105 11:0.46052632 12:0.04845815 
2048 1:0.072413793 2:0.065517241 3:0.089655172 4:0.055172414 5:0.10344828 6:0.062068966 7:0.0068965517 8:0.082758621 9:0.044827586 10:174 11:0.59793814 12:0.051724138 
2048 1:0.055928412 2:0.029082774 3:0.042505593 4:0.067114094 5:0.035794183 6:0.058165548 7:0.024608501 8:0.11185682 9:0.064876957 10:132 11:0.29464286 12:0.11856823 
2048 1:0.046277666 2:0.084507042 3:0.062374245 4:0.076458753 5:0.072434608 6:0.072434608 7:0.040241449 8:0.064386318 9:0.072434608 10:497 11:0.99799197 12:0.064386318 
2048 1:0.019189765 2:0.046908316 3:0.0554371 4:0.068230277 5:0.068230277 6:0.1130064 7:0.046908316 8:0.049040512 9:0.089552239 10:210 11:0.44680851 12:0.12793177 
2048 1:0.087837838 2:0.082432432 3:0.058108108 4:0.068918919 5:0.058108108 6:0.032432432 7:0.024324324 8:0.07972973 9:0.048648649 10:405 11:0.5465587 12:0.072972973 
2048 1:0.09610984 2:0.050343249 3:0.057208238 4:0.059496568 5:0.070938215 6:0.098398169 7:0.034324943 8:0.077803204 9:0.068649886 10:186 11:0.42465753 12:0.077803204 
2048 1:0.032634033 2:0.037296037 3:0.076923077 4:0.088578089 5:0.097902098 6:0.097902098 7:0.03030303 8:0.076923077 9:0.074592075 10:219 11:0.50930233 12:0.086247086 
2048 1:0.024604569 2:0.056239016 3:0.080843585 4:0.061511424 5:0.091388401 6:0.096660808 7:0.059753954 8:0.063268893 9:0.075571178 10:312 11:0.54736842 12:0.061511424 
2048 1:0.063596491 2:0.057017544 3:0.078947368 4:0.074561404 5:0.083333333 6:0.081140351 7:0.01754386 8:0.057017544 9:0.057017544 10:289 11:0.63238512 12:0.081140351 
2048 1:0.058823529 2:0.035294118 3:0.044117647 4:0.072058824 5:0.057352941 6:0.076470588 7:0.048529412 8:0.058823529 9:0.1 10:408 11:0.59911894 12:0.10294118 
2048 1:0.046511628 2:0.085271318 3:0.090439276 4:0.080103359 5:0.095607235 6:0.046511628 7:0.041343669 8:0.067183463 9:0.074935401 10:210 11:0.54123711 12:0.07751938 
2048 1:0.03219697 2:0.018939394 3:0.075757576 4:0.037878788 5:0.077651515 6:0.1875 7:0.060606061 8:0.056818182 9:0.10037879 10:194 11:0.36672968 12:0.083333333 
2048 1:0.11372549 2:0.082352941 3:0.070588235 4:0.070588235 5:0.070588235 6:0.062745098 7:0.011764706 8:0.066666667 9:0.039215686 10:81 11:0.31640625 12:0.058823529 
2048 1:0.099547511 2:0.063348416 3:0.054298643 4:0.067873303 5:0.07239819 6:0.049773756 7:0.022624434 8:0.090497738 9:0.049773756 10:216 11:0.48758465 12:0.06561086 
2048 1:0.11347518 2:0.12411348 3:0.070921986 4:0.078014184 5:0.074468085 6:0.035460993 7:0 8:0.046099291 9:0.031914894 10:192 11:0.67844523 12:0.056737589 
2048 1:0.10682493 2:0.068249258 3:0.050445104 4:0.077151335 5:0.065281899 6:0.091988131 7:0.065281899 8:0.047477745 9:0.089020772 10:132 11:0.39053254 12:0.050445104 
2048 1:0.057902973 2:0.082942097 3:0.078247261 4:0.06885759 5:0.087636933 6:0.098591549 7:0.040688576 8:0.051643192 9:0.07198748 10:339 11:0.5296875 12:0.057902973 
2048 1:0.11971831 2:0.077464789 3:0.049295775 4:0.088028169 5:0.063380282 6:0.031690141 7:0.0070422535 8:0.063380282 9:0.042253521 10:111 11:0.38947368 12:0.045774648 
2048 1:0.038314176 2:0.053639847 3:0.072796935 4:0.095785441 5:0.08045977 6:0.095785441 7:0.0076628352 8:0.045977011 9:0.072796935 10:205 11:0.78244275 12:0.072796935 
2048 1:0.096666667 2:0.053333333 3:0.096666667 4:0.063333333 5:0.10666667 6:0.026666667 7:0.0066666667 8:0.053333333 9:0.036666667 10:144 11:0.47840532 12:0.066666667 
2048 1:0.099630996 2:0.10332103 3:0.036900369 4:0.081180812 5:0.040590406 6:0.040590406 7:0.0036900369 8:0.10332103 9:0.040590406 10:84 11:0.30882353 12:0.066420664 
2048 1:0.056565657 2:0.050505051 3:0.050505051 4:0.058585859 5:0.076767677 6:0.13535354 7:0.064646465 8:0.070707071 9:0.1030303 10:210 11:0.4233871 12:0.10505051 
2048 1:0.09540636 2:0.06360424 3:0.074204947 4:0.070671378 5:0.06360424 6:0.077738516 7:0.053003534 8:0.067137809 9:0.070671378 10:198 11:0.6971831 12:0.028268551 
2048 1:0.035650624 2:0.023172906 3:0.064171123 4:0.060606061 5:0.065953654 6:0.12655971 7:0.067736185 8:0.062388592 9:0.08912656 10:41 11:0.072953737 12:0.11051693 
2048 1:0.073260073 2:0.1025641 3:0.080586081 4:0.076923077 5:0.084249084 6:0.054945055 7:0.010989011 8:0.06959707 9:0.047619048 10:150 11:0.54744526 12:0.043956044 
2048 1:0.090277778 2:0.055555556 3:0.027777778 4:0.0625 5:0.048611111 6:0.086805556 7:0.020833333 8:0.079861111 9:0.072916667 10:161 11:0.55709343 12:0.086805556 
2048 1:0.071174377 2:0.085409253 3:0.060498221 4:0.085409253 5:0.060498221 6:0.042704626 7:0.0035587189 8:0.074733096 9:0.042704626 10:126 11:0.44680851 12:0.071174377 
2048 1:0.06864564 2:0.07606679 3:0.040816327 4:0.079777365 5:0.064935065 6:0.05380334 7:0.037105751 8:0.085343228 9:0.07606679 10:276 11:0.51111111 12:0.098330241 
2048 1:0.07037037 2:0.051851852 3:0.051851852 4:0.085185185 5:0.092592593 6:0.062962963 7:0.022222222 8:0.088888889 9:0.062962963 10:99 11:0.36531365 12:0.059259259 
2048 1:0.053435115 2:0.049618321 3:0.030534351 4:0.089694656 5:0.064885496 6:0.083969466 7:0.038167939 8:0.06870229 9:0.11068702 10:303 11:0.57714286 12:0.10496183 
2048 1:0.071428571 2:0.037815126 3:0.054621849 4:0.067226891 5:0.088235294 6:0.11344538 7:0.029411765 8:0.06302521 9:0.10084034 10:147 11:0.61506276 12:0.084033613 
2048 1:0.066666667 2:0.097916667 3:0.079166667 4:0.075 5:0.075 6:0.0625 7:0.014583333 8:0.060416667 9:0.060416667 10:288 11:0.5987526 12:0.072916667 
2048 1:0.078787879 2:0.024242424 3:0.054545455 4:0.039393939 5:0.060606061 6:0.096969697 7:0.090909091 8:0.075757576 9:0.1030303 10:48 11:0.14501511 12:0.051515152 
2048 1:0.091633466 2:0.075697211 3:0.055776892 4:0.079681275 5:0.051792829 6:0.055776892 7:0.027888446 8:0.083665339 9:0.03187251 10:82 11:0.32539683 12:0.083665339 
2048 1:0.058823529 2:0.051150895 3:0.066496164 4:0.097186701 5:0.081841432 6:0.04859335 7:0.010230179 8:0.097186701 9:0.05370844 10:132 11:0.33673469 12:0.074168798 
2048 1:0.10082305 2:0.043209877 3:0.04526749 4:0.072016461 5:0.047325103 6:0.08436214 7:0.024691358 8:0.11316872 9:0.053497942 10:279 11:0.57289528 12:0.069958848 
2048 1:0.058119658 2:0.041025641 3:0.051282051 4:0.061538462 5:0.073504274 6:0.11623932 7:0.034188034 8:0.073504274 9:0.076923077 10:306 11:0.5221843 12:0.08034188 
2048 1:0.091254753 2:0.074144487 3:0.1026616 4:0.085551331 5:0.10836502 6:0.057034221 7:0.0057034221 8:0.058935361 9:0.038022814 10:384 11:0.72865275 12:0.032319392 
2048 1:0.057894737 2:0.034210526 3:0.039473684 4:0.097368421 5:0.078947368 6:0.11052632 7:0.042105263 8:0.078947368 9:0.086842105 10:105 11:0.27559055 12:0.084210526 
2048 1:0.087671233 2:0.065753425 3:0.060273973 4:0.063013699 5:0.073972603 6:0.046575342 7:0.046575342 8:0.087671233 9:0.052054795 10:72 11:0.19672131 12:0.049315068 
2048 1:0.05942029 2:0.028985507 3:0.068115942 4:0.07826087 5:0.079710145 6:0.098550725 7:0.066666667 8:0.063768116 9:0.094202899 10:336 11:0.48625181 12:0.076811594 
2048 1:0.14285714 2:0.045112782 3:0.045112782 4:0.071428571 5:0.067669173 6:0.067669173 7:0.011278195 8:0.082706767 9:0.041353383 10:60 11:0.2247191 12:0.04887218 
2048 1:0.040540541 2:0.013513514 3:0.045045045 4:0.063063063 5:0.076576577 6:0.15315315 7:0.067567568 8:0.067567568 9:0.1036036 10:15 11:0.067264574 12:0.085585586 
2048 1:0.057534247 2:0.052054795 3:0.054794521 4:0.13424658 5:0.063013699 6:0.038356164 7:0.01369863 8:0.10958904 9:0.052054795 10:153 11:0.41803279 12:0.073972603 
2048 1:0.040650407 2:0.046070461 3:0.059620596 4:0.070460705 5:0.073170732 6:0.11924119 7:0.046070461 8:0.051490515 9:0.086720867 10:9 11:0.024324324 12:0.097560976 
2048 1:0.07751938 2:0.054263566 3:0.07751938 4:0.056847545 5:0.07751938 6:0.072351421 7:0.020671835 8:0.090439276 9:0.049095607 10:147 11:0.37886598 12:0.10077519 
2048 1:0.11111111 2:0.070707071 3:0.053030303 4:0.078282828 5:0.075757576 6:0.053030303 7:0.0050505051 8:0.058080808 9:0.050505051 10:216 11:0.5440806 12:0.055555556 
2048 1:0.07032967 2:0.054945055 3:0.07032967 4:0.092307692 5:0.07032967 6:0.03956044 7:0.010989011 8:0.074725275 9:0.050549451 10:228 11:0.5 12:0.10549451 
2048 1:0.084942085 2:0.084942085 3:0.057915058 4:0.11196911 5:0.077220077 6:0.054054054 7:0.015444015 8:0.073359073 9:0.069498069 10:66 11:0.25384615 12:0.073359073 
2048 1:0.10738255 2:0.05033557 3:0.073825503 4:0.063758389 5:0.073825503 6:0.043624161 7:0.013422819 8:0.077181208 9:0.046979866 10:93 11:0.31103679 12:0.070469799 
2048 1:0.068181818 2:0.083333333 3:0.070707071 4:0.073232323 5:0.080808081 6:0.045454545 7:0.02020202 8:0.085858586 9:0.050505051 10:144 11:0.3627204 12:0.063131313 
2048 1:0.064102564 2:0.034188034 3:0.064102564 4:0.068376068 5:0.068376068 6:0.1025641 7:0.021367521 8:0.068376068 9:0.051282051 10:120 11:0.5106383 12:0.05982906 
2048 1:0.032894737 2:0.035087719 3:0.057017544 4:0.087719298 5:0.072368421 6:0.10087719 7:0.043859649 8:0.043859649 9:0.10745614 10:156 11:0.34135667 12:0.10307018 
2048 1:0.043478261 2:0.024154589 3:0.054750403 4:0.085346216 5:0.08373591 6:0.11594203 7:0.033816425 8:0.053140097 9:0.09178744 10:423 11:0.68006431 12:0.088566828 
2048 1:0.11842105 2:0.039473684 3:0.037280702 4:0.076754386 5:0.039473684 6:0.046052632 7:0.039473684 8:0.11403509 9:0.052631579 10:318 11:0.69584245 12:0.046052632 
2048 1:0.06601467 2:0.024449878 3:0.053789731 4:0.095354523 5:0.068459658 6:0.051344743 7:0.019559902 8:0.085574572 9:0.058679707 10:150 11:0.36585366 12:0.073349633 
2048 1:0.038596491 2:0.038596491 3:0.052631579 4:0.094736842 5:0.070175439 6:0.1122807 7:0.028070175 8:0.063157895 9:0.063157895 10:141 11:0.49300699 12:0.080701754 
2048 1:0.061403509 2:0.070175439 3:0.078947368 4:0.084795322 5:0.10233918 6:0.055555556 7:0.011695906 8:0.081871345 9:0.046783626 10:30 11:0.087463557 12:0.055555556 
2048 1:0.12835821 2:0.03880597 3:0.044776119 4:0.059701493 5:0.065671642 6:0.080597015 7:0.017910448 8:0.10447761 9:0.050746269 10:171 11:0.50892857 12:0.095522388 
2048 1:0.068965517 2:0.047021944 3:0.065830721 4:0.072100313 5:0.081504702 6:0.07523511 7:0.02507837 8:0.065830721 9:0.065830721 10:75 11:0.234375 12:0.056426332 
2048 1:0.049438202 2:0.035955056 3:0.06741573 4:0.078651685 5:0.087640449 6:0.12134831 7:0.017977528 8:0.051685393 9:0.069662921 10:333 11:0.74663677 12:0.047191011 
2048 1:0.12087912 2:0.046153846 3:0.037362637 4:0.054945055 5:0.024175824 6:0.057142857 7:0.030769231 8:0.1010989 9:0.048351648 10:240 11:0.52631579 12:0.081318681 
2048 1:0.098550725 2:0.043478261 3:0.049275362 4:0.063768116 5:0.066666667 6:0.08115942 7:0.017391304 8:0.075362319 9:0.046376812 10:138 11:0.39884393 12:0.063768116 
2048 1:0.11267606 2:0.0657277 3:0.075117371 4:0.051643192 5:0.098591549 6:0.023474178 7:0.018779343 8:0.0657277 9:0.061032864 10:141 11:0.6588785 12:0.046948357 
2048 1:0.11067194 2:0.043478261 3:0.067193676 4:0.059288538 5:0.067193676 6:0.067193676 7:0.051383399 8:0.083003953 9:0.055335968 10:213 11:0.83858268 12:0.086956522 
2048 1:0.11721612 2:0.095238095 3:0.064102564 4:0.078754579 5:0.062271062 6:0.043956044 7:0.0054945055 8:0.054945055 9:0.049450549 10:366 11:0.6691042 12:0.054945055 
2048 1:0.05362776 2:0.047318612 3:0.088328076 4:0.082018927 5:0.10725552 6:0.11987382 7:0.0094637224 8:0.066246057 9:0.059936909 10:90 11:0.28301887 12:0.050473186 
2048 1:0.038781163 2:0.03601108 3:0.04432133 4:0.08033241 5:0.08033241 6:0.13296399 7:0.027700831 8:0.069252078 9:0.091412742 10:189 11:0.52209945 12:0.08033241 
2048 1:0.062626263 2:0.048484848 3:0.060606061 4:0.068686869 5:0.084848485 6:0.074747475 7:0.024242424 8:0.058585859 9:0.080808081 10:318 11:0.64112903 12:0.11515152 
2048 1:0.056603774 2:0.032345013 3:0.051212938 4:0.064690027 5:0.064690027 6:0.10781671 7:0.029649596 8:0.09703504 9:0.059299191 10:117 11:0.31451613 12:0.091644205 
2048 1:0.012820513 2:0.038461538 3:0.062271062 4:0.053113553 5:0.064102564 6:0.098901099 7:0.11721612 8:0.049450549 9:0.13186813 10:437 11:0.79890311 12:0.13553114 
2048 1:0.041961131 2:0.04770318 3:0.049028269 4:0.068021201 5:0.066696113 6:0.098498233 7:0.030477032 8:0.06934629 9:0.082597173 10:783 11:0.34569536 12:0.09540636 
2048 1:0.12359551 2:0.078651685 3:0.059925094 4:0.086142322 5:0.082397004 6:0.02247191 7:0.011235955 8:0.082397004 9:0.041198502 10:84 11:0.31343284 12:0.033707865 
2048 1:0.14878893 2:0.11764706 3:0.065743945 4:0.065743945 5:0.038062284 6:0.01384083 7:0.017301038 8:0.062283737 9:0.031141869 10:159 11:0.54827586 12:0.034602076 
2048 1:0.074561404 2:0.065789474 3:0.057017544 4:0.087719298 5:0.070175439 6:0.070175439 7:0.01754386 8:0.078947368 9:0.061403509 10:123 11:0.5371179 12:0.057017544 
2048 1:0.050970874 2:0.058252427 3:0.075242718 4:0.067961165 5:0.10436893 6:0.11165049 7:0.019417476 8:0.067961165 9:0.067961165 10:206 11:0.49878935 12:0.033980583 
2048 1:0.013404826 2:0.040214477 3:0.067024129 4:0.072386059 5:0.080428954 6:0.12600536 7:0.042895442 8:0.064343164 9:0.08847185 10:180 11:0.48128342 12:0.10991957 
2048 1:0.068345324 2:0.057553957 3:0.089928058 4:0.089928058 5:0.075539568 6:0.053956835 7:0.0071942446 8:0.075539568 9:0.039568345 10:112 11:0.40143369 12:0.043165468 
565.1455656602839 1:0.070754717 2:0.037735849 3:0.066037736 4:0.058962264 5:0.073113208 6:0.051886792 7:0.028301887 8:0.068396226 9:0.077830189 10:150 11:0.35294118 12:0.094339623 
2048 1:0.035629454 2:0.059382423 3:0.06888361 4:0.080760095 5:0.097387173 6:0.087885986 7:0.042755344 8:0.066508314 9:0.087885986 10:51 11:0.12085308 12:0.066508314 
2048 1:0.081904762 2:0.087619048 3:0.076190476 4:0.068571429 5:0.091428571 6:0.055238095 7:0.015238095 8:0.060952381 9:0.068571429 10:333 11:0.63307985 12:0.053333333 
2048 1:0.0625 2:0.042763158 3:0.069078947 4:0.072368421 5:0.082236842 6:0.082236842 7:0.016447368 8:0.069078947 9:0.059210526 10:78 11:0.2557377 12:0.085526316 
2048 1:0.021377672 2:0.057007126 3:0.066508314 4:0.10213777 5:0.080760095 6:0.076009501 7:0.016627078 8:0.06175772 9:0.06175772 10:198 11:0.46919431 12:0.13301663 
2048 1:0.034136546 2:0.084337349 3:0.042168675 4:0.072289157 5:0.052208835 6:0.084337349 7:0.078313253 8:0.070281124 9:0.1064257 10:120 11:0.24048096 12:0.1124498 
2048 1:0.041666667 2:0.10416667 3:0.075 4:0.070833333 5:0.1 6:0.083333333 7:0.0125 8:0.066666667 9:0.0625 10:102 11:0.42323651 12:0.058333333 
2048 1:0.10185185 2:0.050925926 3:0.018518519 4:0.083333333 5:0.046296296 6:0.055555556 7:0.037037037 8:0.11111111 9:0.074074074 10:105 11:0.48387097 12:0.069444444 
2048 1:0.09512761 2:0.055684455 3:0.048723898 4:0.07424594 5:0.051044084 6:0.053364269 7:0.0046403712 8:0.085846868 9:0.051044084 10:273 11:0.63194444 12:0.085846868 
2048 1:0.018372703 2:0.018372703 3:0.073490814 4:0.078740157 5:0.076115486 6:0.11286089 7:0.078740157 8:0.073490814 9:0.10498688 10:183 11:0.47905759 12:0.12073491 
2048 1:0.098305085 2:0.047457627 3:0.037288136 4:0.054237288 5:0.050847458 6:0.044067797 7:0.037288136 8:0.12542373 9:0.06440678 10:51 11:0.1722973 12:0.088135593 
2048 1:0.098765432 2:0.098765432 3:0.074074074 4:0.074074074 5:0.082304527 6:0.061728395 7:0 8:0.065843621 9:0.049382716 10:90 11:0.36885246 12:0.037037037 
2048 1:0.053333333 2:0.031111111 3:0.053333333 4:0.062222222 5:0.053333333 6:0.073333333 7:0.082222222 8:0.075555556 9:0.093333333 10:98 11:0.2172949 12:0.12222222 
2048 1:0.060273973 2:0.068493151 3:0.073972603 4:0.087671233 5:0.10136986 6:0.052054795 7:0.030136986 8:0.079452055 9:0.038356164 10:366 11:1 12:0.046575342 
2048 1:0.15120275 2:0.065292096 3:0.058419244 4:0.058419244 5:0.054982818 6:0.051546392 7:0.0068728522 8:0.082474227 9:0.04467354 10:186 11:0.6369863 12:0.058419244 
