svm_type c_svc
kernel_type rbf
gamma 2
nr_class 2
total_sv 1355
rho 16.447
label 1 -1
probA -2.3655
probB 0.0685204
nr_sv 701 654
SV
1331.867778460003 1:0.88328076 2:0.042609153 3:0.009473684 4:0.05733824 5:0.017894737 6:0.0084210526 7:0.012631579 8:0.08837454 9:0.017894737 10:0.032088375 11:0.0047368421 12:0.011578947 13:0.005263158 14:0.09836928 15:0.013157895 16:0.023157895 17:0.044736842 18:0.017368421 19:0.09784324 20:0.034210526 21:0.03 22:0.033666491 23:0.0094736842 24:0.07785376 25:0.010526316 26:0.031578947 27:0.023157895 28:0.05839032 29:0.015263158 30:0.02 31:0.082588112 32:0.027368421 33:0.01 34:0.10257759 35:0.032105263 36:0.04366123 37:0.013684211 38:0.019473684 39:0.021041557 40:0.0078947368 41:0.0015789474 42:0.069437138 43:0.020526316 44:0.0073684211 45:0.02 46:0.06312467 47:0.012105263 48:0.007894737 49:0.031036297 50:0.008947368 51:0.006842105 
863.6059093987707 1:0.83846154 2:0.23695466 3:0.14640411 4:0.08383234 5:0.024828767 6:0.017979452 7:0.035958904 8:0.05132592 9:0.029109589 10:0.086398631 11:0.017123288 12:0.047089041 13:0.005136986 14:0.05474765 15:0.005136986 16:0.033390411 17:0.001712329 18:0.014554795 19:0.013686912 20:0.008561644 21:0 22:0.02566296 23:0 24:0.04106074 25:0.0008561644 26:0 27:0.028253425 28:0.13002566 29:0.023972603 30:0.020547945 31:0.016253208 32:0 33:0.0068493151 34:0.05303678 35:0 36:0.02651839 37:0.005136986 38:0.011130137 39:0.035928144 40:0.0042808219 41:0.012842466 42:0.022241232 43:0.012842466 44:0.0008561644 45:0 46:0.09580838 47:0.04880137 48:0.014554795 49:0.026518392 50:0.009417808 51:0.008561644 
619.4685153094256 1:0.83788707 2:0.046780073 3:0.009118541 4:0.04738761 5:0.01337386 6:0.0079027356 7:0.006079027 8:0.06561361 9:0.018844985 10:0.035236938 11:0.0018237082 12:0.021884498 13:0.004255319 14:0.07594168 15:0.01337386 16:0.018237082 17:0.02674772 18:0.017629179 19:0.069866343 20:0.02674772 21:0.018844985 22:0.046172539 23:0.013981763 24:0.05103281 25:0.0085106383 26:0.016413374 27:0.018844985 28:0.04860267 29:0.012158055 30:0.013981763 31:0.080801944 32:0.015197568 33:0.023708207 34:0.05467801 35:0.012158055 36:0.12697448 37:0.010334347 38:0.097264438 39:0.023693803 40:0.0042553191 41:0.0060790274 42:0.044957473 43:0.009726444 44:0.0054711246 45:0.013981763 46:0.14459295 47:0.009726444 48:0.081458967 49:0.037667072 50:0.00668693 51:0.015197568 
51.45149560700256 1:0.82278481 2:0.051211454 3:0.013774105 4:0.07874449 5:0.042975207 6:0.0044077135 7:0.007162534 8:0.11508811 9:0.019283747 10:0.042951542 11:0.0099173554 12:0.012672176 13:0.011019284 14:0.14977974 15:0.011570248 16:0.044628099 17:0.0815427 18:0.012121212 19:0.090859031 20:0.049586777 21:0.022589532 22:0.012114537 23:0.0027548209 24:0.04680617 25:0.0060606061 26:0.015426997 27:0.013774105 28:0.05231278 29:0.017630854 30:0.012121212 31:0.071035242 32:0.023140496 33:0.0022038567 34:0.05947137 35:0.013774105 36:0.05121145 37:0.026446281 38:0.01322314 39:0.03469163 40:0.0027548209 41:0.01322314 42:0.059471366 43:0.024793388 44:0.0016528926 45:0.012121212 46:0.04680617 47:0.01322314 48:0.009366391 49:0.037444934 50:0.007162534 51:0.009917355 
8192 1:0.69924812 2:0.057788945 3:0.01511335 4:0.05778894 5:0.012594458 6:0.0025188917 7:0.012594458 8:0.09296482 9:0.0302267 10:0.025125628 11:0.0075566751 12:0.010075567 13:0.005037783 14:0.08291457 15:0.022670025 16:0.017632242 17:0.035264484 18:0.0075566751 19:0.12311558 20:0.037783375 21:0.050377834 22:0.027638191 23:0.0025188917 24:0.0678392 25:0.0050377834 26:0.017632242 27:0.032745592 28:0.0678392 29:0.017632242 30:0.020151134 31:0.077889447 32:0.025188917 33:0.0025188917 34:0.1080402 35:0.037783375 36:0.04773869 37:0.012594458 38:0.020151134 39:0.025125628 40:0.012594458 41:0.0050377834 42:0.042713568 43:0.007556675 44:0.012594458 45:0.005037783 46:0.07035176 47:0.010075567 48:0.012594458 49:0.025125628 50:0.007556675 51:0.002518892 
394.5644240454457 1:0.25446429 2:0.046979866 3:0.011210762 4:0.04250559 5:0.013452915 6:0.0044843049 7:0.004484305 8:0.07606264 9:0.011210762 10:0.035794183 11:0.013452915 12:0.011210762 13:0.011210762 14:0.08053691 15:0.022421525 16:0.02690583 17:0.020179372 18:0.011210762 19:0.064876957 20:0.033632287 21:0.0067264574 22:0.013422819 23:0 24:0.0738255 25:0.0044843049 26:0.006726457 27:0.038116592 28:0.05369128 29:0.011210762 30:0.020179372 31:0.085011186 32:0.02690583 33:0.0089686099 34:0.10738255 35:0.02690583 36:0.06711409 37:0.011210762 38:0.02690583 39:0.022371365 40:0 41:0.0044843049 42:0.03803132 43:0.020179372 44:0 45:0.006726457 46:0.1163311 47:0.02690583 48:0.022421525 49:0.07606264 50:0.040358744 51:0.015695067 
8192 1:0.82384824 2:0.02173913 3:0 4:0.07608696 5:0.013623978 6:0.0054495913 7:0.019073569 8:0.06521739 9:0.013623978 10:0.016304348 11:0 12:0.008174387 13:0.002724796 14:0.07880435 15:0.010899183 16:0.032697548 17:0.021798365 18:0.013623978 19:0.081521739 20:0.027247956 21:0.013623978 22:0.027173913 23:0.0054495913 24:0.10326087 25:0.019073569 26:0.016348774 27:0.054495913 28:0.05434783 29:0.013623978 30:0.032697548 31:0.086956522 32:0.021798365 33:0.0081743869 34:0.09782609 35:0.024523161 36:0.06521739 37:0.013623978 38:0.038147139 39:0.024456522 40:0.019073569 41:0 42:0.046195652 43:0.013623978 44:0.0027247956 45:0.021798365 46:0.11684783 47:0.008174387 48:0.024523161 49:0.038043478 50:0.016348774 51:0.008174387 
1081.030314019022 1:0.51812367 2:0.074786325 3:0.025695931 4:0.06410256 5:0.021413276 6:0.0064239829 7:0.019271949 8:0.08974359 9:0.025695931 10:0.034188034 11:0.0042826552 12:0.00856531 13:0.010706638 14:0.07905983 15:0.012847966 16:0.019271949 17:0.040685225 18:0.0064239829 19:0.047008547 20:0.029978587 21:0.0042826552 22:0.014957265 23:0 24:0.07905983 25:0.010706638 26:0.014989293 27:0.032119914 28:0.08547009 29:0.017130621 30:0.027837259 31:0.05982906 32:0.017130621 33:0.0021413276 34:0.05128205 35:0.0064239829 36:0.05982906 37:0.006423983 38:0.019271949 39:0.023504274 40:0.0042826552 41:0.0042826552 42:0.049145299 43:0.012847966 44:0.0064239829 45:0.021413276 46:0.10042735 47:0.021413276 48:0.019271949 49:0.087606838 50:0.038543897 51:0.029978587 
165.4025819537758 1:0.36931818 2:0.056925996 3:0.022813688 4:0.06072106 5:0.011406844 6:0.0057034221 7:0.015209125 8:0.07969639 9:0.015209125 10:0.032258065 11:0.0076045627 12:0.011406844 13:0.001901141 14:0.09297913 15:0.017110266 16:0.032319392 17:0.032319392 18:0.011406844 19:0.09487666 20:0.034220532 21:0.022813688 22:0.028462998 23:0.015209126 24:0.07969639 25:0.0076045627 26:0.020912548 27:0.036121673 28:0.056926 29:0.011406844 30:0.020912548 31:0.077798861 32:0.024714829 33:0.0057034221 34:0.08159393 35:0.019011407 36:0.05313093 37:0.013307985 38:0.024714829 39:0.024667932 40:0.0038022814 41:0.0038022814 42:0.062618596 43:0.022813688 44:0.0076045627 45:0.013307985 46:0.07969639 47:0.015209125 48:0.019011407 49:0.037950664 50:0.007604563 51:0.011406844 
6151.145215157565 1:0.84444444 2:0.10760668 3:0.031598513 4:0.05380334 5:0.027881041 6:0.013011152 7:0.003717472 8:0.10760668 9:0.040892193 10:0.07606679 11:0.016728625 12:0.026022305 13:0.016728625 14:0.10018553 15:0.035315985 16:0.011152416 17:0.035315985 18:0.018587361 19:0.035250464 20:0.020446097 21:0.0037174721 22:0.016697588 23:0.0018587361 24:0.05380334 25:0.011152416 26:0.014869888 27:0.018587361 28:0.09647495 29:0.013011152 30:0.031598513 31:0.057513915 32:0.007434944 33:0.0037174721 34:0.03525046 35:0.0018587361 36:0.04081633 37:0.011152416 38:0.011152416 39:0.040816327 40:0.016728625 41:0.0018587361 42:0.059369202 43:0.024163569 44:0 45:0.020446097 46:0.06864564 47:0.024163569 48:0.014869888 49:0.050092764 50:0.013011152 51:0.013011152 
3448.595481174291 1:0.81306306 2:0.045146727 3:0.011312217 4:0.04288939 5:0.018099548 6:0.0022624434 7:0.009049774 8:0.09480813 9:0.029411765 10:0.015801354 11:0 12:0.004524887 13:0 14:0.07674944 15:0.015837104 16:0.011312217 17:0.045248869 18:0.0045248869 19:0.11963883 20:0.031674208 21:0.040723982 22:0.076749436 23:0.031674208 24:0.06320542 25:0.0045248869 26:0.024886878 27:0.024886878 28:0.06772009 29:0.018099548 30:0.022624434 31:0.10835214 32:0.040723982 33:0.024886878 34:0.09480813 35:0.033936652 36:0.04514673 37:0.020361991 38:0.013574661 39:0.006772009 40:0.0022624434 41:0.0022624434 42:0.065462754 43:0.009049774 44:0.015837104 45:0.015837104 46:0.05191874 47:0.002262443 48:0.00678733 49:0.0248307 50:0.009049774 51:0.00678733 
8192 1:1 2:0.042492918 3:0.008522727 4:0.04532578 5:0.014204546 6:0.011363636 7:0.014204545 8:0.08498584 9:0.019886364 10:0.033994334 11:0.0028409091 12:0.019886364 13:0.005681818 14:0.08498584 15:0.022727273 16:0.014204545 17:0.042613636 18:0.0056818182 19:0.079320113 20:0.028409091 21:0.025568182 22:0.02266289 23:0.0056818182 24:0.07932011 25:0.0028409091 26:0.025568182 27:0.03125 28:0.06232295 29:0.008522727 30:0.028409091 31:0.073654391 32:0.025568182 33:0.0028409091 34:0.07082153 35:0.019886364 36:0.06515581 37:0.017045455 38:0.017045455 39:0.016997167 40:0.0056818182 41:0.0028409091 42:0.067988669 43:0.019886364 44:0.0056818182 45:0.019886364 46:0.09348442 47:0.019886364 48:0.025568182 49:0.076487252 50:0.025568182 51:0.025568182 
5702.529755771848 1:0.9868709 2:0.052573932 3:0.014254386 4:0.05476451 5:0.026315789 6:0.0043859649 7:0.015350877 8:0.05147864 9:0.016447368 10:0.11062432 11:0.0087719298 12:0.018640351 13:0.010964912 14:0.1347207 15:0.012061404 16:0.021929825 17:0.023026316 18:0.077850877 19:0.095290252 20:0.065789474 21:0.010964912 22:0.013143483 23:0.0021929825 24:0.05914567 25:0.014254386 26:0.016447368 27:0.016447368 28:0.04928806 29:0.012061404 30:0.007675439 31:0.036144578 32:0.006578947 33:0.0032894737 34:0.04709748 35:0.0065789474 36:0.03943045 37:0.014254386 38:0.009868421 39:0.032858708 40:0.0076754386 41:0.012061403 42:0.11719606 43:0.027412281 44:0.0021929825 45:0.01754386 46:0.05914567 47:0.012061404 48:0.01754386 49:0.047097481 50:0.014254386 51:0.013157895 
8192 1:1 2:0.055194805 3:0.009771987 4:0.07142857 5:0.039087948 6:0.006514658 7:0.013029316 8:0.05844156 9:0.013029316 10:0.048701299 11:0.003257329 12:0.016286645 13:0.013029316 14:0.1038961 15:0.026058632 16:0.022801303 17:0.022801303 18:0.03257329 19:0.084415584 20:0.035830619 21:0.016286645 22:0.012987013 23:0 24:0.09415584 25:0.006514658 26:0.042345277 27:0.03257329 28:0.06168831 29:0.019543974 30:0.009771987 31:0.051948052 32:0.022801303 33:0.003257329 34:0.0487013 35:0.009771987 36:0.04545455 37:0.013029316 38:0.016286645 39:0.012987013 40:0.006514658 41:0 42:0.087662338 43:0.019543974 44:0.003257329 45:0.03257329 46:0.08766234 47:0.029315961 48:0.013029316 49:0.074675325 50:0.022801303 51:0.035830619 
2544.154044467221 1:0.80612245 2:0.076660988 3:0.02559727 4:0.05792164 5:0.023890785 6:0.0017064846 7:0.027303754 8:0.04429302 9:0.013651877 10:0.097103918 11:0.017064846 12:0.02559727 13:0.029010239 14:0.08517888 15:0.015358362 16:0.017064846 17:0.013651877 18:0.039249147 19:0.04088586 20:0.015358362 21:0.0068259386 22:0.008517888 23:0.0034129693 24:0.09028961 25:0.018771331 26:0.018771331 27:0.023890785 28:0.03577513 29:0.003412969 30:0.006825939 31:0.037478705 32:0.006825939 33:0.0017064846 34:0.01873935 35:0.0034129693 36:0.05621806 37:0.017064846 38:0.008532423 39:0.076660988 40:0.0221843 41:0.027303754 42:0.088586031 43:0.032423208 44:0.0034129693 45:0.030716724 46:0.07666099 47:0.017064846 48:0.029010239 49:0.10902896 50:0.018771331 51:0.037542662 
8192 1:0.94285714 2:0.064439141 3:0.011961722 4:0.06205251 5:0.028708134 6:0.004784689 7:0.014354067 8:0.10023866 9:0.043062201 10:0.054892601 11:0.011961723 12:0.0215311 13:0.011961722 14:0.08591885 15:0.016746411 16:0.026315789 17:0.026315789 18:0.016746411 19:0.059665871 20:0.019138756 21:0.014354067 22:0.028639618 23:0.0071770335 24:0.05727924 25:0.011961723 26:0.004784689 27:0.028708134 28:0.09785203 29:0.016746411 30:0.031100478 31:0.059665871 32:0.014354067 33:0.0071770335 34:0.05966587 35:0.014354067 36:0.05727924 37:0.023923445 38:0.019138756 39:0.033412888 40:0.009569378 41:0.016746411 42:0.050119332 43:0.014354067 44:0.0023923445 45:0.014354067 46:0.08591885 47:0.026315789 48:0.028708134 49:0.042959427 50:0.016746411 51:0.011961722 
3684.50648649023 1:0.34939759 2:0.078549849 3:0.021212121 4:0.05740181 5:0.021212121 6:0.012121212 7:0.012121212 8:0.11782477 9:0.045454545 10:0.024169184 11:0.0060606061 12:0.006060606 13:0.003030303 14:0.081571 15:0.021212121 16:0.018181818 17:0.039393939 18:0.003030303 19:0.057401813 20:0.015151515 21:0.018181818 22:0.075528701 23:0.021212121 24:0.05438066 25:0.0060606061 26:0.024242424 27:0.018181818 28:0.10574018 29:0.018181818 30:0.045454545 31:0.10876133 32:0.021212121 33:0.027272727 34:0.10876133 35:0.042424242 36:0.01812689 37:0.006060606 38:0.006060606 39:0.01510574 40:0.003030303 41:0 42:0.042296073 43:0.009090909 44:0.024242424 45:0.006060606 46:0.03927492 47:0.009090909 48:0.006060606 49:0.01510574 50:0.009090909 51:0.003030303 
8192 1:0.88687783 2:0.10204082 3:0.040909091 4:0.0521542 5:0.018181818 6:0.0022727273 7:0.018181818 8:0.05668934 9:0.013636364 10:0.077097506 11:0.0090909091 12:0.020454545 13:0.022727273 14:0.07256236 15:0.029545455 16:0.006818182 17:0.018181818 18:0.018181818 19:0.063492063 20:0.020454545 21:0.011363636 22:0.006802721 23:0 24:0.07709751 25:0.015909091 26:0.013636364 27:0.013636364 28:0.05668934 29:0.013636364 30:0.011363636 31:0.01814059 32:0.006818182 33:0.0022727273 34:0.03174603 35:0.0022727273 36:0.06122449 37:0.009090909 38:0.020454545 39:0.056689342 40:0.015909091 41:0.027272727 42:0.083900227 43:0.027272727 44:0.0022727273 45:0.022727273 46:0.07482993 47:0.025 48:0.022727273 49:0.10884354 50:0.020454545 51:0.029545455 
8192 1:0.72230428 2:0.048816568 3:0.008888889 4:0.03994083 5:0.014814815 6:0.002962963 7:0.011851852 8:0.08284024 9:0.017777778 10:0.047337278 11:0.0074074074 12:0.017777778 13:0.013333333 14:0.0739645 15:0.017777778 16:0.007407407 17:0.037037037 18:0.011851852 19:0.051775148 20:0.014814815 21:0.013333333 22:0.026627219 23:0.0014814815 24:0.0739645 25:0.0059259259 26:0.020740741 27:0.023703704 28:0.06804734 29:0.020740741 30:0.020740741 31:0.076923077 32:0.014814815 33:0.0088888889 34:0.10502959 35:0.022222222 36:0.06360947 37:0.019259259 38:0.02962963 39:0.029585799 40:0.0088888889 41:0.011851852 42:0.057692308 43:0.020740741 44:0.0059259259 45:0.017777778 46:0.09763314 47:0.016296296 48:0.020740741 49:0.056213018 50:0.026666667 51:0.011851852 
3238.613365245538 1:0.90244915 2:0.040271243 3:0.010934256 4:0.06490451 5:0.025190311 6:0.0030449827 7:0.020761246 8:0.04220869 9:0.010242215 10:0.077636313 11:0.017716263 12:0.018408304 13:0.024636678 14:0.09880985 15:0.013010381 16:0.031141869 17:0.015363322 18:0.039307958 19:0.084555771 20:0.032941176 21:0.022698962 22:0.00982563 23:0.0026297578 24:0.10877387 25:0.016608997 26:0.044429066 27:0.021453287 28:0.02989206 29:0.005397924 30:0.00982699 31:0.039856075 32:0.010795848 33:0.0008304498 34:0.02947689 35:0.0065051903 36:0.0471907 37:0.012318339 38:0.010519031 39:0.056047606 40:0.019515571 41:0.020207612 42:0.11251038 43:0.027404844 44:0.0024913495 45:0.047612457 46:0.06490451 47:0.008442907 48:0.026574394 49:0.093135898 50:0.014532872 51:0.027543253 
8192 1:0.89943074 2:0.045627376 3:0.007619048 4:0.04942966 5:0.017142857 6:0.0038095238 7:0.007619048 8:0.06653992 9:0.022857143 10:0.079847909 11:0.013333333 12:0.028571429 13:0.020952381 14:0.07794677 15:0.007619048 16:0.017142857 17:0.03047619 18:0.022857143 19:0.066539924 20:0.028571429 21:0.013333333 22:0.017110266 23:0 24:0.07604563 25:0.0095238095 26:0.024761905 27:0.022857143 28:0.07034221 29:0.015238095 30:0.020952381 31:0.053231939 32:0.00952381 33:0.0019047619 34:0.05323194 35:0.011428571 36:0.05513308 37:0.007619048 38:0.020952381 39:0.049429658 40:0.013333333 41:0.020952381 42:0.068441065 43:0.015238095 44:0.0076190476 45:0.022857143 46:0.09505703 47:0.024761905 48:0.020952381 49:0.076045627 50:0.022857143 51:0.020952381 
8192 1:0.97971014 2:0.066763425 3:0.013081395 4:0.05079826 5:0.020348837 6:0.0072674419 7:0.011627907 8:0.0754717 9:0.020348837 10:0.071117562 11:0.01744186 12:0.020348837 13:0.01744186 14:0.07982583 15:0.01744186 16:0.014534884 17:0.024709302 18:0.023255814 19:0.053701016 20:0.021802326 21:0.0072674419 22:0.017416546 23:0.0014534884 24:0.0754717 25:0.011627907 26:0.023255814 27:0.01744186 28:0.06676343 29:0.013081395 30:0.015988372 31:0.04934688 32:0.013081395 33:0.0029069767 34:0.06240929 35:0.0072674419 36:0.05660377 37:0.011627907 38:0.024709302 39:0.04934688 40:0.011627907 41:0.013081395 42:0.07256894 43:0.024709302 44:0.0029069767 45:0.023255814 46:0.07982583 47:0.020348837 48:0.015988372 49:0.07256894 50:0.01744186 51:0.021802326 
8192 1:0.9719888 2:0.033707865 3:0.005633803 4:0.06179775 5:0.01971831 6:0.01971831 7:0.005633803 8:0.0505618 9:0.011267606 10:0.064606742 11:0.0028169014 12:0.022535211 13:0.016901408 14:0.1011236 15:0.014084507 16:0.036619718 17:0.022535211 18:0.028169014 19:0.084269663 20:0.03943662 21:0.01971831 22:0.04494382 23:0.0084507042 24:0.07022472 25:0.0056338028 26:0.028169014 27:0.030985915 28:0.05337079 29:0.014084507 30:0.014084507 31:0.073033708 32:0.025352113 33:0.011267606 34:0.07022472 35:0.014084507 36:0.05617978 37:0.016901408 38:0.01971831 39:0.02247191 40:0.0028169014 41:0.016901408 42:0.084269663 43:0.025352113 44:0.0084507042 45:0.025352113 46:0.08426966 47:0.016901408 48:0.016901408 49:0.04494382 50:0.011267606 51:0.008450704 
8192 1:0.98191682 2:0.070652174 3:0.021778584 4:0.03985507 5:0.010889292 6:0.0090744102 7:0.014519056 8:0.05615942 9:0.012704174 10:0.076086957 11:0.010889292 12:0.02722323 13:0.029038113 14:0.04891304 15:0.014519056 16:0.00907441 17:0.014519056 18:0.010889292 19:0.03442029 20:0.010889292 21:0.0054446461 22:0.03442029 23:0.014519056 24:0.0615942 25:0.0054446461 26:0.014519056 27:0.01814882 28:0.07971014 29:0.00907441 30:0.021778584 31:0.05615942 32:0.00907441 33:0.014519056 34:0.08876812 35:0.027223231 36:0.03985507 37:0.00907441 38:0.01814882 39:0.043478261 40:0.0072595281 41:0.019963702 42:0.048913043 43:0.016333938 44:0.0054446461 45:0.012704174 46:0.08514493 47:0.02722323 48:0.014519056 49:0.13586956 50:0.021778584 51:0.074410163 
120.1173443747495 1:0.91954023 2:0.043778802 3:0.009237875 4:0.04147465 5:0.0069284065 6:0.016166282 7:0.011547344 8:0.06221198 9:0.018475751 10:0.048387097 11:0.0023094688 12:0.032332564 13:0.004618938 14:0.0483871 15:0.004618938 16:0.011547344 17:0.013856813 18:0.018475751 19:0.055299539 20:0.016166282 21:0.0092378753 22:0.064516129 23:0.034642032 24:0.07373272 25:0.0046189376 26:0.023094688 27:0.030023095 28:0.0875576 29:0.011547344 30:0.032332564 31:0.094470046 32:0.020785219 33:0.027713626 34:0.11751152 35:0.036951501 36:0.04608295 37:0.013856813 38:0.020785219 39:0.016129032 40:0.0046189376 41:0 42:0.050691244 43:0.006928406 44:0.0092378753 45:0.016166282 46:0.10138249 47:0.025404157 48:0.018475751 49:0.048387097 50:0.018475751 51:0.020785219 
5760.805928152357 1:0.59295499 2:0.068627451 3:0.013752456 4:0.06862745 5:0.025540275 6:0.011787819 7:0.015717092 8:0.10196078 9:0.041257367 10:0.045098039 11:0.0058939096 12:0.007858546 13:0.003929273 14:0.08627451 15:0.013752456 16:0.023575639 17:0.037328094 18:0.011787819 19:0.056862745 20:0.021611002 21:0.0058939096 22:0.02745098 23:0.013752456 24:0.09019608 25:0.015717092 26:0.021611002 27:0.035363458 28:0.09607843 29:0.011787819 30:0.033398821 31:0.07254902 32:0.019646365 33:0.0078585462 34:0.05686275 35:0.0039292731 36:0.0254902 37:0.00589391 38:0.009823183 39:0.033333333 40:0.015717092 41:0 42:0.062745098 43:0.019646365 44:0.0058939096 45:0.021611002 46:0.06470588 47:0.021611002 48:0.00589391 49:0.043137255 50:0.011787819 51:0.015717092 
8192 1:0.97168597 2:0.07639485 3:0.020180335 4:0.04463519 5:0.016745384 6:0.0017174753 7:0.013739802 8:0.07896996 9:0.028338343 10:0.063519313 11:0.010304852 12:0.023615286 13:0.015027909 14:0.08025751 15:0.021468441 16:0.01459854 17:0.026191498 18:0.018033491 19:0.067381974 20:0.02189781 21:0.016745384 22:0.00944206 23:0.0017174753 24:0.07939914 25:0.0085873766 26:0.019750966 27:0.030055818 28:0.06738197 29:0.012022327 30:0.020180335 31:0.052360515 32:0.01459854 33:0.0012881065 34:0.05450644 35:0.014169171 36:0.05321888 37:0.015457278 38:0.01459854 39:0.039484979 40:0.0060111636 41:0.0081580077 42:0.072103004 43:0.022756548 44:0.002576213 45:0.023185917 46:0.08454936 47:0.021039073 48:0.020180335 49:0.07639485 50:0.016316015 51:0.022327179 
6767.23878900612 1:0.96717172 2:0.078481013 3:0.025380711 4:0.06075949 5:0.017766497 6:0 7:0.030456853 8:0.0835443 9:0.02284264 10:0.048101266 11:0.012690355 12:0.02284264 13:0.005076142 14:0.07848101 15:0.020304569 16:0.017766497 17:0.030456853 18:0.010152284 19:0.098734177 20:0.035532995 21:0.035532995 22:0.005063291 23:0 24:0.09113924 25:0.015228426 26:0.035532995 27:0.02284264 28:0.07594937 29:0.017766497 30:0.015228426 31:0.043037975 32:0.015228426 33:0 34:0.07088608 35:0.015228426 36:0.04303797 37:0.010152284 38:0.017766497 39:0.037974684 40:0.010152284 41:0.015228426 42:0.070886076 43:0.012690355 44:0.0025380711 45:0.017766497 46:0.07341772 47:0.025380711 48:0.015228426 49:0.040506329 50:0.010152284 51:0.005076142 
2982.601095414708 1:0.77560976 2:0.068627451 3:0.004926108 4:0.06372549 5:0.014778325 6:0.0049261084 7:0.019704433 8:0.08823529 9:0.02955665 10:0.009803922 11:0 12:0.009852217 13:0 14:0.05392157 15:0.019704433 16:0.004926108 17:0.02955665 18:0 19:0.058823529 20:0.024630542 21:0.0049261084 22:0.039215686 23:0.0098522167 24:0.07352941 25:0 26:0.009852217 27:0.044334975 28:0.09313725 29:0.02955665 30:0.024630542 31:0.053921569 32:0.014778325 33:0.0098522167 34:0.10294118 35:0.02955665 36:0.08823529 37:0.019704433 38:0.044334975 39:0.014705882 40:0.0049261084 41:0 42:0.049019608 43:0.014778325 44:0.0098522167 45:0.009852217 46:0.10784314 47:0.019704433 48:0.02955665 49:0.034313725 50:0.009852217 51:0.004926108 
6904.997512118322 1:0.68786127 2:0.055984556 3:0.021276596 4:0.05212355 5:0.017408124 6:0.003868472 7:0.007736944 8:0.03861004 9:0.01934236 10:0.067567568 11:0.0077369439 12:0.021276596 13:0.017408124 14:0.08108108 15:0.00967118 16:0.013539652 17:0.025145068 18:0.032882012 19:0.083011583 20:0.027079304 21:0.02901354 22:0.007722008 23:0 24:0.11196911 25:0.0077369439 26:0.034816248 27:0.040618956 28:0.05019305 29:0.011605416 30:0.005802708 31:0.034749035 32:0.005802708 33:0 34:0.04633205 35:0.011605416 36:0.05791506 37:0.032882012 38:0.00967118 39:0.027027027 40:0.011605416 41:0.0058027079 42:0.11389961 43:0.023210832 44:0.001934236 45:0.063829787 46:0.0965251 47:0.017408124 48:0.034816248 49:0.075289575 50:0.025145068 51:0.01934236 
8192 1:0.79933665 2:0.061461794 3:0.024958403 4:0.05481728 5:0.013311148 6:0.0049916805 7:0.026622296 8:0.06478405 9:0.018302829 10:0.051495017 11:0.011647255 12:0.014975042 13:0.019966722 14:0.07142857 15:0.009983361 16:0.019966722 17:0.024958403 18:0.016638935 19:0.064784053 20:0.019966722 21:0.011647255 22:0.03820598 23:0.011647255 24:0.08139535 25:0.0099833611 26:0.018302829 27:0.02828619 28:0.05980066 29:0.014975042 30:0.013311148 31:0.081395349 32:0.029950083 33:0.013311148 34:0.06146179 35:0.014975042 36:0.04817276 37:0.006655574 38:0.018302829 39:0.03986711 40:0.006655574 41:0.014975042 42:0.053156146 43:0.019966722 44:0.011647255 45:0.008319468 46:0.08803987 47:0.013311148 48:0.014975042 49:0.079734219 50:0.026622296 51:0.018302829 
2312.048837887423 1:0.60465116 2:0.082298137 3:0.020217729 4:0.08385093 5:0.026438569 6:0.01244168 7:0.020217729 8:0.03726708 9:0.00622084 10:0.065217391 11:0.01399689 12:0.020217729 13:0.024883359 14:0.08385093 15:0.029548989 16:0.026438569 17:0.00933126 18:0.018662519 19:0.076086957 20:0.023328149 21:0.020217729 22:0.020186335 23:0.0046656299 24:0.07919255 25:0.0077760498 26:0.023328149 27:0.034214619 28:0.04813665 29:0.01399689 30:0.00311042 31:0.038819876 32:0.017107309 33:0 34:0.04503106 35:0.01088647 36:0.05900621 37:0.018662519 38:0.017107309 39:0.054347826 40:0.01399689 41:0.023328149 42:0.060559006 43:0.023328149 44:0.0031104199 45:0.020217729 46:0.08695652 47:0.021772939 48:0.031104199 49:0.079192547 50:0.0155521 51:0.023328149 
1054.674748934082 1:0.49693252 2:0.086153846 3:0.046296296 4:0.06153846 5:0.024691358 6:0.0061728395 7:0.009259259 8:0.06461538 9:0.021604938 10:0.033846154 11:0.0061728395 12:0.009259259 13:0.009259259 14:0.08615385 15:0.015432099 16:0.024691358 17:0.024691358 18:0.021604938 19:0.070769231 20:0.030864198 21:0.018518519 22:0.030769231 23:0.0030864198 24:0.08 25:0.0061728395 26:0.015432099 27:0.046296296 28:0.05538462 29:0.015432099 30:0.012345679 31:0.070769231 32:0.018518519 33:0.0092592593 34:0.06461538 35:0.015432099 36:0.07384615 37:0.030864198 38:0.027777778 39:0.018461538 40:0.0092592593 41:0.0030864198 42:0.064615385 43:0.021604938 44:0.0061728395 45:0.024691358 46:0.10461538 47:0.012345679 48:0.033950617 49:0.033846154 50:0.021604938 51:0.00308642 
7284.990204653231 1:0.88455538 2:0.0671875 3:0.015649452 4:0.0390625 5:0.012519562 6:0.0015649452 7:0.007824726 8:0.1015625 9:0.03286385 10:0.0609375 11:0.0031298905 12:0.029733959 13:0.010954617 14:0.10625 15:0.025039124 16:0.015649452 17:0.048513302 18:0.017214397 19:0.065625 20:0.037558685 21:0.014084507 22:0.0125 23:0 24:0.053125 25:0.0078247261 26:0.017214397 27:0.018779343 28:0.0765625 29:0.015649452 30:0.023474178 31:0.071875 32:0.025039124 33:0.0015649452 34:0.0671875 35:0.014084507 36:0.0546875 37:0.012519562 38:0.020344288 39:0.0203125 40:0.0015649452 41:0.0093896714 42:0.0609375 43:0.021909233 44:0.0046948357 45:0.025039124 46:0.0890625 47:0.020344288 48:0.025039124 49:0.053125 50:0.020344288 51:0.014084507 
2864.093268859913 1:0.51824818 2:0.03902439 3:0.009779951 4:0.05609756 5:0.012224939 6:0.0097799511 7:0.019559902 8:0.05121951 9:0.002444988 10:0.03902439 11:0.0073349633 12:0.012224939 13:0.007334963 14:0.06829268 15:0.007334963 16:0.026894866 17:0.026894866 18:0.0073349633 19:0.11463415 20:0.026894866 21:0.041564792 22:0.046341463 23:0.014669927 24:0.09268293 25:0.0097799511 26:0.024449878 27:0.04400978 28:0.05121951 29:0.007334963 30:0.019559902 31:0.090243902 32:0.031784841 33:0.012224939 34:0.08536585 35:0.024449878 36:0.04390244 37:0.009779951 38:0.014669927 39:0.029268293 40:0.0097799511 41:0.0073349633 42:0.06097561 43:0.017114914 44:0.0073349633 45:0.009779951 46:0.08536585 47:0.014669927 48:0.014669927 49:0.046341463 50:0.014669927 51:0.009779951 
3403.200349603458 1:0.38278932 2:0.083333333 3:0.014925373 4:0.0625 5:0.020895522 6:0.0059701493 7:0.023880597 8:0.11309524 9:0.056716418 10:0.0625 11:0.0059701493 12:0.017910448 13:0.020895522 14:0.07142857 15:0.017910448 16:0.020895522 17:0.023880597 18:0.0089552239 19:0.05952381 20:0.017910448 21:0.017910448 22:0.011904762 23:0 24:0.06845238 25:0.011940298 26:0.008955224 27:0.029850746 28:0.13095238 29:0.014925373 30:0.041791045 31:0.038690476 32:0.005970149 33:0 34:0.05059524 35:0.0059701493 36:0.03571429 37:0.002985075 38:0.020895522 39:0.032738095 40:0.0089552239 41:0.0089552239 42:0.050595238 43:0.017910448 44:0.0029850746 45:0.005970149 46:0.08035714 47:0.03880597 48:0.011940299 49:0.047619048 50:0.011940299 51:0.005970149 
849.3683865741257 1:0.29175476 2:0.065677966 3:0.01910828 4:0.06567797 5:0.014861996 6:0.0021231423 7:0.008492569 8:0.05508475 9:0.01910828 10:0.069915254 11:0.010615711 12:0.012738854 13:0.031847134 14:0.08050847 15:0.014861996 16:0.036093418 17:0.012738854 18:0.016985138 19:0.080508475 20:0.036093418 21:0.008492569 22:0.008474576 23:0 24:0.08686441 25:0.016985138 26:0.023354565 27:0.023354565 28:0.04872881 29:0.004246285 30:0.010615711 31:0.033898305 32:0.008492569 33:0.0021231423 34:0.04661017 35:0.012738853 36:0.0529661 37:0.010615711 38:0.014861996 39:0.061440678 40:0.010615711 41:0.01910828 42:0.074152542 43:0.01910828 44:0.0042462845 45:0.027600849 46:0.07415254 47:0.014861996 48:0.01910828 49:0.095338983 50:0.023354565 51:0.025477707 
8134.999172121014 1:0.76036866 2:0.11574074 3:0.023255814 4:0.06944444 5:0.023255814 6:0.0093023256 7:0.018604651 8:0.06944444 9:0.018604651 10:0.064814815 11:0.023255814 12:0.018604651 13:0.009302326 14:0.09722222 15:0.046511628 16:0.009302326 17:0.03255814 18:0.0093023256 19:0.083333333 20:0.027906977 21:0.018604651 22:0.023148148 23:0 24:0.0787037 25:0.013953488 26:0.03255814 27:0.018604651 28:0.06481481 29:0.009302326 30:0.004651163 31:0.050925926 32:0.018604651 33:0 34:0.02777778 35:0 36:0.03240741 37:0.009302326 38:0.013953488 39:0.041666667 40:0.018604651 41:0.0093023256 42:0.078703704 43:0.027906977 44:0.0093023256 45:0.013953488 46:0.05555556 47:0.027906977 48:0.009302326 49:0.046296296 50:0.004651163 51:0.013953488 
8192 1:0.91873396 2:0.068493151 3:0.017994859 4:0.0625 5:0.022279349 6:0.0017137961 7:0.015424165 8:0.08561644 9:0.036846615 10:0.059075342 11:0.0077120823 12:0.020565553 13:0.005998286 14:0.08476027 15:0.017994859 16:0.021422451 17:0.024850043 18:0.020565553 19:0.071061644 20:0.023993145 21:0.011996572 22:0.009417808 23:0.0017137961 24:0.08304795 25:0.0085689803 26:0.015424165 27:0.045415596 28:0.09589041 29:0.021422451 30:0.028277635 31:0.04880137 32:0.01285347 33:0.0017137961 34:0.07191781 35:0.015424165 36:0.04109589 37:0.015424165 38:0.015424165 39:0.026541096 40:0.0051413882 41:0.0085689803 42:0.065924658 43:0.021422451 44:0.0025706941 45:0.018851757 46:0.09160959 47:0.023136247 48:0.022279349 49:0.034246575 50:0.010282776 51:0.007712082 
3746.006967006908 1:0.80477528 2:0.098452883 3:0.032394366 4:0.05063291 5:0.01971831 6:0.0070422535 7:0.012676056 8:0.10126582 9:0.052112676 10:0.05907173 11:0.022535211 12:0.015492958 13:0.009859155 14:0.05766526 15:0.015492958 16:0.007042254 17:0.026760563 18:0.0084507042 19:0.050632911 20:0.009859155 21:0.016901408 22:0.037974684 23:0.0056338028 24:0.04219409 25:0.0014084507 26:0.007042254 27:0.023943662 28:0.11954993 29:0.015492958 30:0.036619718 31:0.043600563 32:0.008450704 33:0.0098591549 34:0.09423347 35:0.026760563 36:0.05063291 37:0.007042254 38:0.022535211 39:0.033755274 40:0.0056338028 41:0.0098591549 42:0.045007032 43:0.014084507 44:0.0084507042 45:0.007042254 46:0.07313643 47:0.01971831 48:0.011267606 49:0.042194093 50:0.011267606 51:0.008450704 
5182.371687934452 1:0.30940594 2:0.054590571 3:0.009950249 4:0.05459057 5:0.0099502488 6:0.012437811 7:0.017412935 8:0.07444169 9:0.027363184 10:0.029776675 11:0.0024875622 12:0.004975124 13:0.012437811 14:0.06699752 15:0.012437811 16:0.014925373 17:0.027363184 18:0.012437811 19:0.084367246 20:0.029850746 21:0.014925373 22:0.047146402 23:0.0074626866 24:0.08436725 25:0.0024875622 26:0.017412935 27:0.047263682 28:0.07692308 29:0.019900498 30:0.019900498 31:0.091811414 32:0.034825871 33:0.0099502488 34:0.10421836 35:0.039800995 36:0.03473945 37:0.009950249 38:0.012437811 39:0.014888337 40:0.0049751244 41:0 42:0.052109181 43:0.004975124 44:0.0074626866 45:0.019900498 46:0.08188586 47:0.004975124 48:0.014925373 49:0.047146402 50:0.017412935 51:0.009950249 
8192 1:0.97849462 2:0.075431034 3:0.006479482 4:0.04741379 5:0.023758099 6:0 7:0.004319654 8:0.07543103 9:0.034557235 10:0.081896552 11:0.01511879 12:0.023758099 13:0.030237581 14:0.09698276 15:0.030237581 16:0.017278618 17:0.030237581 18:0.019438445 19:0.075431034 20:0.023758099 21:0.021598272 22:0.00862069 23:0.0043196544 24:0.05172414 25:0.010799136 26:0.012958963 27:0.010799136 28:0.05818966 29:0.006479482 30:0.010799136 31:0.038793103 32:0.012958963 33:0 34:0.04525862 35:0.012958963 36:0.06034483 37:0.010799136 38:0.01511879 39:0.049568966 40:0.0064794816 41:0.021598272 42:0.068965517 43:0.028077754 44:0 45:0.019438445 46:0.07327586 47:0.01511879 48:0.023758099 49:0.092672414 50:0.023758099 51:0.023758099 
4099.27723824597 1:0.93453725 2:0.11312217 3:0.052154195 4:0.06108597 5:0.027210884 6:0.0090702948 7:0.01814059 8:0.05656109 9:0.024943311 10:0.07239819 11:0.01814059 12:0.013605442 13:0.020408163 14:0.08597285 15:0.024943311 16:0.022675737 17:0.015873016 18:0.022675737 19:0.052036199 20:0.01814059 21:0.0068027211 22:0.024886878 23:0.0022675737 24:0.07692308 25:0.0068027211 26:0.031746032 27:0.015873016 28:0.06108597 29:0.013605442 30:0.011337868 31:0.031674208 32:0.011337868 33:0.0022675737 34:0.03167421 35:0.0068027211 36:0.05429864 37:0.020408163 38:0.013605442 39:0.042986425 40:0.011337869 41:0.0045351474 42:0.095022624 43:0.031746032 44:0.0090702948 45:0.027210884 46:0.06561086 47:0.01814059 48:0.022675737 49:0.074660633 50:0.022675737 51:0.020408163 
17.40614393921058 1:0.72874494 2:0.017567568 3:0.00405954 4:0.03108108 5:0.0081190798 6:0.0054127199 7:0.00947226 8:0.07567568 9:0.01488498 10:0.014864865 11:0.0027063599 12:0.00405954 13:0.00270636 14:0.05675676 15:0.00405954 16:0.01082544 17:0.035182679 18:0.0067658999 19:0.094594595 20:0.0135318 21:0.024357239 22:0.077027027 23:0.0270636 24:0.09189189 25:0.0027063599 26:0.02300406 27:0.036535859 28:0.04864865 29:0.01488498 30:0.02165088 31:0.12972973 32:0.032476319 33:0.029769959 34:0.0972973 35:0.024357239 36:0.05405405 37:0.01488498 38:0.02165088 39:0.016216216 40:0.0054127199 41:0.0027063599 42:0.066216216 43:0.01082544 44:0.0135318 45:0.01217862 46:0.07972973 47:0.0135318 48:0.0067659 49:0.048648649 50:0.01623816 51:0.00811908 
155.3421368519382 1:0.68439108 2:0.077319588 3:0.029259897 4:0.07044674 5:0.032702238 6:0.0034423408 7:0.008605852 8:0.0652921 9:0.018932874 10:0.041237113 11:0.0051635112 12:0.013769363 13:0.003442341 14:0.104811 15:0.022375215 16:0.034423408 17:0.034423408 18:0.013769363 19:0.10652921 20:0.034423408 21:0.027538726 22:0.024054983 23:0.0017211704 24:0.08762887 25:0.0068846816 26:0.025817556 27:0.039586919 28:0.04982818 29:0.015490534 30:0.012048193 31:0.087628866 32:0.029259897 33:0.008605852 34:0.07044674 35:0.015490534 36:0.02749141 37:0.003442341 38:0.010327022 39:0.024054983 40:0.0068846816 41:0.0017211704 42:0.056701031 43:0.012048193 44:0.0034423408 45:0.018932874 46:0.07560137 47:0.010327022 48:0.010327022 49:0.030927835 50:0.012048193 51:0.005163511 
8192 1:0.98894349 2:0.066420664 3:0.016009852 4:0.05535055 5:0.017241379 6:0.0024630542 7:0.012315271 8:0.09594096 9:0.033251232 10:0.049200492 11:0.0086206897 12:0.023399015 13:0.007389163 14:0.08856089 15:0.022167488 16:0.013546798 17:0.039408867 18:0.013546798 19:0.070110701 20:0.030788177 21:0.016009852 22:0.006150062 23:0.0012315271 24:0.07257073 25:0.012315271 26:0.020935961 27:0.025862069 28:0.07749077 29:0.011083744 30:0.028325123 31:0.056580566 32:0.012315271 33:0.0024630542 34:0.06888069 35:0.016009852 36:0.05658057 37:0.012315271 38:0.018472906 39:0.034440344 40:0.011083744 41:0.0098522167 42:0.056580566 43:0.023399015 44:0.0012315271 45:0.013546798 46:0.08733087 47:0.016009852 48:0.018472906 49:0.057810578 50:0.019704433 51:0.019704433 
8192 1:0.71663921 2:0.070957096 3:0.018181818 4:0.04290429 5:0.018181818 6:0.0049586777 7:0.01322314 8:0.09405941 9:0.029752066 10:0.04290429 11:0.0033057851 12:0.024793388 13:0.004958678 14:0.07260726 15:0.014876033 16:0.009917355 17:0.034710744 18:0.01322314 19:0.057755776 20:0.016528926 21:0.014876033 22:0.02970297 23:0.0033057851 24:0.08085809 25:0.0049586777 26:0.016528926 27:0.044628099 28:0.09075908 29:0.016528926 30:0.026446281 31:0.089108911 32:0.021487603 33:0.011570248 34:0.08415842 35:0.014876033 36:0.04125413 37:0.009917355 38:0.014876033 39:0.018151815 40:0.0082644628 41:0 42:0.051155116 43:0.01322314 44:0.0066115702 45:0.016528926 46:0.09570957 47:0.026446281 48:0.019834711 49:0.037953795 50:0.011570248 51:0.008264463 
3361.038507953903 1:0.74336283 2:0.082039911 3:0.024444444 4:0.05543237 5:0.017777778 6:0.0022222222 7:0.02 8:0.07095344 9:0.031111111 10:0.062084257 11:0.0022222222 12:0.02 13:0.017777778 14:0.07538803 15:0.013333333 16:0.02 17:0.024444444 18:0.017777778 19:0.050997783 20:0.015555556 21:0.013333333 22:0.013303769 23:0.0022222222 24:0.0864745 25:0.0066666667 26:0.011111111 27:0.048888889 28:0.0864745 29:0.011111111 30:0.013333333 31:0.055432373 32:0.011111111 33:0.0022222222 34:0.05543237 35:0.011111111 36:0.04656319 37:0.006666667 38:0.017777778 39:0.026607539 40:0.0066666667 41:0.0088888889 42:0.066518847 43:0.022222222 44:0.0044444444 45:0.026666667 46:0.10421286 47:0.035555556 48:0.017777778 49:0.062084257 50:0.017777778 51:0.008888889 
8192 1:0.54166667 2:0.13091922 3:0.05027933 4:0.06963788 5:0.030726257 6:0.011173184 7:0.011173184 8:0.09749304 9:0.039106145 10:0.052924791 11:0.016759777 12:0.011173184 13:0.005586592 14:0.08913649 15:0.039106145 16:0.019553073 17:0.016759777 18:0.01396648 19:0.064066852 20:0.025139665 21:0.0083798883 22:0.027855153 23:0.0055865922 24:0.05292479 25:0.0055865922 26:0.005586592 27:0.039106145 28:0.10306407 29:0.022346369 30:0.033519553 31:0.055710306 32:0.025139665 33:0 34:0.05849582 35:0.011173184 36:0.02785515 37:0.008379888 38:0.008379888 39:0.030640669 40:0.0027932961 41:0.0083798883 42:0.044568245 43:0.011173184 44:0 45:0.019553073 46:0.06128134 47:0.019553073 48:0.008379888 49:0.033426184 50:0.002793296 51:0.01396648 
8192 1:1 2:0.042372881 3:0.012765957 4:0.07627119 5:0.012765957 6:0.0042553191 7:0.025531915 8:0.05932203 9:0.012765957 10:0.038135593 11:0.0042553191 12:0.012765957 13:0.012765957 14:0.0720339 15:0.012765957 16:0.012765957 17:0.029787234 18:0.017021277 19:0.088983051 20:0.038297872 21:0.017021277 22:0.012711864 23:0.0042553191 24:0.10169492 25:0.0085106383 26:0.017021277 27:0.046808511 28:0.05932203 29:0.021276596 30:0.017021277 31:0.050847458 32:0.025531915 33:0 34:0.05932203 35:0.021276596 36:0.05508475 37:0.017021277 38:0.012765957 39:0.042372881 40:0.021276596 41:0.0042553191 42:0.059322034 43:0.012765957 44:0.0085106383 45:0.025531915 46:0.09322034 47:0.025531915 48:0.017021277 49:0.088983051 50:0.021276596 51:0.034042553 
55.87947056605125 1:0 2:0.068 3:0.016064257 4:0.048 5:0.016064257 6:0.0080321285 7:0.016064257 8:0.052 9:0.008032129 10:0.048 11:0 12:0 13:0.02811245 14:0.08 15:0.024096386 16:0.020080321 17:0.02811245 18:0.0040160643 19:0.072 20:0.02811245 21:0.016064257 22:0.044 23:0.016064257 24:0.096 25:0.0080321285 26:0.040160643 27:0.02811245 28:0.036 29:0.008032129 30:0 31:0.092 32:0.040160643 33:0.012048193 34:0.056 35:0.0080321285 36:0.04 37:0.008032129 38:0.020080321 39:0.032 40:0.0040160643 41:0.012048193 42:0.08 43:0.02811245 44:0.016064257 45:0.02811245 46:0.072 47:0.008032129 48:0.012048193 49:0.084 50:0.024096386 51:0.032128514 
8192 1:0.88861386 2:0.064516129 3:0.017412935 4:0.05707196 5:0.024875622 6:0.012437811 7:0.014925373 8:0.08188586 9:0.032338308 10:0.066997519 11:0.012437811 12:0.02238806 13:0.014925373 14:0.07940447 15:0.019900498 16:0.014925373 17:0.037313433 18:0.0074626866 19:0.044665012 20:0.017412935 21:0.012437811 22:0.024813896 23:0.0024875622 24:0.05707196 25:0.0074626866 26:0.017412935 27:0.019900498 28:0.10173697 29:0.017412935 30:0.024875622 31:0.049627792 32:0.007462687 33:0 34:0.0942928 35:0.024875622 36:0.05210918 37:0.007462687 38:0.027363184 39:0.024813896 40:0.0049751244 41:0.012437811 42:0.054590571 43:0.017412935 44:0.0099502488 45:0.007462687 46:0.09677419 47:0.02238806 48:0.012437811 49:0.049627792 50:0.024875622 51:0.009950249 
740.6269373616905 1:0.6284585 2:0.047524752 3:0.005952381 4:0.06336634 5:0.013888889 6:0 7:0.017857143 8:0.07128713 9:0.013888889 10:0.065346535 11:0.013888889 12:0.023809524 13:0.011904762 14:0.10891089 15:0.017857143 16:0.029761905 17:0.029761905 18:0.031746032 19:0.10693069 20:0.047619048 21:0.029761905 22:0.001980198 23:0 24:0.0970297 25:0.0079365079 26:0.037698413 27:0.031746032 28:0.05148515 29:0.017857143 30:0.011904762 31:0.063366337 32:0.01984127 33:0 34:0.05544554 35:0.011904762 36:0.02970297 37:0.009920635 38:0.007936508 39:0.041584158 40:0.0079365079 41:0.013888889 42:0.081188119 43:0.027777778 44:0 45:0.027777778 46:0.06930693 47:0.01984127 48:0.003968254 49:0.045544554 50:0.005952381 51:0.005952381 
263.7948511311937 1:0.22826087 2:0.076363636 3:0.01459854 4:0.05454545 5:0.03649635 6:0 7:0.003649635 8:0.11272727 9:0.058394161 10:0.054545455 11:0.0072992701 12:0.01459854 13:0.01459854 14:0.09090909 15:0.02189781 16:0.010948905 17:0.03649635 18:0.02189781 19:0.047272727 20:0.018248175 21:0.010948905 22:0.014545455 23:0 24:0.06181818 25:0.0072992701 26:0.010948905 27:0.032846715 28:0.10545455 29:0.018248175 30:0.03649635 31:0.054545455 32:0.01459854 33:0.010948905 34:0.05090909 35:0.010948905 36:0.05818182 37:0.010948905 38:0.032846715 39:0.025454545 40:0.0072992701 41:0.003649635 42:0.054545455 43:0.018248175 44:0 45:0.02919708 46:0.09454545 47:0.02189781 48:0.02919708 49:0.043636364 50:0.01459854 51:0.010948905 
8192 1:0.92836676 2:0.084130019 3:0.025837321 4:0.06022945 5:0.016267943 6:0.0057416268 7:0.016267943 8:0.09273423 9:0.031578947 10:0.055449331 11:0.011483254 12:0.011483254 13:0.01722488 14:0.08604207 15:0.019138756 16:0.022009569 17:0.025837321 18:0.019138756 19:0.078393881 20:0.041148325 21:0.014354067 22:0.022944551 23:0.0076555024 24:0.06978967 25:0.011483254 26:0.020095694 27:0.024880383 28:0.07552581 29:0.011483254 30:0.020095694 31:0.052581262 32:0.022009569 33:0.0066985646 34:0.05449331 35:0.0066985646 36:0.04493308 37:0.011483254 38:0.009569378 39:0.045889101 40:0.016267943 41:0.009569378 42:0.066921606 43:0.01722488 44:0.0057416268 45:0.023923445 46:0.05736138 47:0.013397129 48:0.009569378 49:0.052581262 50:0.011483254 51:0.00861244 
8192 1:0.61007463 2:0.095327103 3:0.033707865 4:0.05607477 5:0.02247191 6:0.0093632959 7:0.011235955 8:0.08971963 9:0.035580524 10:0.071028037 11:0.02247191 12:0.020599251 13:0.016853933 14:0.07476636 15:0.016853933 16:0.007490637 17:0.028089888 18:0.02247191 19:0.052336449 20:0.020599251 21:0.0074906367 22:0.026168224 23:0.0037453184 24:0.05794393 25:0.0074906367 26:0.014981273 27:0.018726592 28:0.09345794 29:0.018726592 30:0.026217228 31:0.05046729 32:0.020599251 33:0 34:0.05046729 35:0.0074906367 36:0.04485981 37:0.011235955 38:0.013108614 39:0.048598131 40:0.011235955 41:0.013108614 42:0.052336449 43:0.016853933 44:0.0093632959 45:0.014981273 46:0.0728972 47:0.029962547 48:0.011235955 49:0.063551402 50:0.020599251 51:0.014981273 
4117.546155227921 1:0.56413043 2:0.063112078 3:0.007625272 4:0.07834603 5:0.027233115 6:0.0054466231 7:0.01416122 8:0.08269859 9:0.018518519 10:0.043525571 11:0.0043572985 12:0.023965142 13:0.005446623 14:0.11425462 15:0.032679739 16:0.02832244 17:0.039215686 18:0.01416122 19:0.096844396 20:0.047930283 21:0.019607843 22:0.018498368 23:0.0032679739 24:0.07943417 25:0.016339869 26:0.023965142 27:0.025054466 28:0.06202394 29:0.023965142 30:0.010893246 31:0.064200218 32:0.025054466 33:0.0021786492 34:0.0554951 35:0.0054466231 36:0.04352557 37:0.022875817 38:0.008714597 39:0.029379761 40:0.0076252723 41:0.0043572985 42:0.069640914 43:0.019607843 44:0.0054466231 45:0.023965142 46:0.06746464 47:0.026143791 48:0.013071895 49:0.031556039 50:0.009803922 51:0.006535948 
8192 1:0.74671053 2:0.063666301 3:0.007692308 4:0.07793633 5:0.027472527 6:0.0054945055 7:0.013186813 8:0.08232711 9:0.017582418 10:0.043907794 11:0.0043956044 12:0.023076923 13:0.005494505 14:0.11416026 15:0.032967033 16:0.028571429 17:0.038461538 18:0.014285714 19:0.097694841 20:0.048351648 21:0.01978022 22:0.018660812 23:0.0032967033 24:0.08013172 25:0.015384615 26:0.024175824 27:0.025274725 28:0.06037322 29:0.023076923 30:0.010989011 31:0.063666301 32:0.025274725 33:0.0021978022 34:0.05488474 35:0.0054945055 36:0.04390779 37:0.023076923 38:0.008791209 39:0.028540066 40:0.0076923077 41:0.0043956044 42:0.071350165 43:0.01978022 44:0.0054945055 45:0.025274725 46:0.06695939 47:0.025274725 48:0.013186813 49:0.03183315 50:0.00989011 51:0.006593407 
6921.485456249765 1:0.87240356 2:0.053571429 3:0.008955224 4:0.05059524 5:0.0089552239 6:0 7:0.017910448 8:0.11607143 9:0.03880597 10:0.050595238 11:0.0059701493 12:0.017910448 13:0.011940299 14:0.09821429 15:0.011940299 16:0.014925373 17:0.056716418 18:0.014925373 19:0.080357143 20:0.044776119 21:0.017910448 22:0.005952381 23:0 24:0.06547619 25:0.0059701493 26:0.011940299 27:0.032835821 28:0.0952381 29:0.014925373 30:0.035820896 31:0.05952381 32:0.017910448 33:0.0029850746 34:0.08630952 35:0.023880597 36:0.03571429 37:0.011940299 38:0.011940299 39:0.023809524 40:0.0089552239 41:0.0059701493 42:0.05952381 43:0.023880597 44:0.0029850746 45:0.011940299 46:0.07142857 47:0.017910448 48:0.005970149 49:0.047619048 50:0.008955224 51:0.008955224 
8192 1:0.82534247 2:0.082474227 3:0.017241379 4:0.05841924 5:0.024137931 6:0.0068965517 7:0.013793103 8:0.09278351 9:0.020689655 10:0.065292096 11:0.010344828 12:0.020689655 13:0.024137931 14:0.09278351 15:0.031034483 16:0.006896552 17:0.031034483 18:0.024137931 19:0.041237113 20:0.017241379 21:0.0034482759 22:0.027491409 23:0.0034482759 24:0.04123711 25:0.010344828 26:0.006896552 27:0.020689655 28:0.08247423 29:0.020689655 30:0.020689655 31:0.06185567 32:0.013793103 33:0.0068965517 34:0.10652921 35:0.027586207 36:0.05154639 37:0.006896552 38:0.024137931 39:0.037800687 40:0.013793103 41:0.010344828 42:0.04467354 43:0.020689655 44:0.0034482759 45:0.006896552 46:0.07560137 47:0.020689655 48:0.013793103 49:0.037800687 50:0.010344828 51:0 
1557.316148470981 1:0.45306122 2:0.08719346 3:0.02728513 4:0.0599455 5:0.024556617 6:0.012278308 7:0.010914052 8:0.07901907 9:0.028649386 10:0.051771117 11:0.010914052 12:0.012278308 13:0.012278308 14:0.08310627 15:0.020463847 16:0.016371078 17:0.032742156 18:0.013642565 19:0.070844687 20:0.025920873 21:0.016371078 22:0.035422343 23:0.0054570259 24:0.06675749 25:0.0040927694 26:0.017735334 27:0.031377899 28:0.07629428 29:0.017735334 30:0.013642565 31:0.061307902 32:0.021828104 33:0.0040927694 34:0.05858311 35:0.013642565 36:0.04904632 37:0.015006821 38:0.019099591 39:0.03133515 40:0.0095497954 41:0.0054570259 42:0.064032698 43:0.012278308 44:0.0081855389 45:0.02319236 46:0.07220708 47:0.017735334 48:0.010914052 49:0.053133515 50:0.009549795 51:0.017735334 
8192 1:0.68478261 2:0.054495913 3:0.013661202 4:0.04632153 5:0.021857924 6:0.0054644809 7:0.010928962 8:0.08446866 9:0.035519126 10:0.076294278 11:0.0054644809 12:0.024590164 13:0.019125683 14:0.07901907 15:0.019125683 16:0.008196721 17:0.021857923 18:0.030054645 19:0.046321526 20:0.008196721 21:0.0081967213 22:0.019073569 23:0 24:0.06811989 25:0.016393443 26:0.005464481 27:0.030054645 28:0.08991826 29:0.013661202 30:0.038251366 31:0.068119891 32:0.019125683 33:0.0027322404 34:0.0599455 35:0.0081967213 36:0.05449591 37:0.010928962 38:0.030054645 39:0.035422343 40:0.013661202 41:0.0081967213 42:0.051771117 43:0.027322404 44:0.0054644809 45:0.008196721 46:0.10899183 47:0.027322404 48:0.024590164 49:0.057220708 50:0.024590164 51:0.013661202 
984.3280340325953 1:0.46049661 2:0.088235294 3:0.024943311 4:0.06334842 5:0.027210884 6:0.0068027211 7:0.013605442 8:0.09728507 9:0.029478458 10:0.045248869 11:0.0045351474 12:0.015873016 13:0.020408163 14:0.09954751 15:0.027210884 16:0.011337868 17:0.047619048 18:0.013605442 19:0.076923077 20:0.029478458 21:0.022675737 22:0.011312217 23:0.0045351474 24:0.07013575 25:0.0068027211 26:0.022675737 27:0.020408163 28:0.07013575 29:0.015873016 30:0.020408163 31:0.054298643 32:0.013605442 33:0 34:0.03846154 35:0.0045351474 36:0.05429864 37:0.013605442 38:0.022675737 39:0.036199095 40:0.013605442 41:0.0090702948 42:0.063348416 43:0.020408163 44:0.0022675737 45:0.015873016 46:0.0678733 47:0.01814059 48:0.022675737 49:0.063348416 50:0.009070295 51:0.015873016 
8192 1:0.99239544 2:0.15989848 3:0.069885642 4:0.05583756 5:0.024142313 6:0.0076238882 7:0.015247776 8:0.12182741 9:0.049555273 10:0.049492386 11:0.0063532402 12:0.025412961 13:0.00635324 14:0.07994924 15:0.022871665 16:0.015247776 17:0.030495553 18:0.011435832 19:0.027918782 20:0.01270648 21:0.0038119441 22:0.013959391 23:0.0076238882 24:0.05456853 25:0.011435832 26:0.011435832 27:0.024142313 28:0.11675127 29:0.015247776 30:0.036848793 31:0.055837563 32:0.010165184 33:0.0025412961 34:0.06091371 35:0.0076238882 36:0.03172589 37:0.005082592 38:0.010165184 39:0.030456853 40:0.0050825921 41:0.0038119441 42:0.03680203 43:0.017789072 44:0.001270648 45:0.01270648 46:0.06852792 47:0.031766201 48:0.007623888 49:0.035532995 50:0.008894536 51:0.007623888 
8192 1:0.95086705 2:0.14657666 3:0.058880309 4:0.06171649 5:0.025096525 6:0.0038610039 7:0.023166023 8:0.11089682 9:0.048262548 10:0.06075217 11:0.017374517 12:0.024131274 13:0.010617761 14:0.08003857 15:0.024131274 16:0.015444015 17:0.028957529 18:0.011583012 19:0.033751205 20:0.013513514 21:0.0057915058 22:0.017357763 23:0.0048262548 24:0.05882353 25:0.013513513 26:0.014478764 27:0.021235521 28:0.1051109 29:0.00965251 30:0.040540541 31:0.050144648 32:0.00965251 33:0.0057915058 34:0.04532305 35:0.0067567568 36:0.03471553 37:0.011583012 38:0.007722008 39:0.048216008 40:0.0096525097 41:0.012548263 42:0.044358727 43:0.02027027 44:0.0048262548 45:0.010617761 46:0.06268081 47:0.024131274 48:0.011583012 49:0.039537126 50:0.00965251 51:0.007722008 
8192 1:0.93048128 2:0.15524625 3:0.06323687 4:0.05888651 5:0.024651661 6:0.0042872454 7:0.021436227 8:0.1006424 9:0.042872454 10:0.068522484 11:0.020364416 12:0.02357985 13:0.012861736 14:0.07601713 15:0.025723473 16:0.010718114 17:0.024651661 18:0.015005359 19:0.035331906 20:0.012861736 21:0.0053590568 22:0.017130621 23:0.0032154341 24:0.05781585 25:0.013933548 26:0.011789925 27:0.019292605 28:0.09421842 29:0.008574491 30:0.033226152 31:0.048179872 32:0.008574491 33:0.0053590568 34:0.04068522 35:0.0075026795 36:0.03747323 37:0.013933548 38:0.008574491 39:0.057815846 40:0.0096463023 41:0.015005359 42:0.043897216 43:0.017148982 44:0.0042872454 45:0.009646302 46:0.0620985 47:0.02357985 48:0.010718114 49:0.046038544 50:0.010718114 51:0.013933548 
3011.400157919703 1:0.85339168 2:0.085526316 3:0.032967033 4:0.05701754 5:0.028571429 6:0.0021978022 7:0.01978022 8:0.05482456 9:0.01978022 10:0.096491228 11:0.013186813 12:0.032967033 13:0.026373626 14:0.06359649 15:0.010989011 16:0.006593407 17:0.010989011 18:0.035164835 19:0.026315789 20:0.008791209 21:0.0021978022 22:0.006578947 23:0 24:0.07236842 25:0.0087912088 26:0.006593407 27:0.017582418 28:0.08114035 29:0.010989011 30:0.017582418 31:0.024122807 32:0 33:0.0021978022 34:0.02631579 35:0.0021978022 36:0.04824561 37:0.004395604 38:0.015384615 39:0.063596491 40:0.017582418 41:0.024175824 42:0.061403509 43:0.01978022 44:0 45:0.024175824 46:0.09210526 47:0.046153846 48:0.01978022 49:0.14035088 50:0.026373626 51:0.061538462 
2115.496117332303 1:0.83566434 2:0.089316988 3:0.026315789 4:0.05078809 5:0.021052632 6:0.001754386 7:0.019298246 8:0.08931699 9:0.022807018 10:0.066549912 11:0.014035088 12:0.024561404 13:0.014035088 14:0.08056042 15:0.021052632 16:0.010526316 17:0.033333333 18:0.015789474 19:0.059544658 20:0.026315789 21:0.010526316 22:0.008756567 23:0 24:0.07880911 25:0.019298246 26:0.010526316 27:0.026315789 28:0.07880911 29:0.010526316 30:0.024561404 31:0.059544658 32:0.01754386 33:0.0035087719 34:0.05604203 35:0.0070175439 36:0.04028021 37:0.005263158 38:0.019298246 39:0.047285464 40:0.015789474 41:0.012280702 42:0.057793345 43:0.015789474 44:0 45:0.019298246 46:0.08231173 47:0.026315789 48:0.010526316 49:0.054290718 50:0.010526316 51:0.00877193 
724.6916807198279 1:0.35472973 2:0.043993232 3:0.005084746 4:0.05245347 5:0.013559322 6:0.011864407 7:0.011864407 8:0.06598985 9:0.016949153 10:0.03891709 11:0 12:0.010169492 13:0.010169492 14:0.08629442 15:0.010169492 16:0.020338983 17:0.03559322 18:0.020338983 19:0.089678511 20:0.023728814 21:0.013559322 22:0.028764805 23:0.0033898305 24:0.0964467 25:0.010169492 26:0.03220339 27:0.030508475 28:0.04906937 29:0.015254237 30:0.008474576 31:0.065989848 32:0.023728814 33:0 34:0.06260575 35:0.015254237 36:0.05245347 37:0.015254237 38:0.020338983 39:0.023688663 40:0.0033898305 41:0.0033898305 42:0.091370558 43:0.023728814 44:0.006779661 45:0.023728814 46:0.07275804 47:0.013559322 48:0.020338983 49:0.079526227 50:0.011864407 51:0.03220339 
8192 1:0.98134328 2:0.18521284 3:0.0754858 4:0.07020164 5:0.03961136 6:0 7:0.013452915 8:0.10007468 9:0.058295964 10:0.080657207 11:0.03064275 12:0.016442451 13:0.014200299 14:0.09559373 15:0.037369208 16:0.013452915 17:0.029147982 18:0.014947683 19:0.047796863 20:0.022421525 21:0.009715994 22:0.001493652 23:0.0007473842 24:0.04854369 25:0.015695067 26:0.011958146 27:0.009715994 28:0.08961912 29:0.013452915 30:0.018684604 31:0.02613891 32:0.00896861 33:0 34:0.03211352 35:0.0029895366 36:0.02763256 37:0.005979073 38:0.00896861 39:0.066467513 40:0.013452915 41:0.013452915 42:0.048543689 43:0.023168909 44:0.0007473842 45:0.012705531 46:0.04182226 47:0.015695067 48:0.005979073 49:0.038088125 50:0.006726457 51:0.005979073 
526.8278195025613 1:0.27653631 2:0.070028011 3:0.02247191 4:0.04201681 5:0.0056179775 6:0.0028089888 7:0.011235955 8:0.08403361 9:0.019662921 10:0.039215686 11:0.0028089888 12:0.016853933 13:0.011235955 14:0.05602241 15:0.016853933 16:0.014044944 17:0.016853933 18:0.0084269663 19:0.095238095 20:0.025280899 21:0.025280899 22:0.011204482 23:0.0028089888 24:0.10084034 25:0.0028089888 26:0.014044944 27:0.056179775 28:0.0952381 29:0.014044944 30:0.030898876 31:0.075630252 32:0.02247191 33:0 34:0.05602241 35:0.011235955 36:0.03921569 37:0.014044944 38:0.019662921 39:0.014005602 40:0.0028089888 41:0.0028089888 42:0.053221289 43:0.005617978 44:0 45:0.019662921 46:0.11484594 47:0.039325843 48:0.019662921 49:0.053221289 50:0.019662921 51:0.014044944 
8192 1:0.98151951 2:0.17283951 3:0.084536082 4:0.05967078 5:0.024742268 6:0.0020618557 7:0.022680412 8:0.07407407 9:0.039175258 10:0.074074074 11:0.01443299 12:0.024742268 13:0.024742268 14:0.08024691 15:0.032989691 16:0.016494845 17:0.01443299 18:0.016494845 19:0.026748971 20:0.01443299 21:0 22:0.008230453 23:0.0041237113 24:0.05761317 25:0.016494845 26:0.010309278 27:0.018556701 28:0.08024691 29:0.01443299 30:0.020618557 31:0.03909465 32:0.004123711 33:0.0041237113 34:0.05555556 35:0.010309278 36:0.03703704 37:0.006185567 38:0.016494845 39:0.049382716 40:0.006185567 41:0.012371134 42:0.04526749 43:0.018556701 44:0.0020618557 45:0.012371134 46:0.07407407 47:0.016494845 48:0.016494845 49:0.065843621 50:0.01443299 51:0.020618557 
8192 1:1 2:0.048701299 3:0.006514658 4:0.0487013 5:0.013029316 6:0.003257329 7:0.009771987 8:0.1461039 9:0.048859935 10:0.022727273 11:0 12:0.013029316 13:0.006514658 14:0.1038961 15:0.016286645 16:0.029315961 17:0.055374593 18:0.003257329 19:0.084415584 20:0.035830619 21:0.016286645 22:0.022727273 23:0.003257329 24:0.07142857 25:0.006514658 26:0.035830619 27:0.022801303 28:0.0974026 29:0.006514658 30:0.055374593 31:0.097402597 32:0.035830619 33:0.006514658 34:0.10714286 35:0.029315961 36:0.01623377 37:0.009771987 38:0.003257329 39:0.012987013 40:0.003257329 41:0.006514658 42:0.051948052 43:0.019543974 44:0.006514658 45:0.016286645 46:0.04545455 47:0.006514658 48:0 49:0.022727273 50:0.006514658 51:0.006514658 
6990.942610287036 1:0.92918826 2:0.13148789 3:0.045060659 4:0.05363322 5:0.029462738 6:0.0017331023 7:0.013864818 8:0.09342561 9:0.039861352 10:0.10207613 11:0.019064125 12:0.031195841 13:0.031195841 14:0.08477509 15:0.022530329 16:0.019064125 17:0.024263432 18:0.019064125 19:0.022491349 20:0.013864818 21:0.0051993068 22:0.005190311 23:0.0034662045 24:0.0467128 25:0.01559792 26:0.005199307 27:0.013864818 28:0.08823529 29:0.008665511 30:0.01559792 31:0.038062284 32:0.005199307 33:0 34:0.03633218 35:0.0017331023 36:0.03806228 37:0.003466205 38:0.010398614 39:0.074394464 40:0.0086655113 41:0.024263432 42:0.044982699 43:0.019064125 44:0.0034662045 45:0.019064125 46:0.06747405 47:0.022530329 48:0.020797227 49:0.07266436 50:0.012131716 51:0.017331023 
8192 1:0.98769772 2:0.054577465 3:0.015873016 4:0.04577465 5:0.015873016 6:0.0035273369 7:0.019400353 8:0.06338028 9:0.015873016 10:0.063380282 11:0.0088183422 12:0.017636684 13:0.017636684 14:0.07746479 15:0.014109347 16:0.014109347 17:0.028218695 18:0.021164021 19:0.058098592 20:0.015873016 21:0.017636684 22:0.014084507 23:0.0035273369 24:0.09683099 25:0.0070546737 26:0.024691358 27:0.035273369 28:0.06866197 29:0.017636684 30:0.017636684 31:0.061619718 32:0.014109347 33:0.0035273369 34:0.06866197 35:0.015873016 36:0.04401408 37:0.012345679 38:0.019400353 39:0.024647887 40:0.0035273369 41:0.0088183422 42:0.080985915 43:0.021164021 44:0.0052910053 45:0.035273369 46:0.09683099 47:0.026455026 48:0.017636684 49:0.080985915 50:0.024691358 51:0.02292769 
8192 1:1 2:0.097372488 3:0.026315789 4:0.07727975 5:0.041795666 6:0.0046439628 7:0.015479876 8:0.10664606 9:0.035603715 10:0.052550232 11:0.0092879257 12:0.027863777 13:0.001547988 14:0.11437403 15:0.037151703 16:0.015479876 17:0.043343653 18:0.018575851 19:0.054095827 20:0.023219814 21:0.0046439628 22:0.007727975 23:0 24:0.06646059 25:0.0046439628 26:0.020123839 27:0.026315789 28:0.10046368 29:0.026315789 30:0.027863777 31:0.057187017 32:0.017027864 33:0.0015479876 34:0.04945904 35:0.0030959752 36:0.03863988 37:0.017027864 38:0.010835913 39:0.021638331 40:0.0061919505 41:0.0015479876 42:0.054095827 43:0.023219814 44:0 45:0.013931889 46:0.08191654 47:0.035603715 48:0.017027864 49:0.020092736 50:0.017027864 51:0 
4589.283079995558 1:0.74787535 2:0.053977273 3:0.017094017 4:0.06818182 5:0.014245014 6:0.0028490028 7:0.025641026 8:0.04545455 9:0.014245014 10:0.034090909 11:0 12:0.014245014 13:0.005698006 14:0.06534091 15:0.014245014 16:0.011396011 17:0.022792023 18:0.017094017 19:0.10511364 20:0.01994302 21:0.025641026 22:0.034090909 23:0.0056980057 24:0.11363636 25:0.022792023 26:0.034188034 27:0.037037037 28:0.05397727 29:0.017094017 30:0.005698006 31:0.0625 32:0.014245014 33:0.011396011 34:0.07954545 35:0.03988604 36:0.04545455 37:0.011396011 38:0.01994302 39:0.028409091 40:0.01994302 41:0 42:0.082386364 43:0.014245014 44:0.0085470085 45:0.01994302 46:0.07954545 47:0.017094017 48:0.025641026 49:0.048295455 50:0.008547009 51:0.017094017 
8192 1:0.99326599 2:0.069139966 3:0.023648649 4:0.05733558 5:0.025337838 6:0.0050675676 7:0.015202703 8:0.07419899 9:0.023648649 10:0.035413153 11:0.0033783784 12:0.010135135 13:0.006756757 14:0.08431703 15:0.013513514 16:0.018581081 17:0.037162162 18:0.015202703 19:0.084317032 20:0.027027027 21:0.023648649 22:0.032040472 23:0.0084459459 24:0.07082631 25:0.0033783784 26:0.013513514 27:0.040540541 28:0.06576728 29:0.013513514 30:0.018581081 31:0.069139966 32:0.032094595 33:0.0084459459 34:0.0994941 35:0.027027027 36:0.0539629 37:0.016891892 38:0.015202703 39:0.018549747 40:0.0050675676 41:0.0033783784 42:0.059021922 43:0.015202703 44:0.0016891892 45:0.025337838 46:0.08263069 47:0.011824324 48:0.010135135 49:0.043844857 50:0.016891892 51:0.005067568 
1106.115623664419 1:0.2979021 2:0.021008403 3:0.004207574 4:0.03641457 5:0.0098176718 6:0.0028050491 7:0.008415147 8:0.06022409 9:0.009817672 10:0.019607843 11:0 12:0.001402525 13:0.009817672 14:0.05462185 15:0.008415147 16:0.009817672 17:0.032258065 18:0.0042075736 19:0.11204482 20:0.019635344 21:0.043478261 22:0.075630252 23:0.032258065 24:0.08823529 25:0.0070126227 26:0.036465638 27:0.028050491 28:0.04621849 29:0.019635344 30:0.01542777 31:0.099439776 32:0.023842917 33:0.03085554 34:0.11484594 35:0.043478261 36:0.05602241 37:0.018232819 38:0.022440393 39:0.015406162 40:0.0014025245 41:0.0042075736 42:0.084033613 43:0.011220196 44:0.016830294 45:0.026647966 46:0.06442577 47:0.007012623 48:0.016830295 49:0.051820728 50:0.012622721 51:0.01542777 
604.3129107960788 1:0.81661891 2:0.060344828 3:0.005763689 4:0.04310345 5:0.023054755 6:0 7:0.011527378 8:0.07471264 9:0.028818444 10:0.045977011 11:0.0057636888 12:0.014409222 13:0.011527378 14:0.05747126 15:0.023054755 16:0.005763689 17:0.011527378 18:0.017291066 19:0.10057471 20:0.014409222 21:0.040345821 22:0.00862069 23:0.0028818444 24:0.09482759 25:0.014409222 26:0.011527378 27:0.051873199 28:0.07471264 29:0.020172911 30:0.020172911 31:0.057471264 32:0.023054755 33:0.0028818444 34:0.08045977 35:0.011527377 36:0.05172414 37:0.017291066 38:0.017291066 39:0.028735632 40:0.0028818444 41:0.011527377 42:0.063218391 43:0.008645533 44:0.0028818444 45:0.023054755 46:0.10057471 47:0.011527378 48:0.017291066 49:0.057471264 50:0.017291066 51:0.017291066 
3255.807614490935 1:0.34651899 2:0.080824089 3:0.026984127 4:0.06022187 5:0.012698413 6:0.011111111 7:0.017460317 8:0.1141046 9:0.014285714 10:0.066561014 11:0.012698413 12:0.00952381 13:0.020634921 14:0.14263074 15:0.015873016 16:0.026984127 17:0.06984127 18:0.03015873 19:0.05229794 20:0.028571429 21:0.0095238095 22:0.023771791 23:0.0015873016 24:0.04912837 25:0.015873016 26:0.012698413 27:0.011111111 28:0.05388273 29:0.004761905 30:0.014285714 31:0.093502377 32:0.012698413 33:0.0063492063 34:0.03645008 35:0.0015873016 36:0.03486529 37:0.00952381 38:0.011111111 39:0.04437401 40:0.0063492063 41:0.0095238095 42:0.061806656 43:0.034920635 44:0.0031746032 45:0.012698413 46:0.0459588 47:0.012698413 48:0.011111111 49:0.039619651 50:0.014285714 51:0.004761905 
3474.411779425572 1:0.84705882 2:0.062289562 3:0.021922428 4:0.04040404 5:0.016863406 6:0 7:0.010118044 8:0.08922559 9:0.055649241 10:0.079124579 11:0.010118044 12:0.011804384 13:0.008431703 14:0.09259259 15:0.016863406 16:0.015177066 17:0.037099494 18:0.023608769 19:0.070707071 20:0.010118044 21:0.015177066 22:0.013468013 23:0.0050590219 24:0.08080808 25:0.0033726813 26:0.018549747 27:0.040472175 28:0.07912458 29:0.008431703 30:0.033726813 31:0.057239057 32:0.006745363 33:0.0050590219 34:0.04545455 35:0.011804385 36:0.03872054 37:0.006745363 38:0.011804384 39:0.037037037 40:0.0084317032 41:0.015177066 42:0.087542088 43:0.030354132 44:0.0067453626 45:0.016863406 46:0.07407407 47:0.011804384 48:0.020236088 49:0.052188552 50:0.010118044 51:0.011804384 
8192 1:1 2:0.049140049 3:0.014778325 4:0.04176904 5:0.019704434 6:0.0049261084 7:0.009852217 8:0.07125307 9:0.022167488 10:0.056511057 11:0.0073891626 12:0.034482759 13:0.004926108 14:0.06633907 15:0.009852217 16:0.007389163 17:0.027093596 18:0.022167488 19:0.049140049 20:0.009852217 21:0.0098522167 22:0.01965602 23:0.0073891626 24:0.09336609 25:0.0098522167 26:0.022167488 27:0.034482759 28:0.07371007 29:0.014778325 30:0.019704433 31:0.068796069 32:0.014778325 33:0.0073891626 34:0.09336609 35:0.027093596 36:0.05651106 37:0.007389163 38:0.027093596 39:0.029484029 40:0.012315271 41:0.0098522167 42:0.068796069 43:0.022167488 44:0.0049261084 45:0.024630542 46:0.10810811 47:0.019704433 48:0.017241379 49:0.054054054 50:0.012315271 51:0.004926108 
7001.277262060787 1:0.922049 2:0.094760312 3:0.033482143 4:0.05574136 5:0.024553571 6:0.0011160714 7:0.011160714 8:0.05462653 9:0.016741071 10:0.070234114 11:0.014508929 12:0.022321429 13:0.018973214 14:0.08472687 15:0.032366071 16:0.013392857 17:0.014508929 18:0.024553571 19:0.072463768 20:0.026785714 21:0.021205357 22:0.012263099 23:0.0033482143 24:0.08918618 25:0.012276786 26:0.027901786 27:0.022321429 28:0.04570792 29:0.013392857 30:0.008928571 31:0.053511706 32:0.015625 33:0.0066964286 34:0.05351171 35:0.013392857 36:0.04236343 37:0.008928571 38:0.015625 39:0.050167224 40:0.0089285714 41:0.018973214 42:0.076923077 43:0.020089286 44:0.0033482143 45:0.036830357 46:0.07469342 47:0.014508929 48:0.022321429 49:0.069119287 50:0.014508929 51:0.015625 
1541.567868244587 1:0.73120729 2:0.15279361 3:0.068493151 4:0.06385405 5:0.020547945 6:0.0091324201 7:0.019406393 8:0.07981756 9:0.04109589 10:0.084378563 11:0.023972603 12:0.017123288 13:0.02739726 14:0.08551881 15:0.02739726 16:0.023972603 17:0.01826484 18:0.015981735 19:0.049030787 20:0.029680365 21:0.0079908676 22:0.022805017 23:0.0057077626 24:0.04561003 25:0.010273973 26:0.010273973 27:0.010273973 28:0.08095781 29:0.01369863 30:0.015981735 31:0.036488027 32:0.010273973 33:0.0057077626 34:0.02736602 35:0.0011415525 36:0.03648803 37:0.012557078 38:0.00913242 39:0.061573546 40:0.010273973 41:0.01826484 42:0.05359179 43:0.021689498 44:0.0034246575 45:0.012557078 46:0.05017104 47:0.01369863 48:0.010273973 49:0.069555302 50:0.01369863 51:0.01826484 
8192 1:0.9486166 2:0.057425743 3:0.009920635 4:0.05148515 5:0.015873016 6:0.005952381 7:0.009920635 8:0.06336634 9:0.01984127 10:0.059405941 11:0.005952381 12:0.027777778 13:0.017857143 14:0.06336634 15:0.01984127 16:0.01984127 17:0.009920635 18:0.013888889 19:0.069306931 20:0.025793651 21:0.015873016 22:0.023762376 23:0.005952381 24:0.08514851 25:0.015873016 26:0.013888889 27:0.027777778 28:0.05940594 29:0.009920635 30:0.01984127 31:0.061386139 32:0.01984127 33:0.003968254 34:0.05940594 35:0.021825397 36:0.05346535 37:0.015873016 38:0.011904762 39:0.04950495 40:0.0099206349 41:0.025793651 42:0.061386139 43:0.009920635 44:0.0099206349 45:0.027777778 46:0.08712871 47:0.01984127 48:0.021825397 49:0.095049505 50:0.01984127 51:0.035714286 
4277.000065082537 1:0.88636364 2:0.12713473 3:0.024714829 4:0.02656546 5:0.017110266 6:0 7:0.009505703 8:0.15559772 9:0.10646388 10:0.070208729 11:0.013307985 12:0.020912548 13:0.02661597 14:0.04933586 15:0.015209125 16:0.001901141 17:0.013307985 18:0.019011407 19:0.009487666 20:0.007604563 21:0 22:0.003795066 23:0 24:0.03225806 25:0.0019011407 26:0.003802281 27:0.007604563 28:0.15749526 29:0.007604563 30:0.058935361 31:0.022770398 32:0.001901141 33:0.0038022814 34:0.04933586 35:0.0057034221 36:0.04933586 37:0.007604563 38:0.019011407 39:0.043643264 40:0.0095057034 41:0.019011407 42:0.037950664 43:0.015209125 44:0 45:0.013307985 46:0.07020873 47:0.022813688 48:0.022813688 49:0.09487666 50:0.022813688 51:0.038022814 
8192 1:0.41954023 2:0.061420345 3:0.011538462 4:0.05182342 5:0.025 6:0.0096153846 7:0.007692308 8:0.13435701 9:0.051923077 10:0.024952015 11:0.0019230769 12:0.007692308 13:0.005769231 14:0.08829175 15:0.025 16:0.013461538 17:0.046153846 18:0.0038461538 19:0.086372361 20:0.026923077 21:0.025 22:0.024952015 23:0.0076923077 24:0.0806142 25:0.0076923077 26:0.030769231 27:0.028846154 28:0.1074856 29:0.025 30:0.044230769 31:0.07293666 32:0.025 33:0.0019230769 34:0.04798464 35:0.0038461538 36:0.04222649 37:0.015384615 38:0.015384615 39:0.015355086 40:0.0038461538 41:0.0019230769 42:0.069097889 43:0.019230769 44:0.0038461538 45:0.019230769 46:0.06333973 47:0.025 48:0.013461538 49:0.028790787 50:0.011538462 51:0.001923077 
8192 1:1 2:0.12757974 3:0.056390977 4:0.06378987 5:0.026315789 6:0.0056390977 7:0.026315789 8:0.0619137 9:0.018796992 10:0.09380863 11:0.020676692 12:0.031954887 13:0.02443609 14:0.07692308 15:0.022556391 16:0.016917293 17:0.020676692 18:0.016917293 19:0.03564728 20:0.015037594 21:0.007518797 22:0.011257036 23:0.0018796992 24:0.05816135 25:0.016917293 26:0.007518797 27:0.018796992 28:0.07879925 29:0.013157895 30:0.020676692 31:0.03564728 32:0.007518797 33:0 34:0.04690432 35:0.0093984962 36:0.03752345 37:0.013157895 38:0.011278195 39:0.061913696 40:0.015037594 41:0.02443609 42:0.048780488 43:0.020676692 44:0.0037593985 45:0.009398496 46:0.07879925 47:0.030075188 48:0.016917293 49:0.082551595 50:0.016917293 51:0.033834586 
922.9871545493065 1:0.05078125 2:0.082352941 3:0.019685039 4:0.05882353 5:0.023622047 6:0 7:0.019685039 8:0.10196078 9:0.027559055 10:0.043137255 11:0.011811024 12:0.003937008 13:0.015748031 14:0.08235294 15:0.023622047 16:0.015748031 17:0.031496063 18:0.011811024 19:0.050980392 20:0.015748031 21:0.0078740157 22:0.007843137 23:0.0039370079 24:0.08627451 25:0.015748031 26:0.015748031 27:0.031496063 28:0.0627451 29:0.011811024 30:0.019685039 31:0.050980392 32:0.015748031 33:0 34:0.05098039 35:0.0078740157 36:0.05882353 37:0.015748031 38:0.015748031 39:0.058823529 40:0.019685039 41:0.0039370079 42:0.066666667 43:0.031496063 44:0.0078740157 45:0.015748031 46:0.0627451 47:0.019685039 48:0.019685039 49:0.074509804 50:0.011811024 51:0.023622047 
8192 1:0.97706422 2:0.15172414 3:0.066820276 4:0.08045977 5:0.043778802 6:0 7:0.016129032 8:0.05977011 9:0.029953917 10:0.073563218 11:0.011520737 12:0.036866359 13:0.016129032 14:0.10114943 15:0.052995392 16:0.020737327 17:0.011520737 18:0.016129032 19:0.050574713 20:0.025345622 21:0.0046082949 22:0.009195402 23:0 24:0.04827586 25:0.0092165899 26:0.006912442 27:0.020737327 28:0.06896552 29:0.011520737 30:0.00921659 31:0.03908046 32:0.011520737 33:0.0023041475 34:0.03908046 35:0.0069124424 36:0.04597701 37:0.011520737 38:0.00921659 39:0.043678161 40:0.013824885 41:0.0069124424 42:0.04137931 43:0.016129032 44:0.0023041475 45:0.00921659 46:0.08275862 47:0.02764977 48:0.025345622 49:0.064367816 50:0.016129032 51:0.020737327 
8192 1:0.96347032 2:0.087155963 3:0.02764977 4:0.05963303 5:0.01843318 6:0.0046082949 7:0.013824885 8:0.05045872 9:0.02764977 10:0.091743119 11:0.01843318 12:0.023041475 13:0.02764977 14:0.08715596 15:0.023041475 16:0.023041475 17:0.00921659 18:0.032258065 19:0.064220183 20:0.02764977 21:0.0092165899 22:0.013761468 23:0.0046082949 24:0.06422018 25:0.0046082949 26:0.00921659 27:0.023041475 28:0.05963303 29:0.013824885 30:0.00921659 31:0.032110092 32:0.013824885 33:0 34:0.0412844 35:0.0046082949 36:0.04587156 37:0.01843318 38:0.00921659 39:0.050458716 40:0.0092165899 41:0.023041475 42:0.073394495 43:0.02764977 44:0.0046082949 45:0.023041475 46:0.0733945 47:0.013824885 48:0.01843318 49:0.10550459 50:0.01843318 51:0.046082949 
8192 1:1 2:0.08716707 3:0.029126214 4:0.07748184 5:0.036407767 6:0.0024271845 7:0.016990291 8:0.07990315 9:0.024271845 10:0.033898305 11:0.0024271845 12:0.016990291 13:0.004854369 14:0.0968523 15:0.02184466 16:0.024271845 17:0.04368932 18:0.0072815534 19:0.06779661 20:0.024271845 21:0.014563107 22:0.007263923 23:0.0024271845 24:0.09443099 25:0.0097087379 26:0.029126214 27:0.031553398 28:0.07990315 29:0.019417476 30:0.012135922 31:0.053268765 32:0.019417476 33:0 34:0.07021792 35:0.0048543689 36:0.04116223 37:0.012135922 38:0.019417476 39:0.014527845 40:0.0097087379 41:0.0024271845 42:0.06779661 43:0.019417476 44:0 45:0.036407767 46:0.08716707 47:0.02184466 48:0.014563107 49:0.041162228 50:0.019417476 51:0.004854369 
8192 1:1 2:0.092105263 3:0.031662269 4:0.06842105 5:0.023746702 6:0.0079155673 7:0.007915567 8:0.09736842 9:0.034300792 10:0.060526316 11:0.013192612 12:0.031662269 13:0.015831135 14:0.09736842 15:0.021108179 16:0.031662269 17:0.034300792 18:0.01055409 19:0.044736842 20:0.023746702 21:0.0079155673 22:0.021052632 23:0.0052770449 24:0.04473684 25:0.0052770449 26:0.01055409 27:0.015831135 28:0.08421053 29:0.015831135 30:0.018469657 31:0.057894737 32:0.005277045 33:0.0052770449 34:0.05526316 35:0.013192612 36:0.05 37:0.007915567 38:0.013192612 39:0.044736842 40:0.013192612 41:0.013192612 42:0.036842105 43:0.015831135 44:0.0052770449 45:0.013192612 46:0.07368421 47:0.029023747 48:0.018469657 49:0.071052632 50:0.013192612 51:0.023746702 
8192 1:1 2:0.10704961 3:0.036649215 4:0.07310705 5:0.034031414 6:0.002617801 7:0.023560209 8:0.10966057 9:0.047120419 10:0.046997389 11:0.015706806 12:0.015706806 13:0 14:0.09138381 15:0.028795812 16:0.02617801 17:0.020942408 18:0.015706806 19:0.052219321 20:0.02617801 21:0.018324607 22:0.010443864 23:0.002617801 24:0.05744125 25:0.0052356021 26:0.015706806 27:0.018324607 28:0.09399478 29:0.018324607 30:0.044502618 31:0.039164491 32:0.013089005 33:0 34:0.06527415 35:0.015706806 36:0.05483029 37:0.015706806 38:0.020942408 39:0.044386423 40:0.013089005 41:0.0078534031 42:0.046997389 43:0.015706806 44:0.0052356021 45:0.018324607 46:0.06788512 47:0.013089005 48:0.010471204 49:0.039164491 50:0.013089005 51:0.010471204 
8192 1:0.82608696 2:0.028475712 3:0.006711409 4:0.04690117 5:0.005033557 6:0.013422819 7:0.013422819 8:0.06532663 9:0.010067114 10:0.016750419 11:0 12:0.006711409 13:0.003355705 14:0.06030151 15:0.011744966 16:0.021812081 17:0.016778523 18:0.010067114 19:0.11725293 20:0.020134228 21:0.041946309 22:0.095477387 23:0.035234899 24:0.07537688 25:0.0067114094 26:0.026845638 27:0.033557047 28:0.05527638 29:0.015100671 30:0.02852349 31:0.12227806 32:0.040268456 33:0.026845638 34:0.11055276 35:0.030201342 36:0.04857621 37:0.020134228 38:0.018456376 39:0.013400335 40:0.005033557 41:0.0033557047 42:0.061976549 43:0.011744966 44:0.018456376 45:0.011744966 46:0.06365159 47:0.008389262 48:0.006711409 49:0.018425461 50:0.005033557 51:0.003355705 
8192 1:1 2:0.15254237 3:0.067961165 4:0.06779661 5:0.026699029 6:0.0048543689 7:0.014563107 8:0.08716707 9:0.038834951 10:0.053268765 11:0.014563107 12:0.024271845 13:0.002427184 14:0.08474576 15:0.031553398 16:0.016990291 17:0.02184466 18:0.014563107 19:0.065375303 20:0.024271845 21:0.019417476 22:0.012106538 23:0.0024271845 24:0.062954 25:0.014563107 26:0.02184466 27:0.019417476 28:0.08716707 29:0.016990291 30:0.014563107 31:0.031476998 32:0.012135922 33:0.0024271845 34:0.05326877 35:0.019417476 36:0.04600484 37:0.009708738 38:0.014563107 39:0.036319613 40:0.014563107 41:0.0024271845 42:0.060532688 43:0.024271845 44:0 45:0.024271845 46:0.0653753 47:0.019417476 48:0.016990291 49:0.033898305 50:0.007281553 51:0.004854369 
3437.428601291769 1:0.63953488 2:0.10489511 3:0.039719626 4:0.04895105 5:0.011682243 6:0.0093457944 7:0.014018692 8:0.07226107 9:0.025700935 10:0.074592075 11:0.018691589 12:0.009345794 13:0.030373832 14:0.06293706 15:0.014018692 16:0.011682243 17:0.023364486 18:0.014018692 19:0.093240093 20:0.021028037 21:0.039719626 22:0.020979021 23:0.0023364486 24:0.06526807 25:0.0070093458 26:0.014018692 27:0.018691589 28:0.07459207 29:0.007009346 30:0.01635514 31:0.03962704 32:0.009345794 33:0 34:0.03263403 35:0.0023364486 36:0.04428904 37:0.004672897 38:0.021028037 39:0.060606061 40:0.011682243 41:0.023364486 42:0.058275058 43:0.014018692 44:0.0046728972 45:0.009345794 46:0.06526807 47:0.025700935 48:0.007009346 49:0.081585082 50:0.01635514 51:0.018691589 
1755.60396635436 1:0.6587156 2:0.0625 3:0.012891344 4:0.06801471 5:0.02946593 6:0.0092081031 7:0.016574586 8:0.07536765 9:0.018416206 10:0.040441176 11:0.0036832413 12:0.016574586 13:0.005524862 14:0.09007353 15:0.020257827 16:0.023941068 17:0.025782689 18:0.020257827 19:0.047794118 20:0.011049724 21:0.012891344 22:0.022058824 23:0.0073664825 24:0.08272059 25:0.0036832413 26:0.014732965 27:0.046040516 28:0.06985294 29:0.012891344 30:0.022099448 31:0.053308824 32:0.011049724 33:0.0055248619 34:0.07720588 35:0.020257827 36:0.06617647 37:0.022099448 38:0.022099448 39:0.023897059 40:0.012891344 41:0.0055248619 42:0.071691176 43:0.027624309 44:0.0055248619 45:0.027624309 46:0.09191176 47:0.027624309 48:0.02946593 49:0.056985294 50:0.007366483 51:0.020257827 
8192 1:0.78356566 2:0.046238532 3:0.012481645 4:0.05174312 5:0.012114537 6:0.001835536 7:0.020558003 8:0.06605505 9:0.014317181 10:0.069357798 11:0.0069750367 12:0.014317181 13:0.015785609 14:0.09357798 15:0.009911894 16:0.02349486 17:0.030469897 18:0.029735683 19:0.051009174 20:0.020190896 21:0.0088105727 22:0.007706422 23:0.0014684288 24:0.08954128 25:0.010646109 26:0.018722467 27:0.034875184 28:0.04954128 29:0.009911894 30:0.011013216 31:0.056513761 32:0.010279001 33:0.001835536 34:0.04440367 35:0.010279001 36:0.06201835 37:0.009544787 38:0.027165932 39:0.04440367 40:0.0095447871 41:0.015051395 42:0.082568807 43:0.034875184 44:0.0029368576 45:0.03010279 46:0.09431193 47:0.019456681 48:0.035976505 49:0.091009174 50:0.017988253 51:0.03928047 
7839.456220491906 1:0.95325203 2:0.067209776 3:0.020408163 4:0.03462322 5:0.012244898 6:0.0020408163 7:0.012244898 8:0.0814664 9:0.024489796 10:0.067209776 11:0.014285714 12:0.02244898 13:0.010204082 14:0.07942974 15:0.018367347 16:0.012244898 17:0.024489796 18:0.024489796 19:0.065173116 20:0.014285714 21:0.016326531 22:0.016293279 23:0 24:0.0712831 25:0.010204082 26:0.018367347 27:0.028571429 28:0.06517312 29:0.004081633 30:0.028571429 31:0.063136456 32:0.018367347 33:0.0020408163 34:0.07942974 35:0.030612245 36:0.05702648 37:0.016326531 38:0.02244898 39:0.038696538 40:0.0081632653 41:0.020408163 42:0.071283096 43:0.024489796 44:0 45:0.024489796 46:0.08553971 47:0.020408163 48:0.028571429 49:0.057026477 50:0.012244898 51:0.018367347 
8192 1:0.72086331 2:0.073487032 3:0.021645022 4:0.03602305 5:0.011544011 6:0.0043290043 7:0.007215007 8:0.10230548 9:0.023088023 10:0.048991354 11:0.0043290043 12:0.012987013 13:0.011544012 14:0.08213256 15:0.02020202 16:0.01010101 17:0.04040404 18:0.011544011 19:0.076368876 20:0.017316017 21:0.018759019 22:0.018731988 23:0.0028860029 24:0.08789625 25:0.015873016 26:0.023088023 27:0.031746032 28:0.07060519 29:0.01010101 30:0.02020202 31:0.082132565 32:0.025974026 33:0.0028860029 34:0.06340058 35:0.012987013 36:0.03746398 37:0.005772006 38:0.014430014 39:0.034582133 40:0.0086580087 41:0.012987013 42:0.070605187 43:0.024531025 44:0.0057720058 45:0.021645022 46:0.06772334 47:0.012987013 48:0.011544012 49:0.047550432 50:0.008658009 51:0.008658009 
8192 1:0.83386581 2:0.089552239 3:0.025613661 4:0.07036247 5:0.032017076 6:0.0064034152 7:0.020277481 8:0.07889126 9:0.028815368 10:0.068230277 11:0.0085378869 12:0.016008538 13:0.021344717 14:0.08422175 15:0.023479189 16:0.01814301 17:0.024546425 18:0.01814301 19:0.056503198 20:0.017075774 21:0.017075774 22:0.024520256 23:0.0042689434 24:0.05970149 25:0.014941302 26:0.007470651 27:0.027748132 28:0.08528785 29:0.013874066 30:0.025613661 31:0.051172708 32:0.014941302 33:0.0032017076 34:0.054371 35:0.01280683 36:0.04584222 37:0.007470651 38:0.017075774 39:0.046908316 40:0.016008538 41:0.0096051227 42:0.047974414 43:0.019210245 44:0.0053361793 45:0.010672359 46:0.07889126 47:0.027748132 48:0.020277481 49:0.057569296 50:0.01814301 51:0.016008538 
8192 1:1 2:0.070351759 3:0.01511335 4:0.07035176 5:0.0302267 6:0.010075567 7:0.017632242 8:0.07286432 9:0.025188917 10:0.060301508 11:0.0050377834 12:0.01511335 13:0.020151134 14:0.08291457 15:0.020151134 16:0.017632242 17:0.027707809 18:0.017632242 19:0.060301508 20:0.01511335 21:0.017632242 22:0.022613065 23:0.0025188917 24:0.07035176 25:0.01511335 26:0.010075567 27:0.037783375 28:0.0879397 29:0.01511335 30:0.025188917 31:0.055276382 32:0.022670025 33:0 34:0.06281407 35:0.017632242 36:0.05527638 37:0.010075567 38:0.027707809 39:0.032663317 40:0.010075567 41:0.010075567 42:0.050251256 43:0.025188917 44:0.0050377834 45:0.012594458 46:0.10301508 47:0.032745592 48:0.025188917 49:0.042713568 50:0.022670025 51:0.007556675 
4558.238894915675 1:0.36428571 2:0.089605735 3:0.028776978 4:0.05376344 5:0.025179856 6:0.0035971223 7:0.007194245 8:0.11111111 9:0.043165468 10:0.043010753 11:0.0071942446 12:0.010791367 13:0.010791367 14:0.11111111 15:0.032374101 16:0.028776978 17:0.028776978 18:0.021582734 19:0.078853047 20:0.043165468 21:0.014388489 22:0.021505376 23:0.0071942446 24:0.07526882 25:0.014388489 26:0.039568345 27:0.007194245 28:0.06810036 29:0.007194245 30:0.025179856 31:0.05734767 32:0.017985612 33:0.0035971223 34:0.02867384 35:0 36:0.04301075 37:0.028776978 38:0.003597122 39:0.028673835 40:0.0035971223 41:0.0035971223 42:0.096774194 43:0.017985612 44:0.010791367 45:0.039568345 46:0.03584229 47:0.014388489 48:0.003597122 49:0.05734767 50:0.014388489 51:0.017985612 
8192 1:0.7781155 2:0.057926829 3:0.018348624 4:0.03658537 5:0.006116208 6:0.0091743119 7:0.01529052 8:0.06402439 9:0.012232416 10:0.039634146 11:0.003058104 12:0.027522936 13:0 14:0.07317073 15:0.018348624 16:0.012232416 17:0.027522936 18:0.012232416 19:0.094512195 20:0.027522936 21:0.027522936 22:0.039634146 23:0.01529052 24:0.09146341 25:0.0091743119 26:0.033639144 27:0.039755352 28:0.04878049 29:0.01529052 30:0.012232416 31:0.097560976 32:0.033639144 33:0.018348624 34:0.08231707 35:0.018348624 36:0.06097561 37:0.021406728 38:0.021406728 39:0.021341463 40:0.006116208 41:0.0091743119 42:0.070121951 43:0.021406728 44:0.006116208 45:0.01529052 46:0.10060976 47:0.01529052 48:0.027522936 49:0.021341463 50:0.012232416 51:0.003058104 
946.8381269050782 1:0.56610169 2:0.068027211 3:0.020477816 4:0.04421769 5:0.017064846 6:0.0034129693 7:0.010238908 8:0.07142857 9:0.030716724 10:0.068027211 11:0.020477816 12:0.023890785 13:0.013651877 14:0.05102041 15:0.017064846 16:0.013651877 17:0.013651877 18:0.0068259386 19:0.044217687 20:0.010238908 21:0.0068259386 22:0.010204082 23:0 24:0.10204082 25:0.013651877 26:0.027303754 27:0.027303754 28:0.08503401 29:0.010238908 30:0.027303754 31:0.044217687 32:0.006825939 33:0.0034129693 34:0.08163265 35:0.027303754 36:0.04421769 37:0.006825939 38:0.027303754 39:0.047619048 40:0.0068259386 41:0.020477816 42:0.071428571 43:0.010238908 44:0.0034129693 45:0.044368601 46:0.0952381 47:0.023890785 48:0.013651877 49:0.071428571 50:0.017064846 51:0.017064846 
8192 1:1 2:0.12907432 3:0.054830287 4:0.07692308 5:0.035248042 6:0.0039164491 7:0.015665796 8:0.08735332 9:0.032637076 10:0.049543677 11:0.010443864 12:0.018276762 13:0.005221932 14:0.08865711 15:0.026109661 16:0.026109661 17:0.023498695 18:0.01305483 19:0.052151239 20:0.019582245 21:0.01305483 22:0.016949153 23:0.001305483 24:0.05867014 25:0.0078328982 26:0.018276762 27:0.018276762 28:0.07953064 29:0.015665796 30:0.019582245 31:0.037809648 32:0.006527415 33:0.0039164491 34:0.05736636 35:0.015665796 36:0.0547588 37:0.002610966 38:0.023498695 39:0.045632334 40:0.014360313 41:0.0091383812 42:0.049543677 43:0.019582245 44:0.0039164491 45:0.015665796 46:0.06779661 47:0.016971279 48:0.016971279 49:0.048239896 50:0.007832898 51:0.01305483 
1828.616566624941 1:0.65938865 2:0.088921283 3:0.023357664 4:0.04664723 5:0.02189781 6:0.004379562 7:0.013138686 8:0.08746356 9:0.026277372 10:0.064139942 11:0.011678832 12:0.018978102 13:0.020437956 14:0.05830904 15:0.020437956 16:0.004379562 17:0.020437956 18:0.013138686 19:0.032069971 20:0.004379562 21:0.0072992701 22:0.00728863 23:0 24:0.07580175 25:0.011678832 26:0.013138686 27:0.017518248 28:0.07580175 29:0.026277372 30:0.013138686 31:0.051020408 32:0.00729927 33:0 34:0.07580175 35:0.016058394 36:0.04956268 37:0.005839416 38:0.01459854 39:0.064139942 40:0.0072992701 41:0.017518248 42:0.042274052 43:0.016058394 44:0.001459854 45:0.01459854 46:0.08309038 47:0.017518248 48:0.013138686 49:0.097667638 50:0.032116788 51:0.032116788 
8192 1:0.9742268 2:0.023255814 3:0.005181347 4:0.05167959 5:0.015544041 6:0.0077720207 7:0.015544041 8:0.0749354 9:0.010362694 10:0.033591731 11:0.0051813472 12:0.020725389 13:0.005181347 14:0.09302326 15:0.010362694 16:0.028497409 17:0.041450777 18:0.012953368 19:0.11369509 20:0.033678756 21:0.033678756 22:0.041343669 23:0.010362694 24:0.06976744 25:0.0051813472 26:0.031088083 27:0.023316062 28:0.05167959 29:0.015544041 30:0.020725389 31:0.093023256 32:0.031088083 33:0.012953368 34:0.11627907 35:0.041450777 36:0.05167959 37:0.007772021 38:0.033678756 39:0.012919897 40:0.0077720207 41:0.0025906736 42:0.059431525 43:0.018134715 44:0 45:0.005181347 46:0.08268734 47:0.020725389 48:0.007772021 49:0.031007752 50:0.005181347 51:0.007772021 
6865.432890266066 1:0.47333333 2:0.040089087 3:0.013392857 4:0.05122494 5:0.0089285714 6:0.0066964286 7:0.013392857 8:0.08017817 9:0.006696429 10:0.020044543 11:0.0044642857 12:0.008928571 13:0.006696429 14:0.077951 15:0.011160714 16:0.022321429 17:0.035714286 18:0.0089285714 19:0.10244989 20:0.035714286 21:0.026785714 22:0.042316258 23:0.017857143 24:0.06681514 25:0.0089285714 26:0.026785714 27:0.017857143 28:0.0467706 29:0.006696429 30:0.026785714 31:0.084632517 32:0.029017857 33:0.013392857 34:0.1091314 35:0.035714286 36:0.07349666 37:0.017857143 38:0.037946429 39:0.026726058 40:0.013392857 41:0 42:0.051224944 43:0.011160714 44:0.011160714 45:0.004464286 46:0.08240535 47:0.013392857 48:0.022321429 49:0.04454343 50:0.017857143 51:0.015625 
2413.901578216612 1:0.92216981 2:0.085106383 3:0.021327014 4:0.04728132 5:0.016587678 6:0.0047393365 7:0.009478673 8:0.08274232 9:0.028436019 10:0.063829787 11:0.011848341 12:0.016587678 13:0.021327014 14:0.08510638 15:0.018957346 16:0.018957346 17:0.021327014 18:0.026066351 19:0.063829787 20:0.018957346 21:0.009478673 22:0.023640662 23:0.011848341 24:0.08274232 25:0.011848341 26:0.023696682 27:0.035545024 28:0.05910165 29:0.004739336 30:0.021327014 31:0.085106383 32:0.023696682 33:0.009478673 34:0.04728132 35:0 36:0.03309693 37:0.009478673 38:0.009478673 39:0.047281324 40:0.0071090047 41:0.009478673 42:0.059101655 43:0.023696682 44:0.0023696682 45:0.018957346 46:0.07328605 47:0.014218009 48:0.018957346 49:0.061465721 50:0.011848341 51:0.016587678 
8192 1:0.91316147 2:0.039402174 3:0.006802721 4:0.04891304 5:0.020408163 6:0 7:0.013605442 8:0.09375 9:0.017687075 10:0.050271739 11:0.0068027211 12:0.016326531 13:0.00952381 14:0.09782609 15:0.014965986 16:0.019047619 17:0.044897959 18:0.019047619 19:0.12228261 20:0.039455782 21:0.043537415 22:0.010869565 23:0.0027210884 24:0.08152174 25:0.0081632653 26:0.023129252 27:0.03537415 28:0.0625 29:0.013605442 30:0.02585034 31:0.073369565 32:0.032653061 33:0.0013605442 34:0.06521739 35:0.014965986 36:0.04483696 37:0.012244898 38:0.013605442 39:0.032608696 40:0.0068027211 41:0.014965986 42:0.069293478 43:0.017687075 44:0.0013605442 45:0.019047619 46:0.07472826 47:0.021768707 48:0.017687075 49:0.032608696 50:0.00952381 51:0.001360544 
8192 1:0.95252226 2:0.10549777 3:0.040178571 4:0.04903418 5:0.014880952 6:0.0044642857 7:0.014880952 8:0.09806835 9:0.038690476 10:0.059435364 11:0.0089285714 12:0.019345238 13:0.016369048 14:0.07280832 15:0.022321429 16:0.007440476 17:0.026785714 18:0.016369048 19:0.047548291 20:0.017857143 21:0.0074404762 22:0.014858841 23:0.0044642857 24:0.06835067 25:0.0074404762 26:0.026785714 27:0.020833333 28:0.09509658 29:0.014880952 30:0.03125 31:0.046062407 32:0.014880952 33:0 34:0.07429421 35:0.017857143 36:0.04309064 37:0.007440476 38:0.014880952 39:0.038632987 40:0.0074404762 41:0.010416667 42:0.059435364 43:0.023809524 44:0.0029761905 45:0.022321429 46:0.07132244 47:0.014880952 48:0.020833333 49:0.056463596 50:0.016369048 51:0.019345238 
2249.984642660509 1:0.48582996 2:0.070993915 3:0.022357724 4:0.05070994 5:0.022357724 6:0 7:0.010162602 8:0.05476673 9:0.008130081 10:0.058823529 11:0.010162602 12:0.018292683 13:0.022357724 14:0.06896552 15:0.018292683 16:0.018292683 17:0.020325203 18:0.012195122 19:0.044624746 20:0.016260163 21:0.006097561 22:0.00811359 23:0 24:0.06693712 25:0.0040650407 26:0.018292683 27:0.032520325 28:0.05070994 29:0.008130081 30:0.010162602 31:0.046653144 32:0.012195122 33:0.0020325203 34:0.07099391 35:0.022357724 36:0.08924949 37:0.012195122 38:0.036585366 39:0.044624746 40:0.0081300813 41:0.020325203 42:0.046653144 43:0.010162602 44:0.006097561 45:0.022357724 46:0.12373225 47:0.024390244 48:0.042682927 49:0.10344828 50:0.036585366 51:0.040650407 
5655.670550892179 1:0.93483709 2:0.057788945 3:0.020151134 4:0.03517588 5:0.012594458 6:0.0025188917 7:0.012594458 8:0.06532663 9:0.012594458 10:0.055276382 11:0.0075566751 12:0.017632242 13:0.010075567 14:0.07537688 15:0.010075567 16:0.012594458 17:0.0302267 18:0.022670025 19:0.052763819 20:0.012594458 21:0.012594458 22:0.015075377 23:0 24:0.11809045 25:0.012594458 26:0.042821159 27:0.032745592 28:0.05527638 29:0.007556675 30:0.012594458 31:0.057788945 32:0.007556675 33:0.0050377834 34:0.06281407 35:0.020151134 36:0.04271357 37:0.025188917 38:0.005037783 39:0.025125628 40:0.0025188917 41:0.0050377834 42:0.11306533 43:0.032745592 44:0.0025188917 45:0.052896725 46:0.07537688 47:0.022670025 48:0.020151134 49:0.092964824 50:0.020151134 51:0.042821159 
8192 1:0.95071542 2:0.074840764 3:0.01754386 4:0.0477707 5:0.022328549 6:0.0063795853 7:0.009569378 8:0.11146497 9:0.049441786 10:0.054140127 11:0.009569378 12:0.019138756 13:0.022328549 14:0.06847134 15:0.015948963 16:0.011164274 17:0.027113238 18:0.014354067 19:0.041401274 20:0.019138756 21:0.0031897927 22:0.015923567 23:0.0031897927 24:0.06369427 25:0.012759171 26:0.011164274 27:0.027113238 28:0.09713376 29:0.014354067 30:0.033492823 31:0.058917197 32:0.015948963 33:0.0063795853 34:0.06847134 35:0.012759171 36:0.05573248 37:0.007974482 38:0.020733652 39:0.047770701 40:0.009569378 41:0.0079744817 42:0.041401274 43:0.012759171 44:0.0015948963 45:0.012759171 46:0.0843949 47:0.01754386 48:0.025518341 49:0.068471338 50:0.01754386 51:0.019138756 
8192 1:1 2:0.10079576 3:0.039893617 4:0.06100796 5:0.021276596 6:0.0026595745 7:0.018617021 8:0.06896552 9:0.031914894 10:0.050397878 11:0.010638298 12:0.026595745 13:0.007978723 14:0.066313 15:0.026595745 16:0.021276596 17:0.007978723 18:0.010638298 19:0.058355438 20:0.018617021 21:0.018617021 22:0.01061008 23:0 24:0.0795756 25:0.0079787234 26:0.021276596 27:0.029255319 28:0.0795756 29:0.015957447 30:0.018617021 31:0.031830239 32:0.007978723 33:0.0026595745 34:0.04774536 35:0.010638298 36:0.05570292 37:0.007978723 38:0.021276596 39:0.034482759 40:0.015957447 41:0.0053191489 42:0.063660477 43:0.018617021 44:0.0026595745 45:0.029255319 46:0.08753316 47:0.013297872 48:0.026595745 49:0.10344828 50:0.010638298 51:0.050531915 
1102.700229197921 1:0.71563981 2:0.11234177 3:0.011093502 4:0.03481013 5:0.017432647 6:0 7:0.009508716 8:0.18512658 9:0.077654517 10:0.042721519 11:0.011093502 12:0.011093502 13:0.00792393 14:0.06962025 15:0.012678288 16:0.011093502 17:0.023771791 18:0.022187005 19:0.039556962 20:0.019017433 21:0.0063391442 22:0.001582278 23:0 24:0.04113924 25:0.012678288 26:0.011093502 27:0.011093502 28:0.15506329 29:0.006339144 30:0.071315372 31:0.028481013 32:0.012678288 33:0 34:0.10126582 35:0.0079239303 36:0.03481013 37:0.006339144 38:0.009508716 39:0.036392405 40:0.0079239303 41:0.0063391442 42:0.049050633 43:0.020602219 44:0 45:0.015847861 46:0.03322785 47:0.00792393 48:0.006339144 49:0.034810127 50:0.001584786 51:0.00792393 
7613.729638604313 1:0.81773399 2:0.04950495 3:0.004975124 4:0.07920792 5:0.049751244 6:0 7:0.019900498 8:0.13366337 9:0.039800995 10:0.044554455 11:0 12:0.009950249 13:0.024875622 14:0.12376238 15:0.009950249 16:0.024875622 17:0.069651741 18:0.019900497 19:0.084158416 20:0.039800995 21:0.034825871 22:0 23:0 24:0.05445545 25:0.0049751244 26:0.019900498 27:0.004975124 28:0.1039604 29:0.029850746 30:0.019900498 31:0.054455446 32:0.024875622 33:0 34:0.07920792 35:0.024875622 36:0.01485149 37:0.004975124 38:0 39:0.02970297 40:0.0049751244 41:0 42:0.044554455 43:0.014925373 44:0 45:0.014925373 46:0.03960396 47:0.014925373 48:0 49:0.064356436 50:0.024875622 51:0.009950249 
3451.643375175119 1:0.18947368 2:0.063324538 3:0.021164021 4:0.03693931 5:0.013227513 6:0.0052910053 7:0.010582011 8:0.07651715 9:0.021164021 10:0.044854881 11:0.010582011 12:0.007936508 13:0.013227513 14:0.04221636 15:0.010582011 16:0.007936508 17:0.018518519 18:0.0052910053 19:0.036939314 20:0.010582011 21:0.0026455026 22:0.031662269 23:0.0079365079 24:0.07915567 25:0.0052910053 26:0.010582011 27:0.042328042 28:0.07124011 29:0.015873016 30:0.021164021 31:0.050131926 32:0.018518519 33:0.010582011 34:0.07124011 35:0.023809524 36:0.09234828 37:0.018518519 38:0.037037037 39:0.044854881 40:0.0052910053 41:0.018518519 42:0.065963061 43:0.013227513 44:0.0079365079 45:0.037037037 46:0.1055409 47:0.026455026 48:0.031746032 49:0.08707124 50:0.018518519 51:0.034391534 
2792.858073968262 1:0.62915601 2:0.056410256 3:0.020565553 4:0.04871795 5:0.020565553 6:0 7:0.01285347 8:0.05384615 9:0.010282776 10:0.053846154 11:0.0025706941 12:0.017994859 13:0.017994859 14:0.08974359 15:0.025706941 16:0.017994859 17:0.023136247 18:0.023136247 19:0.076923077 20:0.023136247 21:0.0051413882 22:0.020512821 23:0.0051413882 24:0.1025641 25:0.010282776 26:0.048843188 27:0.030848329 28:0.05128205 29:0.020565553 30:0.010282776 31:0.071794872 32:0.010282776 33:0.0051413882 34:0.08974359 35:0.030848329 36:0.04102564 37:0.015424165 38:0.015424165 39:0.015384615 40:0.0051413882 41:0.0051413882 42:0.092307692 43:0.017994859 44:0.0077120823 45:0.020565553 46:0.08974359 47:0.023136247 48:0.017994859 49:0.046153846 50:0.025706941 51:0.005141388 
8192 1:0.88636364 2:0.068322981 3:0.020746888 4:0.04761905 5:0.020746888 6:0.0062240664 7:0.010373444 8:0.07246377 9:0.020746888 10:0.074534161 11:0.010373444 12:0.037344398 13:0.010373444 14:0.0621118 15:0.014522822 16:0.006224066 17:0.018672199 18:0.022821577 19:0.033126294 20:0.012448133 21:0.0062240664 22:0.037267081 23:0.0062240664 24:0.04968944 25:0.0062240664 26:0.014522822 27:0.022821577 28:0.0931677 29:0.018672199 30:0.022821577 31:0.051759834 32:0.008298755 33:0.010373444 34:0.08695652 35:0.018672199 36:0.07246377 37:0.008298755 38:0.03526971 39:0.041407867 40:0.0082987552 41:0.010373444 42:0.049689441 43:0.008298755 44:0.0082987552 45:0.024896266 46:0.10559006 47:0.033195021 48:0.012448133 49:0.053830228 50:0.010373444 51:0.022821577 
462.14399689353 1:0.93376068 2:0.062098501 3:0.012875536 4:0.05353319 5:0.010729614 6:0.0021459227 7:0.02360515 8:0.07922912 9:0.034334764 10:0.053533191 11:0.008583691 12:0.021459227 13:0.012875536 14:0.07494647 15:0.015021459 16:0.021459227 17:0.015021459 18:0.02360515 19:0.072805139 20:0.021459227 21:0.017167382 22:0.010706638 23:0.0021459227 24:0.08779443 25:0.008583691 26:0.02360515 27:0.032188841 28:0.07922912 29:0.017167382 30:0.02360515 31:0.047109208 32:0.019313305 33:0.0021459227 34:0.05567452 35:0.008583691 36:0.0620985 37:0.021459227 38:0.02360515 39:0.034261242 40:0.008583691 41:0.0021459227 42:0.070663812 43:0.034334764 44:0.0021459227 45:0.015021459 46:0.09850107 47:0.027896996 48:0.027896996 49:0.057815846 50:0.021459227 51:0.008583691 
4128.064413563759 1:0.3148688 2:0.087719298 3:0.026392962 4:0.07309942 5:0.038123167 6:0.008797654 7:0.017595308 8:0.0877193 9:0.023460411 10:0.040935673 11:0.008797654 12:0.008797654 13:0.017595308 14:0.0994152 15:0.032258065 16:0.017595308 17:0.035190616 18:0.014662757 19:0.081871345 20:0.029325513 21:0.020527859 22:0.01754386 23:0.0029325513 24:0.07309942 25:0.0058651026 26:0.011730205 27:0.026392962 28:0.07017544 29:0.008797654 30:0.026392962 31:0.078947368 32:0.029325513 33:0.0029325513 34:0.04678363 35:0.0058651026 36:0.02046784 37:0.005865103 38:0.008797654 39:0.032163743 40:0.014662757 41:0.0029325513 42:0.035087719 43:0.005865103 44:0 45:0.005865103 46:0.06725146 47:0.014662757 48:0.008797654 49:0.087719298 50:0.023460411 51:0.038123167 
4920.24657129524 1:0.86956522 2:0.046153846 3:0.01285347 4:0.06923077 5:0.023136247 6:0.023136247 7:0.007712082 8:0.07692308 9:0.015424165 10:0.051282051 11:0.0077120823 12:0.025706941 13:0.007712082 14:0.11025641 15:0.017994859 16:0.038560411 17:0.028277635 18:0.025706941 19:0.061538462 20:0.023136247 21:0.01285347 22:0.053846154 23:0.025706941 24:0.06666667 25:0 26:0.017994859 27:0.023136247 28:0.06666667 29:0.017994859 30:0.015424165 31:0.097435897 32:0.023136247 33:0.01285347 34:0.03846154 35:0.0051413882 36:0.04871795 37:0.015424165 38:0.020565553 39:0.023076923 40:0 41:0.0025706941 42:0.061538462 43:0.023136247 44:0.010282776 45:0.020565553 46:0.08205128 47:0.030848329 48:0.01285347 49:0.046153846 50:0.01285347 51:0.005141388 
8192 1:0.40828402 2:0.09486166 3:0.025742574 4:0.05731225 5:0.023762376 6:0.0079207921 7:0.00990099 8:0.09090909 9:0.031683168 10:0.057312253 11:0.011881188 12:0.015841584 13:0.015841584 14:0.07905138 15:0.021782178 16:0.01980198 17:0.027722772 18:0.0099009901 19:0.059288538 20:0.01980198 21:0.013861386 22:0.017786561 23:0.0059405941 24:0.07114625 25:0.0079207921 26:0.00990099 27:0.033663366 28:0.09090909 29:0.013861386 30:0.025742574 31:0.071146245 32:0.015841584 33:0.003960396 34:0.04940711 35:0.0079207921 36:0.03359684 37:0.003960396 38:0.017821782 39:0.035573123 40:0.011881188 41:0.0059405941 42:0.041501976 43:0.011881188 44:0.001980198 45:0.011881188 46:0.08695652 47:0.027722772 48:0.015841584 49:0.063241107 50:0.017821782 51:0.023762376 
213.3179739115345 1:0.89861751 2:0.041538462 3:0.004622496 4:0.04769231 5:0.010785824 6:0.0092449923 7:0.006163328 8:0.09076923 9:0.023112481 10:0.023076923 11:0.0030816641 12:0.004622496 13:0.009244992 14:0.08615385 15:0.020030817 16:0.020030817 17:0.038520801 18:0.0077041602 19:0.12615385 20:0.030816641 21:0.046224962 22:0.053846154 23:0.010785824 24:0.06461538 25:0.0061633282 26:0.013867488 27:0.023112481 28:0.06 29:0.012326656 30:0.030816641 31:0.093846154 32:0.026194145 33:0.018489985 34:0.08153846 35:0.024653313 36:0.04307692 37:0.012326656 38:0.01540832 39:0.013846154 40:0.0046224961 41:0.001540832 42:0.063076923 43:0.013867488 44:0.0061633282 45:0.010785824 46:0.05230769 47:0.004622496 48:0.006163328 49:0.058461538 50:0.009244992 51:0.016949153 
2259.842972543224 1:0.72125436 2:0.11538461 3:0.042105263 4:0.04195804 5:0.0070175439 6:0.0070175439 7:0.010526316 8:0.14685315 9:0.080701754 10:0.045454545 11:0.0070175439 12:0.014035088 13:0.007017544 14:0.04895105 15:0.01754386 16:0.003508772 17:0.021052632 18:0.0070175439 19:0.055944056 20:0.007017544 21:0.021052632 22:0.034965035 23:0.0070175439 24:0.04895105 25:0.0070175439 26:0.010526316 27:0.014035088 28:0.13286713 29:0.01754386 30:0.056140351 31:0.048951049 32:0.014035088 33:0.010526316 34:0.06643357 35:0.014035088 36:0.03496503 37:0.010526316 38:0.007017544 39:0.052447552 40:0.0035087719 41:0.01754386 42:0.041958042 43:0.01754386 44:0.0070175439 45:0.014035088 46:0.03496503 47:0.01754386 48:0.010526316 49:0.048951049 50:0 51:0.01754386 
2832.60470118312 1:0.7265625 2:0.052219321 3:0.013089005 4:0.04438642 5:0.010471204 6:0.002617801 7:0.015706806 8:0.04438642 9:0.005235602 10:0.057441253 11:0.0078534031 12:0.013089005 13:0.020942408 14:0.04960836 15:0.002617801 16:0.013089005 17:0.020942408 18:0.013089005 19:0.057441253 20:0.010471204 21:0.018324607 22:0.044386423 23:0.0078534031 24:0.09660574 25:0.0078534031 26:0.02617801 27:0.036649215 28:0.05221932 29:0.007853403 30:0.010471204 31:0.041775457 32:0.002617801 33:0.0052356021 34:0.05221932 35:0.015706806 36:0.06266319 37:0.013089005 38:0.005235602 39:0.044386423 40:0.013089005 41:0.018324607 42:0.10182768 43:0.013089005 44:0.020942408 45:0.047120419 46:0.06788512 47:0.023560209 48:0.015706806 49:0.1305483 50:0.013089005 51:0.04973822 
8192 1:0.87172775 2:0.12860892 3:0.063157895 4:0.05774278 5:0.034210526 6:0.0026315789 7:0.013157895 8:0.09186352 9:0.034210526 10:0.062992126 11:0.0026315789 12:0.034210526 13:0.018421053 14:0.07611549 15:0.028947368 16:0.007894737 17:0.021052632 18:0.018421053 19:0.034120735 20:0.010526316 21:0.010526316 22:0.010498688 23:0.0026315789 24:0.04986877 25:0.010526316 26:0.002631579 27:0.026315789 28:0.09973753 29:0.018421053 30:0.031578947 31:0.05511811 32:0.013157895 33:0.0026315789 34:0.06036745 35:0.0026315789 36:0.05249344 37:0.005263158 38:0.023684211 39:0.036745407 40:0.021052632 41:0.0026315789 42:0.023622047 43:0.013157895 44:0 45:0.007894737 46:0.10498688 47:0.028947368 48:0.018421053 49:0.05511811 50:0.021052632 51:0.015789474 
8192 1:0.96138996 2:0.073500967 3:0.023255814 4:0.04642166 5:0.01744186 6:0.0058139535 7:0.011627907 8:0.06576402 9:0.011627907 10:0.054158607 11:0.003875969 12:0.015503876 13:0.01744186 14:0.09864603 15:0.01744186 16:0.01744186 17:0.042635659 18:0.021317829 19:0.088974855 20:0.032945736 21:0.025193798 22:0.007736944 23:0.0019379845 24:0.08317215 25:0.0096899225 26:0.021317829 27:0.027131783 28:0.04448743 29:0.013565891 30:0.007751938 31:0.063829787 32:0.021317829 33:0 34:0.04061896 35:0.003875969 36:0.0483559 37:0.005813953 38:0.01744186 39:0.025145068 40:0.0019379845 41:0.003875969 42:0.079303675 43:0.025193798 44:0 45:0.023255814 46:0.08317215 47:0.019379845 48:0.015503876 49:0.096711799 50:0.023255814 51:0.034883721 
3156.511050799706 1:0.30681818 2:0.089615932 3:0.021367521 4:0.07396871 5:0.028490029 6:0.014245014 7:0.015669516 8:0.07681366 9:0.031339031 10:0.06116643 11:0.015669516 12:0.014245014 13:0.00997151 14:0.09530583 15:0.032763533 16:0.018518519 17:0.021367521 18:0.021367521 19:0.073968706 20:0.025641026 21:0.024216524 22:0.024182077 23:0.0028490028 24:0.06827881 25:0.0085470085 26:0.027065527 27:0.01994302 28:0.07539118 29:0.017094017 30:0.021367521 31:0.038406828 32:0.00997151 33:0 34:0.04836415 35:0.0056980057 36:0.04836415 37:0.00997151 38:0.015669516 39:0.042674253 40:0.00997151 41:0.015669516 42:0.075391181 43:0.01994302 44:0.00997151 45:0.021367521 46:0.05974395 47:0.015669516 48:0.012820513 49:0.048364154 50:0.00997151 51:0.008547009 
