svm_type c_svc
kernel_type rbf
gamma 0.25
nr_class 2
total_sv 3204
rho 119.139
label 1 -1
probA -2.21862
probB 0.431607
nr_sv 1584 1620
SV
65536 1:0.074263764 2:0.01793722 3:0.04609475 4:0.013452915 5:0.003203075 6:0.014734145 7:0.088348271 8:0.034593209 9:0.064020487 10:0.01024984 11:0.02434337 12:0.017296605 13:0.062099872 14:0.013452915 15:0.01153107 16:0.02434337 17:0.0128123 18:0.066581306 19:0.01665599 20:0.01665599 21:0.014724712 22:0.001921845 23:0.081306018 24:0.01409353 25:0.01921845 26:0.028827675 27:0.09346991 28:0.01409353 29:0.026265215 30:0.051856594 31:0.0128123 32:0.00256246 33:0.061459667 34:0.012171685 35:0.045454545 36:0.010890455 37:0.013452915 38:0.042893726 39:0.0096092249 40:0.0089686099 41:0.060179257 42:0.013452915 43:0.003203075 44:0.021140295 45:0.087708067 46:0.02818706 47:0.01665599 48:0.059539052 49:0.021140295 50:0.012171685 51:0.038387716 
65536 1:0.079881657 2:0.023738872 3:0.050295858 4:0.011869436 5:0.0029673591 6:0.011869436 7:0.13313609 8:0.06231454 9:0.044378698 10:0.0029673591 11:0.014836795 12:0.0059347181 13:0.073964497 14:0.017804154 15:0.020771513 16:0.020771513 17:0.014836795 18:0.062130178 19:0.035608309 20:0.0089020772 21:0.01183432 22:0 23:0.059171598 24:0.0089020772 25:0.014836795 26:0.026706231 27:0.13609467 28:0.023738872 29:0.071216617 30:0.038461538 31:0.011869436 32:0 33:0.073964497 34:0.011869436 35:0.044378698 36:0.0059347181 37:0.020771513 38:0.020710059 39:0.0029673591 40:0 41:0.056213018 42:0.017804154 43:0.0089020772 44:0.011869436 45:0.073964497 46:0.020771513 47:0.014836795 48:0.041420118 49:0.011869436 50:0.014836795 51:0.91740413 
65536 1:0.071782178 2:0.014888337 3:0.081683168 4:0.027295285 5:0.014888337 6:0.022332506 7:0.064356436 8:0.0099255583 9:0.042079208 10:0.0024813896 11:0.017369727 12:0.0074441687 13:0.094059406 14:0.029776675 15:0.024813896 16:0.019851117 17:0.017369727 18:0.074257426 19:0.019851117 20:0.022332506 21:0.051980198 22:0.019851117 23:0.079207921 24:0.012406948 25:0.022332506 26:0.029776675 27:0.069306931 28:0.024813896 29:0.017369727 30:0.076732673 31:0.024813896 32:0.014888337 33:0.066831683 34:0.014888337 35:0.037128713 36:0.012406948 37:0.012406948 38:0.027227723 39:0.014888337 40:0.0024813896 41:0.066831683 42:0.024813896 43:0.0074441687 44:0.024813896 45:0.064356436 46:0.022332506 47:0.014888337 48:0.032178218 49:0.0049627792 50:0.0049627792 51:0.19259259 
65536 1:0.083544304 2:0.025380711 3:0.04556962 4:0.012690355 5:0.0050761421 6:0.020304569 7:0.091139241 8:0.043147208 9:0.058227848 10:0.015228426 11:0.020304569 12:0.0050761421 13:0.06835443 14:0.017766497 15:0.0076142132 16:0.025380711 17:0.017766497 18:0.065822785 19:0.017766497 20:0.012690355 21:0.0075949367 22:0 23:0.086075949 24:0.017766497 25:0.015228426 26:0.025380711 27:0.083544304 28:0.012690355 29:0.02284264 30:0.037974684 31:0.015228426 32:0 33:0.055696203 34:0.010152284 35:0.048101266 36:0.010152284 37:0.010152284 38:0.043037975 39:0.015228426 40:0.0076142132 41:0.078481013 42:0.02284264 43:0 44:0.02284264 45:0.070886076 46:0.012690355 47:0.017766497 48:0.075949367 49:0.015228426 50:0.02284264 51:0.67424242 
65536 1:0.070175439 2:0.022026432 3:0.030701754 4:0.0088105727 5:0.013215859 6:0.0044052863 7:0.096491228 8:0.039647577 9:0.065789474 10:0.017621145 11:0.0088105727 12:0.030837004 13:0.039473684 14:0.0044052863 15:0.0044052863 16:0.017621145 17:0.013215859 18:0.048245614 19:0.0088105727 20:0.022026432 21:0.039473684 22:0.013215859 23:0.061403509 24:0.013215859 25:0.0088105727 26:0.026431718 27:0.12280702 28:0.013215859 29:0.044052863 30:0.061403509 31:0.0088105727 32:0.022026432 33:0.087719298 34:0.017621145 35:0.026315789 36:0.0088105727 37:0.013215859 38:0.035087719 39:0.0044052863 40:0.022026432 41:0.048245614 42:0.0088105727 43:0.0044052863 44:0.022026432 45:0.070175439 46:0.026431718 47:0.0044052863 48:0.096491228 49:0.022026432 50:0.04845815 51:0.62008734 
65536 1:0.061810155 2:0.024336283 3:0.033112583 4:0.017699115 5:0.0022123894 6:0.0066371681 7:0.052980132 8:0.017699115 9:0.088300221 10:0.017699115 11:0.022123894 12:0.026548673 13:0.061810155 14:0.015486726 15:0.0066371681 16:0.015486726 17:0.024336283 18:0.072847682 19:0.017699115 20:0.015486726 21:0.015452539 22:0.0022123894 23:0.072847682 24:0.011061947 25:0.015486726 26:0.024336283 27:0.055187638 28:0.013274336 29:0.0044247788 30:0.050772627 31:0.022123894 32:0.0022123894 33:0.041942605 34:0.0022123894 35:0.057395143 36:0.011061947 37:0.0088495575 38:0.057395143 39:0.0088495575 40:0.026548673 41:0.068432671 42:0.015486726 43:0.0066371681 44:0.017699115 45:0.092715232 46:0.017699115 47:0.026548673 48:0.11699779 49:0.037610619 50:0.042035398 51:0.23127753 
65536 1:0.069958848 2:0.018556701 3:0.061728395 4:0.030927835 5:0.0082474227 6:0.010309278 7:0.10493827 8:0.026804124 9:0.034979424 10:0.010309278 11:0.012371134 12:0.0041237113 13:0.0781893 14:0.01443299 15:0.01443299 16:0.037113402 17:0.012371134 18:0.041152263 19:0.018556701 20:0.0082474227 21:0.024691358 22:0.0082474227 23:0.074074074 24:0.018556701 25:0.01443299 26:0.032989691 27:0.067901235 28:0.010309278 29:0.030927835 30:0.063786008 31:0.012371134 32:0.0082474227 33:0.088477366 34:0.024742268 35:0.067901235 36:0.0082474227 37:0.022680412 38:0.053497942 39:0.010309278 40:0.012371134 41:0.051440329 42:0.016494845 43:0.006185567 44:0.020618557 45:0.072016461 46:0.01443299 47:0.020618557 48:0.04526749 49:0.0041237113 50:0.01443299 51:0.72689938 
65536 1:0.05165692 2:0.014634146 3:0.066276803 4:0.029268293 5:0.010731707 6:0.010731707 7:0.074074074 8:0.017560976 9:0.043859649 10:0.0087804878 11:0.0087804878 12:0.0068292683 13:0.097465887 14:0.011707317 15:0.036097561 16:0.035121951 17:0.014634146 18:0.070175439 19:0.027317073 20:0.019512195 21:0.044834308 22:0.013658537 23:0.075048733 24:0.0087804878 25:0.021463415 26:0.026341463 27:0.056530214 28:0.011707317 29:0.016585366 30:0.082846004 31:0.020487805 32:0.016585366 33:0.071150097 34:0.016585366 35:0.048732943 36:0.012682927 37:0.020487805 38:0.031189084 39:0.0048780488 40:0.011707317 41:0.068226121 42:0.019512195 43:0.010731707 44:0.023414634 45:0.068226121 46:0.011707317 47:0.018536585 48:0.049707602 49:0.012682927 50:0.016585366 51:0.014605648 
65536 1:0.042016807 2:0.0084269663 3:0.047619048 4:0.014044944 5:0.0028089888 6:0.0028089888 7:0.084033613 8:0.025280899 9:0.036414566 10:0.0056179775 11:0.0056179775 12:0.011235955 13:0.06442577 14:0.014044944 15:0.0056179775 16:0.030898876 17:0.014044944 18:0.14285714 19:0.019662921 20:0.056179775 21:0.075630252 22:0.036516854 23:0.047619048 24:0.0056179775 25:0.016853933 26:0.016853933 27:0.078431373 28:0.02247191 29:0.028089888 30:0.098039216 31:0.030898876 32:0.028089888 33:0.11204482 34:0.050561798 35:0.030812325 36:0.011235955 37:0.011235955 38:0.025210084 39:0.011235955 40:0.0056179775 41:0.044817927 42:0.0056179775 43:0.0028089888 44:0.0056179775 45:0.044817927 46:0.0084269663 47:0.0056179775 48:0.025210084 49:0.011235955 50:0.0028089888 51:0.7877095 
65536 1:0.061971831 2:0.014124294 3:0.081690141 4:0.039548023 5:0.0056497175 6:0.011299435 7:0.078873239 8:0.025423729 9:0.070422535 10:0.025423729 11:0.014124294 12:0.011299435 13:0.12112676 14:0.014124294 15:0.039548023 16:0.033898305 17:0.033898305 18:0.067605634 19:0.033898305 20:0.016949153 21:0.0084507042 22:0.0056497175 23:0.081690141 24:0.014124294 25:0.02259887 26:0.025423729 27:0.053521127 28:0.014124294 29:0.019774011 30:0.056338028 31:0.016949153 32:0 33:0.030985915 34:0.011299435 35:0.033802817 36:0.0028248588 37:0.0084745763 38:0.05915493 39:0.016949153 40:0.019774011 41:0.070422535 42:0.033898305 43:0 44:0.028248588 45:0.056338028 46:0.019774011 47:0.0084745763 48:0.067605634 49:0.0084745763 50:0.02259887 51:0.32022472 
65536 1:0.042955326 2:0.0051635112 3:0.06185567 4:0.024096386 5:0.0034423408 6:0.017211704 7:0.087628866 8:0.037865749 9:0.048109966 10:0.008605852 11:0.022375215 12:0.010327022 13:0.080756014 14:0.010327022 15:0.015490534 16:0.034423408 17:0.018932874 18:0.099656357 19:0.022375215 20:0.037865749 21:0.017182131 22:0.0017211704 23:0.073883162 24:0.0051635112 25:0.020654045 26:0.032702238 27:0.10137457 28:0.030981067 29:0.027538726 30:0.056701031 31:0.022375215 32:0.0034423408 33:0.065292096 34:0.015490534 35:0.04467354 36:0.012048193 37:0.020654045 38:0.015463918 39:0.0034423408 40:0.0034423408 41:0.053264605 42:0.018932874 43:0.0034423408 44:0.008605852 45:0.097938144 46:0.029259897 47:0.010327022 48:0.053264605 49:0.022375215 50:0.015490534 51:0.030874786 
65536 1:0.052112676 2:0.0070521862 3:0.053521127 4:0.018335684 5:0.0042313117 6:0.01551481 7:0.094366197 8:0.029619182 9:0.043661972 10:0.0098730606 11:0.016925247 12:0.0042313117 13:0.074647887 14:0.01551481 15:0.014104372 16:0.028208745 17:0.016925247 18:0.085915493 19:0.023977433 20:0.026798307 21:0.028169014 22:0.0084626234 23:0.077464789 24:0.0084626234 25:0.019746121 26:0.036671368 27:0.090140845 28:0.02538787 29:0.029619182 30:0.074647887 31:0.019746121 32:0.0084626234 33:0.090140845 34:0.01551481 35:0.038028169 36:0.0070521862 37:0.01551481 38:0.026760563 39:0.0056417489 40:0.0098730606 41:0.050704225 42:0.011283498 43:0.0070521862 44:0.0098730606 45:0.081690141 46:0.021156559 47:0.0084626234 48:0.038028169 49:0.012693935 50:0.0098730606 51:0.046413502 
43565.53042476539 1:0.082998661 2:0.026809651 3:0.046854083 4:0.020107239 5:0.0013404826 6:0.012064343 7:0.06961178 8:0.025469169 9:0.084337349 10:0.017426273 11:0.036193029 12:0.017426273 13:0.066934404 14:0.013404826 15:0.0080428954 16:0.021447721 17:0.024128686 18:0.052208835 19:0.016085791 20:0.010723861 21:0.0093708166 22:0.0013404826 23:0.076305221 24:0.013404826 25:0.017426273 26:0.025469169 27:0.080321285 28:0.009383378 29:0.022788204 30:0.040160643 31:0.012064343 32:0.0013404826 33:0.052208835 34:0.013404826 35:0.053547523 36:0.016085791 37:0.013404826 38:0.053547523 39:0.012064343 40:0.022788204 41:0.065595716 42:0.021447721 43:0.0040214477 44:0.024128686 45:0.095046854 46:0.032171582 47:0.026809651 48:0.070950469 49:0.020107239 50:0.018766756 51:0.044117647 
65536 1:0.076687117 2:0.027692308 3:0.055214724 4:0.021538462 5:0.0061538462 6:0.015384615 7:0.070552147 8:0.021538462 9:0.04601227 10:0.0030769231 11:0.018461538 12:0.012307692 13:0.095092025 14:0.024615385 15:0.018461538 16:0.030769231 17:0.021538462 18:0.10122699 19:0.024615385 20:0.036923077 21:0.015337423 22:0.0030769231 23:0.076687117 24:0.0092307692 25:0.027692308 26:0.0092307692 27:0.055214724 28:0.015384615 29:0.0061538462 30:0.036809816 31:0.012307692 32:0.0030769231 33:0.024539877 34:0.0030769231 35:0.058282209 36:0.018461538 37:0.015384615 38:0.021472393 39:0.0092307692 40:0.0030769231 41:0.095092025 42:0.036923077 43:0.0030769231 44:0.015384615 45:0.064417178 46:0.015384615 47:0.018461538 48:0.10736196 49:0.021538462 50:0.046153846 51:1 
65536 1:0.048122066 2:0.011750881 3:0.068075117 4:0.03172738 5:0.0047003525 6:0.010575793 7:0.11032864 8:0.036427732 9:0.044600939 10:0.0035252644 11:0.015276146 12:0.010575793 13:0.11737089 14:0.014101058 15:0.028202115 16:0.055229142 17:0.019976498 18:0.07629108 19:0.03760282 20:0.025851939 21:0.012910798 22:0 23:0.061032864 24:0.0082256169 25:0.016451234 26:0.027027027 27:0.084507042 28:0.025851939 29:0.024676851 30:0.059859155 31:0.017626322 32:0.0023501763 33:0.061032864 34:0.010575793 35:0.051643192 36:0.015276146 37:0.011750881 38:0.022300469 39:0.0047003525 40:0.0058754407 41:0.063380282 42:0.024676851 43:0.0047003525 44:0.022326675 45:0.071596244 46:0.027027027 47:0.01880141 48:0.046948357 49:0.017626322 50:0.0094007051 51:0.014067995 
65536 1:0.10893855 2:0.033566434 3:0.065642458 4:0.032167832 5:0.0027972028 6:0.01958042 7:0.1047486 8:0.043356643 9:0.053072626 10:0.013986014 11:0.022377622 12:0.0097902098 13:0.099162011 14:0.022377622 15:0.020979021 16:0.040559441 17:0.015384615 18:0.062849162 19:0.022377622 20:0.023776224 21:0.0097765363 22:0.0027972028 23:0.060055866 24:0.012587413 25:0.015384615 26:0.018181818 27:0.089385475 28:0.011188811 29:0.023776224 30:0.058659218 31:0.013986014 32:0.0027972028 33:0.065642458 34:0.015384615 35:0.036312849 36:0.012587413 37:0.011188811 38:0.036312849 39:0.011188811 40:0.012587413 41:0.043296089 42:0.016783217 43:0 44:0.012587413 45:0.069832402 46:0.020979021 47:0.018181818 48:0.036312849 49:0.018181818 50:0.0041958042 51:0.60669456 
65536 1:0.054226475 2:0.014376997 3:0.057416268 4:0.022364217 5:0.0063897764 6:0.014376997 7:0.070175439 8:0.02715655 9:0.062200957 10:0.0079872204 11:0.020766773 12:0.015974441 13:0.070175439 14:0.0095846645 15:0.015974441 16:0.025559105 17:0.019169329 18:0.071770335 19:0.017571885 20:0.015974441 21:0.038277512 22:0.012779553 23:0.070175439 24:0.011182109 25:0.012779553 26:0.031948882 27:0.086124402 28:0.017571885 29:0.022364217 30:0.060606061 31:0.023961661 32:0.011182109 33:0.063795853 34:0.011182109 35:0.052631579 36:0.014376997 37:0.022364217 38:0.033492823 39:0.012779553 40:0.0079872204 41:0.059011164 42:0.017571885 43:0.0079872204 44:0.015974441 45:0.092503987 46:0.025559105 47:0.020766773 48:0.057416268 49:0.017571885 50:0.017571885 51:0.72611465 
65536 1:0.10655738 2:0.035567715 3:0.058743169 4:0.017783858 5:0.0027359781 6:0.021887825 7:0.088797814 8:0.041039672 9:0.081967213 10:0.019151847 11:0.027359781 12:0.023255814 13:0.086065574 14:0.024623803 15:0.017783858 16:0.020519836 17:0.023255814 18:0.042349727 19:0.025991792 20:0.0068399453 21:0.0095628415 22:0.0027359781 23:0.053278689 24:0.0082079343 25:0.0095759234 26:0.023255814 27:0.096994536 28:0.013679891 29:0.025991792 30:0.049180328 31:0.012311902 32:0.0013679891 33:0.06010929 34:0.010943912 35:0.039617486 36:0.0068399453 37:0.020519836 38:0.046448087 39:0.0068399453 40:0.010943912 41:0.042349727 42:0.021887825 43:0.0041039672 44:0.0082079343 45:0.086065574 46:0.027359781 47:0.013679891 48:0.051912568 49:0.01504788 50:0.012311902 51:0.057298772 
65536 1:0.096456693 2:0.025641026 3:0.072834646 4:0.047337278 5:0 6:0.015779093 7:0.080708661 8:0.025641026 9:0.059055118 10:0.01183432 11:0.025641026 12:0.01183432 13:0.096456693 14:0.027613412 15:0.021696252 16:0.031558185 17:0.015779093 18:0.033464567 19:0.0098619329 20:0.0039447732 21:0.011811024 22:0.0019723866 23:0.070866142 24:0.015779093 25:0.013806706 26:0.017751479 27:0.070866142 28:0.023668639 29:0.01183432 30:0.041338583 31:0.0098619329 32:0.0059171598 33:0.053149606 34:0.015779093 35:0.049212598 36:0.01183432 37:0.01183432 38:0.045275591 39:0.013806706 40:0.01183432 41:0.06496063 42:0.025641026 43:0.0039447732 44:0.025641026 45:0.068897638 46:0.023668639 47:0.0098619329 48:0.084645669 49:0.013806706 50:0.029585799 51:0.058939096 
65536 1:0.094387755 2:0.040920716 3:0.06122449 4:0.017902813 5:0.0025575448 6:0.023017903 7:0.091836735 8:0.017902813 9:0.025510204 10:0.0076726343 11:0 12:0.0051150895 13:0.086734694 14:0.0076726343 15:0.028132992 16:0.040920716 17:0.010230179 18:0.11734694 19:0.046035806 20:0.038363171 21:0.010204082 22:0.0025575448 23:0.096938776 24:0.010230179 25:0.033248082 26:0.030690537 27:0.053571429 28:0.0025575448 29:0.015345269 30:0.068877551 31:0.038363171 32:0.0051150895 33:0.06122449 34:0.010230179 35:0.038265306 36:0.0051150895 37:0.020460358 38:0.038265306 39:0.015345269 40:0.0025575448 41:0.06377551 42:0.012787724 43:0.0025575448 44:0.025575448 45:0.058673469 46:0.012787724 47:0.0076726343 48:0.033163265 49:0.0076726343 50:0.0025575448 
65536 1:0.067099567 2:0.017353579 3:0.08008658 4:0.030368764 5:0.019522777 6:0.010845987 7:0.095238095 8:0.032537961 9:0.051948052 10:0.010845987 11:0.023861171 12:0.0065075922 13:0.11255411 14:0.021691974 15:0.034707158 16:0.030368764 17:0.026030369 18:0.062770563 19:0.017353579 20:0.017353579 21:0.036796537 22:0.013015184 23:0.056277056 24:0.0065075922 25:0.013015184 26:0.021691974 27:0.082251082 28:0.021691974 29:0.026030369 30:0.086580087 31:0.026030369 32:0.0043383948 33:0.04978355 34:0.010845987 35:0.036796537 36:0.0043383948 37:0.019522777 38:0.032467532 39:0.0065075922 40:0.0043383948 41:0.038961039 42:0.023861171 43:0.0065075922 44:0.0086767896 45:0.073593074 46:0.028199566 47:0.010845987 48:0.036796537 49:0.0086767896 50:0.0065075922 51:0.1425486 
65536 1:0.058103976 2:0.012269939 3:0.058103976 4:0.018404908 5:0.0061349693 6:0.015337423 7:0.094801223 8:0.042944785 9:0.058103976 10:0.0061349693 11:0.027607362 12:0.009202454 13:0.082568807 14:0.018404908 15:0.018404908 16:0.030674847 17:0.015337423 18:0.067278287 19:0.015337423 20:0.024539877 21:0.024464832 22:0.0030674847 23:0.064220183 24:0.009202454 25:0.012269939 26:0.018404908 27:0.091743119 28:0.012269939 29:0.036809816 30:0.055045872 31:0.015337423 32:0 33:0.064220183 34:0.012269939 35:0.051987768 36:0.012269939 37:0.024539877 38:0.036697248 39:0.0030674847 40:0.009202454 41:0.055045872 42:0.021472393 43:0.0061349693 44:0.018404908 45:0.082568807 46:0.021472393 47:0.015337423 48:0.055045872 49:0.012269939 50:0.015337423 51:0.14634146 
65536 1:0.065822785 2:0.020304569 3:0.053164557 4:0.010152284 5:0.0076142132 6:0.017766497 7:0.065822785 8:0.015228426 9:0.050632911 10:0.0025380711 11:0.015228426 12:0.020304569 13:0.063291139 14:0.017766497 15:0.012690355 16:0.02284264 17:0.010152284 18:0.060759494 19:0.012690355 20:0.012690355 21:0.030379747 22:0.0076142132 23:0.075949367 24:0.0050761421 25:0.027918782 26:0.025380711 27:0.073417722 28:0.017766497 29:0.02284264 30:0.055696203 31:0.012690355 32:0.010152284 33:0.10126582 34:0.025380711 35:0.058227848 36:0.012690355 37:0.025380711 38:0.032911392 39:0.0076142132 40:0.010152284 41:0.063291139 42:0.020304569 43:0.0076142132 44:0.017766497 45:0.088607595 46:0.012690355 47:0.02284264 48:0.060759494 49:0.02284264 50:0.015228426 51:0.40656566 
65536 1:0.061484919 2:0.016260163 3:0.067285383 4:0.018583043 5:0.013937282 6:0.011614402 7:0.087006961 8:0.034843206 9:0.045243619 10:0.0023228804 11:0.011614402 12:0.015098722 13:0.090487239 14:0.0081300813 15:0.027874564 16:0.039488966 17:0.015098722 18:0.084686775 19:0.034843206 20:0.019744483 21:0.031322506 22:0.010452962 23:0.076566125 24:0.011614402 25:0.022067364 26:0.022067364 27:0.075406032 28:0.011614402 29:0.022067364 30:0.064965197 31:0.020905923 32:0.0023228804 33:0.052204176 34:0.013937282 35:0.039443155 36:0.012775842 37:0.011614402 38:0.032482599 39:0.0081300813 40:0.011614402 41:0.067285383 42:0.019744483 43:0.0058072009 44:0.019744483 45:0.061484919 46:0.023228804 47:0.010452962 48:0.062645012 49:0.016260163 50:0.018583043 51:0.020857474 
26680.82430509552 1:0.063218391 2:0.015827338 3:0.043103448 4:0.010071942 5:0.0028776978 6:0.01294964 7:0.067528736 8:0.0071942446 9:0.047413793 10:0.0014388489 11:0.021582734 12:0.0071942446 13:0.070402299 14:0.014388489 15:0.014388489 16:0.028776978 17:0.01294964 18:0.091954023 19:0.031654676 20:0.024460432 21:0.015804598 22:0.0028776978 23:0.096264368 24:0.010071942 25:0.028776978 26:0.031654676 27:0.067528736 28:0.01294964 29:0.017266187 30:0.048850575 31:0.011510791 32:0.0057553957 33:0.073275862 34:0.015827338 35:0.051724138 36:0.015827338 37:0.017266187 38:0.021551724 39:0.0057553957 40:0.0043165468 41:0.090517241 42:0.014388489 43:0.0057553957 44:0.031654676 45:0.084770115 46:0.030215827 47:0.014388489 48:0.066091954 49:0.014388489 50:0.018705036 51:0.051649928 
65536 1:0.051813472 2:0.012110727 3:0.04835924 4:0.015570934 5:0.0034602076 6:0.012110727 7:0.088082902 8:0.034602076 9:0.039723661 10:0.0051903114 11:0.01384083 12:0.010380623 13:0.075993092 14:0.012110727 15:0.010380623 16:0.038062284 17:0.015570934 18:0.074265976 19:0.01384083 20:0.020761246 21:0.017271157 22:0.0034602076 23:0.10362694 24:0.0069204152 25:0.038062284 26:0.03633218 27:0.077720207 28:0.022491349 29:0.024221453 30:0.055267703 31:0.012110727 32:0.0034602076 33:0.055267703 34:0.01384083 35:0.056994819 36:0.020761246 37:0.022491349 38:0.02417962 39:0.0034602076 40:0.0069204152 41:0.091537133 42:0.029411765 43:0.0051903114 44:0.032871972 45:0.08462867 46:0.025951557 47:0.017301038 48:0.055267703 49:0.012110727 50:0.012110727 51:0.031034483 
65536 1:0.053977273 2:0.017094017 3:0.068181818 4:0.014245014 5:0.0028490028 6:0.025641026 7:0.045454545 8:0.014245014 9:0.034090909 10:0 11:0.014245014 12:0.0056980057 13:0.065340909 14:0.014245014 15:0.011396011 16:0.022792023 17:0.017094017 18:0.10511364 19:0.01994302 20:0.025641026 21:0.034090909 22:0.0056980057 23:0.11363636 24:0.022792023 25:0.034188034 26:0.037037037 27:0.053977273 28:0.017094017 29:0.0056980057 30:0.0625 31:0.014245014 32:0.011396011 33:0.079545455 34:0.03988604 35:0.045454545 36:0.011396011 37:0.01994302 38:0.028409091 39:0.01994302 40:0 41:0.082386364 42:0.014245014 43:0.0085470085 44:0.01994302 45:0.079545455 46:0.017094017 47:0.025641026 48:0.048295455 49:0.0085470085 50:0.017094017 51:0.29745042 
65536 1:0.080996885 2:0.028125 3:0.068535826 4:0.034375 5:0.015625 6:0.009375 7:0.07788162 8:0.03125 9:0.049844237 10:0 11:0.01875 12:0.01875 13:0.08411215 14:0.025 15:0.0125 16:0.028125 17:0.01875 18:0.052959502 19:0.015625 20:0.00625 21:0.043613707 22:0.00625 23:0.074766355 24:0.009375 25:0.03125 26:0.0125 27:0.068535826 28:0.025 29:0.0125 30:0.052959502 31:0.0125 32:0.003125 33:0.040498442 34:0.003125 35:0.056074766 36:0.021875 37:0.0125 38:0.040498442 39:0.009375 40:0 41:0.080996885 42:0.021875 43:0.015625 44:0.01875 45:0.056074766 46:0.009375 47:0.009375 48:0.07165109 49:0.0125 50:0.021875 51:0.24223602 
65536 1:0.097920277 2:0.03555941 3:0.058058925 4:0.018213356 5:0.0043365134 6:0.026886383 7:0.05372617 8:0.012142238 9:0.076256499 10:0.02254987 11:0.014744146 12:0.026886383 13:0.072790295 14:0.02254987 15:0.016478751 16:0.016478751 17:0.017346054 18:0.045060659 19:0.020815265 20:0.010407632 21:0.012998267 22:0.0034692108 23:0.075389948 24:0.019080659 25:0.016478751 26:0.019947962 27:0.049393414 28:0.015611448 29:0.0078057242 30:0.044194107 31:0.0078057242 32:0.0026019081 33:0.051993068 34:0.011274935 35:0.051993068 36:0.0069384215 37:0.018213356 38:0.064991334 39:0.011274935 40:0.02254987 41:0.059792028 42:0.016478751 43:0.0026019081 44:0.02254987 45:0.078856153 46:0.019080659 47:0.024284475 48:0.10658579 49:0.026019081 50:0.041630529 51:0.69350649 
65536 1:0.093922652 2:0.031365314 3:0.057090239 4:0.022140221 5:0.0073800738 6:0.011070111 7:0.08839779 8:0.044280443 9:0.05893186 10:0.0092250923 11:0.022140221 12:0.011070111 13:0.090239411 14:0.02398524 15:0.012915129 16:0.031365314 17:0.022140221 18:0.049723757 19:0.025830258 20:0.0055350554 21:0.016574586 22:0.0055350554 23:0.05893186 24:0.0055350554 25:0.012915129 26:0.029520295 27:0.081031308 28:0.012915129 29:0.02398524 30:0.051565378 31:0.0092250923 32:0.0036900369 33:0.05893186 34:0.018450185 35:0.060773481 36:0.012915129 37:0.022140221 38:0.033149171 39:0.0073800738 40:0.014760148 41:0.057090239 42:0.018450185 43:0.0018450185 44:0.018450185 45:0.090239411 46:0.022140221 47:0.027675277 48:0.053406998 49:0.016605166 50:0.016605166 51:0.016544118 
65536 1:0.11444308 2:0.043478261 3:0.053243574 4:0.026331904 5:0.0018371096 6:0.013472137 7:0.092411261 8:0.029393754 9:0.052019584 10:0.011635028 11:0.018371096 12:0.011635028 13:0.08629131 14:0.029393754 15:0.012859767 16:0.026331904 17:0.017758726 18:0.062423501 19:0.021432945 20:0.012859767 21:0.013463892 22:0.0012247397 23:0.064259486 24:0.0085731782 25:0.015921617 26:0.023270055 27:0.078335373 28:0.012859767 29:0.023270055 30:0.048347613 31:0.015309247 32:0.0018371096 33:0.071603427 34:0.018371096 35:0.048347613 36:0.019595836 37:0.013472137 38:0.033659731 39:0.0091855481 40:0.0091855481 41:0.062423501 42:0.019595836 43:0.0024494795 44:0.017758726 45:0.068543452 46:0.019595836 47:0.015309247 48:0.050183599 49:0.013472137 50:0.013472137 51:0.060550459 
65536 1:0.063593005 2:0.017515924 3:0.060413355 4:0.017515924 5:0.0095541401 6:0.015923567 7:0.082670906 8:0.02866242 9:0.041335453 10:0.0079617834 11:0.0095541401 12:0.0079617834 13:0.084260731 14:0.017515924 15:0.022292994 16:0.031847134 17:0.012738854 18:0.049284579 19:0.01910828 20:0.0063694268 21:0.038155803 22:0.0063694268 23:0.07154213 24:0.0047770701 25:0.017515924 26:0.025477707 27:0.073131955 28:0.020700637 29:0.022292994 30:0.058823529 31:0.0095541401 32:0.0095541401 33:0.07154213 34:0.015923567 35:0.06200318 36:0.022292994 37:0.015923567 38:0.027027027 39:0.0047770701 40:0.0063694268 41:0.074721781 42:0.02866242 43:0.0095541401 44:0.020700637 45:0.07154213 46:0.012738854 47:0.01433121 48:0.069952305 49:0.020700637 50:0.020700637 51:0.061904762 
65536 1:0.13174492 2:0.049088359 3:0.06587246 4:0.033660589 5:0.0028050491 6:0.016129032 7:0.075683252 8:0.032959327 9:0.092501752 10:0.031556802 11:0.030154278 12:0.0084151473 13:0.080588648 14:0.023842917 15:0.014025245 16:0.012622721 17:0.030154278 18:0.039943938 19:0.011220196 20:0.0084151473 21:0.0098107919 22:0.0014025245 23:0.060266293 24:0.012622721 25:0.011220196 26:0.016129032 27:0.080588648 28:0.0070126227 29:0.02454418 30:0.030133146 31:0.0084151473 32:0.0014025245 33:0.038542397 34:0.0063113604 35:0.046951647 36:0.0098176718 37:0.016830295 38:0.072880168 39:0.025245442 40:0.017531557 41:0.055360897 42:0.027349229 43:0.0042075736 44:0.014025245 45:0.072179397 46:0.020336606 47:0.022440393 48:0.046951647 49:0.0091164095 50:0.01542777 51:0.006302521 
65536 1:0.1039604 2:0.042183623 3:0.032178218 4:0.017369727 5:0.0024813896 6:0.012406948 7:0.069306931 8:0.022332506 9:0.071782178 10:0.017369727 11:0.014888337 12:0.019851117 13:0.069306931 14:0.022332506 15:0.012406948 16:0.024813896 17:0.0099255583 18:0.047029703 19:0.0099255583 20:0.017369727 21:0.01980198 22:0.0049627792 23:0.069306931 24:0.0099255583 25:0.014888337 26:0.027295285 27:0.064356436 28:0.0074441687 29:0.014888337 30:0.051980198 31:0.0099255583 32:0 33:0.059405941 34:0.012406948 35:0.047029703 36:0.0099255583 37:0.019851117 38:0.042079208 39:0.0074441687 40:0.012406948 41:0.074257426 42:0.032258065 43:0.0099255583 44:0.012406948 45:0.074257426 46:0.022332506 47:0.014888337 48:0.1039604 49:0.012406948 50:0.049627792 51:0.2 
65536 1:0.07977208 2:0.025714286 3:0.05982906 4:0.02 5:0.0028571429 6:0.025714286 7:0.07977208 8:0.042857143 9:0.076923077 10:0.0085714286 11:0.025714286 12:0.028571429 13:0.076923077 14:0.014285714 15:0.014285714 16:0.02 17:0.028571429 18:0.051282051 19:0.017142857 20:0.011428571 21:0.0056980057 22:0 23:0.071225071 24:0.02 25:0.02 26:0.017142857 27:0.091168091 28:0.017142857 29:0.02 30:0.025641026 31:0.0057142857 32:0 33:0.048433048 34:0.0057142857 35:0.054131054 36:0.011428571 37:0.022857143 38:0.048433048 39:0.014285714 40:0.014285714 41:0.065527066 42:0.022857143 43:0.0028571429 44:0.02 45:0.088319088 46:0.02 47:0.028571429 48:0.076923077 49:0.022857143 50:0.02 51:0.042613636 
65536 1:0.086350975 2:0.016759777 3:0.066852368 4:0.033519553 5:0.0055865922 6:0.022346369 7:0.069637883 8:0.025139665 9:0.061281337 10:0.011173184 11:0.01396648 12:0.027932961 13:0.086350975 14:0.025139665 15:0.019553073 16:0.022346369 17:0.019553073 18:0.04735376 19:0.01396648 20:0.0055865922 21:0.022284123 22:0.011173184 23:0.08913649 24:0.011173184 25:0.025139665 26:0.011173184 27:0.061281337 28:0.011173184 29:0.011173184 30:0.044568245 31:0.0083798883 32:0 33:0.027855153 34:0.0027932961 35:0.04178273 36:0.0083798883 37:0.011173184 38:0.052924791 39:0.01396648 40:0.01396648 41:0.08356546 42:0.019553073 43:0.0055865922 44:0.030726257 45:0.055710306 46:0.019553073 47:0.011173184 48:0.10306407 49:0.019553073 50:0.027932961 51:0.26666667 
65536 1:0.11501597 2:0.042366107 3:0.059105431 4:0.023980815 5:0.0063948841 6:0.017585931 7:0.084664537 8:0.035171863 9:0.079073482 10:0.021582734 11:0.022382094 12:0.01598721 13:0.07827476 14:0.028776978 15:0.0095923261 16:0.019984013 17:0.019984013 18:0.054313099 19:0.019984013 20:0.01518785 21:0.012779553 22:0.003197442 23:0.062300319 24:0.011990408 25:0.017585931 26:0.020783373 27:0.087060703 28:0.014388489 29:0.023181455 30:0.040734824 31:0.012789768 32:0.0023980815 33:0.060702875 34:0.013589129 35:0.037539936 36:0.0071942446 37:0.012789768 38:0.056709265 39:0.013589129 40:0.019184652 41:0.053514377 42:0.021582734 43:0.001598721 44:0.01518785 45:0.068690096 46:0.023181455 47:0.011990408 48:0.049520767 49:0.012789768 50:0.011990408 51:0.01915403 
65536 1:0.04851752 2:0.018918919 3:0.056603774 4:0.016216216 5:0 6:0.013513514 7:0.075471698 8:0.021621622 9:0.026954178 10:0.0027027027 11:0.0027027027 12:0.0054054054 13:0.088948787 14:0.013513514 15:0.037837838 16:0.035135135 17:0.0027027027 18:0.13746631 19:0.043243243 20:0.048648649 21:0.010781671 22:0.0027027027 23:0.10781671 24:0.0027027027 25:0.032432432 26:0.051351351 27:0.056603774 28:0.013513514 29:0.013513514 30:0.070080863 31:0.032432432 32:0.0027027027 33:0.067385445 34:0.02972973 35:0.037735849 36:0.016216216 37:0.010810811 38:0.016172507 39:0.0054054054 40:0.0027027027 41:0.080862534 42:0.021621622 43:0 44:0.02972973 45:0.075471698 46:0.016216216 47:0.016216216 48:0.043126685 49:0.010810811 50:0.0054054054 51:0.69892473 
65536 1:0.061269147 2:0.008762322 3:0.06892779 4:0.029572837 5:0.0054764513 6:0.013143483 7:0.084245077 8:0.024096386 9:0.044857768 10:0.008762322 11:0.012048193 12:0.008762322 13:0.10284464 14:0.021905805 15:0.026286966 16:0.033953998 17:0.020810515 18:0.10722101 19:0.028477547 20:0.036144578 21:0.019693654 22:0.004381161 23:0.074398249 24:0.0076670318 25:0.024096386 26:0.027382256 27:0.066739606 28:0.010952903 29:0.025191676 30:0.066739606 31:0.021905805 32:0.0054764513 33:0.065645514 34:0.013143483 35:0.038293217 36:0.010952903 37:0.014238773 38:0.028446389 39:0.008762322 40:0.0076670318 41:0.062363239 42:0.020810515 43:0.0010952903 44:0.012048193 45:0.066739606 46:0.017524644 47:0.008762322 48:0.041575492 49:0.013143483 50:0.013143483 51:0.1704918 
65536 1:0.035181237 2:0.0085378869 3:0.042643923 4:0.0096051227 5:0.0064034152 6:0.007470651 7:0.060767591 8:0.0064034152 9:0.035181237 10:0.0021344717 11:0.01280683 12:0.0096051227 13:0.065031983 14:0.010672359 15:0.014941302 16:0.028815368 17:0.010672359 18:0.10234542 19:0.025613661 20:0.021344717 21:0.047974414 22:0.01814301 23:0.087420043 24:0.011739594 25:0.019210245 26:0.036286019 27:0.046908316 28:0.0085378869 29:0.017075774 30:0.092750533 31:0.035218783 32:0.013874066 33:0.10554371 34:0.035218783 35:0.051172708 36:0.014941302 37:0.021344717 38:0.026652452 39:0.0096051227 40:0.0053361793 41:0.066098081 42:0.01280683 43:0.0096051227 44:0.017075774 45:0.081023454 46:0.016008538 47:0.014941302 48:0.053304904 49:0.010672359 50:0.01280683 51:0.025559105 
65536 1:0.080952381 2:0.031026253 3:0.054761905 4:0.019093079 5:0.014319809 6:0.011933174 7:0.080952381 8:0.023866348 9:0.047619048 10:0.0023866348 11:0.011933174 12:0.014319809 13:0.066666667 14:0.0071599045 15:0.021479714 16:0.031026253 17:0.0071599045 18:0.071428571 19:0.016706444 20:0.031026253 21:0.026190476 22:0 23:0.085714286 24:0.016706444 25:0.016706444 26:0.031026253 27:0.076190476 28:0.014319809 29:0.021479714 30:0.064285714 31:0.019093079 32:0.0023866348 33:0.069047619 34:0.016706444 35:0.038095238 36:0.0095465394 37:0.016706444 38:0.042857143 39:0.0095465394 40:0.011933174 41:0.057142857 42:0.021479714 43:0.0047732697 44:0.019093079 45:0.071428571 46:0.019093079 47:0.014319809 48:0.066666667 49:0.011933174 50:0.019093079 51:0.057007126 
65536 1:0.095930233 2:0.04664723 3:0.066860465 4:0.017492711 5:0.011661808 6:0.020408163 7:0.069767442 8:0.020408163 9:0.061046512 10:0.0087463557 11:0.017492711 12:0.014577259 13:0.095930233 14:0.017492711 15:0.023323615 16:0.023323615 17:0.032069971 18:0.063953488 19:0.020408163 20:0.020408163 21:0.020348837 22:0.0029154519 23:0.081395349 24:0.0087463557 25:0.020408163 26:0.032069971 27:0.078488372 28:0.017492711 29:0.029154519 30:0.058139535 31:0.017492711 32:0 33:0.052325581 34:0.0087463557 35:0.031976744 36:0.0087463557 37:0.020408163 38:0.026162791 39:0.0087463557 40:0.0029154519 41:0.072674419 42:0.032069971 43:0.0058309038 44:0.026239067 45:0.075581395 46:0.034985423 47:0.0087463557 48:0.049418605 49:0.0058309038 50:0.014577259 51:0.13043478 
65536 1:0.078828829 2:0.015801354 3:0.063063063 4:0.031602709 5:0.0022573363 6:0.011286682 7:0.085585586 8:0.018058691 9:0.036036036 10:0.0022573363 11:0.013544018 12:0.006772009 13:0.094594595 14:0.031602709 15:0.020316027 16:0.033860045 17:0.0090293454 18:0.083333333 19:0.027088036 20:0.020316027 21:0.015765766 22:0.0022573363 23:0.074324324 24:0.013544018 25:0.018058691 26:0.031602709 27:0.065315315 28:0.006772009 29:0.018058691 30:0.051801802 31:0.020316027 32:0 33:0.072072072 34:0.0248307 35:0.060810811 36:0.015801354 37:0.022573363 38:0.024774775 39:0.006772009 40:0 41:0.067567568 42:0.0248307 43:0.0045146727 44:0.015801354 45:0.076576577 46:0.015801354 47:0.015801354 48:0.04954955 49:0.0090293454 50:0.015801354 51:0.060674157 
65536 1:0.059620596 2:0.013586957 3:0.070460705 4:0.019021739 5:0.010869565 6:0.013586957 7:0.070460705 8:0.013586957 9:0.046070461 10:0.0081521739 11:0.016304348 12:0.013586957 13:0.097560976 14:0.027173913 15:0.024456522 16:0.029891304 17:0.016304348 18:0.086720867 19:0.032608696 20:0.02173913 21:0.021680217 22:0.0027173913 23:0.067750678 24:0.0054347826 25:0.016304348 26:0.029891304 27:0.067750678 28:0.02173913 29:0.02173913 30:0.059620596 31:0.019021739 32:0 33:0.075880759 34:0.02173913 35:0.051490515 36:0.013586957 37:0.016304348 38:0.021680217 39:0.0027173913 40:0.013586957 41:0.056910569 42:0.02173913 43:0 44:0.016304348 45:0.08401084 46:0.019021739 47:0.024456522 48:0.062330623 49:0.02173913 50:0.019021739 51:0.15405405 
65536 1:0.059701493 2:0.018726592 3:0.044776119 4:0.014981273 5:0.0037453184 6:0.011235955 7:0.074626866 8:0.014981273 9:0.052238806 10:0 11:0.018726592 12:0.018726592 13:0.063432836 14:0.014981273 15:0.014981273 16:0.02247191 17:0.011235955 18:0.070895522 19:0.011235955 20:0.018726592 21:0.014925373 22:0.0037453184 23:0.097014925 24:0.011235955 25:0.02247191 26:0.026217228 27:0.052238806 28:0.0074906367 29:0.018726592 30:0.078358209 31:0.026217228 32:0 33:0.059701493 34:0.011235955 35:0.052238806 36:0.0037453184 37:0.026217228 38:0.055970149 39:0.014981273 40:0.02247191 41:0.052238806 42:0.011235955 43:0.0074906367 44:0.02247191 45:0.093283582 46:0.014981273 47:0.02247191 48:0.078358209 49:0.02247191 50:0.011235955 51:0.42379182 
65536 1:0.06200318 2:0.01433121 3:0.050874404 4:0.01910828 5:0 6:0.011146497 7:0.076311606 8:0.022292994 9:0.057233704 10:0.0047770701 11:0.022292994 12:0.0079617834 13:0.095389507 14:0.020700637 15:0.017515924 16:0.03343949 17:0.02388535 18:0.077901431 19:0.02388535 20:0.017515924 21:0.017488076 22:0.0047770701 23:0.085850556 24:0.0095541401 25:0.027070064 26:0.03343949 27:0.054054054 28:0.0047770701 29:0.017515924 30:0.074721781 31:0.020700637 32:0.0015923567 33:0.069952305 34:0.02388535 35:0.049284579 36:0.012738854 37:0.01910828 38:0.034976153 39:0.0079617834 40:0.012738854 41:0.073131955 42:0.01910828 43:0.0047770701 44:0.030254777 45:0.085850556 46:0.01910828 47:0.011146497 48:0.034976153 49:0.0095541401 50:0.0079617834 51:0.11428571 
65536 1:0.08320951 2:0.03125 3:0.034175334 4:0.020833333 5:0.0044642857 6:0.0044642857 7:0.17682021 8:0.02827381 9:0.023774146 10:0.0029761905 11:0.0074404762 12:0.0074404762 13:0.15750371 14:0.020833333 15:0.0044642857 16:0.1264881 17:0.005952381 18:0.022288262 19:0.014880952 20:0.0014880952 21:0.017830609 22:0.0029761905 23:0.046062407 24:0.0044642857 25:0.010416667 26:0.020833333 27:0.063893016 28:0.0089285714 29:0.023809524 30:0.15750371 31:0.010416667 32:0.011904762 33:0.049034175 34:0.0044642857 35:0.031203566 36:0.0044642857 37:0.014880952 38:0.014858841 39:0.0014880952 40:0.0044642857 41:0.029717682 42:0.010416667 43:0 44:0.013392857 45:0.056463596 46:0.005952381 47:0.0074404762 48:0.035661218 49:0.013392857 50:0.010416667 51:0.053412463 
65536 1:0.055059524 2:0.016393443 3:0.061011905 4:0.029806259 5:0.0029806259 6:0.013412817 7:0.069940476 8:0.013412817 9:0.049107143 10:0.0029806259 11:0.023845007 12:0.0044709389 13:0.089285714 14:0.023845007 15:0.022354694 16:0.028315946 17:0.013412817 18:0.072916667 19:0.026825633 20:0.017883756 21:0.019345238 22:0.0029806259 23:0.081845238 24:0.0074515648 25:0.026825633 26:0.031296572 27:0.072916667 28:0.019374069 29:0.020864382 30:0.05952381 31:0.019374069 32:0.0044709389 33:0.071428571 34:0.011922504 35:0.05952381 36:0.013412817 37:0.020864382 38:0.019345238 39:0.010432191 40:0.0044709389 41:0.069940476 42:0.019374069 43:0.0059612519 44:0.023845007 45:0.10119048 46:0.022354694 47:0.026825633 48:0.047619048 49:0.02533532 50:0.010432191 51:0.20950966 
65536 1:0.073260073 2:0.014705882 3:0.058608059 4:0.014705882 5:0.011029412 6:0.014705882 7:0.091575092 8:0.036764706 9:0.06959707 10:0.0073529412 11:0.0036764706 12:0.036764706 13:0.095238095 14:0.018382353 15:0.018382353 16:0.033088235 17:0.025735294 18:0.047619048 19:0.033088235 20:0.0073529412 21:0.018315018 22:0 23:0.062271062 24:0.0036764706 25:0.011029412 26:0.011029412 27:0.076923077 28:0.018382353 29:0.025735294 30:0.043956044 31:0.011029412 32:0.0036764706 33:0.04029304 34:0 35:0.047619048 36:0.011029412 37:0.011029412 38:0.047619048 39:0.0073529412 40:0.011029412 41:0.073260073 42:0.025735294 43:0.0036764706 44:0.033088235 45:0.058608059 46:0.011029412 47:0.011029412 48:0.095238095 49:0.033088235 50:0.014705882 51:0.15328467 
65536 1:0.060810811 2:0.016949153 3:0.060810811 4:0.020338983 5:0.0033898305 6:0.023728814 7:0.064189189 8:0.020338983 9:0.064189189 10:0.013559322 11:0.030508475 12:0.010169492 13:0.077702703 14:0.020338983 15:0.020338983 16:0.023728814 17:0.013559322 18:0.060810811 19:0.027118644 20:0.006779661 21:0.010135135 22:0 23:0.097972973 24:0.0033898305 25:0.027118644 26:0.044067797 27:0.081081081 28:0.020338983 29:0.027118644 30:0.050675676 31:0.013559322 32:0 33:0.064189189 34:0.010169492 35:0.043918919 36:0.0033898305 37:0.016949153 38:0.030405405 39:0.013559322 40:0.010169492 41:0.074324324 42:0.016949153 43:0.0033898305 44:0.027118644 45:0.10472973 46:0.040677966 47:0.020338983 48:0.054054054 49:0.013559322 50:0.0033898305 51:0.36363636 
65536 1:0.028008299 2:0.0093457944 3:0.053941909 4:0.013499481 5:0.014537902 6:0.012461059 7:0.078838174 8:0.017653167 9:0.02593361 10:0.0031152648 11:0.0083073728 12:0.005192108 13:0.070539419 14:0.0062305296 15:0.021806854 16:0.031152648 17:0.011422638 18:0.10892116 19:0.020768432 20:0.038421599 21:0.070539419 22:0.020768432 23:0.067427386 24:0.0062305296 25:0.02596054 26:0.029075805 27:0.072614108 28:0.020768432 29:0.03219107 30:0.099585062 31:0.037383178 32:0.023883697 33:0.11825726 34:0.039460021 35:0.041493776 36:0.011422638 37:0.01973001 38:0.015560166 39:0.0072689512 40:0.0010384216 41:0.056016598 42:0.013499481 43:0.0083073728 44:0.014537902 45:0.063278008 46:0.010384216 47:0.011422638 48:0.029045643 49:0.0062305296 50:0.011422638 51:0.19274611 
65536 1:0.026737968 2:0 3:0.048128342 4:0.013404826 5:0.0053619303 6:0.0080428954 7:0.093582888 8:0.021447721 9:0.037433155 10:0 11:0.013404826 12:0.0026809651 13:0.088235294 14:0.0053619303 15:0.018766756 16:0.050938338 17:0.013404826 18:0.085561497 19:0.026809651 20:0.018766756 21:0.029411765 22:0.0080428954 23:0.090909091 24:0.0080428954 25:0.026809651 26:0.032171582 27:0.07486631 28:0.013404826 29:0.026809651 30:0.088235294 31:0.029490617 32:0.0080428954 33:0.088235294 34:0.013404826 35:0.040106952 36:0.013404826 37:0.016085791 38:0.016042781 39:0.0053619303 40:0 41:0.072192513 42:0.029490617 43:0.0080428954 44:0.018766756 45:0.080213904 46:0.018766756 47:0.0080428954 48:0.040106952 49:0.018766756 50:0.0053619303 51:0.328 
65536 1:0.052200614 2:0.010245902 3:0.054247697 4:0.016393443 5:0.0092213115 6:0.013319672 7:0.084953941 8:0.018442623 9:0.035823951 10:0.0081967213 11:0.019467213 12:0.0020491803 13:0.081883316 14:0.017418033 15:0.016393443 16:0.036885246 17:0.011270492 18:0.083930399 19:0.027663934 20:0.022540984 21:0.023541453 22:0.0040983607 23:0.087001024 24:0.0020491803 25:0.033811475 26:0.040983607 27:0.068577277 28:0.021516393 29:0.017418033 30:0.07778915 31:0.021516393 32:0.0040983607 33:0.083930399 34:0.023565574 35:0.059365404 36:0.014344262 37:0.025614754 38:0.024564995 39:0.0071721311 40:0.0081967213 41:0.061412487 42:0.014344262 43:0.0051229508 44:0.017418033 45:0.096212897 46:0.024590164 47:0.022540984 48:0.024564995 49:0.010245902 50:0.0040983607 51:0.070552147 
65536 1:0.066326531 2:0.023017903 3:0.030612245 4:0.010230179 5:0.0051150895 6:0.010230179 7:0.079081633 8:0.025575448 9:0.051020408 10:0 11:0.0076726343 12:0.030690537 13:0.079081633 14:0.015345269 15:0.017902813 16:0.033248082 17:0.012787724 18:0.096938776 19:0.035805627 20:0.020460358 21:0.048469388 22:0.015345269 23:0.068877551 24:0.0076726343 25:0.025575448 26:0.025575448 27:0.066326531 28:0.0051150895 29:0.010230179 30:0.076530612 31:0.025575448 32:0.015345269 33:0.06377551 34:0.012787724 35:0.043367347 36:0.015345269 37:0.012787724 38:0.017857143 39:0.0025575448 40:0 41:0.089285714 42:0.012787724 43:0.0076726343 44:0.023017903 45:0.058673469 46:0.0051150895 47:0.010230179 48:0.06377551 49:0.012787724 50:0.010230179 51:0.38931298 
65536 1:0.061437908 2:0.019633508 3:0.05620915 4:0.02486911 5:0.0052356021 6:0.0091623037 7:0.098039216 8:0.035340314 9:0.048366013 10:0.0078534031 11:0.023560209 12:0.0078534031 13:0.082352941 14:0.018324607 15:0.015706806 16:0.030104712 17:0.018324607 18:0.071895425 19:0.023560209 20:0.019633508 21:0.011764706 22:0 23:0.077124183 24:0.013089005 25:0.0078534031 26:0.02617801 27:0.081045752 28:0.013089005 29:0.030104712 30:0.05751634 31:0.019633508 32:0.002617801 33:0.060130719 34:0.011780105 35:0.05620915 36:0.019633508 37:0.019633508 38:0.039215686 39:0.013089005 40:0.0078534031 41:0.05751634 42:0.020942408 43:0.002617801 44:0.018324607 45:0.08496732 46:0.023560209 47:0.02486911 48:0.05620915 49:0.015706806 50:0.0065445026 51:0.062663185 
65536 1:0.041131105 2:0.0051546392 3:0.041131105 4:0.015463918 5:0.0025773196 6:0.018041237 7:0.059125964 8:0.018041237 9:0.051413882 10:0.0025773196 11:0.012886598 12:0.020618557 13:0.066838046 14:0.010309278 15:0.012886598 16:0.025773196 17:0.018041237 18:0.064267352 19:0.023195876 20:0.0051546392 21:0.025706941 22:0.0025773196 23:0.10282776 24:0.012886598 25:0.028350515 26:0.036082474 27:0.05655527 28:0.010309278 29:0.020618557 30:0.066838046 31:0.023195876 32:0 33:0.074550129 34:0.015463918 35:0.041131105 36:0.0051546392 37:0.0051546392 38:0.030848329 39:0.0051546392 40:0.012886598 41:0.087403599 42:0.010309278 43:0.015463918 44:0.030927835 45:0.079691517 46:0.012886598 47:0.018041237 48:0.11053985 49:0.025773196 50:0.036082474 51:0.23846154 
65536 1:0.059196617 2:0.019067797 3:0.044397463 4:0.01059322 5:0 6:0.014830508 7:0.086680761 8:0.023305085 9:0.027484144 10:0 11:0.01059322 12:0.0042372881 13:0.065539112 14:0.012711864 15:0.0084745763 16:0.031779661 17:0.012711864 18:0.090909091 19:0.029661017 20:0.025423729 21:0.027484144 22:0.0042372881 23:0.086680761 24:0.012711864 25:0.027542373 26:0.033898305 27:0.076109937 28:0.025423729 29:0.021186441 30:0.065539112 31:0.023305085 32:0.01059322 33:0.11627907 34:0.038135593 35:0.052854123 36:0.019067797 37:0.023305085 38:0.016913319 39:0.0021186441 40:0.0063559322 41:0.069767442 42:0.012711864 43:0.0084745763 44:0.025423729 45:0.082452431 46:0.012711864 47:0.014830508 48:0.031712474 49:0.012711864 50:0.0084745763 51:0.17721519 
65536 1:0.077496274 2:0.019402985 3:0.061102832 4:0.019402985 5:0.0014925373 6:0.019402985 7:0.10283159 8:0.040298507 9:0.04023845 10:0.011940299 11:0.011940299 12:0.0029850746 13:0.10432191 14:0.029850746 15:0.023880597 16:0.03880597 17:0.011940299 18:0.10134128 19:0.044776119 20:0.031343284 21:0.013412817 22:0 23:0.070044709 24:0.0089552239 25:0.019402985 26:0.029850746 27:0.070044709 28:0.011940299 29:0.02238806 30:0.071535022 31:0.031343284 32:0.0029850746 33:0.062593145 34:0.020895522 35:0.041728763 36:0.0074626866 37:0.014925373 38:0.029806259 39:0.013432836 40:0.0029850746 41:0.056631893 42:0.017910448 43:0.0029850746 44:0.017910448 45:0.06557377 46:0.0074626866 47:0.011940299 48:0.031296572 49:0.0089552239 50:0.0014925373 51:0.12946429 
65536 1:0.081521739 2:0.027247956 3:0.057065217 4:0.0081743869 5:0.0054495913 6:0.016348774 7:0.086956522 8:0.029972752 9:0.04076087 10:0 11:0.021798365 12:0.013623978 13:0.073369565 14:0.016348774 15:0.021798365 16:0.024523161 17:0.010899183 18:0.095108696 19:0.032697548 20:0.029972752 21:0.02173913 22:0.0027247956 23:0.065217391 24:0.0081743869 25:0.013623978 26:0.027247956 27:0.095108696 28:0.019073569 29:0.029972752 30:0.0625 31:0.024523161 32:0.0027247956 33:0.065217391 34:0.019073569 35:0.043478261 36:0.0054495913 37:0.024523161 38:0.016304348 39:0.0027247956 40:0.0027247956 41:0.04076087 42:0.021798365 43:0 44:0.0054495913 45:0.092391304 46:0.027247956 47:0.019073569 48:0.0625 49:0.016348774 50:0.019073569 51:0.40650407 
65536 1:0.094262295 2:0.026694045 3:0.06352459 4:0.030800821 5:0.0020533881 6:0.018480493 7:0.1045082 8:0.032854209 9:0.053278689 10:0.012320329 11:0.020533881 12:0.0061601643 13:0.10655738 14:0.026694045 15:0.022587269 16:0.036960986 17:0.020533881 18:0.055327869 19:0.024640657 20:0.01026694 21:0.0081967213 22:0.0041067762 23:0.069672131 24:0.0082135524 25:0.012320329 26:0.039014374 27:0.088114754 28:0.018480493 29:0.020533881 30:0.079918033 31:0.022587269 32:0.0061601643 33:0.06557377 34:0.018480493 35:0.030737705 36:0.01026694 37:0.016427105 38:0.026639344 39:0.01026694 40:0.0020533881 41:0.043032787 42:0.022587269 43:0 44:0.01026694 45:0.086065574 46:0.028747433 47:0.014373717 48:0.024590164 49:0.0082135524 50:0.0061601643 51:0.030674847 
65536 1:0.073976222 2:0.021164021 3:0.044914135 4:0.0092592593 5:0.0026455026 6:0.014550265 7:0.085865258 8:0.022486772 9:0.043593131 10:0.0052910053 11:0.011904762 12:0.013227513 13:0.064729194 14:0.014550265 15:0.010582011 16:0.031746032 17:0.0079365079 18:0.081902246 19:0.029100529 20:0.015873016 21:0.015852048 22:0.003968254 23:0.092470277 24:0.010582011 25:0.029100529 26:0.031746032 27:0.072655218 28:0.011904762 29:0.018518519 30:0.06340819 31:0.026455026 32:0.0026455026 33:0.06340819 34:0.011904762 35:0.043593131 36:0.0079365079 37:0.014550265 38:0.036988111 39:0.0079365079 40:0.011904762 41:0.064729194 42:0.017195767 43:0.0079365079 44:0.018518519 45:0.077939234 46:0.017195767 47:0.018518519 48:0.073976222 49:0.01984127 50:0.029100529 51:0.039577836 
65536 1:0.016706444 2:0 3:0.054892601 4:0.014354067 5:0.009569378 6:0.009569378 7:0.031026253 8:0.004784689 9:0.035799523 10:0.0023923445 11:0.026315789 12:0 13:0.069212411 14:0.011961722 15:0.019138756 16:0.019138756 17:0.019138756 18:0.076372315 19:0.016746411 20:0.011961722 21:0.064439141 22:0.040669856 23:0.12171838 24:0.009569378 25:0.023923445 26:0.057416268 27:0.026252983 28:0.011961722 29:0.004784689 30:0.13603819 31:0.023923445 32:0.031100478 33:0.07875895 34:0.026315789 35:0.042959427 36:0.011961722 37:0.019138756 38:0.026252983 39:0.014354067 40:0.011961722 41:0.064439141 42:0.0215311 43:0.004784689 44:0.019138756 45:0.1097852 46:0.009569378 47:0.016746411 48:0.045346062 49:0.0071770335 50:0.009569378 51:1 
65536 1:0.090680101 2:0.027777778 3:0.052896725 4:0.02020202 5:0 6:0.0075757576 7:0.10327456 8:0.032828283 9:0.055415617 10:0.012626263 11:0.022727273 12:0.015151515 13:0.085642317 14:0.02020202 15:0.012626263 16:0.035353535 17:0.015151515 18:0.04534005 19:0.02020202 20:0.0050505051 21:0.0075566751 22:0.0025252525 23:0.068010076 24:0.015151515 25:0.0050505051 26:0.032828283 27:0.078085642 28:0.01010101 29:0.027777778 30:0.062972292 31:0.01010101 32:0.0025252525 33:0.080604534 34:0.015151515 35:0.050377834 36:0.017676768 37:0.012626263 38:0.050377834 39:0.02020202 40:0.01010101 41:0.042821159 42:0.017676768 43:0.0025252525 44:0.017676768 45:0.080604534 46:0.017676768 47:0.012626263 48:0.04534005 49:0.012626263 50:0.0075757576 51:0.090452261 
6191.202161641992 1:0.10072993 2:0.024853801 3:0.080291971 4:0.033625731 5:0.011695906 6:0.027777778 7:0.097810219 8:0.036549708 9:0.052554745 10:0.011695906 11:0.016081871 12:0.011695906 13:0.087591241 14:0.019005848 15:0.024853801 16:0.027777778 17:0.016081871 18:0.042335766 19:0.024853801 20:0.0073099415 21:0.020437956 22:0.0058479532 23:0.052554745 24:0.0073099415 25:0.010233918 26:0.026315789 27:0.10510949 28:0.026315789 29:0.026315789 30:0.03649635 31:0.019005848 32:0.0014619883 33:0.051094891 34:0.0073099415 35:0.058394161 36:0.0058479532 37:0.026315789 38:0.037956204 39:0.0087719298 40:0.0043859649 41:0.045255474 42:0.01754386 43:0.0029239766 44:0.014619883 45:0.080291971 46:0.033625731 47:0.020467836 48:0.051094891 49:0.011695906 50:0.011695906 51:0.013119534 
39064.92452149542 1:0.08173913 2:0.020905923 3:0.059130435 4:0.022648084 5:0.0034843206 6:0.015679443 7:0.10956522 8:0.040069686 9:0.04173913 10:0.0069686411 11:0.019163763 12:0.0017421603 13:0.086956522 14:0.026132404 15:0.0087108014 16:0.041811847 17:0.010452962 18:0.08 19:0.019163763 20:0.026132404 21:0.013913043 22:0.0034843206 23:0.067826087 24:0.010452962 25:0.017421603 26:0.029616725 27:0.092173913 28:0.017421603 29:0.031358885 30:0.053913043 31:0.017421603 32:0.0017421603 33:0.066086957 34:0.020905923 35:0.052173913 36:0.015679443 37:0.015679443 38:0.029565217 39:0.010452962 40:0.0052264808 41:0.057391304 42:0.024390244 43:0 44:0.013937282 45:0.074782609 46:0.027874564 47:0.019163763 48:0.033043478 49:0.010452962 50:0.0087108014 51:0.15625 
16069.46537600682 1:0.14492754 2:0.072727273 3:0.050724638 4:0.025454545 5:0 6:0.0072727273 7:0.079710145 8:0.032727273 9:0.10869565 10:0.025454545 11:0.043636364 12:0.021818182 13:0.086956522 14:0.018181818 15:0.014545455 16:0.014545455 17:0.036363636 18:0.057971014 19:0.032727273 20:0.010909091 21:0.0036231884 22:0 23:0.032608696 24:0.014545455 25:0.0072727273 26:0.010909091 27:0.083333333 28:0.014545455 29:0.014545455 30:0.02173913 31:0.0036363636 32:0 33:0.025362319 34:0.0036363636 35:0.054347826 36:0.014545455 37:0.014545455 38:0.06884058 39:0.014545455 40:0.018181818 41:0.050724638 42:0.018181818 43:0 44:0.0072727273 45:0.076086957 46:0.032727273 47:0.025454545 48:0.054347826 49:0.0072727273 50:0.025454545 51:0.0433213 
4489.23000615485 1:0.090909091 2:0.027848101 3:0.053030303 4:0.020253165 5:0 6:0.0075949367 7:0.1010101 8:0.032911392 9:0.058080808 10:0.012658228 11:0.025316456 12:0.015189873 13:0.083333333 14:0.020253165 15:0.012658228 16:0.032911392 17:0.015189873 18:0.045454545 19:0.020253165 20:0.0050632911 21:0.0075757576 22:0.0025316456 23:0.068181818 24:0.015189873 25:0.0050632911 26:0.032911392 27:0.078282828 28:0.010126582 29:0.027848101 30:0.063131313 31:0.010126582 32:0.0025316456 33:0.078282828 34:0.015189873 35:0.050505051 36:0.017721519 37:0.012658228 38:0.050505051 39:0.020253165 40:0.010126582 41:0.042929293 42:0.017721519 43:0.0025316456 44:0.017721519 45:0.083333333 46:0.017721519 47:0.015189873 48:0.045454545 49:0.012658228 50:0.0075949367 51:0.01511335 
65536 1:0.066777963 2:0.026755853 3:0.076794658 4:0.026755853 5:0.010033445 6:0.018394649 7:0.07345576 8:0.016722408 9:0.025041736 10:0 11:0.010033445 12:0.008361204 13:0.070116861 14:0.010033445 15:0.02173913 16:0.031772575 17:0.0066889632 18:0.080133556 19:0.018394649 20:0.02173913 21:0.046744574 22:0.016722408 23:0.07345576 24:0.008361204 25:0.011705686 26:0.031772575 27:0.081803005 28:0.030100334 29:0.016722408 30:0.066777963 31:0.02173913 32:0.010033445 33:0.068447412 34:0.015050167 35:0.05509182 36:0.0066889632 37:0.025083612 38:0.025041736 39:0.0066889632 40:0.0050167224 41:0.045075125 42:0.0050167224 43:0.010033445 44:0.015050167 45:0.083472454 46:0.025083612 47:0.015050167 48:0.061769616 49:0.016722408 50:0.015050167 51:0.17 
65536 1:0.066666667 2:0.021306818 3:0.063829787 4:0.022727273 5:0.012784091 6:0.015625 7:0.072340426 8:0.014204545 9:0.045390071 10:0.0042613636 11:0.012784091 12:0.0099431818 13:0.087943262 14:0.018465909 15:0.021306818 16:0.032670455 17:0.015625 18:0.063829787 19:0.03125 20:0.0099431818 21:0.032624113 22:0.0056818182 23:0.076595745 24:0.0071022727 25:0.025568182 26:0.028409091 27:0.063829787 28:0.015625 29:0.021306818 30:0.063829787 31:0.018465909 32:0.0056818182 33:0.055319149 34:0.0071022727 35:0.068085106 36:0.0085227273 37:0.032670455 38:0.029787234 39:0.0071022727 40:0.011363636 41:0.070921986 42:0.014204545 43:0.0071022727 44:0.025568182 45:0.089361702 46:0.022727273 47:0.029829545 48:0.04964539 49:0.015625 50:0.0071022727 51:0.30594901 
4057.578273066521 1:0.057636888 2:0.0086705202 3:0.031700288 4:0.0086705202 5:0.0028901734 6:0.011560694 7:0.10951009 8:0.052023121 9:0.037463977 10:0.0086705202 11:0.011560694 12:0.0086705202 13:0.066282421 14:0.020231214 15:0.0028901734 16:0.037572254 17:0.0057803468 18:0.069164265 19:0.014450867 20:0.020231214 21:0.014409222 22:0 23:0.089337176 24:0.0057803468 25:0.028901734 26:0.028901734 27:0.086455331 28:0.023121387 29:0.026011561 30:0.066282421 31:0.014450867 32:0.0028901734 33:0.083573487 34:0.01734104 35:0.060518732 36:0.011560694 37:0.040462428 38:0.023054755 39:0.0028901734 40:0.014450867 41:0.07204611 42:0.026011561 43:0 44:0.020231214 45:0.089337176 46:0.014450867 47:0.023121387 48:0.043227666 49:0.0086705202 50:0.0057803468 51:0.40517241 
65536 1:0.078125 2:0.02166065 3:0.048076923 4:0.015643803 5:0.0024067389 6:0.015643803 7:0.091346154 8:0.034897714 9:0.054086538 10:0.0072202166 11:0.024067389 12:0.014440433 13:0.072115385 14:0.02166065 15:0.016847172 16:0.025270758 17:0.008423586 18:0.074519231 19:0.019253911 20:0.026474128 21:0.020432692 22:0.010830325 23:0.078125 24:0.012033694 25:0.019253911 26:0.030084236 27:0.088942308 28:0.0096269555 29:0.032490975 30:0.061298077 31:0.018050542 32:0.0048134777 33:0.049278846 34:0.008423586 35:0.048076923 36:0.014440433 37:0.016847172 38:0.032451923 39:0.0060168472 40:0.0096269555 41:0.061298077 42:0.02045728 43:0.0048134777 44:0.02045728 45:0.086538462 46:0.028880866 47:0.016847172 48:0.055288462 49:0.015643803 50:0.012033694 51:0.054021609 
65536 1:0.044345898 2:0.0088888889 3:0.070953437 4:0.017777778 5:0.0088888889 6:0.017777778 7:0.057649667 8:0.022222222 9:0.046563193 10:0.0044444444 11:0.02 12:0.011111111 13:0.086474501 14:0.0088888889 15:0.033333333 16:0.026666667 17:0.015555556 18:0.086474501 19:0.028888889 20:0.022222222 21:0.022172949 22:0.0022222222 23:0.090909091 24:0.0066666667 25:0.017777778 26:0.04 27:0.073170732 28:0.024444444 29:0.015555556 30:0.048780488 31:0.017777778 32:0.0022222222 33:0.093126386 34:0.028888889 35:0.042128603 36:0.02 37:0.0088888889 38:0.017738359 39:0.0044444444 40:0.0044444444 41:0.077605322 42:0.022222222 43:0.0066666667 44:0.028888889 45:0.084257206 46:0.013333333 47:0.017777778 48:0.057649667 49:0.015555556 50:0.0088888889 51:0.28539823 
65536 1:0.061255743 2:0.015337423 3:0.067381317 4:0.01993865 5:0.0030674847 6:0.021472393 7:0.073506891 8:0.032208589 9:0.045941807 10:0.0076687117 11:0.01993865 12:0.009202454 13:0.071975498 14:0.0076687117 15:0.024539877 16:0.029141104 17:0.010736196 18:0.067381317 19:0.021472393 20:0.013803681 21:0.022970904 22:0.004601227 23:0.090352221 24:0.013803681 25:0.024539877 26:0.039877301 27:0.084226646 28:0.015337423 29:0.023006135 30:0.058192956 31:0.010736196 32:0.0076687117 33:0.088820827 34:0.023006135 35:0.04287902 36:0.0076687117 37:0.016871166 38:0.032159265 39:0.0061349693 40:0.009202454 41:0.058192956 42:0.015337423 43:0.0030674847 44:0.021472393 45:0.088820827 46:0.016871166 47:0.015337423 48:0.045941807 49:0.012269939 50:0.015337423 51:0.63302752 
65536 1:0.083333333 2:0.014925373 3:0.0625 4:0.020895522 5:0.0059701493 6:0.023880597 7:0.11309524 8:0.056716418 9:0.0625 10:0.0059701493 11:0.017910448 12:0.020895522 13:0.071428571 14:0.017910448 15:0.020895522 16:0.023880597 17:0.0089552239 18:0.05952381 19:0.017910448 20:0.017910448 21:0.011904762 22:0 23:0.068452381 24:0.011940299 25:0.0089552239 26:0.029850746 27:0.13095238 28:0.014925373 29:0.041791045 30:0.038690476 31:0.0059701493 32:0 33:0.050595238 34:0.0059701493 35:0.035714286 36:0.0029850746 37:0.020895522 38:0.032738095 39:0.0089552239 40:0.0089552239 41:0.050595238 42:0.017910448 43:0.0029850746 44:0.0059701493 45:0.080357143 46:0.03880597 47:0.011940299 48:0.047619048 49:0.011940299 50:0.0059701493 51:0.06231454 
65536 1:0.1079646 2:0.039007092 3:0.044247788 4:0.021276596 5:0 6:0.012411348 7:0.10265487 8:0.046099291 9:0.060176991 10:0.010638298 11:0.023049645 12:0.017730496 13:0.077876106 14:0.023049645 15:0.010638298 16:0.019503546 17:0.024822695 18:0.028318584 19:0.014184397 20:0.0017730496 21:0.014159292 22:0.0070921986 23:0.056637168 24:0.0053191489 25:0.0070921986 26:0.030141844 27:0.088495575 28:0.012411348 29:0.030141844 30:0.061946903 31:0.0070921986 32:0.0088652482 33:0.046017699 34:0.010638298 35:0.060176991 36:0.010638298 37:0.015957447 38:0.040707965 39:0.0053191489 40:0.0088652482 41:0.042477876 42:0.012411348 43:0.0035460993 44:0.015957447 45:0.09380531 46:0.023049645 47:0.017730496 48:0.074336283 49:0.024822695 50:0.023049645 51:0.074204947 
65536 1:0.093333333 2:0.020992366 3:0.053333333 4:0.017175573 5:0.0019083969 6:0.017175573 7:0.081904762 8:0.040076336 9:0.081904762 10:0.020992366 11:0.028625954 12:0.015267176 13:0.066666667 14:0.015267176 15:0.013358779 16:0.019083969 17:0.019083969 18:0.043809524 19:0.017175573 20:0.011450382 21:0.011428571 22:0.0019083969 23:0.066666667 24:0.011450382 25:0.0076335878 26:0.026717557 27:0.097142857 28:0.011450382 29:0.015267176 30:0.032380952 31:0.0038167939 32:0.0019083969 33:0.051428571 34:0.0095419847 35:0.055238095 36:0.013358779 37:0.020992366 38:0.053333333 39:0.015267176 40:0.017175573 41:0.060952381 42:0.022900763 43:0.0057251908 44:0.019083969 45:0.08952381 46:0.032442748 47:0.022900763 48:0.060952381 49:0.013358779 50:0.017175573 51:0.77756654 
65536 1:0.12860892 2:0.063157895 3:0.057742782 4:0.034210526 5:0.0026315789 6:0.013157895 7:0.091863517 8:0.034210526 9:0.062992126 10:0.0026315789 11:0.034210526 12:0.018421053 13:0.076115486 14:0.028947368 15:0.0078947368 16:0.021052632 17:0.018421053 18:0.034120735 19:0.010526316 20:0.010526316 21:0.010498688 22:0.0026315789 23:0.049868766 24:0.010526316 25:0.0026315789 26:0.026315789 27:0.099737533 28:0.018421053 29:0.031578947 30:0.05511811 31:0.013157895 32:0.0026315789 33:0.060367454 34:0.0026315789 35:0.052493438 36:0.0052631579 37:0.023684211 38:0.036745407 39:0.021052632 40:0.0026315789 41:0.023622047 42:0.013157895 43:0 44:0.0078947368 45:0.10498688 46:0.028947368 47:0.018421053 48:0.05511811 49:0.021052632 50:0.015789474 51:0.28272251 
65536 1:0.062753036 2:0.018255578 3:0.042510121 4:0.0081135903 5:0.0060851927 6:0.014198783 7:0.08097166 8:0.016227181 9:0.062753036 10:0.014198783 11:0.024340771 12:0.010141988 13:0.072874494 14:0.016227181 15:0.0081135903 16:0.026369168 17:0.022312373 18:0.068825911 19:0.020283976 20:0.018255578 21:0.016194332 22:0.0020283976 23:0.068825911 24:0.0081135903 25:0.012170385 26:0.024340771 27:0.068825911 28:0.0081135903 29:0.024340771 30:0.05465587 31:0.012170385 32:0 33:0.091093117 34:0.036511156 35:0.050607287 36:0.010141988 37:0.014198783 38:0.044534413 39:0.010141988 40:0.020283976 41:0.060728745 42:0.022312373 43:0.0040567951 44:0.010141988 45:0.076923077 46:0.016227181 47:0.016227181 48:0.076923077 49:0.014198783 50:0.024340771 51:1 
65536 1:0.039215686 2:0.0078585462 3:0.054901961 4:0.025540275 5:0.0058939096 6:0.0098231827 7:0.08627451 8:0.021611002 9:0.043137255 10:0.0058939096 11:0.015717092 12:0.0058939096 13:0.088235294 14:0.015717092 15:0.017681729 16:0.037328094 17:0.017681729 18:0.080392157 19:0.029469548 20:0.021611002 21:0.021568627 22:0.0019646365 23:0.088235294 24:0.0058939096 25:0.031434185 26:0.027504912 27:0.076470588 28:0.019646365 29:0.021611002 30:0.050980392 31:0.017681729 32:0 33:0.07254902 34:0.019646365 35:0.056862745 36:0.021611002 37:0.013752456 38:0.021568627 39:0.0098231827 40:0.0019646365 41:0.092156863 42:0.021611002 43:0.0078585462 44:0.035363458 45:0.074509804 46:0.021611002 47:0.021611002 48:0.052941176 49:0.017681729 50:0.0078585462 51:0.10567515 
65536 1:0.066420664 2:0.016009852 3:0.055350554 4:0.017241379 5:0.0024630542 6:0.012315271 7:0.095940959 8:0.033251232 9:0.049200492 10:0.0086206897 11:0.023399015 12:0.0073891626 13:0.088560886 14:0.022167488 15:0.013546798 16:0.039408867 17:0.013546798 18:0.070110701 19:0.030788177 20:0.016009852 21:0.0061500615 22:0.0012315271 23:0.072570726 24:0.012315271 25:0.020935961 26:0.025862069 27:0.077490775 28:0.011083744 29:0.028325123 30:0.056580566 31:0.012315271 32:0.0024630542 33:0.068880689 34:0.016009852 35:0.056580566 36:0.012315271 37:0.018472906 38:0.034440344 39:0.011083744 40:0.0098522167 41:0.056580566 42:0.023399015 43:0.0012315271 44:0.013546798 45:0.087330873 46:0.016009852 47:0.018472906 48:0.057810578 49:0.019704433 50:0.019704433 51:0.018427518 
65536 1:0.14871795 2:0.053984576 3:0.053846154 4:0.017994859 5:0.0051413882 6:0.0077120823 7:0.10512821 8:0.051413882 9:0.048717949 10:0.01285347 11:0.017994859 12:0.0077120823 13:0.066666667 14:0.028277635 15:0.010282776 16:0.020565553 17:0.0077120823 18:0.061538462 19:0.020565553 20:0.01285347 21:0.015384615 22:0 23:0.053846154 24:0.0051413882 25:0.0077120823 26:0.028277635 27:0.11794872 28:0.015424165 29:0.020565553 30:0.041025641 31:0.015424165 32:0.0025706941 33:0.064102564 34:0.017994859 35:0.041025641 36:0.0077120823 37:0.017994859 38:0.025641026 39:0.010282776 40:0.0077120823 41:0.041025641 42:0.020565553 43:0 44:0.010282776 45:0.076923077 46:0.041131105 47:0.0051413882 48:0.038461538 49:0.01285347 50:0.0051413882 51:0.076726343 
65536 1:0.054163298 2:0.015372168 3:0.050121261 4:0.015372168 5:0.0088996764 6:0.013754045 7:0.084882781 8:0.024271845 9:0.03476152 10:0.0048543689 11:0.0097087379 12:0.0080906149 13:0.075990299 14:0.015372168 15:0.020226537 16:0.029935275 17:0.010517799 18:0.081649151 19:0.019417476 20:0.025889968 21:0.057396928 22:0.018608414 23:0.073565077 24:0.0072815534 25:0.024271845 26:0.029935275 27:0.070331447 28:0.01618123 29:0.025889968 30:0.09135004 31:0.025889968 32:0.023462783 33:0.080032336 34:0.01618123 35:0.050121261 36:0.015372168 37:0.021035599 38:0.022635408 39:0.0056634304 40:0.0040453074 41:0.06628941 42:0.02184466 43:0.0064724919 44:0.019417476 45:0.06952304 46:0.014563107 47:0.014563107 48:0.037186742 49:0.0088996764 50:0.0097087379 51:0.038772213 
65536 1:0.085852479 2:0.021791768 3:0.054413543 4:0.024213075 5:0.0036319613 6:0.014527845 7:0.083434099 8:0.023002421 9:0.059250302 10:0.00968523 11:0.020581114 12:0.014527845 13:0.07617896 14:0.02905569 15:0.013317191 16:0.027845036 17:0.0060532688 18:0.053204353 19:0.020581114 20:0.0084745763 21:0.021765417 22:0.004842615 23:0.064087062 24:0.00968523 25:0.016949153 26:0.023002421 27:0.07376058 28:0.010895884 29:0.023002421 30:0.055622733 31:0.016949153 32:0.004842615 33:0.059250302 34:0.012106538 35:0.062877872 36:0.013317191 37:0.023002421 38:0.047158404 39:0.012106538 40:0.014527845 41:0.051995163 42:0.010895884 43:0.0084745763 44:0.016949153 45:0.085852479 46:0.030266344 47:0.01937046 48:0.065296252 49:0.01937046 50:0.026634383 51:0.22826087 
65536 1:0.17704918 2:0.092105263 3:0.062295082 4:0.039473684 5:0 6:0.019736842 7:0.078688525 8:0.032894737 9:0.072131148 10:0.019736842 11:0.023026316 12:0.029605263 13:0.068852459 14:0.029605263 15:0.013157895 16:0.013157895 17:0.013157895 18:0.016393443 19:0.0032894737 20:0.0032894737 21:0 22:0 23:0.068852459 24:0.013157895 25:0.0065789474 26:0.016447368 27:0.08852459 28:0.016447368 29:0.023026316 30:0.026229508 31:0.0032894737 32:0 33:0.026229508 34:0.0032894737 35:0.032786885 36:0.0065789474 37:0.0065789474 38:0.059016393 39:0.0098684211 40:0.013157895 41:0.045901639 42:0.019736842 43:0 44:0.019736842 45:0.068852459 46:0.039473684 47:0.013157895 48:0.10819672 49:0.023026316 50:0.032894737 51:0.049019608 
65536 1:0.046747967 2:0.0061099796 3:0.079268293 4:0.030549898 5:0.010183299 6:0.020366599 7:0.075203252 8:0.034623218 9:0.06097561 10:0.010183299 11:0.018329939 12:0.010183299 13:0.083333333 14:0.014256619 15:0.030549898 16:0.024439919 17:0.014256619 18:0.073170732 19:0.020366599 20:0.026476578 21:0.024390244 22:0 23:0.067073171 24:0.018329939 25:0.014256619 26:0.014256619 27:0.10162602 28:0.026476578 29:0.022403259 30:0.024390244 31:0.0061099796 32:0.0020366599 33:0.06300813 34:0.016293279 35:0.052845528 36:0.018329939 37:0.022403259 38:0.032520325 39:0.016293279 40:0.0061099796 41:0.071138211 42:0.022403259 43:0.0061099796 44:0.020366599 45:0.079268293 46:0.034623218 47:0.022403259 48:0.06504065 49:0.024439919 50:0.022403259 51:0.036511156 
65536 1:0.062322946 2:0.025568182 3:0.042492918 4:0.017045455 5:0.0085227273 6:0.011363636 7:0.076487252 8:0.022727273 9:0.039660057 10:0.0056818182 11:0.014204545 12:0.0056818182 13:0.073654391 14:0.011363636 15:0.022727273 16:0.028409091 17:0.011363636 18:0.056657224 19:0.019886364 20:0.014204545 21:0.039660057 22:0.0085227273 23:0.079320113 24:0.0028409091 25:0.022727273 26:0.03125 27:0.067988669 28:0.0056818182 29:0.028409091 30:0.067988669 31:0.019886364 32:0.011363636 33:0.082152975 34:0.019886364 35:0.053824363 36:0.011363636 37:0.014204545 38:0.016997167 39:0.0028409091 40:0.0028409091 41:0.079320113 42:0.017045455 43:0.011363636 44:0.034090909 45:0.076487252 46:0.014204545 47:0.0085227273 48:0.084985836 49:0.017045455 50:0.028409091 51:0.51694915 
65536 1:0.054852321 2:0.0084745763 3:0.033755274 4:0.0084745763 5:0 6:0.0042372881 7:0.092827004 8:0.016949153 9:0.037974684 10:0.0084745763 11:0.021186441 12:0.0042372881 13:0.075949367 14:0.012711864 15:0.016949153 16:0.033898305 17:0.012711864 18:0.071729958 19:0.038135593 20:0.016949153 21:0.012658228 22:0 23:0.088607595 24:0.0042372881 25:0.0084745763 26:0.050847458 27:0.054852321 28:0.0084745763 29:0.021186441 30:0.092827004 31:0.029661017 32:0.0042372881 33:0.11392405 34:0.029661017 35:0.042194093 36:0.012711864 37:0.0084745763 38:0.033755274 39:0.0084745763 40:0.0042372881 41:0.050632911 42:0.016949153 43:0.0042372881 44:0.025423729 45:0.088607595 46:0.016949153 47:0.0084745763 48:0.054852321 49:0.0042372881 50:0.0042372881 51:0.95798319 
65536 1:0.050847458 2:0.0084985836 3:0.04519774 4:0.0056657224 5:0.0056657224 6:0.019830028 7:0.09039548 8:0.02266289 9:0.048022599 10:0.0084985836 11:0.016997167 12:0.011331445 13:0.076271186 14:0.014164306 15:0.011331445 16:0.031161473 17:0.019830028 18:0.070621469 19:0.025495751 20:0.011331445 21:0.025423729 22:0.0028328612 23:0.087570621 24:0.019830028 25:0.028328612 26:0.02266289 27:0.064971751 28:0.014164306 29:0.02266289 30:0.064971751 31:0.025495751 32:0 33:0.076271186 34:0.019830028 35:0.059322034 36:0.016997167 37:0.019830028 38:0.042372881 39:0.0084985836 40:0.014164306 41:0.076271186 42:0.025495751 43:0.0084985836 44:0.02266289 45:0.076271186 46:0.014164306 47:0.016997167 48:0.04519774 49:0.016997167 50:0.0084985836 51:0.15211268 
65536 1:0.083916084 2:0.022767075 3:0.062937063 4:0.024518389 5:0.003502627 6:0.021015762 7:0.066433566 8:0.021015762 9:0.061188811 10:0.012259194 11:0.015761821 12:0.021015762 13:0.090909091 14:0.028021016 15:0.012259194 16:0.029772329 17:0.021015762 18:0.076923077 19:0.021015762 20:0.029772329 21:0.017482517 22:0.0017513135 23:0.078671329 24:0.012259194 25:0.031523643 26:0.019264448 27:0.048951049 28:0.0070052539 29:0.014010508 30:0.043706294 31:0.0087565674 32:0.0017513135 33:0.045454545 34:0.010507881 35:0.050699301 36:0.010507881 37:0.0070052539 38:0.050699301 39:0.019264448 40:0.0087565674 41:0.082167832 42:0.026269702 43:0.0070052539 44:0.022767075 45:0.057692308 46:0.0070052539 47:0.014010508 48:0.082167832 49:0.015761821 50:0.024518389 51:0.010471204 
65536 1:0.0703125 2:0.019556714 3:0.04296875 4:0.015645372 5:0.0052151239 6:0.010430248 7:0.083333333 8:0.031290743 9:0.046875 10:0.0052151239 11:0.022164276 12:0.0065189048 13:0.07421875 14:0.022164276 15:0.010430248 16:0.031290743 17:0.010430248 18:0.067708333 19:0.019556714 20:0.018252934 21:0.018229167 22:0.0039113429 23:0.084635417 24:0.010430248 25:0.023468057 26:0.028683181 27:0.06640625 28:0.01303781 29:0.020860495 30:0.06640625 31:0.020860495 32:0.0039113429 33:0.071614583 34:0.020860495 35:0.05859375 36:0.011734029 37:0.0273794 38:0.032552083 39:0.0078226858 40:0.0091264668 41:0.067708333 42:0.019556714 43:0.0039113429 44:0.026075619 45:0.08984375 46:0.014341591 47:0.024771838 48:0.05859375 49:0.011734029 50:0.015645372 51:0.054616385 
65536 1:0.085080148 2:0.02962963 3:0.065351418 4:0.02962963 5:0.0098765432 6:0.014814815 7:0.071516646 8:0.02345679 9:0.062885327 10:0.0098765432 11:0.022222222 12:0.022222222 13:0.086313194 14:0.017283951 15:0.02345679 16:0.033333333 17:0.012345679 18:0.057953144 19:0.02345679 20:0.012345679 21:0.025893958 22:0.0098765432 23:0.072749692 24:0.0061728395 25:0.020987654 26:0.028395062 27:0.077681874 28:0.0098765432 29:0.017283951 30:0.056720099 31:0.017283951 32:0.0037037037 33:0.046855734 34:0.012345679 35:0.045622688 36:0.0086419753 37:0.017283951 38:0.035758323 39:0.011111111 40:0.013580247 41:0.061652281 42:0.012345679 43:0.0061728395 44:0.025925926 45:0.082614057 46:0.02345679 47:0.02345679 48:0.065351418 49:0.014814815 50:0.014814815 51:0.040640394 
65536 1:0.070351759 2:0.01511335 3:0.070351759 4:0.0302267 5:0.010075567 6:0.017632242 7:0.072864322 8:0.025188917 9:0.060301508 10:0.0050377834 11:0.01511335 12:0.020151134 13:0.082914573 14:0.020151134 15:0.017632242 16:0.027707809 17:0.017632242 18:0.060301508 19:0.01511335 20:0.017632242 21:0.022613065 22:0.0025188917 23:0.070351759 24:0.01511335 25:0.010075567 26:0.037783375 27:0.087939698 28:0.01511335 29:0.025188917 30:0.055276382 31:0.022670025 32:0 33:0.06281407 34:0.017632242 35:0.055276382 36:0.010075567 37:0.027707809 38:0.032663317 39:0.010075567 40:0.010075567 41:0.050251256 42:0.025188917 43:0.0050377834 44:0.012594458 45:0.10301508 46:0.032745592 47:0.025188917 48:0.042713568 49:0.022670025 50:0.0075566751 51:1 
65536 1:0.086355786 2:0.027681661 3:0.06044905 4:0.022491349 5:0.0034602076 6:0.010380623 7:0.070811744 8:0.022491349 9:0.046632124 10:0.0017301038 11:0.027681661 12:0.010380623 13:0.081174439 14:0.019031142 15:0.01384083 16:0.034602076 17:0.01384083 18:0.10017271 19:0.027681661 20:0.024221453 21:0.020725389 22:0.0017301038 23:0.082901554 24:0.008650519 25:0.029411765 26:0.027681661 27:0.070811744 28:0.012110727 29:0.012110727 30:0.056994819 31:0.024221453 32:0 33:0.051813472 34:0.0034602076 35:0.044905009 36:0.010380623 37:0.012110727 38:0.025906736 39:0.0051903114 40:0.0034602076 41:0.067357513 42:0.015570934 43:0.010380623 44:0.01384083 45:0.081174439 46:0.01384083 47:0.022491349 48:0.051813472 49:0.01384083 50:0.008650519 51:0.12413793 
65536 1:0.066395664 2:0.014925373 3:0.054200542 4:0.029850746 5:0.0027137042 6:0.012211669 7:0.10298103 8:0.039348711 9:0.051490515 10:0.0054274084 11:0.018995929 12:0.013568521 13:0.096205962 14:0.017639077 15:0.013568521 16:0.044776119 17:0.020352782 18:0.055555556 19:0.018995929 20:0.010854817 21:0.0081300813 22:0 23:0.071815718 24:0.0081411126 25:0.020352782 26:0.023066486 27:0.090785908 28:0.023066486 29:0.023066486 30:0.06097561 31:0.016282225 32:0.0027137042 33:0.06504065 34:0.0081411126 35:0.047425474 36:0.017639077 37:0.016282225 38:0.021680217 39:0.0040705563 40:0.0040705563 41:0.062330623 42:0.021709634 43:0 44:0.020352782 45:0.086720867 46:0.024423338 47:0.013568521 48:0.058265583 49:0.028493894 50:0.016282225 51:0.0202977 
16786.63046087527 1:0.084210526 2:0.031662269 3:0.028947368 4:0.013192612 5:0 6:0.01055409 7:0.086842105 8:0.031662269 9:0.073684211 10:0.015831135 11:0.021108179 12:0.026385224 13:0.057894737 14:0.0079155673 15:0.01055409 16:0.026385224 17:0.013192612 18:0.028947368 19:0.01055409 20:0.0052770449 21:0.0026315789 22:0 23:0.086842105 24:0.0079155673 25:0.021108179 26:0.023746702 27:0.078947368 28:0.01055409 29:0.021108179 30:0.044736842 31:0.0052770449 32:0.0026385224 33:0.036842105 34:0.0026385224 35:0.055263158 36:0.01055409 37:0.015831135 38:0.052631579 39:0.0052770449 40:0.026385224 41:0.073684211 42:0.026385224 43:0 44:0.034300792 45:0.092105263 46:0.021108179 47:0.015831135 48:0.11578947 49:0.029023747 50:0.034300792 51:0.18897638 
65536 1:0.15009042 2:0.041666667 3:0.032549729 4:0.02173913 5:0 6:0.009057971 7:0.15009042 8:0.10507246 9:0.066907776 10:0.012681159 11:0.019927536 12:0.023550725 13:0.05244123 14:0.019927536 15:0.0018115942 16:0.012681159 17:0.018115942 18:0.01084991 19:0.009057971 20:0 21:0.0036166365 22:0 23:0.028933092 24:0.0018115942 25:0.0018115942 26:0.009057971 27:0.15370705 28:0.0072463768 29:0.05615942 30:0.021699819 31:0.0018115942 32:0.0036231884 33:0.045207957 34:0.0054347826 35:0.045207957 36:0.0054347826 37:0.019927536 38:0.043399638 39:0.010869565 40:0.018115942 41:0.03074141 42:0.012681159 43:0 44:0.010869565 45:0.066907776 46:0.02173913 47:0.02173913 48:0.097649186 49:0.018115942 50:0.047101449 51:0.83935018 
65536 1:0.076492537 2:0.022429907 3:0.057835821 4:0.018691589 5:0.0018691589 6:0.024299065 7:0.082089552 8:0.037383178 9:0.072761194 10:0.0093457944 11:0.028037383 12:0.018691589 13:0.074626866 14:0.011214953 15:0.013084112 16:0.024299065 17:0.026168224 18:0.050373134 19:0.020560748 20:0.0093457944 21:0.0037313433 22:0 23:0.078358209 24:0.01682243 25:0.022429907 26:0.028037383 27:0.095149254 28:0.013084112 29:0.022429907 30:0.03358209 31:0.0074766355 32:0 33:0.050373134 34:0.0056074766 35:0.054104478 36:0.011214953 37:0.024299065 38:0.042910448 39:0.013084112 40:0.0093457944 41:0.063432836 42:0.022429907 43:0.0018691589 44:0.020560748 45:0.098880597 46:0.029906542 47:0.024299065 48:0.065298507 49:0.018691589 50:0.020560748 51:0.027932961 
65536 1:0.055944056 2:0.021052632 3:0.059440559 4:0.01754386 5:0.010526316 6:0.024561404 7:0.062937063 8:0.035087719 9:0.048951049 10:0 11:0.01754386 12:0.0070175439 13:0.062937063 14:0.0070175439 15:0.01754386 16:0.01754386 17:0.021052632 18:0.055944056 19:0.01754386 20:0.0070175439 21:0.034965035 22:0.014035088 23:0.087412587 24:0.010526316 25:0.0035087719 26:0.056140351 27:0.08041958 28:0.024561404 29:0.01754386 30:0.08041958 31:0.024561404 32:0.0035087719 33:0.048951049 34:0.0070175439 35:0.059440559 36:0.0035087719 37:0.031578947 38:0.031468531 39:0.0070175439 40:0.0035087719 41:0.045454545 42:0.0070175439 43:0.0070175439 44:0.014035088 45:0.11888112 46:0.01754386 47:0.042105263 48:0.066433566 49:0.014035088 50:0.024561404 51:0.052264808 
65536 1:0.065420561 2:0.018735363 3:0.028037383 4:0.0093676815 5:0 6:0.0046838407 7:0.08411215 8:0.025761124 9:0.03271028 10:0.0023419204 11:0.018735363 12:0.0070257611 13:0.053738318 14:0.0070257611 15:0.014051522 16:0.032786885 17:0 18:0.10046729 19:0.025761124 20:0.025761124 21:0.03271028 22:0.014051522 23:0.077102804 24:0 25:0.028103044 26:0.039812646 27:0.079439252 28:0.0046838407 29:0.018735363 30:0.081775701 31:0.039812646 32:0.0070257611 33:0.10280374 34:0.023419204 35:0.058411215 36:0.014051522 37:0.025761124 38:0.011682243 39:0 40:0.0093676815 41:0.053738318 42:0.0093676815 43:0.0023419204 44:0.021077283 45:0.10280374 46:0.018735363 47:0.025761124 48:0.035046729 49:0.018735363 50:0.0070257611 51:1 
65536 1:0.043545879 2:0.014018692 3:0.051321928 4:0.0093457944 5:0.010903427 6:0.015576324 7:0.083981337 8:0.021806854 9:0.023328149 10:0 11:0.007788162 12:0.0031152648 13:0.069984448 14:0.014018692 15:0.023364486 16:0.021806854 17:0.010903427 18:0.10264386 19:0.023364486 20:0.035825545 21:0.060653188 22:0.018691589 23:0.071539658 24:0.0093457944 25:0.020249221 26:0.029595016 27:0.069984448 28:0.020249221 29:0.03271028 30:0.088646967 31:0.031152648 32:0.014018692 33:0.11197512 34:0.037383178 35:0.049766719 36:0.020249221 37:0.018691589 38:0.017107309 39:0.0031152648 40:0.0031152648 41:0.062208398 42:0.014018692 43:0.0093457944 44:0.018691589 45:0.065318818 46:0.007788162 47:0.010903427 48:0.027993779 49:0.0093457944 50:0.007788162 51:0.28881988 
65536 1:0.08716707 2:0.033980583 3:0.050847458 4:0.026699029 5:0.0072815534 6:0.0048543689 7:0.089588378 8:0.024271845 9:0.041162228 10:0.0072815534 11:0.012135922 12:0.0072815534 13:0.08716707 14:0.024271845 15:0.014563107 16:0.031553398 17:0.016990291 18:0.070217918 19:0.016990291 20:0.019417476 21:0.021791768 22:0 23:0.07748184 24:0 25:0.02184466 26:0.029126214 27:0.07748184 28:0.0097087379 29:0.029126214 30:0.046004843 31:0.019417476 32:0 33:0.084745763 34:0.02184466 35:0.050847458 36:0.016990291 37:0.016990291 38:0.01937046 39:0.0097087379 40:0.0024271845 41:0.089588378 42:0.033980583 43:0.0072815534 44:0.029126214 45:0.060532688 46:0.024271845 47:0.0097087379 48:0.046004843 49:0.0024271845 50:0.0024271845 51:0.050724638 
65536 1:0.095779221 2:0.027642276 3:0.060064935 4:0.021138211 5:0.006504065 6:0.006504065 7:0.082792208 8:0.029268293 9:0.071428571 10:0.01300813 11:0.029268293 12:0.019512195 13:0.099025974 14:0.022764228 15:0.017886179 16:0.032520325 17:0.02601626 18:0.069805195 19:0.027642276 20:0.022764228 21:0.021103896 22:0.0016260163 23:0.047077922 24:0.006504065 25:0.014634146 26:0.014634146 27:0.082792208 28:0.0097560976 29:0.014634146 30:0.051948052 31:0.0097560976 32:0.0032520325 33:0.069805195 34:0.016260163 35:0.038961039 36:0.011382114 37:0.011382114 38:0.034090909 39:0.011382114 40:0.006504065 41:0.055194805 42:0.030894309 43:0.0032520325 44:0.0097560976 45:0.069805195 46:0.019512195 47:0.01300813 48:0.050324675 49:0.014634146 50:0.0097560976 51:0.034035656 
65536 1:0.10526316 2:0.029816514 3:0.089244851 4:0.03440367 5:0.018348624 6:0.013761468 7:0.070938215 8:0.032110092 9:0.04805492 10:0.0091743119 11:0.016055046 12:0.004587156 13:0.10297483 14:0.025229358 15:0.027522936 16:0.029816514 17:0.020642202 18:0.077803204 19:0.025229358 20:0.02293578 21:0.034324943 22:0.0068807339 23:0.054919908 24:0.013761468 25:0.013761468 26:0.020642202 27:0.068649886 28:0.0091743119 29:0.013761468 30:0.04805492 31:0.016055046 32:0.0068807339 33:0.041189931 34:0.0068807339 35:0.061784897 36:0.013761468 37:0.027522936 38:0.036613272 39:0.013761468 40:0.002293578 41:0.057208238 42:0.027522936 43:0.002293578 44:0.01146789 45:0.073226545 46:0.018348624 47:0.02293578 48:0.029748284 49:0.0091743119 50:0.004587156 51:0.36986301 
65536 1:0.080824089 2:0.026984127 3:0.06022187 4:0.012698413 5:0.011111111 6:0.017460317 7:0.1141046 8:0.014285714 9:0.066561014 10:0.012698413 11:0.0095238095 12:0.020634921 13:0.14263074 14:0.015873016 15:0.026984127 16:0.06984127 17:0.03015873 18:0.05229794 19:0.028571429 20:0.0095238095 21:0.023771791 22:0.0015873016 23:0.049128368 24:0.015873016 25:0.012698413 26:0.011111111 27:0.053882726 28:0.0047619048 29:0.014285714 30:0.093502377 31:0.012698413 32:0.0063492063 33:0.036450079 34:0.0015873016 35:0.034865293 36:0.0095238095 37:0.011111111 38:0.04437401 39:0.0063492063 40:0.0095238095 41:0.061806656 42:0.034920635 43:0.0031746032 44:0.012698413 45:0.045958796 46:0.012698413 47:0.011111111 48:0.039619651 49:0.014285714 50:0.0047619048 51:0.018987342 
65536 1:0.092707046 2:0.028465347 3:0.055624227 4:0.018564356 5:0.0074257426 6:0.014851485 7:0.080346106 8:0.02970297 9:0.051915946 10:0.012376238 11:0.017326733 12:0.0061881188 13:0.061804697 14:0.014851485 15:0.014851485 16:0.017326733 17:0.014851485 18:0.070457355 19:0.018564356 20:0.016089109 21:0.039555006 22:0.0099009901 23:0.072929543 24:0.004950495 25:0.018564356 26:0.030940594 27:0.085290482 28:0.012376238 29:0.024752475 30:0.055624227 31:0.016089109 32:0.011138614 33:0.055624227 34:0.0099009901 35:0.054388133 36:0.014851485 37:0.014851485 38:0.039555006 39:0.012376238 40:0.0074257426 41:0.063040791 42:0.012376238 43:0.0061881188 44:0.021039604 45:0.075401731 46:0.023514851 47:0.021039604 48:0.045735476 49:0.012376238 50:0.0074257426 51:0.037037037 
65536 1:0.039402174 2:0.0068027211 3:0.048913043 4:0.020408163 5:0 6:0.013605442 7:0.09375 8:0.017687075 9:0.050271739 10:0.0068027211 11:0.016326531 12:0.0095238095 13:0.097826087 14:0.014965986 15:0.019047619 16:0.044897959 17:0.019047619 18:0.12228261 19:0.039455782 20:0.043537415 21:0.010869565 22:0.0027210884 23:0.081521739 24:0.0081632653 25:0.023129252 26:0.03537415 27:0.0625 28:0.013605442 29:0.02585034 30:0.073369565 31:0.032653061 32:0.0013605442 33:0.065217391 34:0.014965986 35:0.044836957 36:0.012244898 37:0.013605442 38:0.032608696 39:0.0068027211 40:0.014965986 41:0.069293478 42:0.017687075 43:0.0013605442 44:0.019047619 45:0.074728261 46:0.021768707 47:0.017687075 48:0.032608696 49:0.0095238095 50:0.0013605442 51:0.13432836 
35066.08837193033 1:0.076923077 2:0.014336918 3:0.050089445 4:0.014336918 5:0.010752688 6:0.014336918 7:0.094812165 8:0.025089606 9:0.046511628 10:0.0071684588 11:0.010752688 12:0.017921147 13:0.066189624 14:0.016129032 15:0.012544803 16:0.021505376 17:0.016129032 18:0.060822898 19:0.010752688 20:0.019713262 21:0.025044723 22:0.0053763441 23:0.078711986 24:0.012544803 25:0.023297491 26:0.032258065 27:0.080500894 28:0.0071684588 29:0.028673835 30:0.060822898 31:0.017921147 32:0.0053763441 33:0.071556351 34:0.012544803 35:0.057245081 36:0.0089605735 37:0.028673835 38:0.044722719 39:0.010752688 40:0.010752688 41:0.059033989 42:0.021505376 43:0.0017921147 44:0.023297491 45:0.078711986 46:0.023297491 47:0.017921147 48:0.048300537 49:0.0071684588 50:0.014336918 51:0.0375 
53845.01544929281 1:0.13479053 2:0.051094891 3:0.054644809 4:0.034671533 5:0.003649635 6:0.0054744526 7:0.098360656 8:0.047445255 9:0.074681239 10:0.018248175 11:0.02189781 12:0.018248175 13:0.072859745 14:0.020072993 15:0.010948905 16:0.02189781 17:0.020072993 18:0.025500911 19:0.0091240876 20:0.0054744526 21:0.0091074681 22:0 23:0.047358834 24:0.0072992701 25:0.012773723 26:0.018248175 27:0.10564663 28:0.01459854 29:0.023722628 30:0.027322404 31:0.003649635 32:0 33:0.063752277 34:0.01459854 35:0.051001821 36:0.012773723 37:0.016423358 38:0.047358834 39:0.012773723 40:0.0091240876 41:0.047358834 42:0.01459854 43:0.003649635 44:0.023722628 45:0.078324226 46:0.02189781 47:0.016423358 48:0.061930783 49:0.02189781 50:0.023722628 51:0.14181818 
65536 1:0.076923077 2:0.022857143 3:0.05982906 4:0.02 5:0.0028571429 6:0.022857143 7:0.074074074 8:0.04 9:0.07977208 10:0.0085714286 11:0.025714286 12:0.025714286 13:0.076923077 14:0.014285714 15:0.014285714 16:0.017142857 17:0.031428571 18:0.056980057 19:0.017142857 20:0.011428571 21:0.0085470085 22:0 23:0.071225071 24:0.017142857 25:0.022857143 26:0.017142857 27:0.091168091 28:0.017142857 29:0.02 30:0.022792023 31:0.0085714286 32:0 33:0.048433048 34:0.0057142857 35:0.054131054 36:0.011428571 37:0.022857143 38:0.045584046 39:0.014285714 40:0.011428571 41:0.071225071 42:0.028571429 43:0.0028571429 44:0.02 45:0.088319088 46:0.02 47:0.028571429 48:0.074074074 49:0.022857143 50:0.02 51:0.042613636 
65536 1:0.070721358 2:0.018413598 3:0.046676096 4:0.012747875 5:0.0084985836 6:0.014164306 7:0.089108911 8:0.042492918 9:0.055162659 10:0.007082153 11:0.021246459 12:0.012747875 13:0.055162659 14:0.011331445 15:0.007082153 16:0.026912181 17:0.0099150142 18:0.070721358 19:0.014164306 20:0.028328612 21:0.038189533 22:0.0084985836 23:0.057991513 24:0.0056657224 25:0.007082153 26:0.028328612 27:0.11315417 28:0.021246459 29:0.028328612 30:0.052333805 31:0.011331445 32:0.0099150142 33:0.084865629 34:0.02266289 35:0.04950495 36:0.007082153 37:0.02266289 38:0.022630835 39:0.0056657224 40:0.0056657224 41:0.052333805 42:0.015580737 43:0.0056657224 44:0.011331445 45:0.086280057 46:0.026912181 47:0.011331445 48:0.055162659 49:0.014164306 50:0.012747875 51:0.088983051 
36452.95278586318 1:0.079741379 2:0.025161754 3:0.048850575 4:0.017253774 5:0.002875629 6:0.019410496 7:0.084770115 8:0.030913012 9:0.070402299 10:0.011502516 11:0.019410496 12:0.023005032 13:0.07183908 14:0.018691589 15:0.012940331 16:0.025880661 17:0.014378145 18:0.05387931 19:0.023005032 20:0.011502516 21:0.0093390805 22:0.0014378145 23:0.081178161 24:0.01581596 25:0.014378145 26:0.021567218 27:0.075431034 28:0.013659238 29:0.02372394 30:0.045258621 31:0.012940331 32:0.002875629 33:0.036637931 34:0.0043134436 35:0.045977011 36:0.010064702 37:0.010783609 38:0.056752874 39:0.013659238 40:0.018691589 41:0.068247126 42:0.016534867 43:0.0035945363 44:0.028037383 45:0.07183908 46:0.030194105 47:0.010064702 48:0.099856322 49:0.020129403 50:0.031631919 51:0.0064608758 
65536 1:0.11388456 2:0.04375 3:0.059282371 4:0.0265625 5:0.003125 6:0.01875 7:0.10296412 8:0.0390625 9:0.059282371 10:0.009375 11:0.0203125 12:0.0203125 13:0.079563183 14:0.0234375 15:0.0125 16:0.021875 17:0.021875 18:0.049921997 19:0.0234375 20:0.0125 21:0.0093603744 22:0 23:0.051482059 24:0.0140625 25:0.0046875 26:0.01875 27:0.096723869 28:0.01875 29:0.0296875 30:0.037441498 31:0.0078125 32:0 33:0.063962559 34:0.0078125 35:0.04524181 36:0.0109375 37:0.0125 38:0.04524181 39:0.009375 40:0.0109375 41:0.043681747 42:0.0125 43:0.0015625 44:0.0109375 45:0.067082683 46:0.0265625 47:0.009375 48:0.074882995 49:0.015625 50:0.025 51:0.046728972 
65536 1:0.086767896 2:0.013043478 3:0.028199566 4:0.010869565 5:0 6:0.010869565 7:0.19522777 8:0.067391304 9:0.021691974 10:0 11:0.0065217391 12:0.0043478261 13:0.039045553 14:0.010869565 15:0.002173913 16:0.02173913 17:0.0043478261 18:0.045553145 19:0.010869565 20:0.015217391 21:0.0021691974 22:0 23:0.056399132 24:0.002173913 25:0.015217391 26:0.017391304 27:0.19522777 28:0.017391304 29:0.1 30:0.028199566 31:0.0065217391 32:0.002173913 33:0.12798265 34:0.010869565 35:0.023861171 36:0.0065217391 37:0.013043478 38:0.010845987 39:0.002173913 40:0.002173913 41:0.041214751 42:0.010869565 43:0 44:0.013043478 45:0.04989154 46:0.026086957 47:0.0043478261 48:0.047722343 49:0.013043478 50:0.02173913 51:0.14502165 
65536 1:0.063888889 2:0.019498607 3:0.041666667 4:0.011142061 5:0.0027855153 6:0.0027855153 7:0.097222222 8:0.04178273 9:0.052777778 10:0.008356546 11:0.016713092 12:0.011142061 13:0.058333333 14:0.008356546 15:0.0055710306 16:0.036211699 17:0.008356546 18:0.10555556 19:0.036211699 20:0.027855153 21:0.036111111 22:0.0027855153 23:0.047222222 24:0.0027855153 25:0.0055710306 26:0.027855153 27:0.1 28:0.016713092 29:0.044568245 30:0.066666667 31:0.036211699 32:0.019498607 33:0.086111111 34:0.019498607 35:0.05 36:0.008356546 37:0.016713092 38:0.033333333 39:0.0055710306 40:0.011142061 41:0.033333333 42:0.0055710306 43:0.0055710306 44:0.0055710306 45:0.083333333 46:0.022284123 47:0.019498607 48:0.044444444 49:0.022284123 50:0.013927577 51:0.29916898 
65536 1:0.095092025 2:0.027692308 3:0.04601227 4:0.024615385 5:0 6:0.012307692 7:0.082822086 8:0.033846154 9:0.098159509 10:0.027692308 11:0.033846154 12:0.024615385 13:0.076687117 14:0.0030769231 15:0.015384615 16:0.033846154 17:0.024615385 18:0.024539877 19:0.012307692 20:0 21:0.0061349693 22:0.0061538462 23:0.061349693 24:0.015384615 25:0.0092307692 26:0.012307692 27:0.079754601 28:0.0030769231 29:0.012307692 30:0.039877301 31:0.0030769231 32:0.0030769231 33:0.039877301 34:0.0092307692 35:0.039877301 36:0.012307692 37:0.0061538462 38:0.070552147 39:0.015384615 40:0.024615385 41:0.058282209 42:0.021538462 43:0.0030769231 44:0.021538462 45:0.070552147 46:0.024615385 47:0.015384615 48:0.11042945 49:0.018461538 50:0.055384615 51:1 
65536 1:0.061488673 2:0.016233766 3:0.055016181 4:0.019480519 5:0 6:0.022727273 7:0.071197411 8:0.035714286 9:0.087378641 10:0.0064935065 11:0.045454545 12:0.016233766 13:0.087378641 14:0.019480519 15:0.0064935065 16:0.038961039 17:0.022727273 18:0.042071197 19:0.019480519 20:0.0064935065 21:0.025889968 22:0.0097402597 23:0.071197411 24:0.016233766 25:0.022727273 26:0.016233766 27:0.084142395 28:0.025974026 29:0.012987013 30:0.051779935 31:0.0097402597 32:0.0097402597 33:0.045307443 34:0.0097402597 35:0.042071197 36:0.012987013 37:0.012987013 38:0.042071197 39:0.0097402597 40:0.0097402597 41:0.077669903 42:0.032467532 43:0.0097402597 44:0.022727273 45:0.084142395 46:0.022727273 47:0.0097402597 48:0.071197411 49:0.0064935065 50:0.029220779 51:0.17419355 
65536 1:0.1007371 2:0.039408867 3:0.056511057 4:0.019704433 5:0.012315271 6:0.014778325 7:0.095823096 8:0.022167488 9:0.046683047 10:0.0049261084 11:0.017241379 12:0.0049261084 13:0.093366093 14:0.027093596 15:0.014778325 16:0.036945813 17:0.014778325 18:0.058968059 19:0.032019704 20:0.0098522167 21:0.024570025 22:0.0098522167 23:0.071253071 24:0.012315271 25:0.014778325 26:0.034482759 27:0.068796069 28:0.017241379 29:0.014778325 30:0.071253071 31:0.027093596 32:0.0024630542 33:0.051597052 34:0.012315271 35:0.056511057 36:0.014778325 37:0.019704433 38:0.036855037 39:0.0049261084 40:0.0098522167 41:0.061425061 42:0.019704433 43:0.0098522167 44:0.019704433 45:0.076167076 46:0.024630542 47:0.034482759 48:0.029484029 49:0.0049261084 50:0.0073891626 51:0.080882353 
65536 1:0.089108911 2:0.01986755 3:0.056105611 4:0.029801325 5:0 6:0.013245033 7:0.11221122 8:0.049668874 9:0.059405941 10:0.0099337748 11:0.016556291 12:0.01986755 13:0.082508251 14:0.023178808 15:0.016556291 16:0.033112583 17:0.0099337748 18:0.052805281 19:0.029801325 20:0.013245033 21:0 22:0 23:0.056105611 24:0.0066225166 25:0.0033112583 26:0.039735099 27:0.11551155 28:0.026490066 29:0.01986755 30:0.03960396 31:0.0066225166 32:0 33:0.079207921 34:0.01986755 35:0.04620462 36:0.0066225166 37:0.013245033 38:0.0330033 39:0.0099337748 40:0.0033112583 41:0.04290429 42:0.013245033 43:0 44:0.0099337748 45:0.085808581 46:0.033112583 47:0.0066225166 48:0.04950495 49:0.016556291 50:0.0099337748 51:0.039473684 
65536 1:0.077319588 2:0.029259897 3:0.070446735 4:0.032702238 5:0.0034423408 6:0.008605852 7:0.065292096 8:0.018932874 9:0.041237113 10:0.0051635112 11:0.013769363 12:0.0034423408 13:0.104811 14:0.022375215 15:0.034423408 16:0.034423408 17:0.013769363 18:0.10652921 19:0.034423408 20:0.027538726 21:0.024054983 22:0.0017211704 23:0.087628866 24:0.0068846816 25:0.025817556 26:0.039586919 27:0.049828179 28:0.015490534 29:0.012048193 30:0.087628866 31:0.029259897 32:0.008605852 33:0.070446735 34:0.015490534 35:0.027491409 36:0.0034423408 37:0.010327022 38:0.024054983 39:0.0068846816 40:0.0017211704 41:0.056701031 42:0.012048193 43:0.0034423408 44:0.018932874 45:0.075601375 46:0.010327022 47:0.010327022 48:0.030927835 49:0.012048193 50:0.0051635112 51:0.10806175 
65536 1:0.10916581 2:0.037113402 3:0.054582904 4:0.026804124 5:0.0041237113 6:0.012371134 7:0.08753862 8:0.027835052 9:0.061791967 10:0.006185567 11:0.028865979 12:0.015463918 13:0.090628218 14:0.029896907 15:0.013402062 16:0.032989691 17:0.01443299 18:0.049433574 19:0.017525773 20:0.01443299 21:0.0082389289 22:0.0030927835 23:0.057672503 24:0.0082474227 25:0.0082474227 26:0.025773196 27:0.075180227 28:0.011340206 29:0.016494845 30:0.058702369 31:0.013402062 32:0 33:0.064881565 34:0.013402062 35:0.05046344 36:0.0092783505 37:0.018556701 38:0.03707518 39:0.0082474227 40:0.0072164948 41:0.044284243 42:0.020618557 43:0.0030927835 44:0.0092783505 45:0.088568486 46:0.027835052 47:0.01443299 48:0.061791967 49:0.015463918 50:0.019587629 51:0.086419753 
65536 1:0.026584867 2:0.012295082 3:0.055214724 4:0.012295082 5:0.006147541 6:0.020491803 7:0.057259714 8:0.012295082 9:0.026584867 10:0.006147541 11:0.010245902 12:0.0020491803 13:0.055214724 14:0.0040983607 15:0.016393443 16:0.028688525 17:0.006147541 18:0.073619632 19:0.014344262 20:0.016393443 21:0.032719836 22:0.0020491803 23:0.13496933 24:0.010245902 25:0.053278689 26:0.040983607 27:0.061349693 28:0.026639344 29:0.014344262 30:0.065439673 31:0.010245902 32:0.0020491803 33:0.08793456 34:0.022540984 35:0.051124744 36:0.012295082 37:0.020491803 38:0.022494888 39:0.0081967213 40:0.006147541 41:0.1002045 42:0.024590164 43:0.012295082 44:0.032786885 45:0.08793456 46:0.018442623 47:0.014344262 48:0.061349693 49:0.016393443 50:0.014344262 51:0.39795918 
65536 1:0.081841432 2:0.028169014 3:0.056265985 4:0.025608195 5:0.0038412292 6:0.019206146 7:0.081841432 8:0.020486556 9:0.066496164 10:0.011523688 11:0.015364917 12:0.024327785 13:0.081841432 14:0.014084507 15:0.011523688 16:0.033290653 17:0.023047375 18:0.049872123 19:0.015364917 20:0.010243278 21:0.019181586 22:0.0038412292 23:0.071611253 24:0.012804097 25:0.019206146 26:0.025608195 27:0.084398977 28:0.019206146 29:0.025608195 30:0.052429668 31:0.011523688 32:0.0038412292 33:0.071611253 34:0.011523688 35:0.035805627 36:0.0089628681 37:0.011523688 38:0.039641944 39:0.0089628681 40:0.012804097 41:0.063938619 42:0.020486556 43:0.0051216389 44:0.017925736 45:0.071611253 46:0.021766965 47:0.0051216389 48:0.071611253 49:0.017925736 50:0.019206146 51:0.049808429 
65536 1:0.074444444 2:0.020022247 3:0.046666667 4:0.020022247 5:0.0066740823 6:0.010011123 7:0.16333333 8:0.03003337 9:0.041111111 10:0.011123471 11:0.0088987764 12:0.013348165 13:0.14444444 14:0.021134594 15:0.011123471 16:0.10344828 17:0.0088987764 18:0.03 19:0.020022247 20:0.0033370412 21:0.015555556 22:0.0011123471 23:0.044444444 24:0.0044493882 25:0.013348165 26:0.013348165 27:0.074444444 28:0.0066740823 29:0.032258065 30:0.11222222 31:0.0088987764 32:0.0066740823 33:0.046666667 34:0.0055617353 35:0.036666667 36:0.010011123 37:0.011123471 38:0.031111111 39:0.0088987764 40:0.0077864294 41:0.045555556 42:0.0189099 43:0.0022246941 44:0.016685206 45:0.044444444 46:0.012235818 47:0.013348165 48:0.048888889 49:0.011123471 50:0.015572859 51:0.069922309 
65536 1:0.068796069 2:0.019704433 3:0.068796069 4:0.014778325 5:0.0073891626 6:0.017241379 7:0.093366093 8:0.032019704 9:0.054054054 10:0.014778325 11:0.017241379 12:0.0098522167 13:0.085995086 14:0.022167488 15:0.014778325 16:0.034482759 17:0.014778325 18:0.090909091 19:0.034482759 20:0.036945813 21:0.034398034 22:0.0073891626 23:0.049140049 24:0.0024630542 25:0.022167488 26:0.012315271 27:0.095823096 28:0.022167488 29:0.036945813 30:0.034398034 31:0.0049261084 32:0.0049261084 33:0.066339066 34:0.014778325 35:0.051597052 36:0.017241379 37:0.012315271 38:0.031941032 39:0.017241379 40:0 41:0.066339066 42:0.027093596 43:0.012315271 44:0.0073891626 45:0.056511057 46:0.022167488 47:0.012315271 48:0.051597052 49:0.014778325 50:0.014778325 51:1 
65536 1:0.071803853 2:0.010526316 3:0.056042032 4:0.024561404 5:0.0035087719 6:0.014035088 7:0.096322242 8:0.040350877 9:0.063047285 10:0.012280702 11:0.026315789 12:0.0087719298 13:0.082311734 14:0.022807018 15:0.014035088 16:0.024561404 17:0.021052632 18:0.047285464 19:0.021052632 20:0.010526316 21:0.0070052539 22:0 23:0.070052539 24:0.014035088 25:0.01754386 26:0.022807018 27:0.094570928 28:0.015789474 29:0.024561404 30:0.04028021 31:0.0087719298 32:0 33:0.059544658 34:0.012280702 35:0.052539405 36:0.015789474 37:0.012280702 38:0.04028021 39:0.012280702 40:0.010526316 41:0.061295972 42:0.019298246 43:0.001754386 44:0.028070175 45:0.084063047 46:0.031578947 47:0.015789474 48:0.073555166 49:0.022807018 50:0.031578947 51:0.24125874 
65536 1:0.07103321 2:0.024457776 3:0.05904059 4:0.022611906 5:0.0027688048 6:0.016612829 7:0.070110701 8:0.014766959 9:0.04704797 10:0.010152284 11:0.013844024 12:0.012921089 13:0.073339483 14:0.018920166 15:0.014766959 16:0.023534841 17:0.016151361 18:0.055350554 19:0.012459622 20:0.014305491 21:0.018911439 22:0.0027688048 23:0.088560886 24:0.013844024 25:0.019381634 26:0.029995385 27:0.056273063 28:0.012459622 29:0.015228426 30:0.061346863 31:0.012921089 32:0.0046146747 33:0.067804428 34:0.015689894 35:0.058118081 36:0.011998154 37:0.024919243 38:0.046125461 39:0.015689894 40:0.010152284 41:0.060885609 42:0.019381634 43:0.0064605445 44:0.023996308 45:0.086715867 46:0.019381634 47:0.017535764 48:0.079335793 49:0.017997231 50:0.02907245 51:0.013831259 
65536 1:0.043090639 2:0.005952381 3:0.05794948 4:0.014880952 5:0.0029761905 6:0.017857143 7:0.089153046 8:0.026785714 9:0.038632987 10:0.005952381 11:0.019345238 12:0.005952381 13:0.075780089 14:0.017857143 15:0.019345238 16:0.022321429 17:0.016369048 18:0.092124814 19:0.025297619 20:0.025297619 21:0.013372957 22:0.0014880952 23:0.102526 24:0.0044642857 25:0.03422619 26:0.046130952 27:0.095096582 28:0.023809524 29:0.043154762 30:0.068350669 31:0.022321429 32:0.0044642857 33:0.081723626 34:0.017857143 35:0.035661218 36:0.011904762 37:0.014880952 38:0.014858841 39:0.005952381 40:0.0029761905 41:0.0653789 42:0.017857143 43:0.0014880952 44:0.023809524 45:0.095096582 46:0.029761905 47:0.013392857 48:0.031203566 49:0.014880952 50:0.0014880952 51:0.075667656 
65536 1:0.074626866 2:0.018272425 3:0.061359867 4:0.019933555 5:0.0066445183 6:0.0083056478 7:0.08291874 8:0.019933555 9:0.043117745 10:0.0049833887 11:0.024916944 12:0.0083056478 13:0.084577114 14:0.024916944 15:0.016611296 16:0.026578073 17:0.016611296 18:0.08291874 19:0.023255814 20:0.024916944 21:0.021558872 22:0.0033222591 23:0.066334992 24:0.0066445183 25:0.014950166 26:0.029900332 27:0.069651741 28:0.013289037 29:0.023255814 30:0.063018242 31:0.023255814 32:0.0049833887 33:0.086235489 34:0.021594684 35:0.049751244 36:0.0083056478 37:0.013289037 38:0.033167496 39:0.0049833887 40:0.0049833887 41:0.046434494 42:0.023255814 43:0.0049833887 44:0.0099667774 45:0.07960199 46:0.016611296 47:0.018272425 48:0.054726368 49:0.011627907 50:0.016611296 51:0.044701987 
65536 1:0.05760709 2:0.01183432 3:0.079763663 4:0.039940828 5:0.0044378698 6:0.01035503 7:0.094534712 8:0.031065089 9:0.042836041 10:0.0073964497 11:0.0088757396 12:0.0088757396 13:0.11964549 14:0.028106509 15:0.029585799 16:0.042899408 17:0.019230769 18:0.088626292 19:0.041420118 20:0.017751479 21:0.013293944 22:0.0044378698 23:0.072378139 24:0.0059171598 25:0.020710059 26:0.029585799 27:0.076809453 28:0.020710059 29:0.026627219 30:0.05760709 31:0.020710059 32:0.0029585799 33:0.059084195 34:0.01183432 35:0.039881832 36:0.013313609 37:0.013313609 38:0.020679468 39:0.0088757396 40:0.0029585799 41:0.067946824 42:0.023668639 43:0.0029585799 44:0.016272189 45:0.066469719 46:0.017751479 47:0.01183432 48:0.042836041 49:0.014792899 50:0.0073964497 51:0.057522124 
65536 1:0.079822616 2:0.031111111 3:0.050997783 4:0.02 5:0 6:0.015555556 7:0.086474501 8:0.026666667 9:0.053215078 10:0.0066666667 11:0.015555556 12:0.011111111 13:0.099778271 14:0.026666667 15:0.0088888889 16:0.04 17:0.024444444 18:0.090909091 19:0.04 20:0.022222222 21:0.0088691796 22:0.0044444444 23:0.088691796 24:0.0066666667 25:0.031111111 26:0.031111111 27:0.070953437 28:0.015555556 29:0.022222222 30:0.057649667 31:0.015555556 32:0 33:0.039911308 34:0.0066666667 35:0.037694013 36:0.013333333 37:0.015555556 38:0.017738359 39:0.0044444444 40:0.0044444444 41:0.088691796 42:0.022222222 43:0.0044444444 44:0.024444444 45:0.073170732 46:0.028888889 47:0.011111111 48:0.055432373 49:0.011111111 50:0.017777778 51:0.059734513 
65536 1:0.051980198 2:0.0049627792 3:0.04950495 4:0.012406948 5:0.0024813896 6:0.024813896 7:0.091584158 8:0.037220844 9:0.059405941 10:0.0074441687 11:0.024813896 12:0.0099255583 13:0.074257426 14:0.019851117 15:0.0074441687 16:0.029776675 17:0.017369727 18:0.056930693 19:0.022332506 20:0.017369727 21:0.0024752475 22:0.0024813896 23:0.10891089 24:0.0099255583 25:0.019851117 26:0.042183623 27:0.096534653 28:0.027295285 29:0.027295285 30:0.064356436 31:0.0099255583 32:0 33:0.074257426 34:0.014888337 35:0.022277228 36:0.0074441687 37:0.0049627792 38:0.02970297 39:0.0099255583 40:0.0049627792 41:0.069306931 42:0.019851117 43:0 44:0.029776675 45:0.089108911 46:0.019851117 47:0.012406948 48:0.059405941 49:0.017369727 50:0.0074441687 51:0.51851852 
65536 1:0.07444668 2:0.018145161 3:0.070422535 4:0.034274194 5:0.002016129 6:0.02016129 7:0.060362173 8:0.022177419 9:0.060362173 10:0.0080645161 11:0.018145161 12:0.0080645161 13:0.10462777 14:0.034274194 15:0.026209677 16:0.02016129 17:0.024193548 18:0.11871227 19:0.046370968 20:0.038306452 21:0.012072435 22:0 23:0.086519115 24:0.02016129 25:0.026209677 26:0.022177419 27:0.050301811 28:0.018145161 29:0.0080645161 30:0.036217304 31:0.014112903 32:0 33:0.06639839 34:0.024193548 35:0.034205231 36:0.014112903 37:0.0040322581 38:0.036217304 39:0.0080645161 40:0.016129032 41:0.096579477 42:0.014112903 43:0.0040322581 44:0.028225806 45:0.048289738 46:0.002016129 47:0.012096774 48:0.044265594 49:0.0040322581 50:0.0060483871 51:0.14457831 
