svm_type c_svc
kernel_type rbf
gamma 3.05176e-05
nr_class 2
total_sv 3262
rho 1.35458
label 1 -1
probA -2.72232
probB 0.954538
nr_sv 1620 1642
SV
8192 1:0.062893082 2:0.070754717 3:0.06918239 4:0.083333333 5:0.066037736 6:0.092767296 7:0.02672956 8:0.045597484 9:0.070754717 10:363 11:0.56985871 12:0.075471698 
8192 1:0.033846154 2:0.073846154 3:0.073846154 4:0.064615385 5:0.067692308 6:0.10769231 7:0.055384615 8:0.076923077 9:0.073846154 10:44 11:0.13496933 12:0.10769231 
8192 1:0.08411215 2:0.062305296 3:0.056074766 4:0.087227414 5:0.090342679 6:0.031152648 7:0.043613707 8:0.08411215 9:0.052959502 10:22 11:0.068322981 12:0.059190031 
8192 1:0.043233083 2:0.090225564 3:0.041353383 4:0.084586466 5:0.084586466 6:0.077067669 7:0.022556391 8:0.078947368 9:0.073308271 10:297 11:0.55722326 12:0.071428571 
8192 1:0.15513126 2:0.081145585 3:0.10023866 4:0.033412888 5:0.069212411 6:0.071599045 7:0.021479714 8:0.057279236 9:0.050119332 10:34 11:0.080952381 12:0.038186158 
8192 1:0.07253886 2:0.10259067 3:0.041450777 4:0.070466321 5:0.092227979 6:0.074611399 7:0.024870466 8:0.081865285 9:0.07357513 10:666 11:0.68944099 12:0.05492228 
8192 1:0.15970516 2:0.073710074 3:0.098280098 4:0.068796069 5:0.066339066 6:0.058968059 7:0.0073710074 8:0.056511057 9:0.044226044 10:408 11:1 12:0.068796069 
8192 1:0.090604027 2:0.083892617 3:0.070469799 4:0.05033557 5:0.10402685 6:0.10067114 7:0.020134228 8:0.067114094 9:0.053691275 10:72 11:0.24080268 12:0.033557047 
8192 1:0.05380117 2:0.081871345 3:0.042339181 4:0.065497076 5:0.070409357 6:0.11321637 7:0.034385965 8:0.060584795 9:0.079766082 10:3342 11:0.78157156 12:0.073216374 
8192 1:0.057333333 2:0.061333333 3:0.097333333 4:0.094666667 5:0.1 6:0.077333333 7:0.0093333333 8:0.064 9:0.046666667 10:369 11:0.49134487 12:0.074666667 
8192 1:0.086757991 2:0.073059361 3:0.04109589 4:0.084474886 5:0.095890411 6:0.052511416 7:0.0091324201 8:0.070776256 9:0.04109589 10:42 11:0.095671982 12:0.061643836 
8192 1:0.057591623 2:0.096858639 3:0.068062827 4:0.07591623 5:0.078534031 6:0.04973822 7:0.010471204 8:0.065445026 9:0.054973822 10:132 11:0.34464752 12:0.078534031 
8192 1:0.11738149 2:0.060948081 3:0.047404063 4:0.069977427 5:0.088036117 6:0.065462754 7:0.022573363 8:0.069977427 9:0.040632054 10:303 11:0.68243243 12:0.038374718 
8192 1:0.050997783 2:0.088691796 3:0.057649667 4:0.099778271 5:0.073170732 6:0.057649667 7:0.019955654 8:0.077605322 9:0.070953437 10:231 11:0.51106195 12:0.075388027 
8192 1:0.049242424 2:0.087121212 3:0.053030303 4:0.079545455 5:0.060606061 6:0.083333333 7:0.053030303 8:0.090909091 9:0.083333333 10:196 11:0.73962264 12:0.087121212 
8192 1:0.077868852 2:0.073770492 3:0.075819672 4:0.077868852 5:0.05942623 6:0.034836066 7:0.010245902 8:0.088114754 9:0.020491803 10:474 11:0.96932515 12:0.047131148 
8192 1:0.038904899 2:0.082132565 3:0.063400576 4:0.085014409 5:0.09221902 6:0.07925072 7:0.014409222 8:0.061959654 9:0.066282421 10:309 11:0.44460432 12:0.077809798 
8192 1:0.11447811 2:0.1010101 3:0.03030303 4:0.067340067 5:0.053872054 6:0.053872054 7:0.023569024 8:0.12457912 9:0.026936027 10:87 11:0.29194631 12:0.080808081 
8192 1:0.092436975 2:0.079831933 3:0.075630252 4:0.084033613 5:0.075630252 6:0.033613445 7:0.029411765 8:0.058823529 9:0.067226891 10:90 11:0.37656904 12:0.025210084 
8192 1:0.15920398 2:0.069651741 3:0.089552239 4:0.069651741 5:0.084577114 6:0.054726368 7:0 8:0.069651741 9:0.039800995 10:63 11:0.31188119 12:0.019900498 
8192 1:0.050675676 2:0.089527027 3:0.047297297 4:0.094594595 5:0.084459459 6:0.084459459 7:0.02027027 8:0.069256757 9:0.084459459 10:387 11:0.65261383 12:0.079391892 
8192 1:0.078873239 2:0.095774648 3:0.067605634 4:0.098591549 5:0.056338028 6:0.036619718 7:0.011267606 8:0.10985915 9:0.025352113 10:115 11:0.32303371 12:0.092957746 
8192 1:0.156 2:0.068 3:0.096 4:0.096 5:0.076 6:0.04 7:0.016 8:0.096 9:0.044 10:120 11:0.47808765 12:0.068 
8192 1:0.07703595 2:0.074101247 3:0.10711665 4:0.077769626 5:0.072633896 6:0.068965517 7:0.02054292 8:0.060161409 9:0.055025679 10:486 11:0.35630499 12:0.057960382 
8192 1:0.045643154 2:0.078245406 3:0.043864849 4:0.072317724 5:0.10017783 6:0.099585062 7:0.032009484 8:0.065204505 9:0.071724956 10:489 11:0.28969194 12:0.076467101 
8192 1:0.10810811 2:0.071428571 3:0.14285714 4:0.032818533 5:0.044401544 6:0.05984556 7:0.061776062 8:0.05984556 9:0.084942085 10:33 11:0.063583815 12:0.096525097 
8192 1:0.050980392 2:0.070588235 3:0.050980392 4:0.08627451 5:0.074509804 6:0.070588235 7:0.015686275 8:0.090196078 9:0.058823529 10:165 11:0.64453125 12:0.078431373 
8192 1:0.059967585 2:0.059967585 3:0.081037277 4:0.082658023 5:0.095623987 6:0.064829822 7:0.025931929 8:0.053484603 9:0.055105348 10:312 11:0.50485437 12:0.053484603 
8192 1:0.079470199 2:0.045253863 3:0.10816777 4:0.10596026 5:0.12472406 6:0.040838852 7:0.013245033 8:0.038631347 9:0.04415011 10:495 11:0.54575524 12:0.045253863 
8192 1:0.068301226 2:0.078809107 3:0.047285464 4:0.03502627 5:0.070052539 6:0.14185639 7:0.078809107 8:0.07530648 9:0.099824869 10:541 11:0.9458042 12:0.10683012 
8192 1:0.066246057 2:0.05362776 3:0.088328076 4:0.11671924 5:0.078864353 6:0.050473186 7:0.0031545741 8:0.066246057 9:0.050473186 10:318 11:1 12:0.075709779 
8192 1:0.03196347 2:0.060882801 3:0.02739726 4:0.03957382 5:0.070015221 6:0.14307458 7:0.11567732 8:0.050228311 9:0.1369863 10:72 11:0.10942249 12:0.1065449 
8192 1:0.052295918 2:0.086734694 3:0.033163265 4:0.067602041 5:0.091836735 6:0.098214286 7:0.028061224 8:0.06505102 9:0.076530612 10:354 11:0.45095541 12:0.094387755 
8192 1:0.061107938 2:0.08452313 3:0.039977156 4:0.065962307 5:0.068817818 6:0.11107938 7:0.031696174 8:0.059965734 9:0.082238721 10:2445 11:0.69797317 12:0.077384352 
8192 1:0.050209205 2:0.10251046 3:0.023012552 4:0.066945607 5:0.064853556 6:0.077405858 7:0.060669456 8:0.10460251 9:0.10251046 10:105 11:0.21920668 12:0.12761506 
8192 1:0.10992908 2:0.085106383 3:0.04964539 4:0.085106383 5:0.060283688 6:0.04964539 7:0.010638298 8:0.09929078 9:0.031914894 10:84 11:0.29681979 12:0.060283688 
8192 1:0.06557377 2:0.071038251 3:0.094717668 4:0.051001821 5:0.078324226 6:0.081967213 7:0.030965392 8:0.056466302 9:0.063752277 10:276 11:0.50181818 12:0.06557377 
8192 1:0.062015504 2:0.096899225 3:0.052325581 4:0.050387597 5:0.073643411 6:0.087209302 7:0.036821705 8:0.093023256 9:0.062015504 10:258 11:0.49903288 12:0.071705426 
8192 1:0.087289433 2:0.090352221 3:0.035222052 4:0.070444104 5:0.088820827 6:0.076569678 7:0.013782542 8:0.071975498 9:0.067381317 10:429 11:0.6559633 12:0.06431853 
8192 1:0.10676157 2:0.085409253 3:0.042704626 4:0.071174377 5:0.056939502 6:0.06405694 7:0.028469751 8:0.067615658 9:0.071174377 10:123 11:0.43617021 12:0.071174377 
8192 1:0.063432836 2:0.059701493 3:0.044776119 4:0.089552239 5:0.082089552 6:0.11567164 7:0.0074626866 8:0.089552239 9:0.048507463 10:177 11:0.65799257 12:0.070895522 
8192 1:0.059649123 2:0.073684211 3:0.087719298 4:0.063157895 5:0.052631579 6:0.042105263 7:0.038596491 8:0.073684211 9:0.049122807 10:136 11:0.47552448 12:0.13684211 
8192 1:0.079051383 2:0.086956522 3:0.075098814 4:0.059288538 5:0.090909091 6:0.039525692 7:0.0079051383 8:0.059288538 9:0.035573123 10:132 11:0.51968504 12:0.043478261 
8192 1:0.073232323 2:0.1010101 3:0.068181818 4:0.088383838 5:0.055555556 6:0.035353535 7:0.01010101 8:0.10606061 9:0.03030303 10:138 11:0.34760705 12:0.090909091 
8192 1:0.12605042 2:0.10504202 3:0.06092437 4:0.056722689 5:0.046218487 6:0.031512605 7:0.0084033613 8:0.081932773 9:0.06092437 10:225 11:0.47169811 12:0.06302521 
8192 1:0.068249258 2:0.083086053 3:0.059347181 4:0.065281899 5:0.053412463 6:0.086053412 7:0.020771513 8:0.089020772 9:0.059347181 10:189 11:0.5591716 12:0.09495549 
8192 1:0.025069638 2:0.04735376 3:0.044568245 4:0.075208914 5:0.086350975 6:0.13649025 7:0.061281337 8:0.050139276 9:0.094707521 10:177 11:0.49166667 12:0.086350975 
8192 1:0.10229645 2:0.070981211 3:0.06263048 4:0.070981211 5:0.06263048 6:0.079331942 7:0.022964509 8:0.056367432 9:0.070981211 10:480 11:1 12:0.056367432 
8192 1:0.080786026 2:0.1069869 3:0.034934498 4:0.080786026 5:0.061135371 6:0.050218341 7:0.0087336245 8:0.096069869 9:0.050218341 10:459 11:1 12:0.063318777 
8192 1:0.093150685 2:0.076712329 3:0.10684932 4:0.060273973 5:0.054794521 6:0.038356164 7:0.024657534 8:0.073972603 9:0.043835616 10:178 11:0.4863388 12:0.057534247 
8192 1:0.067137809 2:0.074204947 3:0.065371025 4:0.072438163 5:0.091872792 6:0.061837456 7:0.035335689 8:0.075971731 9:0.067137809 10:270 11:0.47619048 12:0.051236749 
8192 1:0.073634204 2:0.083135392 3:0.028503563 4:0.047505938 5:0.076009501 6:0.10926366 7:0.057007126 8:0.073634204 9:0.085510689 10:66 11:0.1563981 12:0.083135392 
8192 1:0.079575597 2:0.084880637 3:0.042440318 4:0.071618037 5:0.061007958 6:0.098143236 7:0.039787798 8:0.058355438 9:0.066312997 10:42 11:0.11111111 12:0.066312997 
8192 1:0.085714286 2:0.08 3:0.08 4:0.06 5:0.082857143 6:0.048571429 7:0.051428571 8:0.054285714 9:0.088571429 10:90 11:0.25641026 12:0.062857143 
8192 1:0.063380282 2:0.095070423 3:0.059859155 4:0.084507042 5:0.088028169 6:0.056338028 7:0.0070422535 8:0.073943662 9:0.052816901 10:78 11:0.27368421 12:0.091549296 
8192 1:0.11286089 2:0.089238845 3:0.06824147 4:0.06824147 5:0.057742782 6:0.034120735 7:0.0026246719 8:0.083989501 9:0.028871391 10:147 11:0.38481675 12:0.041994751 
8192 1:0.11881188 2:0.075907591 3:0.052805281 4:0.069306931 5:0.089108911 6:0.062706271 7:0.0099009901 8:0.069306931 9:0.056105611 10:126 11:0.41447368 12:0.056105611 
8192 1:0.060686016 2:0.094986807 3:0.023746702 4:0.081794195 5:0.068601583 6:0.071240106 7:0.036939314 8:0.071240106 9:0.089709763 10:198 11:0.52105263 12:0.084432718 
8192 1:0.049140049 2:0.071253071 3:0.054054054 4:0.10810811 5:0.093366093 6:0.049140049 7:0.01965602 8:0.073710074 9:0.068796069 10:408 11:1 12:0.093366093 
8192 1:0.061662198 2:0.079088472 3:0.073726542 4:0.060321716 5:0.058981233 6:0.077747989 7:0.058981233 8:0.073726542 9:0.092493298 10:333 11:0.44578313 12:0.10723861 
8192 1:0.082429501 2:0.082429501 3:0.078091106 4:0.056399132 5:0.080260304 6:0.062906725 7:0.023861171 8:0.071583514 9:0.045553145 10:294 11:0.63636364 12:0.043383948 
8192 1:0.057142857 2:0.078571429 3:0.060714286 4:0.096428571 5:0.067857143 6:0.067857143 7:0.032142857 8:0.064285714 9:0.075 10:167 11:0.59430605 12:0.082142857 
8192 1:0.032036613 2:0.084668192 3:0.025171625 4:0.089244851 5:0.11441648 6:0.11441648 7:0.022883295 8:0.070938215 9:0.089244851 10:228 11:0.52054795 12:0.077803204 
8192 1:0.0523918 2:0.075170843 3:0.06833713 4:0.072892938 5:0.066059226 6:0.0523918 7:0.045558087 8:0.061503417 9:0.054669704 10:183 11:0.41590909 12:0.082004556 
8192 1:0.075471698 2:0.088948787 3:0.086253369 4:0.064690027 5:0.067385445 6:0.070080863 7:0.02425876 8:0.061994609 9:0.059299191 10:48 11:0.12903226 12:0.070080863 
8192 1:0.047393365 2:0.078199052 3:0.049763033 4:0.073459716 5:0.11848341 6:0.09478673 7:0.009478673 8:0.061611374 9:0.063981043 10:144 11:0.34042553 12:0.049763033 
8192 1:0.050666667 2:0.093333333 3:0.026666667 4:0.074666667 5:0.08 6:0.11733333 7:0.021333333 8:0.074666667 9:0.074666667 10:98 11:0.2606383 12:0.090666667 
8192 1:0.045289855 2:0.097826087 3:0.032608696 4:0.086956522 5:0.09057971 6:0.072463768 7:0.019927536 8:0.06884058 9:0.076086957 10:243 11:0.43942134 12:0.06884058 
8192 1:0.054368932 2:0.06407767 3:0.077669903 4:0.095145631 5:0.069902913 6:0.05631068 7:0.011650485 8:0.073786408 9:0.044660194 10:465 11:0.90116279 12:0.06407767 
8192 1:0.06557377 2:0.075819672 3:0.084016393 4:0.094262295 5:0.088114754 6:0.05942623 7:0.0081967213 8:0.077868852 9:0.038934426 10:39 11:0.079754601 12:0.045081967 
8192 1:0.068965517 2:0.066312997 3:0.047745358 4:0.1193634 5:0.066312997 6:0.029177719 7:0.013262599 8:0.10344828 9:0.042440318 10:258 11:0.68253968 12:0.071618037 
8192 1:0.096463023 2:0.093247588 3:0.057877814 4:0.07073955 5:0.07073955 6:0.077170418 7:0.01607717 8:0.073954984 9:0.054662379 10:204 11:0.65384615 12:0.061093248 
8192 1:0.053527981 2:0.085158151 3:0.03892944 4:0.10218978 5:0.090024331 6:0.058394161 7:0.01946472 8:0.10462287 9:0.0486618 10:180 11:0.4368932 12:0.080291971 
8192 1:0.063157895 2:0.094736842 3:0.042105263 4:0.056140351 5:0.073684211 6:0.080701754 7:0.024561404 8:0.073684211 9:0.056140351 10:132 11:0.46153846 12:0.10877193 
8192 1:0.055299539 2:0.11290323 3:0.039170507 4:0.099078341 5:0.071428571 6:0.066820276 7:0.034562212 8:0.10599078 9:0.080645161 10:381 11:0.87586207 12:0.089861751 
8192 1:0.042492918 2:0.084985836 3:0.076487252 4:0.093484419 5:0.079320113 6:0.079320113 7:0.02266289 8:0.062322946 9:0.073654391 10:354 11:1 12:0.07082153 
8192 1:0.037707391 2:0.076923077 3:0.031674208 4:0.078431373 5:0.1040724 6:0.10859729 7:0.04826546 8:0.057315234 9:0.095022624 10:330 11:0.49698795 12:0.087481146 
8192 1:0.092987805 2:0.077743902 3:0.096036585 4:0.077743902 5:0.082317073 6:0.054878049 7:0.013719512 8:0.071646341 9:0.051829268 10:306 11:0.46575342 12:0.051829268 
8192 1:0.067097817 2:0.068310428 3:0.12287793 4:0.088924818 5:0.080032336 6:0.062651576 7:0.0072756669 8:0.061843169 9:0.046483428 10:993 11:0.40121212 12:0.054971706 
8192 1:0.048780488 2:0.069105691 3:0.073170732 4:0.06097561 5:0.073170732 6:0.081300813 7:0.044715447 8:0.048780488 9:0.069105691 10:60 11:0.24291498 12:0.06504065 
8192 1:0.026785714 2:0.069642857 3:0.0375 4:0.098214286 5:0.10178571 6:0.10357143 7:0.035714286 8:0.053571429 9:0.0875 10:504 11:0.89839572 12:0.080357143 
8192 1:0.085106383 2:0.075797872 3:0.069148936 4:0.087765957 5:0.079787234 6:0.059840426 7:0.0026595745 8:0.069148936 9:0.045212766 10:492 11:0.65338645 12:0.049202128 
8192 1:0.061403509 2:0.076754386 3:0.059210526 4:0.078947368 5:0.074561404 6:0.076754386 7:0.026315789 8:0.063596491 9:0.057017544 10:216 11:0.4726477 12:0.087719298 
8192 1:0.042780749 2:0.08912656 3:0.019607843 4:0.057040998 5:0.065953654 6:0.12299465 7:0.067736185 8:0.064171123 9:0.11229947 10:258 11:0.45907473 12:0.081996435 
8192 1:0.091891892 2:0.1027027 3:0.045945946 4:0.083783784 5:0.078378378 6:0.048648649 7:0.010810811 8:0.089189189 9:0.067567568 10:216 11:0.58221024 12:0.072972973 
8192 1:0.043859649 2:0.073099415 3:0.011695906 4:0.055555556 5:0.058479532 6:0.15497076 7:0.090643275 8:0.078947368 9:0.11695906 10:93 11:0.27113703 12:0.090643275 
8192 1:0.035190616 2:0.06744868 3:0.046920821 4:0.073313783 5:0.082111437 6:0.12316716 7:0.041055718 8:0.061583578 9:0.070381232 10:222 11:0.64912281 12:0.076246334 
8192 1:0.10195228 2:0.069414317 3:0.056399132 4:0.088937093 5:0.052060738 6:0.056399132 7:0.019522777 8:0.086767896 9:0.036876356 10:213 11:0.46103896 12:0.043383948 
8192 1:0.053465347 2:0.059405941 3:0.023762376 4:0.053465347 5:0.067326733 6:0.11881188 7:0.095049505 8:0.065346535 9:0.10891089 10:363 11:0.7173913 12:0.1009901 
8192 1:0.093406593 2:0.063186813 3:0.071428571 4:0.082417582 5:0.071428571 6:0.06043956 7:0.032967033 8:0.052197802 9:0.065934066 10:156 11:0.42739726 12:0.046703297 
8192 1:0.11538462 2:0.070135747 3:0.074660633 4:0.083710407 5:0.076923077 6:0.070135747 7:0.0045248869 8:0.06561086 9:0.049773756 10:198 11:0.4469526 12:0.040723982 
8192 1:0.047619048 2:0.11375661 3:0.068783069 4:0.082010582 5:0.060846561 6:0.037037037 7:0.034391534 8:0.10582011 9:0.047619048 10:105 11:0.27704485 12:0.10846561 
8192 1:0.073426573 2:0.090909091 3:0.087412587 4:0.097902098 5:0.066433566 6:0.041958042 7:0.020979021 8:0.1048951 9:0.055944056 10:79 11:0.27526132 12:0.045454545 
8192 1:0.059808612 2:0.093301435 3:0.052631579 4:0.090909091 5:0.088516746 6:0.11004785 7:0.004784689 8:0.10047847 9:0.059808612 10:249 11:0.59427208 12:0.064593301 
8192 1:0.081481481 2:0.11604938 3:0.044444444 4:0.059259259 5:0.051851852 6:0.037037037 7:0.027160494 8:0.10123457 9:0.051851852 10:201 11:0.49507389 12:0.079012346 
8192 1:0.075 2:0.061111111 3:0.077777778 4:0.097222222 5:0.080555556 6:0.069444444 7:0.016666667 8:0.061111111 9:0.052777778 10:144 11:0.39889197 12:0.061111111 
8192 1:0.066820276 2:0.10368664 3:0.050691244 4:0.071428571 5:0.057603687 6:0.055299539 7:0.046082949 8:0.085253456 9:0.087557604 10:117 11:0.26896552 12:0.11059908 
8192 1:0.064777328 2:0.10526316 3:0.04048583 4:0.052631579 5:0.074898785 6:0.068825911 7:0.01417004 8:0.078947368 9:0.052631579 10:201 11:0.40606061 12:0.070850202 
8192 1:0.044703001 2:0.066748316 3:0.04898959 4:0.083282303 5:0.11206369 6:0.098591549 7:0.022045315 8:0.058175138 9:0.071647275 10:486 11:0.29742962 12:0.077770974 
8192 1:0.057142857 2:0.083809524 3:0.066666667 4:0.081904762 5:0.083809524 6:0.081904762 7:0.020952381 8:0.07047619 9:0.066666667 10:473 11:0.89923954 12:0.07047619 
8192 1:0.052064632 2:0.080789946 3:0.057450628 4:0.087971275 5:0.077199282 6:0.078994614 7:0.021543986 8:0.053859964 9:0.091561939 10:430 11:0.77060932 12:0.08438061 
8192 1:0.03564728 2:0.046904315 3:0.039399625 4:0.03564728 5:0.082551595 6:0.14634146 7:0.11069418 8:0.030018762 9:0.12570356 10:60 11:0.11235955 12:0.084427767 
8192 1:0.075794621 2:0.08801956 3:0.073349633 4:0.068459658 5:0.073349633 6:0.048899756 7:0.024449878 8:0.083129584 9:0.04400978 10:219 11:0.53414634 12:0.080684597 
8192 1:0.109375 2:0.067708333 3:0.096354167 4:0.078125 5:0.0703125 6:0.044270833 7:0.028645833 8:0.0703125 9:0.075520833 10:147 11:0.38181818 12:0.0546875 
8192 1:0.10227273 2:0.073863636 3:0.036931818 4:0.059659091 5:0.0625 6:0.034090909 7:0.059659091 8:0.065340909 9:0.076704545 10:45 11:0.12747875 12:0.082386364 
8192 1:0.1 2:0.091304348 3:0.073913043 4:0.073913043 5:0.073913043 6:0.073913043 7:0 8:0.060869565 9:0.052173913 10:117 11:0.50649351 12:0.052173913 
8192 1:0.028708134 2:0.086124402 3:0.040669856 4:0.078947368 5:0.052631579 6:0.057416268 7:0.040669856 8:0.066985646 9:0.083732057 10:225 11:0.53699284 12:0.14832536 
8192 1:0.082758621 2:0.089655172 3:0.05862069 4:0.082758621 5:0.093103448 6:0.055172414 7:0.024137931 8:0.093103448 9:0.068965517 10:78 11:0.26804124 12:0.068965517 
8192 1:0.1006865 2:0.084668192 3:0.070938215 4:0.077803204 5:0.082379863 6:0.061784897 7:0.0091533181 8:0.068649886 9:0.050343249 10:231 11:0.52739726 12:0.043478261 
8192 1:0.094512195 2:0.070121951 3:0.054878049 4:0.088414634 5:0.076219512 6:0.042682927 7:0.012195122 8:0.091463415 9:0.036585366 10:99 11:0.30091185 12:0.073170732 
8192 1:0.068767908 2:0.088825215 3:0.048710602 4:0.11461318 5:0.085959885 6:0.045845272 7:0.0085959885 8:0.088825215 9:0.06017192 10:186 11:0.53142857 12:0.097421203 
8192 1:0.03649635 2:0.083941606 3:0.076642336 4:0.065693431 5:0.091240876 6:0.083941606 7:0.02189781 8:0.072992701 9:0.04379562 10:141 11:0.51272727 12:0.072992701 
8192 1:0.12713472 2:0.15559772 3:0.09487666 4:0.070208729 5:0.032258065 6:0.009487666 7:0.0037950664 8:0.15749526 9:0.022770398 10:465 11:0.88068182 12:0.049335863 
8192 1:0.078817734 2:0.096059113 3:0.049261084 4:0.096059113 5:0.081280788 6:0.044334975 7:0.0073891626 8:0.068965517 9:0.073891626 10:147 11:0.36117936 12:0.056650246 
8192 1:0.11724138 2:0.079310345 3:0.093103448 4:0.068965517 5:0.048275862 6:0.034482759 7:0.013793103 8:0.075862069 9:0.027586207 10:135 11:0.46391753 12:0.04137931 
8192 1:0.056768559 2:0.10480349 3:0.052401747 4:0.069868996 5:0.077147016 6:0.088791849 7:0.020378457 8:0.08588064 9:0.066957787 10:444 11:0.64534884 12:0.08588064 
8192 1:0.05092091 2:0.088840737 3:0.05092091 4:0.071505959 5:0.085590466 6:0.10617551 7:0.020585049 8:0.068255688 9:0.06283857 10:447 11:0.48376623 12:0.07475623 
8192 1:0.053872054 2:0.094276094 3:0.04040404 4:0.080808081 5:0.094276094 6:0.060606061 7:0.02020202 8:0.094276094 9:0.057239057 10:33 11:0.11073826 12:0.094276094 
8192 1:0.04622871 2:0.082725061 3:0.065693431 4:0.080291971 5:0.060827251 6:0.055961071 7:0.03892944 8:0.080291971 9:0.077858881 10:202 11:0.49029126 12:0.092457421 
8192 1:0.044776119 2:0.074626866 3:0.053304904 4:0.087420043 5:0.078891258 6:0.091684435 7:0.017057569 8:0.063965885 9:0.07249467 10:267 11:0.56808511 12:0.059701493 
8192 1:0.12571429 2:0.072 3:0.082285714 4:0.064 5:0.068571429 6:0.054857143 7:0.0068571429 8:0.072 9:0.030857143 10:465 11:0.53082192 12:0.048 
8192 1:0.039443155 2:0.083526682 3:0.053364269 4:0.09512761 5:0.09512761 6:0.083526682 7:0.013921114 8:0.039443155 9:0.09512761 10:432 11:1 12:0.053364269 
8192 1:0.01369863 2:0.065753425 3:0.016438356 4:0.079452055 5:0.065753425 6:0.15342466 7:0.01369863 8:0.057534247 9:0.063013699 10:156 11:0.42622951 12:0.11232877 
8192 1:0.046831956 2:0.063360882 3:0.055096419 4:0.085399449 5:0.08815427 6:0.11019284 7:0.019283747 8:0.041322314 9:0.082644628 10:249 11:0.68406593 12:0.044077135 
8192 1:0.032835821 2:0.068656716 3:0.062686567 4:0.065671642 5:0.095522388 6:0.086567164 7:0.047761194 8:0.059701493 9:0.071641791 10:45 11:0.13392857 12:0.086567164 
8192 1:0.056930693 2:0.084158416 3:0.017326733 4:0.079207921 5:0.084158416 6:0.064356436 7:0.027227723 8:0.076732673 9:0.076732673 10:111 11:0.27407407 12:0.084158416 
8192 1:0.032490975 2:0.061371841 3:0.070397112 4:0.084837545 5:0.07400722 6:0.11191336 7:0.05234657 8:0.055956679 9:0.083032491 10:318 11:0.57297297 12:0.081227437 
8192 1:0.0671875 2:0.1015625 3:0.053125 4:0.0890625 5:0.053125 6:0.065625 7:0.0125 8:0.0765625 9:0.071875 10:363 11:0.56630265 12:0.0671875 
8192 1:0.034712951 2:0.069425901 3:0.044058745 4:0.054739653 5:0.072096128 6:0.11748999 7:0.081441923 8:0.05740988 9:0.11081442 10:405 11:0.54 12:0.10146862 
8192 1:0.072289157 2:0.076592083 3:0.095524957 4:0.095524957 5:0.06454389 6:0.056798623 7:0.014629948 8:0.067125645 9:0.053356282 10:432 11:0.37145314 12:0.055938038 
8192 1:0.091666667 2:0.041666667 3:0.091666667 4:0.0875 5:0.070833333 6:0.075 7:0.0083333333 8:0.041666667 9:0.033333333 10:126 11:0.52282158 12:0.05 
8192 1:0.067375887 2:0.067375887 3:0.04964539 4:0.072695035 5:0.060283688 6:0.10815603 7:0.023049645 8:0.046099291 9:0.070921986 10:312 11:0.55221239 12:0.074468085 
8192 1:0.086075949 2:0.086075949 3:0.032911392 4:0.075949367 5:0.083544304 6:0.053164557 7:0.02278481 8:0.075949367 9:0.060759494 10:131 11:0.33080808 12:0.075949367 
8192 1:0.079207921 2:0.076732673 3:0.066831683 4:0.069306931 5:0.081683168 6:0.081683168 7:0.024752475 8:0.071782178 9:0.059405941 10:165 11:0.40740741 12:0.064356436 
8192 1:0.054174067 2:0.073712256 3:0.041740675 4:0.079040853 5:0.076376554 6:0.095914742 7:0.041740675 8:0.06660746 9:0.076376554 10:429 11:0.38065661 12:0.08348135 
8192 1:0.078212291 2:0.078212291 3:0.053072626 4:0.075418994 5:0.092178771 6:0.10055866 7:0.01396648 8:0.081005587 9:0.044692737 10:123 11:0.34261838 12:0.094972067 
8192 1:0.11046512 2:0.066860465 3:0.11627907 4:0.072674419 5:0.075581395 6:0.029069767 7:0.0058139535 8:0.058139535 9:0.037790698 10:258 11:0.74782609 12:0.055232558 
8192 1:0.018939394 2:0.062121212 3:0.03030303 4:0.084848485 5:0.066666667 6:0.12651515 7:0.088636364 8:0.063636364 9:0.11969697 10:1260 11:0.95382286 12:0.11818182 
8192 1:0.082352941 2:0.061176471 3:0.030588235 4:0.070588235 5:0.056470588 6:0.091764706 7:0.063529412 8:0.087058824 9:0.077647059 10:30 11:0.070422535 12:0.068235294 
8192 1:0.075885329 2:0.075885329 3:0.048903879 4:0.082630691 5:0.067453626 6:0.070826307 7:0.030354132 8:0.064080944 9:0.065767285 10:261 11:0.43939394 12:0.062394604 
8192 1:0.089698046 2:0.054174067 3:0.10834813 4:0.080817052 5:0.077264654 6:0.045293073 7:0.013321492 8:0.04973357 9:0.045293073 10:876 11:0.77728483 12:0.052397869 
8192 1:0.043243243 2:0.07027027 3:0.054054054 4:0.072972973 5:0.078378378 6:0.14054054 7:0.040540541 8:0.051351351 9:0.094594595 10:117 11:0.31536388 12:0.054054054 
8192 1:0.14847162 2:0.10043668 3:0.034934498 4:0.052401747 5:0.091703057 6:0.065502183 7:0.0087336245 8:0.07860262 9:0.043668122 10:75 11:0.32608696 12:0.061135371 
8192 1:0.088311688 2:0.077922078 3:0.079220779 4:0.080519481 5:0.087012987 6:0.068831169 7:0.012987013 8:0.072727273 9:0.044155844 10:357 11:0.46303502 12:0.053246753 
8192 1:0.039634146 2:0.070121951 3:0.073170732 4:0.076219512 5:0.082317073 6:0.12195122 7:0.018292683 8:0.06097561 9:0.070121951 10:165 11:0.50151976 12:0.088414634 
8192 1:0.097363083 2:0.085192698 3:0.050709939 4:0.070993915 5:0.087221095 6:0.073022312 7:0.0060851927 8:0.07505071 9:0.046653144 10:226 11:0.45748988 12:0.040567951 
8192 1:0.08797654 2:0.085043988 3:0.085043988 4:0.076246334 5:0.079178886 6:0.052785924 7:0.014662757 8:0.076246334 9:0.052785924 10:129 11:0.37719298 12:0.049853372 
8192 1:0.079310345 2:0.11034483 3:0.062068966 4:0.072413793 5:0.05862069 6:0.055172414 7:0.017241379 8:0.10344828 9:0.05862069 10:126 11:0.43298969 12:0.062068966 
8192 1:0.064846416 2:0.064846416 3:0.058020478 4:0.058020478 5:0.075085324 6:0.081911263 7:0.051194539 8:0.064846416 9:0.078498294 10:66 11:0.2244898 12:0.092150171 
8192 1:0.10282258 2:0.10282258 3:0.048387097 4:0.076612903 5:0.050403226 6:0.054435484 7:0.0040322581 8:0.10887097 9:0.044354839 10:237 11:0.47686117 12:0.094758065 
8192 1:0.056179775 2:0.081460674 3:0.06741573 4:0.084269663 5:0.081460674 6:0.12359551 7:0.019662921 8:0.061797753 9:0.070224719 10:51 11:0.14285714 12:0.042134831 
8192 1:0.099750623 2:0.097256858 3:0.069825436 4:0.06234414 5:0.054862843 6:0.047381546 7:0.0074812968 8:0.082294264 9:0.037406484 10:267 11:0.6641791 12:0.054862843 
8192 1:0.08195122 2:0.051707317 3:0.12 4:0.071219512 5:0.082926829 6:0.046829268 7:0.0048780488 8:0.050731707 9:0.028292683 10:1026 11:1 12:0.033170732 
8192 1:0.040816327 2:0.07518797 3:0.051557465 4:0.093447905 5:0.08915145 6:0.083780881 7:0.025778733 8:0.07518797 9:0.060150376 10:696 11:0.74678112 12:0.091299678 
8192 1:0.080555556 2:0.083333333 3:0.027777778 4:0.086111111 5:0.080555556 6:0.086111111 7:0.030555556 8:0.1 9:0.061111111 10:144 11:0.39889197 12:0.033333333 
8192 1:0.11221945 2:0.052369077 3:0.069825436 4:0.057356608 5:0.069825436 6:0.08478803 7:0.052369077 8:0.049875312 9:0.079800499 10:132 11:0.32835821 12:0.074812968 
8192 1:0.061443932 2:0.10599078 3:0.039938556 4:0.070660522 5:0.059907834 6:0.10291859 7:0.02764977 8:0.096774194 9:0.061443932 10:553 11:0.84815951 12:0.052227343 
8192 1:0.034398034 2:0.098280098 3:0.044226044 4:0.090909091 5:0.085995086 6:0.061425061 7:0.0073710074 8:0.1007371 9:0.056511057 10:150 11:0.36764706 12:0.13267813 
8192 1:0.024866785 2:0.058614565 3:0.044404973 4:0.078152753 5:0.090586146 6:0.10124334 7:0.071047957 8:0.042628774 9:0.11722913 10:354 11:0.62765957 12:0.10834813 
8192 1:0.061135371 2:0.096069869 3:0.050218341 4:0.072052402 5:0.082969432 6:0.093886463 7:0.010917031 8:0.091703057 9:0.045851528 10:186 11:0.40522876 12:0.074235808 
8192 1:0.12543554 2:0.073170732 3:0.059233449 4:0.090592334 5:0.059233449 6:0.031358885 7:0 8:0.066202091 9:0.017421603 10:96 11:0.33333333 12:0.055749129 
8192 1:0.067524116 2:0.08681672 3:0.12861736 4:0.073954984 5:0.067524116 6:0.041800643 7:0.0096463023 8:0.054662379 9:0.048231511 10:123 11:0.39423077 12:0.057877814 
8192 1:0.032520325 2:0.099593496 3:0.038617886 4:0.075203252 5:0.079268293 6:0.079268293 7:0.044715447 8:0.077235772 9:0.099593496 10:147 11:0.29817444 12:0.10772358 
8192 1:0.047619048 2:0.066137566 3:0.084656085 4:0.05952381 5:0.075396825 6:0.088624339 7:0.05952381 8:0.064814815 9:0.087301587 10:378 11:0.4993395 12:0.08994709 
8192 1:0.058577406 2:0.075313808 3:0.087866109 4:0.11715481 5:0.083682008 6:0.054393305 7:0.012552301 8:0.10041841 9:0.058577406 10:114 11:0.475 12:0.062761506 
8192 1:0.059190031 2:0.08411215 3:0.059190031 4:0.068535826 5:0.11214953 6:0.068535826 7:0.015576324 8:0.07788162 9:0.049844237 10:159 11:0.49378882 12:0.080996885 
8192 1:0.024456522 2:0.076086957 3:0.043478261 4:0.065217391 5:0.12771739 6:0.16032609 7:0.019021739 8:0.051630435 9:0.081521739 10:84 11:0.22764228 12:0.043478261 
8192 1:0.10571429 2:0.12285714 3:0.062857143 4:0.065714286 5:0.048571429 6:0.02 7:0.022857143 8:0.12285714 9:0.04 10:129 11:0.36752137 12:0.091428571 
8192 1:0.089285714 2:0.109375 3:0.040178571 4:0.049107143 5:0.0625 6:0.0625 7:0.040178571 8:0.095982143 9:0.078125 10:135 11:0.30066815 12:0.078125 
8192 1:0.055319149 2:0.080851064 3:0.086524823 4:0.10212766 5:0.062411348 6:0.04822695 7:0.028368794 8:0.080851064 9:0.056737589 10:372 11:0.52691218 12:0.063829787 
8192 1:0.07480315 2:0.098425197 3:0.039370079 4:0.062992126 5:0.082677165 6:0.096456693 7:0.0098425197 8:0.072834646 9:0.06496063 10:247 11:0.48526523 12:0.06496063 
8192 1:0.047904192 2:0.074850299 3:0.074850299 4:0.11676647 5:0.10778443 6:0.035928144 7:0.02994012 8:0.074850299 9:0.077844311 10:84 11:0.25074627 12:0.083832335 
8192 1:0.042094456 2:0.074948665 3:0.044147844 4:0.09650924 5:0.084188912 6:0.077002053 7:0.015400411 8:0.058521561 9:0.066735113 10:408 11:0.41846154 12:0.067761807 
8192 1:0.080291971 2:0.075425791 3:0.068126521 4:0.068126521 5:0.087591241 6:0.087591241 7:0.00486618 8:0.065693431 9:0.055961071 10:201 11:0.48786408 12:0.053527981 
8192 1:0.050813008 2:0.089430894 3:0.032520325 4:0.079268293 5:0.10569106 6:0.077235772 7:0.016260163 8:0.083333333 9:0.058943089 10:357 11:0.72413793 12:0.091463415 
8192 1:0.11294766 2:0.08815427 3:0.019283747 4:0.08815427 5:0.05785124 6:0.046831956 7:0.0027548209 8:0.085399449 9:0.038567493 10:126 11:0.34615385 12:0.096418733 
8192 1:0.04009434 2:0.089622642 3:0.054245283 4:0.087264151 5:0.12028302 6:0.061320755 7:0.018867925 8:0.08254717 9:0.058962264 10:222 11:0.52235294 12:0.087264151 
8192 1:0.08716707 2:0.092009685 3:0.055690073 4:0.082324455 5:0.070217918 6:0.05811138 7:0.021791768 8:0.10169492 9:0.03874092 10:138 11:0.33333333 12:0.08716707 
8192 1:0.02994012 2:0.049401198 3:0.020958084 4:0.02994012 5:0.070359281 6:0.16916168 7:0.12125749 8:0.046407186 9:0.13772455 10:225 11:0.33632287 12:0.11377246 
8192 1:0.06185567 2:0.089347079 3:0.072164948 4:0.082474227 5:0.10309278 6:0.082474227 7:0.027491409 8:0.06185567 9:0.085910653 10:72 11:0.24657534 12:0.065292096 
8192 1:0.10153257 2:0.097701149 3:0.017241379 4:0.055555556 5:0.063218391 6:0.08045977 7:0.026819923 8:0.08045977 9:0.078544061 10:266 11:0.50860421 12:0.099616858 
8192 1:0.10559006 2:0.052795031 3:0.052795031 4:0.10559006 5:0.083850932 6:0.071428571 7:0.0062111801 8:0.071428571 9:0.052795031 10:141 11:0.43653251 12:0.046583851 
8192 1:0.051948052 2:0.1038961 3:0.058441558 4:0.094155844 5:0.071428571 6:0.061688312 7:0.016233766 8:0.097402597 9:0.064935065 10:90 11:0.29126214 12:0.10714286 
8192 1:0.036281179 2:0.10430839 3:0.027210884 4:0.049886621 5:0.052154195 6:0.077097506 7:0.065759637 8:0.077097506 9:0.079365079 10:312 11:0.70588235 12:0.0861678 
8192 1:0.038535645 2:0.082851638 3:0.05973025 4:0.073217726 5:0.08477842 6:0.077071291 7:0.034682081 8:0.057803468 9:0.075144509 10:246 11:0.47307692 12:0.069364162 
8192 1:0.061946903 2:0.084070796 3:0.075221239 4:0.061946903 5:0.07079646 6:0.061946903 7:0.0044247788 8:0.066371681 9:0.039823009 10:120 11:0.52863436 12:0.079646018 
8192 1:0.070680628 2:0.083769634 3:0.065445026 4:0.094240838 5:0.052356021 6:0.068062827 7:0.031413613 8:0.094240838 9:0.054973822 10:201 11:0.52480418 12:0.078534031 
8192 1:0.051150895 2:0.071611253 3:0.023017903 4:0.097186701 5:0.084398977 6:0.11253197 7:0.058823529 8:0.081841432 9:0.097186701 10:159 11:0.40561224 12:0.076726343 
8192 1:0.021238938 2:0.053097345 3:0.026548673 4:0.07079646 5:0.072566372 6:0.12212389 7:0.090265487 8:0.065486726 9:0.10442478 10:135 11:0.2385159 12:0.084955752 
8192 1:0.04432133 2:0.099722992 3:0.030470914 4:0.074792244 5:0.083102493 6:0.10249307 7:0.03601108 8:0.069252078 9:0.10526316 10:280 11:0.77348066 12:0.10526316 
8192 1:0.077201448 2:0.091676719 3:0.061519903 4:0.074788902 5:0.063932449 6:0.037394451 7:0.018094089 8:0.072376357 9:0.048250905 10:369 11:0.44457831 12:0.071170084 
8192 1:0.023255814 2:0.074935401 3:0.031007752 4:0.082687339 5:0.069767442 6:0.11369509 7:0.041343669 8:0.051679587 9:0.093023256 10:282 11:0.72680412 12:0.11627907 
8192 1:0.11325301 2:0.091566265 3:0.057831325 4:0.072289157 5:0.065060241 6:0.043373494 7:0.0024096386 8:0.084337349 9:0.026506024 10:198 11:0.47596154 12:0.053012048 
8192 1:0.089201878 2:0.034428795 3:0.10641628 4:0.079812207 5:0.078247261 6:0.040688576 7:0.0062597809 8:0.054773083 9:0.037558685 10:433 11:0.6765625 12:0.034428795 
8192 1:0.079872204 2:0.099041534 3:0.012779553 4:0.047923323 5:0.076677316 6:0.079872204 7:0.031948882 8:0.095846645 9:0.051118211 10:90 11:0.2866242 12:0.067092652 
8192 1:0.05945122 2:0.11737805 3:0.030487805 4:0.056402439 5:0.074695122 6:0.083841463 7:0.021341463 8:0.088414634 9:0.076219512 10:417 11:0.6347032 12:0.086890244 
8192 1:0.069105691 2:0.074186992 3:0.066056911 4:0.086382114 5:0.090447154 6:0.075203252 7:0.017276423 8:0.073170732 9:0.06097561 10:420 11:0.42639594 12:0.06097561 
8192 1:0.091168091 2:0.074074074 3:0.042735043 4:0.076923077 5:0.085470085 6:0.091168091 7:0.011396011 8:0.085470085 9:0.048433048 10:162 11:0.46022727 12:0.051282051 
8192 1:0.048843188 2:0.092544987 3:0.048843188 4:0.092544987 5:0.071979434 6:0.061696658 7:0.023136247 8:0.079691517 9:0.06940874 10:93 11:0.23846154 12:0.089974293 
8192 1:0.12200436 2:0.08496732 3:0.037037037 4:0.076252723 5:0.069716776 6:0.039215686 7:0.019607843 8:0.093681917 9:0.037037037 10:222 11:0.4826087 12:0.054466231 
8192 1:0.075409836 2:0.095081967 3:0.068852459 4:0.078688525 5:0.091803279 6:0.072131148 7:0.006557377 8:0.072131148 9:0.068852459 10:120 11:0.39215686 12:0.06557377 
8192 1:0.081967213 2:0.092896175 3:0.049180328 4:0.06284153 5:0.068306011 6:0.06284153 7:0.016393443 8:0.090163934 9:0.054644809 10:190 11:0.51771117 12:0.06284153 
8192 1:0.07967033 2:0.070054945 3:0.052197802 4:0.057692308 5:0.075549451 6:0.089285714 7:0.057692308 8:0.065934066 9:0.068681319 10:417 11:0.57201646 12:0.068681319 
8192 1:0.071428571 2:0.075 3:0.053571429 4:0.082142857 5:0.078571429 6:0.039285714 7:0.021428571 8:0.071428571 9:0.028571429 10:105 11:0.37366548 12:0.089285714 
8192 1:0.056022409 2:0.075630252 3:0.075630252 4:0.10084034 5:0.1092437 6:0.06162465 7:0.0056022409 8:0.070028011 9:0.06162465 10:186 11:0.51955307 12:0.075630252 
8192 1:0.094890511 2:0.089416058 3:0.032846715 4:0.080291971 5:0.087591241 6:0.058394161 7:0.020072993 8:0.089416058 9:0.054744526 10:288 11:0.52459016 12:0.054744526 
8192 1:0.042372881 2:0.059322034 3:0.088983051 4:0.093220339 5:0.10169492 6:0.088983051 7:0.012711864 8:0.059322034 9:0.050847458 10:237 11:1 12:0.059322034 
8192 1:0.043010753 2:0.064516129 3:0.034946237 4:0.064516129 5:0.080645161 6:0.096774194 7:0.075268817 8:0.059139785 9:0.096774194 10:181 11:0.48525469 12:0.077956989 
8192 1:0.059701493 2:0.074626866 3:0.081023454 4:0.08315565 5:0.08315565 6:0.042643923 7:0.034115139 8:0.081023454 9:0.061833689 10:279 11:0.59361702 12:0.085287846 
8192 1:0.035469108 2:0.065217391 3:0.053775744 4:0.077803204 5:0.086956522 6:0.10297483 7:0.04576659 8:0.04805492 9:0.092677346 10:405 11:0.46285714 12:0.098398169 
8192 1:0.087155963 2:0.050458716 3:0.10550459 4:0.073394495 5:0.064220183 6:0.064220183 7:0.013761468 8:0.059633028 9:0.032110092 10:84 11:0.38356164 12:0.041284404 
8192 1:0.076056338 2:0.095774648 3:0.067605634 4:0.10140845 5:0.050704225 6:0.033802817 7:0.0084507042 8:0.10704225 9:0.028169014 10:115 11:0.32303371 12:0.090140845 
8192 1:0.11538462 2:0.071005917 3:0.032544379 4:0.082840237 5:0.065088757 6:0.050295858 7:0.0088757396 8:0.085798817 9:0.053254438 10:129 11:0.38053097 12:0.050295858 
8192 1:0.050813008 2:0.099593496 3:0.034552846 4:0.075203252 5:0.099593496 6:0.089430894 7:0.020325203 8:0.091463415 9:0.06300813 10:303 11:0.61460446 12:0.085365854 
8192 1:0.093645485 2:0.12040134 3:0.023411371 4:0.090301003 5:0.066889632 6:0.046822742 7:0.010033445 8:0.12040134 9:0.060200669 10:48 11:0.16 12:0.086956522 
8192 1:0.039787798 2:0.063660477 3:0.051724138 4:0.068965517 5:0.095490716 6:0.12201592 7:0.046419098 8:0.059681698 9:0.080901857 10:579 11:0.76688742 12:0.063660477 
8192 1:0.049335863 2:0.09487666 3:0.056925996 4:0.087286528 5:0.064516129 6:0.083491461 7:0.032258065 8:0.066413662 9:0.092979127 10:231 11:0.4375 12:0.09487666 
8192 1:0.048507463 2:0.095149254 3:0.031716418 4:0.063432836 5:0.09141791 6:0.12313433 7:0.037313433 8:0.069029851 9:0.083955224 10:255 11:0.47486034 12:0.048507463 
8192 1:0.10672854 2:0.083526682 3:0.05800464 4:0.076566125 5:0.062645012 6:0.055684455 7:0.020881671 8:0.099767981 9:0.034802784 10:255 11:0.59027778 12:0.07424594 
8192 1:0.11111111 2:0.052631579 3:0.12460639 4:0.081421502 5:0.057579847 6:0.032838507 7:0.0058479532 8:0.055780477 9:0.029239766 10:726 11:0.32643885 12:0.039136302 
8192 1:0.026634383 2:0.062953995 3:0.041162228 4:0.075060533 5:0.10653753 6:0.0968523 7:0.036319613 8:0.053268765 9:0.075060533 10:414 11:1 12:0.094430993 
8192 1:0.14462299 2:0.079110012 3:0.044499382 4:0.063040791 5:0.064276885 6:0.038318912 7:0.0098887515 8:0.085290482 9:0.027194067 10:717 11:0.88518519 12:0.035846724 
8192 1:0.078282828 2:0.080808081 3:0.078282828 4:0.075757576 5:0.098484848 6:0.055555556 7:0.03030303 8:0.073232323 9:0.058080808 10:204 11:0.5138539 12:0.047979798 
8192 1:0.051339286 2:0.087053571 3:0.046875 4:0.091517857 5:0.080357143 6:0.10044643 7:0.024553571 8:0.073660714 9:0.073660714 10:132 11:0.29398664 12:0.10044643 
8192 1:0.06961507 2:0.076986077 3:0.063882064 4:0.087633088 5:0.083538084 6:0.058149058 7:0.014742015 8:0.06961507 9:0.051597052 10:441 11:0.3608838 12:0.065520066 
8192 1:0.043835616 2:0.079452055 3:0.079452055 4:0.076712329 5:0.090410959 6:0.073972603 7:0.016438356 8:0.087671233 9:0.049315068 10:129 11:0.35245902 12:0.052054795 
8192 1:0.055309735 2:0.068584071 3:0.053097345 4:0.081858407 5:0.12168142 6:0.079646018 7:0.024336283 8:0.059734513 9:0.068584071 10:164 11:0.36203091 12:0.055309735 
8192 1:0.085714286 2:0.095238095 3:0.073015873 4:0.1 5:0.057142857 6:0.036507937 7:0.011111111 8:0.092063492 9:0.023809524 10:300 11:0.47543582 12:0.082539683 
8192 1:0.065822785 2:0.073417722 3:0.060759494 4:0.093670886 5:0.073417722 6:0.053164557 7:0.020253165 8:0.06835443 9:0.055696203 10:153 11:0.38636364 12:0.086075949 
8192 1:0.043956044 2:0.072802198 3:0.016483516 4:0.042582418 5:0.054945055 6:0.13461538 7:0.11538462 8:0.06456044 9:0.13049451 10:24 11:0.032921811 12:0.13324176 
8192 1:0.063711911 2:0.11218837 3:0.052631579 4:0.06232687 5:0.076177285 6:0.076177285 7:0.016620499 8:0.090027701 9:0.067867036 10:324 11:0.44813278 12:0.069252078 
8192 1:0.060606061 2:0.076923077 3:0.044289044 4:0.062937063 5:0.067599068 6:0.1002331 7:0.062937063 8:0.065268065 9:0.095571096 10:237 11:0.55116279 12:0.10722611 
8192 1:0.034090909 2:0.083333333 3:0.068181818 4:0.087121212 5:0.083333333 6:0.09469697 7:0.011363636 8:0.03030303 9:0.079545455 10:114 11:0.43018868 12:0.075757576 
8192 1:0.069705094 2:0.10053619 3:0.037533512 4:0.091152815 5:0.087131367 6:0.089812332 7:0.0067024129 8:0.085790885 9:0.063002681 10:330 11:0.44176707 12:0.054959786 
8192 1:0.090909091 2:0.06993007 3:0.090909091 4:0.055944056 5:0.074592075 6:0.079254079 7:0.006993007 8:0.062937063 9:0.046620047 10:183 11:0.4255814 12:0.044289044 
8192 1:0.083713851 2:0.081177067 3:0.077625571 4:0.084221208 5:0.077118214 6:0.058346017 7:0.0091324201 8:0.071537291 9:0.055809234 10:651 11:0.3301217 12:0.059868087 
8192 1:0.050613497 2:0.07208589 3:0.038343558 4:0.062883436 5:0.084355828 6:0.13650307 7:0.070552147 8:0.070552147 9:0.10736196 10:267 11:0.40888208 12:0.073619632 
8192 1:0.060869565 2:0.074782609 3:0.043478261 4:0.069565217 5:0.093913043 6:0.074782609 7:0.029565217 8:0.055652174 9:0.08173913 10:258 11:0.44791667 12:0.071304348 
8192 1:0.078873239 2:0.095774648 3:0.067605634 4:0.098591549 5:0.056338028 6:0.036619718 7:0.011267606 8:0.10985915 9:0.025352113 10:115 11:0.32303371 12:0.092957746 
8192 1:0.04047619 2:0.057142857 3:0.083333333 4:0.085714286 5:0.095238095 6:0.092857143 7:0.016666667 8:0.064285714 9:0.047619048 10:225 11:0.53444181 12:0.05 
8192 1:0.047400612 2:0.065749235 3:0.046636086 4:0.086391437 5:0.10856269 6:0.090214067 7:0.024464832 8:0.058868502 9:0.075688073 10:1239 11:0.94652406 12:0.071865443 
8192 1:0.090322581 2:0.1 3:0.038709677 4:0.083870968 5:0.080645161 6:0.070967742 7:0.012903226 8:0.083870968 9:0.064516129 10:57 11:0.18327974 12:0.041935484 
8192 1:0.051282051 2:0.094017094 3:0.10683761 4:0.055555556 5:0.068376068 6:0.051282051 7:0.0042735043 8:0.055555556 9:0.034188034 10:183 11:0.7787234 12:0.047008547 
8192 1:0.05152027 2:0.066722973 3:0.074324324 4:0.083614865 5:0.10135135 6:0.089527027 7:0.0067567568 8:0.05152027 9:0.055743243 10:441 11:0.3721519 12:0.064189189 
8192 1:0.06959707 2:0.087912088 3:0.043956044 4:0.058608059 5:0.062271062 6:0.091575092 7:0.029304029 8:0.095238095 9:0.06959707 10:126 11:0.45985401 12:0.091575092 
8192 1:0.068965517 2:0.11359026 3:0.030425963 4:0.07505071 5:0.068965517 6:0.10547667 7:0.018255578 8:0.085192698 9:0.070993915 10:211 11:0.42712551 12:0.10141988 
8192 1:0.079439252 2:0.093457944 3:0.056074766 4:0.077102804 5:0.086448598 6:0.065420561 7:0.0093457944 8:0.065420561 9:0.067757009 10:164 11:0.38228438 12:0.058411215 
8192 1:0.081690141 2:0.098591549 3:0.073239437 4:0.095774648 5:0.056338028 6:0.033802817 7:0.0084507042 8:0.11267606 9:0.025352113 10:115 11:0.32303371 12:0.081690141 
8192 1:0.06302521 2:0.096638655 3:0.067226891 4:0.071428571 5:0.06302521 6:0.092436975 7:0.016806723 8:0.084033613 9:0.037815126 10:48 11:0.20083682 12:0.071428571 
8192 1:0.067750678 2:0.078590786 3:0.051490515 4:0.067750678 5:0.094850949 6:0.081300813 7:0.024390244 8:0.08401084 9:0.046070461 10:141 11:0.38108108 12:0.086720867 
8192 1:0.076400679 2:0.044142615 3:0.11035654 4:0.076400679 5:0.089983022 6:0.040747029 7:0.0084889643 8:0.03565365 9:0.037351443 10:306 11:0.51864407 12:0.018675722 
8192 1:0.12527473 2:0.1032967 3:0.048351648 4:0.092307692 5:0.061538462 6:0.054945055 7:0.010989011 8:0.09010989 9:0.065934066 10:213 11:0.46710526 12:0.063736264 
8192 1:0.03968254 2:0.068783069 3:0.021164021 4:0.071428571 5:0.068783069 6:0.087301587 7:0.084656085 8:0.074074074 9:0.10582011 10:216 11:0.56992084 12:0.10846561 
8192 1:0.071342201 2:0.095525998 3:0.047158404 4:0.064087062 5:0.07980653 6:0.10157195 7:0.015719468 8:0.066505441 9:0.07376058 10:828 11:1 12:0.071342201 
8192 1:0.063666301 2:0.082327113 3:0.03183315 4:0.066959385 5:0.080131723 6:0.097694841 7:0.018660812 8:0.060373216 9:0.063666301 10:375 11:0.41118421 12:0.054884742 
8192 1:0.022018349 2:0.073394495 3:0.018348624 4:0.042201835 5:0.069724771 6:0.11743119 7:0.1266055 8:0.066055046 9:0.15229358 10:516 11:0.94505495 12:0.10091743 
8192 1:0.073359073 2:0.088803089 3:0.057915058 4:0.084942085 5:0.077220077 6:0.084942085 7:0.027027027 8:0.081081081 9:0.092664093 10:162 11:0.62307692 12:0.092664093 
8192 1:0.043977055 2:0.091778203 3:0.040152964 4:0.082217973 5:0.10133843 6:0.068833652 7:0.024856597 8:0.082217973 9:0.068833652 10:288 11:0.54961832 12:0.063097514 
8192 1:0.094444444 2:0.072222222 3:0.062962963 4:0.088888889 5:0.062962963 6:0.055555556 7:0.016666667 8:0.083333333 9:0.053703704 10:387 11:0.71534196 12:0.088888889 
8192 1:0.075609756 2:0.07804878 3:0.043902439 4:0.048780488 5:0.058536585 6:0.095121951 7:0.041463415 8:0.07804878 9:0.06097561 10:123 11:0.29927007 12:0.080487805 
8192 1:0.066945607 2:0.056485356 3:0.050209205 4:0.046025105 5:0.075313808 6:0.12552301 7:0.062761506 8:0.035564854 9:0.09623431 10:277 11:0.5782881 12:0.09623431 
8192 1:0.07591623 2:0.094240838 3:0.039267016 4:0.086387435 5:0.081151832 6:0.07591623 7:0.015706806 8:0.089005236 9:0.060209424 10:198 11:0.51697128 12:0.065445026 
8192 1:0.050884956 2:0.068584071 3:0.030973451 4:0.061946903 5:0.055309735 6:0.11504425 7:0.084070796 8:0.079646018 9:0.092920354 10:354 11:0.78145695 12:0.095132743 
8192 1:0.075571178 2:0.057996485 3:0.075571178 4:0.050966608 5:0.11775044 6:0.094903339 7:0.024604569 8:0.038664323 9:0.056239016 10:324 11:0.56842105 12:0.033391916 
8192 1:0.049668874 2:0.089403974 3:0.056291391 4:0.062913907 5:0.082781457 6:0.072847682 7:0.0066225166 8:0.086092715 9:0.046357616 10:303 11:1 12:0.066225166 
8192 1:0.042718447 2:0.10291262 3:0.034951456 4:0.060194175 5:0.081553398 6:0.07961165 7:0.042718447 8:0.073786408 9:0.089320388 10:171 11:0.33139535 12:0.077669903 
8192 1:0.063180828 2:0.069716776 3:0.032679739 4:0.10239651 5:0.098039216 6:0.10021786 7:0.015250545 8:0.063180828 9:0.065359477 10:174 11:0.37826087 12:0.063180828 
8192 1:0.017567568 2:0.075675676 3:0.048648649 4:0.07972973 5:0.091891892 6:0.094594595 7:0.077027027 8:0.048648649 9:0.12972973 10:312 11:0.42105263 12:0.097297297 
8192 1:0.13112745 2:0.090686275 3:0.046568627 4:0.072303922 5:0.0625 6:0.0625 7:0.0073529412 8:0.091911765 9:0.030637255 10:348 11:0.42594859 12:0.033088235 
8192 1:0.082352941 2:0.066666667 3:0.047058824 4:0.047058824 5:0.082352941 6:0.082352941 7:0.031372549 8:0.074509804 9:0.043137255 10:111 11:0.43359375 12:0.039215686 
8192 1:0.053025153 2:0.074099252 3:0.048946295 4:0.074779062 5:0.082256968 6:0.099252209 7:0.033310673 8:0.053025153 9:0.081577158 10:543 11:0.36888587 12:0.092454113 
8192 1:0.11036036 2:0.083333333 3:0.036036036 4:0.10135135 5:0.09009009 6:0.042792793 7:0.027027027 8:0.06981982 9:0.1036036 10:211 11:0.4741573 12:0.051801802 
8192 1:0.1033469 2:0.073270014 3:0.081184984 4:0.068973315 5:0.07507915 6:0.060606061 7:0.011307101 8:0.065581185 9:0.039122569 10:849 11:0.19195116 12:0.054274084 
8192 1:0.11442786 2:0.07960199 3:0.064676617 4:0.074626866 5:0.064676617 6:0.059701493 7:0 8:0.07960199 9:0.029850746 10:63 11:0.31188119 12:0.084577114 
8192 1:0.14250614 2:0.093366093 3:0.049140049 4:0.063882064 5:0.056511057 6:0.063882064 7:0.031941032 8:0.1007371 9:0.051597052 10:243 11:0.59558824 12:0.054054054 
8192 1:0.041958042 2:0.076923077 3:0.065268065 4:0.1025641 5:0.086247086 6:0.081585082 7:0.025641026 8:0.06993007 9:0.086247086 10:213 11:0.49534884 12:0.06993007 
8192 1:0.039215686 2:0.07254902 3:0.050980392 4:0.082352941 5:0.070588235 6:0.12745098 7:0.037254902 8:0.043137255 9:0.088235294 10:414 11:0.81017613 12:0.10784314 
8192 1:0.067264574 2:0.073991031 3:0.10762332 4:0.078475336 5:0.076233184 6:0.067264574 7:0.011210762 8:0.047085202 9:0.053811659 10:39 11:0.087248322 12:0.080717489 
8192 1:0.1018711 2:0.10810811 3:0.047817048 4:0.074844075 5:0.066528067 6:0.041580042 7:0.01039501 8:0.089397089 9:0.054054054 10:204 11:0.42323651 12:0.074844075 
8192 1:0.059945504 2:0.096730245 3:0.058583106 4:0.084468665 5:0.077656676 6:0.070844687 7:0.028610354 8:0.077656676 9:0.077656676 10:342 11:0.46530612 12:0.065395095 
8192 1:0.06984127 2:0.1047619 3:0.044444444 4:0.06984127 5:0.073015873 6:0.082539683 7:0.0095238095 8:0.095238095 9:0.041269841 10:51 11:0.16139241 12:0.038095238 
8192 1:0.061443932 2:0.076804916 3:0.050691244 4:0.073732719 5:0.084485407 6:0.066052227 7:0.023041475 8:0.069124424 9:0.066052227 10:560 11:0.85889571 12:0.072196621 
8192 1:0.10742857 2:0.071428571 3:0.10457143 4:0.080571429 5:0.063428571 6:0.038285714 7:0.0062857143 8:0.048 9:0.048571429 10:546 11:0.31182182 12:0.040571429 
8192 1:0.079207921 2:0.096309631 3:0.04320432 4:0.059405941 5:0.071107111 6:0.075607561 7:0.02340234 8:0.075607561 9:0.061206121 10:417 11:0.375 12:0.061206121 
8192 1:0.07082153 2:0.076487252 3:0.045325779 4:0.073654391 5:0.073654391 6:0.093484419 7:0.042492918 8:0.062322946 9:0.087818697 10:210 11:0.59322034 12:0.067988669 
8192 1:0.062857143 2:0.081904762 3:0.060952381 4:0.07047619 5:0.093333333 6:0.076190476 7:0.022857143 8:0.07047619 9:0.068571429 10:264 11:0.50190114 12:0.097142857 
8192 1:0.046534174 2:0.06980126 3:0.076102763 4:0.077556956 5:0.088221037 6:0.082888997 7:0.012603005 8:0.060106641 9:0.051866214 10:957 11:0.46366279 12:0.056228793 
8192 1:0.056277056 2:0.082251082 3:0.025974026 4:0.082251082 5:0.069264069 6:0.038961039 7:0.025974026 8:0.086580087 9:0.056277056 10:126 11:0.54310345 12:0.086580087 
8192 1:0.053505535 2:0.08302583 3:0.062730627 4:0.090405904 5:0.081180812 6:0.053505535 7:0.014760148 8:0.092250923 9:0.057195572 10:243 11:0.44751381 12:0.060885609 
8192 1:0.033807829 2:0.055160142 3:0.06405694 4:0.10142349 5:0.097864769 6:0.087188612 7:0.014234875 8:0.060498221 9:0.060498221 10:417 11:0.74067496 12:0.072953737 
8192 1:0.070294785 2:0.065759637 3:0.072562358 4:0.079365079 5:0.070294785 6:0.049886621 7:0.040816327 8:0.072562358 9:0.06122449 10:216 11:0.48868778 12:0.0861678 
8192 1:0.064638783 2:0.08365019 3:0.045627376 4:0.064638783 5:0.095057034 6:0.091254753 7:0.019011407 8:0.057034221 9:0.076045627 10:33 11:0.125 12:0.034220532 
8192 1:0.06918239 2:0.088050314 3:0.037735849 4:0.073375262 5:0.044025157 6:0.064989518 7:0.073375262 8:0.088050314 9:0.10062893 10:180 11:0.37656904 12:0.11949686 
8192 1:0.11428571 2:0.085714286 3:0.067346939 4:0.063265306 5:0.079591837 6:0.051020408 7:0.006122449 8:0.081632653 9:0.034693878 10:24 11:0.048879837 12:0.057142857 
8192 1:0.044992743 2:0.063860668 3:0.044992743 4:0.076923077 5:0.094339623 6:0.13207547 7:0.044992743 8:0.06095791 9:0.079825835 10:36 11:0.052173913 12:0.075471698 
8192 1:0.05666224 2:0.0708278 3:0.046480744 4:0.089862771 5:0.066401062 6:0.071713147 7:0.029216467 8:0.061974325 9:0.072155821 10:693 11:0.30663717 12:0.078795927 
8192 1:0.020992366 2:0.045801527 3:0.019083969 4:0.066793893 5:0.062977099 6:0.11450382 7:0.12022901 8:0.041984733 9:0.15458015 10:300 11:0.57142857 12:0.14122137 
8192 1:0.076809453 2:0.085672083 3:0.079763663 4:0.081240768 5:0.067946824 6:0.05760709 7:0.0029542097 8:0.073855244 9:0.042836041 10:330 11:0.48672566 12:0.044313146 
8192 1:0.026442308 2:0.13461538 3:0.03125 4:0.064903846 5:0.072115385 6:0.091346154 7:0.014423077 8:0.088942308 9:0.088942308 10:322 11:0.77218225 12:0.13221154 
8192 1:0.07063197 2:0.096654275 3:0.026022305 4:0.055762082 5:0.078066914 6:0.13754647 7:0.011152416 8:0.078066914 9:0.063197026 10:84 11:0.31111111 12:0.055762082 
8192 1:0.06712963 2:0.0625 3:0.053240741 4:0.078703704 5:0.097222222 6:0.099537037 7:0.027777778 8:0.069444444 9:0.05787037 10:153 11:0.35334873 12:0.053240741 
8192 1:0.073863636 2:0.086647727 3:0.055397727 4:0.079545455 5:0.071022727 6:0.058238636 7:0.014204545 8:0.090909091 9:0.044034091 10:363 11:0.51489362 12:0.078125 
8192 1:0.08372093 2:0.08372093 3:0.041860465 4:0.069767442 5:0.074418605 6:0.069767442 7:0.041860465 8:0.08372093 9:0.065116279 10:72 11:0.33333333 12:0.065116279 
8192 1:0.076056338 2:0.092957746 3:0.070422535 4:0.10140845 5:0.056338028 6:0.036619718 7:0.011267606 8:0.10704225 9:0.025352113 10:115 11:0.32303371 12:0.092957746 
8192 1:0.03992572 2:0.061281337 3:0.051996286 4:0.080779944 5:0.082636955 6:0.11977716 7:0.04549675 8:0.046425255 9:0.091922006 10:468 11:0.43413729 12:0.10399257 
8192 1:0.024691358 2:0.086419753 3:0.049382716 4:0.071604938 5:0.088888889 6:0.086419753 7:0.022222222 8:0.069135802 9:0.064197531 10:117 11:0.28817734 12:0.098765432 
8192 1:0.053308824 2:0.10294118 3:0.036764706 4:0.069852941 5:0.09375 6:0.10845588 7:0.016544118 8:0.080882353 9:0.068014706 10:318 11:0.58348624 12:0.073529412 
8192 1:0.087179487 2:0.082051282 3:0.048717949 4:0.087179487 5:0.064102564 6:0.051282051 7:0.030769231 8:0.061538462 9:0.087179487 10:138 11:0.35294118 12:0.1025641 
8192 1:0.047075606 2:0.10271041 3:0.042796006 4:0.078459344 5:0.07703281 6:0.07275321 7:0.027104137 8:0.088445078 9:0.07703281 10:489 11:0.6965812 12:0.084165478 
8192 1:0.031390135 2:0.049327354 3:0.023916293 4:0.035874439 5:0.062780269 6:0.12705531 7:0.13751868 8:0.050822123 9:0.1509716 10:453 11:0.6761194 12:0.11509716 
8192 1:0.12292359 2:0.15614618 3:0.046511628 4:0.033222591 5:0.046511628 6:0.053156146 7:0.033222591 8:0.14285714 9:0.046511628 10:214 11:0.70860927 12:0.063122924 
8192 1:0.011418269 2:0.036959135 3:0.045973558 4:0.079326923 5:0.081129808 6:0.12409856 7:0.11177885 8:0.041165865 9:0.098557692 10:1062 11:0.31901472 12:0.1234976 
8192 1:0.099426386 2:0.076481836 3:0.07456979 4:0.087954111 5:0.061185468 6:0.055449331 7:0.0095602294 8:0.078393881 9:0.036328872 10:285 11:0.54389313 12:0.043977055 
8192 1:0.043835616 2:0.10410959 3:0.04109589 4:0.073972603 5:0.082191781 6:0.10684932 7:0.01369863 8:0.073972603 9:0.073972603 10:366 11:1 12:0.049315068 
8192 1:0.076 2:0.07 3:0.054 4:0.086 5:0.072 6:0.058 7:0.016 8:0.068 9:0.052 10:260 11:0.51896208 12:0.068 
8192 1:0.05984556 2:0.05019305 3:0.036679537 4:0.048262548 5:0.079150579 6:0.12934363 7:0.073359073 8:0.055984556 9:0.077220077 10:159 11:0.30635838 12:0.065637066 
8192 1:0.068669528 2:0.10300429 3:0.051502146 4:0.060085837 5:0.072961373 6:0.064377682 7:0.0472103 8:0.081545064 9:0.068669528 10:33 11:0.14102564 12:0.10300429 
8192 1:0.078488372 2:0.10465116 3:0.01744186 4:0.066860465 5:0.072674419 6:0.058139535 7:0.034883721 8:0.10465116 9:0.072674419 10:261 11:0.75652174 12:0.11918605 
8192 1:0.07234315 2:0.072983355 3:0.065941101 4:0.057618438 5:0.067221511 6:0.082586428 7:0.04737516 8:0.062740077 9:0.077464789 10:513 11:0.32821497 12:0.076184379 
8192 1:0.087085896 2:0.086689149 3:0.074985122 4:0.076572109 5:0.060702242 6:0.055941281 7:0.014878 8:0.077167229 9:0.049593335 10:1029 11:0.20408568 12:0.077167229 
8192 1:0.068273092 2:0.068273092 3:0.0562249 4:0.11646586 5:0.1124498 6:0.068273092 7:0.0040160643 8:0.072289157 9:0.068273092 10:126 11:0.504 12:0.048192771 
8192 1:0.068139963 2:0.10865562 3:0.040515654 4:0.079189687 5:0.066298343 6:0.051565378 7:0.014732965 8:0.086556169 9:0.060773481 10:231 11:0.42463235 12:0.095764273 
8192 1:0.050251256 2:0.042713568 3:0.09798995 4:0.09798995 5:0.10050251 6:0.10301508 7:0.030150754 8:0.035175879 9:0.077889447 10:174 11:0.43609023 12:0.055276382 
8192 1:0.070217918 2:0.08716707 3:0.072639225 4:0.08716707 5:0.089588378 6:0.062953995 7:0.012106538 8:0.075060533 9:0.055690073 10:414 11:1 12:0.03874092 
8192 1:0.036065574 2:0.093442623 3:0.050819672 4:0.073770492 5:0.073770492 6:0.060655738 7:0.026229508 8:0.054098361 9:0.078688525 10:363 11:0.59410802 12:0.08852459 
8192 1:0.071942446 2:0.10431655 3:0.082733813 4:0.079136691 5:0.057553957 6:0.028776978 7:0.028776978 8:0.082733813 9:0.053956835 10:48 11:0.17204301 12:0.053956835 
8192 1:0.076246334 2:0.082111437 3:0.082111437 4:0.090909091 5:0.08797654 6:0.06744868 7:0.008797654 8:0.070381232 9:0.049853372 10:109 11:0.31871345 12:0.073313783 
2842.987105017188 1:0.053406998 2:0.073664825 3:0.044198895 4:0.077348066 5:0.095764273 6:0.095764273 7:0.034990792 8:0.049723757 9:0.082872928 10:222 11:0.40808824 12:0.071823204 
8192 1:0.075757576 2:0.1010101 3:0.068181818 4:0.093434343 5:0.055555556 6:0.035353535 7:0.0075757576 8:0.10606061 9:0.03030303 10:138 11:0.34760705 12:0.088383838 
8192 1:0.079303675 2:0.061895551 3:0.071566731 4:0.094777563 5:0.085106383 6:0.059961315 7:0.025145068 8:0.075435203 9:0.065764023 10:234 11:0.45173745 12:0.056092843 
8192 1:0.097643098 2:0.085858586 3:0.053872054 4:0.092592593 5:0.082491582 6:0.058922559 7:0.01010101 8:0.077441077 9:0.065656566 10:327 11:0.54957983 12:0.072390572 
8192 1:0.089068826 2:0.097165992 3:0.060728745 4:0.064777328 5:0.085020243 6:0.044534413 7:0.004048583 8:0.068825911 9:0.04048583 10:96 11:0.38709677 12:0.036437247 
8192 1:0.095774648 2:0.090140845 3:0.061971831 4:0.078873239 5:0.070422535 6:0.061971831 7:0.011267606 8:0.087323944 9:0.050704225 10:168 11:0.47191011 12:0.033802817 
8192 1:0.064896755 2:0.073746313 3:0.038348083 4:0.097345133 5:0.10324484 6:0.07079646 7:0.0088495575 8:0.056047198 9:0.053097345 10:126 11:0.37058824 12:0.026548673 
8192 1:0.060606061 2:0.062937063 3:0.055944056 4:0.086247086 5:0.048951049 6:0.053613054 7:0.076923077 8:0.081585082 9:0.079254079 10:111 11:0.25813953 12:0.1048951 
8192 1:0.090563429 2:0.073280332 3:0.082267542 4:0.055997235 5:0.087452471 6:0.081576218 7:0.005876253 8:0.066712755 9:0.03560318 10:1092 11:0.37733241 12:0.049083996 
8192 1:0.07775378 2:0.069114471 3:0.043196544 4:0.10583153 5:0.073434125 6:0.097192225 7:0.0086393089 8:0.082073434 9:0.043196544 10:288 11:0.62068966 12:0.062634989 
8192 1:0.11740891 2:0.10931174 3:0.089068826 4:0.072874494 5:0.072874494 6:0.028340081 7:0.024291498 8:0.097165992 9:0.076923077 10:69 11:0.27822581 12:0.060728745 
8192 1:0.085185185 2:0.066666667 3:0.037037037 4:0.092592593 5:0.07037037 6:0.092592593 7:0.011111111 8:0.081481481 9:0.040740741 10:129 11:0.47601476 12:0.062962963 
8192 1:0.064732143 2:0.087053571 3:0.037946429 4:0.064732143 5:0.066964286 6:0.078125 7:0.055803571 8:0.064732143 9:0.091517857 10:57 11:0.12694878 12:0.082589286 
8192 1:0.053030303 2:0.088383838 3:0.042929293 4:0.075757576 5:0.11111111 6:0.075757576 7:0.022727273 8:0.085858586 9:0.073232323 10:39 11:0.098236776 12:0.053030303 
8192 1:0.045238095 2:0.092857143 3:0.035714286 4:0.069047619 5:0.078571429 6:0.069047619 7:0.026190476 8:0.071428571 9:0.066666667 10:180 11:0.42755344 12:0.092857143 
8192 1:0.062052506 2:0.071599045 3:0.088305489 4:0.07875895 5:0.097852029 6:0.054892601 7:0.011933174 8:0.054892601 9:0.059665871 10:174 11:0.41428571 12:0.059665871 
8192 1:0.068825911 2:0.097165992 3:0.068825911 4:0.048582996 5:0.076923077 6:0.052631579 7:0.060728745 8:0.089068826 9:0.068825911 10:144 11:0.58064516 12:0.064777328 
8192 1:0.11363636 2:0.090909091 3:0.029220779 4:0.038961039 5:0.058441558 6:0.097402597 7:0.071428571 8:0.081168831 9:0.071428571 10:108 11:0.34951456 12:0.1038961 
8192 1:0.041055718 2:0.06744868 3:0.04398827 4:0.090909091 5:0.085043988 6:0.1085044 7:0.029325513 8:0.06744868 9:0.049853372 10:236 11:0.69005848 12:0.070381232 
8192 1:0.085714286 2:0.098701299 3:0.049350649 4:0.067532468 5:0.083116883 6:0.077922078 7:0.018181818 8:0.085714286 9:0.05974026 10:144 11:0.37305699 12:0.075324675 
8192 1:0.041002278 2:0.077448747 3:0.022779043 4:0.0523918 5:0.079726651 6:0.13895216 7:0.075170843 8:0.06833713 9:0.11161731 10:255 11:0.57954545 12:0.1070615 
8192 1:0.042440318 2:0.076923077 3:0.041777188 4:0.072281167 5:0.074270557 6:0.10212202 7:0.052387268 8:0.062334218 9:0.082891247 10:585 11:0.38767396 12:0.10013263 
8192 1:0.078703704 2:0.091049383 3:0.091049383 4:0.060185185 5:0.049382716 6:0.050925926 7:0.0092592593 8:0.050925926 9:0.063271605 10:323 11:0.49768875 12:0.054012346 
8192 1:0.074875208 2:0.056572379 3:0.041597338 4:0.054076539 5:0.075707155 6:0.083194676 7:0.070715474 8:0.054076539 9:0.093178037 10:582 11:0.48379052 12:0.079034942 
8192 1:0.048780488 2:0.10840108 3:0.040650407 4:0.070460705 5:0.081300813 6:0.10298103 7:0.029810298 8:0.092140921 9:0.06504065 10:141 11:0.38108108 12:0.11111111 
8192 1:0.068923821 2:0.07738815 3:0.044740024 4:0.07859734 5:0.095525998 6:0.10519952 7:0.014510278 8:0.070133011 9:0.051995163 10:450 11:0.54347826 12:0.065296252 
8192 1:0.040892193 2:0.033457249 3:0.089219331 4:0.092936803 5:0.10037175 6:0.089219331 7:0.014869888 8:0.059479554 9:0.022304833 10:270 11:1 12:0.059479554 
8192 1:0.041904762 2:0.083809524 3:0.026666667 4:0.074285714 5:0.072380952 6:0.10285714 7:0.072380952 8:0.066666667 9:0.12761905 10:261 11:0.49619772 12:0.081904762 
8192 1:0.065934066 2:0.084249084 3:0.078754579 4:0.053113553 5:0.095238095 6:0.087912088 7:0.025641026 8:0.075091575 9:0.051282051 10:318 11:0.58135283 12:0.045787546 
8192 1:0.073634204 2:0.10688836 3:0.033254157 4:0.071258907 5:0.073634204 6:0.076009501 7:0.023752969 8:0.087885986 9:0.057007126 10:126 11:0.2985782 12:0.080760095 
8192 1:0.042821159 2:0.062972292 3:0.060453401 4:0.060453401 5:0.11083123 6:0.13602015 7:0.017632242 8:0.052896725 9:0.052896725 10:174 11:0.43718593 12:0.068010076 
8192 1:0.025280899 2:0.081460674 3:0.050561798 4:0.081460674 5:0.095505618 6:0.092696629 7:0.028089888 8:0.06741573 9:0.084269663 10:113 11:0.31652661 12:0.14606742 
8192 1:0.1048951 2:0.072261072 3:0.081585082 4:0.065268065 5:0.065268065 6:0.093240093 7:0.020979021 8:0.074592075 9:0.03962704 10:255 11:0.59302326 12:0.032634033 
8192 1:0.09371293 2:0.078291815 3:0.066429419 4:0.083036773 5:0.075919336 6:0.045077106 7:0.010676157 8:0.069988138 9:0.047449585 10:384 11:0.4549763 12:0.034400949 
8192 1:0.034562212 2:0.073732719 3:0.036866359 4:0.10599078 5:0.087557604 6:0.096774194 7:0.020737327 8:0.069124424 9:0.078341014 10:192 11:0.44137931 12:0.092165899 
8192 1:0.059936909 2:0.09148265 3:0.041009464 4:0.088328076 5:0.09148265 6:0.056782334 7:0.012618297 8:0.063091483 9:0.063091483 10:147 11:0.46226415 12:0.094637224 
8192 1:0.078904992 2:0.096618357 3:0.066022544 4:0.057971014 5:0.061191626 6:0.045088567 7:0.024154589 8:0.072463768 9:0.064412238 10:363 11:0.58360129 12:0.056360709 
8192 1:0.064371257 2:0.05988024 3:0.10928144 4:0.082335329 5:0.094311377 6:0.076347305 7:0.02245509 8:0.053892216 9:0.053892216 10:411 11:0.61434978 12:0.068862275 
8192 1:0.1350365 2:0.10583942 3:0.069343066 4:0.047445255 5:0.051094891 6:0.047445255 7:0.01459854 8:0.091240876 9:0.04379562 10:162 11:0.58909091 12:0.047445255 
8192 1:0.0375 2:0.1 3:0.029166667 4:0.070833333 5:0.083333333 6:0.075 7:0.020833333 8:0.058333333 9:0.0875 10:169 11:0.70124481 12:0.0625 
8192 1:0.085774059 2:0.073221757 3:0.052301255 4:0.085774059 5:0.064853556 6:0.066945607 7:0.020920502 8:0.066945607 9:0.060669456 10:229 11:0.47807933 12:0.060669456 
8192 1:0.031365314 2:0.066420664 3:0.031365314 4:0.066420664 5:0.077490775 6:0.10332103 7:0.073800738 8:0.051660517 9:0.099630996 10:312 11:0.57458564 12:0.088560886 
8192 1:0.082191781 2:0.070776256 3:0.047945205 4:0.057077626 5:0.082191781 6:0.10273973 7:0.01826484 8:0.043378995 9:0.054794521 10:155 11:0.35307517 12:0.03196347 
8192 1:0.053949904 2:0.08477842 3:0.069364162 4:0.10211946 5:0.078998073 6:0.04238921 7:0.015414258 8:0.10211946 9:0.052023121 10:219 11:0.42115385 12:0.061657033 
8192 1:0.068376068 2:0.14245014 3:0.017094017 4:0.045584046 5:0.065527066 6:0.068376068 7:0.025641026 8:0.0997151 9:0.094017094 10:60 11:0.17045455 12:0.094017094 
8192 1:0.067594433 2:0.10139165 3:0.051689861 4:0.089463221 5:0.073558648 6:0.047713718 7:0.013916501 8:0.10536779 9:0.051689861 10:204 11:0.4047619 12:0.061630219 
8192 1:0.071180556 2:0.069444444 3:0.071180556 4:0.086805556 5:0.072916667 6:0.071180556 7:0.012152778 8:0.055555556 9:0.059027778 10:447 11:0.77469671 12:0.095486111 
8192 1:0.06833713 2:0.056947608 3:0.082004556 4:0.1047836 5:0.1070615 6:0.050113895 7:0.011389522 8:0.061503417 9:0.061503417 10:272 11:0.61818182 12:0.029612756 
8192 1:0.076271186 2:0.07450565 3:0.083333333 4:0.093926554 5:0.066031073 6:0.05049435 7:0.01059322 8:0.066384181 9:0.05720339 10:1002 11:0.35368867 12:0.070268362 
8192 1:0.094368341 2:0.095890411 3:0.056316591 4:0.086757991 5:0.066971081 6:0.0304414 7:0.01217656 8:0.085235921 9:0.057838661 10:288 11:0.43768997 12:0.063926941 
8192 1:0.038387716 2:0.092130518 3:0.040307102 4:0.078694818 5:0.090211132 6:0.1074856 7:0.0076775432 8:0.07293666 9:0.067178503 10:264 11:0.50574713 12:0.074856046 
8192 1:0.095940959 2:0.092250923 3:0.070110701 4:0.099630996 5:0.066420664 6:0.033210332 7:0.022140221 8:0.095940959 9:0.051660517 10:126 11:0.46323529 12:0.040590406 
8192 1:0.097560976 2:0.12195122 3:0.036585366 4:0.070731707 5:0.053658537 6:0.051219512 7:0.019512195 8:0.15121951 9:0.03902439 10:411 11:1 12:0.065853659 
8192 1:0.060518732 2:0.069164265 3:0.066282421 4:0.10086455 5:0.086455331 6:0.066282421 7:0.014409222 8:0.069164265 9:0.054755043 10:216 11:0.62068966 12:0.063400576 
8192 1:0.044917258 2:0.059101655 3:0.096926714 4:0.094562648 5:0.13711584 6:0.06855792 7:0.016548463 8:0.042553191 9:0.078014184 10:258 11:0.60849057 12:0.047281324 
8192 1:0.054964539 2:0.060283688 3:0.040780142 4:0.079787234 5:0.10106383 6:0.10460993 7:0.014184397 8:0.046099291 9:0.065602837 10:252 11:0.4460177 12:0.060283688 
8192 1:0.098305085 2:0.088135593 3:0.040677966 4:0.071186441 5:0.052542373 6:0.076271186 7:0.023728814 8:0.076271186 9:0.059322034 10:360 11:0.60913706 12:0.054237288 
8192 1:0.042654028 2:0.075829384 3:0.028436019 4:0.075829384 5:0.09478673 6:0.13270142 7:0.018957346 8:0.061611374 9:0.08056872 10:69 11:0.3254717 12:0.090047393 
8192 1:0.05915493 2:0.087323944 3:0.053521127 4:0.092957746 5:0.092957746 6:0.076056338 7:0.028169014 8:0.087323944 9:0.070422535 10:66 11:0.18539326 12:0.067605634 
8192 1:0.091254753 2:0.072243346 3:0.030418251 4:0.095057034 5:0.064638783 6:0.057034221 7:0.030418251 8:0.072243346 9:0.072243346 10:120 11:0.45454545 12:0.053231939 
8192 1:0.057425743 2:0.063366337 3:0.095049505 4:0.087128713 5:0.085148515 6:0.069306931 7:0.023762376 8:0.059405941 9:0.061386139 10:234 11:0.46245059 12:0.059405941 
8192 1:0.042857143 2:0.094285714 3:0.062857143 4:0.088571429 5:0.088571429 6:0.071428571 7:0.025714286 8:0.082857143 9:0.082857143 10:207 11:0.58974359 12:0.091428571 
8192 1:0.08801956 2:0.1198044 3:0.024449878 4:0.068459658 5:0.073349633 6:0.092909535 7:0.0073349633 8:0.10757946 9:0.048899756 10:195 11:0.47560976 12:0.058679707 
2929.495519869089 1:0.075757576 2:0.1010101 3:0.073232323 4:0.093434343 5:0.053030303 6:0.035353535 7:0.01010101 8:0.10606061 9:0.03030303 10:138 11:0.34760705 12:0.085858586 
8192 1:0.074688797 2:0.095435685 3:0.026970954 4:0.082987552 5:0.089211618 6:0.074688797 7:0.029045643 8:0.093360996 9:0.064315353 10:225 11:0.46583851 12:0.10580913 
8192 1:0.040089087 2:0.080178174 3:0.04454343 4:0.082405345 5:0.066815145 6:0.10244989 7:0.042316258 8:0.046770601 9:0.084632517 10:213 11:0.47333333 12:0.1091314 
8192 1:0.060422961 2:0.078549849 3:0.048338369 4:0.069486405 5:0.087613293 6:0.099697885 7:0.036253776 8:0.084592145 9:0.048338369 10:279 11:0.84036145 12:0.069486405 
8192 1:0.024390244 2:0.078590786 3:0.037940379 4:0.089430894 5:0.070460705 6:0.100271 7:0.078590786 8:0.073170732 9:0.12466125 10:183 11:0.49459459 12:0.08401084 
8192 1:0.1215847 2:0.093351548 3:0.061020036 4:0.049635701 5:0.052823315 6:0.06147541 7:0.032786885 8:0.070127505 9:0.06284153 10:657 11:0.29904415 12:0.08287796 
8192 1:0.053333333 2:0.095555556 3:0.051111111 4:0.084444444 5:0.073333333 6:0.066666667 7:0.015555556 8:0.091111111 9:0.064444444 10:162 11:0.35920177 12:0.091111111 
8192 1:0.060321716 2:0.08847185 3:0.049597855 4:0.087131367 5:0.073726542 6:0.080428954 7:0.016085791 8:0.077747989 9:0.054959786 10:345 11:0.46184739 12:0.076407507 
8192 1:0.072261072 2:0.097902098 3:0.041958042 4:0.1002331 5:0.048951049 6:0.037296037 7:0.037296037 8:0.1048951 9:0.072261072 10:246 11:0.57209302 12:0.10955711 
8192 1:0.042654028 2:0.068720379 3:0.035545024 4:0.11137441 5:0.066350711 6:0.071090047 7:0.014218009 8:0.059241706 9:0.063981043 10:423 11:1 12:0.068720379 
8192 1:0.10012361 2:0.056860321 3:0.092707046 4:0.092707046 5:0.067985167 6:0.04697157 7:0.014833127 8:0.069221261 9:0.0407911 10:420 11:0.51851852 12:0.042027194 
8192 1:0.10141509 2:0.096698113 3:0.073113208 4:0.063679245 5:0.056603774 6:0.037735849 7:0.018867925 8:0.099056604 9:0.044811321 10:207 11:0.48705882 12:0.063679245 
8192 1:0.065108514 2:0.10517529 3:0.01836394 4:0.075125209 5:0.070116861 6:0.12854758 7:0.015025042 8:0.07345576 9:0.076794658 10:325 11:0.54166667 12:0.061769616 
8192 1:0.10775862 2:0.090517241 3:0.060344828 4:0.068965517 5:0.094827586 6:0.051724138 7:0.0043103448 8:0.077586207 9:0.047413793 10:141 11:0.60515021 12:0.025862069 
8192 1:0.093607758 2:0.084306353 3:0.053829408 4:0.059964378 5:0.076588165 6:0.086879082 7:0.020186028 8:0.067088858 9:0.053631506 10:1002 11:0.1982588 12:0.056797942 
8192 1:0.051908397 2:0.06259542 3:0.021374046 4:0.050381679 5:0.083969466 6:0.13129771 7:0.093129771 8:0.051908397 9:0.12519084 10:387 11:0.58993902 12:0.11450382 
8192 1:0.059435364 2:0.063893016 3:0.062407132 4:0.077265973 5:0.075780089 6:0.078751857 7:0.046062407 8:0.052005944 9:0.080237741 10:570 11:0.84569733 12:0.071322437 
8192 1:0.060344828 2:0.074712644 3:0.057471264 4:0.10057471 5:0.094827586 6:0.10057471 7:0.0086206897 8:0.074712644 9:0.057471264 10:186 11:0.53295129 12:0.08045977 
8192 1:0.046136946 2:0.078359575 3:0.056389601 4:0.086049066 5:0.077627243 6:0.085316734 7:0.03112413 8:0.070670084 9:0.068106921 10:2100 11:0.76866764 12:0.065543757 
8192 1:0.15612648 2:0.10869565 3:0.030632411 4:0.053359684 5:0.048418972 6:0.06916996 7:0.020750988 8:0.10177866 9:0.046442688 10:645 11:0.63672261 12:0.045454545 
8192 1:0.058823529 2:0.10216718 3:0.055727554 4:0.077399381 5:0.058823529 6:0.055727554 7:0.034055728 8:0.068111455 9:0.080495356 10:93 11:0.28703704 12:0.092879257 
8192 1:0.045454545 2:0.084415584 3:0.022727273 4:0.045454545 5:0.064935065 6:0.12012987 7:0.071428571 8:0.087662338 9:0.090909091 10:156 11:0.50485437 12:0.090909091 
8192 1:0.076271186 2:0.080508475 3:0.033898305 4:0.076271186 5:0.080508475 6:0.088983051 7:0.021186441 8:0.084745763 9:0.055084746 10:105 11:0.44303797 12:0.06779661 
8192 1:0.03633218 2:0.053633218 3:0.043252595 4:0.058823529 5:0.093425606 6:0.1384083 7:0.041522491 8:0.046712803 9:0.091695502 10:465 11:0.80310881 12:0.096885813 
8192 1:0.031297877 2:0.080542788 3:0.036112935 4:0.068505143 5:0.068067411 6:0.079010724 7:0.066316481 8:0.053403371 9:0.099584154 10:771 11:0.16870897 12:0.12606697 
8192 1:0.063953488 2:0.083333333 3:0.023255814 4:0.083333333 5:0.071705426 6:0.07751938 7:0.025193798 8:0.07751938 9:0.058139535 10:237 11:0.45841393 12:0.087209302 
8192 1:0.044444444 2:0.086419753 3:0.056790123 4:0.064197531 5:0.07654321 6:0.091358025 7:0.051851852 8:0.069135802 9:0.091358025 10:190 11:0.4679803 12:0.066666667 
8192 1:0.10043668 2:0.082969432 3:0.087336245 4:0.061135371 5:0.074235808 6:0.082969432 7:0.030567686 8:0.074235808 9:0.052401747 10:43 11:0.18695652 12:0.034934498 
8192 1:0.079064588 2:0.093541203 3:0.045657016 4:0.084632517 5:0.075723831 6:0.056792873 7:0.014476615 8:0.086859688 9:0.051224944 10:459 11:0.5105673 12:0.054565702 
8192 1:0.051359517 2:0.084592145 3:0.033232628 4:0.072507553 5:0.10574018 6:0.075528701 7:0.021148036 8:0.072507553 9:0.054380665 10:156 11:0.46987952 12:0.072507553 
8192 1:0.10697674 2:0.088372093 3:0.055813953 4:0.069767442 5:0.051162791 6:0.088372093 7:0.013953488 8:0.10697674 9:0.023255814 10:114 11:0.52777778 12:0.03255814 
8192 1:0.077417053 2:0.072422405 3:0.043881555 4:0.061006065 5:0.075990011 6:0.1023903 7:0.036389583 8:0.064573671 9:0.057438459 10:1938 11:0.69115549 12:0.075990011 
8192 1:0.075313808 2:0.083682008 3:0.056485356 4:0.10041841 5:0.087866109 6:0.085774059 7:0.010460251 8:0.087866109 9:0.062761506 10:279 11:0.58246347 12:0.069037657 
8192 1:0.075718016 2:0.061357702 3:0.083550914 4:0.058746736 5:0.095300261 6:0.070496084 7:0.010443864 8:0.048302872 9:0.04308094 10:345 11:0.44980443 12:0.031331593 
8192 1:0.081005587 2:0.069832402 3:0.058659218 4:0.10055866 5:0.075418994 6:0.033519553 7:0.019553073 8:0.078212291 9:0.055865922 10:112 11:0.31197772 12:0.058659218 
8192 1:0.076923077 2:0.063545151 3:0.033444816 4:0.070234114 5:0.043478261 6:0.11705686 7:0.02006689 8:0.073578595 9:0.043478261 10:150 11:0.5 12:0.046822742 
8192 1:0.095505618 2:0.075842697 3:0.078651685 4:0.087078652 5:0.056179775 6:0.047752809 7:0.014044944 8:0.075842697 9:0.058988764 10:123 11:0.34453782 12:0.06741573 
8192 1:0.033088235 2:0.084558824 3:0.044117647 4:0.080882353 5:0.091911765 6:0.077205882 7:0.033088235 8:0.073529412 9:0.069852941 10:156 11:0.57142857 12:0.069852941 
8192 1:0.044334975 2:0.093596059 3:0.078817734 4:0.068965517 5:0.044334975 6:0.044334975 7:0.049261084 8:0.078817734 9:0.0591133 10:136 11:0.66666667 12:0.088669951 
8192 1:0.15471698 2:0.09245283 3:0.064150943 4:0.075471698 5:0.069811321 6:0.024528302 7:0.0056603774 8:0.10943396 9:0.041509434 10:531 11:1 12:0.056603774 
8192 1:0.082720588 2:0.13235294 3:0.047794118 4:0.073529412 5:0.075367647 6:0.045955882 7:0.025735294 8:0.11213235 9:0.064338235 10:267 11:0.48990826 12:0.053308824 
8192 1:0.046439628 2:0.086687307 3:0.037151703 4:0.074303406 5:0.095975232 6:0.092879257 7:0.021671827 8:0.077399381 9:0.055727554 10:87 11:0.26851852 12:0.07120743 
8192 1:0.074380165 2:0.099173554 3:0.041322314 4:0.066115702 5:0.088842975 6:0.064049587 7:0.012396694 8:0.070247934 9:0.066115702 10:246 11:0.50721649 12:0.078512397 
8192 1:0.072890664 2:0.083374938 3:0.068397404 4:0.083874189 5:0.066899651 6:0.057413879 7:0.0099850225 8:0.07089366 9:0.052920619 10:681 11:0.33982036 12:0.064403395 
8192 1:0.066945607 2:0.085774059 3:0.058577406 4:0.056485356 5:0.077405858 6:0.087866109 7:0.050209205 8:0.079497908 9:0.083682008 10:213 11:0.44467641 12:0.12552301 
8192 1:0.054411765 2:0.075 3:0.067647059 4:0.089705882 5:0.088235294 6:0.086764706 7:0.023529412 8:0.079411765 9:0.055882353 10:307 11:0.45080764 12:0.057352941 
8192 1:0.086666667 2:0.082222222 3:0.1 4:0.066666667 5:0.071111111 6:0.055555556 7:0.015555556 8:0.084444444 9:0.044444444 10:228 11:0.50554324 12:0.073333333 
8192 1:0.021276596 2:0.075987842 3:0.024316109 4:0.05775076 5:0.069908815 6:0.13069909 7:0.09118541 8:0.072948328 9:0.12462006 10:150 11:0.45454545 12:0.12462006 
8192 1:0.12140175 2:0.098873592 3:0.088861076 4:0.082603254 5:0.058823529 6:0.023779725 7:0.013767209 8:0.098873592 9:0.036295369 10:471 11:0.58875 12:0.050062578 
8192 1:0.044759825 2:0.096069869 3:0.055676856 4:0.06768559 5:0.061135371 6:0.077510917 7:0.032751092 8:0.079694323 9:0.070960699 10:564 11:0.61504907 12:0.079694323 
8192 1:0.040860215 2:0.08172043 3:0.027956989 4:0.077419355 5:0.08172043 6:0.10107527 7:0.034408602 8:0.075268817 9:0.08172043 10:351 11:0.75321888 12:0.10967742 
8192 1:0.1013986 2:0.097902098 3:0.041958042 4:0.083916084 5:0.090909091 6:0.066433566 7:0.020979021 8:0.094405594 9:0.048951049 10:255 11:0.88850174 12:0.055944056 
8192 1:0.042600897 2:0.076233184 3:0.040358744 4:0.062780269 5:0.076233184 6:0.10762332 7:0.056053812 8:0.076233184 9:0.085201794 10:420 11:0.93959732 12:0.085201794 
8192 1:0.053380783 2:0.06405694 3:0.042704626 4:0.096085409 5:0.12455516 6:0.067615658 7:0.042704626 8:0.060498221 9:0.078291815 10:117 11:0.41489362 12:0.085409253 
8192 1:0.051051051 2:0.072072072 3:0.066066066 4:0.096096096 5:0.069069069 6:0.09009009 7:0.024024024 8:0.06006006 9:0.072072072 10:153 11:0.45808383 12:0.066066066 
8192 1:0.077586207 2:0.10344828 3:0.051724138 4:0.094827586 5:0.10057471 6:0.057471264 7:0.020114943 8:0.074712644 9:0.097701149 10:96 11:0.27507163 12:0.086206897 
8192 1:0.082352941 2:0.10196078 3:0.074509804 4:0.062745098 5:0.08627451 6:0.050980392 7:0.0078431373 8:0.062745098 9:0.050980392 10:13 11:0.05078125 12:0.050980392 
8192 1:0.085294118 2:0.085294118 3:0.070588235 4:0.094117647 5:0.085294118 6:0.061764706 7:0.014705882 8:0.058823529 9:0.064705882 10:138 11:0.40469208 12:0.070588235 
8192 1:0.10067114 2:0.063758389 3:0.10738255 4:0.080536913 5:0.073825503 6:0.053691275 7:0.013422819 8:0.070469799 9:0.046979866 10:96 11:0.32107023 12:0.033557047 
8192 1:0.054597701 2:0.077586207 3:0.060344828 4:0.08908046 5:0.11206897 6:0.077586207 7:0.0057471264 8:0.074712644 9:0.060344828 10:126 11:0.36103152 12:0.057471264 
8192 1:0.11785714 2:0.064285714 3:0.064285714 4:0.075 5:0.082142857 6:0.053571429 7:0.010714286 8:0.060714286 9:0.046428571 10:213 11:0.75800712 12:0.046428571 
8192 1:0.088028169 2:0.080985915 3:0.042253521 4:0.056338028 5:0.091549296 6:0.077464789 7:0.014084507 8:0.091549296 9:0.042253521 10:135 11:0.47368421 12:0.070422535 
8192 1:0.048979592 2:0.075510204 3:0.048979592 4:0.07755102 5:0.11428571 6:0.065306122 7:0.0081632653 8:0.073469388 9:0.040816327 10:256 11:0.52138493 12:0.046938776 
8192 1:0.061633282 2:0.073959938 3:0.06779661 4:0.080123267 5:0.081664099 6:0.049306626 7:0.033898305 8:0.07550077 9:0.077041602 10:378 11:0.58153846 12:0.086286595 
8192 1:0.084175084 2:0.094276094 3:0.070707071 4:0.067340067 5:0.053872054 6:0.033670034 7:0 8:0.063973064 9:0.047138047 10:114 11:0.38255034 12:0.050505051 
8192 1:0.07183908 2:0.10632184 3:0.043103448 4:0.063218391 5:0.083333333 6:0.054597701 7:0.025862069 8:0.091954023 9:0.054597701 10:192 11:0.55014327 12:0.07183908 
8192 1:0.045098039 2:0.07254902 3:0.037254902 4:0.033333333 5:0.068627451 6:0.13137255 7:0.098039216 8:0.058823529 9:0.10980392 10:228 11:0.44618395 12:0.078431373 
8192 1:0.071005917 2:0.076923077 3:0.026627219 4:0.059171598 5:0.056213018 6:0.065088757 7:0.073964497 8:0.079881657 9:0.091715976 10:135 11:0.39823009 12:0.1183432 
8192 1:0.04137931 2:0.086206897 3:0.037931034 4:0.05862069 5:0.062068966 6:0.089655172 7:0.031034483 8:0.055172414 9:0.079310345 10:150 11:0.51546392 12:0.12758621 
8192 1:0.085106383 2:0.065349544 3:0.083586626 4:0.077507599 5:0.068389058 6:0.082066869 7:0.027355623 8:0.05775076 9:0.05775076 10:402 11:0.61001517 12:0.056231003 
8192 1:0.075 2:0.096875 3:0.05625 4:0.08125 5:0.090625 6:0.034375 7:0.015625 8:0.1 9:0.065625 10:90 11:0.28037383 12:0.103125 
8192 1:0.045045045 2:0.085585586 3:0.063063063 4:0.094594595 5:0.072072072 6:0.10810811 7:0.031531532 8:0.081081081 9:0.067567568 10:93 11:0.41704036 12:0.054054054 
8192 1:0.14461538 2:0.052307692 3:0.086153846 4:0.08 5:0.064615385 6:0.036923077 7:0.0092307692 8:0.064615385 9:0.04 10:129 11:0.39570552 12:0.021538462 
8192 1:0.056542811 2:0.075928918 3:0.038772213 4:0.082390953 5:0.08723748 6:0.064620355 7:0.0048465267 8:0.079159935 9:0.038772213 10:352 11:0.56774194 12:0.064620355 
8192 1:0.064655172 2:0.073275862 3:0.064655172 4:0.060344828 5:0.086206897 6:0.079741379 7:0.019396552 8:0.049568966 9:0.047413793 10:246 11:0.52903226 12:0.040948276 
8192 1:0.092093831 2:0.084274544 3:0.075586447 4:0.072980017 5:0.067767159 6:0.052128584 7:0.0086880973 8:0.070373588 9:0.034752389 10:459 11:0.3984375 12:0.06429192 
8192 1:0.035532995 2:0.076142132 3:0.081218274 4:0.076142132 5:0.13451777 6:0.078680203 7:0.025380711 8:0.055837563 9:0.07106599 10:135 11:0.34177215 12:0.055837563 
8192 1:0.053784861 2:0.079681275 3:0.049800797 4:0.09561753 5:0.10956175 6:0.077689243 7:0.019920319 8:0.087649402 9:0.055776892 10:36 11:0.071570577 12:0.057768924 
8192 1:0.15136876 2:0.078904992 3:0.080515298 4:0.053140097 5:0.048309179 6:0.035426731 7:0.0064412238 8:0.070853462 9:0.022544283 10:303 11:0.48713826 12:0.025764895 
8192 1:0.15524625 2:0.1006424 3:0.046038544 4:0.062098501 5:0.057815846 6:0.035331906 7:0.017130621 8:0.094218415 9:0.048179872 10:846 11:0.90481283 12:0.040685225 
8192 1:0.061028771 2:0.076721883 3:0.050566696 4:0.070619006 5:0.084568439 6:0.088927637 7:0.015693112 8:0.055797733 9:0.061028771 10:480 11:0.41811847 12:0.073234525 
8192 1:0.066157761 2:0.11450382 3:0.027989822 4:0.081424936 5:0.094147583 6:0.091603053 7:0.03562341 8:0.099236641 9:0.083969466 10:196 11:0.49746193 12:0.050890585 
8192 1:0.064593301 2:0.076555024 3:0.045454545 4:0.090909091 5:0.10287081 6:0.04784689 7:0.0215311 8:0.071770335 9:0.062200957 10:192 11:0.45823389 12:0.031100478 
8192 1:0.040572792 2:0.07398568 3:0.064439141 4:0.064439141 5:0.11455847 6:0.085918854 7:0.021479714 8:0.071599045 9:0.045346062 10:210 11:0.5 12:0.050119332 
8192 1:0.069486405 2:0.081570997 3:0.081570997 4:0.078549849 5:0.081570997 6:0.039274924 7:0.03021148 8:0.072507553 9:0.063444109 10:129 11:0.38855422 12:0.081570997 
8192 1:0.037356322 2:0.073275862 3:0.021551724 4:0.041666667 5:0.050287356 6:0.13218391 7:0.096264368 8:0.07183908 9:0.11781609 10:513 11:0.73601148 12:0.12931034 
8192 1:0.055072464 2:0.095652174 3:0.043478261 4:0.098550725 5:0.092753623 6:0.066666667 7:0.011594203 8:0.10144928 9:0.069565217 10:120 11:0.34682081 12:0.095652174 
8192 1:0.06162465 2:0.095238095 3:0.039215686 4:0.095238095 5:0.12605042 6:0.044817927 7:0.014005602 8:0.070028011 9:0.081232493 10:93 11:0.25977654 12:0.095238095 
8192 1:0.10734463 2:0.09039548 3:0.087570621 4:0.050847458 5:0.062146893 6:0.062146893 7:0.019774011 8:0.073446328 9:0.053672316 10:135 11:0.38028169 12:0.053672316 
8192 1:0.047897196 2:0.075934579 3:0.054906542 4:0.064836449 5:0.080607477 6:0.085864486 7:0.060747664 8:0.060163551 9:0.099299065 10:657 11:0.38353765 12:0.083528037 
8192 1:0.06712963 2:0.046296296 3:0.092592593 4:0.11574074 5:0.081018519 6:0.05787037 7:0.0023148148 8:0.055555556 9:0.046296296 10:392 11:0.90531178 12:0.064814815 
8192 1:0.0625 2:0.095703125 3:0.0703125 4:0.083984375 5:0.083984375 6:0.04296875 7:0.01953125 8:0.08984375 9:0.064453125 10:274 11:0.53411306 12:0.080078125 
8192 1:0.062162162 2:0.10810811 3:0.021621622 4:0.062162162 5:0.078378378 6:0.083783784 7:0.024324324 8:0.086486486 9:0.064864865 10:96 11:0.25876011 12:0.059459459 
8192 1:0.125 2:0.073684211 3:0.10394737 4:0.065789474 5:0.065789474 6:0.047368421 7:0.013157895 8:0.069736842 9:0.040789474 10:360 11:0.47306176 12:0.031578947 
8192 1:0.11009174 2:0.087155963 3:0.075688073 4:0.059633028 5:0.075688073 6:0.048165138 7:0.018348624 8:0.077981651 9:0.048165138 10:177 11:0.40503432 12:0.04587156 
8192 1:0.032119914 2:0.077087794 3:0.034261242 4:0.049250535 5:0.079229122 6:0.10492505 7:0.092077088 8:0.055674518 9:0.11991435 10:297 11:0.63461538 12:0.068522484 
8192 1:0.1245204 2:0.08231601 3:0.054063481 4:0.049529125 5:0.07394489 6:0.050575514 7:0.0097663062 8:0.068015347 9:0.040111615 10:960 11:0.33472803 12:0.030694105 
8192 1:0.082426128 2:0.076205288 3:0.054432348 4:0.066874028 5:0.068429238 6:0.060653188 7:0.020217729 8:0.068429238 9:0.049766719 10:329 11:0.51086957 12:0.035769829 
8192 1:0.030864198 2:0.083333333 3:0.0092592593 4:0.046296296 5:0.067901235 6:0.11419753 7:0.083333333 8:0.064814815 9:0.11419753 10:290 11:0.89230769 12:0.095679012 
8192 1:0.046511628 2:0.063424947 3:0.014799154 4:0.071881607 5:0.061310782 6:0.14164905 7:0.097251586 8:0.065539112 9:0.1205074 10:147 11:0.31012658 12:0.071881607 
8192 1:0.081967213 2:0.079234973 3:0.054644809 4:0.073770492 5:0.087431694 6:0.06284153 7:0.049180328 8:0.081967213 9:0.06557377 10:87 11:0.23705722 12:0.06010929 
8192 1:0.044213264 2:0.083224967 3:0.050715215 4:0.068920676 5:0.10013004 6:0.12353706 7:0.0091027308 8:0.050715215 9:0.071521456 10:393 11:0.51038961 12:0.075422627 
8192 1:0.027700831 2:0.060941828 3:0.060941828 4:0.088642659 5:0.12188366 6:0.13296399 7:0.019390582 8:0.058171745 9:0.074792244 10:147 11:0.40607735 12:0.072022161 
8192 1:0.061185468 2:0.087954111 3:0.051625239 4:0.066921606 5:0.06500956 6:0.082217973 7:0.021032505 8:0.07456979 9:0.055449331 10:264 11:0.50381679 12:0.10707457 
8192 1:0.084677419 2:0.084677419 3:0.052419355 4:0.072580645 5:0.076612903 6:0.048387097 7:0.0080645161 8:0.068548387 9:0.052419355 10:72 11:0.28915663 12:0.056451613 
8192 1:0.11144578 2:0.081325301 3:0.057228916 4:0.06626506 5:0.084337349 6:0.075301205 7:0.021084337 8:0.084337349 9:0.048192771 10:234 11:0.7027027 12:0.039156627 
8192 1:0.08045977 2:0.075862069 3:0.043678161 4:0.064367816 5:0.073563218 6:0.12643678 7:0.048275862 8:0.066666667 9:0.075862069 10:48 11:0.11009174 12:0.064367816 
8192 1:0.072555205 2:0.05362776 3:0.088328076 4:0.072555205 5:0.11356467 6:0.041009464 7:0.0094637224 8:0.050473186 9:0.041009464 10:132 11:0.41509434 12:0.041009464 
8192 1:0.074380165 2:0.066115702 3:0.068181818 4:0.08677686 5:0.080578512 6:0.074380165 7:0.012396694 8:0.066115702 9:0.051652893 10:309 11:0.6371134 12:0.049586777 
8192 1:0.10160428 2:0.096256684 3:0.053475936 4:0.069518717 5:0.081996435 6:0.10516934 7:0.008912656 8:0.083778966 9:0.055258467 10:297 11:0.52846975 12:0.076648841 
8192 1:0.066298343 2:0.069060773 3:0.093922652 4:0.05801105 5:0.091160221 6:0.063535912 7:0.016574586 8:0.049723757 9:0.05801105 10:266 11:0.73278237 12:0.074585635 
8192 1:0.06969697 2:0.087878788 3:0.063636364 4:0.090909091 5:0.078787879 6:0.051515152 7:0.021212121 8:0.06969697 9:0.057575758 10:153 11:0.46223565 12:0.057575758 
8192 1:0.064903846 2:0.086538462 3:0.040865385 4:0.076923077 5:0.057692308 6:0.067307692 7:0.074519231 8:0.074519231 9:0.10576923 10:180 11:0.43165468 12:0.088942308 
8192 1:0.035532995 2:0.078434583 3:0.036515474 4:0.0894056 5:0.093990503 6:0.098575405 7:0.018994596 8:0.062387424 9:0.077124611 10:2208 11:0.36149312 12:0.086949402 
8192 1:0.10227273 2:0.068181818 3:0.045454545 4:0.058441558 5:0.10064935 6:0.094155844 7:0.022727273 8:0.071428571 9:0.051948052 10:354 11:0.57374392 12:0.060064935 
8192 1:0.081043956 2:0.098901099 3:0.053571429 4:0.070054945 5:0.071428571 6:0.081043956 7:0.019230769 8:0.087912088 9:0.056318681 10:330 11:0.4526749 12:0.082417582 
8192 1:0.058455115 2:0.081419624 3:0.083507307 4:0.075156576 5:0.066805846 6:0.048016701 7:0.041753653 8:0.068893528 9:0.066805846 10:291 11:0.60625 12:0.077244259 
8192 1:0.073446328 2:0.10169492 3:0.031073446 4:0.076271186 5:0.056497175 6:0.081920904 7:0.036723164 8:0.084745763 9:0.073446328 10:20 11:0.056338028 12:0.070621469 
8192 1:0.053872054 2:0.12121212 3:0.077441077 4:0.094276094 5:0.067340067 6:0.057239057 7:0.026936027 8:0.11111111 9:0.053872054 10:42 11:0.1409396 12:0.060606061 
8192 1:0.10693069 2:0.1009901 3:0.055445545 4:0.067326733 5:0.069306931 6:0.059405941 7:0.021782178 8:0.089108911 9:0.059405941 10:300 11:0.59288538 12:0.051485149 
8192 1:0.030848329 2:0.079691517 3:0.035989717 4:0.079691517 5:0.06940874 6:0.095115681 7:0.015424165 8:0.059125964 9:0.064267352 10:249 11:0.63846154 12:0.10796915 
8192 1:0.06744868 2:0.068914956 3:0.048387097 4:0.065982405 5:0.054252199 6:0.036656891 7:0.014662757 8:0.068914956 9:0.036656891 10:348 11:0.50951684 12:0.063049853 
8192 1:0.071895425 2:0.065359477 3:0.058823529 4:0.055555556 5:0.094771242 6:0.088235294 7:0.016339869 8:0.058823529 9:0.019607843 10:87 11:0.28338762 12:0.032679739 
8192 1:0.048951049 2:0.067599068 3:0.051282051 4:0.090909091 5:0.1048951 6:0.11888112 7:0.018648019 8:0.065268065 9:0.072261072 10:189 11:0.43953488 12:0.046620047 
8192 1:0.099255583 2:0.062034739 3:0.054590571 4:0.074441687 5:0.069478908 6:0.054590571 7:0.022332506 8:0.076923077 9:0.047146402 10:195 11:0.48267327 12:0.1191067 
8192 1:0.056818182 2:0.11590909 3:0.043181818 4:0.054545455 5:0.084090909 6:0.081818182 7:0.020454545 8:0.075 9:0.072727273 10:201 11:0.45578231 12:0.084090909 
8192 1:0.058608059 2:0.098901099 3:0.065934066 4:0.073260073 5:0.06959707 6:0.080586081 7:0.021978022 8:0.095238095 9:0.054945055 10:96 11:0.35036496 12:0.065934066 
8192 1:0.10380623 2:0.083044983 3:0.083044983 4:0.089965398 5:0.07266436 6:0.058823529 7:0.010380623 8:0.079584775 9:0.048442907 10:78 11:0.26896552 12:0.034602076 
8192 1:0.096446701 2:0.098984772 3:0.043147208 4:0.076142132 5:0.063451777 6:0.045685279 7:0.017766497 8:0.088832487 9:0.050761421 10:162 11:0.41012658 12:0.060913706 
8192 1:0.065155807 2:0.079320113 3:0.076487252 4:0.101983 5:0.073654391 6:0.039660057 7:0.02266289 8:0.084985836 9:0.056657224 10:123 11:0.34745763 12:0.053824363 
8192 1:0.16725979 2:0.088967972 3:0.067615658 4:0.06405694 5:0.067615658 6:0.039145907 7:0.0071174377 8:0.067615658 9:0.035587189 10:93 11:0.32978723 12:0.060498221 
8192 1:0.037974684 2:0.088607595 3:0.044303797 4:0.10126582 5:0.082278481 6:0.060126582 7:0.034810127 8:0.088607595 9:0.07278481 10:93 11:0.29337539 12:0.044303797 
8192 1:0.07860262 2:0.091703057 3:0.03930131 4:0.069868996 5:0.069868996 6:0.093886463 7:0.013100437 8:0.074235808 9:0.045851528 10:161 11:0.35076253 12:0.065502183 
8192 1:0.079822616 2:0.068736142 3:0.062084257 4:0.064301552 5:0.073170732 6:0.075388027 7:0.050997783 8:0.055432373 9:0.086474501 10:177 11:0.39159292 12:0.066518847 
8192 1:0.064189189 2:0.087837838 3:0.094594595 4:0.081081081 5:0.064189189 6:0.043918919 7:0.0033783784 8:0.091216216 9:0.02027027 10:87 11:0.29292929 12:0.047297297 
8192 1:0.063613232 2:0.091603053 3:0.031806616 4:0.081424936 5:0.076335878 6:0.069974555 7:0.027989822 8:0.08524173 9:0.066157761 10:360 11:0.45743329 12:0.071246819 
8192 1:0.029455081 2:0.067746686 3:0.04712813 4:0.058910162 5:0.072164948 6:0.12223859 7:0.092783505 8:0.058910162 9:0.11634757 10:273 11:0.40147059 12:0.072164948 
8192 1:0.098684211 2:0.087719298 3:0.054824561 4:0.076754386 5:0.067982456 6:0.043859649 7:0.0065789474 8:0.083333333 9:0.035087719 10:210 11:0.4595186 12:0.057017544 
8192 1:0.080474934 2:0.080474934 3:0.088390501 4:0.065963061 5:0.085751979 6:0.065963061 7:0.0065963061 8:0.048812665 9:0.050131926 10:450 11:0.59288538 12:0.050131926 
8192 1:0.059332509 2:0.097651422 3:0.045735476 4:0.074165637 5:0.069221261 6:0.056860321 7:0.027194067 8:0.09394314 9:0.056860321 10:348 11:0.42962963 12:0.10506799 
8192 1:0.065849923 2:0.084226646 3:0.075038285 4:0.065849923 5:0.081163859 6:0.081163859 7:0.013782542 8:0.061255743 9:0.062787136 10:477 11:0.7293578 12:0.06431853 
8192 1:0.046686747 2:0.078313253 3:0.052710843 4:0.09939759 5:0.09939759 6:0.084337349 7:0.0060240964 8:0.061746988 9:0.069277108 10:327 11:0.49172932 12:0.069277108 
8192 1:0.13212435 2:0.14507772 3:0.056994819 4:0.025906736 5:0.056994819 6:0.067357513 7:0.033678756 8:0.10621762 9:0.080310881 10:387 11:1 12:0.028497409 
8192 1:0.039393939 2:0.063636364 3:0.057575758 4:0.10606061 5:0.11212121 6:0.060606061 7:0.024242424 8:0.087878788 9:0.066666667 10:87 11:0.26283988 12:0.06969697 
8192 1:0.092627599 2:0.075614367 3:0.083175803 4:0.09073724 5:0.075614367 6:0.052930057 7:0.0018903592 8:0.062381853 9:0.047258979 10:249 11:0.46981132 12:0.052930057 
8192 1:0.064965197 2:0.085846868 3:0.034802784 4:0.071925754 5:0.076566125 6:0.053364269 7:0.034802784 8:0.071925754 9:0.078886311 10:156 11:0.36111111 12:0.083526682 
8192 1:0.068062827 2:0.086387435 3:0.089005236 4:0.09947644 5:0.060209424 6:0.057591623 7:0.0052356021 8:0.068062827 9:0.052356021 10:183 11:0.47780679 12:0.062827225 
8192 1:0.06655574 2:0.069883527 3:0.056572379 4:0.063227953 5:0.044925125 6:0.064891847 7:0.096505824 8:0.068219634 9:0.12146423 10:354 11:0.58803987 12:0.11647255 
8192 1:0.087330873 2:0.066420664 3:0.081180812 4:0.084870849 5:0.094710947 6:0.076260763 7:0.011070111 8:0.056580566 9:0.057810578 10:393 11:0.48280098 12:0.036900369 
8192 1:0.056179775 2:0.06741573 3:0.056179775 4:0.097378277 5:0.08988764 6:0.082397004 7:0.0037453184 8:0.048689139 9:0.06741573 10:150 11:0.55970149 12:0.071161049 
8192 1:0.03875969 2:0.090439276 3:0.046511628 4:0.10077519 5:0.095607235 6:0.074935401 7:0.010335917 8:0.067183463 9:0.07751938 10:117 11:0.30154639 12:0.16020672 
8192 1:0.0997151 2:0.074074074 3:0.056980057 4:0.056980057 5:0.056980057 6:0.085470085 7:0.065527066 8:0.074074074 9:0.082621083 10:60 11:0.17045455 12:0.0997151 
8192 1:0.051679587 2:0.074935401 3:0.054263566 4:0.090439276 5:0.07751938 6:0.095607235 7:0.025839793 8:0.059431525 9:0.072351421 10:142 11:0.36597938 12:0.074935401 
8192 1:0.050746269 2:0.10149254 3:0.014925373 4:0.098507463 5:0.059701493 6:0.092537313 7:0.017910448 8:0.10447761 9:0.065671642 10:168 11:0.5 12:0.11044776 
8192 1:0.054347826 2:0.072463768 3:0.072463768 4:0.086956522 5:0.086956522 6:0.083333333 7:0.018115942 8:0.065217391 9:0.057971014 10:165 11:0.59566787 12:0.076086957 
8192 1:0.073839662 2:0.067510549 3:0.073839662 4:0.088607595 5:0.078059072 6:0.061181435 7:0.025316456 8:0.050632911 9:0.052742616 10:258 11:0.54315789 12:0.071729958 
8192 1:0.064587973 2:0.10467706 3:0.046770601 4:0.075723831 5:0.069042316 6:0.071269488 7:0.042316258 8:0.08908686 9:0.086859688 10:60 11:0.13333333 12:0.11804009 
8192 1:0.082278481 2:0.10759494 3:0.042194093 4:0.088607595 5:0.073839662 6:0.046413502 7:0.02742616 8:0.094936709 9:0.075949367 10:198 11:0.41684211 12:0.10126582 
8192 1:0.069879518 2:0.1060241 3:0.043373494 4:0.091566265 5:0.065060241 6:0.065060241 7:0.0048192771 8:0.096385542 9:0.06746988 10:126 11:0.30288462 12:0.081927711 
8192 1:0.072687225 2:0.077092511 3:0.061674009 4:0.085903084 5:0.10352423 6:0.074889868 7:0.019823789 8:0.072687225 9:0.052863436 10:186 11:0.40879121 12:0.063876652 
8192 1:0.067901235 2:0.12345679 3:0.027777778 4:0.086419753 5:0.046296296 6:0.027777778 7:0.024691358 8:0.10185185 9:0.083333333 10:141 11:0.43384615 12:0.11111111 
8192 1:0.046780073 2:0.065613609 3:0.037667072 4:0.14459295 5:0.051032807 6:0.069866343 7:0.046172539 8:0.048602673 9:0.080801944 10:486 11:0.29508197 12:0.054678007 
8192 1:0.085253456 2:0.080645161 3:0.052995392 4:0.048387097 5:0.096774194 6:0.069124424 7:0.025345622 8:0.071428571 9:0.048387097 10:39 11:0.089655172 12:0.041474654 
8192 1:0.047619048 2:0.075757576 3:0.084415584 4:0.086580087 5:0.10822511 6:0.064935065 7:0.012987013 8:0.047619048 9:0.084415584 10:210 11:0.45356371 12:0.047619048 
8192 1:0.069466882 2:0.085621971 3:0.04361874 4:0.066235864 5:0.053311793 6:0.075928918 7:0.02907916 8:0.077544426 9:0.054927302 10:360 11:0.58064516 12:0.080775444 
8192 1:0.1031746 2:0.087301587 3:0.047619048 4:0.066137566 5:0.087301587 6:0.044973545 7:0.0052910053 8:0.076719577 9:0.044973545 10:159 11:0.41952507 12:0.063492063 
8192 1:0.058461538 2:0.098461538 3:0.049230769 4:0.086153846 5:0.086153846 6:0.061538462 7:0.015384615 8:0.061538462 9:0.08 10:116 11:0.35582822 12:0.10769231 
8192 1:0.083623693 2:0.080139373 3:0.087108014 4:0.080139373 5:0.069686411 6:0.06271777 7:0.0034843206 8:0.059233449 9:0.073170732 10:126 11:0.4375 12:0.024390244 
8192 1:0.076595745 2:0.080851064 3:0.034042553 4:0.063829787 5:0.093617021 6:0.080851064 7:0.017021277 8:0.076595745 9:0.05106383 10:18 11:0.076271186 12:0.042553191 
8192 1:0.05800464 2:0.078886311 3:0.039443155 4:0.062645012 5:0.069605568 6:0.092807425 7:0.044083527 8:0.071925754 9:0.071925754 10:102 11:0.23611111 12:0.090487239 
8192 1:0.048625793 2:0.063424947 3:0.046511628 4:0.10993658 5:0.10993658 6:0.086680761 7:0.025369979 8:0.050739958 9:0.095137421 10:249 11:0.52531646 12:0.067653277 
8192 1:0.1440678 2:0.079096045 3:0.059322034 4:0.048022599 5:0.053672316 6:0.062146893 7:0.011299435 8:0.06779661 9:0.048022599 10:306 11:0.86197183 12:0.059322034 
8192 1:0.080260304 2:0.088937093 3:0.097613883 4:0.082429501 5:0.078091106 6:0.043383948 7:0.015184382 8:0.071583514 9:0.065075922 10:222 11:0.48051948 12:0.047722343 
8192 1:0.02739726 2:0.049315068 3:0.0082191781 4:0.035616438 5:0.076712329 6:0.1260274 7:0.14246575 8:0.068493151 9:0.14246575 10:366 11:1 12:0.093150685 
8192 1:0.047858942 2:0.085642317 3:0.055415617 4:0.078085642 5:0.088161209 6:0.083123426 7:0.027707809 8:0.070528967 9:0.070528967 10:65 11:0.16331658 12:0.070528967 
8192 1:0.08372093 2:0.060465116 3:0.08372093 4:0.093023256 5:0.065116279 6:0.055813953 7:0.013953488 8:0.065116279 9:0.041860465 10:99 11:0.45833333 12:0.065116279 
8192 1:0.064794816 2:0.082073434 3:0.060475162 4:0.075593952 5:0.084233261 6:0.05399568 7:0.021598272 8:0.079913607 9:0.058315335 10:180 11:0.38793103 12:0.073434125 
8192 1:0.049180328 2:0.081967213 3:0.079234973 4:0.081967213 5:0.079234973 6:0.054644809 7:0.038251366 8:0.068306011 9:0.06010929 10:53 11:0.14441417 12:0.073770492 
8192 1:0.065902579 2:0.10028653 3:0.034383954 4:0.077363897 5:0.088825215 6:0.06017192 7:0.014326648 8:0.088825215 9:0.051575931 10:44 11:0.12571429 12:0.071633238 
8192 1:0.053169734 2:0.073619632 3:0.069529652 4:0.065439673 5:0.10429448 6:0.085889571 7:0.014314928 8:0.057259714 9:0.063394683 10:279 11:0.56938776 12:0.065439673 
8192 1:0.070175439 2:0.096491228 3:0.026315789 4:0.078947368 5:0.061403509 6:0.070175439 7:0.038011696 8:0.090643275 9:0.076023392 10:78 11:0.22740525 12:0.052631579 
8192 1:0.097122302 2:0.050359712 3:0.075539568 4:0.082733813 5:0.097122302 6:0.04676259 7:0 8:0.075539568 9:0.032374101 10:234 11:0.83870968 12:0.050359712 
8192 1:0.062289562 2:0.089225589 3:0.052188552 4:0.074074074 5:0.080808081 6:0.070707071 7:0.013468013 8:0.079124579 9:0.057239057 10:303 11:0.5092437 12:0.045454545 
8192 1:0.10141509 2:0.099056604 3:0.073113208 4:0.063679245 5:0.056603774 6:0.037735849 7:0.016509434 8:0.099056604 9:0.044811321 10:207 11:0.48705882 12:0.061320755 
8192 1:0.093247588 2:0.083601286 3:0.064308682 4:0.067524116 5:0.048231511 6:0.025723473 7:0.025723473 8:0.077170418 9:0.045016077 10:93 11:0.29807692 12:0.061093248 
8192 1:0.10057471 2:0.083333333 3:0.057471264 4:0.063218391 5:0.066091954 6:0.08045977 7:0.014367816 8:0.07183908 9:0.063218391 10:111 11:0.31805158 12:0.060344828 
8192 1:0.085106383 2:0.055319149 3:0.089361702 4:0.089361702 5:0.080851064 6:0.059574468 7:0.025531915 8:0.074468085 9:0.046808511 10:324 11:0.68789809 12:0.055319149 
8192 1:0.070422535 2:0.077464789 3:0.073943662 4:0.091549296 5:0.084507042 6:0.073943662 7:0.01056338 8:0.070422535 9:0.066901408 10:102 11:0.35789474 12:0.059859155 
8192 1:0.044554455 2:0.1039604 3:0.02970297 4:0.079207921 5:0.069306931 6:0.054455446 7:0.01980198 8:0.059405941 9:0.074257426 10:87 11:0.42857143 12:0.1039604 
8192 1:0.041900648 2:0.076889849 3:0.049676026 4:0.085097192 5:0.081209503 6:0.094600432 7:0.031965443 8:0.069978402 9:0.068682505 10:1341 11:0.57901554 12:0.066090713 
8192 1:0.069444444 2:0.059027778 3:0.045138889 4:0.054398148 5:0.059606481 6:0.10763889 7:0.092592593 8:0.056134259 9:0.10648148 10:555 11:0.32099479 12:0.06712963 
8192 1:0.090909091 2:0.1010101 3:0.045454545 4:0.083333333 5:0.068181818 6:0.045454545 7:0.0075757576 8:0.078282828 9:0.063131313 10:156 11:0.3929471 12:0.078282828 
8192 1:0.057649667 2:0.093126386 3:0.082039911 4:0.073170732 5:0.077605322 6:0.066518847 7:0.019955654 8:0.079822616 9:0.064301552 10:183 11:0.40486726 12:0.044345898 
8192 1:0.056463596 2:0.09063893 3:0.056463596 4:0.084695394 5:0.086181278 6:0.08320951 7:0.031203566 8:0.084695394 9:0.068350669 10:330 11:0.48961424 12:0.087667162 
8192 1:0.17337461 2:0.086687307 3:0.046439628 4:0.068111455 5:0.040247678 6:0.046439628 7:0.012383901 8:0.095975232 9:0.043343653 10:135 11:0.41666667 12:0.058823529 
8192 1:0.063888889 2:0.1125 3:0.052777778 4:0.0625 5:0.076388889 6:0.076388889 7:0.016666667 8:0.088888889 9:0.068055556 10:324 11:0.44937587 12:0.069444444 
8192 1:0.10344828 2:0.094508301 3:0.043422733 4:0.079182631 5:0.075351213 6:0.066411239 7:0.014048531 8:0.094508301 9:0.035759898 10:459 11:0.58545918 12:0.088122605 
8192 1:0.12449256 2:0.071718539 3:0.10419486 4:0.064952639 5:0.056833559 6:0.048714479 7:0.028416779 8:0.069012179 9:0.051420839 10:360 11:0.48648649 12:0.048714479 
8192 1:0.096202532 2:0.070886076 3:0.083544304 4:0.070886076 5:0.065822785 6:0.063291139 7:0.037974684 8:0.065822785 9:0.070886076 10:245 11:0.61868687 12:0.050632911 
8192 1:0.05800464 2:0.085846868 3:0.067285383 4:0.071925754 5:0.085846868 6:0.05800464 7:0.011600928 8:0.07424594 9:0.027842227 10:15 11:0.034722222 12:0.060324826 
8192 1:0.031007752 2:0.082687339 3:0.051679587 4:0.072351421 5:0.093023256 6:0.11886305 7:0.010335917 8:0.074935401 9:0.049095607 10:123 11:0.31701031 12:0.069767442 
8192 1:0.036324786 2:0.076923077 3:0.02991453 4:0.074786325 5:0.083333333 6:0.12606838 7:0.044871795 8:0.053418803 9:0.096153846 10:394 11:0.84008529 12:0.091880342 
8192 1:0.067251462 2:0.078947368 3:0.076023392 4:0.078947368 5:0.064327485 6:0.090643275 7:0.049707602 8:0.084795322 9:0.061403509 10:61 11:0.17784257 12:0.064327485 
8192 1:0.066465257 2:0.057401813 3:0.081570997 4:0.096676737 5:0.096676737 6:0.096676737 7:0.018126888 8:0.051359517 9:0.048338369 10:48 11:0.14457831 12:0.063444109 
8192 1:0.15116279 2:0.061627907 3:0.034883721 4:0.079069767 5:0.055813953 6:0.05 7:0.0093023256 8:0.06627907 9:0.045348837 10:831 11:0.96515679 12:0.031395349 
8192 1:0.045889101 2:0.093690249 3:0.03250478 4:0.070745698 5:0.086042065 6:0.12237094 7:0.04206501 8:0.076481836 9:0.089866157 10:335 11:0.63931298 12:0.043977055 
8192 1:0.050649351 2:0.072727273 3:0.077922078 4:0.090909091 5:0.087012987 6:0.084415584 7:0.015584416 8:0.057142857 9:0.05974026 10:351 11:0.45525292 12:0.081818182 
8192 1:0.064581231 2:0.086781029 3:0.054490414 4:0.074672048 5:0.083753784 6:0.074672048 7:0.020181635 8:0.072653885 9:0.057517659 10:519 11:0.52318548 12:0.079717457 
8192 1:0.083333333 2:0.083333333 3:0.072695035 4:0.095744681 5:0.069148936 6:0.05141844 7:0.0053191489 8:0.093971631 9:0.046099291 10:336 11:0.59469027 12:0.065602837 
8192 1:0.074747475 2:0.082828283 3:0.074747475 4:0.068686869 5:0.07979798 6:0.070707071 7:0.029292929 8:0.071717172 9:0.065656566 10:462 11:0.46619576 12:0.075757576 
8192 1:0.11438596 2:0.086315789 3:0.082807018 4:0.080701754 5:0.069473684 6:0.042105263 7:0.0077192982 8:0.083508772 9:0.036491228 10:1297 11:0.90953717 12:0.060350877 
8192 1:0.091549296 2:0.11619718 3:0.038732394 4:0.049295775 5:0.063380282 6:0.056338028 7:0.021126761 8:0.084507042 9:0.052816901 10:159 11:0.55789474 12:0.095070423 
8192 1:0.078873239 2:0.095774648 3:0.076056338 4:0.098591549 5:0.05915493 6:0.036619718 7:0.011267606 8:0.10985915 9:0.025352113 10:115 11:0.32303371 12:0.090140845 
8192 1:0.12556054 2:0.089686099 3:0.053811659 4:0.078475336 5:0.067264574 6:0.053811659 7:0.015695067 8:0.080717489 9:0.040358744 10:225 11:0.5033557 12:0.047085202 
8192 1:0.025773196 2:0.054123711 3:0.041237113 4:0.087628866 5:0.097938144 6:0.15206186 7:0.041237113 8:0.036082474 9:0.097938144 10:271 11:0.6966581 12:0.067010309 
